# 2:1 
0 -0.32757607 
1 -0.32748005 
2 -0.3273159 
3 -0.32732555 
4 -0.32746395 
5 -0.32755515 
6 -0.3274559 
7 -0.327413 
8 -0.32736954 
9 -0.32732394 
10 -0.32738832 
11 -0.32731482 
12 -0.32722095 
13 -0.32726815 
14 -0.32726386 
15 -0.32723114 
16 -0.3271453 
17 -0.32701978 
18 -0.3269275 
19 -0.32684812 
20 -0.32676336 
21 -0.32664964 
22 -0.32668397 
23 -0.32668987 
24 -0.3266872 
25 -0.32662174 
26 -0.32646188 
27 -0.3264549 
28 -0.3265638 
29 -0.32675317 
30 -0.32667592 
31 -0.32646778 
32 -0.32649407 
33 -0.326552 
34 -0.3265638 
35 -0.32660297 
36 -0.32668558 
37 -0.32667217 
38 -0.3266786 
39 -0.32662013 
40 -0.3266094 
41 -0.3265418 
42 -0.32655147 
43 -0.32654664 
44 -0.32655415 
45 -0.32642648 
46 -0.32632884 
47 -0.32620814 
48 -0.32616255 
49 -0.32611856 
50 -0.32614216 
51 -0.32614538 
52 -0.32606706 
53 -0.3260413 
54 -0.32612446 
55 -0.32623282 
56 -0.32632884 
57 -0.32646134 
58 -0.32640502 
59 -0.32640716 
60 -0.3263696 
61 -0.32633314 
62 -0.32633582 
63 -0.3262811 
64 -0.32616362 
65 -0.3261132 
66 -0.3260531 
67 -0.32597587 
68 -0.32596567 
69 -0.32598767 
70 -0.32611105 
71 -0.32617596 
72 -0.32616255 
73 -0.32616147 
74 -0.3261266 
75 -0.32612768 
76 -0.32624248 
77 -0.32639214 
78 -0.3263916 
79 -0.32630363 
80 -0.32615343 
81 -0.3261325 
82 -0.32615182 
83 -0.3261089 
84 -0.32592866 
85 -0.32571033 
86 -0.3256642 
87 -0.32559606 
88 -0.3253568 
89 -0.3253273 
90 -0.3255612 
91 -0.3256953 
92 -0.32561538 
93 -0.3255982 
94 -0.32566634 
95 -0.32574305 
96 -0.32574412 
97 -0.32573393 
98 -0.3258058 
99 -0.32597265 
100 -0.32604077 
101 -0.32602683 
102 -0.32597747 
103 -0.32596943 
104 -0.32594582 
105 -0.32595226 
106 -0.3259147 
107 -0.3258879 
108 -0.32604882 
109 -0.32620975 
110 -0.32610944 
111 -0.32596675 
112 -0.32590023 
113 -0.32587287 
114 -0.32597694 
115 -0.32607242 
116 -0.32616898 
117 -0.32613572 
118 -0.32605043 
119 -0.32607135 
120 -0.32611266 
121 -0.32614163 
122 -0.32619098 
123 -0.32627413 
124 -0.32625642 
125 -0.32620493 
126 -0.32613358 
127 -0.32613143 
128 -0.32621565 
129 -0.32625428 
130 -0.3261808 
131 -0.32611963 
132 -0.32599625 
133 -0.32598445 
134 -0.32589218 
135 -0.3258895 
136 -0.32589433 
137 -0.32592383 
138 -0.3260118 
139 -0.3260794 
140 -0.32605794 
141 -0.32582298 
142 -0.3256615 
143 -0.32569745 
144 -0.32558158 
145 -0.32539544 
146 -0.3252994 
147 -0.32548824 
148 -0.325676 
149 -0.32585517 
150 -0.32586375 
151 -0.32584444 
152 -0.32590505 
153 -0.32585517 
154 -0.3257908 
155 -0.32581386 
156 -0.32574198 
157 -0.32557514 
158 -0.3254775 
159 -0.32544425 
160 -0.32540563 
161 -0.32528976 
162 -0.32523236 
163 -0.3252286 
164 -0.32523236 
165 -0.32520393 
166 -0.32510522 
167 -0.325065 
168 -0.32504728 
169 -0.32520714 
170 -0.32536593 
171 -0.32554135 
172 -0.325691 
173 -0.3257468 
174 -0.32577202 
175 -0.32574466 
176 -0.32562932 
177 -0.32552418 
178 -0.3254051 
179 -0.32526776 
180 -0.32526025 
181 -0.32537612 
182 -0.32535788 
183 -0.3253874 
184 -0.3254228 
185 -0.32536379 
186 -0.32525596 
187 -0.32527795 
188 -0.3253477 
189 -0.32531765 
190 -0.3254346 
191 -0.32542816 
192 -0.32537827 
193 -0.32542494 
194 -0.32551828 
195 -0.32556066 
196 -0.3255333 
197 -0.325514 
198 -0.32554564 
199 -0.32557622 
200 -0.32552096 
201 -0.32542977 
202 -0.32549736 
203 -0.32552633 
204 -0.32542118 
205 -0.3253477 
206 -0.32518247 
207 -0.32513955 
208 -0.32520285 
209 -0.32518515 
210 -0.32499954 
211 -0.3249974 
212 -0.32497057 
213 -0.325043 
214 -0.32508752 
215 -0.32508108 
216 -0.3250462 
217 -0.32502475 
218 -0.32514867 
219 -0.3250462 
220 -0.3251197 
221 -0.32535037 
222 -0.3254008 
223 -0.32527903 
224 -0.32523772 
225 -0.32513687 
226 -0.32492766 
227 -0.3248928 
228 -0.3249062 
229 -0.32483378 
230 -0.32481608 
231 -0.32481554 
232 -0.3249078 
233 -0.3249797 
234 -0.3249931 
235 -0.32507357 
236 -0.32500437 
237 -0.32488582 
238 -0.3249239 
239 -0.3250167 
240 -0.325043 
241 -0.3250328 
242 -0.32497862 
243 -0.32490566 
244 -0.32490888 
245 -0.324859 
246 -0.32484022 
247 -0.3248928 
248 -0.3250387 
249 -0.3251476 
250 -0.3251433 
251 -0.32489225 
252 -0.32466802 
253 -0.32480803 
254 -0.32491693 
255 -0.3247603 
256 -0.32456663 
257 -0.32447812 
258 -0.32469591 
259 -0.32494804 
260 -0.32497218 
261 -0.3248252 
262 -0.32463905 
263 -0.32459828 
264 -0.32460472 
265 -0.3245087 
266 -0.3245146 
267 -0.32475707 
268 -0.32489923 
269 -0.3250591 
270 -0.32513043 
271 -0.32485363 
272 -0.3245248 
273 -0.32454517 
274 -0.32485953 
275 -0.32494214 
276 -0.3249475 
277 -0.3251004 
278 -0.32520393 
279 -0.32522538 
280 -0.32520553 
281 -0.3252801 
282 -0.32526883 
283 -0.32508913 
284 -0.3249872 
285 -0.3249357 
286 -0.32501456 
287 -0.32500276 
288 -0.32481876 
289 -0.3247088 
290 -0.3245146 
291 -0.32444915 
292 -0.32454088 
293 -0.3246605 
294 -0.32473293 
295 -0.32471845 
296 -0.32470825 
297 -0.3246605 
298 -0.32457736 
299 -0.32462618 
300 -0.3247989 
301 -0.32491854 
302 -0.32488206 
303 -0.32489976 
304 -0.3249003 
305 -0.32482734 
306 -0.3247533 
307 -0.32461384 
308 -0.32450494 
309 -0.32446256 
310 -0.32457897 
311 -0.32462725 
312 -0.3247383 
313 -0.32481125 
314 -0.3247474 
315 -0.3246219 
316 -0.3246337 
317 -0.32465193 
318 -0.32469055 
319 -0.32468197 
320 -0.32466266 
321 -0.32460847 
322 -0.32463476 
323 -0.32460096 
324 -0.32459936 
325 -0.32454678 
326 -0.3244411 
327 -0.3244057 
328 -0.32446364 
329 -0.32449743 
330 -0.32465515 
331 -0.32462725 
332 -0.32462832 
333 -0.32467017 
334 -0.32454732 
335 -0.3246219 
336 -0.324697 
337 -0.32464227 
338 -0.32458004 
339 -0.32451567 
340 -0.32448295 
341 -0.32435635 
342 -0.32445076 
343 -0.32454732 
344 -0.32458434 
345 -0.3245586 
346 -0.32450923 
347 -0.32444862 
348 -0.32441643 
349 -0.32436278 
350 -0.3242335 
351 -0.32408813 
352 -0.3241128 
353 -0.32412353 
354 -0.32422385 
355 -0.3242083 
356 -0.32423404 
357 -0.32429895 
358 -0.3243837 
359 -0.32441482 
360 -0.32441428 
361 -0.32436708 
362 -0.32435957 
363 -0.32428232 
364 -0.32428232 
365 -0.32432148 
366 -0.32435527 
367 -0.3243526 
368 -0.32428822 
369 -0.32433596 
370 -0.3245001 
371 -0.32454035 
372 -0.32445666 
373 -0.3244647 
374 -0.32452425 
375 -0.32445773 
376 -0.3243011 
377 -0.3242233 
378 -0.3243086 
379 -0.32436332 
380 -0.32430217 
381 -0.32413372 
382 -0.32411495 
383 -0.3241836 
384 -0.3242083 
385 -0.32417664 
386 -0.3242893 
387 -0.3243998 
388 -0.32450065 
389 -0.32454142 
390 -0.32461223 
391 -0.32464764 
392 -0.32457092 
393 -0.3245398 
394 -0.32453498 
395 -0.32441053 
396 -0.32435098 
397 -0.3243054 
398 -0.32423458 
399 -0.32420722 
400 -0.32433596 
401 -0.3244379 
402 -0.32424745 
403 -0.3241026 
404 -0.3241273 
405 -0.32429412 
406 -0.32441697 
407 -0.32441482 
408 -0.32444432 
409 -0.32444808 
410 -0.32445022 
411 -0.3243805 
412 -0.32441106 
413 -0.32434455 
414 -0.32435152 
415 -0.32439122 
416 -0.32440624 
417 -0.32430378 
418 -0.3243161 
419 -0.3243805 
420 -0.32440355 
421 -0.3243161 
422 -0.32424477 
423 -0.324263 
424 -0.32423297 
425 -0.3242233 
426 -0.32409188 
427 -0.32398888 
428 -0.3240275 
429 -0.3241364 
430 -0.3240511 
431 -0.3240302 
432 -0.32406077 
433 -0.32412568 
434 -0.32407364 
435 -0.32410958 
436 -0.32430056 
437 -0.32422867 
438 -0.32422492 
439 -0.3242732 
440 -0.32418844 
441 -0.32428768 
442 -0.32432148 
443 -0.32420883 
444 -0.3241085 
445 -0.32403716 
446 -0.32394704 
447 -0.3239406 
448 -0.32394972 
449 -0.32403126 
450 -0.32404897 
451 -0.32405326 
452 -0.32400605 
453 -0.32387623 
454 -0.3238285 
455 -0.32373086 
456 -0.3236901 
457 -0.32373032 
458 -0.32388213 
459 -0.32404575 
460 -0.3241112 
461 -0.3241203 
462 -0.32420722 
463 -0.32432416 
464 -0.32445613 
465 -0.32451084 
466 -0.3244969 
467 -0.32437727 
468 -0.3243526 
469 -0.3243719 
470 -0.32427964 
471 -0.32418683 
472 -0.32410797 
473 -0.32410905 
474 -0.3241525 
475 -0.32410207 
476 -0.32393417 
477 -0.32390037 
478 -0.32390574 
479 -0.3239449 
480 -0.32404253 
481 -0.32414123 
482 -0.3242512 
483 -0.32442984 
484 -0.32450548 
485 -0.32450333 
486 -0.32448724 
487 -0.32448187 
488 -0.3244749 
489 -0.3244765 
490 -0.32428232 
491 -0.32417396 
492 -0.32418576 
493 -0.32412407 
494 -0.324042 
495 -0.32400337 
496 -0.32391915 
497 -0.32389393 
498 -0.32403877 
499 -0.32406023 
500 -0.32399693 
501 -0.32407418 
502 -0.32427374 
503 -0.32433757 
504 -0.32445934 
505 -0.32455483 
506 -0.32449314 
507 -0.32447866 
508 -0.3244985 
509 -0.3245307 
510 -0.3244733 
511 -0.32424584 
512 -0.32426408 
513 -0.3243939 
514 -0.32439068 
515 -0.32435045 
516 -0.32422975 
517 -0.32413372 
518 -0.32409242 
519 -0.32407847 
520 -0.32405916 
521 -0.32398513 
522 -0.32392558 
523 -0.32397386 
524 -0.32402053 
525 -0.3239685 
526 -0.3240581 
527 -0.3240629 
528 -0.3240216 
529 -0.32411495 
530 -0.32420292 
531 -0.32420453 
532 -0.32419434 
533 -0.324241 
534 -0.32426086 
535 -0.32422706 
536 -0.32418576 
537 -0.324064 
538 -0.3240318 
539 -0.32397118 
540 -0.32385907 
541 -0.32373032 
542 -0.3235812 
543 -0.3235769 
544 -0.3236681 
545 -0.32375285 
546 -0.32375553 
547 -0.32367185 
548 -0.32372496 
549 -0.32384458 
550 -0.3239685 
551 -0.32404307 
552 -0.32410368 
553 -0.32414284 
554 -0.32421955 
555 -0.3241541 
556 -0.32405862 
557 -0.32392022 
558 -0.32380542 
559 -0.32386175 
560 -0.32377967 
561 -0.3237094 
562 -0.32372656 
563 -0.323711 
564 -0.3236799 
565 -0.32366702 
566 -0.32360426 
567 -0.3235694 
568 -0.32364985 
569 -0.3237711 
570 -0.32375982 
571 -0.32372978 
572 -0.32377002 
573 -0.32395402 
574 -0.3241128 
575 -0.3241407 
576 -0.3242394 
577 -0.32428285 
578 -0.32422492 
579 -0.32410422 
580 -0.32403448 
581 -0.32402536 
582 -0.3240007 
583 -0.32388803 
584 -0.32370993 
585 -0.3233972 
586 -0.32324484 
587 -0.3231118 
588 -0.3231118 
589 -0.3231735 
590 -0.3233312 
591 -0.32351467 
592 -0.32354632 
593 -0.32358494 
594 -0.32368955 
595 -0.32382903 
596 -0.32390144 
597 -0.32390788 
598 -0.32393953 
599 -0.32401034 
600 -0.32410422 
601 -0.32414982 
602 -0.32419273 
603 -0.32416 
604 -0.32420507 
605 -0.32423672 
606 -0.32423887 
607 -0.32413533 
608 -0.32395723 
609 -0.32396635 
610 -0.3238183 
611 -0.3236536 
612 -0.32356992 
613 -0.32355168 
614 -0.323387 
615 -0.3232974 
616 -0.3232942 
617 -0.32331404 
618 -0.32340416 
619 -0.3234605 
620 -0.32351574 
621 -0.32349804 
622 -0.32348356 
623 -0.32352218 
624 -0.3238183 
625 -0.32395294 
626 -0.32400122 
627 -0.32414016 
628 -0.32416537 
629 -0.3240613 
630 -0.3239363 
631 -0.32387087 
632 -0.32384244 
633 -0.3239068 
634 -0.32386926 
635 -0.32392183 
636 -0.32392558 
637 -0.32394597 
638 -0.32410368 
639 -0.32417235 
640 -0.32414714 
641 -0.3241128 
642 -0.32401088 
643 -0.32391378 
644 -0.32383063 
645 -0.32375446 
646 -0.32379684 
647 -0.32376465 
648 -0.3237196 
649 -0.32373783 
650 -0.32376626 
651 -0.32365093 
652 -0.32379684 
653 -0.32406184 
654 -0.32416055 
655 -0.32422385 
656 -0.32420883 
657 -0.32413265 
658 -0.32413372 
659 -0.3243027 
660 -0.32421258 
661 -0.3241289 
662 -0.3240055 
663 -0.32377538 
664 -0.32379845 
665 -0.3238918 
666 -0.32384673 
667 -0.32388213 
668 -0.3239331 
669 -0.3239095 
670 -0.32399908 
671 -0.32419756 
672 -0.32435742 
673 -0.32439283 
674 -0.32437137 
675 -0.3242469 
676 -0.32409832 
677 -0.3241423 
678 -0.3241085 
679 -0.32403395 
680 -0.32397225 
681 -0.32391968 
682 -0.3238612 
683 -0.32375178 
684 -0.32371905 
685 -0.3238167 
686 -0.32391754 
687 -0.32391217 
688 -0.32386228 
689 -0.32395992 
690 -0.32408383 
691 -0.32410207 
692 -0.3241954 
693 -0.32431182 
694 -0.3244454 
695 -0.32448348 
696 -0.3243794 
697 -0.32426247 
698 -0.32423833 
699 -0.32425603 
700 -0.32422492 
701 -0.32419434 
702 -0.32403448 
703 -0.3238612 
704 -0.3236842 
705 -0.3236842 
706 -0.32369277 
707 -0.32371423 
708 -0.3237829 
709 -0.32380113 
710 -0.32386175 
711 -0.32396635 
712 -0.3240731 
713 -0.3240629 
714 -0.32427427 
715 -0.32441965 
716 -0.3243499 
717 -0.32438102 
718 -0.3243145 
719 -0.3241509 
720 -0.32410797 
721 -0.32432577 
722 -0.32437137 
723 -0.3243043 
724 -0.32407847 
725 -0.32402107 
726 -0.32414874 
727 -0.32395563 
728 -0.32369867 
729 -0.32418737 
730 -0.32465032 
731 -0.3248901 
732 -0.324977 
733 -0.32482466 
734 -0.32470664 
735 -0.3245704 
736 -0.32440302 
737 -0.32423994 
738 -0.3241965 
739 -0.3243263 
740 -0.3243585 
741 -0.32428125 
742 -0.324248 
743 -0.32428983 
744 -0.32432953 
745 -0.3242115 
746 -0.3241568 
747 -0.32406238 
748 -0.32406238 
749 -0.3241321 
750 -0.3241069 
751 -0.3240967 
752 -0.32413694 
753 -0.3242024 
754 -0.32416967 
755 -0.32406828 
756 -0.3240511 
757 -0.32419434 
758 -0.32445934 
759 -0.3245602 
760 -0.32450923 
761 -0.3245071 
762 -0.32454786 
763 -0.32462296 
764 -0.32469591 
765 -0.32473776 
766 -0.32473615 
767 -0.32467768 
768 -0.32454303 
769 -0.32444325 
770 -0.32457092 
771 -0.3245634 
772 -0.32456985 
773 -0.32444862 
774 -0.3243805 
775 -0.32405862 
776 -0.32393095 
777 -0.3238832 
778 -0.3239508 
779 -0.32400498 
780 -0.32410315 
781 -0.32426944 
782 -0.32429627 
783 -0.32437512 
784 -0.324513 
785 -0.32450548 
786 -0.32453176 
787 -0.32448724 
788 -0.32439497 
789 -0.32435742 
790 -0.32433006 
791 -0.32428285 
792 -0.32418147 
793 -0.32415357 
794 -0.3239862 
795 -0.323998 
796 -0.324101 
797 -0.324079 
798 -0.3242115 
799 -0.32449314 
800 -0.3246782 
801 -0.32480052 
802 -0.32472542 
803 -0.32458165 
804 -0.32458648 
805 -0.32461813 
806 -0.32444486 
807 -0.32449582 
808 -0.32473132 
809 -0.32484236 
810 -0.32489923 
811 -0.32491586 
812 -0.3249856 
813 -0.32511273 
814 -0.32510576 
815 -0.32495984 
816 -0.32473293 
817 -0.32455483 
818 -0.32455 
819 -0.32467875 
820 -0.32484236 
821 -0.32483003 
822 -0.32455644 
823 -0.32435367 
824 -0.32443145 
825 -0.32458863 
826 -0.32471415 
827 -0.3246074 
828 -0.32446632 
829 -0.3245763 
830 -0.3245795 
831 -0.32477745 
832 -0.32501617 
833 -0.32493463 
834 -0.32500705 
835 -0.32495663 
836 -0.32483217 
837 -0.32482198 
838 -0.32464442 
839 -0.32434562 
840 -0.3240817 
841 -0.32404467 
842 -0.32408223 
843 -0.32431772 
844 -0.3246176 
845 -0.3248531 
846 -0.32500812 
847 -0.32501295 
848 -0.32491317 
849 -0.32483485 
850 -0.32479194 
851 -0.32490245 
852 -0.32488957 
853 -0.32480106 
854 -0.32479784 
855 -0.32510468 
856 -0.32525274 
857 -0.32530102 
858 -0.3252302 
859 -0.32510146 
860 -0.32502422 
861 -0.32487884 
862 -0.32472917 
863 -0.32440302 
864 -0.32459667 
865 -0.32472757 
866 -0.32484505 
867 -0.32484236 
868 -0.32503763 
869 -0.325183 
870 -0.3250489 
871 -0.32496306 
872 -0.3249078 
873 -0.32482788 
874 -0.3249196 
875 -0.3250049 
876 -0.3250108 
877 -0.32490352 
878 -0.32494697 
879 -0.32506445 
880 -0.32509556 
881 -0.32521144 
882 -0.32509395 
883 -0.325065 
884 -0.32500276 
885 -0.324874 
886 -0.32457253 
887 -0.3244733 
888 -0.32487294 
889 -0.32505265 
890 -0.32508644 
891 -0.32514116 
892 -0.32504192 
893 -0.32493088 
894 -0.32471952 
895 -0.32466963 
896 -0.32459345 
897 -0.32502475 
898 -0.32515028 
899 -0.3248166 
900 -0.32488582 
901 -0.324712 
902 -0.32485953 
903 -0.32503763 
904 -0.3253155 
905 -0.32528707 
906 -0.32512453 
907 -0.32515135 
908 -0.32515404 
909 -0.32506874 
910 -0.32492712 
911 -0.32489172 
912 -0.3249652 
913 -0.32497916 
914 -0.324896 
915 -0.32489547 
916 -0.3248107 
917 -0.32471898 
918 -0.32460418 
919 -0.32473132 
920 -0.32487133 
921 -0.32458058 
922 -0.32448187 
923 -0.3245602 
924 -0.32477692 
925 -0.3248724 
926 -0.32483163 
927 -0.3249046 
928 -0.3249046 
929 -0.3250065 
930 -0.32511756 
931 -0.32488796 
932 -0.3248445 
933 -0.32483754 
934 -0.3246766 
935 -0.3244969 
936 -0.32482037 
937 -0.3250387 
938 -0.3250843 
939 -0.32523933 
940 -0.325389 
941 -0.32544586 
942 -0.32515994 
943 -0.32514653 
944 -0.3251948 
945 -0.32522538 
946 -0.3253552 
947 -0.32499042 
948 -0.32510844 
949 -0.32521144 
950 -0.32522056 
951 -0.32529405 
952 -0.32533213 
953 -0.32520983 
954 -0.32520285 
955 -0.32528225 
956 -0.3251342 
957 -0.32515296 
958 -0.3253241 
959 -0.32528922 
960 -0.32530317 
961 -0.32530585 
962 -0.32496896 
963 -0.32507357 
964 -0.3255054 
965 -0.32563576 
966 -0.3255231 
967 -0.3254523 
968 -0.32538524 
969 -0.32541797 
970 -0.32543084 
971 -0.3254051 
972 -0.32538792 
973 -0.3253729 
974 -0.32539168 
975 -0.32539812 
976 -0.3253756 
977 -0.32547805 
978 -0.32559446 
979 -0.3255333 
980 -0.32553008 
981 -0.3254507 
982 -0.32540777 
983 -0.32531282 
984 -0.3252431 
985 -0.3252522 
986 -0.32526723 
987 -0.32553706 
988 -0.3255215 
989 -0.32534716 
990 -0.32547697 
991 -0.325551 
992 -0.32535627 
993 -0.32536057 
994 -0.32543835 
995 -0.32542494 
996 -0.3251889 
997 -0.32516798 
998 -0.32509664 
999 -0.3252522 
1000 -0.3254319 
1001 -0.32548985 
1002 -0.32529137 
1003 -0.3253037 
1004 -0.32523128 
1005 -0.3251771 
1006 -0.32527527 
1007 -0.3253096 
1008 -0.32522967 
1009 -0.32510093 
1010 -0.32493946 
1011 -0.3249754 
1012 -0.32460847 
1013 -0.3244073 
1014 -0.32438585 
1015 -0.3244395 
1016 -0.3242437 
1017 -0.32418522 
1018 -0.32438585 
1019 -0.32450816 
1020 -0.32447007 
1021 -0.32471684 
1022 -0.3248783 
1023 -0.32493088 
1024 -0.32501724 
1025 -0.3251476 
1026 -0.32519642 
1027 -0.32517764 
1028 -0.32520446 
1029 -0.3251728 
1030 -0.32508537 
1031 -0.32483754 
1032 -0.32452264 
1033 -0.32445183 
1034 -0.32442716 
1035 -0.32452372 
1036 -0.3245366 
1037 -0.32440463 
1038 -0.32439658 
1039 -0.32454142 
1040 -0.3247147 
1041 -0.32460526 
1042 -0.32452103 
1043 -0.32465622 
1044 -0.32478872 
1045 -0.32510307 
1046 -0.3251712 
1047 -0.32502314 
1048 -0.32509503 
1049 -0.3251154 
1050 -0.32525435 
1051 -0.3251948 
1052 -0.32514706 
1053 -0.32533804 
1054 -0.32537237 
1055 -0.32523182 
1056 -0.3250725 
1057 -0.3249223 
1058 -0.32486114 
1059 -0.32495716 
1060 -0.32496628 
1061 -0.3250017 
1062 -0.32500008 
1063 -0.32499364 
1064 -0.32504407 
1065 -0.32486597 
1066 -0.3247517 
1067 -0.32468304 
1068 -0.3246723 
1069 -0.3248311 
1070 -0.32486328 
1071 -0.32494375 
1072 -0.3248885 
1073 -0.32470933 
1074 -0.32468143 
1075 -0.32468036 
1076 -0.32461116 
1077 -0.3246487 
1078 -0.3247662 
1079 -0.3247973 
1080 -0.32474312 
1081 -0.32470343 
1082 -0.3247576 
1083 -0.3248295 
1084 -0.32501993 
1085 -0.3251154 
1086 -0.32515028 
1087 -0.3251476 
1088 -0.3251154 
1089 -0.32512024 
1090 -0.3249298 
1091 -0.32485256 
1092 -0.3248268 
1093 -0.32483807 
1094 -0.3248622 
1095 -0.32483056 
1096 -0.32474366 
1097 -0.3247694 
1098 -0.32486275 
1099 -0.3249314 
1100 -0.32478443 
1101 -0.3247662 
1102 -0.324572 
1103 -0.32452694 
1104 -0.3245189 
1105 -0.32443038 
1106 -0.32457092 
1107 -0.3246219 
1108 -0.32468358 
1109 -0.32482144 
1110 -0.32490727 
1111 -0.3249105 
1112 -0.32486865 
1113 -0.3248413 
1114 -0.32485363 
1115 -0.32467017 
1116 -0.32465407 
1117 -0.32460955 
1118 -0.32473186 
1119 -0.32479462 
1120 -0.324756 
1121 -0.32469913 
1122 -0.3246192 
1123 -0.32462886 
1124 -0.32477745 
1125 -0.3247721 
1126 -0.3246648 
1127 -0.32461062 
1128 -0.32467714 
1129 -0.32472757 
1130 -0.32478175 
1131 -0.32488903 
1132 -0.3250006 
1133 -0.3250961 
1134 -0.32507518 
1135 -0.32502422 
1136 -0.3249314 
1137 -0.32486597 
1138 -0.32470986 
1139 -0.32463422 
1140 -0.32466105 
1141 -0.32464495 
1142 -0.32474902 
1143 -0.32480267 
1144 -0.32487777 
1145 -0.32490727 
1146 -0.32480696 
1147 -0.32469162 
1148 -0.3246176 
1149 -0.32445022 
1150 -0.32444432 
1151 -0.32444862 
1152 -0.32453123 
1153 -0.32459775 
1154 -0.3248295 
1155 -0.32492068 
1156 -0.32482144 
1157 -0.3246267 
1158 -0.32448027 
1159 -0.3244765 
1160 -0.3242689 
1161 -0.32414016 
1162 -0.3241981 
1163 -0.32429358 
1164 -0.3244368 
1165 -0.3245586 
1166 -0.3245999 
1167 -0.32459667 
1168 -0.3246825 
1169 -0.3247855 
1170 -0.32479677 
1171 -0.32473722 
1172 -0.3246412 
1173 -0.32464495 
1174 -0.32467017 
1175 -0.3247104 
1176 -0.32465944 
1177 -0.32472005 
1178 -0.32485256 
1179 -0.32495394 
1180 -0.32485148 
1181 -0.32477155 
1182 -0.32471147 
1183 -0.32444003 
1184 -0.32431182 
1185 -0.32427427 
1186 -0.3242319 
1187 -0.32433382 
1188 -0.32438692 
1189 -0.32447758 
1190 -0.3245146 
1191 -0.32457092 
1192 -0.32459345 
1193 -0.3246927 
1194 -0.3247753 
1195 -0.32491586 
1196 -0.32493678 
1197 -0.32478443 
1198 -0.32470503 
1199 -0.32469055 
1200 -0.32484397 
1201 -0.32505372 
1202 -0.3251948 
1203 -0.32516208 
1204 -0.32512346 
1205 -0.32494912 
1206 -0.32461277 
1207 -0.32423994 
1208 -0.3240452 
1209 -0.32394007 
1210 -0.32388106 
1211 -0.32389715 
1212 -0.32394865 
1213 -0.32409778 
1214 -0.32423458 
1215 -0.32421848 
1216 -0.32423887 
1217 -0.3243161 
1218 -0.3243805 
1219 -0.32438853 
1220 -0.3243601 
1221 -0.32444164 
1222 -0.32445934 
1223 -0.32467124 
1224 -0.32488742 
1225 -0.32506284 
1226 -0.32497916 
1227 -0.32483217 
1228 -0.32470396 
1229 -0.32452425 
1230 -0.32446793 
1231 -0.32440838 
1232 -0.32423297 
1233 -0.32422546 
1234 -0.32435527 
1235 -0.3243601 
1236 -0.32440034 
1237 -0.32453445 
1238 -0.32445076 
1239 -0.32435527 
1240 -0.32438585 
1241 -0.32428232 
1242 -0.32415733 
1243 -0.32409242 
1244 -0.3241391 
1245 -0.324307 
1246 -0.32433757 
1247 -0.3243526 
1248 -0.32426623 
1249 -0.3243735 
1250 -0.32443145 
1251 -0.32439926 
1252 -0.3243805 
1253 -0.32428232 
1254 -0.32428125 
1255 -0.32423136 
1256 -0.32417932 
1257 -0.3243172 
1258 -0.32452157 
1259 -0.3246074 
1260 -0.3247281 
1261 -0.32493302 
1262 -0.32487562 
1263 -0.32472435 
1264 -0.32462403 
1265 -0.32459345 
1266 -0.32449475 
1267 -0.32425818 
1268 -0.32400927 
1269 -0.32379952 
1270 -0.3237137 
1271 -0.32361338 
1272 -0.32355598 
1273 -0.32357958 
1274 -0.3235812 
1275 -0.32367507 
1276 -0.32386926 
1277 -0.32406345 
1278 -0.32410905 
1279 -0.3241643 
1280 -0.32429573 
1281 -0.32441804 
1282 -0.3245559 
1283 -0.3246707 
1284 -0.3247694 
1285 -0.32474795 
1286 -0.32466373 
1287 -0.32465783 
1288 -0.3246396 
1289 -0.32456717 
1290 -0.32452372 
1291 -0.3244395 
1292 -0.32445827 
1293 -0.32439926 
1294 -0.32424906 
1295 -0.32414445 
1296 -0.32378933 
1297 -0.32354525 
1298 -0.32332638 
1299 -0.32329312 
1300 -0.32342562 
1301 -0.32365415 
1302 -0.32379416 
1303 -0.32391593 
1304 -0.32415518 
1305 -0.32429466 
1306 -0.32427266 
1307 -0.32418844 
1308 -0.32423887 
1309 -0.32439175 
1310 -0.32449207 
1311 -0.32458004 
1312 -0.3247356 
1313 -0.32486328 
1314 -0.32500115 
1315 -0.32495555 
1316 -0.3248944 
1317 -0.32451567 
1318 -0.32413426 
1319 -0.32391325 
1320 -0.3238065 
1321 -0.32362786 
1322 -0.3235506 
1323 -0.32351628 
1324 -0.32351038 
1325 -0.32362142 
1326 -0.32367668 
1327 -0.3236504 
1328 -0.32375607 
1329 -0.3238478 
1330 -0.32401517 
1331 -0.3242201 
1332 -0.32421526 
1333 -0.32432684 
1334 -0.32445505 
1335 -0.3246487 
1336 -0.3246605 
1337 -0.3246031 
1338 -0.32470933 
1339 -0.32479408 
1340 -0.32487455 
1341 -0.3248944 
1342 -0.3249003 
1343 -0.32500812 
1344 -0.3249475 
1345 -0.3248091 
1346 -0.32461706 
1347 -0.32431236 
1348 -0.32410046 
1349 -0.32395455 
1350 -0.32382634 
1351 -0.32357153 
1352 -0.32353613 
1353 -0.32365468 
1354 -0.32374534 
1355 -0.32387516 
1356 -0.32398996 
1357 -0.32403073 
1358 -0.32404307 
1359 -0.32416108 
1360 -0.32434562 
1361 -0.32435527 
1362 -0.3243172 
1363 -0.32437405 
1364 -0.32440302 
1365 -0.3245441 
1366 -0.3246192 
1367 -0.32466534 
1368 -0.32465675 
1369 -0.3245897 
1370 -0.32445827 
1371 -0.3242732 
1372 -0.324101 
1373 -0.3239669 
1374 -0.32390037 
1375 -0.32383278 
1376 -0.32379898 
1377 -0.3237609 
1378 -0.32369384 
1379 -0.3237491 
1380 -0.3238537 
1381 -0.32387355 
1382 -0.32389876 
1383 -0.32394436 
1384 -0.32400605 
1385 -0.32402483 
1386 -0.32406828 
1387 -0.32409993 
1388 -0.32398084 
1389 -0.32390144 
1390 -0.3240023 
1391 -0.3241836 
1392 -0.3243735 
1393 -0.32464227 
1394 -0.32476404 
1395 -0.32471684 
1396 -0.32460955 
1397 -0.32439926 
1398 -0.32428285 
1399 -0.32416537 
1400 -0.32389608 
1401 -0.32377967 
1402 -0.32366326 
1403 -0.3235753 
1404 -0.3235946 
1405 -0.32358924 
1406 -0.32349858 
1407 -0.3234991 
1408 -0.32348248 
1409 -0.32346585 
1410 -0.32354042 
1411 -0.3234739 
1412 -0.32336983 
1413 -0.32342294 
1414 -0.32358816 
1415 -0.32363483 
1416 -0.32368097 
1417 -0.3238215 
1418 -0.32390895 
1419 -0.32398245 
1420 -0.32409617 
1421 -0.32397923 
1422 -0.32393846 
1423 -0.32399532 
1424 -0.32398137 
1425 -0.32404628 
1426 -0.3241686 
1427 -0.32413533 
1428 -0.32409188 
1429 -0.32414714 
1430 -0.324182 
1431 -0.32418576 
1432 -0.32417664 
1433 -0.32406506 
1434 -0.32404682 
1435 -0.3240318 
1436 -0.32401302 
1437 -0.32395938 
1438 -0.32406935 
1439 -0.32415304 
1440 -0.32426783 
1441 -0.324469 
1442 -0.32451835 
1443 -0.32449314 
1444 -0.32449743 
1445 -0.32447705 
1446 -0.32447812 
1447 -0.3242555 
1448 -0.32396904 
1449 -0.3237979 
1450 -0.32368848 
1451 -0.32355544 
1452 -0.3233886 
1453 -0.32340416 
1454 -0.3234562 
1455 -0.32345083 
1456 -0.3235415 
1457 -0.3235683 
1458 -0.3236949 
1459 -0.3238757 
1460 -0.3240039 
1461 -0.32393685 
1462 -0.3238859 
1463 -0.32392076 
1464 -0.32401732 
1465 -0.324123 
1466 -0.32415625 
1467 -0.32410583 
1468 -0.3239524 
1469 -0.3238108 
1470 -0.32379845 
1471 -0.32374963 
1472 -0.3237979 
1473 -0.32382795 
1474 -0.32370564 
1475 -0.32383493 
1476 -0.32385102 
1477 -0.3238215 
1478 -0.32381776 
1479 -0.32372335 
1480 -0.323652 
1481 -0.3235753 
1482 -0.32350984 
1483 -0.32352594 
1484 -0.32372603 
1485 -0.3237904 
1486 -0.32381776 
1487 -0.32389823 
1488 -0.3240393 
1489 -0.3241541 
1490 -0.32430056 
1491 -0.32434455 
1492 -0.32421044 
1493 -0.3241391 
1494 -0.32406452 
1495 -0.3239524 
1496 -0.32381454 
1497 -0.32373676 
1498 -0.32366112 
1499 -0.323674 
1500 -0.32364342 
1501 -0.32364503 
1502 -0.32354632 
1503 -0.32342455 
1504 -0.32345405 
1505 -0.32341382 
1506 -0.32339773 
1507 -0.3234444 
1508 -0.32355168 
1509 -0.32361552 
1510 -0.3235812 
1511 -0.32363698 
1512 -0.32377753 
1513 -0.32386228 
1514 -0.32398084 
1515 -0.32398728 
1516 -0.32401785 
1517 -0.32383975 
1518 -0.32376412 
1519 -0.3237743 
1520 -0.32379147 
1521 -0.32372442 
1522 -0.32374856 
1523 -0.32369706 
1524 -0.32373568 
1525 -0.3237287 
1526 -0.3236681 
1527 -0.3236284 
1528 -0.32362947 
1529 -0.32364717 
1530 -0.32364127 
1531 -0.32353827 
1532 -0.32356617 
1533 -0.32377484 
1534 -0.3238022 
1535 -0.32387033 
1536 -0.32387248 
1537 -0.32391003 
1538 -0.32395026 
1539 -0.32400712 
1540 -0.32401088 
1541 -0.32407203 
1542 -0.32406506 
1543 -0.32376894 
1544 -0.32361123 
1545 -0.3234755 
1546 -0.32334784 
1547 -0.32333282 
1548 -0.32333174 
1549 -0.32333657 
1550 -0.323431 
1551 -0.32344547 
1552 -0.32350287 
1553 -0.32357207 
1554 -0.32367882 
1555 -0.32374105 
1556 -0.3237228 
1557 -0.32367775 
1558 -0.3236359 
1559 -0.3235694 
1560 -0.32370135 
1561 -0.3238698 
1562 -0.3238478 
1563 -0.32385853 
1564 -0.32380918 
1565 -0.3237212 
1566 -0.3236901 
1567 -0.32356402 
1568 -0.32345942 
1569 -0.32339612 
1570 -0.32335588 
1571 -0.32339075 
1572 -0.32353023 
1573 -0.32352164 
1574 -0.3235061 
1575 -0.32342562 
1576 -0.32339612 
1577 -0.32339182 
1578 -0.323424 
1579 -0.3234165 
1580 -0.3234739 
1581 -0.32351306 
1582 -0.32356456 
1583 -0.32349268 
1584 -0.32352754 
1585 -0.32354686 
1586 -0.3235989 
1587 -0.3236107 
1588 -0.32357422 
1589 -0.3236139 
1590 -0.32369438 
1591 -0.32364663 
1592 -0.32353935 
1593 -0.32358012 
1594 -0.32356402 
1595 -0.32361016 
1596 -0.32357207 
1597 -0.3234696 
1598 -0.32350662 
1599 -0.32355437 
1600 -0.3236992 
1601 -0.3237888 
1602 -0.32378933 
1603 -0.32364556 
1604 -0.32359192 
1605 -0.3236123 
1606 -0.32347712 
1607 -0.3233092 
1608 -0.32331136 
1609 -0.32348087 
1610 -0.3236949 
1611 -0.32380274 
1612 -0.32380918 
1613 -0.32396314 
1614 -0.32402804 
1615 -0.32392344 
1616 -0.32382634 
1617 -0.32361552 
1618 -0.3235533 
1619 -0.32353505 
1620 -0.3235667 
1621 -0.32354096 
1622 -0.32357904 
1623 -0.32353345 
1624 -0.32355008 
1625 -0.32359675 
1626 -0.323549 
1627 -0.32354578 
1628 -0.32364073 
1629 -0.32370564 
1630 -0.32372603 
1631 -0.32368204 
1632 -0.32366273 
1633 -0.32359996 
1634 -0.32364288 
1635 -0.32369062 
1636 -0.3236901 
1637 -0.32375285 
1638 -0.323733 
1639 -0.32366702 
1640 -0.32350716 
1641 -0.32332048 
1642 -0.32325235 
1643 -0.32318315 
1644 -0.32309678 
1645 -0.32310858 
1646 -0.32319495 
1647 -0.32311502 
1648 -0.3231912 
1649 -0.3232341 
1650 -0.3232046 
1651 -0.32317725 
1652 -0.32320622 
1653 -0.32338968 
1654 -0.32361445 
1655 -0.32366273 
1656 -0.32363483 
1657 -0.3236461 
1658 -0.32367882 
1659 -0.32379255 
1660 -0.32392666 
1661 -0.3241171 
1662 -0.32403502 
1663 -0.32381293 
1664 -0.3236445 
1665 -0.32351574 
1666 -0.3233253 
1667 -0.32308123 
1668 -0.32297662 
1669 -0.32295677 
1670 -0.32297072 
1671 -0.32299486 
1672 -0.32308605 
1673 -0.32317993 
1674 -0.32337466 
1675 -0.3233666 
1676 -0.32318637 
1677 -0.32320514 
1678 -0.32334945 
1679 -0.3235034 
1680 -0.3236461 
1681 -0.3236107 
1682 -0.3236917 
1683 -0.32386443 
1684 -0.32407096 
1685 -0.32420346 
1686 -0.32422224 
1687 -0.32408544 
1688 -0.32392183 
1689 -0.32384834 
1690 -0.32360694 
1691 -0.32333818 
1692 -0.32325718 
1693 -0.32313487 
1694 -0.3231515 
1695 -0.3231102 
1696 -0.32310483 
1697 -0.32302973 
1698 -0.32312253 
1699 -0.3232309 
1700 -0.32325664 
1701 -0.3233135 
1702 -0.3233033 
1703 -0.3233784 
1704 -0.32343206 
1705 -0.3234696 
1706 -0.3234326 
1707 -0.32333925 
1708 -0.3232738 
1709 -0.32327703 
1710 -0.32336554 
1711 -0.3234208 
1712 -0.32352486 
1713 -0.3236268 
1714 -0.32373783 
1715 -0.3237727 
1716 -0.32363966 
1717 -0.3234208 
1718 -0.3232604 
1719 -0.32314774 
1720 -0.3231885 
1721 -0.3231322 
1722 -0.3230056 
1723 -0.322916 
1724 -0.3229439 
1725 -0.32299003 
1726 -0.32289883 
1727 -0.32293853 
1728 -0.3230646 
1729 -0.32320514 
1730 -0.32342938 
1731 -0.32360265 
1732 -0.32363376 
1733 -0.3236198 
1734 -0.32366595 
1735 -0.32370725 
1736 -0.32352862 
1737 -0.32330224 
1738 -0.32310483 
1739 -0.323159 
1740 -0.3231971 
1741 -0.32308283 
1742 -0.32303026 
1743 -0.3230528 
1744 -0.32303563 
1745 -0.32305172 
1746 -0.3231134 
1747 -0.32312414 
1748 -0.32304582 
1749 -0.32305816 
1750 -0.32308874 
1751 -0.32316706 
1752 -0.32309464 
1753 -0.32302865 
1754 -0.32297984 
1755 -0.32304636 
1756 -0.32318047 
1757 -0.3233221 
1758 -0.32351896 
1759 -0.32365093 
1760 -0.32364342 
1761 -0.3236198 
1762 -0.32359782 
1763 -0.3234181 
1764 -0.3232765 
1765 -0.32320568 
1766 -0.3230265 
1767 -0.32281837 
1768 -0.3226569 
1769 -0.3225979 
1770 -0.32257375 
1771 -0.3225008 
1772 -0.3224981 
1773 -0.32247505 
1774 -0.3225496 
1775 -0.32267728 
1776 -0.3228012 
1777 -0.32290044 
1778 -0.3230174 
1779 -0.3231853 
1780 -0.323409 
1781 -0.3234873 
1782 -0.32355222 
1783 -0.32350662 
1784 -0.32342455 
1785 -0.32337037 
1786 -0.32331136 
1787 -0.3232824 
1788 -0.32326683 
1789 -0.3231885 
1790 -0.3231118 
1791 -0.32293317 
1792 -0.32271644 
1793 -0.32261667 
1794 -0.3226011 
1795 -0.32260165 
1796 -0.32266226 
1797 -0.322673 
1798 -0.3225743 
1799 -0.3226129 
1800 -0.3227336 
1801 -0.32271966 
1802 -0.3227084 
1803 -0.32278726 
1804 -0.3228908 
1805 -0.32316437 
1806 -0.3234369 
1807 -0.3237625 
1808 -0.3240452 
1809 -0.32418737 
1810 -0.32401302 
1811 -0.32380757 
1812 -0.32360104 
1813 -0.3233473 
1814 -0.32305172 
1815 -0.3228543 
1816 -0.32257375 
1817 -0.32246217 
1818 -0.32242516 
1819 -0.32235005 
1820 -0.32223257 
1821 -0.32222453 
1822 -0.3222755 
1823 -0.32234952 
1824 -0.32238707 
1825 -0.32250562 
1826 -0.32267353 
1827 -0.32283124 
1828 -0.3228822 
1829 -0.3229412 
1830 -0.32304153 
1831 -0.32303295 
1832 -0.32302758 
1833 -0.32305494 
1834 -0.32317618 
1835 -0.3233516 
1836 -0.32330438 
1837 -0.323203 
1838 -0.32311878 
1839 -0.32297394 
1840 -0.3227658 
1841 -0.3225582 
1842 -0.32240638 
1843 -0.3223758 
1844 -0.3225067 
1845 -0.32255659 
1846 -0.32254854 
1847 -0.32259306 
1848 -0.32246378 
1849 -0.32249114 
1850 -0.32247612 
1851 -0.32244286 
1852 -0.32242516 
1853 -0.3225008 
1854 -0.3225952 
1855 -0.32269445 
1856 -0.32287362 
1857 -0.3229836 
1858 -0.32310268 
1859 -0.32320943 
1860 -0.32328346 
1861 -0.32324967 
1862 -0.32322285 
1863 -0.323144 
1864 -0.32313326 
1865 -0.32304153 
1866 -0.32289454 
1867 -0.32272932 
1868 -0.32263276 
1869 -0.32258448 
1870 -0.32248363 
1871 -0.3224477 
1872 -0.32237688 
1873 -0.3223538 
1874 -0.32239726 
1875 -0.32245842 
1876 -0.32246378 
1877 -0.32243052 
1878 -0.32236508 
1879 -0.32241604 
1880 -0.32252923 
1881 -0.3226038 
1882 -0.3227218 
1883 -0.32271698 
1884 -0.32280067 
1885 -0.32291815 
1886 -0.32298735 
1887 -0.32305923 
1888 -0.32309785 
1889 -0.32320353 
1890 -0.32317886 
1891 -0.32312414 
1892 -0.3230984 
1893 -0.32297823 
1894 -0.32296267 
1895 -0.32283285 
1896 -0.3227497 
1897 -0.3228146 
1898 -0.3227733 
1899 -0.32282642 
1900 -0.32289937 
1901 -0.32295838 
1902 -0.3228586 
1903 -0.32280228 
1904 -0.32278135 
1905 -0.32277384 
1906 -0.32271752 
1907 -0.32255176 
1908 -0.32244018 
1909 -0.32235917 
1910 -0.32244286 
1911 -0.32244447 
1912 -0.32246217 
1913 -0.32247505 
1914 -0.32250026 
1915 -0.32255927 
1916 -0.32260808 
1917 -0.32261452 
1918 -0.32254747 
1919 -0.3225201 
1920 -0.32258502 
1921 -0.32265207 
1922 -0.3227336 
1923 -0.3227615 
1924 -0.3227363 
1925 -0.32275507 
1926 -0.32274327 
1927 -0.32266226 
1928 -0.3227202 
1929 -0.3227245 
1930 -0.32277384 
1931 -0.32278296 
1932 -0.32283285 
1933 -0.32299003 
1934 -0.3230721 
1935 -0.3232105 
1936 -0.32332423 
1937 -0.3231912 
1938 -0.32305816 
1939 -0.3228452 
1940 -0.32265583 
1941 -0.3225244 
1942 -0.3225287 
1943 -0.32253084 
1944 -0.32247075 
1945 -0.32253137 
1946 -0.32260916 
1947 -0.3225362 
1948 -0.32264832 
1949 -0.32283768 
1950 -0.3229176 
1951 -0.3230646 
1952 -0.32313594 
1953 -0.3231558 
1954 -0.3230957 
1955 -0.3229895 
1956 -0.32292297 
1957 -0.32290688 
1958 -0.32290527 
1959 -0.32283983 
1960 -0.32284734 
1961 -0.32289347 
1962 -0.32287738 
1963 -0.32272878 
1964 -0.32264134 
1965 -0.32269445 
1966 -0.3226628 
1967 -0.32247505 
1968 -0.3223742 
1969 -0.3224552 
1970 -0.3225979 
1971 -0.3225877 
1972 -0.32241496 
1973 -0.32239833 
1974 -0.32241067 
1975 -0.32256034 
1976 -0.3227953 
1977 -0.32283607 
1978 -0.3228747 
1979 -0.32289883 
1980 -0.32293853 
1981 -0.3229927 
1982 -0.32298306 
1983 -0.32303026 
1984 -0.32311073 
1985 -0.32302222 
1986 -0.3229144 
1987 -0.32282856 
1988 -0.3227996 
1989 -0.32274058 
1990 -0.32267728 
1991 -0.3225555 
1992 -0.32249704 
1993 -0.32248202 
1994 -0.3224788 
1995 -0.3224713 
1996 -0.3224289 
1997 -0.32234094 
1998 -0.32236293 
1999 -0.32237634 
2000 -0.32239673 
2001 -0.32243374 
2002 -0.32251635 
2003 -0.322688 
2004 -0.32283553 
2005 -0.32297394 
2006 -0.3231236 
2007 -0.32316008 
2008 -0.32326093 
2009 -0.32344332 
2010 -0.32350126 
2011 -0.3235329 
2012 -0.3234857 
2013 -0.32338002 
2014 -0.32329044 
2015 -0.32317242 
2016 -0.3229482 
2017 -0.3226156 
2018 -0.3224466 
2019 -0.32248524 
2020 -0.3225362 
2021 -0.32245788 
2022 -0.32242087 
2023 -0.32245037 
2024 -0.32254156 
2025 -0.32236293 
2026 -0.3222315 
2027 -0.32211027 
2028 -0.3222079 
2029 -0.3223243 
2030 -0.32241175 
2031 -0.3224568 
2032 -0.32250187 
2033 -0.3226891 
2034 -0.3229616 
2035 -0.32314828 
2036 -0.32324055 
2037 -0.32321855 
2038 -0.32309356 
2039 -0.3230383 
2040 -0.32296053 
2041 -0.3228999 
2042 -0.32274917 
2043 -0.3226746 
2044 -0.32267943 
2045 -0.3227143 
2046 -0.322688 
2047 -0.3226129 
2048 -0.32262364 
2049 -0.32255122 
2050 -0.32253674 
2051 -0.32249597 
2052 -0.32241282 
2053 -0.32228193 
2054 -0.32228354 
2055 -0.32230124 
2056 -0.32224813 
2057 -0.32218 
2058 -0.32216123 
2059 -0.32227173 
2060 -0.32253084 
2061 -0.32289723 
2062 -0.32316223 
2063 -0.32314613 
2064 -0.32309034 
2065 -0.32304314 
2066 -0.32290152 
2067 -0.32272127 
2068 -0.3225496 
2069 -0.3226156 
2070 -0.3227363 
2071 -0.32280228 
2072 -0.32278565 
2073 -0.3228071 
2074 -0.32288328 
2075 -0.3229793 
2076 -0.3231 
2077 -0.32307532 
2078 -0.3228983 
2079 -0.3228205 
2080 -0.32277814 
2081 -0.3224965 
2082 -0.32220307 
2083 -0.32214513 
2084 -0.32227764 
2085 -0.3223876 
2086 -0.32244715 
2087 -0.32255283 
2088 -0.32258502 
2089 -0.32264188 
2090 -0.32263866 
2091 -0.32267514 
2092 -0.32263437 
2093 -0.32256088 
2094 -0.32253352 
2095 -0.3225083 
2096 -0.3225421 
2097 -0.32245305 
2098 -0.32236776 
2099 -0.3224348 
2100 -0.32253727 
2101 -0.3226349 
2102 -0.3227186 
2103 -0.32272395 
2104 -0.32279745 
2105 -0.32289937 
2106 -0.3230088 
2107 -0.32295784 
2108 -0.3228881 
2109 -0.32288006 
2110 -0.32271108 
2111 -0.32263222 
2112 -0.3226306 
2113 -0.32267568 
2114 -0.32266763 
2115 -0.32262364 
2116 -0.3225555 
2117 -0.32247987 
2118 -0.3224981 
2119 -0.32255927 
2120 -0.32257965 
2121 -0.32256356 
2122 -0.3226038 
2123 -0.32262096 
2124 -0.32264885 
2125 -0.32259735 
2126 -0.32259682 
2127 -0.32261077 
2128 -0.32262793 
2129 -0.32260486 
2130 -0.3226274 
2131 -0.32270142 
2132 -0.32278243 
2133 -0.32286182 
2134 -0.32292566 
2135 -0.3229353 
2136 -0.32307854 
2137 -0.3230984 
2138 -0.32306138 
2139 -0.32306138 
2140 -0.3230115 
2141 -0.32295784 
2142 -0.32283607 
2143 -0.32271752 
2144 -0.3226612 
2145 -0.32257 
2146 -0.32242194 
2147 -0.32226208 
2148 -0.32220575 
2149 -0.32226422 
2150 -0.322342 
2151 -0.32236722 
2152 -0.32224384 
2153 -0.3222449 
2154 -0.32231894 
2155 -0.32237366 
2156 -0.32243052 
2157 -0.3223715 
2158 -0.3224359 
2159 -0.3225657 
2160 -0.32269713 
2161 -0.32276794 
2162 -0.32285646 
2163 -0.3229262 
2164 -0.3230056 
2165 -0.32299754 
2166 -0.32295623 
2167 -0.32280925 
2168 -0.3226923 
2169 -0.3226435 
2170 -0.32255659 
2171 -0.3226199 
2172 -0.32260272 
2173 -0.32258448 
2174 -0.3225979 
2175 -0.32254156 
2176 -0.3225201 
2177 -0.32251796 
2178 -0.32257697 
2179 -0.32265422 
2180 -0.32265958 
2181 -0.32263866 
2182 -0.32274327 
2183 -0.32278994 
2184 -0.32278618 
2185 -0.32279423 
2186 -0.32276526 
2187 -0.32271484 
2188 -0.32262847 
2189 -0.32245573 
2190 -0.32228568 
2191 -0.32219288 
2192 -0.3221167 
2193 -0.32203302 
2194 -0.3221183 
2195 -0.32209685 
2196 -0.32206467 
2197 -0.3221108 
2198 -0.32210597 
2199 -0.32210168 
2200 -0.3222181 
2201 -0.3222519 
2202 -0.32228193 
2203 -0.32230178 
2204 -0.32239404 
2205 -0.3224804 
2206 -0.32251313 
2207 -0.32238922 
2208 -0.3223066 
2209 -0.32236078 
2210 -0.32249865 
2211 -0.32262257 
2212 -0.32256678 
2213 -0.32257 
2214 -0.32271215 
2215 -0.32271805 
2216 -0.32264242 
2217 -0.3225684 
2218 -0.32251313 
2219 -0.3224552 
2220 -0.32253298 
2221 -0.32251313 
2222 -0.3225287 
2223 -0.32257375 
2224 -0.32265583 
2225 -0.32269552 
2226 -0.32273468 
2227 -0.32278457 
2228 -0.32273468 
2229 -0.32269606 
2230 -0.32276204 
2231 -0.3226923 
2232 -0.32268265 
2233 -0.32266763 
2234 -0.32262257 
2235 -0.3225743 
2236 -0.32261774 
2237 -0.32265583 
2238 -0.3226129 
2239 -0.32267943 
2240 -0.32274595 
2241 -0.3226762 
2242 -0.32262042 
2243 -0.32259682 
2244 -0.3225555 
2245 -0.3225405 
2246 -0.32253352 
2247 -0.32255444 
2248 -0.32262096 
2249 -0.32270142 
2250 -0.32280442 
2251 -0.32276848 
2252 -0.3226923 
2253 -0.32272556 
2254 -0.32281837 
2255 -0.3227937 
2256 -0.32266816 
2257 -0.3225861 
2258 -0.32245466 
2259 -0.32227495 
2260 -0.3222519 
2261 -0.3222653 
2262 -0.32223848 
2263 -0.3221328 
2264 -0.32208022 
2265 -0.3221462 
2266 -0.3222476 
2267 -0.32227227 
2268 -0.32236132 
2269 -0.32243428 
2270 -0.32240638 
2271 -0.32246378 
2272 -0.3224053 
2273 -0.32238653 
2274 -0.32246915 
2275 -0.32256624 
2276 -0.322467 
2277 -0.32235757 
2278 -0.3223774 
2279 -0.32243964 
2280 -0.3224772 
2281 -0.32238653 
2282 -0.32238922 
2283 -0.32239994 
2284 -0.322467 
2285 -0.32248417 
2286 -0.32248256 
2287 -0.32247075 
2288 -0.3224847 
2289 -0.32257268 
2290 -0.32270035 
2291 -0.32268265 
2292 -0.32269284 
2293 -0.3226172 
2294 -0.32254854 
2295 -0.3225952 
2296 -0.32252386 
2297 -0.3225362 
2298 -0.32250133 
2299 -0.3225099 
2300 -0.32259306 
2301 -0.3225732 
2302 -0.32246485 
2303 -0.32247344 
2304 -0.32262632 
2305 -0.32259092 
2306 -0.3225126 
2307 -0.32247075 
2308 -0.3224466 
2309 -0.32247075 
2310 -0.32252923 
2311 -0.32257858 
2312 -0.32256356 
2313 -0.32255712 
2314 -0.32257858 
2315 -0.32259145 
2316 -0.32262632 
2317 -0.32265154 
2318 -0.32264993 
2319 -0.32266763 
2320 -0.32273093 
2321 -0.32268372 
2322 -0.32262096 
2323 -0.3226585 
2324 -0.3226585 
2325 -0.32264027 
2326 -0.32263276 
2327 -0.3225437 
2328 -0.32251206 
2329 -0.3224906 
2330 -0.32244125 
2331 -0.32236078 
2332 -0.32250938 
2333 -0.32264778 
2334 -0.3226494 
2335 -0.32264242 
2336 -0.32268158 
2337 -0.32272556 
2338 -0.32264778 
2339 -0.3225877 
2340 -0.3225405 
2341 -0.3225008 
2342 -0.32242408 
2343 -0.32231733 
2344 -0.32221058 
2345 -0.32213816 
2346 -0.3221387 
2347 -0.3221607 
2348 -0.32209685 
2349 -0.32221648 
2350 -0.32233182 
2351 -0.3223656 
2352 -0.322445 
2353 -0.32242784 
2354 -0.32242838 
2355 -0.32251367 
2356 -0.32249597 
2357 -0.3224348 
2358 -0.32244876 
2359 -0.32244125 
2360 -0.32237688 
2361 -0.32229802 
2362 -0.32209203 
2363 -0.32210544 
2364 -0.32222775 
2365 -0.3223007 
2366 -0.3223506 
2367 -0.32238868 
2368 -0.32242784 
2369 -0.32250026 
2370 -0.32258716 
2371 -0.32254854 
2372 -0.3224981 
2373 -0.32248202 
2374 -0.3225684 
2375 -0.32267675 
2376 -0.32264027 
2377 -0.32254586 
2378 -0.3225523 
2379 -0.32248417 
2380 -0.3224654 
2381 -0.32242087 
2382 -0.3223844 
2383 -0.3223066 
2384 -0.32237044 
2385 -0.32247022 
2386 -0.32254586 
2387 -0.3226113 
2388 -0.32262632 
2389 -0.32264778 
2390 -0.3227159 
2391 -0.32265905 
2392 -0.32261828 
2393 -0.32249328 
2394 -0.3224654 
2395 -0.3224407 
2396 -0.32245895 
2397 -0.32249007 
2398 -0.32254425 
2399 -0.3227363 
2400 -0.32290366 
2401 -0.3228849 
2402 -0.32284036 
2403 -0.32275936 
2404 -0.32269767 
2405 -0.32258877 
2406 -0.32255015 
2407 -0.32248363 
2408 -0.32246432 
2409 -0.3224289 
2410 -0.32242623 
2411 -0.32249114 
2412 -0.3224289 
2413 -0.32239458 
2414 -0.32251635 
2415 -0.3226038 
2416 -0.32264295 
2417 -0.32265583 
2418 -0.322651 
2419 -0.32270303 
2420 -0.32281032 
2421 -0.32284197 
2422 -0.3227642 
2423 -0.32279584 
2424 -0.32279637 
2425 -0.3227835 
2426 -0.32268158 
2427 -0.3226553 
2428 -0.3225936 
2429 -0.32248738 
2430 -0.32245305 
2431 -0.3224863 
2432 -0.3224654 
2433 -0.32245305 
2434 -0.32248417 
2435 -0.3224804 
2436 -0.32248095 
2437 -0.32240263 
2438 -0.322408 
2439 -0.32252976 
2440 -0.32272288 
2441 -0.3227969 
2442 -0.32283553 
2443 -0.32286558 
2444 -0.32292566 
2445 -0.3229691 
2446 -0.32297072 
2447 -0.32292137 
2448 -0.32293263 
2449 -0.32292405 
2450 -0.32291064 
2451 -0.32278618 
2452 -0.32268265 
2453 -0.32266548 
2454 -0.32273468 
2455 -0.32280067 
2456 -0.32270893 
2457 -0.32255873 
2458 -0.32246378 
2459 -0.32247826 
2460 -0.3225775 
2461 -0.32259467 
2462 -0.32245573 
2463 -0.32230875 
2464 -0.3223624 
2465 -0.32229266 
2466 -0.3222787 
2467 -0.3223581 
2468 -0.32240048 
2469 -0.3224965 
2470 -0.322607 
2471 -0.32268962 
2472 -0.32272664 
2473 -0.32280335 
2474 -0.3229954 
2475 -0.32302865 
2476 -0.32295945 
2477 -0.32284412 
2478 -0.32266816 
2479 -0.32268372 
2480 -0.32264832 
2481 -0.3225818 
2482 -0.3224493 
2483 -0.32226476 
2484 -0.32219717 
2485 -0.32212368 
2486 -0.32210973 
2487 -0.32214674 
2488 -0.3222122 
2489 -0.32227603 
2490 -0.32239994 
2491 -0.32252976 
2492 -0.32259682 
2493 -0.32267997 
2494 -0.3227481 
2495 -0.32287523 
2496 -0.3229632 
2497 -0.32303295 
2498 -0.32305977 
2499 -0.32300612 
2500 -0.32301363 
2501 -0.3228731 
2502 -0.32265744 
2503 -0.3225201 
2504 -0.3223404 
2505 -0.32218215 
2506 -0.32213655 
2507 -0.32210115 
2508 -0.32211617 
2509 -0.32196274 
2510 -0.32193592 
2511 -0.32217517 
2512 -0.32221487 
2513 -0.3222197 
2514 -0.3223935 
2515 -0.32251474 
2516 -0.32250187 
2517 -0.32253835 
2518 -0.32261184 
2519 -0.32273522 
2520 -0.32276312 
2521 -0.32279477 
2522 -0.32290366 
2523 -0.32287523 
2524 -0.32285914 
2525 -0.32280442 
2526 -0.32273737 
2527 -0.3225244 
2528 -0.32239994 
2529 -0.32230714 
2530 -0.32221487 
2531 -0.3223243 
2532 -0.32224384 
2533 -0.32211456 
2534 -0.32215586 
2535 -0.3222036 
2536 -0.3221875 
2537 -0.32205126 
2538 -0.32202068 
2539 -0.3220019 
2540 -0.32195148 
2541 -0.3221489 
2542 -0.32223526 
2543 -0.32238492 
2544 -0.32254425 
2545 -0.32280174 
2546 -0.32301417 
2547 -0.323144 
2548 -0.32309732 
2549 -0.32310805 
2550 -0.3231574 
2551 -0.32310483 
2552 -0.32310644 
2553 -0.32312092 
2554 -0.3230485 
2555 -0.32277814 
2556 -0.32253245 
2557 -0.32221165 
2558 -0.3219209 
2559 -0.32170472 
2560 -0.32165107 
2561 -0.32165 
2562 -0.32167682 
2563 -0.32180718 
2564 -0.32196006 
2565 -0.32210597 
2566 -0.3222508 
2567 -0.3224477 
2568 -0.32260326 
2569 -0.32276687 
2570 -0.32292512 
2571 -0.32302168 
2572 -0.32304046 
2573 -0.32307264 
2574 -0.32313648 
2575 -0.32323948 
2576 -0.32328132 
2577 -0.32326576 
2578 -0.32310322 
2579 -0.3230147 
2580 -0.32304904 
2581 -0.3229176 
2582 -0.32275024 
2583 -0.32252976 
2584 -0.32229802 
2585 -0.3220609 
2586 -0.32186082 
2587 -0.32170203 
2588 -0.3216559 
2589 -0.32177445 
2590 -0.32192197 
2591 -0.32198152 
2592 -0.322099 
2593 -0.3222095 
2594 -0.32235113 
2595 -0.32246432 
2596 -0.32249328 
2597 -0.32253835 
2598 -0.3226762 
2599 -0.32270035 
2600 -0.3227481 
2601 -0.32266977 
2602 -0.32264993 
2603 -0.3226805 
2604 -0.32265368 
2605 -0.3226494 
2606 -0.32262096 
2607 -0.3226097 
2608 -0.32253942 
2609 -0.3225684 
2610 -0.32250455 
2611 -0.32239082 
2612 -0.3222519 
2613 -0.32208452 
2614 -0.3219311 
2615 -0.321871 
2616 -0.32188872 
2617 -0.32202873 
2618 -0.32212314 
2619 -0.32217625 
2620 -0.32224974 
2621 -0.32232752 
2622 -0.32238063 
2623 -0.3224477 
2624 -0.3225539 
2625 -0.32262203 
2626 -0.32270786 
2627 -0.32272235 
2628 -0.3228334 
2629 -0.3229557 
2630 -0.32295838 
2631 -0.32281944 
2632 -0.32256624 
2633 -0.32224545 
2634 -0.32197025 
2635 -0.32181522 
2636 -0.32160333 
2637 -0.3215867 
2638 -0.32163283 
2639 -0.3217428 
2640 -0.3218517 
2641 -0.32192358 
2642 -0.32204 
2643 -0.322224 
2644 -0.32252172 
2645 -0.3226762 
2646 -0.32269016 
2647 -0.32258984 
2648 -0.32265368 
2649 -0.32263115 
2650 -0.32269016 
2651 -0.32274327 
2652 -0.32271644 
2653 -0.32281783 
2654 -0.3229868 
2655 -0.3231118 
2656 -0.3231971 
2657 -0.32315794 
2658 -0.32285646 
2659 -0.32263866 
2660 -0.3224906 
2661 -0.3222181 
2662 -0.3218501 
2663 -0.3216854 
2664 -0.32183668 
2665 -0.32194558 
2666 -0.32202712 
2667 -0.32215104 
2668 -0.32225296 
2669 -0.3224434 
2670 -0.3224981 
2671 -0.32253942 
2672 -0.32251474 
2673 -0.32256946 
2674 -0.32269606 
2675 -0.3226891 
2676 -0.32261667 
2677 -0.32253942 
2678 -0.32251957 
2679 -0.3226172 
2680 -0.3225834 
2681 -0.32253888 
2682 -0.3224171 
2683 -0.32234415 
2684 -0.32232967 
2685 -0.32220897 
2686 -0.3221006 
2687 -0.32200083 
2688 -0.32190588 
2689 -0.32193378 
2690 -0.32202712 
2691 -0.3221167 
2692 -0.3221827 
2693 -0.32223365 
2694 -0.32228675 
2695 -0.322408 
2696 -0.32246056 
2697 -0.3225614 
2698 -0.322673 
2699 -0.3226129 
2700 -0.32269445 
2701 -0.32276312 
2702 -0.32273737 
2703 -0.3226762 
2704 -0.3227245 
2705 -0.322813 
2706 -0.32284626 
2707 -0.32280496 
2708 -0.32270893 
2709 -0.32260862 
2710 -0.3224096 
2711 -0.32205555 
2712 -0.32179 
2713 -0.3217074 
2714 -0.32177445 
2715 -0.3218442 
2716 -0.3219799 
2717 -0.3220518 
2718 -0.32215425 
2719 -0.32232806 
2720 -0.32244822 
2721 -0.32244286 
2722 -0.3224949 
2723 -0.3224847 
2724 -0.3225099 
2725 -0.32250723 
2726 -0.3224745 
2727 -0.32240906 
2728 -0.32238117 
2729 -0.3223168 
2730 -0.32217893 
2731 -0.3220609 
2732 -0.3220813 
2733 -0.3222358 
2734 -0.32235917 
2735 -0.3224155 
2736 -0.32252064 
2737 -0.32254747 
2738 -0.3224155 
2739 -0.32237098 
2740 -0.32241604 
2741 -0.3223683 
2742 -0.32240155 
2743 -0.3225378 
2744 -0.32257053 
2745 -0.32248792 
2746 -0.3224788 
2747 -0.3224627 
2748 -0.322386 
2749 -0.32243642 
2750 -0.32241765 
2751 -0.32240638 
2752 -0.3224257 
2753 -0.32245198 
2754 -0.32248256 
2755 -0.32245466 
2756 -0.32240263 
2757 -0.32241872 
2758 -0.32247773 
2759 -0.32249382 
2760 -0.3225598 
2761 -0.32250562 
2762 -0.32241926 
2763 -0.322408 
2764 -0.3224359 
2765 -0.3225126 
2766 -0.3225555 
2767 -0.3224804 
2768 -0.32248148 
2769 -0.32251152 
2770 -0.32238922 
2771 -0.322239 
2772 -0.32231733 
2773 -0.3223007 
2774 -0.322239 
2775 -0.3222508 
2776 -0.32221058 
2777 -0.32217678 
2778 -0.32209364 
2779 -0.3219944 
2780 -0.32203624 
2781 -0.32218108 
2782 -0.32241818 
2783 -0.32259038 
2784 -0.32272127 
2785 -0.32284948 
2786 -0.32283285 
2787 -0.32282212 
2788 -0.32275078 
2789 -0.32264832 
2790 -0.3226097 
2791 -0.32256946 
2792 -0.32250133 
2793 -0.3225523 
2794 -0.32256356 
2795 -0.32255659 
2796 -0.32257643 
2797 -0.3224981 
2798 -0.3224171 
2799 -0.32242516 
2800 -0.3223302 
2801 -0.32226852 
2802 -0.32219395 
2803 -0.32217786 
2804 -0.32219878 
2805 -0.32224277 
2806 -0.32232162 
2807 -0.32244125 
2808 -0.32244983 
2809 -0.32240477 
2810 -0.3222873 
2811 -0.32208988 
2812 -0.321974 
2813 -0.32197616 
2814 -0.32203946 
2815 -0.3220695 
2816 -0.3221108 
2817 -0.322099 
2818 -0.32209417 
2819 -0.32213923 
2820 -0.32215908 
2821 -0.3221902 
2822 -0.32217196 
2823 -0.3220416 
2824 -0.3220298 
2825 -0.32208183 
2826 -0.3219783 
2827 -0.3219032 
2828 -0.32177982 
2829 -0.32158133 
2830 -0.32152554 
2831 -0.32155558 
2832 -0.32166877 
2833 -0.32183346 
2834 -0.32191125 
2835 -0.32189944 
2836 -0.3218517 
2837 -0.3218592 
2838 -0.32184312 
2839 -0.3218383 
2840 -0.3219225 
2841 -0.32202712 
2842 -0.32203785 
2843 -0.32201853 
2844 -0.32200083 
2845 -0.32195577 
2846 -0.32189032 
2847 -0.32173744 
2848 -0.32174763 
2849 -0.3218737 
2850 -0.32193968 
2851 -0.32196543 
2852 -0.3219252 
2853 -0.32182273 
2854 -0.32186994 
2855 -0.32184848 
2856 -0.3219563 
2857 -0.32207218 
2858 -0.32224974 
2859 -0.3223624 
2860 -0.32241014 
2861 -0.32228997 
2862 -0.3221167 
2863 -0.32200298 
2864 -0.32192197 
2865 -0.32188925 
2866 -0.32185653 
2867 -0.32180288 
2868 -0.32176748 
2869 -0.32167736 
2870 -0.3216366 
2871 -0.32171866 
2872 -0.32171598 
2873 -0.32166877 
2874 -0.32162586 
2875 -0.32161298 
2876 -0.32155344 
2877 -0.32164893 
2878 -0.32171974 
2879 -0.32191607 
2880 -0.32218215 
2881 -0.32237527 
2882 -0.32257643 
2883 -0.3226628 
2884 -0.3226789 
2885 -0.32253888 
2886 -0.32235274 
2887 -0.3221446 
2888 -0.32200137 
2889 -0.3219461 
2890 -0.32181308 
2891 -0.3218399 
2892 -0.3218694 
2893 -0.32181147 
2894 -0.32188228 
2895 -0.32188603 
2896 -0.3218533 
2897 -0.3218458 
2898 -0.32182488 
2899 -0.32180557 
2900 -0.32185492 
2901 -0.32180396 
2902 -0.32166716 
2903 -0.3216634 
2904 -0.3218474 
2905 -0.32204965 
2906 -0.32227388 
2907 -0.3222889 
2908 -0.32212904 
2909 -0.32203302 
2910 -0.32192305 
2911 -0.32193163 
2912 -0.32182917 
2913 -0.32169184 
2914 -0.32172778 
2915 -0.3218163 
2916 -0.3217841 
2917 -0.32179376 
2918 -0.32184795 
2919 -0.32188174 
2920 -0.32188442 
2921 -0.3219488 
2922 -0.32194772 
2923 -0.32198903 
2924 -0.32199332 
2925 -0.321937 
2926 -0.32190374 
2927 -0.3218018 
2928 -0.32176802 
2929 -0.3216752 
2930 -0.32162264 
2931 -0.32161942 
2932 -0.32166877 
2933 -0.32167253 
2934 -0.32162318 
2935 -0.3216162 
2936 -0.3216929 
2937 -0.321694 
2938 -0.3216913 
2939 -0.3216661 
2940 -0.3216956 
2941 -0.32171437 
2942 -0.32168755 
2943 -0.32175407 
2944 -0.32185224 
2945 -0.32191822 
2946 -0.32189998 
2947 -0.32189247 
2948 -0.32188442 
2949 -0.32195953 
2950 -0.32199225 
2951 -0.32180825 
2952 -0.32172725 
2953 -0.32176587 
2954 -0.32191285 
2955 -0.32210705 
2956 -0.32215855 
2957 -0.32229802 
2958 -0.32224062 
2959 -0.3220534 
2960 -0.32187316 
2961 -0.32172778 
2962 -0.3216162 
2963 -0.32146707 
2964 -0.3213496 
2965 -0.3214011 
2966 -0.32144776 
2967 -0.32154432 
2968 -0.32170472 
2969 -0.32178947 
2970 -0.32186887 
2971 -0.3218898 
2972 -0.32166073 
2973 -0.32153788 
2974 -0.32164624 
2975 -0.32174066 
2976 -0.3216913 
2977 -0.32171062 
2978 -0.32183936 
2979 -0.321878 
2980 -0.32193324 
2981 -0.32192627 
2982 -0.32191446 
2983 -0.32194504 
2984 -0.3219016 
2985 -0.32189354 
2986 -0.32179162 
2987 -0.3215647 
2988 -0.32143864 
2989 -0.3214558 
2990 -0.32145795 
2991 -0.3214381 
2992 -0.3213319 
2993 -0.3212745 
2994 -0.3212348 
2995 -0.3212439 
2996 -0.32116184 
2997 -0.32120958 
2998 -0.3211715 
2999 -0.32110122 
3000 -0.3210996 
3001 -0.32126912 
3002 -0.32136354 
3003 -0.32146868 
3004 -0.32158133 
3005 -0.32166073 
3006 -0.32166556 
3007 -0.32162157 
3008 -0.32155988 
3009 -0.32148746 
3010 -0.321591 
3011 -0.32153735 
3012 -0.32140002 
3013 -0.32138714 
3014 -0.32128093 
3015 -0.32119778 
3016 -0.32120207 
3017 -0.3212423 
3018 -0.32125142 
3019 -0.32118437 
3020 -0.32108405 
3021 -0.32097623 
3022 -0.3209478 
3023 -0.32090434 
3024 -0.32082978 
3025 -0.32081744 
3026 -0.32076594 
3027 -0.32074502 
3028 -0.32089522 
3029 -0.32106957 
3030 -0.3212246 
3031 -0.3214762 
3032 -0.32159528 
3033 -0.32157382 
3034 -0.32152608 
3035 -0.32144132 
3036 -0.3213587 
3037 -0.32125303 
3038 -0.32118115 
3039 -0.32120314 
3040 -0.32125732 
3041 -0.32122728 
3042 -0.32111463 
3043 -0.32110927 
3044 -0.3212144 
3045 -0.32126215 
3046 -0.32130936 
3047 -0.321326 
3048 -0.32126644 
3049 -0.3212777 
3050 -0.32127288 
3051 -0.32124498 
3052 -0.32129756 
3053 -0.32125142 
3054 -0.3210717 
3055 -0.32105723 
3056 -0.32099876 
3057 -0.3209966 
3058 -0.3210803 
3059 -0.32119402 
3060 -0.32118168 
3061 -0.32108244 
3062 -0.3209698 
3063 -0.3208212 
3064 -0.32089952 
3065 -0.32095745 
3066 -0.32101056 
3067 -0.3210717 
3068 -0.32111785 
3069 -0.32118008 
3070 -0.32108727 
3071 -0.32113823 
3072 -0.321135 
3073 -0.3210862 
3074 -0.32096443 
3075 -0.3210229 
3076 -0.32097837 
3077 -0.32091078 
3078 -0.32094082 
3079 -0.32096067 
3080 -0.32101807 
3081 -0.32098266 
3082 -0.32088932 
3083 -0.3208051 
3084 -0.32084373 
3085 -0.32100466 
3086 -0.32097837 
3087 -0.32090166 
3088 -0.3208373 
3089 -0.32085446 
3090 -0.32096818 
3091 -0.32102343 
3092 -0.3210186 
3093 -0.32107225 
3094 -0.32116666 
3095 -0.3211833 
3096 -0.32119188 
3097 -0.32119134 
3098 -0.32110283 
3099 -0.32114145 
3100 -0.32124874 
3101 -0.32126805 
3102 -0.3212525 
3103 -0.3213249 
3104 -0.32149926 
3105 -0.32160226 
3106 -0.32164302 
3107 -0.32164517 
3108 -0.3215427 
3109 -0.32138982 
3110 -0.32134262 
3111 -0.3212026 
3112 -0.3211259 
3113 -0.32105348 
3114 -0.32105616 
3115 -0.32105723 
3116 -0.32095906 
3117 -0.32087216 
3118 -0.3208212 
3119 -0.32089362 
3120 -0.32098803 
3121 -0.3210347 
3122 -0.32097676 
3123 -0.3208759 
3124 -0.3208491 
3125 -0.32087967 
3126 -0.3209376 
3127 -0.32095638 
3128 -0.32093814 
3129 -0.32119295 
3130 -0.32144186 
3131 -0.32150516 
3132 -0.3214467 
3133 -0.32128415 
3134 -0.32123587 
3135 -0.32122192 
3136 -0.32132706 
3137 -0.32140163 
3138 -0.32133082 
3139 -0.3213158 
3140 -0.32140055 
3141 -0.321466 
3142 -0.3214644 
3143 -0.32150462 
3144 -0.32152286 
3145 -0.32140484 
3146 -0.32140484 
3147 -0.3214043 
3148 -0.3214365 
3149 -0.32144615 
3150 -0.32155988 
3151 -0.32158938 
3152 -0.32151964 
3153 -0.32140055 
3154 -0.3213292 
3155 -0.32133028 
3156 -0.32140324 
3157 -0.32142684 
3158 -0.32131848 
3159 -0.32125732 
3160 -0.32129273 
3161 -0.32130077 
3162 -0.32127878 
3163 -0.32123372 
3164 -0.32118598 
3165 -0.3211833 
3166 -0.32120797 
3167 -0.3211924 
3168 -0.32113394 
3169 -0.32111892 
3170 -0.32119724 
3171 -0.32136998 
3172 -0.32141772 
3173 -0.32135925 
3174 -0.32148907 
3175 -0.32163927 
3176 -0.32164302 
3177 -0.32169023 
3178 -0.32171544 
3179 -0.32180342 
3180 -0.3219134 
3181 -0.32196274 
3182 -0.32194504 
3183 -0.32188067 
3184 -0.32182166 
3185 -0.32165697 
3186 -0.3215277 
3187 -0.3214397 
3188 -0.32135388 
3189 -0.32131633 
3190 -0.3212863 
3191 -0.3212627 
3192 -0.32120475 
3193 -0.32117096 
3194 -0.32108405 
3195 -0.32095477 
3196 -0.32083353 
3197 -0.32074717 
3198 -0.3205519 
3199 -0.32052454 
3200 -0.3204929 
3201 -0.32050362 
3202 -0.32066187 
3203 -0.32086143 
3204 -0.32114038 
3205 -0.32143542 
3206 -0.3216677 
3207 -0.32181898 
3208 -0.3219783 
3209 -0.32192144 
3210 -0.3219166 
3211 -0.32178196 
3212 -0.3215486 
3213 -0.32146278 
3214 -0.32142523 
3215 -0.32144776 
3216 -0.32141718 
3217 -0.32131472 
3218 -0.32127717 
3219 -0.32133886 
3220 -0.32136193 
3221 -0.32127824 
3222 -0.32126108 
3223 -0.32126376 
3224 -0.32116613 
3225 -0.3211098 
3226 -0.32112536 
3227 -0.32101646 
3228 -0.32088932 
3229 -0.32091883 
3230 -0.32094726 
3231 -0.32104114 
3232 -0.32104757 
3233 -0.32113394 
3234 -0.32133672 
3235 -0.3214982 
3236 -0.32162157 
3237 -0.32170632 
3238 -0.32165805 
3239 -0.3216929 
3240 -0.3216677 
3241 -0.32173476 
3242 -0.32160655 
3243 -0.32158348 
3244 -0.32161406 
3245 -0.32162318 
3246 -0.32162854 
3247 -0.32158938 
3248 -0.32150516 
3249 -0.32138553 
3250 -0.32129434 
3251 -0.32125142 
3252 -0.32114306 
3253 -0.3210331 
3254 -0.32107493 
3255 -0.32125518 
3256 -0.3214322 
3257 -0.32154647 
3258 -0.32154593 
3259 -0.32152233 
3260 -0.32154003 
3261 -0.32162425 
3262 -0.32167253 
3263 -0.32150087 
3264 -0.3213512 
3265 -0.32118866 
3266 -0.321142 
3267 -0.32102773 
3268 -0.32098803 
3269 -0.32098427 
3270 -0.3210127 
3271 -0.32108995 
3272 -0.32111785 
3273 -0.32114467 
3274 -0.32116827 
3275 -0.32125142 
3276 -0.32133082 
3277 -0.32138607 
3278 -0.32146654 
3279 -0.3216516 
3280 -0.32182702 
3281 -0.321834 
3282 -0.3218721 
3283 -0.3218619 
3284 -0.32178786 
3285 -0.32174012 
3286 -0.3217632 
3287 -0.321628 
3288 -0.32155666 
3289 -0.32154432 
3290 -0.32151 
3291 -0.3214424 
3292 -0.32137695 
3293 -0.32131472 
3294 -0.32130292 
3295 -0.32128254 
3296 -0.32125518 
3297 -0.32127556 
3298 -0.32125518 
3299 -0.3213292 
3300 -0.32137105 
3301 -0.32141986 
3302 -0.32148585 
3303 -0.32163283 
3304 -0.3217267 
3305 -0.32177714 
3306 -0.32179216 
3307 -0.321731 
3308 -0.32159528 
3309 -0.321444 
3310 -0.32144293 
3311 -0.32139143 
3312 -0.32121655 
3313 -0.3212171 
3314 -0.32123318 
3315 -0.32134745 
3316 -0.321363 
3317 -0.32132652 
3318 -0.32132813 
3319 -0.32139573 
3320 -0.32138714 
3321 -0.3213158 
3322 -0.3212171 
3323 -0.32109854 
3324 -0.32101002 
3325 -0.32096764 
3326 -0.32102343 
3327 -0.3210127 
3328 -0.32098964 
3329 -0.32097355 
3330 -0.32094887 
3331 -0.32101592 
3332 -0.32106528 
3333 -0.32118812 
3334 -0.32127985 
3335 -0.32142738 
3336 -0.32151428 
3337 -0.3215529 
3338 -0.3216162 
3339 -0.3216881 
3340 -0.32174227 
3341 -0.32165536 
3342 -0.3215572 
3343 -0.32147673 
3344 -0.32135925 
3345 -0.3213131 
3346 -0.32126644 
3347 -0.3212144 
3348 -0.32124713 
3349 -0.32127824 
3350 -0.3212144 
3351 -0.32121548 
3352 -0.3211715 
3353 -0.32107762 
3354 -0.3210878 
3355 -0.321179 
3356 -0.32116184 
3357 -0.3211023 
3358 -0.32106957 
3359 -0.3210304 
3360 -0.3211055 
3361 -0.32111034 
3362 -0.32106206 
3363 -0.32103577 
3364 -0.32105187 
3365 -0.32109156 
3366 -0.3211511 
3367 -0.32116827 
3368 -0.32119402 
3369 -0.32129434 
3370 -0.32133886 
3371 -0.32123533 
3372 -0.32108513 
3373 -0.321017 
3374 -0.3210111 
3375 -0.32094726 
3376 -0.3208684 
3377 -0.3208786 
3378 -0.32097837 
3379 -0.32105455 
3380 -0.32119778 
3381 -0.3212171 
3382 -0.3211629 
3383 -0.32110658 
3384 -0.32112965 
3385 -0.32112536 
3386 -0.32113984 
3387 -0.32106903 
3388 -0.32105777 
3389 -0.32113072 
3390 -0.32131848 
3391 -0.32136676 
3392 -0.32126537 
3393 -0.32117954 
3394 -0.3211039 
3395 -0.32111356 
3396 -0.32103685 
3397 -0.3208888 
3398 -0.3209022 
3399 -0.32081154 
3400 -0.32076862 
3401 -0.3208051 
3402 -0.32085446 
3403 -0.32097784 
3404 -0.32112858 
3405 -0.32128522 
3406 -0.32125625 
3407 -0.3212305 
3408 -0.32125947 
3409 -0.32138607 
3410 -0.32135978 
3411 -0.32131365 
3412 -0.3212423 
3413 -0.32124928 
3414 -0.32127503 
3415 -0.321282 
3416 -0.32129756 
3417 -0.32138714 
3418 -0.32143542 
3419 -0.32140753 
3420 -0.3213732 
3421 -0.3213335 
3422 -0.32123962 
3423 -0.3211173 
3424 -0.32098213 
3425 -0.32089362 
3426 -0.3208609 
3427 -0.32081583 
3428 -0.32082817 
3429 -0.3208314 
3430 -0.3209848 
3431 -0.32105777 
3432 -0.32110015 
3433 -0.321179 
3434 -0.32123265 
3435 -0.32128307 
3436 -0.32128844 
3437 -0.32128093 
3438 -0.3212718 
3439 -0.32129595 
3440 -0.32134047 
3441 -0.3212997 
3442 -0.32130453 
3443 -0.32136622 
3444 -0.32131955 
3445 -0.3212466 
3446 -0.32121387 
3447 -0.32117793 
3448 -0.3210068 
3449 -0.3208625 
3450 -0.32083085 
3451 -0.3208963 
3452 -0.3208684 
3453 -0.3208566 
3454 -0.32089362 
3455 -0.32111946 
3456 -0.32131097 
3457 -0.32127127 
3458 -0.32126483 
3459 -0.32127932 
3460 -0.321304 
3461 -0.32131955 
3462 -0.32122406 
3463 -0.3210905 
3464 -0.321098 
3465 -0.32114413 
3466 -0.32108513 
3467 -0.32091936 
3468 -0.32097033 
3469 -0.32116774 
3470 -0.32125142 
3471 -0.3212997 
3472 -0.32119402 
3473 -0.32112804 
3474 -0.3210363 
3475 -0.32090542 
3476 -0.3208008 
3477 -0.32068065 
3478 -0.32068333 
3479 -0.32077023 
3480 -0.32084963 
3481 -0.32096496 
3482 -0.3210229 
3483 -0.3210642 
3484 -0.32109532 
3485 -0.32114682 
3486 -0.32121655 
3487 -0.32124123 
3488 -0.32127663 
3489 -0.32126054 
3490 -0.32128736 
3491 -0.3212568 
3492 -0.32129487 
3493 -0.3212616 
3494 -0.32127932 
3495 -0.32137105 
3496 -0.32144615 
3497 -0.32154003 
3498 -0.32154432 
3499 -0.3214821 
3500 -0.32135817 
3501 -0.32130024 
3502 -0.32112804 
3503 -0.32090166 
3504 -0.32081744 
3505 -0.32095155 
3506 -0.321017 
3507 -0.32104114 
3508 -0.32104918 
3509 -0.3210626 
3510 -0.3211082 
3511 -0.3211656 
3512 -0.32115057 
3513 -0.32114682 
3514 -0.32118705 
3515 -0.32124338 
3516 -0.3212541 
3517 -0.32117793 
3518 -0.32107708 
3519 -0.3210449 
3520 -0.3209478 
3521 -0.32097355 
3522 -0.32100037 
3523 -0.32101807 
3524 -0.32111785 
3525 -0.3211243 
3526 -0.32105348 
3527 -0.32091776 
3528 -0.32071498 
3529 -0.32069996 
3530 -0.32083514 
3531 -0.3209462 
3532 -0.32095745 
3533 -0.3210025 
3534 -0.32106635 
3535 -0.3211833 
3536 -0.32121655 
3537 -0.32112375 
3538 -0.3210669 
3539 -0.321135 
3540 -0.32120958 
3541 -0.3211876 
3542 -0.32121065 
3543 -0.3212262 
3544 -0.32119992 
3545 -0.32123318 
3546 -0.321304 
3547 -0.32132116 
3548 -0.3213528 
3549 -0.32132706 
3550 -0.32137212 
3551 -0.32127878 
3552 -0.32119402 
3553 -0.32117364 
3554 -0.32112536 
3555 -0.3210052 
3556 -0.32094833 
3557 -0.32092473 
3558 -0.32116398 
3559 -0.3213764 
3560 -0.3213952 
3561 -0.32129702 
3562 -0.3211039 
3563 -0.3210583 
3564 -0.32117847 
3565 -0.32120797 
3566 -0.3211479 
3567 -0.32116076 
3568 -0.32117632 
3569 -0.32117686 
3570 -0.32116827 
3571 -0.32113287 
3572 -0.32101056 
3573 -0.32081422 
3574 -0.320833 
3575 -0.320855 
3576 -0.32088718 
3577 -0.3209714 
3578 -0.32107064 
3579 -0.32114038 
3580 -0.32124338 
3581 -0.32117578 
3582 -0.32098374 
3583 -0.32095692 
3584 -0.32105884 
3585 -0.321135 
3586 -0.321076 
3587 -0.3209816 
3588 -0.3208829 
3589 -0.32092097 
3590 -0.32095477 
3591 -0.32089737 
3592 -0.32090864 
3593 -0.32098213 
3594 -0.32103148 
3595 -0.32105884 
3596 -0.32110766 
3597 -0.32112107 
3598 -0.32114306 
3599 -0.32122782 
3600 -0.32119027 
3601 -0.32115594 
3602 -0.3211377 
3603 -0.32101914 
3604 -0.32090917 
3605 -0.3209199 
3606 -0.32091615 
3607 -0.32099018 
3608 -0.32107225 
3609 -0.3211216 
3610 -0.32117042 
3611 -0.32117096 
3612 -0.32115433 
3613 -0.3210481 
3614 -0.32107332 
3615 -0.32111463 
3616 -0.32120904 
3617 -0.32106474 
3618 -0.32092205 
3619 -0.32092902 
3620 -0.3209317 
3621 -0.32091132 
3622 -0.3209081 
3623 -0.32077184 
3624 -0.32061145 
3625 -0.32058892 
3626 -0.32051006 
3627 -0.3204725 
3628 -0.3204693 
3629 -0.32049933 
3630 -0.32065007 
3631 -0.32088986 
3632 -0.3211436 
3633 -0.32132116 
3634 -0.32157007 
3635 -0.32180128 
3636 -0.32183078 
3637 -0.32174763 
3638 -0.32171813 
3639 -0.3217149 
3640 -0.32166824 
3641 -0.3215615 
3642 -0.3214456 
3643 -0.32126 
3644 -0.32115164 
3645 -0.3211157 
3646 -0.32110712 
3647 -0.32099983 
3648 -0.32085446 
3649 -0.32095048 
3650 -0.32094833 
3651 -0.3209081 
3652 -0.32084802 
3653 -0.32082388 
3654 -0.32083032 
3655 -0.3209124 
3656 -0.32096335 
3657 -0.32090005 
3658 -0.32085446 
3659 -0.32090005 
3660 -0.32099715 
3661 -0.32103094 
3662 -0.32098696 
3663 -0.32091507 
3664 -0.32103845 
3665 -0.3211967 
3666 -0.32117257 
3667 -0.32110927 
3668 -0.3210964 
3669 -0.32125947 
3670 -0.321363 
3671 -0.3212686 
3672 -0.3212085 
3673 -0.32119778 
3674 -0.3212144 
3675 -0.32129112 
3676 -0.32118222 
3677 -0.3209521 
3678 -0.32089093 
3679 -0.32082924 
3680 -0.32079706 
3681 -0.32077882 
3682 -0.32076648 
3683 -0.32081208 
3684 -0.32086572 
3685 -0.32086304 
3686 -0.3210009 
3687 -0.32115164 
3688 -0.3212128 
3689 -0.32129166 
3690 -0.3213131 
3691 -0.3212863 
3692 -0.32129756 
3693 -0.32124123 
3694 -0.3212482 
3695 -0.32131365 
3696 -0.32145473 
3697 -0.32144347 
3698 -0.32140163 
3699 -0.32142577 
3700 -0.32137266 
3701 -0.32127342 
3702 -0.32112107 
3703 -0.32097998 
3704 -0.3209006 
3705 -0.32082495 
3706 -0.32086572 
3707 -0.32079652 
3708 -0.32074824 
3709 -0.3207563 
3710 -0.3208051 
3711 -0.32083192 
3712 -0.32081154 
3713 -0.3207858 
3714 -0.32084265 
3715 -0.32086036 
3716 -0.32092205 
3717 -0.3209435 
3718 -0.3208818 
3719 -0.32095155 
3720 -0.32107064 
3721 -0.32116827 
3722 -0.32111517 
3723 -0.32102558 
3724 -0.32090166 
3725 -0.32096282 
3726 -0.32105723 
3727 -0.32110444 
3728 -0.32100466 
3729 -0.32104114 
3730 -0.3210465 
3731 -0.32102075 
3732 -0.3211055 
3733 -0.3210728 
3734 -0.32102612 
3735 -0.3210272 
3736 -0.3209891 
3737 -0.32095638 
3738 -0.32082334 
3739 -0.32075253 
3740 -0.3208228 
3741 -0.32089952 
3742 -0.32086626 
3743 -0.32068118 
3744 -0.32074448 
3745 -0.32084695 
3746 -0.3209097 
3747 -0.32089362 
3748 -0.3208818 
3749 -0.32090166 
3750 -0.32082817 
3751 -0.32083353 
3752 -0.3208287 
3753 -0.32077023 
3754 -0.32075468 
3755 -0.32081154 
3756 -0.32091936 
3757 -0.32092044 
3758 -0.32093868 
3759 -0.3209698 
3760 -0.3209832 
3761 -0.3209714 
3762 -0.32094726 
3763 -0.32082817 
3764 -0.32085714 
3765 -0.32096657 
3766 -0.32086948 
3767 -0.3207992 
3768 -0.3207697 
3769 -0.32074878 
3770 -0.32083514 
3771 -0.32090113 
3772 -0.32086143 
3773 -0.3208668 
3774 -0.32082817 
3775 -0.32082924 
3776 -0.32085446 
3777 -0.3208287 
3778 -0.32083943 
3779 -0.3208684 
3780 -0.32095423 
3781 -0.32102022 
3782 -0.3210331 
3783 -0.32101217 
3784 -0.32099983 
3785 -0.32099018 
3786 -0.3210009 
3787 -0.32101485 
3788 -0.32092366 
3789 -0.3208625 
3790 -0.32069138 
3791 -0.3205739 
3792 -0.320487 
3793 -0.3202558 
3794 -0.32007393 
3795 -0.32001385 
3796 -0.32011738 
3797 -0.32008037 
3798 -0.32012436 
3799 -0.32017478 
3800 -0.32036844 
3801 -0.32048163 
3802 -0.3204752 
3803 -0.3205181 
3804 -0.32061306 
3805 -0.32066134 
3806 -0.3206726 
3807 -0.3207123 
3808 -0.3206651 
3809 -0.32073805 
3810 -0.32078633 
3811 -0.3208759 
3812 -0.3208845 
3813 -0.3208094 
3814 -0.32080188 
3815 -0.3209215 
3816 -0.3209242 
3817 -0.32090166 
3818 -0.32093975 
3819 -0.32099018 
3820 -0.32106957 
3821 -0.3210669 
3822 -0.32096818 
3823 -0.32102612 
3824 -0.32103416 
3825 -0.32099554 
3826 -0.32096872 
3827 -0.32095155 
3828 -0.3211039 
3829 -0.3210905 
3830 -0.32106367 
3831 -0.3210422 
3832 -0.32093117 
3833 -0.32088396 
3834 -0.32093546 
3835 -0.32100198 
3836 -0.32097676 
3837 -0.32096496 
3838 -0.32090113 
3839 -0.32091883 
3840 -0.32088664 
3841 -0.3207799 
3842 -0.3207139 
3843 -0.32065865 
3844 -0.32062164 
3845 -0.3206447 
3846 -0.3207316 
3847 -0.32070693 
3848 -0.3207048 
3849 -0.32078096 
3850 -0.32086518 
3851 -0.3208963 
3852 -0.3208185 
3853 -0.32080027 
3854 -0.320892 
3855 -0.32088503 
3856 -0.32076165 
3857 -0.32072732 
3858 -0.3206624 
3859 -0.32059696 
3860 -0.32059214 
3861 -0.3205444 
3862 -0.32053742 
3863 -0.32054278 
3864 -0.3205664 
3865 -0.32060072 
3866 -0.32073697 
3867 -0.32084802 
3868 -0.32081905 
3869 -0.32079062 
3870 -0.3208373 
3871 -0.32083407 
3872 -0.3207874 
3873 -0.3207021 
3874 -0.320708 
3875 -0.3207799 
3876 -0.32075736 
3877 -0.32068333 
3878 -0.3206415 
3879 -0.32059214 
3880 -0.3206152 
3881 -0.32060876 
3882 -0.32062432 
3883 -0.32066134 
3884 -0.32061842 
3885 -0.32063344 
3886 -0.3206624 
3887 -0.32066724 
3888 -0.32066134 
3889 -0.32061788 
3890 -0.32059643 
3891 -0.3205342 
3892 -0.32060286 
3893 -0.32059214 
3894 -0.32054332 
3895 -0.3205138 
3896 -0.32051542 
3897 -0.3205578 
3898 -0.3206565 
3899 -0.32067958 
3900 -0.32078633 
3901 -0.32090756 
3902 -0.32092687 
3903 -0.3208668 
3904 -0.3207917 
3905 -0.32079008 
3906 -0.3207343 
3907 -0.32059267 
3908 -0.32046768 
3909 -0.3204709 
3910 -0.32056478 
3911 -0.32062915 
3912 -0.32066563 
3913 -0.32069245 
3914 -0.32074127 
3915 -0.3208523 
3916 -0.32097676 
3917 -0.32096335 
3918 -0.32093224 
3919 -0.32087484 
3920 -0.32083836 
3921 -0.3208228 
3922 -0.32068977 
3923 -0.32056156 
3924 -0.32057604 
3925 -0.32054386 
3926 -0.32054386 
3927 -0.32058784 
3928 -0.32057014 
3929 -0.32058033 
3930 -0.32069567 
3931 -0.32079062 
3932 -0.32083085 
3933 -0.3208829 
3934 -0.32091293 
3935 -0.32097676 
3936 -0.3209966 
3937 -0.32093975 
3938 -0.3208373 
3939 -0.3207552 
3940 -0.32083032 
3941 -0.320811 
3942 -0.32078257 
3943 -0.3206565 
3944 -0.32058945 
3945 -0.32061574 
3946 -0.32057068 
3947 -0.32045105 
3948 -0.3203518 
3949 -0.32043174 
3950 -0.32051972 
3951 -0.32059696 
3952 -0.3206533 
3953 -0.32061628 
3954 -0.32060716 
3955 -0.32075468 
3956 -0.32083353 
3957 -0.32079974 
3958 -0.3207536 
3959 -0.32074502 
3960 -0.32072303 
3961 -0.32065597 
3962 -0.32059857 
3963 -0.32056263 
3964 -0.3205605 
3965 -0.32060072 
3966 -0.32063344 
3967 -0.32072893 
3968 -0.32079706 
3969 -0.32084265 
3970 -0.32092795 
3971 -0.32086304 
3972 -0.32081744 
3973 -0.3207611 
3974 -0.32078633 
3975 -0.32076648 
3976 -0.32070962 
3977 -0.32066616 
3978 -0.32068548 
3979 -0.32076433 
3980 -0.3208244 
3981 -0.32086787 
3982 -0.32087162 
3983 -0.3207976 
3984 -0.32070157 
3985 -0.3206978 
3986 -0.32078847 
3987 -0.3206667 
3988 -0.32060823 
3989 -0.32049826 
3990 -0.32049182 
3991 -0.32059696 
3992 -0.3206238 
3993 -0.32058302 
3994 -0.32073107 
3995 -0.32077023 
3996 -0.32075146 
3997 -0.32074234 
3998 -0.32079813 
3999 -0.3209462 
4000 -0.32106474 
4001 -0.3210347 
4002 -0.3210111 
4003 -0.32095584 
4004 -0.32080725 
4005 -0.32069084 
4006 -0.3206608 
4007 -0.32060984 
4008 -0.3205621 
4009 -0.32053956 
4010 -0.32052615 
4011 -0.32060286 
4012 -0.32073376 
4013 -0.32072195 
4014 -0.32076487 
4015 -0.32087108 
4016 -0.32095423 
4017 -0.3210331 
4018 -0.32095477 
4019 -0.3208196 
4020 -0.32075414 
4021 -0.32073912 
4022 -0.32066724 
4023 -0.32056478 
4024 -0.320487 
4025 -0.32055458 
4026 -0.32053795 
4027 -0.32053795 
4028 -0.32059965 
4029 -0.3206356 
4030 -0.32072625 
4031 -0.32075146 
4032 -0.3207107 
4033 -0.3207434 
4034 -0.32072142 
4035 -0.32073805 
4036 -0.32076755 
4037 -0.32073054 
4038 -0.3207284 
4039 -0.32073376 
4040 -0.32065222 
4041 -0.32068172 
4042 -0.32063773 
4043 -0.32057497 
4044 -0.32056585 
4045 -0.32062915 
4046 -0.32058355 
4047 -0.3205224 
4048 -0.32049933 
4049 -0.32056102 
4050 -0.3206356 
4051 -0.3207316 
4052 -0.32074448 
4053 -0.32079437 
4054 -0.32078257 
4055 -0.3208035 
4056 -0.3207536 
4057 -0.32072732 
4058 -0.32057443 
4059 -0.32045212 
4060 -0.32048056 
4061 -0.3205342 
4062 -0.3205342 
4063 -0.32051274 
4064 -0.32057443 
4065 -0.32069942 
4066 -0.3207611 
4067 -0.32079974 
4068 -0.3208389 
4069 -0.32084373 
4070 -0.32082817 
4071 -0.32077774 
4072 -0.32067046 
4073 -0.3206989 
4074 -0.3206345 
4075 -0.32065383 
4076 -0.32066134 
4077 -0.32067528 
4078 -0.32063076 
4079 -0.32059696 
4080 -0.32067582 
4081 -0.3207434 
4082 -0.32076755 
4083 -0.32070425 
4084 -0.32064578 
4085 -0.32057872 
4086 -0.32060823 
4087 -0.32061788 
4088 -0.3205047 
4089 -0.32049665 
4090 -0.3205814 
4091 -0.32065704 
4092 -0.3207611 
4093 -0.3207504 
4094 -0.32080886 
4095 -0.32084212 
4096 -0.32089362 
4097 -0.32096067 
4098 -0.32090917 
4099 -0.3208641 
4100 -0.3208094 
4101 -0.3208271 
4102 -0.32078633 
4103 -0.3206785 
4104 -0.32061788 
4105 -0.320524 
4106 -0.3204253 
4107 -0.3203132 
4108 -0.32027617 
4109 -0.32033733 
4110 -0.32038775 
4111 -0.32041457 
4112 -0.32047626 
4113 -0.32056907 
4114 -0.32062808 
4115 -0.32076058 
4116 -0.32077935 
4117 -0.32072893 
4118 -0.32073 
4119 -0.32079437 
4120 -0.32080403 
4121 -0.3207284 
4122 -0.32064095 
4123 -0.3205723 
4124 -0.32050255 
4125 -0.3204752 
4126 -0.320509 
4127 -0.320502 
4128 -0.32039794 
4129 -0.3204092 
4130 -0.3205165 
4131 -0.32056907 
4132 -0.32059428 
4133 -0.32053956 
4134 -0.32045212 
4135 -0.32045105 
4136 -0.3205342 
4137 -0.3206286 
4138 -0.32065973 
4139 -0.3206871 
4140 -0.32071713 
4141 -0.32085982 
4142 -0.32098535 
4143 -0.3209891 
4144 -0.32100198 
4145 -0.32108298 
4146 -0.3211141 
4147 -0.3210331 
4148 -0.3210213 
4149 -0.3208802 
4150 -0.3206978 
4151 -0.32054386 
4152 -0.32037595 
4153 -0.32023916 
4154 -0.32013884 
4155 -0.32012704 
4156 -0.32018015 
4157 -0.32015976 
4158 -0.32010236 
4159 -0.32018927 
4160 -0.32030192 
4161 -0.3203427 
4162 -0.32030782 
4163 -0.32031265 
4164 -0.32027724 
4165 -0.32033893 
4166 -0.32045373 
4167 -0.32049826 
4168 -0.3205444 
4169 -0.32061467 
4170 -0.32072034 
4171 -0.320752 
4172 -0.32070103 
4173 -0.32055727 
4174 -0.32051113 
4175 -0.32063183 
4176 -0.32066777 
4177 -0.3206254 
4178 -0.3207166 
4179 -0.32084373 
4180 -0.32098964 
4181 -0.32097837 
4182 -0.32084158 
4183 -0.32079062 
4184 -0.3208008 
4185 -0.3207611 
4186 -0.32060394 
4187 -0.3205326 
4188 -0.32050952 
4189 -0.32053205 
4190 -0.32063612 
4191 -0.32066885 
4192 -0.32068816 
4193 -0.32071874 
4194 -0.32068655 
4195 -0.32072464 
4196 -0.3207477 
4197 -0.3206828 
4198 -0.32058784 
4199 -0.32049665 
4200 -0.3204253 
4201 -0.32039848 
4202 -0.32038882 
4203 -0.3203223 
4204 -0.32026652 
4205 -0.32023862 
4206 -0.3203443 
4207 -0.32049772 
4208 -0.3205047 
4209 -0.32057926 
4210 -0.32065114 
4211 -0.32071015 
4212 -0.3207343 
4213 -0.32066187 
4214 -0.32061306 
4215 -0.32066616 
4216 -0.32066402 
4217 -0.32062915 
4218 -0.3207579 
4219 -0.3208668 
4220 -0.32083622 
4221 -0.32073 
4222 -0.32048592 
4223 -0.3202649 
4224 -0.3201796 
4225 -0.3202161 
4226 -0.3202252 
4227 -0.32028046 
4228 -0.320443 
4229 -0.32055297 
4230 -0.3206651 
4231 -0.32073 
4232 -0.3207536 
4233 -0.32075736 
4234 -0.32073 
4235 -0.32070586 
4236 -0.3208373 
4237 -0.3209333 
4238 -0.32100788 
4239 -0.32111678 
4240 -0.32122728 
4241 -0.32112214 
4242 -0.32090113 
4243 -0.32067207 
4244 -0.32045212 
4245 -0.3203325 
4246 -0.3202928 
4247 -0.32026437 
4248 -0.32021126 
4249 -0.32012597 
4250 -0.32012436 
4251 -0.32028583 
4252 -0.32034376 
4253 -0.3203872 
4254 -0.3204237 
4255 -0.3204752 
4256 -0.32054064 
4257 -0.32061896 
4258 -0.32056746 
4259 -0.3205782 
4260 -0.32072785 
4261 -0.32090327 
4262 -0.32094833 
4263 -0.3208979 
4264 -0.32081315 
4265 -0.320789 
4266 -0.3207772 
4267 -0.3207461 
4268 -0.32067958 
4269 -0.32061735 
4270 -0.3206238 
4271 -0.32064041 
4272 -0.32058302 
4273 -0.32055244 
4274 -0.32060876 
4275 -0.320671 
4276 -0.32074985 
4277 -0.32063505 
4278 -0.32056424 
4279 -0.32044998 
4280 -0.32048967 
4281 -0.320509 
4282 -0.32048538 
4283 -0.32038453 
4284 -0.32039472 
4285 -0.3205417 
4286 -0.32074073 
4287 -0.3208507 
4288 -0.32092312 
4289 -0.32094565 
4290 -0.32095745 
4291 -0.321017 
4292 -0.32114306 
4293 -0.32104006 
4294 -0.32089898 
4295 -0.32084158 
4296 -0.3205932 
4297 -0.32035986 
4298 -0.32023272 
4299 -0.32018444 
4300 -0.3202676 
4301 -0.320421 
4302 -0.3204961 
4303 -0.32050255 
4304 -0.3205342 
4305 -0.32061145 
4306 -0.32072625 
4307 -0.32069352 
4308 -0.3206726 
4309 -0.32063344 
4310 -0.3207048 
4311 -0.32083085 
4312 -0.3208947 
4313 -0.32089576 
4314 -0.32092634 
4315 -0.32108244 
4316 -0.32119563 
4317 -0.3212069 
4318 -0.32115754 
4319 -0.32101056 
4320 -0.32081637 
4321 -0.32065383 
4322 -0.32056907 
4323 -0.32047412 
4324 -0.32036415 
4325 -0.32032177 
4326 -0.32030514 
4327 -0.32027885 
4328 -0.32028154 
4329 -0.3203105 
4330 -0.32037166 
4331 -0.32036415 
4332 -0.3203309 
4333 -0.32039097 
4334 -0.32051006 
4335 -0.32063022 
4336 -0.32069245 
4337 -0.3206388 
4338 -0.32056907 
4339 -0.32061306 
4340 -0.3207005 
4341 -0.32066455 
4342 -0.32068548 
4343 -0.32071927 
4344 -0.3208641 
4345 -0.3209966 
4346 -0.32118705 
4347 -0.3212643 
4348 -0.3212761 
4349 -0.3214971 
4350 -0.3215615 
4351 -0.32152823 
4352 -0.32141826 
4353 -0.32132116 
4354 -0.32121173 
4355 -0.32109532 
4356 -0.3210068 
4357 -0.32072088 
4358 -0.3205605 
4359 -0.3205181 
4360 -0.32054278 
4361 -0.32055405 
4362 -0.32054707 
4363 -0.32051757 
4364 -0.3204092 
4365 -0.32040116 
4366 -0.32051703 
4367 -0.32074448 
4368 -0.32086143 
4369 -0.32086572 
4370 -0.32100466 
4371 -0.3211173 
4372 -0.32118544 
4373 -0.32130775 
4374 -0.32129112 
4375 -0.321304 
4376 -0.32131258 
4377 -0.3212482 
4378 -0.32109746 
4379 -0.32099715 
4380 -0.3208507 
4381 -0.32078794 
4382 -0.32072946 
4383 -0.32068333 
4384 -0.32064953 
4385 -0.32072464 
4386 -0.32079652 
4387 -0.32081208 
4388 -0.3208035 
4389 -0.32071766 
4390 -0.3206989 
4391 -0.32071713 
4392 -0.3206871 
4393 -0.3206238 
4394 -0.32063827 
4395 -0.32067958 
4396 -0.3207681 
4397 -0.32095423 
4398 -0.32101807 
4399 -0.32111463 
4400 -0.32111195 
4401 -0.32110015 
4402 -0.32110927 
4403 -0.3209773 
4404 -0.3208432 
4405 -0.32091883 
4406 -0.3210728 
4407 -0.32090542 
4408 -0.32073322 
4409 -0.3206608 
4410 -0.3205653 
4411 -0.3205358 
4412 -0.32053795 
4413 -0.3205771 
4414 -0.32066563 
4415 -0.32075307 
4416 -0.32083783 
4417 -0.32100895 
4418 -0.32112804 
4419 -0.32127288 
4420 -0.32131955 
4421 -0.32131258 
4422 -0.32123908 
4423 -0.3210422 
4424 -0.3209097 
4425 -0.32082388 
4426 -0.32073376 
4427 -0.32060233 
4428 -0.32052776 
4429 -0.32054064 
4430 -0.32059053 
4431 -0.3206506 
4432 -0.32064363 
4433 -0.32063773 
4434 -0.3206345 
4435 -0.32067797 
4436 -0.32075468 
4437 -0.3206801 
4438 -0.320605 
4439 -0.3204886 
4440 -0.3204607 
4441 -0.3205342 
4442 -0.32074127 
4443 -0.32092687 
4444 -0.3210583 
4445 -0.3211876 
4446 -0.321238 
4447 -0.32111517 
4448 -0.3209553 
4449 -0.32091507 
4450 -0.32087323 
4451 -0.3207225 
4452 -0.3206844 
4453 -0.32061574 
4454 -0.32055727 
4455 -0.3205079 
4456 -0.32042208 
4457 -0.32029977 
4458 -0.32034484 
4459 -0.32037434 
4460 -0.32042155 
4461 -0.32035074 
4462 -0.32018712 
4463 -0.32022467 
4464 -0.32029548 
4465 -0.32039633 
4466 -0.32059214 
4467 -0.32079706 
4468 -0.32099447 
4469 -0.32108298 
4470 -0.3210996 
4471 -0.32114467 
4472 -0.32108942 
4473 -0.32098213 
4474 -0.32076326 
4475 -0.3205594 
4476 -0.3204666 
4477 -0.3204387 
4478 -0.3203738 
4479 -0.32033947 
4480 -0.32037702 
4481 -0.3204489 
4482 -0.32054064 
4483 -0.320509 
4484 -0.3203915 
4485 -0.3203502 
4486 -0.3204473 
4487 -0.32048324 
4488 -0.3204457 
4489 -0.3202708 
4490 -0.3201029 
4491 -0.3201501 
4492 -0.3203636 
4493 -0.32064953 
4494 -0.32095423 
4495 -0.32119456 
4496 -0.32127663 
4497 -0.32114467 
4498 -0.32100627 
4499 -0.32078096 
4500 -0.3206356 
4501 -0.32055566 
4502 -0.3204092 
4503 -0.32021233 
4504 -0.3200793 
4505 -0.32001707 
4506 -0.3199661 
4507 -0.3199468 
4508 -0.31986204 
4509 -0.3198969 
4510 -0.3199838 
4511 -0.32005784 
4512 -0.32017908 
4513 -0.32032606 
4514 -0.32050362 
4515 -0.32064578 
4516 -0.3209274 
4517 -0.32112268 
4518 -0.32126483 
4519 -0.321238 
4520 -0.32120582 
4521 -0.32113877 
4522 -0.32087913 
4523 -0.32061628 
4524 -0.3204548 
4525 -0.3203164 
4526 -0.3202 
4527 -0.32012972 
4528 -0.32011738 
4529 -0.3200718 
4530 -0.32015762 
4531 -0.3202617 
4532 -0.320362 
4533 -0.32037005 
4534 -0.3203813 
4535 -0.32043603 
4536 -0.32038668 
4537 -0.32032123 
4538 -0.3203341 
4539 -0.32034913 
4540 -0.32027617 
4541 -0.32033572 
4542 -0.32036468 
4543 -0.3205138 
4544 -0.32062003 
4545 -0.3206372 
4546 -0.32063827 
4547 -0.32073697 
4548 -0.32077184 
4549 -0.32076326 
4550 -0.32060555 
4551 -0.32043818 
4552 -0.32024023 
4553 -0.32011202 
4554 -0.31997523 
4555 -0.31991622 
4556 -0.31995484 
4557 -0.31995055 
4558 -0.31990173 
4559 -0.31989744 
4560 -0.32005784 
4561 -0.3200675 
4562 -0.31997094 
4563 -0.31989047 
4564 -0.31989047 
4565 -0.31987438 
4566 -0.31989744 
4567 -0.3199087 
4568 -0.31987545 
4569 -0.31998327 
4570 -0.32040974 
4571 -0.32071498 
4572 -0.3209242 
4573 -0.32097784 
4574 -0.3209816 
4575 -0.32097515 
4576 -0.32097623 
4577 -0.32088718 
4578 -0.32080886 
4579 -0.32069942 
4580 -0.32060555 
4581 -0.32054654 
4582 -0.3204371 
4583 -0.32026973 
4584 -0.32017586 
4585 -0.32012168 
4586 -0.32021073 
4587 -0.32025525 
4588 -0.3201866 
4589 -0.3200734 
4590 -0.32004175 
4591 -0.32009915 
4592 -0.3201764 
4593 -0.32026222 
4594 -0.3204548 
4595 -0.32064417 
4596 -0.32073376 
4597 -0.32071927 
4598 -0.32058623 
4599 -0.32039365 
4600 -0.32031158 
4601 -0.32026115 
4602 -0.32012972 
4603 -0.32005784 
4604 -0.3200809 
4605 -0.3201737 
4606 -0.32029226 
4607 -0.3202971 
4608 -0.3203824 
4609 -0.3203872 
4610 -0.320325 
4611 -0.32027134 
4612 -0.32025257 
4613 -0.32021984 
4614 -0.32015172 
4615 -0.3201678 
4616 -0.32021448 
4617 -0.32024613 
4618 -0.3203754 
4619 -0.32060125 
4620 -0.3208609 
4621 -0.3209553 
4622 -0.32086948 
4623 -0.3208346 
4624 -0.32081583 
4625 -0.3206549 
4626 -0.32043764 
4627 -0.32031962 
4628 -0.32022145 
4629 -0.32016245 
4630 -0.32015333 
4631 -0.32017103 
4632 -0.32017103 
4633 -0.32014796 
4634 -0.32010934 
4635 -0.3201351 
4636 -0.32009163 
4637 -0.3199924 
4638 -0.31996772 
4639 -0.31989476 
4640 -0.319935 
4641 -0.31996396 
4642 -0.32000956 
4643 -0.32028905 
4644 -0.32061467 
4645 -0.3207933 
4646 -0.32093385 
4647 -0.32110068 
4648 -0.32112643 
4649 -0.32104918 
4650 -0.3210036 
4651 -0.320973 
4652 -0.3209301 
4653 -0.3208094 
4654 -0.32071927 
4655 -0.3206887 
4656 -0.3206297 
4657 -0.3206549 
4658 -0.3205932 
4659 -0.32057604 
4660 -0.32065168 
4661 -0.32074395 
4662 -0.32076433 
4663 -0.32070318 
4664 -0.32065222 
4665 -0.32075253 
4666 -0.32087645 
4667 -0.3209832 
4668 -0.321098 
4669 -0.32116988 
4670 -0.32113287 
4671 -0.32105348 
4672 -0.32094458 
4673 -0.32094833 
4674 -0.320973 
4675 -0.32088718 
4676 -0.32081315 
4677 -0.32079008 
4678 -0.32092687 
4679 -0.32102397 
4680 -0.3208346 
4681 -0.32074395 
4682 -0.32076862 
4683 -0.32067797 
4684 -0.32060555 
4685 -0.32049558 
4686 -0.32032767 
4687 -0.32021126 
4688 -0.32015118 
4689 -0.3200648 
4690 -0.32016405 
4691 -0.3202354 
4692 -0.32026222 
4693 -0.32024023 
4694 -0.32021555 
4695 -0.32022306 
4696 -0.32029656 
4697 -0.32033196 
4698 -0.32033196 
4699 -0.32033303 
4700 -0.3203325 
4701 -0.3203427 
4702 -0.32035342 
4703 -0.3203824 
4704 -0.32048377 
4705 -0.3205739 
4706 -0.3205771 
4707 -0.32057926 
4708 -0.320568 
4709 -0.320627 
4710 -0.32065222 
4711 -0.32071498 
4712 -0.32071337 
4713 -0.32075414 
4714 -0.32078847 
4715 -0.32075682 
4716 -0.3206726 
4717 -0.3206726 
4718 -0.320568 
4719 -0.32055727 
4720 -0.32052723 
4721 -0.3205535 
4722 -0.32060984 
4723 -0.3205932 
4724 -0.32060233 
4725 -0.32070532 
4726 -0.32076004 
4727 -0.32073644 
4728 -0.32070157 
4729 -0.3207477 
4730 -0.3208888 
4731 -0.32092258 
4732 -0.3208786 
4733 -0.32078525 
4734 -0.32071927 
4735 -0.32063398 
4736 -0.32049933 
4737 -0.32044676 
4738 -0.320325 
4739 -0.3200589 
4740 -0.31989852 
4741 -0.31986204 
4742 -0.31992856 
4743 -0.31996235 
4744 -0.31997576 
4745 -0.32005247 
4746 -0.32022306 
4747 -0.3202059 
4748 -0.32020214 
4749 -0.3202016 
4750 -0.32031158 
4751 -0.32046875 
4752 -0.32045427 
4753 -0.32037327 
4754 -0.32036522 
4755 -0.32041886 
4756 -0.32042852 
4757 -0.32045266 
4758 -0.32048216 
4759 -0.32043335 
4760 -0.32042906 
4761 -0.32040706 
4762 -0.32041404 
4763 -0.32031694 
4764 -0.32032552 
4765 -0.3204709 
4766 -0.32049933 
4767 -0.32048163 
4768 -0.32047305 
4769 -0.32046607 
4770 -0.32060394 
4771 -0.32063183 
4772 -0.3205637 
4773 -0.32051435 
4774 -0.32043174 
4775 -0.32036737 
4776 -0.32044032 
4777 -0.32044247 
4778 -0.3204269 
4779 -0.32033786 
4780 -0.32035825 
4781 -0.3203132 
4782 -0.3203502 
4783 -0.32040063 
4784 -0.32040384 
4785 -0.3204135 
4786 -0.32049236 
4787 -0.32055137 
4788 -0.32051328 
4789 -0.32048646 
4790 -0.32051972 
4791 -0.32055995 
4792 -0.32049075 
4793 -0.3204548 
4794 -0.320465 
4795 -0.32033142 
4796 -0.32023272 
4797 -0.32014582 
4798 -0.32006267 
4799 -0.3199409 
4800 -0.31989315 
4801 -0.3199586 
4802 -0.31996396 
4803 -0.3199688 
4804 -0.32003424 
4805 -0.32010773 
4806 -0.32014474 
4807 -0.32016298 
4808 -0.32020697 
4809 -0.32019356 
4810 -0.32020912 
4811 -0.32025954 
4812 -0.32032284 
4813 -0.3202649 
4814 -0.32028207 
4815 -0.3203561 
4816 -0.32041028 
4817 -0.32042262 
4818 -0.3204017 
4819 -0.3204505 
4820 -0.32046553 
4821 -0.32046875 
4822 -0.32049933 
4823 -0.320502 
4824 -0.3205208 
4825 -0.32048753 
4826 -0.32038668 
4827 -0.320384 
4828 -0.3204693 
4829 -0.3205031 
4830 -0.32053795 
4831 -0.32054707 
4832 -0.3205358 
4833 -0.3204505 
4834 -0.32037058 
4835 -0.32034752 
4836 -0.32038292 
4837 -0.320502 
4838 -0.3204473 
4839 -0.32036307 
4840 -0.32048538 
4841 -0.32052293 
4842 -0.32043174 
4843 -0.3203915 
4844 -0.32037863 
4845 -0.32034913 
4846 -0.32029817 
4847 -0.32022038 
4848 -0.3200852 
4849 -0.32011202 
4850 -0.32022735 
4851 -0.3203797 
4852 -0.3203502 
4853 -0.32021394 
4854 -0.3201013 
4855 -0.32006642 
4856 -0.32007608 
4857 -0.3200927 
4858 -0.32004443 
4859 -0.3201324 
4860 -0.3202708 
4861 -0.32028046 
4862 -0.32030138 
4863 -0.32023862 
4864 -0.32028475 
4865 -0.32042316 
4866 -0.32040545 
4867 -0.32037595 
4868 -0.32030407 
4869 -0.3202472 
4870 -0.320156 
4871 -0.3200718 
4872 -0.3200144 
4873 -0.3199323 
4874 -0.31992856 
4875 -0.3200235 
4876 -0.32009754 
4877 -0.32009163 
4878 -0.3201281 
4879 -0.32005355 
4880 -0.31999347 
4881 -0.3198819 
4882 -0.3198234 
4883 -0.31979337 
4884 -0.31982663 
4885 -0.3199441 
4886 -0.3200042 
4887 -0.3200514 
4888 -0.32013294 
4889 -0.3201587 
4890 -0.32020053 
4891 -0.3201678 
4892 -0.32016996 
4893 -0.32019678 
4894 -0.32014957 
4895 -0.32008412 
4896 -0.32005677 
4897 -0.31994143 
4898 -0.3197821 
4899 -0.3197349 
4900 -0.31975368 
4901 -0.31986097 
4902 -0.31991246 
4903 -0.31986794 
4904 -0.31987545 
4905 -0.31999347 
4906 -0.32010022 
4907 -0.32004067 
4908 -0.32005838 
4909 -0.32013562 
4910 -0.32018122 
4911 -0.32027563 
4912 -0.32045212 
4913 -0.32050362 
4914 -0.32057282 
4915 -0.3207021 
4916 -0.32069406 
4917 -0.3206034 
4918 -0.3204505 
4919 -0.32034108 
4920 -0.3201839 
4921 -0.3201528 
4922 -0.32010183 
4923 -0.32002297 
4924 -0.31996664 
4925 -0.3198481 
4926 -0.3197746 
4927 -0.31975904 
4928 -0.31972685 
4929 -0.3196909 
4930 -0.3197821 
4931 -0.31990764 
4932 -0.3200235 
4933 -0.32019785 
4934 -0.32042798 
4935 -0.32054868 
4936 -0.3205841 
4937 -0.32041618 
4938 -0.32035664 
4939 -0.32025632 
4940 -0.32012382 
4941 -0.32005408 
4942 -0.32008627 
4943 -0.32000205 
4944 -0.31988135 
4945 -0.319876 
4946 -0.31985238 
4947 -0.3198953 
4948 -0.31989744 
4949 -0.31984594 
4950 -0.31990066 
4951 -0.32004443 
4952 -0.32011577 
4953 -0.32002726 
