# 3:1 
0 -0.28014603 
1 -0.2801101 
2 -0.2800747 
3 -0.28012243 
4 -0.28013155 
5 -0.27999154 
6 -0.27998564 
7 -0.2800468 
8 -0.2800543 
9 -0.28006396 
10 -0.2799953 
11 -0.27995077 
12 -0.27995184 
13 -0.280072 
14 -0.28014228 
15 -0.28002802 
16 -0.2801471 
17 -0.28028604 
18 -0.28023186 
19 -0.28001568 
20 -0.2800468 
21 -0.27996686 
22 -0.28000227 
23 -0.2801766 
24 -0.2802839 
25 -0.280565 
26 -0.28063527 
27 -0.2804459 
28 -0.28043357 
29 -0.28033754 
30 -0.28032467 
31 -0.28018948 
32 -0.28007147 
33 -0.28007898 
34 -0.2800087 
35 -0.28006342 
36 -0.27997866 
37 -0.27997705 
38 -0.28008917 
39 -0.28009668 
40 -0.28027478 
41 -0.2804357 
42 -0.28045824 
43 -0.2803751 
44 -0.28039494 
45 -0.28030804 
46 -0.28024313 
47 -0.28038368 
48 -0.2806444 
49 -0.2808155 
50 -0.2806519 
51 -0.280852 
52 -0.2807624 
53 -0.28046736 
54 -0.28039548 
55 -0.28010044 
56 -0.28010634 
57 -0.28031984 
58 -0.28043625 
59 -0.28054783 
60 -0.28037885 
61 -0.28041533 
62 -0.2804502 
63 -0.2804486 
64 -0.2804663 
65 -0.28071412 
66 -0.28075275 
67 -0.28093943 
68 -0.28082034 
69 -0.28066692 
70 -0.2805328 
71 -0.28066316 
72 -0.2807345 
73 -0.28062025 
74 -0.28083536 
75 -0.28110036 
76 -0.28079244 
77 -0.28062293 
78 -0.28069642 
79 -0.28054193 
80 -0.280337 
81 -0.28037992 
82 -0.2806138 
83 -0.28088203 
84 -0.28086862 
85 -0.2807168 
86 -0.28058538 
87 -0.28079405 
88 -0.28094962 
89 -0.2810022 
90 -0.2808815 
91 -0.28065136 
92 -0.28073826 
93 -0.28071573 
94 -0.2805961 
95 -0.28054836 
96 -0.28043035 
97 -0.28042874 
98 -0.28054515 
99 -0.28042606 
100 -0.2804121 
101 -0.2805929 
102 -0.28068194 
103 -0.28073397 
104 -0.28044483 
105 -0.280322 
106 -0.28045878 
107 -0.2805709 
108 -0.2802662 
109 -0.28004196 
110 -0.2799792 
111 -0.27995935 
112 -0.28006127 
113 -0.28033808 
114 -0.28048238 
115 -0.28062186 
116 -0.28056124 
117 -0.28019378 
118 -0.27994433 
119 -0.28009453 
120 -0.28056553 
121 -0.28079084 
122 -0.28063634 
123 -0.28050867 
124 -0.28058377 
125 -0.28057465 
126 -0.28062078 
127 -0.28090617 
128 -0.28063902 
129 -0.2802796 
130 -0.28045502 
131 -0.28036383 
132 -0.28013638 
133 -0.28025064 
134 -0.2805092 
135 -0.28061864 
136 -0.28066853 
137 -0.2808831 
138 -0.2808241 
139 -0.2807313 
140 -0.28067228 
141 -0.28074792 
142 -0.28082678 
143 -0.28100917 
144 -0.28076723 
145 -0.28057733 
146 -0.28054246 
147 -0.2805033 
148 -0.2804856 
149 -0.28049794 
150 -0.28049472 
151 -0.2808976 
152 -0.28096518 
153 -0.28070608 
154 -0.28046843 
155 -0.28051242 
156 -0.28064707 
157 -0.28051993 
158 -0.28042552 
159 -0.28042445 
160 -0.28055158 
161 -0.28059825 
162 -0.2805623 
163 -0.28054622 
164 -0.28060254 
165 -0.280646 
166 -0.28072378 
167 -0.28098878 
168 -0.2807844 
169 -0.28077742 
170 -0.28073558 
171 -0.28051725 
172 -0.28054246 
173 -0.2805725 
174 -0.28053173 
175 -0.28046307 
176 -0.28050974 
177 -0.28060845 
178 -0.28064707 
179 -0.28061703 
180 -0.28062078 
181 -0.28056177 
182 -0.28073773 
183 -0.28075436 
184 -0.28062293 
185 -0.2805532 
186 -0.2805725 
187 -0.280624 
188 -0.28046468 
189 -0.28022918 
190 -0.2801471 
191 -0.28054354 
192 -0.2808375 
193 -0.28103116 
194 -0.28080532 
195 -0.2805387 
196 -0.28031984 
197 -0.28043357 
198 -0.28063473 
199 -0.2807093 
200 -0.2806342 
201 -0.28063956 
202 -0.28065243 
203 -0.28062186 
204 -0.28057036 
205 -0.28054944 
206 -0.28067657 
207 -0.28086272 
208 -0.28083107 
209 -0.28061166 
210 -0.28050652 
211 -0.2808434 
212 -0.28105637 
213 -0.28100863 
214 -0.28116742 
215 -0.28138736 
216 -0.28128812 
217 -0.28134927 
218 -0.28115508 
219 -0.28098235 
220 -0.28137448 
221 -0.28166094 
222 -0.2811422 
223 -0.28087345 
224 -0.28094855 
225 -0.28086004 
226 -0.28075007 
227 -0.28080907 
228 -0.2808241 
229 -0.28071144 
230 -0.28071252 
231 -0.28095928 
232 -0.28083643 
233 -0.28061917 
234 -0.28086808 
235 -0.28115937 
236 -0.28110412 
237 -0.28109607 
238 -0.2810435 
239 -0.28106764 
240 -0.2812613 
241 -0.28144637 
242 -0.2814732 
243 -0.28125218 
244 -0.28091636 
245 -0.2807742 
246 -0.28088954 
247 -0.28078654 
248 -0.280867 
249 -0.281139 
250 -0.28123876 
251 -0.28133425 
252 -0.2814292 
253 -0.28140882 
254 -0.28141257 
255 -0.28137395 
256 -0.28142115 
257 -0.2812468 
258 -0.2811878 
259 -0.28111538 
260 -0.28117546 
261 -0.28125486 
262 -0.2811127 
263 -0.28110626 
264 -0.28127578 
265 -0.28151986 
266 -0.2816572 
267 -0.28152308 
268 -0.28123072 
269 -0.28119263 
270 -0.28117922 
271 -0.28111216 
272 -0.2811567 
273 -0.28112343 
274 -0.2811937 
275 -0.28128436 
276 -0.28126237 
277 -0.28129616 
278 -0.28134337 
279 -0.28118512 
280 -0.28116205 
281 -0.2810746 
282 -0.2807447 
283 -0.28097054 
284 -0.28149357 
285 -0.2815129 
286 -0.28149143 
287 -0.28167543 
288 -0.2818766 
289 -0.28205523 
290 -0.28221777 
291 -0.28190878 
292 -0.28161266 
293 -0.28157565 
294 -0.28134283 
295 -0.28131816 
296 -0.28134552 
297 -0.28137234 
298 -0.2814276 
299 -0.28162715 
300 -0.28153434 
301 -0.28138575 
302 -0.28110358 
303 -0.28129348 
304 -0.28170493 
305 -0.28181598 
306 -0.2818283 
307 -0.28178003 
308 -0.28169474 
309 -0.2817237 
310 -0.28165933 
311 -0.28157672 
312 -0.28180525 
313 -0.2817591 
314 -0.28167275 
315 -0.28165343 
316 -0.2816706 
317 -0.28163144 
318 -0.2817146 
319 -0.28177896 
320 -0.28171083 
321 -0.28148928 
322 -0.28128758 
323 -0.28156063 
324 -0.28173873 
325 -0.28181705 
326 -0.2820107 
327 -0.28189054 
328 -0.28178433 
329 -0.28192863 
330 -0.28202948 
331 -0.28185406 
332 -0.28144476 
333 -0.28132406 
334 -0.28188196 
335 -0.28215072 
336 -0.2818986 
337 -0.28181008 
338 -0.28211102 
339 -0.28240123 
340 -0.28213677 
341 -0.28204343 
342 -0.28202143 
343 -0.28194955 
344 -0.28196403 
345 -0.28197905 
346 -0.28214213 
347 -0.28218237 
348 -0.2822875 
349 -0.28233418 
350 -0.28213087 
351 -0.28205416 
352 -0.28205523 
353 -0.28222957 
354 -0.28215715 
355 -0.2821062 
356 -0.2820638 
357 -0.28198925 
358 -0.28205094 
359 -0.28211424 
360 -0.28211048 
361 -0.2821829 
362 -0.28229824 
363 -0.28235564 
364 -0.2821577 
365 -0.2821153 
366 -0.28197047 
367 -0.28198013 
368 -0.2818943 
369 -0.28220704 
370 -0.28256485 
371 -0.2823535 
372 -0.28204235 
373 -0.2820681 
374 -0.28237066 
375 -0.28248063 
376 -0.28249243 
377 -0.28242967 
378 -0.2823921 
379 -0.2823288 
380 -0.28232828 
381 -0.28228804 
382 -0.28240016 
383 -0.28226283 
384 -0.28187552 
385 -0.2819501 
386 -0.28202465 
387 -0.2823417 
388 -0.28262064 
389 -0.28258845 
390 -0.28253588 
391 -0.2824479 
392 -0.28250584 
393 -0.28287438 
394 -0.2828234 
395 -0.28268823 
396 -0.2827821 
397 -0.28266302 
398 -0.28242 
399 -0.28239372 
400 -0.28254232 
401 -0.28255036 
402 -0.2826126 
403 -0.28245756 
404 -0.28249726 
405 -0.28255895 
406 -0.2826405 
407 -0.2827097 
408 -0.28277674 
409 -0.28253642 
410 -0.2822006 
411 -0.2821668 
412 -0.2823814 
413 -0.28241625 
414 -0.28242055 
415 -0.28255305 
416 -0.282589 
417 -0.28255948 
418 -0.28254768 
419 -0.2825568 
420 -0.28251925 
421 -0.28241196 
422 -0.28237548 
423 -0.2824227 
424 -0.28241894 
425 -0.28242698 
426 -0.28259972 
427 -0.28261742 
428 -0.28239533 
429 -0.28218773 
430 -0.2819973 
431 -0.2819946 
432 -0.28247043 
433 -0.2825713 
434 -0.2823744 
435 -0.28224084 
436 -0.28224888 
437 -0.2823921 
438 -0.282317 
439 -0.28230253 
440 -0.28268233 
441 -0.28277943 
442 -0.28271398 
443 -0.28277996 
444 -0.2828481 
445 -0.28283468 
446 -0.28266945 
447 -0.28257933 
448 -0.2824082 
449 -0.2822816 
450 -0.28229287 
451 -0.28241357 
452 -0.282442 
453 -0.28254232 
454 -0.28266785 
455 -0.28255787 
456 -0.28261045 
457 -0.2826185 
458 -0.28254607 
459 -0.2825906 
460 -0.28281215 
461 -0.28307232 
462 -0.28310826 
463 -0.28330782 
464 -0.28303155 
465 -0.2827612 
466 -0.28260025 
467 -0.2824624 
468 -0.282361 
469 -0.2822902 
470 -0.28229555 
471 -0.28256914 
472 -0.2827247 
473 -0.28263298 
474 -0.28286204 
475 -0.28278372 
476 -0.28269628 
477 -0.28271398 
478 -0.28263244 
479 -0.28244308 
480 -0.28253105 
481 -0.28274724 
482 -0.28269842 
483 -0.28248653 
484 -0.28230467 
485 -0.282442 
486 -0.2826791 
487 -0.28242 
488 -0.28234223 
489 -0.28252354 
490 -0.282707 
491 -0.28245863 
492 -0.2821341 
493 -0.2822478 
494 -0.28249404 
495 -0.28219953 
496 -0.28231648 
497 -0.2824876 
498 -0.28257397 
499 -0.28248706 
500 -0.28250852 
501 -0.2824522 
502 -0.28236476 
503 -0.28241572 
504 -0.28241304 
505 -0.282302 
506 -0.2821475 
507 -0.2821963 
508 -0.28246024 
509 -0.28249618 
510 -0.28257075 
511 -0.2828159 
512 -0.2827215 
513 -0.28258362 
514 -0.28256324 
515 -0.2825407 
516 -0.28270164 
517 -0.28297094 
518 -0.2829323 
519 -0.28279498 
520 -0.28289798 
521 -0.2829645 
522 -0.28289583 
523 -0.2827762 
524 -0.28275153 
525 -0.282486 
526 -0.2823932 
527 -0.2823626 
528 -0.28235617 
529 -0.2824377 
530 -0.28252676 
531 -0.28267965 
532 -0.2827054 
533 -0.2823921 
534 -0.2818766 
535 -0.2817677 
536 -0.2823567 
537 -0.28265926 
538 -0.2827821 
539 -0.28268287 
540 -0.2825332 
541 -0.28240553 
542 -0.28247097 
543 -0.28261957 
544 -0.2825171 
545 -0.28233793 
546 -0.28240016 
547 -0.2824876 
548 -0.28254768 
549 -0.28256217 
550 -0.28263995 
551 -0.28262815 
552 -0.28245112 
553 -0.28243664 
554 -0.28242698 
555 -0.2825745 
556 -0.28258148 
557 -0.28263244 
558 -0.28247902 
559 -0.28212336 
560 -0.28212604 
561 -0.28255036 
562 -0.28256217 
563 -0.28254178 
564 -0.28241786 
565 -0.28217217 
566 -0.28219202 
567 -0.28239855 
568 -0.2824538 
569 -0.28252622 
570 -0.2825096 
571 -0.28229287 
572 -0.28215876 
573 -0.28247473 
574 -0.2826979 
575 -0.28269628 
576 -0.28256485 
577 -0.28264263 
578 -0.28268823 
579 -0.28250423 
580 -0.28239587 
581 -0.28238085 
582 -0.28255627 
583 -0.28265175 
584 -0.28262547 
585 -0.28246346 
586 -0.28245488 
587 -0.28261742 
588 -0.28254983 
589 -0.28227517 
590 -0.28265712 
591 -0.28281054 
592 -0.282501 
593 -0.28243074 
594 -0.2825391 
595 -0.28257182 
596 -0.28241733 
597 -0.28236315 
598 -0.28237012 
599 -0.28229824 
600 -0.2822977 
601 -0.2822902 
602 -0.2822596 
603 -0.28245327 
604 -0.28239855 
605 -0.2823932 
606 -0.28249618 
607 -0.28249243 
608 -0.28242055 
609 -0.28243288 
610 -0.28259274 
611 -0.28247204 
612 -0.28226873 
613 -0.28211156 
614 -0.2820327 
615 -0.28210458 
616 -0.28232023 
617 -0.28251818 
618 -0.2823374 
619 -0.2824436 
620 -0.28247097 
621 -0.28235778 
622 -0.2821904 
623 -0.28208312 
624 -0.2821078 
625 -0.28218022 
626 -0.28215608 
627 -0.2820697 
628 -0.28212014 
629 -0.28232452 
630 -0.282464 
631 -0.28246185 
632 -0.28244147 
633 -0.2826008 
634 -0.2826158 
635 -0.28250208 
636 -0.2825761 
637 -0.28256592 
638 -0.28250423 
639 -0.2826303 
640 -0.28265712 
641 -0.28259382 
642 -0.28255787 
643 -0.2823181 
644 -0.28211477 
645 -0.28215286 
646 -0.28239962 
647 -0.28232774 
648 -0.28232184 
649 -0.2824774 
650 -0.2824624 
651 -0.28240123 
652 -0.28245863 
653 -0.28259972 
654 -0.28245917 
655 -0.28242752 
656 -0.2822623 
657 -0.2820268 
658 -0.28184655 
659 -0.28160086 
660 -0.28161964 
661 -0.2817897 
662 -0.2818621 
663 -0.28188518 
664 -0.2815338 
665 -0.28138682 
666 -0.2815601 
667 -0.28188303 
668 -0.28203216 
669 -0.28187123 
670 -0.28173873 
671 -0.28175214 
672 -0.28193024 
673 -0.28217593 
674 -0.28219953 
675 -0.28211424 
676 -0.28195062 
677 -0.28195116 
678 -0.28255787 
679 -0.2828304 
680 -0.2827306 
681 -0.28277782 
682 -0.28261098 
683 -0.28246346 
684 -0.28241464 
685 -0.28243503 
686 -0.28242323 
687 -0.28226873 
688 -0.28197852 
689 -0.28176984 
690 -0.28204075 
691 -0.2822934 
692 -0.28204986 
693 -0.2818326 
694 -0.28194526 
695 -0.28246078 
696 -0.28275904 
697 -0.28271666 
698 -0.28253374 
699 -0.28232935 
700 -0.2821416 
701 -0.28216735 
702 -0.28217968 
703 -0.2819887 
704 -0.2818648 
705 -0.2819576 
706 -0.28183958 
707 -0.28172585 
708 -0.28157136 
709 -0.2817591 
710 -0.28177574 
711 -0.28178272 
712 -0.28164485 
713 -0.2818546 
714 -0.28220114 
715 -0.28247258 
716 -0.2825466 
717 -0.28218666 
718 -0.28194097 
719 -0.2819372 
720 -0.28209922 
721 -0.28231648 
722 -0.2822993 
723 -0.2822607 
724 -0.28202197 
725 -0.28183421 
726 -0.2818927 
727 -0.2817972 
728 -0.28151503 
729 -0.28166953 
730 -0.28178272 
731 -0.28170064 
732 -0.28173605 
733 -0.28164163 
734 -0.2817264 
735 -0.2820005 
736 -0.28218076 
737 -0.28207025 
738 -0.28206435 
739 -0.28189805 
740 -0.28177842 
741 -0.28185943 
742 -0.28207186 
743 -0.2820724 
744 -0.28188786 
745 -0.2818546 
746 -0.2820488 
747 -0.2821786 
748 -0.28228053 
749 -0.28243074 
750 -0.2823771 
751 -0.28217754 
752 -0.28216413 
753 -0.28226283 
754 -0.28233418 
755 -0.28221616 
756 -0.28194204 
757 -0.28174087 
758 -0.281684 
759 -0.28174195 
760 -0.28181276 
761 -0.28188947 
762 -0.28181008 
763 -0.28200158 
764 -0.28215823 
765 -0.2819592 
766 -0.28195277 
767 -0.28201392 
768 -0.28199247 
769 -0.2818798 
770 -0.28191093 
771 -0.281993 
772 -0.28214106 
773 -0.28205255 
774 -0.28195867 
775 -0.28193668 
776 -0.28190556 
777 -0.28185996 
778 -0.28186265 
779 -0.28200588 
780 -0.28189805 
781 -0.28184333 
782 -0.28184387 
783 -0.28179613 
784 -0.2818369 
785 -0.28171727 
786 -0.28158477 
787 -0.2815912 
788 -0.28161374 
789 -0.2816411 
790 -0.281787 
791 -0.28182027 
792 -0.28162768 
793 -0.28157243 
794 -0.28154078 
795 -0.2818267 
796 -0.28208742 
797 -0.28217164 
798 -0.28204128 
799 -0.2821121 
800 -0.28195062 
801 -0.28174034 
802 -0.28176126 
803 -0.2817162 
804 -0.2814866 
805 -0.28148714 
806 -0.28162393 
807 -0.2816808 
808 -0.28167865 
809 -0.28186855 
810 -0.28196725 
811 -0.28169474 
812 -0.28156117 
813 -0.28161374 
814 -0.28159657 
815 -0.28147802 
816 -0.28143778 
817 -0.28160354 
818 -0.28160033 
819 -0.2815306 
820 -0.28152093 
821 -0.2813085 
822 -0.2813793 
823 -0.28164753 
824 -0.2817661 
825 -0.2817237 
826 -0.28170493 
827 -0.28173712 
828 -0.28167114 
829 -0.28155097 
830 -0.28170976 
831 -0.28172264 
832 -0.28177574 
833 -0.28190717 
834 -0.28188464 
835 -0.28175482 
836 -0.28162876 
837 -0.28160623 
838 -0.2816942 
839 -0.28162232 
840 -0.28145817 
841 -0.28156278 
842 -0.28160945 
843 -0.28171566 
844 -0.2818208 
845 -0.2814646 
846 -0.2813026 
847 -0.281485 
848 -0.28147802 
849 -0.28151503 
850 -0.28162715 
851 -0.2815381 
852 -0.2814909 
853 -0.2818739 
854 -0.2819104 
855 -0.2818809 
856 -0.28180525 
857 -0.28166685 
858 -0.28166255 
859 -0.28158423 
860 -0.28152254 
861 -0.2815617 
862 -0.28158477 
863 -0.2815188 
864 -0.28149518 
865 -0.2814367 
866 -0.28139165 
867 -0.28143188 
868 -0.2813852 
869 -0.28146246 
870 -0.28161106 
871 -0.28157136 
872 -0.28167275 
873 -0.28182295 
874 -0.28155205 
875 -0.2816207 
876 -0.28174838 
877 -0.28158692 
878 -0.28145763 
879 -0.28136966 
880 -0.2810671 
881 -0.2809539 
882 -0.2812983 
883 -0.2814764 
884 -0.28133586 
885 -0.28120658 
886 -0.281198 
887 -0.28134498 
888 -0.2815027 
889 -0.28159174 
890 -0.28168616 
891 -0.2817103 
892 -0.2816663 
893 -0.28158423 
894 -0.28158423 
895 -0.2817441 
896 -0.28185406 
897 -0.28165665 
898 -0.28158423 
899 -0.28158477 
900 -0.28161964 
901 -0.28155366 
902 -0.2814426 
903 -0.2813879 
904 -0.2813439 
905 -0.28123876 
906 -0.28110197 
907 -0.28111055 
908 -0.28097537 
909 -0.2809963 
910 -0.28122106 
911 -0.2814968 
912 -0.28170332 
913 -0.2817811 
914 -0.2818267 
915 -0.28189805 
916 -0.28195974 
917 -0.28186104 
918 -0.28166255 
919 -0.28155902 
920 -0.28160194 
921 -0.28157833 
922 -0.28162554 
923 -0.28163573 
924 -0.28147963 
925 -0.28150108 
926 -0.28157994 
927 -0.28171512 
928 -0.28181115 
929 -0.28179345 
930 -0.28179076 
931 -0.2816985 
932 -0.281581 
933 -0.28145924 
934 -0.28137824 
935 -0.28122857 
936 -0.28110465 
937 -0.28100488 
938 -0.2810832 
939 -0.2814453 
940 -0.28174838 
941 -0.2816722 
942 -0.2816352 
943 -0.28145817 
944 -0.28132352 
945 -0.28161427 
946 -0.28184816 
947 -0.28193668 
948 -0.28171137 
949 -0.28128007 
950 -0.2813616 
951 -0.28160194 
952 -0.2814115 
953 -0.28128275 
954 -0.28119746 
955 -0.28105208 
956 -0.28103492 
957 -0.2813305 
958 -0.28150538 
959 -0.28140774 
960 -0.28142866 
961 -0.28160784 
962 -0.2814469 
963 -0.28114167 
964 -0.28118888 
965 -0.28140667 
966 -0.2813203 
967 -0.28131709 
968 -0.28110036 
969 -0.28090456 
970 -0.28115937 
971 -0.28153756 
972 -0.28155258 
973 -0.28157297 
974 -0.28152522 
975 -0.2815617 
976 -0.28164056 
977 -0.2815853 
978 -0.28157458 
979 -0.28142866 
980 -0.28110626 
981 -0.28095928 
982 -0.2809963 
983 -0.2809405 
984 -0.28097805 
985 -0.281051 
986 -0.2811143 
987 -0.2812747 
988 -0.28132728 
989 -0.28144798 
990 -0.28164646 
991 -0.2817913 
992 -0.28164592 
993 -0.28155473 
994 -0.28169474 
995 -0.28157136 
996 -0.281382 
997 -0.28136322 
998 -0.281485 
999 -0.2812747 
1000 -0.28119048 
1001 -0.28128436 
1002 -0.2812216 
1003 -0.28117868 
1004 -0.2812141 
1005 -0.2812645 
1006 -0.28149143 
1007 -0.28157672 
1008 -0.2815703 
1009 -0.28149518 
1010 -0.28137663 
1011 -0.28142866 
1012 -0.28165665 
1013 -0.2818208 
1014 -0.281728 
1015 -0.2816234 
1016 -0.28146246 
1017 -0.28150752 
1018 -0.28166363 
1019 -0.28151503 
1020 -0.28132567 
1021 -0.28120175 
1022 -0.28123447 
1023 -0.2812275 
1024 -0.28115562 
1025 -0.28108266 
1026 -0.28122213 
1027 -0.2813863 
1028 -0.28141794 
1029 -0.28134552 
1030 -0.2813042 
1031 -0.2813675 
1032 -0.28140667 
1033 -0.28146353 
1034 -0.28148392 
1035 -0.2814909 
1036 -0.281522 
1037 -0.28156438 
1038 -0.28158048 
1039 -0.28146353 
1040 -0.2813144 
1041 -0.28135893 
1042 -0.2813836 
1043 -0.28148124 
1044 -0.28142813 
1045 -0.28138843 
1046 -0.281323 
1047 -0.28135517 
1048 -0.281419 
1049 -0.28141418 
1050 -0.28137234 
1051 -0.2815762 
1052 -0.28161964 
1053 -0.28149304 
1054 -0.28153756 
1055 -0.28147587 
1056 -0.28138843 
1057 -0.28132084 
1058 -0.28134015 
1059 -0.28136912 
1060 -0.2812409 
1061 -0.28125754 
1062 -0.2814072 
1063 -0.2812731 
1064 -0.28119585 
1065 -0.28134122 
1066 -0.28147963 
1067 -0.28154185 
1068 -0.28152254 
1069 -0.28128168 
1070 -0.281073 
1071 -0.2811186 
1072 -0.28125218 
1073 -0.28138307 
1074 -0.2812597 
1075 -0.28120604 
1076 -0.28138146 
1077 -0.28136966 
1078 -0.28135946 
1079 -0.28152576 
1080 -0.28136054 
1081 -0.28134337 
1082 -0.28128704 
1083 -0.28115025 
1084 -0.28110948 
1085 -0.28118888 
1086 -0.2812291 
1087 -0.28127792 
1088 -0.28122428 
1089 -0.28126988 
1090 -0.28136322 
1091 -0.28151396 
1092 -0.2816352 
1093 -0.28166255 
1094 -0.28163788 
1095 -0.28165558 
1096 -0.2814882 
1097 -0.281257 
1098 -0.28119424 
1099 -0.28113094 
1100 -0.2811422 
1101 -0.28114757 
1102 -0.28121838 
1103 -0.2813085 
1104 -0.28126827 
1105 -0.28120604 
1106 -0.281154 
1107 -0.28132567 
1108 -0.28165826 
1109 -0.28151503 
1110 -0.28127202 
1111 -0.2812012 
1112 -0.28126988 
1113 -0.28123608 
1114 -0.2812865 
1115 -0.28137502 
1116 -0.2814823 
1117 -0.28160945 
1118 -0.28148285 
1119 -0.28132728 
1120 -0.2812613 
1121 -0.28120872 
1122 -0.28136644 
1123 -0.28143832 
1124 -0.281397 
1125 -0.2815617 
1126 -0.28162178 
1127 -0.28155634 
1128 -0.28154615 
1129 -0.2813616 
1130 -0.28117922 
1131 -0.28123555 
1132 -0.2812436 
1133 -0.28112128 
1134 -0.28116366 
1135 -0.28135893 
1136 -0.28130153 
1137 -0.28122428 
1138 -0.28116742 
1139 -0.28114703 
1140 -0.28116366 
1141 -0.28118995 
1142 -0.28117654 
1143 -0.28125593 
1144 -0.28130153 
1145 -0.28140184 
1146 -0.2814764 
1147 -0.28149733 
1148 -0.28149465 
1149 -0.28149626 
1150 -0.28140345 
1151 -0.2812436 
1152 -0.281323 
1153 -0.28155527 
1154 -0.2817795 
1155 -0.28161374 
1156 -0.28133532 
1157 -0.2812141 
1158 -0.2811524 
1159 -0.28113148 
1160 -0.28115937 
1161 -0.28109714 
1162 -0.2811717 
1163 -0.28128597 
1164 -0.2812865 
1165 -0.2811406 
1166 -0.28130046 
1167 -0.28154883 
1168 -0.2814276 
1169 -0.28134605 
1170 -0.28152308 
1171 -0.28158423 
1172 -0.2816352 
1173 -0.28161964 
1174 -0.28149357 
1175 -0.28143027 
1176 -0.28147158 
1177 -0.2815027 
1178 -0.28137234 
1179 -0.28139648 
1180 -0.28137395 
1181 -0.2812656 
1182 -0.28119585 
1183 -0.28120658 
1184 -0.28133693 
1185 -0.28151074 
1186 -0.28154722 
1187 -0.28133264 
1188 -0.28108963 
1189 -0.2811202 
1190 -0.2810478 
1191 -0.28112933 
1192 -0.28146353 
1193 -0.28146085 
1194 -0.28145066 
1195 -0.2815601 
1196 -0.28153595 
1197 -0.28139165 
1198 -0.2811819 
1199 -0.28108266 
1200 -0.28101346 
1201 -0.2810494 
1202 -0.28106818 
1203 -0.28112236 
1204 -0.2812747 
1205 -0.28138307 
1206 -0.28140077 
1207 -0.28135195 
1208 -0.28120604 
1209 -0.28115776 
1210 -0.28106818 
1211 -0.2811717 
1212 -0.28147802 
1213 -0.2815499 
1214 -0.2817237 
1215 -0.2817677 
1216 -0.28154293 
1217 -0.28153434 
1218 -0.2814292 
1219 -0.28119746 
1220 -0.28109393 
1221 -0.2811245 
1222 -0.28114703 
1223 -0.2812275 
1224 -0.2812951 
1225 -0.28145388 
1226 -0.28153542 
1227 -0.28151986 
1228 -0.281544 
1229 -0.28147373 
1230 -0.2814292 
1231 -0.281404 
1232 -0.28146353 
1233 -0.28149143 
1234 -0.28161427 
1235 -0.2817044 
1236 -0.28161052 
1237 -0.2813911 
1238 -0.2814249 
1239 -0.28145388 
1240 -0.28145173 
1241 -0.28129777 
1242 -0.28097 
1243 -0.280808 
1244 -0.28067496 
1245 -0.28078547 
1246 -0.28117278 
1247 -0.28147426 
1248 -0.2815027 
1249 -0.28148016 
1250 -0.28149518 
1251 -0.2815322 
1252 -0.28156975 
1253 -0.281625 
1254 -0.28160247 
1255 -0.28146085 
1256 -0.28139165 
1257 -0.28133747 
1258 -0.2812656 
1259 -0.28119156 
1260 -0.2812586 
1261 -0.2813938 
1262 -0.2814437 
1263 -0.28143886 
1264 -0.2815059 
1265 -0.28159764 
1266 -0.2817028 
1267 -0.28164646 
1268 -0.28162178 
1269 -0.28163466 
1270 -0.28159013 
1271 -0.2816529 
1272 -0.28168347 
1273 -0.2816572 
1274 -0.28163573 
1275 -0.28167328 
1276 -0.2816395 
1277 -0.28154936 
1278 -0.28138146 
1279 -0.28131923 
1280 -0.281301 
1281 -0.28125647 
1282 -0.2812629 
1283 -0.2814764 
1284 -0.28165987 
1285 -0.28163144 
1286 -0.2816073 
1287 -0.28155473 
1288 -0.281485 
1289 -0.2814131 
1290 -0.28154185 
1291 -0.2817897 
1292 -0.28184655 
1293 -0.28180364 
1294 -0.2817779 
1295 -0.28170386 
1296 -0.28163788 
1297 -0.28179774 
1298 -0.28181008 
1299 -0.28179613 
1300 -0.2817988 
1301 -0.28169796 
1302 -0.28161266 
1303 -0.28160408 
1304 -0.28134176 
1305 -0.28140613 
1306 -0.28158745 
1307 -0.2814555 
1308 -0.2813337 
1309 -0.2812377 
1310 -0.28131655 
1311 -0.28154078 
1312 -0.28173712 
1313 -0.281706 
1314 -0.28162876 
1315 -0.28165236 
1316 -0.2817076 
1317 -0.28178003 
1318 -0.28168133 
1319 -0.28154668 
1320 -0.28143242 
1321 -0.28146836 
1322 -0.2815515 
1323 -0.2817323 
1324 -0.2817602 
1325 -0.28180042 
1326 -0.28171727 
1327 -0.28168133 
1328 -0.2816604 
1329 -0.2815821 
1330 -0.28164056 
1331 -0.28164217 
1332 -0.28154454 
1333 -0.28140506 
1334 -0.2813702 
1335 -0.28149465 
1336 -0.28159174 
1337 -0.28133532 
1338 -0.28111216 
1339 -0.2811084 
1340 -0.28114006 
1341 -0.2812436 
1342 -0.281544 
1343 -0.2819769 
1344 -0.2820504 
1345 -0.28166255 
1346 -0.2816513 
1347 -0.2818648 
1348 -0.28203216 
1349 -0.28201768 
1350 -0.28200856 
1351 -0.28191254 
1352 -0.28191683 
1353 -0.28180954 
1354 -0.28169206 
1355 -0.2815574 
1356 -0.28145656 
1357 -0.28132674 
1358 -0.28125164 
1359 -0.28120497 
1360 -0.28123072 
1361 -0.28120497 
1362 -0.28118566 
1363 -0.2813466 
1364 -0.28130957 
1365 -0.2813852 
1366 -0.28151986 
1367 -0.2816749 
1368 -0.2816781 
1369 -0.28166148 
1370 -0.2815794 
1371 -0.28149036 
1372 -0.28138307 
1373 -0.2814233 
1374 -0.28160354 
1375 -0.28169957 
1376 -0.28175375 
1377 -0.28173336 
1378 -0.28168508 
1379 -0.28160408 
1380 -0.2813981 
1381 -0.28142115 
1382 -0.28140077 
1383 -0.2813981 
1384 -0.28138092 
1385 -0.28140238 
1386 -0.28139433 
1387 -0.28134283 
1388 -0.2813289 
1389 -0.28131065 
1390 -0.2813863 
1391 -0.2814909 
1392 -0.28159013 
1393 -0.28167114 
1394 -0.28175268 
1395 -0.28172585 
1396 -0.28165558 
1397 -0.2815601 
1398 -0.28151235 
1399 -0.28159925 
1400 -0.28152898 
1401 -0.2813557 
1402 -0.28135142 
1403 -0.281404 
1404 -0.28140453 
1405 -0.28136858 
1406 -0.2816116 
1407 -0.28170922 
1408 -0.28160462 
1409 -0.28159496 
1410 -0.28164753 
1411 -0.2816443 
1412 -0.28156278 
1413 -0.28154024 
1414 -0.28169742 
1415 -0.28172907 
1416 -0.2818412 
1417 -0.28180954 
1418 -0.2817441 
1419 -0.28172693 
1420 -0.28171727 
1421 -0.2816073 
1422 -0.28150538 
1423 -0.28135034 
1424 -0.28111538 
1425 -0.28106174 
1426 -0.28131172 
1427 -0.28131977 
1428 -0.28122535 
1429 -0.28121945 
1430 -0.2814732 
1431 -0.2817779 
1432 -0.281853 
1433 -0.28191575 
1434 -0.28184226 
1435 -0.28185675 
1436 -0.28208634 
1437 -0.28211263 
1438 -0.28219685 
1439 -0.28195867 
1440 -0.28168133 
1441 -0.2816969 
1442 -0.28188357 
1443 -0.2817752 
1444 -0.28164646 
1445 -0.2816631 
1446 -0.28168616 
1447 -0.28169635 
1448 -0.2815794 
1449 -0.2815322 
1450 -0.28157726 
1451 -0.28156546 
1452 -0.2815365 
1453 -0.28152522 
1454 -0.28163788 
1455 -0.28177467 
1456 -0.28171888 
1457 -0.2816454 
1458 -0.28168562 
1459 -0.28174946 
1460 -0.28177735 
1461 -0.28163895 
1462 -0.2815397 
1463 -0.281625 
1464 -0.2816352 
1465 -0.28160998 
1466 -0.28160998 
1467 -0.28167006 
1468 -0.2816706 
1469 -0.28176448 
1470 -0.2817076 
1471 -0.28145334 
1472 -0.2813852 
1473 -0.28148767 
1474 -0.28147534 
1475 -0.2815456 
1476 -0.28162983 
1477 -0.28162768 
1478 -0.28146031 
1479 -0.2813289 
1480 -0.2813466 
1481 -0.28141847 
1482 -0.28143188 
1483 -0.28149626 
1484 -0.28165558 
1485 -0.28168455 
1486 -0.28184226 
1487 -0.2817854 
1488 -0.28164378 
1489 -0.28167918 
1490 -0.28165022 
1491 -0.28180578 
1492 -0.28189 
1493 -0.28198496 
1494 -0.2820756 
1495 -0.28233525 
1496 -0.2823138 
1497 -0.2821636 
1498 -0.28210512 
1499 -0.28200105 
1500 -0.2819356 
1501 -0.28187284 
1502 -0.28167436 
1503 -0.28163305 
1504 -0.28162822 
1505 -0.28182885 
1506 -0.28213355 
1507 -0.282221 
1508 -0.281934 
1509 -0.2819077 
1510 -0.28185835 
1511 -0.28186157 
1512 -0.28205952 
1513 -0.28216574 
1514 -0.2820767 
1515 -0.281934 
1516 -0.28183797 
1517 -0.28172854 
1518 -0.2814791 
1519 -0.28143457 
1520 -0.28154454 
1521 -0.28173712 
1522 -0.28183046 
1523 -0.28188035 
1524 -0.2819619 
1525 -0.28205523 
1526 -0.28208098 
1527 -0.28204396 
1528 -0.28201392 
1529 -0.28178003 
1530 -0.2815794 
1531 -0.28152844 
1532 -0.2815939 
1533 -0.281485 
1534 -0.28137395 
1535 -0.2813407 
1536 -0.28135034 
1537 -0.28146407 
1538 -0.2814528 
1539 -0.2814276 
1540 -0.281522 
1541 -0.28163144 
1542 -0.28169957 
1543 -0.28159067 
1544 -0.28158638 
1545 -0.28160408 
1546 -0.2817264 
1547 -0.28182992 
1548 -0.28221455 
1549 -0.28225532 
1550 -0.28194097 
1551 -0.28199783 
1552 -0.28201553 
1553 -0.28194955 
1554 -0.2818235 
1555 -0.28168777 
1556 -0.28156653 
1557 -0.28175697 
1558 -0.28183421 
1559 -0.28170815 
1560 -0.2816572 
1561 -0.28162715 
1562 -0.28166255 
1563 -0.28148124 
1564 -0.28141847 
1565 -0.28147694 
1566 -0.28147694 
1567 -0.2816368 
1568 -0.2817591 
1569 -0.28183743 
1570 -0.28185996 
1571 -0.28190503 
1572 -0.28187177 
1573 -0.28198978 
1574 -0.2820563 
1575 -0.28196135 
1576 -0.28204718 
1577 -0.28194258 
1578 -0.28190556 
1579 -0.2817913 
1580 -0.2816631 
1581 -0.28168133 
1582 -0.28170654 
1583 -0.28158852 
1584 -0.28152844 
1585 -0.2815365 
1586 -0.2815821 
1587 -0.28161857 
1588 -0.2816089 
1589 -0.28157404 
1590 -0.28179023 
1591 -0.28197744 
1592 -0.28194472 
1593 -0.28196135 
1594 -0.28189805 
1595 -0.28182027 
1596 -0.2818326 
1597 -0.2818326 
1598 -0.28175965 
1599 -0.28164914 
1600 -0.28159925 
1601 -0.28159818 
1602 -0.28160086 
1603 -0.28162876 
1604 -0.28162822 
1605 -0.28148177 
1606 -0.28166685 
1607 -0.28175858 
1608 -0.28159282 
1609 -0.2814426 
1610 -0.28153756 
1611 -0.28170225 
1612 -0.28172693 
1613 -0.2816631 
1614 -0.28161106 
1615 -0.2817736 
1616 -0.2818031 
1617 -0.2816368 
1618 -0.2816057 
1619 -0.2817237 
1620 -0.28167006 
1621 -0.28146783 
1622 -0.28140184 
1623 -0.28148714 
1624 -0.28131655 
1625 -0.28115454 
1626 -0.2812892 
1627 -0.28131065 
1628 -0.2812495 
1629 -0.281176 
1630 -0.2811996 
1631 -0.28118995 
1632 -0.28145173 
1633 -0.28174356 
1634 -0.2817441 
1635 -0.28171995 
1636 -0.2817752 
1637 -0.28173015 
1638 -0.2816486 
1639 -0.2815896 
1640 -0.28153113 
1641 -0.28149143 
1642 -0.28139755 
1643 -0.2812613 
1644 -0.28128436 
1645 -0.28122804 
1646 -0.28113362 
1647 -0.28112075 
1648 -0.28115508 
1649 -0.28118727 
1650 -0.28123447 
1651 -0.28120068 
1652 -0.2812452 
1653 -0.28137395 
1654 -0.28138843 
1655 -0.2815365 
1656 -0.28150108 
1657 -0.2813863 
1658 -0.2813557 
1659 -0.28138092 
1660 -0.2813675 
1661 -0.28132942 
1662 -0.28137663 
1663 -0.28137717 
1664 -0.2811658 
1665 -0.2810612 
1666 -0.28127095 
1667 -0.28168777 
1668 -0.281772 
1669 -0.28168562 
1670 -0.28174785 
1671 -0.28172156 
1672 -0.2814555 
1673 -0.28143027 
1674 -0.28156385 
1675 -0.2815912 
1676 -0.28157243 
1677 -0.28155097 
1678 -0.2815177 
1679 -0.2814072 
1680 -0.28145012 
1681 -0.2815338 
1682 -0.2814394 
1683 -0.2814732 
1684 -0.28152308 
1685 -0.2815188 
1686 -0.2816352 
1687 -0.2815896 
1688 -0.28142974 
1689 -0.28134498 
1690 -0.28145495 
1691 -0.28151503 
1692 -0.2814866 
1693 -0.28165933 
1694 -0.28170976 
1695 -0.28163144 
1696 -0.28146943 
1697 -0.28139916 
1698 -0.28131387 
1699 -0.28131977 
1700 -0.28129187 
1701 -0.28115937 
1702 -0.28101882 
1703 -0.28102902 
1704 -0.28096893 
1705 -0.28097323 
1706 -0.2811803 
1707 -0.2814587 
1708 -0.2816985 
1709 -0.2814292 
1710 -0.2810451 
1711 -0.28112075 
1712 -0.28115132 
1713 -0.2811084 
1714 -0.28114864 
1715 -0.28123716 
1716 -0.28116313 
1717 -0.2812747 
1718 -0.28125057 
1719 -0.28124413 
1720 -0.28130046 
1721 -0.28116474 
1722 -0.28112075 
1723 -0.2811449 
1724 -0.28109124 
1725 -0.28098342 
1726 -0.28103706 
1727 -0.28113148 
1728 -0.28123876 
1729 -0.28119853 
1730 -0.2811921 
1731 -0.281338 
1732 -0.28147963 
1733 -0.28146568 
1734 -0.281507 
1735 -0.2815118 
1736 -0.28143832 
1737 -0.28147587 
1738 -0.28153434 
1739 -0.28136268 
1740 -0.28115615 
1741 -0.28091905 
1742 -0.2807034 
1743 -0.28071842 
1744 -0.28092816 
1745 -0.2810789 
1746 -0.28132728 
1747 -0.28153113 
1748 -0.28143135 
1749 -0.2813337 
1750 -0.28125432 
1751 -0.28124306 
1752 -0.28116795 
1753 -0.28114596 
1754 -0.28117064 
1755 -0.28116366 
1756 -0.28125915 
1757 -0.28148606 
1758 -0.2815145 
1759 -0.28135088 
1760 -0.2812806 
1761 -0.28138682 
1762 -0.2813879 
1763 -0.2812275 
1764 -0.2811127 
1765 -0.28101936 
1766 -0.2809287 
1767 -0.28087184 
1768 -0.28085253 
1769 -0.28082517 
1770 -0.28084448 
1771 -0.2810451 
1772 -0.28122374 
1773 -0.28147265 
1774 -0.2815735 
1775 -0.28150377 
1776 -0.28140077 
1777 -0.2812833 
1778 -0.28118458 
1779 -0.2810934 
1780 -0.28092065 
1781 -0.28093085 
1782 -0.2811052 
1783 -0.28112236 
1784 -0.28107193 
1785 -0.2810757 
1786 -0.28107998 
1787 -0.28115776 
1788 -0.2812334 
1789 -0.28117707 
1790 -0.28113094 
1791 -0.28113952 
1792 -0.28112504 
1793 -0.28128543 
1794 -0.2813278 
1795 -0.28140345 
1796 -0.28147104 
1797 -0.28147802 
1798 -0.28143725 
1799 -0.28139272 
1800 -0.28143725 
1801 -0.28129187 
1802 -0.28114328 
1803 -0.2812039 
1804 -0.28131118 
1805 -0.28141096 
1806 -0.28156385 
1807 -0.28176716 
1808 -0.2817779 
1809 -0.28178433 
1810 -0.2815794 
1811 -0.28154454 
1812 -0.28154883 
1813 -0.28145978 
1814 -0.28146943 
1815 -0.28127095 
1816 -0.28100488 
1817 -0.28089222 
1818 -0.28077206 
1819 -0.28076133 
1820 -0.28081498 
1821 -0.2809743 
1822 -0.28116474 
1823 -0.28135946 
1824 -0.28147534 
1825 -0.28159925 
1826 -0.28173926 
1827 -0.28184977 
1828 -0.2817532 
1829 -0.28158155 
1830 -0.28153542 
1831 -0.2814437 
1832 -0.28138092 
1833 -0.2813702 
1834 -0.2813804 
1835 -0.28126505 
1836 -0.28127256 
1837 -0.2812731 
1838 -0.28105745 
1839 -0.28102633 
1840 -0.28104833 
1841 -0.28099522 
1842 -0.2809861 
1843 -0.28096196 
1844 -0.28089544 
1845 -0.28081176 
1846 -0.28093728 
1847 -0.2811245 
1848 -0.2813246 
1849 -0.28122643 
1850 -0.28128865 
1851 -0.28135946 
1852 -0.28152415 
1853 -0.2817398 
1854 -0.28167382 
1855 -0.28143564 
1856 -0.28148124 
1857 -0.2816073 
1858 -0.28143993 
1859 -0.28123018 
1860 -0.2813541 
1861 -0.28155366 
1862 -0.28130957 
1863 -0.28105906 
1864 -0.28098235 
1865 -0.28107998 
1866 -0.28133157 
1867 -0.28138736 
1868 -0.28150108 
1869 -0.28171298 
1870 -0.2817795 
1871 -0.28166792 
1872 -0.2815912 
1873 -0.28152844 
1874 -0.28146514 
1875 -0.28145388 
1876 -0.2815279 
1877 -0.28160998 
1878 -0.2816175 
1879 -0.28141257 
1880 -0.28134552 
1881 -0.28135517 
1882 -0.281279 
1883 -0.28130475 
1884 -0.281485 
1885 -0.28152147 
1886 -0.28140613 
1887 -0.2814614 
1888 -0.28148285 
1889 -0.28148285 
1890 -0.28154936 
1891 -0.28162125 
1892 -0.28151235 
1893 -0.28137717 
1894 -0.28146622 
1895 -0.28154185 
1896 -0.28156438 
1897 -0.28153166 
1898 -0.28159603 
1899 -0.28164056 
1900 -0.28144047 
1901 -0.28134015 
1902 -0.28154078 
1903 -0.2816116 
1904 -0.28145763 
1905 -0.2813702 
1906 -0.2815027 
1907 -0.28152737 
1908 -0.2814909 
1909 -0.28145817 
1910 -0.2813101 
1911 -0.28128436 
1912 -0.28134552 
1913 -0.28125432 
1914 -0.28130153 
1915 -0.28145978 
1916 -0.2816384 
1917 -0.28155848 
1918 -0.2814646 
1919 -0.28135785 
1920 -0.28120175 
1921 -0.28114435 
1922 -0.28115508 
1923 -0.28115454 
1924 -0.28101346 
1925 -0.28095552 
1926 -0.2809598 
1927 -0.28096625 
1928 -0.28114328 
1929 -0.28131977 
1930 -0.28147694 
1931 -0.2816781 
1932 -0.28191468 
1933 -0.28193077 
1934 -0.2818884 
1935 -0.28185943 
1936 -0.28181008 
1937 -0.2817178 
1938 -0.28172854 
1939 -0.2816604 
1940 -0.28145656 
1941 -0.2813364 
1942 -0.2813203 
1943 -0.28131923 
1944 -0.28141043 
1945 -0.28156975 
1946 -0.28167275 
1947 -0.28168294 
1948 -0.2816722 
1949 -0.28145334 
1950 -0.281235 
1951 -0.28125808 
1952 -0.2813981 
1953 -0.28134605 
1954 -0.2813981 
1955 -0.28176233 
1956 -0.28207293 
1957 -0.2817591 
1958 -0.28145334 
1959 -0.28134713 
1960 -0.28131226 
1961 -0.28116688 
1962 -0.28096464 
1963 -0.2808992 
1964 -0.28104028 
1965 -0.28128758 
1966 -0.28144744 
1967 -0.28143027 
1968 -0.28137717 
1969 -0.28136054 
1970 -0.2816089 
1971 -0.28191736 
1972 -0.28175858 
1973 -0.2815043 
1974 -0.28153327 
1975 -0.28166953 
1976 -0.28171727 
1977 -0.2816089 
1978 -0.28133264 
1979 -0.28140184 
1980 -0.2814469 
1981 -0.28138736 
1982 -0.2812731 
1983 -0.28140453 
1984 -0.28160945 
1985 -0.2815204 
1986 -0.28171673 
1987 -0.28182992 
1988 -0.28166953 
1989 -0.28150377 
1990 -0.28153756 
1991 -0.28142008 
1992 -0.2812731 
1993 -0.28139433 
1994 -0.28148928 
1995 -0.28140506 
1996 -0.28154293 
1997 -0.28161588 
1998 -0.28149197 
1999 -0.28146943 
2000 -0.28134605 
2001 -0.28129187 
2002 -0.28112826 
2003 -0.28105476 
2004 -0.28123716 
2005 -0.28148714 
2006 -0.2814453 
2007 -0.28137127 
2008 -0.2813793 
2009 -0.28135893 
2010 -0.28146997 
2011 -0.28168562 
2012 -0.2815633 
2013 -0.28146192 
2014 -0.28168508 
2015 -0.2818192 
2016 -0.28175107 
2017 -0.28180256 
2018 -0.28159496 
2019 -0.28150108 
2020 -0.2813675 
2021 -0.2812672 
2022 -0.2813042 
2023 -0.28128007 
2024 -0.28126183 
2025 -0.2813042 
2026 -0.2815322 
2027 -0.28169903 
2028 -0.28171083 
2029 -0.28169045 
2030 -0.28174356 
2031 -0.28182563 
2032 -0.2821652 
2033 -0.2820826 
2034 -0.28198925 
2035 -0.28215876 
2036 -0.2822446 
2037 -0.28196403 
2038 -0.2819136 
2039 -0.28195223 
2040 -0.2816604 
2041 -0.281603 
2042 -0.28156653 
2043 -0.28149572 
2044 -0.28159282 
2045 -0.2816336 
2046 -0.28193292 
2047 -0.28204665 
2048 -0.28178325 
2049 -0.28177896 
2050 -0.28172156 
2051 -0.2818326 
2052 -0.28203484 
2053 -0.28182778 
2054 -0.28182188 
2055 -0.2819254 
2056 -0.28190824 
2057 -0.28181115 
2058 -0.28172103 
2059 -0.28152683 
2060 -0.28149518 
2061 -0.2815188 
2062 -0.28147855 
2063 -0.28149572 
2064 -0.2814909 
2065 -0.28163627 
2066 -0.28156385 
2067 -0.28164217 
2068 -0.28178218 
2069 -0.28192273 
2070 -0.2818916 
2071 -0.28196135 
2072 -0.28207776 
2073 -0.2820767 
2074 -0.28220168 
2075 -0.2823079 
2076 -0.28235403 
2077 -0.28228536 
2078 -0.28183636 
2079 -0.28158155 
2080 -0.28159282 
2081 -0.28152522 
2082 -0.28161642 
2083 -0.28178164 
2084 -0.281772 
2085 -0.28161964 
2086 -0.2817752 
2087 -0.28186747 
2088 -0.28187552 
2089 -0.28184012 
2090 -0.28195438 
2091 -0.28209922 
2092 -0.28202948 
2093 -0.28210297 
2094 -0.28205147 
2095 -0.28207508 
2096 -0.28203002 
2097 -0.28200856 
2098 -0.28215876 
2099 -0.28243342 
2100 -0.28229126 
2101 -0.281971 
2102 -0.2818267 
2103 -0.28179398 
2104 -0.28187338 
2105 -0.28195867 
2106 -0.2820665 
2107 -0.282258 
2108 -0.28211156 
2109 -0.28198066 
2110 -0.28211585 
2111 -0.28204075 
2112 -0.28207508 
2113 -0.28195438 
2114 -0.2819372 
2115 -0.2823036 
2116 -0.2821491 
2117 -0.28185406 
2118 -0.2817473 
2119 -0.28173926 
2120 -0.2818149 
2121 -0.28177252 
2122 -0.28171942 
2123 -0.28175965 
2124 -0.28185782 
2125 -0.28194043 
2126 -0.28202036 
2127 -0.2820579 
2128 -0.281912 
2129 -0.28197315 
2130 -0.28193882 
2131 -0.2818444 
2132 -0.2819549 
2133 -0.28219417 
2134 -0.28246668 
2135 -0.2822655 
2136 -0.28224728 
2137 -0.28205147 
2138 -0.28174195 
2139 -0.28171727 
2140 -0.2817854 
2141 -0.2817956 
2142 -0.2818235 
2143 -0.28192863 
2144 -0.28196886 
2145 -0.28185835 
2146 -0.28180042 
2147 -0.28189537 
2148 -0.28198388 
2149 -0.2820402 
2150 -0.2821931 
2151 -0.2821829 
2152 -0.2820606 
2153 -0.2822419 
2154 -0.28227034 
2155 -0.28226337 
2156 -0.28222206 
2157 -0.28193936 
2158 -0.28193346 
2159 -0.28198388 
2160 -0.28194365 
2161 -0.28205416 
2162 -0.28192273 
2163 -0.28180525 
2164 -0.28179398 
2165 -0.2820123 
2166 -0.281934 
2167 -0.28195438 
2168 -0.28196457 
2169 -0.28201178 
2170 -0.28210995 
2171 -0.2821931 
2172 -0.28226498 
2173 -0.28231433 
2174 -0.2825155 
2175 -0.28249243 
2176 -0.28237173 
2177 -0.2824023 
2178 -0.28230736 
2179 -0.28231165 
2180 -0.28233418 
2181 -0.28213945 
2182 -0.2818927 
2183 -0.28189966 
2184 -0.28199837 
2185 -0.28207615 
2186 -0.2821652 
2187 -0.28210297 
2188 -0.2819619 
2189 -0.28206918 
2190 -0.28221187 
2191 -0.28224888 
2192 -0.28227517 
2193 -0.28240123 
2194 -0.28253213 
2195 -0.28240928 
2196 -0.2823508 
2197 -0.28242537 
2198 -0.28235027 
2199 -0.28205845 
2200 -0.28201446 
2201 -0.28224942 
2202 -0.2823567 
2203 -0.28218237 
2204 -0.28205362 
2205 -0.28213087 
2206 -0.28238407 
2207 -0.2825525 
2208 -0.2824774 
2209 -0.28233364 
2210 -0.28230628 
2211 -0.28228483 
2212 -0.2823358 
2213 -0.28240553 
2214 -0.28241464 
2215 -0.282523 
2216 -0.28250477 
2217 -0.28246722 
2218 -0.28239533 
2219 -0.28251764 
2220 -0.28240123 
2221 -0.28214803 
2222 -0.28207615 
2223 -0.28206167 
2224 -0.2820606 
2225 -0.28212497 
2226 -0.28230736 
2227 -0.2824184 
2228 -0.2823626 
2229 -0.28231433 
2230 -0.28242913 
2231 -0.28255573 
2232 -0.28254983 
2233 -0.28267536 
2234 -0.28267643 
2235 -0.28260562 
2236 -0.28263566 
2237 -0.2826791 
2238 -0.28265604 
2239 -0.28268555 
2240 -0.28255948 
2241 -0.28237173 
2242 -0.28224835 
2243 -0.28212658 
2244 -0.28215715 
2245 -0.28217968 
2246 -0.28227517 
2247 -0.282405 
2248 -0.28232828 
2249 -0.2820976 
2250 -0.28220007 
2251 -0.28229287 
2252 -0.2823567 
2253 -0.28247795 
2254 -0.2825139 
2255 -0.28247258 
2256 -0.2823862 
2257 -0.28230897 
2258 -0.282405 
2259 -0.28236797 
2260 -0.282361 
2261 -0.2822655 
2262 -0.28217754 
2263 -0.28217754 
2264 -0.28220007 
2265 -0.28217432 
2266 -0.2821695 
2267 -0.2821341 
2268 -0.28203538 
2269 -0.2820327 
2270 -0.282199 
2271 -0.28235832 
2272 -0.28252462 
2273 -0.282582 
2274 -0.2825584 
2275 -0.28242645 
2276 -0.28245005 
2277 -0.28254715 
2278 -0.28236637 
2279 -0.28227732 
2280 -0.28220007 
2281 -0.28220543 
2282 -0.28223762 
2283 -0.2822403 
2284 -0.2825552 
2285 -0.28263512 
2286 -0.28238353 
2287 -0.2822725 
2288 -0.28223708 
2289 -0.28223494 
2290 -0.28235725 
2291 -0.2823712 
2292 -0.28245917 
2293 -0.28239855 
2294 -0.2824538 
2295 -0.2826496 
2296 -0.282751 
2297 -0.28248438 
2298 -0.2825509 
2299 -0.2825772 
2300 -0.2823417 
2301 -0.28232506 
2302 -0.28256592 
2303 -0.28256753 
2304 -0.28222582 
2305 -0.2823079 
2306 -0.28267214 
2307 -0.28263995 
2308 -0.2823932 
2309 -0.282405 
2310 -0.28240874 
2311 -0.28239748 
2312 -0.28244415 
2313 -0.2825407 
2314 -0.28265283 
2315 -0.28268662 
2316 -0.28266034 
2317 -0.28251657 
2318 -0.28240553 
2319 -0.2823138 
2320 -0.28229234 
2321 -0.28232774 
2322 -0.28222153 
2323 -0.2821786 
2324 -0.2822285 
2325 -0.28235993 
2326 -0.28238085 
2327 -0.2824935 
2328 -0.282626 
2329 -0.28256592 
2330 -0.28248063 
2331 -0.28254822 
2332 -0.28254822 
2333 -0.28275368 
2334 -0.28285077 
2335 -0.28286687 
2336 -0.28269735 
2337 -0.2825037 
2338 -0.28241196 
2339 -0.28233418 
2340 -0.282133 
2341 -0.28224298 
2342 -0.2823111 
2343 -0.2820901 
2344 -0.28217056 
2345 -0.28239962 
2346 -0.2824935 
2347 -0.2825552 
2348 -0.28245756 
2349 -0.2822623 
2350 -0.2822816 
2351 -0.28245917 
2352 -0.2827349 
2353 -0.28274724 
2354 -0.28269628 
2355 -0.28267214 
2356 -0.28261903 
2357 -0.2826024 
2358 -0.2825273 
2359 -0.28246078 
2360 -0.28252837 
2361 -0.28274992 
2362 -0.2825273 
2363 -0.28239587 
2364 -0.28254178 
2365 -0.2825273 
2366 -0.28244147 
2367 -0.2824522 
2368 -0.28249136 
2369 -0.28250316 
2370 -0.28251764 
2371 -0.2824404 
2372 -0.28257236 
2373 -0.2827703 
2374 -0.28298864 
2375 -0.2828497 
2376 -0.2826142 
2377 -0.28263298 
2378 -0.28254285 
2379 -0.28247526 
2380 -0.28253534 
2381 -0.28247687 
2382 -0.28246936 
2383 -0.282383 
2384 -0.28238943 
2385 -0.2824023 
2386 -0.28255573 
2387 -0.28270808 
2388 -0.28271613 
2389 -0.28269574 
2390 -0.28268662 
2391 -0.2826818 
2392 -0.28276172 
2393 -0.28279498 
2394 -0.28268716 
2395 -0.28265068 
2396 -0.2826319 
2397 -0.28258845 
2398 -0.28255036 
2399 -0.28240606 
2400 -0.28241196 
2401 -0.28246132 
2402 -0.28255358 
2403 -0.2827188 
2404 -0.28282288 
2405 -0.28280035 
2406 -0.28278694 
2407 -0.28280947 
2408 -0.28270003 
2409 -0.28262654 
2410 -0.28276226 
2411 -0.2828438 
2412 -0.28283736 
2413 -0.2828658 
2414 -0.28287438 
2415 -0.2829055 
2416 -0.28306106 
2417 -0.28307286 
2418 -0.28297576 
2419 -0.2830278 
2420 -0.28289583 
2421 -0.28264102 
2422 -0.2826142 
2423 -0.2824227 
2424 -0.28260884 
2425 -0.28266785 
2426 -0.28263083 
2427 -0.28265765 
2428 -0.28276923 
2429 -0.2828159 
2430 -0.28297362 
2431 -0.282869 
2432 -0.28262922 
2433 -0.28262278 
2434 -0.2827306 
2435 -0.2826185 
2436 -0.28274027 
2437 -0.28285828 
2438 -0.28272524 
2439 -0.28260455 
2440 -0.28269628 
2441 -0.2827998 
2442 -0.28276655 
2443 -0.28275046 
2444 -0.28269628 
2445 -0.28264585 
2446 -0.28261957 
2447 -0.2826158 
2448 -0.28254178 
2449 -0.28254876 
2450 -0.2825981 
2451 -0.28266516 
2452 -0.28267696 
2453 -0.28268072 
2454 -0.28275046 
2455 -0.2827612 
2456 -0.28276226 
2457 -0.28278694 
2458 -0.28284165 
2459 -0.28282502 
2460 -0.28279284 
2461 -0.28282395 
2462 -0.2829232 
2463 -0.28273705 
2464 -0.28256056 
2465 -0.28274992 
2466 -0.28288296 
2467 -0.28285775 
2468 -0.2826936 
2469 -0.28258255 
2470 -0.28262118 
2471 -0.28268448 
2472 -0.2826673 
2473 -0.28267053 
2474 -0.28266355 
2475 -0.2827054 
2476 -0.28270808 
2477 -0.28264585 
2478 -0.28254822 
2479 -0.28251818 
2480 -0.28259918 
2481 -0.2825686 
2482 -0.28262815 
2483 -0.28272954 
2484 -0.28292426 
2485 -0.28294572 
2486 -0.28301975 
2487 -0.2830396 
2488 -0.2827966 
2489 -0.28277835 
2490 -0.2827553 
2491 -0.28272095 
2492 -0.28302726 
2493 -0.28313616 
2494 -0.2831072 
2495 -0.283038 
2496 -0.283053 
2497 -0.28307125 
2498 -0.2829688 
2499 -0.28277138 
2500 -0.2826319 
2501 -0.28266624 
2502 -0.28266838 
2503 -0.28259596 
2504 -0.28261366 
2505 -0.28259274 
2506 -0.28258577 
2507 -0.28257987 
2508 -0.2826126 
2509 -0.2826936 
2510 -0.28280142 
2511 -0.2828497 
2512 -0.28286847 
2513 -0.2829704 
2514 -0.283134 
2515 -0.28308788 
2516 -0.28295538 
2517 -0.28304496 
2518 -0.2829173 
2519 -0.28277782 
2520 -0.28279176 
2521 -0.28276816 
2522 -0.28284004 
2523 -0.282913 
2524 -0.2829382 
2525 -0.2829956 
2526 -0.28296718 
2527 -0.28300366 
2528 -0.28293338 
2529 -0.28292587 
2530 -0.28307554 
2531 -0.28314045 
2532 -0.2833105 
2533 -0.2832928 
2534 -0.283222 
2535 -0.2830514 
2536 -0.28297308 
2537 -0.28297684 
2538 -0.2828304 
2539 -0.28284273 
2540 -0.28301385 
2541 -0.28318873 
2542 -0.2832751 
2543 -0.28316888 
2544 -0.28303853 
2545 -0.2830074 
2546 -0.2830176 
2547 -0.28295216 
2548 -0.2830192 
2549 -0.28306267 
2550 -0.28291622 
2551 -0.28283843 
2552 -0.28308842 
2553 -0.28335074 
2554 -0.2833974 
2555 -0.28322843 
2556 -0.2830927 
2557 -0.28300473 
2558 -0.282935 
2559 -0.28278854 
2560 -0.28291193 
2561 -0.28299937 
2562 -0.2831941 
2563 -0.28321394 
2564 -0.2831914 
2565 -0.28291246 
2566 -0.28271505 
2567 -0.28261313 
2568 -0.28285345 
2569 -0.28296772 
2570 -0.28293768 
2571 -0.2829688 
2572 -0.28285345 
2573 -0.28287598 
2574 -0.28292587 
2575 -0.2830616 
2576 -0.2831104 
2577 -0.28326222 
2578 -0.28333572 
2579 -0.28330782 
2580 -0.28320858 
2581 -0.28309914 
2582 -0.2831222 
2583 -0.28305086 
2584 -0.2829323 
2585 -0.2829511 
2586 -0.28300205 
2587 -0.2829452 
2588 -0.28289744 
2589 -0.28284273 
2590 -0.2827569 
2591 -0.2828143 
2592 -0.28282395 
2593 -0.28279927 
2594 -0.28277513 
2595 -0.2827821 
2596 -0.2828116 
2597 -0.28290173 
2598 -0.28281 
2599 -0.2827392 
2600 -0.2829484 
2601 -0.28303906 
2602 -0.28295645 
2603 -0.28298864 
2604 -0.28304496 
2605 -0.28312436 
2606 -0.28315225 
2607 -0.28312382 
2608 -0.28293714 
2609 -0.28277245 
2610 -0.2827671 
2611 -0.28287867 
2612 -0.283016 
2613 -0.28309754 
2614 -0.2831045 
2615 -0.2832102 
2616 -0.2832826 
2617 -0.28327832 
2618 -0.28325042 
2619 -0.28325525 
2620 -0.28314957 
2621 -0.2829484 
2622 -0.28291193 
2623 -0.28293124 
2624 -0.28282556 
2625 -0.28282824 
2626 -0.2830793 
2627 -0.28326866 
2628 -0.2832354 
2629 -0.28313455 
2630 -0.28315762 
2631 -0.28315225 
2632 -0.2831206 
2633 -0.2831469 
2634 -0.28307018 
2635 -0.28298917 
2636 -0.28296772 
2637 -0.28297415 
2638 -0.28313187 
2639 -0.2832708 
2640 -0.28318337 
2641 -0.2830074 
2642 -0.2830117 
2643 -0.28311256 
2644 -0.28308412 
2645 -0.28310075 
2646 -0.28322092 
2647 -0.28318605 
2648 -0.28298166 
2649 -0.28282556 
2650 -0.2828808 
2651 -0.28303102 
2652 -0.28315493 
2653 -0.28321233 
2654 -0.28325364 
2655 -0.28337327 
2656 -0.28339526 
2657 -0.2832118 
2658 -0.28314474 
2659 -0.28296986 
2660 -0.28277138 
2661 -0.28280786 
2662 -0.2827805 
2663 -0.28273383 
2664 -0.28266248 
2665 -0.28274938 
2666 -0.2828422 
2667 -0.28284004 
2668 -0.28291515 
2669 -0.2830868 
2670 -0.28320697 
2671 -0.2831147 
2672 -0.2831104 
2673 -0.2830793 
2674 -0.2831646 
2675 -0.28331265 
2676 -0.2833148 
2677 -0.28322038 
2678 -0.28314474 
2679 -0.28303745 
2680 -0.28284004 
2681 -0.2828572 
2682 -0.28281268 
2683 -0.2827687 
2684 -0.28282127 
2685 -0.2828835 
2686 -0.28294358 
2687 -0.28300795 
2688 -0.28314957 
2689 -0.2832488 
2690 -0.28325525 
2691 -0.28316513 
2692 -0.2830986 
2693 -0.2830836 
2694 -0.28309432 
2695 -0.28312972 
2696 -0.28304496 
2697 -0.28299507 
2698 -0.28300956 
2699 -0.28299025 
2700 -0.28298703 
2701 -0.28301546 
2702 -0.2830718 
2703 -0.28313616 
2704 -0.2831367 
2705 -0.28321823 
2706 -0.28319892 
2707 -0.2830852 
2708 -0.28306535 
2709 -0.283156 
2710 -0.28308627 
2711 -0.28300634 
2712 -0.28309432 
2713 -0.28312168 
2714 -0.2831764 
2715 -0.28334913 
2716 -0.28344998 
2717 -0.28343657 
2718 -0.28331265 
2719 -0.28307232 
2720 -0.28294358 
2721 -0.2829409 
2722 -0.28287277 
2723 -0.28282234 
2724 -0.2829232 
2725 -0.28309217 
2726 -0.283281 
2727 -0.28319624 
2728 -0.28305516 
2729 -0.283016 
2730 -0.2830986 
2731 -0.28314582 
2732 -0.28307608 
2733 -0.28307876 
2734 -0.28318068 
2735 -0.2831973 
2736 -0.2832279 
2737 -0.28316727 
2738 -0.28304926 
2739 -0.2829661 
2740 -0.28293929 
2741 -0.28285828 
2742 -0.28292266 
2743 -0.28301975 
2744 -0.2831324 
2745 -0.28318498 
2746 -0.2832236 
2747 -0.28322038 
2748 -0.2832059 
2749 -0.28325364 
2750 -0.28318712 
2751 -0.2831013 
2752 -0.28314045 
2753 -0.28318605 
2754 -0.28325203 
2755 -0.2833663 
2756 -0.28347948 
2757 -0.2835079 
2758 -0.2834446 
2759 -0.28336415 
2760 -0.28331694 
2761 -0.28321394 
2762 -0.2830659 
2763 -0.28290012 
2764 -0.2828996 
2765 -0.28317907 
2766 -0.28333357 
2767 -0.28344837 
2768 -0.2834076 
2769 -0.2832354 
2770 -0.28330836 
2771 -0.2832397 
2772 -0.28323433 
2773 -0.28336897 
2774 -0.28352883 
2775 -0.28349397 
2776 -0.28345856 
2777 -0.28327993 
2778 -0.28302565 
2779 -0.28290227 
2780 -0.28291783 
2781 -0.28295 
2782 -0.2830707 
2783 -0.28318283 
2784 -0.28325418 
2785 -0.28339204 
2786 -0.28345963 
2787 -0.28355995 
2788 -0.2834811 
2789 -0.28334054 
2790 -0.28327778 
2791 -0.28339258 
2792 -0.28354332 
2793 -0.2835208 
2794 -0.2836447 
2795 -0.28366724 
2796 -0.28366455 
2797 -0.28366455 
2798 -0.28351006 
2799 -0.28342423 
2800 -0.28337112 
2801 -0.28306267 
2802 -0.28281268 
2803 -0.28286794 
2804 -0.28295806 
2805 -0.2831426 
2806 -0.28327832 
2807 -0.28341028 
2808 -0.28337863 
2809 -0.28332928 
2810 -0.28338936 
2811 -0.28348377 
2812 -0.2835106 
2813 -0.28349772 
2814 -0.28346768 
2815 -0.28348216 
2816 -0.2835079 
2817 -0.2834296 
2818 -0.28328368 
2819 -0.28329334 
2820 -0.28340545 
2821 -0.2833427 
2822 -0.28326973 
2823 -0.28318712 
2824 -0.28308037 
2825 -0.2832043 
2826 -0.28330085 
2827 -0.28335717 
2828 -0.2833883 
2829 -0.28330085 
2830 -0.2833561 
2831 -0.28343228 
2832 -0.28354385 
2833 -0.2835991 
2834 -0.28352615 
2835 -0.283443 
2836 -0.28343388 
2837 -0.28337112 
2838 -0.2833207 
2839 -0.2833148 
2840 -0.2833695 
2841 -0.2833148 
2842 -0.2833797 
2843 -0.28346285 
2844 -0.28358462 
2845 -0.2835138 
2846 -0.2834752 
2847 -0.28340062 
2848 -0.28348324 
2849 -0.2835562 
2850 -0.2834634 
2851 -0.28322092 
2852 -0.2832 
2853 -0.28327563 
2854 -0.28342637 
2855 -0.2835857 
2856 -0.28360662 
2857 -0.28360286 
2858 -0.28350362 
2859 -0.2834355 
2860 -0.2832767 
2861 -0.28316137 
2862 -0.2830927 
2863 -0.28308842 
2864 -0.28313133 
2865 -0.2831957 
2866 -0.28332284 
2867 -0.28343496 
2868 -0.2834634 
2869 -0.28347626 
2870 -0.28335717 
2871 -0.28334698 
2872 -0.28344944 
2873 -0.2835004 
2874 -0.28364846 
2875 -0.28376755 
2876 -0.28363344 
2877 -0.283465 
2878 -0.28329226 
2879 -0.2832252 
2880 -0.28304175 
2881 -0.28298327 
2882 -0.28310397 
2883 -0.2831882 
2884 -0.28319892 
2885 -0.28328744 
2886 -0.2833105 
2887 -0.28325257 
2888 -0.28329387 
2889 -0.28323272 
2890 -0.2832472 
2891 -0.2834446 
2892 -0.2835047 
2893 -0.28344408 
2894 -0.2834414 
2895 -0.2835106 
2896 -0.28349182 
2897 -0.28340867 
2898 -0.28328207 
2899 -0.28297362 
2900 -0.28288242 
2901 -0.283053 
2902 -0.2832177 
2903 -0.28328583 
2904 -0.28330943 
2905 -0.28333625 
2906 -0.2834194 
2907 -0.28335664 
2908 -0.2833459 
2909 -0.2833738 
2910 -0.28339526 
2911 -0.28346714 
2912 -0.28348914 
2913 -0.2835417 
2914 -0.2835401 
2915 -0.28348592 
2916 -0.2836093 
2917 -0.28360286 
2918 -0.28346768 
2919 -0.2834033 
2920 -0.28330085 
2921 -0.28321823 
2922 -0.28312275 
2923 -0.28303048 
2924 -0.2831045 
2925 -0.28327456 
2926 -0.2834811 
2927 -0.2835326 
2928 -0.28339633 
2929 -0.28328475 
2930 -0.28334698 
2931 -0.2835503 
2932 -0.28372195 
2933 -0.2838255 
2934 -0.28380886 
2935 -0.28382495 
2936 -0.28383407 
2937 -0.28378257 
2938 -0.28370103 
2939 -0.2835975 
2940 -0.28342476 
2941 -0.28338668 
2942 -0.28340116 
2943 -0.2833239 
2944 -0.28334108 
2945 -0.2834269 
2946 -0.2834666 
2947 -0.2835798 
2948 -0.2836286 
2949 -0.2835857 
2950 -0.28352883 
2951 -0.28349397 
2952 -0.28347036 
2953 -0.28339794 
2954 -0.28345427 
2955 -0.2835782 
2956 -0.28371283 
2957 -0.28364685 
2958 -0.2835149 
2959 -0.2834237 
2960 -0.2834398 
2961 -0.28359267 
2962 -0.28363612 
2963 -0.283406 
2964 -0.28335074 
2965 -0.28329065 
2966 -0.2833974 
2967 -0.2835326 
2968 -0.2835664 
2969 -0.28357282 
2970 -0.2836608 
2971 -0.28369942 
2972 -0.28365007 
2973 -0.28355995 
2974 -0.28350577 
2975 -0.28368494 
2976 -0.2837434 
2977 -0.28358462 
2978 -0.28346875 
2979 -0.28344837 
2980 -0.28353742 
2981 -0.2835208 
2982 -0.28345588 
2983 -0.28329173 
2984 -0.28326115 
2985 -0.28316835 
2986 -0.2831265 
2987 -0.28316888 
2988 -0.28320053 
2989 -0.28322092 
2990 -0.28323004 
2991 -0.2833309 
2992 -0.2834398 
2993 -0.28358677 
2994 -0.28367636 
2995 -0.28364202 
2996 -0.28363934 
2997 -0.28357926 
2998 -0.28348592 
2999 -0.28337917 
3000 -0.2832928 
3001 -0.28318283 
3002 -0.28317264 
3003 -0.28320482 
3004 -0.28333572 
3005 -0.283362 
3006 -0.2834076 
3007 -0.2833974 
3008 -0.28333893 
3009 -0.28330675 
3010 -0.28325525 
3011 -0.28334376 
3012 -0.2833856 
3013 -0.28353152 
3014 -0.2836168 
3015 -0.28360394 
3016 -0.2837048 
3017 -0.28371927 
3018 -0.28355297 
3019 -0.28351113 
3020 -0.28346553 
3021 -0.28343925 
3022 -0.28320536 
3023 -0.28310558 
3024 -0.28315547 
3025 -0.2833942 
3026 -0.28355458 
3027 -0.28352883 
3028 -0.28348485 
3029 -0.28343388 
3030 -0.28350362 
3031 -0.28356048 
3032 -0.2835326 
3033 -0.28350255 
3034 -0.28356263 
3035 -0.28353688 
3036 -0.2834371 
3037 -0.28349236 
3038 -0.2834473 
3039 -0.28334108 
3040 -0.28340653 
3041 -0.2834607 
3042 -0.28334698 
3043 -0.2833368 
3044 -0.28334 
3045 -0.28342047 
3046 -0.2834725 
3047 -0.28348377 
3048 -0.28348485 
3049 -0.2834752 
3050 -0.28347948 
3051 -0.2836254 
3052 -0.28370586 
3053 -0.283752 
3054 -0.2837622 
3055 -0.28371605 
3056 -0.28372732 
3057 -0.2838094 
3058 -0.28372893 
3059 -0.28366885 
3060 -0.2835723 
3061 -0.2834607 
3062 -0.28337595 
3063 -0.2833368 
3064 -0.28320053 
3065 -0.28317586 
3066 -0.28329763 
3067 -0.28332552 
3068 -0.28320482 
3069 -0.28313187 
3070 -0.28319088 
3071 -0.2834269 
3072 -0.28355297 
3073 -0.28364685 
3074 -0.28369513 
3075 -0.28365812 
3076 -0.28364202 
3077 -0.28363237 
3078 -0.28362057 
3079 -0.28354546 
3080 -0.2834505 
3081 -0.28348485 
3082 -0.28356317 
3083 -0.283524 
3084 -0.28334108 
3085 -0.28332016 
3086 -0.2834446 
3087 -0.28344998 
3088 -0.2834591 
3089 -0.28348538 
3090 -0.28349665 
3091 -0.28356478 
3092 -0.28348055 
3093 -0.28346607 
3094 -0.2834473 
3095 -0.2833958 
3096 -0.28337327 
3097 -0.28333035 
3098 -0.28342155 
3099 -0.28354225 
3100 -0.28351596 
3101 -0.28351972 
3102 -0.28346607 
3103 -0.28339097 
3104 -0.2834151 
3105 -0.28345856 
3106 -0.28333786 
3107 -0.283406 
3108 -0.283502 
3109 -0.28353903 
3110 -0.28355834 
3111 -0.2835535 
3112 -0.28369513 
3113 -0.2837799 
3114 -0.28373805 
3115 -0.28375146 
3116 -0.28374663 
3117 -0.28360716 
3118 -0.28335986 
3119 -0.28330514 
3120 -0.28330407 
3121 -0.28320375 
3122 -0.28301814 
3123 -0.28294304 
3124 -0.28301117 
3125 -0.28332928 
3126 -0.28348753 
3127 -0.28342047 
3128 -0.2834328 
3129 -0.283384 
3130 -0.2835358 
3131 -0.28361788 
3132 -0.28359267 
3133 -0.28360608 
3134 -0.28369567 
3135 -0.2837799 
3136 -0.28393546 
3137 -0.28401217 
3138 -0.28380778 
3139 -0.2835138 
3140 -0.28337756 
3141 -0.2833282 
3142 -0.28339633 
3143 -0.2835004 
3144 -0.28344193 
3145 -0.28334323 
3146 -0.2833765 
3147 -0.2833974 
3148 -0.28347412 
3149 -0.2834505 
3150 -0.28346875 
3151 -0.28359535 
3152 -0.283686 
3153 -0.28364632 
3154 -0.2838373 
3155 -0.28383085 
3156 -0.28371176 
3157 -0.28371713 
3158 -0.2836018 
3159 -0.28334484 
3160 -0.28333732 
3161 -0.2834269 
3162 -0.2834473 
3163 -0.28351274 
3164 -0.28355458 
3165 -0.28356746 
3166 -0.28341082 
3167 -0.2834033 
3168 -0.28346232 
3169 -0.28346768 
3170 -0.28371122 
3171 -0.28387645 
3172 -0.2837198 
3173 -0.28348592 
3174 -0.28344783 
3175 -0.28350684 
3176 -0.28354385 
3177 -0.28345695 
3178 -0.283443 
3179 -0.28348485 
3180 -0.28344193 
3181 -0.28326598 
3182 -0.28330567 
3183 -0.2834296 
3184 -0.28358784 
3185 -0.28359267 
3186 -0.28365973 
3187 -0.28363505 
3188 -0.28358302 
3189 -0.28353688 
3190 -0.2834446 
3191 -0.28334966 
3192 -0.2833341 
3193 -0.2833883 
3194 -0.28343388 
3195 -0.283406 
3196 -0.28341886 
3197 -0.28343764 
3198 -0.28343764 
3199 -0.28336415 
3200 -0.28341565 
3201 -0.28348216 
3202 -0.2833722 
3203 -0.28327295 
3204 -0.28331748 
3205 -0.2834328 
3206 -0.28344622 
3207 -0.2833872 
3208 -0.28331855 
3209 -0.2833561 
3210 -0.2834768 
3211 -0.28345373 
3212 -0.2835181 
3213 -0.2835519 
3214 -0.28351972 
3215 -0.28352293 
3216 -0.28361574 
3217 -0.28359053 
3218 -0.2835562 
3219 -0.28364632 
3220 -0.28353527 
3221 -0.28343388 
3222 -0.28330782 
3223 -0.28334162 
3224 -0.28346124 
3225 -0.2836195 
3226 -0.28372088 
3227 -0.28362808 
3228 -0.28368387 
3229 -0.28358462 
3230 -0.2835959 
3231 -0.28352615 
3232 -0.28342208 
3233 -0.28353366 
3234 -0.28352186 
3235 -0.28356585 
3236 -0.28359 
3237 -0.2836286 
3238 -0.28371015 
3239 -0.2836903 
3240 -0.28358248 
3241 -0.28333732 
3242 -0.2832987 
3243 -0.28330836 
3244 -0.28336254 
3245 -0.2833765 
3246 -0.28329012 
3247 -0.28337595 
3248 -0.2835031 
3249 -0.283384 
3250 -0.28346983 
3251 -0.2835047 
3252 -0.28338185 
3253 -0.28344998 
3254 -0.28340384 
3255 -0.28357604 
3256 -0.283774 
3257 -0.28381047 
3258 -0.28384802 
3259 -0.28391293 
3260 -0.2839451 
3261 -0.2837418 
3262 -0.28358784 
3263 -0.28350255 
3264 -0.28339902 
3265 -0.28324613 
3266 -0.28317478 
3267 -0.2831163 
3268 -0.28309163 
3269 -0.2831528 
3270 -0.28318283 
3271 -0.28338882 
3272 -0.2834886 
3273 -0.2835165 
3274 -0.2834752 
3275 -0.2833781 
3276 -0.2833577 
3277 -0.28350148 
3278 -0.2834784 
3279 -0.28337112 
3280 -0.28331426 
3281 -0.28335503 
3282 -0.283406 
3283 -0.28345856 
3284 -0.28352132 
3285 -0.28351006 
3286 -0.28351274 
3287 -0.28349397 
3288 -0.2834269 
3289 -0.28322306 
3290 -0.28315493 
3291 -0.2833459 
3292 -0.28358033 
3293 -0.283649 
3294 -0.28361467 
3295 -0.2837933 
3296 -0.2839022 
3297 -0.28380725 
3298 -0.28380242 
3299 -0.28372893 
3300 -0.2836109 
3301 -0.28352347 
3302 -0.2833765 
3303 -0.28324184 
3304 -0.2832944 
3305 -0.28322843 
3306 -0.28325364 
3307 -0.28343818 
3308 -0.28355458 
3309 -0.2835063 
3310 -0.28344193 
3311 -0.28348538 
3312 -0.28357014 
3313 -0.28360608 
3314 -0.28350684 
3315 -0.2835873 
3316 -0.2835814 
3317 -0.2835959 
3318 -0.28368708 
3319 -0.2835916 
3320 -0.28343228 
3321 -0.28338024 
3322 -0.2835358 
3323 -0.28342047 
3324 -0.2832987 
3325 -0.28329816 
3326 -0.2834634 
3327 -0.2836152 
3328 -0.2837316 
3329 -0.28353152 
3330 -0.28334644 
3331 -0.2833105 
3332 -0.28329173 
3333 -0.28356907 
3334 -0.283693 
3335 -0.28356424 
3336 -0.28353527 
3337 -0.28361252 
3338 -0.28351864 
3339 -0.2833121 
3340 -0.28319517 
3341 -0.283119 
3342 -0.2830986 
3343 -0.28306535 
3344 -0.28315225 
3345 -0.28314957 
3346 -0.28315333 
3347 -0.28321555 
3348 -0.28318444 
3349 -0.2831925 
3350 -0.28335825 
3351 -0.28353098 
3352 -0.28362808 
3353 -0.28369835 
3354 -0.28377613 
3355 -0.28388825 
3356 -0.2839478 
3357 -0.28385606 
3358 -0.28373536 
3359 -0.28368977 
3360 -0.28355566 
3361 -0.28339365 
3362 -0.28328368 
3363 -0.2832692 
3364 -0.28328368 
3365 -0.28340974 
3366 -0.283502 
3367 -0.28351167 
3368 -0.2834752 
3369 -0.28353205 
3370 -0.28347948 
3371 -0.28352347 
3372 -0.28358355 
3373 -0.28366348 
3374 -0.28374073 
3375 -0.28375039 
3376 -0.28377613 
3377 -0.2838008 
3378 -0.2838137 
3379 -0.28379223 
3380 -0.28379276 
3381 -0.2839124 
3382 -0.28390488 
3383 -0.28354815 
3384 -0.28345373 
3385 -0.28354654 
3386 -0.2835004 
3387 -0.28365275 
3388 -0.28365597 
3389 -0.28345802 
3390 -0.2835975 
3391 -0.2838405 
3392 -0.28371552 
3393 -0.283708 
3394 -0.28372195 
3395 -0.2838271 
3396 -0.2838979 
3397 -0.28380135 
3398 -0.283693 
3399 -0.28363505 
3400 -0.28355405 
3401 -0.283568 
3402 -0.2836651 
3403 -0.2837225 
3404 -0.28371444 
3405 -0.28377882 
3406 -0.2838137 
3407 -0.28381315 
3408 -0.28369567 
3409 -0.2835637 
3410 -0.28354225 
3411 -0.2836726 
3412 -0.2838861 
3413 -0.28398213 
3414 -0.284054 
3415 -0.28405187 
3416 -0.28402236 
3417 -0.2839478 
3418 -0.28369138 
3419 -0.2836195 
3420 -0.2835959 
3421 -0.28360662 
3422 -0.2837021 
3423 -0.2837654 
3424 -0.2838228 
3425 -0.2838888 
3426 -0.28387806 
3427 -0.28388342 
3428 -0.28379974 
3429 -0.28373 
3430 -0.28369835 
3431 -0.28368387 
3432 -0.28363076 
3433 -0.28375468 
3434 -0.28394994 
3435 -0.28399876 
3436 -0.2839333 
3437 -0.28377935 
3438 -0.2836286 
3439 -0.28346607 
3440 -0.28340116 
3441 -0.2834312 
3442 -0.28333035 
3443 -0.28318766 
3444 -0.28312436 
3445 -0.28319517 
3446 -0.28337488 
3447 -0.2834001 
3448 -0.28330407 
3449 -0.28339633 
3450 -0.28359106 
3451 -0.2836887 
3452 -0.28358462 
3453 -0.28354493 
3454 -0.2835476 
3455 -0.2835535 
3456 -0.2834457 
3457 -0.2834033 
3458 -0.28346393 
3459 -0.2834398 
3460 -0.2832794 
3461 -0.28323004 
3462 -0.28327456 
3463 -0.28321716 
3464 -0.28317478 
3465 -0.28314582 
3466 -0.28315923 
3467 -0.28324988 
3468 -0.2832971 
3469 -0.28328636 
3470 -0.28325042 
3471 -0.28327724 
3472 -0.28325525 
3473 -0.2832531 
3474 -0.28333035 
3475 -0.28338078 
3476 -0.28334323 
3477 -0.28321502 
3478 -0.28280303 
3479 -0.28282556 
3480 -0.28293929 
3481 -0.28299776 
3482 -0.2829205 
3483 -0.28300205 
3484 -0.2831544 
3485 -0.28310183 
3486 -0.2830691 
3487 -0.28298166 
3488 -0.28289637 
3489 -0.28284702 
3490 -0.28279606 
3491 -0.2829028 
3492 -0.28299025 
3493 -0.2829055 
3494 -0.2829071 
3495 -0.28291622 
3496 -0.2827982 
3497 -0.28265873 
3498 -0.2826201 
3499 -0.2825745 
3500 -0.28257182 
3501 -0.28279015 
3502 -0.28271827 
3503 -0.28258255 
3504 -0.28256324 
3505 -0.2824624 
3506 -0.28253964 
3507 -0.2826303 
3508 -0.28261742 
3509 -0.28271237 
3510 -0.28271666 
3511 -0.28275904 
3512 -0.2827998 
3513 -0.28282234 
3514 -0.28285506 
3515 -0.28293607 
3516 -0.28289476 
3517 -0.28282663 
3518 -0.2828733 
3519 -0.28295377 
3520 -0.28286418 
3521 -0.28294358 
3522 -0.28300366 
3523 -0.28285775 
3524 -0.2826244 
3525 -0.28254768 
3526 -0.2825804 
3527 -0.28247795 
3528 -0.2823551 
3529 -0.28233257 
3530 -0.2824023 
3531 -0.2824361 
3532 -0.28237388 
3533 -0.28246132 
3534 -0.28261474 
3535 -0.28267106 
3536 -0.28255787 
3537 -0.28266945 
3538 -0.28268555 
3539 -0.28268126 
3540 -0.28269038 
3541 -0.282648 
3542 -0.28260615 
3543 -0.28250584 
3544 -0.2824538 
3545 -0.28256378 
3546 -0.28267106 
3547 -0.28253105 
3548 -0.28245863 
3549 -0.28254232 
3550 -0.28261313 
3551 -0.2827805 
3552 -0.28307983 
3553 -0.28323862 
3554 -0.2829146 
3555 -0.2827215 
3556 -0.28267857 
3557 -0.28266838 
3558 -0.28266945 
3559 -0.28259543 
3560 -0.28261313 
3561 -0.2825627 
3562 -0.2823594 
3563 -0.28233793 
3564 -0.28234652 
3565 -0.28255144 
3566 -0.28264746 
3567 -0.2826818 
3568 -0.28265712 
3569 -0.28250316 
3570 -0.28251764 
3571 -0.28249404 
3572 -0.28245112 
3573 -0.28232023 
3574 -0.28218934 
3575 -0.2821196 
3576 -0.2822242 
3577 -0.28237173 
3578 -0.28246775 
3579 -0.2825702 
3580 -0.28258094 
3581 -0.28249028 
3582 -0.28253105 
3583 -0.282545 
3584 -0.2824377 
3585 -0.28236476 
3586 -0.28237388 
3587 -0.28235564 
3588 -0.28226015 
3589 -0.2822607 
3590 -0.28233686 
3591 -0.28228644 
3592 -0.28216788 
3593 -0.28209493 
3594 -0.2821432 
3595 -0.28228107 
3596 -0.28233686 
3597 -0.28236476 
3598 -0.28238782 
3599 -0.28239802 
3600 -0.28235778 
3601 -0.28226873 
3602 -0.28216252 
3603 -0.28211102 
3604 -0.28214535 
3605 -0.28217432 
3606 -0.2822151 
3607 -0.28222582 
3608 -0.28239748 
3609 -0.28233257 
3610 -0.2822655 
3611 -0.28235295 
3612 -0.28247526 
3613 -0.28252032 
3614 -0.28253803 
3615 -0.2825096 
3616 -0.2824345 
3617 -0.28235027 
3618 -0.28236797 
3619 -0.2824227 
3620 -0.28250316 
3621 -0.28257933 
3622 -0.2824699 
3623 -0.2822757 
3624 -0.28218558 
3625 -0.2822564 
3626 -0.28235564 
3627 -0.28239426 
3628 -0.28238085 
3629 -0.28237763 
3630 -0.28256807 
3631 -0.2824833 
3632 -0.282361 
3633 -0.28243932 
3634 -0.2824318 
3635 -0.28247204 
3636 -0.2824817 
3637 -0.2824978 
3638 -0.28255948 
3639 -0.2823948 
3640 -0.28224835 
3641 -0.28239802 
3642 -0.28237227 
3643 -0.2822698 
3644 -0.28231272 
3645 -0.28237227 
3646 -0.28239748 
3647 -0.28242 
3648 -0.28247258 
3649 -0.28257504 
3650 -0.28268716 
3651 -0.2827585 
3652 -0.28276065 
3653 -0.2827601 
3654 -0.2828395 
3655 -0.28292802 
3656 -0.2829645 
3657 -0.28295913 
3658 -0.28286418 
3659 -0.28281322 
3660 -0.28274938 
3661 -0.2826158 
3662 -0.2824023 
3663 -0.2821904 
3664 -0.2822151 
3665 -0.28236744 
3666 -0.28250048 
3667 -0.2826185 
3668 -0.28265175 
3669 -0.2826995 
3670 -0.28266785 
3671 -0.28283468 
3672 -0.28284273 
3673 -0.28282127 
3674 -0.28290656 
3675 -0.28303638 
3676 -0.28302887 
3677 -0.28294948 
3678 -0.28284916 
3679 -0.2828615 
3680 -0.28275153 
3681 -0.28281537 
3682 -0.2828422 
3683 -0.28281966 
3684 -0.28287062 
3685 -0.28286043 
3686 -0.28295645 
3687 -0.28313455 
3688 -0.28315386 
3689 -0.28310934 
3690 -0.28311095 
3691 -0.2831308 
3692 -0.28326973 
3693 -0.28321394 
3694 -0.28303853 
3695 -0.28299937 
3696 -0.28296182 
3697 -0.2830026 
3698 -0.28296718 
3699 -0.28292426 
3700 -0.28293392 
3701 -0.28290012 
3702 -0.28291568 
3703 -0.28292587 
3704 -0.28288993 
3705 -0.28295913 
3706 -0.28311792 
3707 -0.28333357 
3708 -0.2833341 
3709 -0.28336146 
3710 -0.28337863 
3711 -0.2832311 
3712 -0.2833663 
3713 -0.28345534 
3714 -0.28345534 
3715 -0.2836152 
3716 -0.28365758 
3717 -0.2836093 
3718 -0.28368226 
3719 -0.28376326 
3720 -0.28379437 
3721 -0.2836474 
3722 -0.28347787 
3723 -0.28331318 
3724 -0.28319624 
3725 -0.28315172 
3726 -0.2831603 
3727 -0.2833309 
3728 -0.2835712 
3729 -0.28362432 
3730 -0.28368708 
3731 -0.283693 
3732 -0.2837611 
3733 -0.28376916 
3734 -0.28380296 
3735 -0.28384265 
3736 -0.28397676 
3737 -0.28398213 
3738 -0.28383192 
3739 -0.28365275 
3740 -0.28360072 
3741 -0.28351757 
3742 -0.2834607 
3743 -0.28351703 
3744 -0.2834446 
3745 -0.28359374 
3746 -0.28362164 
3747 -0.28359053 
3748 -0.2836195 
3749 -0.28372946 
3750 -0.28368065 
3751 -0.28385338 
3752 -0.28394243 
3753 -0.2840524 
3754 -0.2840363 
3755 -0.28401914 
3756 -0.28402826 
3757 -0.28406957 
3758 -0.28406045 
3759 -0.2839537 
3760 -0.28393653 
3761 -0.28388986 
3762 -0.2837874 
3763 -0.2836667 
3764 -0.28363022 
3765 -0.28377452 
3766 -0.28403684 
3767 -0.28418866 
3768 -0.28413555 
3769 -0.28398642 
3770 -0.28399286 
3771 -0.28405508 
3772 -0.284142 
3773 -0.284201 
3774 -0.28427663 
3775 -0.2842879 
3776 -0.28441396 
3777 -0.2842616 
3778 -0.2842289 
3779 -0.28419724 
3780 -0.28409478 
3781 -0.28410444 
3782 -0.28409693 
3783 -0.28387323 
3784 -0.2838668 
3785 -0.28409746 
3786 -0.28415164 
3787 -0.28415325 
3788 -0.28417203 
3789 -0.28426751 
3790 -0.28429648 
3791 -0.28429326 
3792 -0.28424284 
3793 -0.2841688 
3794 -0.28413716 
3795 -0.28425893 
3796 -0.284319 
3797 -0.28426 
3798 -0.2842042 
3799 -0.28423855 
3800 -0.28417686 
3801 -0.2840229 
3802 -0.28390864 
3803 -0.2839698 
3804 -0.28408566 
3805 -0.28423962 
3806 -0.28449228 
3807 -0.28449443 
3808 -0.2846001 
3809 -0.2846355 
3810 -0.28462854 
3811 -0.2846355 
3812 -0.28471062 
3813 -0.28473476 
3814 -0.28481093 
3815 -0.2848592 
3816 -0.28483936 
3817 -0.28486994 
3818 -0.28493324 
3819 -0.28484634 
3820 -0.2847074 
3821 -0.28461245 
3822 -0.28435227 
3823 -0.2842557 
3824 -0.28412053 
3825 -0.28405187 
3826 -0.28411946 
3827 -0.2841924 
3828 -0.28435013 
3829 -0.28456417 
3830 -0.28440914 
3831 -0.28447405 
3832 -0.28449175 
3833 -0.28453305 
3834 -0.28470364 
3835 -0.28486457 
3836 -0.28497562 
3837 -0.28483668 
3838 -0.284709 
3839 -0.28457114 
3840 -0.28448424 
3841 -0.28447297 
3842 -0.28458026 
3843 -0.28458455 
3844 -0.2845942 
3845 -0.28464088 
3846 -0.28470364 
3847 -0.28464088 
3848 -0.28457382 
3849 -0.2847031 
3850 -0.28485385 
3851 -0.28488603 
3852 -0.28495845 
3853 -0.2850164 
3854 -0.28499064 
3855 -0.28499815 
3856 -0.28501692 
3857 -0.28507218 
3858 -0.2850856 
3859 -0.28505716 
3860 -0.28498527 
3861 -0.28491607 
3862 -0.2848474 
3863 -0.28482327 
3864 -0.28481737 
3865 -0.28488174 
3866 -0.28486726 
3867 -0.28491607 
3868 -0.2849547 
3869 -0.28489247 
3870 -0.2848356 
3871 -0.28486887 
3872 -0.28493217 
3873 -0.28499922 
3874 -0.28509256 
3875 -0.2850829 
3876 -0.28498527 
3877 -0.28491017 
3878 -0.28494397 
3879 -0.28501263 
3880 -0.28497133 
3881 -0.28484848 
3882 -0.28472885 
3883 -0.28468487 
3884 -0.28472564 
3885 -0.28474817 
3886 -0.28472403 
3887 -0.28479108 
3888 -0.28494933 
3889 -0.2850475 
3890 -0.28494826 
3891 -0.2848651 
3892 -0.28492412 
3893 -0.28494826 
3894 -0.28492358 
3895 -0.2849016 
3896 -0.2849268 
3897 -0.28490964 
3898 -0.2848533 
3899 -0.28488925 
3900 -0.2849402 
3901 -0.28494075 
3902 -0.28483775 
3903 -0.2847385 
3904 -0.28477874 
3905 -0.2848281 
3906 -0.28487048 
3907 -0.28485867 
3908 -0.2847546 
3909 -0.28479484 
3910 -0.2849987 
3911 -0.28506842 
3912 -0.28498313 
3913 -0.2850298 
3914 -0.2850593 
3915 -0.28500727 
3916 -0.28491983 
3917 -0.28497186 
3918 -0.285136 
3919 -0.28511027 
3920 -0.28497884 
3921 -0.28486887 
3922 -0.28481415 
3923 -0.28483936 
3924 -0.28489676 
3925 -0.28486457 
3926 -0.28482166 
3927 -0.2849268 
3928 -0.28501907 
3929 -0.2850856 
3930 -0.28508773 
3931 -0.28497508 
3932 -0.28492144 
3933 -0.28504965 
3934 -0.28517142 
3935 -0.28527924 
3936 -0.28526852 
3937 -0.28522667 
3938 -0.28513977 
3939 -0.285099 
3940 -0.2850432 
3941 -0.28491554 
3942 -0.2849665 
3943 -0.2849547 
3944 -0.28487584 
3945 -0.28483453 
3946 -0.2848694 
3947 -0.28495523 
3948 -0.2850577 
3949 -0.2849858 
3950 -0.28487852 
3951 -0.28509095 
3952 -0.28518644 
3953 -0.2851033 
3954 -0.28504 
3955 -0.2851108 
3956 -0.2851918 
3957 -0.2851623 
3958 -0.28506628 
3959 -0.28498206 
3960 -0.28487155 
3961 -0.28476962 
3962 -0.2848694 
3963 -0.28492787 
3964 -0.28490642 
3965 -0.28501746 
3966 -0.28512046 
3967 -0.28516015 
3968 -0.2852889 
3969 -0.2852846 
3970 -0.2852594 
3971 -0.28542033 
3972 -0.2856172 
3973 -0.2853581 
3974 -0.28516927 
3975 -0.28522775 
3976 -0.28521112 
3977 -0.2850829 
3978 -0.28508666 
3979 -0.28506467 
3980 -0.28502122 
3981 -0.28497294 
3982 -0.28494397 
3983 -0.28485224 
3984 -0.2848045 
3985 -0.28480718 
3986 -0.28482756 
3987 -0.28482327 
3988 -0.28497937 
3989 -0.28521326 
3990 -0.2853785 
3991 -0.2854965 
3992 -0.28563222 
3993 -0.28568694 
3994 -0.28576848 
3995 -0.28573415 
3996 -0.2856097 
3997 -0.28555176 
3998 -0.2854965 
3999 -0.28550294 
4000 -0.28543052 
4001 -0.2851242 
4002 -0.28497186 
4003 -0.28502604 
4004 -0.28504857 
4005 -0.28500834 
4006 -0.28499332 
4007 -0.28498045 
4008 -0.28488925 
4009 -0.28477445 
4010 -0.28471437 
4011 -0.2847723 
4012 -0.2848254 
4013 -0.2848324 
4014 -0.2849708 
4015 -0.28508505 
4016 -0.28518 
4017 -0.28527924 
4018 -0.28533933 
4019 -0.2853302 
4020 -0.28551528 
4021 -0.28559735 
4022 -0.2853361 
4023 -0.28517893 
4024 -0.2849987 
4025 -0.28480825 
4026 -0.28462586 
4027 -0.28445205 
4028 -0.2845411 
4029 -0.28466073 
4030 -0.28473046 
4031 -0.2847723 
4032 -0.28482756 
4033 -0.28493217 
4034 -0.28506735 
4035 -0.28517625 
4036 -0.2852331 
4037 -0.28531787 
4038 -0.28537098 
4039 -0.28549704 
4040 -0.28558555 
4041 -0.28557053 
4042 -0.28540853 
4043 -0.28526208 
4044 -0.285143 
4045 -0.2849606 
4046 -0.28483775 
4047 -0.28477606 
4048 -0.28473422 
4049 -0.28476426 
4050 -0.2847385 
4051 -0.2846956 
4052 -0.28478464 
4053 -0.2849472 
4054 -0.2849842 
4055 -0.2851387 
4056 -0.2851843 
4057 -0.28505287 
4058 -0.2848871 
4059 -0.28480878 
4060 -0.284878 
4061 -0.2849075 
4062 -0.28496113 
4063 -0.28489944 
4064 -0.2849842 
4065 -0.2849413 
4066 -0.28494182 
4067 -0.2849386 
4068 -0.2848474 
4069 -0.2847428 
4070 -0.28480825 
4071 -0.28485975 
4072 -0.2848855 
4073 -0.28486297 
4074 -0.28493056 
4075 -0.2850341 
4076 -0.2850738 
4077 -0.28498366 
4078 -0.28493378 
4079 -0.28482756 
4080 -0.28474334 
4081 -0.2847444 
4082 -0.28471223 
4083 -0.2846355 
4084 -0.2846795 
4085 -0.28467736 
4086 -0.28476587 
4087 -0.28482863 
4088 -0.2848163 
4089 -0.28474012 
4090 -0.28474817 
4091 -0.28475943 
4092 -0.28482327 
4093 -0.284893 
4094 -0.28494558 
4095 -0.28502604 
4096 -0.28508022 
4097 -0.28496543 
4098 -0.28482327 
4099 -0.28474388 
4100 -0.28448316 
4101 -0.28437266 
4102 -0.28436354 
4103 -0.28444937 
4104 -0.28458133 
4105 -0.28472564 
4106 -0.2849402 
4107 -0.28496006 
4108 -0.28494075 
4109 -0.28502068 
4110 -0.28500137 
4111 -0.28495792 
4112 -0.28489676 
4113 -0.28496274 
4114 -0.28514192 
4115 -0.28525403 
4116 -0.28517303 
4117 -0.28504536 
4118 -0.2851328 
4119 -0.2852079 
4120 -0.28515372 
4121 -0.2849531 
4122 -0.28474388 
4123 -0.28467897 
4124 -0.2846119 
4125 -0.284591 
4126 -0.28467575 
4127 -0.2847471 
4128 -0.28469935 
4129 -0.28466287 
4130 -0.2845867 
4131 -0.28459045 
4132 -0.28468272 
4133 -0.28471974 
4134 -0.2848619 
4135 -0.28496167 
4136 -0.28495845 
4137 -0.28491983 
4138 -0.28494933 
4139 -0.28496972 
4140 -0.2848619 
4141 -0.28469452 
4142 -0.28464088 
4143 -0.28460708 
4144 -0.28455397 
4145 -0.28469184 
4146 -0.28469077 
4147 -0.28446224 
4148 -0.28445044 
4149 -0.28453198 
4150 -0.2846575 
4151 -0.28485116 
4152 -0.28483078 
4153 -0.28484794 
4154 -0.28497294 
4155 -0.2850282 
4156 -0.28504053 
4157 -0.2850094 
4158 -0.28496918 
4159 -0.2848957 
4160 -0.2846897 
4161 -0.28459796 
4162 -0.2845336 
4163 -0.28458294 
4164 -0.2846661 
4165 -0.28460333 
4166 -0.28458294 
4167 -0.28465858 
4168 -0.28469023 
4169 -0.28465644 
4170 -0.28461996 
4171 -0.28463927 
4172 -0.28456524 
4173 -0.2846237 
4174 -0.28466395 
4175 -0.2845545 
4176 -0.2845411 
4177 -0.28454056 
4178 -0.2845604 
4179 -0.28467038 
4180 -0.28462747 
4181 -0.28460118 
4182 -0.28449067 
4183 -0.2843319 
4184 -0.28425196 
4185 -0.28422675 
4186 -0.2843319 
4187 -0.28441128 
4188 -0.28443167 
4189 -0.28446707 
4190 -0.2845132 
4191 -0.2845513 
4192 -0.28454915 
4193 -0.2845808 
4194 -0.2846205 
4195 -0.2846661 
4196 -0.28469023 
4197 -0.28461406 
4198 -0.28455773 
4199 -0.28463873 
4200 -0.28467575 
4201 -0.28452232 
4202 -0.28440377 
4203 -0.284341 
4204 -0.284341 
4205 -0.28439572 
4206 -0.284422 
4207 -0.28436193 
4208 -0.28433082 
4209 -0.28429863 
4210 -0.28441128 
4211 -0.28457436 
4212 -0.2846001 
4213 -0.2847841 
4214 -0.28486887 
4215 -0.2847192 
4216 -0.28472456 
4217 -0.28475085 
4218 -0.28467682 
4219 -0.28452662 
4220 -0.28440967 
4221 -0.28441986 
4222 -0.2844408 
4223 -0.28442147 
4224 -0.2844837 
4225 -0.28456149 
4226 -0.2845368 
4227 -0.2844837 
4228 -0.28445956 
4229 -0.2843512 
4230 -0.28437695 
4231 -0.2844338 
4232 -0.28436247 
4233 -0.2843764 
4234 -0.2844279 
4235 -0.28456256 
4236 -0.2845529 
4237 -0.2844676 
4238 -0.28453627 
4239 -0.2844365 
4240 -0.28435227 
4241 -0.28444508 
4242 -0.28439036 
4243 -0.2842439 
4244 -0.2842321 
4245 -0.28429917 
4246 -0.28436515 
4247 -0.28429648 
4248 -0.28426 
4249 -0.28426966 
4250 -0.2843775 
4251 -0.2845706 
4252 -0.28457007 
4253 -0.28447512 
4254 -0.28460333 
4255 -0.28466126 
4256 -0.28463444 
4257 -0.28453037 
4258 -0.28438768 
4259 -0.2842305 
4260 -0.28416505 
4261 -0.28419134 
4262 -0.28417847 
4263 -0.28412965 
4264 -0.2841994 
4265 -0.28424713 
4266 -0.28423694 
4267 -0.28432384 
4268 -0.28430507 
4269 -0.28422943 
4270 -0.2841876 
4271 -0.2842246 
4272 -0.2842144 
4273 -0.28426537 
4274 -0.28427395 
4275 -0.284407 
4276 -0.2845486 
4277 -0.28449014 
4278 -0.28434584 
4279 -0.28423265 
4280 -0.28419295 
4281 -0.28416666 
4282 -0.28407654 
4283 -0.28402773 
4284 -0.28399447 
4285 -0.28405562 
4286 -0.28417686 
4287 -0.28430453 
4288 -0.28435817 
4289 -0.28432062 
4290 -0.28440645 
4291 -0.2845411 
4292 -0.28445312 
4293 -0.28433403 
4294 -0.28435603 
4295 -0.28447995 
4296 -0.28454486 
4297 -0.28457007 
4298 -0.28458884 
4299 -0.28465644 
4300 -0.28456202 
4301 -0.28445527 
4302 -0.284157 
4303 -0.2840304 
4304 -0.28405133 
4305 -0.28403202 
4306 -0.28415433 
4307 -0.28413662 
4308 -0.28412643 
4309 -0.28418866 
4310 -0.28422353 
4311 -0.28430936 
4312 -0.28437695 
4313 -0.28441396 
4314 -0.2845293 
4315 -0.28460547 
4316 -0.28458187 
4317 -0.2846516 
4318 -0.28472403 
4319 -0.28473958 
4320 -0.28466824 
4321 -0.28455612 
4322 -0.28448424 
4323 -0.28445688 
4324 -0.2844735 
4325 -0.2844821 
4326 -0.28448156 
4327 -0.28444937 
4328 -0.28457704 
4329 -0.28465268 
4330 -0.2848002 
4331 -0.2847589 
4332 -0.2845368 
4333 -0.28444508 
4334 -0.284326 
4335 -0.28439894 
4336 -0.28450248 
4337 -0.28450677 
4338 -0.2845454 
4339 -0.28443596 
4340 -0.2844617 
4341 -0.28447405 
4342 -0.28437427 
4343 -0.28422514 
4344 -0.2840728 
4345 -0.28404865 
4346 -0.28414413 
4347 -0.2842466 
4348 -0.28427395 
4349 -0.28437373 
4350 -0.28455183 
4351 -0.2846736 
4352 -0.28470525 
4353 -0.2846221 
4354 -0.28460386 
4355 -0.28452662 
4356 -0.28454003 
4357 -0.28454754 
4358 -0.284444 
4359 -0.28436354 
4360 -0.2842466 
4361 -0.28423694 
4362 -0.28415003 
4363 -0.2840803 
4364 -0.2840862 
4365 -0.28411034 
4366 -0.2841436 
4367 -0.28415003 
4368 -0.28402933 
4369 -0.28391185 
4370 -0.283833 
4371 -0.2838566 
4372 -0.28399286 
4373 -0.2840626 
4374 -0.28414628 
4375 -0.28433564 
4376 -0.28460762 
4377 -0.28466073 
4378 -0.28460065 
4379 -0.28449765 
4380 -0.28441986 
4381 -0.2845545 
4382 -0.28451106 
4383 -0.28440055 
4384 -0.284304 
4385 -0.28415754 
4386 -0.2840186 
4387 -0.28382656 
4388 -0.2838185 
4389 -0.2838169 
4390 -0.28379598 
4391 -0.283811 
4392 -0.28383246 
4393 -0.2839596 
4394 -0.2842804 
4395 -0.28421977 
4396 -0.28427717 
4397 -0.284157 
4398 -0.28412804 
4399 -0.2841495 
4400 -0.2841597 
4401 -0.28419027 
4402 -0.284098 
4403 -0.28388557 
4404 -0.28395852 
4405 -0.2840744 
4406 -0.28415057 
4407 -0.28410175 
4408 -0.28401592 
4409 -0.2840111 
4410 -0.28415272 
4411 -0.2842423 
4412 -0.2842289 
4413 -0.2842509 
4414 -0.2843807 
4415 -0.2844821 
4416 -0.28450033 
4417 -0.2844408 
4418 -0.28435764 
4419 -0.28424606 
4420 -0.28420475 
4421 -0.28412482 
4422 -0.28403792 
4423 -0.28394458 
4424 -0.28396335 
4425 -0.28402933 
4426 -0.284039 
4427 -0.28407815 
4428 -0.28405777 
4429 -0.28407493 
4430 -0.2841908 
4431 -0.2843099 
4432 -0.28414574 
4433 -0.2840347 
4434 -0.2841495 
4435 -0.28428683 
4436 -0.2841538 
4437 -0.2840025 
4438 -0.2839006 
4439 -0.28389576 
4440 -0.28379545 
4441 -0.283752 
4442 -0.2837681 
4443 -0.2838196 
4444 -0.28380993 
4445 -0.28386196 
4446 -0.28394887 
4447 -0.28395852 
4448 -0.28392312 
4449 -0.28383997 
4450 -0.2839596 
4451 -0.2840701 
4452 -0.28411785 
4453 -0.28415647 
4454 -0.28424284 
4455 -0.2842938 
4456 -0.28439572 
4457 -0.28446653 
4458 -0.28440216 
4459 -0.28398964 
4460 -0.28385875 
4461 -0.28392366 
4462 -0.28398266 
4463 -0.28406206 
4464 -0.28426537 
4465 -0.28411677 
4466 -0.28419992 
4467 -0.2842702 
4468 -0.2842509 
4469 -0.28403094 
4470 -0.283958 
4471 -0.28396228 
4472 -0.2839478 
4473 -0.28394404 
4474 -0.28403577 
4475 -0.28416666 
4476 -0.2842171 
4477 -0.28427878 
4478 -0.28429756 
4479 -0.2842616 
4480 -0.28438875 
4481 -0.28435388 
4482 -0.2840111 
4483 -0.28375736 
4484 -0.28380135 
4485 -0.2838185 
4486 -0.28374663 
4487 -0.2837123 
4488 -0.2838067 
4489 -0.28387484 
4490 -0.28396496 
4491 -0.2841393 
4492 -0.28411624 
4493 -0.28407547 
4494 -0.28410175 
4495 -0.28410658 
4496 -0.2840921 
4497 -0.28413448 
4498 -0.28406528 
4499 -0.28392902 
4500 -0.283914 
4501 -0.28397462 
4502 -0.28407118 
4503 -0.2840449 
4504 -0.28396067 
4505 -0.2840095 
4506 -0.28406045 
4507 -0.28405133 
4508 -0.284076 
4509 -0.28413716 
4510 -0.2839757 
4511 -0.28397676 
4512 -0.28399608 
4513 -0.28398535 
4514 -0.28398535 
4515 -0.28406796 
4516 -0.28418812 
4517 -0.28430292 
4518 -0.2843689 
4519 -0.28438714 
4520 -0.28444025 
4521 -0.28449872 
4522 -0.28446814 
4523 -0.2842718 
4524 -0.28399393 
4525 -0.2838904 
4526 -0.28394082 
4527 -0.28391293 
4528 -0.28390327 
4529 -0.2841098 
4530 -0.28430668 
4531 -0.28417417 
4532 -0.28411517 
4533 -0.28408298 
4534 -0.28415325 
4535 -0.2841994 
4536 -0.2842171 
4537 -0.28420475 
4538 -0.28415433 
4539 -0.28428522 
4540 -0.28449604 
4541 -0.28450784 
4542 -0.2843056 
4543 -0.28417954 
4544 -0.28430668 
4545 -0.2843131 
4546 -0.28425303 
4547 -0.28415915 
4548 -0.28405884 
4549 -0.28416505 
4550 -0.28429595 
4551 -0.28450248 
4552 -0.284547 
4553 -0.2845604 
4554 -0.28453305 
4555 -0.2845041 
4556 -0.28460065 
4557 -0.28437588 
4558 -0.28419027 
4559 -0.28427503 
4560 -0.28426912 
4561 -0.28428683 
4562 -0.28435925 
4563 -0.28435603 
4564 -0.28429487 
4565 -0.2842187 
4566 -0.28423962 
4567 -0.28432867 
4568 -0.28441665 
4569 -0.28439358 
4570 -0.2843469 
4571 -0.2841538 
4572 -0.28405616 
4573 -0.2840229 
4574 -0.28384587 
4575 -0.28386196 
4576 -0.28384748 
4577 -0.28372732 
4578 -0.28379706 
4579 -0.28393438 
4580 -0.28404972 
4581 -0.28417578 
4582 -0.28429112 
4583 -0.28428254 
4584 -0.28422084 
4585 -0.28420636 
4586 -0.2841672 
4587 -0.28409854 
4588 -0.2840052 
4589 -0.28390864 
4590 -0.28395423 
4591 -0.28387806 
4592 -0.28388718 
4593 -0.2839317 
4594 -0.2839258 
4595 -0.2840025 
4596 -0.28410605 
4597 -0.2841554 
4598 -0.28407225 
4599 -0.28396174 
4600 -0.28396603 
4601 -0.28398213 
4602 -0.2838668 
4603 -0.2836903 
4604 -0.28375307 
4605 -0.28391346 
4606 -0.28401378 
4607 -0.28402075 
4608 -0.2840009 
4609 -0.28401485 
4610 -0.2839907 
4611 -0.2840642 
4612 -0.28413823 
4613 -0.28424338 
4614 -0.28424928 
4615 -0.2841554 
4616 -0.28396818 
4617 -0.28387913 
4618 -0.2838582 
4619 -0.28382334 
4620 -0.28381047 
4621 -0.28374073 
4622 -0.28365865 
4623 -0.28362432 
4624 -0.28368655 
4625 -0.2836356 
4626 -0.28356263 
4627 -0.28358838 
4628 -0.2836978 
4629 -0.28368333 
4630 -0.2837048 
4631 -0.28368333 
4632 -0.28373 
4633 -0.28383246 
4634 -0.28395584 
4635 -0.28390595 
4636 -0.28404543 
4637 -0.28414682 
4638 -0.28402397 
4639 -0.28392634 
4640 -0.28389522 
4641 -0.2838153 
4642 -0.28370157 
4643 -0.28363666 
4644 -0.28351757 
4645 -0.2835712 
4646 -0.2836447 
4647 -0.28359213 
4648 -0.2835283 
4649 -0.28352347 
4650 -0.2836683 
4651 -0.28384265 
4652 -0.2839907 
4653 -0.28393438 
4654 -0.2839022 
4655 -0.28390327 
4656 -0.28389415 
4657 -0.28390005 
4658 -0.2838153 
4659 -0.28383836 
4660 -0.28378096 
4661 -0.28362057 
4662 -0.28355458 
4663 -0.28354815 
4664 -0.2835798 
4665 -0.2837037 
4666 -0.28381637 
4667 -0.28381208 
4668 -0.28384534 
4669 -0.28374127 
4670 -0.28372356 
4671 -0.2836109 
4672 -0.28354546 
4673 -0.2837316 
4674 -0.2838389 
4675 -0.28382763 
4676 -0.28384212 
4677 -0.2838904 
4678 -0.28386948 
4679 -0.28385445 
4680 -0.28373697 
4681 -0.28358784 
4682 -0.2834194 
4683 -0.2831662 
4684 -0.28317747 
4685 -0.28318068 
4686 -0.2833282 
4687 -0.28350577 
4688 -0.28357926 
4689 -0.28364792 
4690 -0.28376648 
4691 -0.28388664 
4692 -0.28400144 
4693 -0.28400734 
4694 -0.28388825 
4695 -0.2840481 
4696 -0.28407547 
4697 -0.28403792 
4698 -0.28408834 
4699 -0.28399017 
4700 -0.28385928 
4701 -0.2837037 
4702 -0.2835401 
4703 -0.28343925 
4704 -0.28336522 
4705 -0.283406 
4706 -0.283406 
4707 -0.28346983 
4708 -0.28361896 
4709 -0.28383353 
4710 -0.28394243 
4711 -0.28396603 
4712 -0.28396496 
4713 -0.2839097 
4714 -0.28389683 
4715 -0.28385767 
4716 -0.28387752 
4717 -0.2838759 
4718 -0.28401485 
4719 -0.28407708 
4720 -0.2839301 
4721 -0.28374127 
4722 -0.28353474 
4723 -0.2834398 
4724 -0.2834489 
4725 -0.2834634 
4726 -0.28353742 
4727 -0.28371283 
4728 -0.283811 
4729 -0.2838244 
4730 -0.28379115 
4731 -0.2838314 
4732 -0.2838314 
4733 -0.28380564 
4734 -0.2838094 
4735 -0.28389898 
4736 -0.2839317 
4737 -0.28389898 
4738 -0.28377452 
4739 -0.28374448 
4740 -0.28377184 
4741 -0.2838684 
4742 -0.28380242 
4743 -0.28359106 
4744 -0.28363505 
4745 -0.2837611 
4746 -0.28383836 
4747 -0.28381047 
4748 -0.28373376 
4749 -0.28379598 
4750 -0.28389952 
4751 -0.2839671 
4752 -0.28399017 
4753 -0.28406474 
4754 -0.28407976 
4755 -0.2840422 
4756 -0.2840347 
4757 -0.2839022 
4758 -0.2837477 
4759 -0.28371552 
4760 -0.2837257 
4761 -0.28375575 
4762 -0.2837622 
4763 -0.2836962 
4764 -0.28368494 
4765 -0.28375146 
4766 -0.28386036 
4767 -0.2839403 
4768 -0.2838625 
4769 -0.28388664 
4770 -0.28399178 
4771 -0.2841409 
4772 -0.28404543 
4773 -0.28403202 
4774 -0.28430936 
4775 -0.2844762 
4776 -0.28428736 
4777 -0.28412858 
4778 -0.28399822 
4779 -0.28382012 
4780 -0.2838185 
4781 -0.28385445 
4782 -0.283627 
4783 -0.28356478 
4784 -0.2837182 
4785 -0.28378096 
4786 -0.28383622 
4787 -0.283914 
4788 -0.2839183 
4789 -0.28392205 
4790 -0.2839612 
4791 -0.28398535 
4792 -0.28408137 
4793 -0.28405616 
4794 -0.28388986 
4795 -0.28366724 
4796 -0.28378204 
4797 -0.28386304 
4798 -0.28373644 
4799 -0.283671 
4800 -0.28367957 
4801 -0.28374717 
4802 -0.28371015 
4803 -0.28372625 
4804 -0.28383085 
4805 -0.28394672 
4806 -0.2839006 
4807 -0.2838287 
4808 -0.28368762 
4809 -0.28364202 
4810 -0.28368494 
4811 -0.28371122 
4812 -0.28378418 
4813 -0.28377935 
4814 -0.2837815 
4815 -0.28386196 
4816 -0.28401324 
4817 -0.28415433 
4818 -0.28417578 
4819 -0.28424177 
4820 -0.2843866 
4821 -0.2843249 
4822 -0.28423104 
4823 -0.28407922 
4824 -0.28389737 
4825 -0.28387538 
4826 -0.28390166 
4827 -0.2839891 
4828 -0.28402397 
4829 -0.28397676 
4830 -0.28406098 
4831 -0.2842525 
4832 -0.28424928 
4833 -0.28423318 
4834 -0.2842777 
4835 -0.28433242 
4836 -0.28436032 
4837 -0.28434905 
4838 -0.2843351 
4839 -0.28424552 
4840 -0.28412858 
4841 -0.28411195 
4842 -0.28418544 
4843 -0.28419885 
4844 -0.28409854 
4845 -0.2841629 
4846 -0.2842321 
4847 -0.28425357 
4848 -0.28430024 
4849 -0.28423855 
4850 -0.2842128 
4851 -0.28424016 
4852 -0.2842804 
4853 -0.28444186 
4854 -0.28450838 
4855 -0.28454378 
4856 -0.28440216 
4857 -0.2842439 
4858 -0.28424016 
4859 -0.28414628 
4860 -0.28411517 
4861 -0.2840728 
4862 -0.283958 
4863 -0.28390703 
4864 -0.2839258 
4865 -0.28397354 
4866 -0.28416452 
4867 -0.28446063 
4868 -0.28445044 
4869 -0.28435817 
4870 -0.2842541 
4871 -0.2842643 
4872 -0.28422943 
4873 -0.2841259 
4874 -0.28405347 
4875 -0.28421602 
4876 -0.2842557 
4877 -0.28431472 
4878 -0.28437427 
4879 -0.2842509 
4880 -0.2841377 
4881 -0.2840331 
4882 -0.2840143 
4883 -0.28392795 
4884 -0.28378472 
4885 -0.28375468 
4886 -0.28389254 
4887 -0.2840245 
4888 -0.2840245 
4889 -0.28400627 
4890 -0.28402665 
4891 -0.28406313 
4892 -0.28420636 
4893 -0.28437373 
4894 -0.28450087 
4895 -0.2845765 
4896 -0.28453788 
4897 -0.28443757 
4898 -0.28435013 
4899 -0.28418866 
4900 -0.28410766 
4901 -0.28399178 
4902 -0.283811 
4903 -0.2837622 
4904 -0.28380725 
4905 -0.28381047 
4906 -0.2839006 
4907 -0.28403416 
4908 -0.28413555 
4909 -0.28411463 
4910 -0.2842171 
4911 -0.28432974 
4912 -0.28447673 
4913 -0.28453198 
4914 -0.28459314 
4915 -0.28468648 
4916 -0.28463873 
4917 -0.28455505 
4918 -0.2844086 
4919 -0.28436247 
4920 -0.28427824 
4921 -0.284142 
4922 -0.2840111 
4923 -0.28390595 
4924 -0.28391078 
4925 -0.284076 
4926 -0.2841967 
4927 -0.28425196 
4928 -0.2841141 
4929 -0.28412643 
4930 -0.28417525 
4931 -0.28425786 
4932 -0.28438714 
4933 -0.28437212 
4934 -0.28437105 
4935 -0.2843496 
4936 -0.28427342 
4937 -0.28423694 
4938 -0.28428522 
4939 -0.28428146 
4940 -0.2842466 
4941 -0.2841774 
4942 -0.2841318 
4943 -0.2842144 
4944 -0.2842616 
4945 -0.28422192 
4946 -0.2842128 
4947 -0.28417203 
4948 -0.28408298 
4949 -0.28415862 
4950 -0.28427556 
4951 -0.284201 
4952 -0.28422353 
4953 -0.2844585 
4954 -0.28456256 
4955 -0.28455612 
4956 -0.2845588 
4957 -0.28455773 
4958 -0.28445956 
4959 -0.28439465 
4960 -0.28429648 
4961 -0.2840599 
4962 -0.28387538 
4963 -0.28378204 
4964 -0.2839022 
4965 -0.28396925 
4966 -0.2840787 
4967 -0.2841232 
4968 -0.28415647 
4969 -0.28412536 
4970 -0.2841935 
4971 -0.28420743 
4972 -0.28415003 
4973 -0.2841597 
4974 -0.2843072 
4975 -0.28439036 
4976 -0.284319 
4977 -0.2843276 
4978 -0.28429434 
4979 -0.28412428 
4980 -0.28407332 
4981 -0.2841173 
4982 -0.2839757 
4983 -0.28393975 
4984 -0.28409532 
4985 -0.28420797 
4986 -0.2842584 
4987 -0.2842659 
4988 -0.28429863 
4989 -0.284363 
4990 -0.28438446 
4991 -0.2843673 
4992 -0.28436998 
4993 -0.2842922 
4994 -0.28422943 
4995 -0.28440914 
4996 -0.28442684 
4997 -0.28429112 
4998 -0.28425196 
4999 -0.28425947 
5000 -0.28429326 
5001 -0.28425357 
5002 -0.2842938 
5003 -0.2843528 
5004 -0.28448585 
5005 -0.28446868 
5006 -0.28433242 
5007 -0.28448156 
5008 -0.2845159 
5009 -0.28441665 
5010 -0.28430828 
5011 -0.28425625 
5012 -0.28425625 
5013 -0.28428575 
5014 -0.28441933 
5015 -0.2845336 
5016 -0.2846103 
5017 -0.28464302 
5018 -0.28454056 
5019 -0.28442255 
5020 -0.28432277 
5021 -0.28422138 
5022 -0.2841302 
5023 -0.2840905 
5024 -0.2841747 
5025 -0.28422406 
5026 -0.284201 
5027 -0.28404543 
5028 -0.2838314 
5029 -0.2837359 
5030 -0.28383353 
5031 -0.28395906 
5032 -0.28401968 
5033 -0.28409103 
5034 -0.28423157 
5035 -0.2843013 
5036 -0.2843319 
5037 -0.28441772 
5038 -0.28445312 
5039 -0.28448638 
5040 -0.28448746 
5041 -0.2842981 
5042 -0.2842616 
5043 -0.28428414 
5044 -0.2844338 
5045 -0.28446922 
5046 -0.28452286 
5047 -0.28459367 
5048 -0.28453842 
5049 -0.2843807 
5050 -0.2843689 
5051 -0.28449604 
5052 -0.28451803 
5053 -0.28454325 
5054 -0.28455022 
5055 -0.28452876 
5056 -0.28449175 
5057 -0.284326 
5058 -0.28420958 
5059 -0.28425893 
5060 -0.28426912 
5061 -0.28424928 
5062 -0.284179 
5063 -0.28429058 
5064 -0.284319 
5065 -0.28419027 
5066 -0.28423962 
5067 -0.28428307 
5068 -0.2843115 
5069 -0.28423586 
5070 -0.28419134 
5071 -0.2843072 
5072 -0.28434744 
5073 -0.284326 
5074 -0.28436622 
5075 -0.28454807 
5076 -0.28461513 
5077 -0.2845722 
5078 -0.2843351 
5079 -0.28426483 
5080 -0.2842364 
5081 -0.28415433 
5082 -0.28408566 
5083 -0.28400466 
5084 -0.2840331 
5085 -0.2841232 
5086 -0.2841275 
5087 -0.28420368 
5088 -0.28414735 
5089 -0.2841849 
5090 -0.28422353 
5091 -0.28427342 
5092 -0.284444 
5093 -0.28454056 
5094 -0.2845513 
5095 -0.28451213 
5096 -0.28446493 
5097 -0.2843748 
5098 -0.28433028 
5099 -0.2843925 
5100 -0.28440377 
5101 -0.28430507 
5102 -0.28412482 
5103 -0.28403845 
5104 -0.2840728 
5105 -0.2841688 
5106 -0.2841377 
5107 -0.28426966 
5108 -0.28439572 
5109 -0.28419402 
5110 -0.2840846 
5111 -0.28422406 
5112 -0.28435013 
5113 -0.28439626 
5114 -0.28436193 
5115 -0.28438607 
5116 -0.28440592 
5117 -0.2843013 
5118 -0.28429648 
5119 -0.2842659 
5120 -0.28413448 
5121 -0.28398803 
5122 -0.28408244 
5123 -0.28409478 
5124 -0.28405294 
5125 -0.2840658 
5126 -0.28415647 
5127 -0.28420368 
5128 -0.28417364 
5129 -0.28417417 
5130 -0.28419188 
5131 -0.28422567 
5132 -0.28438982 
5133 -0.2844408 
5134 -0.28450248 
5135 -0.28462586 
5136 -0.2844853 
5137 -0.28437963 
5138 -0.28440216 
5139 -0.2843099 
5140 -0.28424123 
5141 -0.28418383 
5142 -0.2843378 
5143 -0.28443006 
5144 -0.2844794 
5145 -0.28454754 
5146 -0.28456417 
5147 -0.28442898 
5148 -0.28440484 
5149 -0.28448156 
5150 -0.28451964 
5151 -0.28455934 
5152 -0.28461245 
5153 -0.28461996 
5154 -0.2844896 
5155 -0.28435925 
5156 -0.2843099 
5157 -0.28414306 
5158 -0.28402826 
5159 -0.2839891 
5160 -0.28414628 
5161 -0.2843512 
5162 -0.28430936 
5163 -0.2843072 
5164 -0.2844719 
5165 -0.28445044 
5166 -0.28443757 
5167 -0.2844467 
5168 -0.28441396 
5169 -0.28438875 
5170 -0.2843791 
5171 -0.28431258 
5172 -0.28432277 
5173 -0.2842289 
5174 -0.28405508 
5175 -0.2840449 
5176 -0.2840744 
5177 -0.28405455 
5178 -0.28407493 
5179 -0.2841334 
5180 -0.2842616 
5181 -0.28431955 
5182 -0.28415808 
5183 -0.28407118 
5184 -0.28412643 
5185 -0.2843555 
5186 -0.2845647 
5187 -0.28460708 
5188 -0.284547 
5189 -0.28457382 
5190 -0.2845014 
5191 -0.2844896 
5192 -0.28448692 
5193 -0.2844279 
5194 -0.28427932 
5195 -0.2842053 
5196 -0.2841849 
5197 -0.28419188 
5198 -0.28410873 
5199 -0.28409907 
5200 -0.28416774 
5201 -0.28411624 
5202 -0.28409854 
5203 -0.2841216 
5204 -0.28413555 
5205 -0.2842568 
5206 -0.28429648 
5207 -0.284304 
5208 -0.28424606 
5209 -0.28425625 
5210 -0.28440484 
5211 -0.28443596 
5212 -0.2843764 
5213 -0.28442094 
5214 -0.2845277 
5215 -0.28460708 
5216 -0.28459904 
5217 -0.28459635 
5218 -0.28457382 
5219 -0.28441772 
5220 -0.28432438 
5221 -0.28430936 
5222 -0.28426912 
5223 -0.28415915 
5224 -0.28406528 
5225 -0.28408995 
5226 -0.28410605 
5227 -0.28413555 
5228 -0.2841157 
5229 -0.28423372 
5230 -0.28432974 
5231 -0.2843555 
5232 -0.2844204 
5233 -0.2844129 
5234 -0.28447834 
5235 -0.28455558 
5236 -0.28451964 
5237 -0.2843614 
5238 -0.2843748 
5239 -0.28432223 
5240 -0.28428146 
5241 -0.28435656 
5242 -0.28437802 
5243 -0.2843571 
5244 -0.28430453 
5245 -0.2843056 
5246 -0.28440055 
5247 -0.2843823 
5248 -0.28434905 
5249 -0.28434852 
5250 -0.2844263 
5251 -0.28448477 
5252 -0.28454056 
5253 -0.2846001 
5254 -0.28457114 
5255 -0.28452662 
5256 -0.28439304 
5257 -0.28436193 
5258 -0.28436783 
5259 -0.28435442 
5260 -0.28431472 
5261 -0.28419778 
5262 -0.2841098 
5263 -0.28416237 
5264 -0.28422835 
5265 -0.2842026 
5266 -0.28424498 
5267 -0.28432545 
5268 -0.28438017 
5269 -0.28439572 
5270 -0.28437534 
5271 -0.28431472 
5272 -0.28427503 
5273 -0.28429917 
5274 -0.28445044 
5275 -0.28439465 
5276 -0.28420797 
5277 -0.28426537 
5278 -0.28415325 
5279 -0.2840331 
5280 -0.28406528 
5281 -0.284135 
5282 -0.2842262 
5283 -0.28427663 
5284 -0.28418115 
5285 -0.2841216 
5286 -0.28418007 
5287 -0.28424177 
5288 -0.28420958 
5289 -0.28416237 
5290 -0.28413394 
5291 -0.2841511 
5292 -0.284076 
5293 -0.28403148 
5294 -0.28422943 
5295 -0.28414467 
5296 -0.2840717 
5297 -0.28405938 
5298 -0.28403202 
5299 -0.28399286 
5300 -0.28392097 
5301 -0.28383514 
5302 -0.28399125 
5303 -0.28420636 
5304 -0.2841409 
5305 -0.28410283 
5306 -0.2841908 
5307 -0.28426483 
5308 -0.2842171 
5309 -0.28422996 
5310 -0.28420904 
5311 -0.28425732 
5312 -0.28418437 
5313 -0.28414574 
5314 -0.2842321 
5315 -0.28430668 
5316 -0.28430185 
5317 -0.2843233 
5318 -0.28419563 
5319 -0.2840599 
5320 -0.28393653 
5321 -0.28384748 
5322 -0.2838727 
5323 -0.28387216 
5324 -0.28387377 
5325 -0.28392902 
5326 -0.28404114 
5327 -0.2840245 
5328 -0.28384426 
5329 -0.283752 
5330 -0.28391775 
5331 -0.28402236 
5332 -0.28408566 
5333 -0.28406903 
5334 -0.2840658 
5335 -0.2840878 
5336 -0.28407547 
5337 -0.28414467 
5338 -0.28418812 
5339 -0.28413823 
5340 -0.28403202 
5341 -0.28385285 
5342 -0.28374395 
5343 -0.2836227 
5344 -0.2836592 
5345 -0.28382656 
5346 -0.28394458 
5347 -0.28411838 
5348 -0.28421012 
5349 -0.28413662 
5350 -0.28406474 
5351 -0.283973 
5352 -0.28384855 
5353 -0.28387967 
5354 -0.28403738 
5355 -0.28410766 
5356 -0.28411087 
5357 -0.28411087 
5358 -0.28406957 
5359 -0.28414628 
5360 -0.28428254 
5361 -0.2841672 
5362 -0.28389898 
5363 -0.28387913 
5364 -0.28385982 
5365 -0.28383783 
5366 -0.283855 
5367 -0.28367153 
5368 -0.28353795 
5369 -0.28369567 
5370 -0.28402933 
5371 -0.28419456 
5372 -0.28431526 
5373 -0.28420046 
5374 -0.28418383 
5375 -0.2842348 
5376 -0.28419992 
5377 -0.28418383 
5378 -0.28396657 
5379 -0.2838861 
5380 -0.28382227 
5381 -0.2838126 
5382 -0.28387108 
5383 -0.2838432 
5384 -0.28390864 
5385 -0.28397623 
5386 -0.2840465 
5387 -0.28400627 
5388 -0.28398535 
5389 -0.2839612 
5390 -0.28402933 
5391 -0.28399286 
5392 -0.28393975 
5393 -0.28397837 
5394 -0.28404543 
5395 -0.2841495 
5396 -0.2841876 
5397 -0.2841629 
5398 -0.28404596 
5399 -0.28407654 
5400 -0.28409585 
5401 -0.2840787 
5402 -0.2840288 
5403 -0.2838786 
5404 -0.283811 
5405 -0.2839612 
5406 -0.28397837 
5407 -0.2838507 
5408 -0.2837107 
5409 -0.28370908 
5410 -0.2837418 
5411 -0.2838389 
5412 -0.2839993 
5413 -0.28393438 
5414 -0.28387806 
5415 -0.28395316 
5416 -0.28397998 
5417 -0.28403577 
5418 -0.28410712 
5419 -0.2839848 
5420 -0.28391507 
5421 -0.2839714 
5422 -0.28402504 
5423 -0.28394458 
5424 -0.28396818 
5425 -0.2840363 
5426 -0.28405616 
5427 -0.28410444 
5428 -0.2840685 
5429 -0.28407654 
5430 -0.28402665 
5431 -0.28391615 
5432 -0.2839022 
5433 -0.28389898 
5434 -0.28399017 
5435 -0.28406796 
5436 -0.28415325 
5437 -0.28424713 
5438 -0.28425625 
5439 -0.28411624 
5440 -0.28398588 
5441 -0.28387484 
5442 -0.28376487 
5443 -0.2837595 
5444 -0.28376916 
5445 -0.28382763 
5446 -0.28394243 
5447 -0.28393546 
5448 -0.28386518 
5449 -0.2838491 
5450 -0.28377613 
5451 -0.28373322 
5452 -0.2838448 
5453 -0.2838904 
5454 -0.2839848 
5455 -0.2842262 
5456 -0.2840996 
5457 -0.28405723 
5458 -0.28406742 
5459 -0.2839183 
5460 -0.283774 
5461 -0.28366187 
5462 -0.28359804 
5463 -0.28363237 
5464 -0.2837622 
5465 -0.28386357 
5466 -0.2837611 
5467 -0.28379652 
5468 -0.28384104 
5469 -0.2839907 
5470 -0.28404543 
5471 -0.28412428 
5472 -0.2840567 
5473 -0.28399393 
5474 -0.28407922 
5475 -0.28416774 
5476 -0.28417632 
5477 -0.28406098 
5478 -0.28398642 
5479 -0.28391936 
5480 -0.28380135 
5481 -0.2836549 
5482 -0.28360823 
5483 -0.28355244 
5484 -0.28326008 
5485 -0.28352723 
5486 -0.28380188 
5487 -0.2837756 
5488 -0.28384426 
5489 -0.28384587 
5490 -0.2837461 
5491 -0.2836683 
5492 -0.28369352 
5493 -0.2838389 
5494 -0.28400734 
5495 -0.2840229 
5496 -0.28391293 
5497 -0.28387645 
5498 -0.2837359 
5499 -0.28360823 
5500 -0.28355566 
5501 -0.28367206 
5502 -0.28359643 
5503 -0.28348324 
5504 -0.28346875 
5505 -0.28357336 
5506 -0.28371337 
5507 -0.28384534 
5508 -0.28386894 
5509 -0.28380617 
5510 -0.28377184 
5511 -0.2838287 
5512 -0.28386787 
5513 -0.28389308 
5514 -0.28388503 
5515 -0.28389576 
5516 -0.28390488 
5517 -0.28393653 
5518 -0.28383246 
5519 -0.28385714 
5520 -0.28394243 
5521 -0.28387055 
5522 -0.2835991 
5523 -0.2835653 
5524 -0.28359053 
5525 -0.28360716 
5526 -0.28354225 
5527 -0.28352615 
5528 -0.28350255 
5529 -0.28359696 
5530 -0.28368494 
5531 -0.28383514 
5532 -0.28382012 
5533 -0.2837064 
5534 -0.28373966 
5535 -0.28393653 
5536 -0.28397837 
5537 -0.283752 
5538 -0.28361788 
5539 -0.28357443 
5540 -0.2834446 
5541 -0.28349665 
5542 -0.2835401 
5543 -0.28344086 
5544 -0.28344944 
5545 -0.28363773 
5546 -0.2837225 
5547 -0.28379545 
5548 -0.28386304 
5549 -0.28386572 
5550 -0.28381315 
5551 -0.28377184 
5552 -0.28379974 
5553 -0.28375736 
5554 -0.2836683 
5555 -0.28360555 
5556 -0.28354546 
5557 -0.2835519 
5558 -0.28346446 
5559 -0.2834135 
5560 -0.28348485 
5561 -0.28346124 
5562 -0.2835181 
5563 -0.28368333 
5564 -0.28387913 
5565 -0.28390595 
5566 -0.2837976 
5567 -0.2838153 
5568 -0.28385124 
5569 -0.2838137 
5570 -0.2838888 
5571 -0.28395423 
5572 -0.2839848 
5573 -0.28397247 
5574 -0.28389254 
5575 -0.2837949 
5576 -0.28382388 
5577 -0.28387913 
5578 -0.2837257 
5579 -0.2836742 
5580 -0.28351864 
5581 -0.28345212 
5582 -0.28336468 
5583 -0.28333303 
5584 -0.2835138 
5585 -0.28364953 
5586 -0.28366348 
5587 -0.28374556 
5588 -0.2838255 
5589 -0.28392527 
5590 -0.28383407 
5591 -0.28372946 
5592 -0.28377023 
5593 -0.28381905 
5594 -0.2837654 
5595 -0.28363612 
5596 -0.28360447 
5597 -0.28360018 
5598 -0.28351435 
5599 -0.2835814 
5600 -0.28360555 
5601 -0.28354493 
5602 -0.28351274 
5603 -0.28359267 
5604 -0.2836447 
5605 -0.28355297 
5606 -0.2835771 
5607 -0.28364417 
5608 -0.28366026 
5609 -0.28374502 
5610 -0.28382763 
5611 -0.28384373 
5612 -0.28383407 
5613 -0.28382012 
5614 -0.28379223 
5615 -0.2837756 
5616 -0.28378794 
5617 -0.28372303 
5618 -0.2836286 
5619 -0.28353474 
5620 -0.2834929 
5621 -0.28341243 
5622 -0.28343335 
5623 -0.2835224 
5624 -0.28351328 
5625 -0.28360018 
5626 -0.28370532 
5627 -0.28365812 
5628 -0.28358194 
5629 -0.28357872 
5630 -0.28353956 
5631 -0.28346178 
5632 -0.28346232 
5633 -0.28349933 
5634 -0.2835535 
5635 -0.28365222 
5636 -0.28362808 
5637 -0.28353956 
5638 -0.2835181 
5639 -0.28354815 
5640 -0.2835004 
5641 -0.2833679 
5642 -0.28317478 
5643 -0.28310183 
5644 -0.28314796 
5645 -0.2830439 
5646 -0.28315118 
5647 -0.28328207 
5648 -0.2833604 
5649 -0.28340062 
5650 -0.2835138 
5651 -0.28363076 
5652 -0.28365222 
5653 -0.28367314 
5654 -0.28370264 
5655 -0.28356907 
5656 -0.28350255 
5657 -0.28347412 
5658 -0.28336683 
5659 -0.2833427 
5660 -0.28332767 
5661 -0.28330192 
5662 -0.2832161 
5663 -0.28322306 
5664 -0.28317478 
5665 -0.2831619 
5666 -0.28318015 
5667 -0.28323862 
5668 -0.28325257 
5669 -0.2832794 
5670 -0.28334215 
5671 -0.28345266 
5672 -0.28343818 
5673 -0.283362 
5674 -0.28343228 
5675 -0.28361306 
5676 -0.28351972 
5677 -0.28345373 
5678 -0.283546 
5679 -0.28369942 
5680 -0.28363398 
5681 -0.28343228 
5682 -0.28324988 
5683 -0.28312328 
5684 -0.283038 
5685 -0.2830396 
5686 -0.28311256 
5687 -0.28326383 
5688 -0.28336576 
5689 -0.28342798 
5690 -0.28344515 
5691 -0.28341028 
5692 -0.2834092 
5693 -0.28341618 
5694 -0.2833679 
5695 -0.28338668 
5696 -0.28336737 
5697 -0.2833148 
5698 -0.2832193 
5699 -0.28309163 
5700 -0.2830573 
5701 -0.28317747 
5702 -0.283141 
5703 -0.2832177 
5704 -0.28329334 
5705 -0.28329977 
5706 -0.28337005 
5707 -0.28350738 
5708 -0.28345105 
5709 -0.28336576 
5710 -0.28329548 
5711 -0.28330353 
5712 -0.28340277 
5713 -0.28350738 
5714 -0.28366348 
5715 -0.2836297 
5716 -0.28358677 
5717 -0.2835079 
5718 -0.28343442 
5719 -0.2833164 
5720 -0.28324667 
5721 -0.28313616 
5722 -0.28302673 
5723 -0.2830262 
