# 3:1 
0 -0.2806106 
1 -0.28083375 
2 -0.28093514 
3 -0.28086916 
4 -0.28078654 
5 -0.28086057 
6 -0.2808713 
7 -0.28069803 
8 -0.28062132 
9 -0.28048292 
10 -0.28020772 
11 -0.28018466 
12 -0.28038582 
13 -0.28044108 
14 -0.2803 
15 -0.2801868 
16 -0.28035042 
17 -0.28053388 
18 -0.28066477 
19 -0.28074524 
20 -0.2808037 
21 -0.28067657 
22 -0.2807463 
23 -0.28075543 
24 -0.28073344 
25 -0.28102204 
26 -0.2811406 
27 -0.2808874 
28 -0.28089544 
29 -0.28099307 
30 -0.2808992 
31 -0.28078386 
32 -0.28080693 
33 -0.2808241 
34 -0.28060415 
35 -0.28040567 
36 -0.28047916 
37 -0.28056982 
38 -0.2805607 
39 -0.2805961 
40 -0.2806197 
41 -0.28059557 
42 -0.28042176 
43 -0.28028497 
44 -0.28037724 
45 -0.28060737 
46 -0.28080586 
47 -0.2810451 
48 -0.28094533 
49 -0.28059343 
50 -0.28040138 
51 -0.2806106 
52 -0.28097162 
53 -0.28081766 
54 -0.2806342 
55 -0.28067282 
56 -0.28065243 
57 -0.28050706 
58 -0.2803971 
59 -0.28049794 
60 -0.28056392 
61 -0.28042015 
62 -0.28031877 
63 -0.28046253 
64 -0.28064653 
65 -0.28067282 
66 -0.28067443 
67 -0.2806358 
68 -0.28060845 
69 -0.2805355 
70 -0.28041103 
71 -0.28035846 
72 -0.28048292 
73 -0.2806224 
74 -0.28074738 
75 -0.28078976 
76 -0.28074417 
77 -0.2806857 
78 -0.2806535 
79 -0.28056338 
80 -0.28051564 
81 -0.28065887 
82 -0.28066853 
83 -0.28051457 
84 -0.2803456 
85 -0.28047112 
86 -0.28069106 
87 -0.2806004 
88 -0.2805473 
89 -0.28060684 
90 -0.2806385 
91 -0.280764 
92 -0.28075436 
93 -0.2808611 
94 -0.28091636 
95 -0.28084984 
96 -0.28083053 
97 -0.28075597 
98 -0.2806374 
99 -0.28071842 
100 -0.28080747 
101 -0.28073558 
102 -0.28068998 
103 -0.28073397 
104 -0.28080156 
105 -0.28082302 
106 -0.2808257 
107 -0.28094265 
108 -0.2810698 
109 -0.28093514 
110 -0.28082785 
111 -0.2808375 
112 -0.28092602 
113 -0.28084287 
114 -0.28094372 
115 -0.28092173 
116 -0.280668 
117 -0.28049847 
118 -0.280396 
119 -0.28043303 
120 -0.28054193 
121 -0.2803869 
122 -0.28034398 
123 -0.2804781 
124 -0.28050116 
125 -0.28037187 
126 -0.28037885 
127 -0.2805843 
128 -0.2808257 
129 -0.28070876 
130 -0.28050652 
131 -0.28056607 
132 -0.28051993 
133 -0.2806503 
134 -0.2809539 
135 -0.28118137 
136 -0.28114918 
137 -0.28102902 
138 -0.28087613 
139 -0.28084877 
140 -0.28077474 
141 -0.28084287 
142 -0.2809244 
143 -0.28102097 
144 -0.28109983 
145 -0.2810891 
146 -0.28097484 
147 -0.28084716 
148 -0.28061488 
149 -0.28053334 
150 -0.28068516 
151 -0.28068623 
152 -0.28051457 
153 -0.2805253 
154 -0.28086433 
155 -0.28112933 
156 -0.28103706 
157 -0.28098235 
158 -0.28090402 
159 -0.28083214 
160 -0.28094533 
161 -0.28090885 
162 -0.28074363 
163 -0.2805929 
164 -0.2805253 
165 -0.28059772 
166 -0.2806653 
167 -0.28068408 
168 -0.2806991 
169 -0.28080693 
170 -0.2809936 
171 -0.28097162 
172 -0.28074256 
173 -0.2805666 
174 -0.28058538 
175 -0.28055963 
176 -0.28058055 
177 -0.28061864 
178 -0.28063688 
179 -0.28064868 
180 -0.28073397 
181 -0.28076616 
182 -0.28075972 
183 -0.28066906 
184 -0.28057948 
185 -0.28058645 
186 -0.28062668 
187 -0.28063473 
188 -0.28069052 
189 -0.2806857 
190 -0.2807034 
191 -0.28067872 
192 -0.28056285 
193 -0.2804357 
194 -0.28048024 
195 -0.28054944 
196 -0.2805312 
197 -0.2804738 
198 -0.28046575 
199 -0.28058967 
200 -0.28067496 
201 -0.28049043 
202 -0.2802002 
203 -0.28009883 
204 -0.28035524 
205 -0.2807565 
206 -0.28080425 
207 -0.280749 
208 -0.2808493 
209 -0.28099146 
210 -0.2809598 
211 -0.2809153 
212 -0.28100488 
213 -0.28106067 
214 -0.28098074 
215 -0.28097 
216 -0.28097162 
217 -0.28090456 
218 -0.28087398 
219 -0.2807978 
220 -0.28074363 
221 -0.2807077 
222 -0.28067657 
223 -0.2807404 
224 -0.28085092 
225 -0.28061113 
226 -0.28065673 
227 -0.28087237 
228 -0.2808241 
229 -0.28084716 
230 -0.2807785 
231 -0.2806562 
232 -0.28063795 
233 -0.28063634 
234 -0.28059396 
235 -0.28068247 
236 -0.28058967 
237 -0.2805752 
238 -0.28054246 
239 -0.28049526 
240 -0.2805253 
241 -0.28042713 
242 -0.2803295 
243 -0.28028604 
244 -0.28048775 
245 -0.2807313 
246 -0.28079352 
247 -0.280852 
248 -0.28095606 
249 -0.28098878 
250 -0.28086004 
251 -0.28078386 
252 -0.2808096 
253 -0.2807211 
254 -0.28063473 
255 -0.28055695 
256 -0.28050062 
257 -0.28050974 
258 -0.2805387 
259 -0.2805929 
260 -0.28064707 
261 -0.28071144 
262 -0.28073826 
263 -0.28073344 
264 -0.2807667 
265 -0.2807372 
266 -0.28069106 
267 -0.28072646 
268 -0.28072378 
269 -0.28062454 
270 -0.280587 
271 -0.28060362 
272 -0.28051725 
273 -0.28049847 
274 -0.28056017 
275 -0.28059074 
276 -0.28079405 
277 -0.28073183 
278 -0.28060308 
279 -0.28058162 
280 -0.2805784 
281 -0.28057894 
282 -0.28045073 
283 -0.28033003 
284 -0.28030106 
285 -0.2804459 
286 -0.28048667 
287 -0.28052798 
288 -0.28057036 
289 -0.28066853 
290 -0.28072056 
291 -0.28072485 
292 -0.28063473 
293 -0.28069267 
294 -0.28081766 
295 -0.28086326 
296 -0.28090724 
297 -0.28072593 
298 -0.28053924 
299 -0.28065833 
300 -0.28096947 
301 -0.28084394 
302 -0.28062883 
303 -0.28074417 
304 -0.28095928 
305 -0.2810907 
306 -0.28092602 
307 -0.28071573 
308 -0.2808402 
309 -0.28101024 
310 -0.28097108 
311 -0.2807726 
312 -0.2806578 
313 -0.2807313 
314 -0.2808493 
315 -0.280889 
316 -0.28085628 
317 -0.2808123 
318 -0.28084716 
319 -0.28088257 
320 -0.28089973 
321 -0.28082302 
322 -0.2807978 
323 -0.28086486 
324 -0.2808847 
325 -0.28084663 
326 -0.28076616 
327 -0.28072217 
328 -0.28065082 
329 -0.2807254 
330 -0.28078815 
331 -0.28073505 
332 -0.28068087 
333 -0.28084448 
334 -0.28082517 
335 -0.2808477 
336 -0.2808536 
337 -0.28088847 
338 -0.28092226 
339 -0.28085575 
340 -0.28069374 
341 -0.2807093 
342 -0.28087988 
343 -0.2810596 
344 -0.28118727 
345 -0.28103223 
346 -0.28097966 
347 -0.28088203 
348 -0.2807581 
349 -0.2807785 
350 -0.28083214 
351 -0.2808906 
352 -0.2809759 
353 -0.28086486 
354 -0.2808257 
355 -0.28081444 
356 -0.2807286 
357 -0.28067657 
358 -0.28075758 
359 -0.28084555 
360 -0.28072056 
361 -0.28067926 
362 -0.28076455 
363 -0.28070822 
364 -0.28066584 
365 -0.280727 
366 -0.28073987 
367 -0.28073022 
368 -0.28076938 
369 -0.28082624 
370 -0.2807726 
371 -0.2807506 
372 -0.28081873 
373 -0.28090617 
374 -0.28106442 
375 -0.28115508 
376 -0.28121892 
377 -0.28121623 
378 -0.2813219 
379 -0.28132674 
380 -0.28096357 
381 -0.28074363 
382 -0.28073022 
383 -0.28058913 
384 -0.28023937 
385 -0.28036007 
386 -0.28081122 
387 -0.28098556 
388 -0.28070554 
389 -0.28053978 
390 -0.2805178 
391 -0.28028712 
392 -0.28051725 
393 -0.28091154 
394 -0.28095713 
395 -0.2809818 
396 -0.28110036 
397 -0.28118244 
398 -0.28116634 
399 -0.2811996 
400 -0.2812597 
401 -0.28136966 
402 -0.28137234 
403 -0.2810966 
404 -0.2811835 
405 -0.2813439 
406 -0.28102633 
407 -0.28087828 
408 -0.2809609 
409 -0.280933 
410 -0.28087935 
411 -0.28086594 
412 -0.28078976 
413 -0.28099683 
414 -0.28119746 
415 -0.28124145 
416 -0.28131172 
417 -0.28116742 
418 -0.28090027 
419 -0.28085253 
420 -0.28072324 
421 -0.28045824 
422 -0.2806283 
423 -0.28080317 
424 -0.2807699 
425 -0.2806712 
426 -0.28080425 
427 -0.28087935 
428 -0.2808225 
429 -0.2808375 
430 -0.28085092 
431 -0.28066316 
432 -0.28050277 
433 -0.28045663 
434 -0.2806712 
435 -0.28071734 
436 -0.2806315 
437 -0.2807962 
438 -0.28102955 
439 -0.28104082 
440 -0.2811229 
441 -0.2811245 
442 -0.28102687 
443 -0.2809507 
444 -0.28106496 
445 -0.2813128 
446 -0.28120175 
447 -0.280764 
448 -0.28065833 
449 -0.28081498 
450 -0.28082785 
451 -0.2807581 
452 -0.28079566 
453 -0.28075865 
454 -0.28065404 
455 -0.28068087 
456 -0.28070447 
457 -0.280683 
458 -0.28078172 
459 -0.28072324 
460 -0.2806358 
461 -0.2804797 
462 -0.28033432 
463 -0.28048882 
464 -0.28044698 
465 -0.28030965 
466 -0.28035846 
467 -0.28048185 
468 -0.28048614 
469 -0.28059772 
470 -0.28049365 
471 -0.28025118 
472 -0.28037617 
473 -0.28066584 
474 -0.28073344 
475 -0.28104833 
476 -0.2812597 
477 -0.28116742 
478 -0.28109875 
479 -0.280992 
480 -0.28102633 
481 -0.28108856 
482 -0.28107193 
483 -0.28087613 
484 -0.2805709 
485 -0.2805961 
486 -0.2805135 
487 -0.28038207 
488 -0.28045663 
489 -0.28060523 
490 -0.28067175 
491 -0.28056392 
492 -0.28030482 
493 -0.28021845 
494 -0.28051135 
495 -0.28069428 
496 -0.2807903 
497 -0.28078118 
498 -0.28080317 
499 -0.28078064 
500 -0.28066155 
501 -0.28054675 
502 -0.28067443 
503 -0.28085575 
504 -0.28085682 
505 -0.28083536 
506 -0.28081605 
507 -0.28086808 
508 -0.28084877 
509 -0.28073183 
510 -0.28060952 
511 -0.28051296 
512 -0.28048828 
513 -0.28050062 
514 -0.2805827 
515 -0.28076348 
516 -0.28085896 
517 -0.2808933 
518 -0.28109124 
519 -0.28119585 
520 -0.28109607 
521 -0.2808906 
522 -0.2808847 
523 -0.2809727 
524 -0.28088954 
525 -0.28078493 
526 -0.28078172 
527 -0.2807887 
528 -0.28085735 
529 -0.2808906 
530 -0.28087988 
531 -0.28080747 
532 -0.28070715 
533 -0.28070554 
534 -0.28075328 
535 -0.2808332 
536 -0.2809448 
537 -0.28100702 
538 -0.2811068 
539 -0.28120604 
540 -0.2811744 
541 -0.28108373 
542 -0.28084233 
543 -0.28067765 
544 -0.28059503 
545 -0.28047326 
546 -0.28020182 
547 -0.28004196 
548 -0.28012136 
549 -0.28028765 
550 -0.2805489 
551 -0.28080156 
552 -0.2808815 
553 -0.2808965 
554 -0.2809303 
555 -0.2809684 
556 -0.28106335 
557 -0.28111216 
558 -0.28098395 
559 -0.2807077 
560 -0.28050599 
561 -0.28078386 
562 -0.28117976 
563 -0.28119424 
564 -0.28110573 
565 -0.2812334 
566 -0.28128543 
567 -0.2813981 
568 -0.2815499 
569 -0.2816191 
570 -0.28147212 
571 -0.2813337 
572 -0.2813482 
573 -0.28110948 
574 -0.28095284 
575 -0.28095123 
576 -0.28081766 
577 -0.28083912 
578 -0.28105906 
579 -0.28116152 
580 -0.28105208 
581 -0.28086218 
582 -0.28073987 
583 -0.28100488 
584 -0.28103277 
585 -0.28094426 
586 -0.28093675 
587 -0.2807329 
588 -0.28067228 
589 -0.28073987 
590 -0.2808579 
591 -0.28079513 
592 -0.28069803 
593 -0.28060576 
594 -0.28047916 
595 -0.28050706 
596 -0.28046682 
597 -0.28045395 
598 -0.28047326 
599 -0.28052905 
600 -0.28062776 
601 -0.28059986 
602 -0.28040674 
603 -0.28032145 
604 -0.28050384 
605 -0.28064546 
606 -0.28069106 
607 -0.2807313 
608 -0.28075436 
609 -0.28058484 
610 -0.28054246 
611 -0.28059182 
612 -0.2805226 
613 -0.2804164 
614 -0.2803606 
615 -0.28038046 
616 -0.2806138 
617 -0.28083804 
618 -0.28069428 
619 -0.2805194 
620 -0.2804679 
621 -0.2803869 
622 -0.28034022 
623 -0.28032145 
624 -0.2803354 
625 -0.280396 
626 -0.28054515 
627 -0.28048775 
628 -0.28028926 
629 -0.2802045 
630 -0.28019807 
631 -0.28031608 
632 -0.280315 
633 -0.28030053 
634 -0.28032735 
635 -0.28025654 
636 -0.2803134 
637 -0.280396 
638 -0.28037348 
639 -0.28037992 
640 -0.2804003 
641 -0.28019914 
642 -0.28023884 
643 -0.2803515 
644 -0.28046092 
645 -0.28042123 
646 -0.28031877 
647 -0.2802088 
648 -0.28013584 
649 -0.28015247 
650 -0.28029945 
651 -0.28030804 
652 -0.28023937 
653 -0.28042606 
654 -0.28054354 
655 -0.28040192 
656 -0.28021094 
657 -0.28023025 
658 -0.2803869 
659 -0.28043142 
660 -0.28052798 
661 -0.28052476 
662 -0.2804416 
663 -0.28023723 
664 -0.2799985 
665 -0.28002802 
666 -0.28019807 
667 -0.28027156 
668 -0.2800264 
669 -0.27986494 
670 -0.2800103 
671 -0.28001192 
672 -0.27999476 
673 -0.2800822 
674 -0.28023884 
675 -0.28030536 
676 -0.2803665 
677 -0.28034613 
678 -0.28036383 
679 -0.28049526 
680 -0.28052583 
681 -0.2804416 
682 -0.28049257 
683 -0.28040352 
684 -0.28010848 
685 -0.28006074 
686 -0.2803279 
687 -0.28056285 
688 -0.28049794 
689 -0.2802308 
690 -0.28010955 
691 -0.28029302 
692 -0.28039494 
693 -0.28026512 
694 -0.28040192 
695 -0.28058967 
696 -0.2806004 
697 -0.28066155 
698 -0.280587 
699 -0.280587 
700 -0.28065082 
701 -0.28069803 
702 -0.2806299 
703 -0.28053173 
704 -0.28047702 
705 -0.28044966 
706 -0.28051564 
707 -0.28057358 
708 -0.2805548 
709 -0.28048077 
710 -0.28049955 
711 -0.280602 
712 -0.2806948 
713 -0.28065673 
714 -0.28058645 
715 -0.28067604 
716 -0.28069642 
717 -0.28070876 
718 -0.28081122 
719 -0.28084287 
720 -0.28079566 
721 -0.2807093 
722 -0.28068194 
723 -0.2805929 
724 -0.28045556 
725 -0.28042552 
726 -0.28043088 
727 -0.28036705 
728 -0.28026888 
729 -0.28017876 
730 -0.2802501 
731 -0.28037027 
732 -0.28044322 
733 -0.28058967 
734 -0.28072324 
735 -0.2806873 
736 -0.2806181 
737 -0.28048882 
738 -0.28042552 
739 -0.2804636 
740 -0.2805811 
741 -0.28067657 
742 -0.2804872 
743 -0.2804121 
744 -0.28038046 
745 -0.28024957 
746 -0.280403 
747 -0.28048077 
748 -0.28064546 
749 -0.28055963 
750 -0.2804148 
751 -0.28058484 
752 -0.28083053 
753 -0.28089383 
754 -0.2808965 
755 -0.28097537 
756 -0.28083965 
757 -0.28077957 
758 -0.280764 
759 -0.2808225 
760 -0.28071412 
761 -0.2805961 
762 -0.28053227 
763 -0.28052637 
764 -0.2806299 
765 -0.2807447 
766 -0.28072163 
767 -0.28063366 
768 -0.2805505 
769 -0.28047487 
770 -0.28049043 
771 -0.2807254 
772 -0.2808493 
773 -0.2808493 
774 -0.28092977 
775 -0.28102043 
776 -0.280955 
777 -0.28082892 
778 -0.28065833 
779 -0.280602 
780 -0.28058 
781 -0.28037778 
782 -0.28040728 
783 -0.2805178 
784 -0.28039387 
785 -0.28058913 
786 -0.28075704 
787 -0.28072646 
788 -0.28087077 
789 -0.2807946 
790 -0.28073344 
791 -0.28091422 
792 -0.2810537 
793 -0.28098342 
794 -0.28100327 
795 -0.28094748 
796 -0.28087023 
797 -0.280808 
798 -0.2807742 
799 -0.2807018 
800 -0.280683 
801 -0.28069803 
802 -0.28065726 
803 -0.2806594 
804 -0.2807608 
805 -0.28076884 
806 -0.28077957 
807 -0.28076026 
808 -0.28069106 
809 -0.2807742 
810 -0.28087988 
811 -0.28075597 
812 -0.2807018 
813 -0.28081176 
814 -0.28089598 
815 -0.28095284 
816 -0.28089276 
817 -0.28079996 
818 -0.280705 
819 -0.28069642 
820 -0.2807962 
821 -0.2809936 
822 -0.28123984 
823 -0.2813246 
824 -0.28114274 
825 -0.28116956 
826 -0.28116527 
827 -0.28112075 
828 -0.2810655 
829 -0.28087023 
830 -0.28067818 
831 -0.28075704 
832 -0.2804416 
833 -0.28054944 
834 -0.2809566 
835 -0.2810199 
836 -0.2810848 
837 -0.2811524 
838 -0.28111538 
839 -0.2809759 
840 -0.28078386 
841 -0.28077206 
842 -0.28074202 
843 -0.28073505 
844 -0.28084877 
845 -0.28110948 
846 -0.281382 
847 -0.28154615 
848 -0.28160998 
849 -0.2813793 
850 -0.28125218 
851 -0.28112343 
852 -0.28097537 
853 -0.280771 
854 -0.28060523 
855 -0.28068462 
856 -0.2808815 
857 -0.2809421 
858 -0.28087667 
859 -0.28084287 
860 -0.2809008 
861 -0.28099415 
862 -0.2811111 
863 -0.2811819 
864 -0.2812259 
865 -0.2813541 
866 -0.28133103 
867 -0.28138843 
868 -0.28139648 
869 -0.28136107 
870 -0.28145656 
871 -0.28154668 
872 -0.28159872 
873 -0.28165236 
874 -0.28167543 
875 -0.28171512 
876 -0.28165182 
877 -0.28171352 
878 -0.2816132 
879 -0.2814308 
880 -0.28142062 
881 -0.28128275 
882 -0.2811717 
883 -0.2811701 
884 -0.28111914 
885 -0.2812275 
886 -0.28145173 
887 -0.28154668 
888 -0.2815 
889 -0.2813793 
890 -0.2813498 
891 -0.28137448 
892 -0.2813659 
893 -0.28142223 
894 -0.28138575 
895 -0.28139594 
896 -0.28142706 
897 -0.28152683 
898 -0.2815365 
899 -0.28149733 
900 -0.2814791 
901 -0.2815102 
902 -0.28148714 
903 -0.2813187 
904 -0.28142545 
905 -0.28173175 
906 -0.2816647 
907 -0.28142115 
908 -0.28130582 
909 -0.28127578 
910 -0.28125164 
911 -0.28111646 
912 -0.2812216 
913 -0.2814437 
914 -0.28158048 
915 -0.28165665 
916 -0.28166255 
917 -0.28164378 
918 -0.28160676 
919 -0.2815601 
920 -0.28159228 
921 -0.28147963 
922 -0.28142598 
923 -0.28141955 
924 -0.28123072 
925 -0.28117654 
926 -0.2812629 
927 -0.2814056 
928 -0.28158048 
929 -0.2817414 
930 -0.28183797 
931 -0.28183958 
932 -0.28175053 
933 -0.2816749 
934 -0.2816293 
935 -0.2814968 
936 -0.28133318 
937 -0.28135356 
938 -0.28133962 
939 -0.2814131 
940 -0.28144476 
941 -0.28141472 
942 -0.2813187 
943 -0.28123072 
944 -0.28130904 
945 -0.28140238 
946 -0.28139165 
947 -0.28129402 
948 -0.2812747 
949 -0.28128007 
950 -0.2812704 
951 -0.28150913 
952 -0.2817693 
953 -0.28187284 
954 -0.28174302 
955 -0.28163037 
956 -0.28157833 
957 -0.28151664 
958 -0.28151235 
959 -0.28156492 
960 -0.28153113 
961 -0.28150806 
962 -0.2814394 
963 -0.28153595 
964 -0.28164646 
965 -0.28176716 
966 -0.28172907 
967 -0.2817414 
968 -0.28161857 
969 -0.2813836 
970 -0.2814115 
971 -0.28148338 
972 -0.28156063 
973 -0.2817441 
974 -0.2820091 
975 -0.2819989 
976 -0.28193614 
977 -0.281809 
978 -0.28160462 
979 -0.28155634 
980 -0.28154132 
981 -0.2815778 
982 -0.28156063 
983 -0.28147963 
984 -0.28145334 
985 -0.2814689 
986 -0.28148606 
987 -0.28144047 
988 -0.28138253 
989 -0.28137985 
990 -0.28141418 
991 -0.2813718 
992 -0.2813643 
993 -0.2816411 
994 -0.2819372 
995 -0.28203645 
996 -0.28207615 
997 -0.28190127 
998 -0.28156438 
999 -0.28146407 
1000 -0.28157887 
1001 -0.2817634 
1002 -0.2818884 
1003 -0.28168562 
1004 -0.28138253 
1005 -0.28131655 
1006 -0.28139648 
1007 -0.28153005 
1008 -0.28167436 
1009 -0.28175858 
1010 -0.2818471 
1011 -0.28192702 
1012 -0.28203967 
1013 -0.28205523 
1014 -0.2821121 
1015 -0.28208956 
1016 -0.28205684 
1017 -0.28202626 
1018 -0.2818766 
1019 -0.28169206 
1020 -0.2816384 
1021 -0.28157672 
1022 -0.28156278 
1023 -0.28161374 
1024 -0.28183743 
1025 -0.28185138 
1026 -0.2816513 
1027 -0.28171995 
1028 -0.28182992 
1029 -0.28181008 
1030 -0.28178594 
1031 -0.2818739 
1032 -0.28183314 
1033 -0.28167972 
1034 -0.28159818 
1035 -0.28145978 
1036 -0.28122 
1037 -0.28111002 
1038 -0.28117117 
1039 -0.28129455 
1040 -0.2812318 
1041 -0.2812908 
1042 -0.281382 
1043 -0.28137395 
1044 -0.28147426 
1045 -0.28155366 
1046 -0.2815762 
1047 -0.2815381 
1048 -0.28177735 
1049 -0.28177628 
1050 -0.28187767 
1051 -0.28207186 
1052 -0.28215286 
1053 -0.28204343 
1054 -0.28188625 
1055 -0.28208634 
1056 -0.28225264 
1057 -0.28217754 
1058 -0.28198442 
1059 -0.28164002 
1060 -0.28140077 
1061 -0.28145066 
1062 -0.281588 
1063 -0.28159067 
1064 -0.2815617 
1065 -0.28171888 
1066 -0.28192487 
1067 -0.28173068 
1068 -0.28161266 
1069 -0.28154185 
1070 -0.28159657 
1071 -0.28161696 
1072 -0.2816513 
1073 -0.28174785 
1074 -0.28169528 
1075 -0.2816293 
1076 -0.28162125 
1077 -0.28161642 
1078 -0.28160784 
1079 -0.28165075 
1080 -0.28168777 
1081 -0.28166738 
1082 -0.2815751 
1083 -0.28143457 
1084 -0.28128758 
1085 -0.28134552 
1086 -0.28141043 
1087 -0.28133157 
1088 -0.28140345 
1089 -0.28151557 
1090 -0.28151503 
1091 -0.2814426 
1092 -0.28144315 
1093 -0.28156546 
1094 -0.28159818 
1095 -0.28149894 
1096 -0.28145012 
1097 -0.28144637 
1098 -0.28147212 
1099 -0.2815118 
1100 -0.28160247 
1101 -0.28176394 
1102 -0.2819136 
1103 -0.28200963 
1104 -0.281912 
1105 -0.28187338 
1106 -0.28185353 
1107 -0.2818208 
1108 -0.28168508 
1109 -0.28159443 
1110 -0.28152683 
1111 -0.2815794 
1112 -0.2816191 
1113 -0.28161803 
1114 -0.28163573 
1115 -0.28167543 
1116 -0.2815633 
1117 -0.28140935 
1118 -0.28124252 
1119 -0.2813219 
1120 -0.28147212 
1121 -0.28143564 
1122 -0.281397 
1123 -0.28133693 
1124 -0.28143778 
1125 -0.28146031 
1126 -0.28130797 
1127 -0.28136697 
1128 -0.28152898 
1129 -0.2817146 
1130 -0.28187016 
1131 -0.28190556 
1132 -0.2818149 
1133 -0.28181115 
1134 -0.28177252 
1135 -0.28180417 
1136 -0.28171834 
1137 -0.2816191 
1138 -0.28146783 
1139 -0.281441 
1140 -0.281625 
1141 -0.28159067 
1142 -0.28153595 
1143 -0.28159818 
1144 -0.28178164 
1145 -0.28171673 
1146 -0.281647 
1147 -0.2817618 
1148 -0.2818165 
1149 -0.28178433 
1150 -0.28169367 
1151 -0.2817779 
1152 -0.28181437 
1153 -0.28178218 
1154 -0.28169045 
1155 -0.28175643 
1156 -0.2819195 
1157 -0.28179988 
1158 -0.28159013 
1159 -0.2815542 
1160 -0.281603 
1161 -0.28159228 
1162 -0.2814528 
1163 -0.2814823 
1164 -0.28165826 
1165 -0.28177413 
1166 -0.28176716 
1167 -0.28165826 
1168 -0.28158316 
1169 -0.28161374 
1170 -0.2816969 
1171 -0.2818739 
1172 -0.28196028 
1173 -0.2819549 
1174 -0.28191414 
1175 -0.28182617 
1176 -0.28172532 
1177 -0.2815617 
1178 -0.28142008 
1179 -0.28136483 
1180 -0.28125915 
1181 -0.28115723 
1182 -0.28126666 
1183 -0.2815499 
1184 -0.28169152 
1185 -0.28173497 
1186 -0.28174087 
1187 -0.28164002 
1188 -0.2815955 
1189 -0.2818031 
1190 -0.28182885 
1191 -0.2817339 
1192 -0.2816899 
1193 -0.28169742 
1194 -0.28157243 
1195 -0.28157994 
1196 -0.28155848 
1197 -0.28147748 
1198 -0.28154936 
1199 -0.28150162 
1200 -0.28147212 
1201 -0.281419 
1202 -0.28150913 
1203 -0.28165022 
1204 -0.28158852 
1205 -0.2815279 
1206 -0.28142276 
1207 -0.28137824 
1208 -0.2813525 
1209 -0.2813187 
1210 -0.2813911 
1211 -0.28161374 
1212 -0.28173712 
1213 -0.28174248 
1214 -0.28166255 
1215 -0.28172264 
1216 -0.28181168 
1217 -0.28156278 
1218 -0.28129455 
1219 -0.2812409 
1220 -0.2811524 
1221 -0.28131977 
1222 -0.281338 
1223 -0.28128543 
1224 -0.2813836 
1225 -0.28149197 
1226 -0.2815102 
1227 -0.28149143 
1228 -0.28147748 
1229 -0.28147265 
1230 -0.281544 
1231 -0.28169796 
1232 -0.28173068 
1233 -0.28174838 
1234 -0.28169957 
1235 -0.28174034 
1236 -0.28178164 
1237 -0.2817602 
1238 -0.28158584 
1239 -0.2815059 
1240 -0.28142223 
1241 -0.28132406 
1242 -0.28134498 
1243 -0.2813718 
1244 -0.28127685 
1245 -0.2813643 
1246 -0.28141794 
1247 -0.2813337 
1248 -0.28136536 
1249 -0.2814233 
1250 -0.28143725 
1251 -0.2815118 
1252 -0.28154293 
1253 -0.28154293 
1254 -0.28159496 
1255 -0.28160354 
1256 -0.28158048 
1257 -0.28154668 
1258 -0.2814013 
1259 -0.28142008 
1260 -0.2814705 
1261 -0.28138092 
1262 -0.28123447 
1263 -0.28126237 
1264 -0.2812409 
1265 -0.28102258 
1266 -0.28119156 
1267 -0.28152522 
1268 -0.2814453 
1269 -0.28135946 
1270 -0.28158692 
1271 -0.2815424 
1272 -0.281323 
1273 -0.28162608 
1274 -0.2815161 
1275 -0.28150323 
1276 -0.2814748 
1277 -0.28147426 
1278 -0.28149036 
1279 -0.28145656 
1280 -0.2813793 
1281 -0.28138307 
1282 -0.2813981 
1283 -0.28143564 
1284 -0.28143403 
1285 -0.28149304 
1286 -0.28137127 
1287 -0.28129938 
1288 -0.28137395 
1289 -0.28134605 
1290 -0.28145012 
1291 -0.2813407 
1292 -0.28152576 
1293 -0.28161374 
1294 -0.28159228 
1295 -0.28156707 
1296 -0.2814909 
1297 -0.28139433 
1298 -0.28119853 
1299 -0.2811465 
1300 -0.28129724 
1301 -0.28115615 
1302 -0.28107032 
1303 -0.28109393 
1304 -0.28118244 
1305 -0.28128168 
1306 -0.28122053 
1307 -0.28121892 
1308 -0.2812082 
1309 -0.28120765 
1310 -0.28129402 
1311 -0.28149197 
1312 -0.28167543 
1313 -0.28178647 
1314 -0.28172854 
1315 -0.2816486 
1316 -0.28158262 
1317 -0.28147694 
1318 -0.28142384 
1319 -0.2813793 
1320 -0.28129187 
1321 -0.2811508 
1322 -0.28095123 
1323 -0.28102633 
1324 -0.28119478 
1325 -0.28127953 
1326 -0.28148016 
1327 -0.281463 
1328 -0.28147587 
1329 -0.28140077 
1330 -0.2813938 
1331 -0.28137717 
1332 -0.28132513 
1333 -0.281139 
1334 -0.28121033 
1335 -0.28123876 
1336 -0.2811819 
1337 -0.2811717 
1338 -0.28116474 
1339 -0.28117225 
1340 -0.28124413 
1341 -0.28117707 
1342 -0.28116474 
1343 -0.28124896 
1344 -0.28117386 
1345 -0.28129938 
1346 -0.28141686 
1347 -0.28135088 
1348 -0.28116634 
1349 -0.28107783 
1350 -0.28114757 
1351 -0.28127417 
1352 -0.28132728 
1353 -0.2813895 
1354 -0.2813852 
1355 -0.2813498 
1356 -0.28137127 
1357 -0.28136966 
1358 -0.2813643 
1359 -0.28139594 
1360 -0.2813879 
1361 -0.28137395 
1362 -0.28140882 
1363 -0.28144208 
1364 -0.28151235 
1365 -0.2815 
1366 -0.28154722 
1367 -0.28149036 
1368 -0.2814276 
1369 -0.2814335 
1370 -0.28131655 
1371 -0.2810537 
1372 -0.28099254 
1373 -0.28095016 
1374 -0.2809786 
1375 -0.2811229 
1376 -0.2812629 
1377 -0.28122804 
1378 -0.28116366 
1379 -0.2811202 
1380 -0.28108534 
1381 -0.28099522 
1382 -0.28089437 
1383 -0.28088042 
1384 -0.28086808 
1385 -0.28101346 
1386 -0.28131923 
1387 -0.28140882 
1388 -0.2815188 
1389 -0.28152308 
1390 -0.28150806 
1391 -0.28163573 
1392 -0.2816781 
1393 -0.28167543 
1394 -0.28159603 
1395 -0.28146622 
1396 -0.2814292 
1397 -0.28131226 
1398 -0.28108802 
1399 -0.28097644 
1400 -0.2809244 
1401 -0.28081444 
1402 -0.2806417 
1403 -0.28071842 
1404 -0.28104296 
1405 -0.28117332 
1406 -0.28121677 
1407 -0.2812613 
1408 -0.2812892 
1409 -0.28128812 
1410 -0.2811422 
1411 -0.28105745 
1412 -0.28109607 
1413 -0.2813407 
1414 -0.2815043 
1415 -0.2815365 
1416 -0.28151664 
1417 -0.28156546 
1418 -0.28156868 
1419 -0.2814882 
1420 -0.2812967 
1421 -0.281095 
1422 -0.28109983 
1423 -0.28125593 
1424 -0.28124627 
1425 -0.2811009 
1426 -0.2810097 
1427 -0.28107086 
1428 -0.281051 
1429 -0.28084233 
1430 -0.280992 
1431 -0.281198 
1432 -0.2814367 
1433 -0.2814909 
1434 -0.28123447 
1435 -0.281014 
1436 -0.28114328 
1437 -0.28120068 
1438 -0.28121892 
1439 -0.28118458 
1440 -0.2811288 
1441 -0.28116795 
1442 -0.28123608 
1443 -0.28149894 
1444 -0.28160247 
1445 -0.2816116 
1446 -0.2815601 
1447 -0.28162768 
1448 -0.2814866 
1449 -0.28112182 
1450 -0.28107998 
1451 -0.2813423 
1452 -0.28144583 
1453 -0.28147855 
1454 -0.28125164 
1455 -0.28120068 
1456 -0.28130582 
1457 -0.28123447 
1458 -0.281198 
1459 -0.28124467 
1460 -0.2812436 
1461 -0.28125432 
1462 -0.28117117 
1463 -0.28106067 
1464 -0.28114274 
1465 -0.2811953 
1466 -0.28122267 
1467 -0.28130153 
1468 -0.2815499 
1469 -0.28171834 
1470 -0.28141525 
1471 -0.28130046 
1472 -0.28139648 
1473 -0.28137878 
1474 -0.28137985 
1475 -0.28124413 
1476 -0.28111646 
1477 -0.2811642 
1478 -0.28110465 
1479 -0.28089383 
1480 -0.2807136 
1481 -0.28075758 
1482 -0.28079835 
1483 -0.28093138 
1484 -0.2810156 
1485 -0.28111646 
1486 -0.2811363 
1487 -0.2811862 
1488 -0.28115776 
1489 -0.28128168 
1490 -0.2815 
1491 -0.28146246 
1492 -0.28140184 
1493 -0.28140184 
1494 -0.28162232 
1495 -0.2816513 
1496 -0.28157404 
1497 -0.2813364 
1498 -0.28096893 
1499 -0.2809491 
1500 -0.2810655 
1501 -0.2811996 
1502 -0.2810687 
1503 -0.28089437 
1504 -0.28113577 
1505 -0.28117815 
1506 -0.28130904 
1507 -0.28146783 
1508 -0.28136858 
1509 -0.28131172 
1510 -0.28139165 
1511 -0.28146622 
1512 -0.28145924 
1513 -0.2815424 
1514 -0.28170654 
1515 -0.2817602 
1516 -0.2816722 
1517 -0.28166094 
1518 -0.28170547 
1519 -0.28159496 
1520 -0.28148767 
1521 -0.2810376 
1522 -0.28089222 
1523 -0.28108695 
1524 -0.28105476 
1525 -0.28119746 
1526 -0.28115508 
1527 -0.28122374 
1528 -0.28121194 
1529 -0.28123394 
1530 -0.2813187 
1531 -0.28118834 
1532 -0.28102311 
1533 -0.2808611 
1534 -0.28095284 
1535 -0.28102204 
1536 -0.28079942 
1537 -0.28080478 
1538 -0.28105637 
1539 -0.28117386 
1540 -0.28136107 
1541 -0.28136 
1542 -0.2810317 
1543 -0.28099576 
1544 -0.28102902 
1545 -0.28081712 
1546 -0.28080103 
1547 -0.2811229 
1548 -0.28123555 
1549 -0.28130153 
1550 -0.28142706 
1551 -0.28128436 
1552 -0.28119263 
1553 -0.28103384 
1554 -0.2810966 
1555 -0.2809228 
1556 -0.28087935 
1557 -0.28091422 
1558 -0.28096464 
1559 -0.28122965 
1560 -0.28139862 
1561 -0.2811937 
1562 -0.28114167 
1563 -0.28122804 
1564 -0.2811701 
1565 -0.281139 
1566 -0.28114864 
1567 -0.2810757 
1568 -0.28100702 
1569 -0.28094319 
1570 -0.2809641 
1571 -0.28095123 
1572 -0.2808713 
1573 -0.28083858 
1574 -0.28081873 
1575 -0.280911 
1576 -0.28084555 
1577 -0.28089598 
1578 -0.28085628 
1579 -0.2808654 
1580 -0.28081712 
1581 -0.2807329 
1582 -0.28074685 
1583 -0.2810816 
1584 -0.2813144 
1585 -0.28136644 
1586 -0.2810655 
1587 -0.28092656 
1588 -0.2810022 
1589 -0.28109124 
1590 -0.28113094 
1591 -0.2812672 
1592 -0.2811835 
1593 -0.28113148 
1594 -0.2810435 
1595 -0.28111914 
1596 -0.28122106 
1597 -0.2813101 
1598 -0.2811996 
1599 -0.2810993 
1600 -0.28116366 
1601 -0.28113523 
1602 -0.28108695 
1603 -0.28110573 
1604 -0.2810081 
1605 -0.28081122 
1606 -0.28086594 
1607 -0.2808847 
1608 -0.28078386 
1609 -0.28090617 
1610 -0.28092763 
1611 -0.28116044 
1612 -0.28135088 
1613 -0.28123233 
1614 -0.2812951 
1615 -0.28116634 
1616 -0.28108695 
1617 -0.2810333 
1618 -0.28096625 
1619 -0.28061542 
1620 -0.2806637 
1621 -0.28080425 
1622 -0.2807034 
1623 -0.2807329 
1624 -0.28067496 
1625 -0.28069857 
1626 -0.28064814 
1627 -0.280624 
1628 -0.28077045 
1629 -0.28090563 
1630 -0.2808579 
1631 -0.28081283 
1632 -0.2810773 
1633 -0.28121033 
1634 -0.281073 
1635 -0.2809126 
1636 -0.2808182 
1637 -0.28083214 
1638 -0.28076938 
1639 -0.28098932 
1640 -0.28105316 
1641 -0.28112718 
1642 -0.28097537 
1643 -0.28101024 
1644 -0.2812613 
1645 -0.2810451 
1646 -0.28080264 
1647 -0.28073022 
1648 -0.28071305 
1649 -0.28080103 
1650 -0.28093997 
1651 -0.28093782 
1652 -0.28086272 
1653 -0.28097215 
1654 -0.2810172 
1655 -0.28090993 
1656 -0.28091958 
1657 -0.28096196 
1658 -0.28078654 
1659 -0.28069857 
1660 -0.2807828 
1661 -0.28079727 
1662 -0.2808037 
1663 -0.2809523 
1664 -0.2811819 
1665 -0.28119907 
1666 -0.2810392 
1667 -0.28082678 
1668 -0.28078762 
1669 -0.2808257 
1670 -0.2808123 
1671 -0.2807447 
1672 -0.28084823 
1673 -0.2809786 
1674 -0.28088632 
1675 -0.2808359 
1676 -0.28081605 
1677 -0.28070447 
1678 -0.28055373 
1679 -0.28063205 
1680 -0.28084287 
1681 -0.2810875 
1682 -0.2810891 
1683 -0.28102848 
1684 -0.28096518 
1685 -0.28081498 
1686 -0.28090778 
1687 -0.2808933 
1688 -0.28085467 
1689 -0.28085735 
1690 -0.28084984 
1691 -0.2807785 
1692 -0.2807018 
1693 -0.2806975 
1694 -0.28067765 
1695 -0.28051832 
1696 -0.28065673 
1697 -0.2805859 
1698 -0.28048614 
1699 -0.28042766 
1700 -0.28053012 
1701 -0.28073987 
1702 -0.2806476 
1703 -0.28072378 
1704 -0.28080264 
1705 -0.28083643 
1706 -0.2808815 
1707 -0.2809051 
1708 -0.28099146 
1709 -0.2809743 
1710 -0.28097 
1711 -0.28109822 
1712 -0.28106818 
1713 -0.2810419 
1714 -0.2810097 
1715 -0.2810714 
1716 -0.28109607 
1717 -0.28093567 
1718 -0.28078547 
1719 -0.280852 
1720 -0.2806535 
1721 -0.2803842 
1722 -0.28041962 
1723 -0.2803295 
1724 -0.28057733 
1725 -0.28099683 
1726 -0.2808992 
1727 -0.28058806 
1728 -0.2805049 
1729 -0.28061327 
1730 -0.28074256 
1731 -0.28082946 
1732 -0.28081176 
1733 -0.28093246 
1734 -0.28112987 
1735 -0.28113362 
1736 -0.28105047 
1737 -0.28086057 
1738 -0.28105316 
1739 -0.28122374 
1740 -0.2809405 
1741 -0.28077474 
1742 -0.2807077 
1743 -0.28069106 
1744 -0.28078493 
1745 -0.28079352 
1746 -0.28068462 
1747 -0.2806256 
1748 -0.28060147 
1749 -0.28068355 
1750 -0.28080747 
1751 -0.28086004 
1752 -0.28077367 
1753 -0.28072914 
1754 -0.28080907 
1755 -0.28069803 
1756 -0.28065136 
1757 -0.28066048 
1758 -0.2807608 
1759 -0.2806283 
1760 -0.28071305 
1761 -0.28070715 
1762 -0.28055856 
1763 -0.28056446 
1764 -0.2807404 
1765 -0.280852 
1766 -0.280808 
1767 -0.28068838 
1768 -0.28059343 
1769 -0.2807034 
1770 -0.280764 
1771 -0.28066048 
1772 -0.2807978 
1773 -0.28090778 
1774 -0.28093246 
1775 -0.2807828 
1776 -0.2807919 
1777 -0.28085092 
1778 -0.28079513 
1779 -0.28063527 
1780 -0.2805296 
1781 -0.28064546 
1782 -0.2806653 
1783 -0.28068998 
1784 -0.2806959 
1785 -0.280683 
1786 -0.28068462 
1787 -0.280624 
1788 -0.2804931 
1789 -0.280462 
1790 -0.2805446 
1791 -0.28057465 
1792 -0.28060684 
1793 -0.2807077 
1794 -0.28064063 
1795 -0.28061274 
1796 -0.28057894 
1797 -0.28063795 
1798 -0.280587 
1799 -0.28047916 
1800 -0.28040245 
1801 -0.2804239 
1802 -0.28046092 
1803 -0.2803885 
1804 -0.28057733 
1805 -0.28072485 
1806 -0.2808182 
1807 -0.2806326 
1808 -0.28055695 
1809 -0.28052422 
1810 -0.28053656 
1811 -0.2806385 
1812 -0.28074202 
1813 -0.28078923 
1814 -0.28067067 
1815 -0.28068998 
1816 -0.28045717 
1817 -0.2803134 
1818 -0.28035095 
1819 -0.28047165 
1820 -0.2804416 
1821 -0.28002104 
1822 -0.2797614 
1823 -0.28036705 
1824 -0.2808461 
1825 -0.2808332 
1826 -0.28072754 
1827 -0.2808402 
1828 -0.2808434 
1829 -0.2807683 
1830 -0.28068838 
1831 -0.2807007 
1832 -0.28070125 
1833 -0.28085735 
1834 -0.28102365 
1835 -0.28097323 
1836 -0.28088793 
1837 -0.28087613 
1838 -0.28085414 
1839 -0.28071305 
1840 -0.28050116 
1841 -0.28042606 
1842 -0.28059825 
1843 -0.28075007 
1844 -0.28065512 
1845 -0.28061703 
1846 -0.28054568 
1847 -0.280764 
1848 -0.28087452 
1849 -0.28072003 
1850 -0.28080103 
1851 -0.28078386 
1852 -0.28065887 
1853 -0.2806197 
1854 -0.28064117 
1855 -0.28095928 
1856 -0.28089383 
1857 -0.28068838 
1858 -0.28055856 
1859 -0.28041157 
1860 -0.2804738 
1861 -0.280602 
1862 -0.2805725 
1863 -0.28063688 
1864 -0.28054944 
1865 -0.28072754 
1866 -0.28074256 
1867 -0.2807066 
1868 -0.2807077 
1869 -0.28071144 
1870 -0.28080317 
1871 -0.2808713 
1872 -0.28101882 
1873 -0.28088847 
1874 -0.28079084 
1875 -0.28076562 
1876 -0.2807651 
1877 -0.28070447 
1878 -0.2806165 
1879 -0.28057358 
1880 -0.28062508 
1881 -0.28034237 
1882 -0.28018144 
1883 -0.28041103 
1884 -0.28047004 
1885 -0.28054407 
1886 -0.28062186 
1887 -0.28063098 
1888 -0.28059074 
1889 -0.28054622 
1890 -0.2806417 
1891 -0.2806385 
1892 -0.28081605 
1893 -0.28091368 
1894 -0.28074738 
1895 -0.28074095 
1896 -0.2805591 
1897 -0.28035364 
1898 -0.28040835 
1899 -0.2806374 
1900 -0.28060952 
1901 -0.28057036 
1902 -0.28027317 
1903 -0.28042606 
1904 -0.28057304 
1905 -0.28047702 
1906 -0.28040567 
1907 -0.28046575 
1908 -0.28047165 
1909 -0.2804958 
1910 -0.28059557 
1911 -0.2807329 
1912 -0.2808064 
1913 -0.28091422 
1914 -0.2809405 
1915 -0.28094533 
1916 -0.28091636 
1917 -0.28084823 
1918 -0.28059396 
1919 -0.28053012 
1920 -0.28038207 
1921 -0.28041103 
1922 -0.28041264 
1923 -0.28040782 
1924 -0.28034988 
1925 -0.28038314 
1926 -0.28050384 
1927 -0.28043786 
1928 -0.2802678 
1929 -0.2803842 
1930 -0.28036383 
1931 -0.28027102 
1932 -0.28027102 
1933 -0.28029677 
1934 -0.28047326 
1935 -0.28051993 
1936 -0.28038958 
1937 -0.28025815 
1938 -0.2801573 
1939 -0.28027853 
1940 -0.28054354 
1941 -0.28056768 
1942 -0.28035203 
1943 -0.28028014 
1944 -0.2804416 
1945 -0.28061327 
1946 -0.28060952 
1947 -0.28071573 
1948 -0.2805666 
1949 -0.28022972 
1950 -0.28035256 
1951 -0.28056553 
1952 -0.28055212 
1953 -0.28052637 
1954 -0.28059664 
1955 -0.28061756 
1956 -0.28056392 
1957 -0.28041533 
1958 -0.28034022 
1959 -0.28027424 
1960 -0.28011653 
1961 -0.2799481 
1962 -0.2800291 
1963 -0.28010258 
1964 -0.28012297 
1965 -0.28003767 
1966 -0.27993467 
1967 -0.27998027 
1968 -0.2802045 
1969 -0.28036222 
1970 -0.28058806 
1971 -0.2806857 
1972 -0.28065512 
1973 -0.28060147 
1974 -0.28052422 
1975 -0.28059343 
1976 -0.28058645 
1977 -0.28050062 
1978 -0.28043464 
1979 -0.28023884 
1980 -0.2802163 
1981 -0.28013745 
1982 -0.28016695 
1983 -0.2803 
1984 -0.28033754 
1985 -0.28040943 
1986 -0.28044698 
1987 -0.28032145 
1988 -0.2803295 
1989 -0.28025815 
1990 -0.2802823 
1991 -0.28028122 
1992 -0.2803134 
1993 -0.28043357 
1994 -0.2804899 
1995 -0.2803295 
1996 -0.2802104 
1997 -0.2801471 
1998 -0.28021792 
1999 -0.280219 
2000 -0.28016374 
2001 -0.2802383 
2002 -0.280234 
2003 -0.28021738 
2004 -0.28030375 
2005 -0.28037992 
2006 -0.28025815 
2007 -0.28028122 
2008 -0.2803987 
2009 -0.28051832 
2010 -0.28044054 
2011 -0.2804695 
2012 -0.28070554 
2013 -0.28074953 
2014 -0.28071144 
2015 -0.28056392 
2016 -0.28050062 
2017 -0.2806433 
2018 -0.28050813 
2019 -0.28045824 
2020 -0.2802973 
2021 -0.28029355 
2022 -0.28022167 
2023 -0.2800865 
2024 -0.28038314 
2025 -0.2806932 
2026 -0.28059182 
2027 -0.2804384 
2028 -0.28054354 
2029 -0.2805902 
2030 -0.2804781 
2031 -0.28027585 
2032 -0.28028604 
2033 -0.28041103 
2034 -0.28048292 
2035 -0.28055695 
2036 -0.2807844 
2037 -0.28066692 
2038 -0.2804604 
2039 -0.2805076 
2040 -0.28034934 
2041 -0.28005645 
2042 -0.28013745 
2043 -0.28047702 
2044 -0.28060308 
2045 -0.28055695 
2046 -0.2806417 
2047 -0.28062186 
2048 -0.28070018 
2049 -0.28078493 
2050 -0.2806755 
2051 -0.28066584 
2052 -0.28069213 
2053 -0.28079566 
2054 -0.280867 
2055 -0.28083482 
2056 -0.2808477 
2057 -0.28076884 
2058 -0.28059986 
2059 -0.2805237 
2060 -0.2804593 
2061 -0.28038582 
2062 -0.28033915 
2063 -0.28039333 
2064 -0.28048667 
2065 -0.2807109 
2066 -0.28073558 
2067 -0.28063902 
2068 -0.28070554 
2069 -0.28075382 
2070 -0.2807785 
2071 -0.2806444 
2072 -0.2805226 
2073 -0.2805135 
2074 -0.28029302 
2075 -0.28010795 
2076 -0.28005913 
2077 -0.28015515 
2078 -0.28018412 
2079 -0.280322 
2080 -0.2804486 
2081 -0.28060737 
2082 -0.28041103 
2083 -0.28066316 
2084 -0.28076884 
2085 -0.2806299 
2086 -0.2805414 
2087 -0.28043786 
2088 -0.2803708 
2089 -0.28059182 
2090 -0.28069642 
2091 -0.28065512 
2092 -0.28046843 
2093 -0.28034076 
2094 -0.28021255 
2095 -0.2802324 
2096 -0.28025976 
2097 -0.28029838 
2098 -0.2802855 
2099 -0.28034022 
2100 -0.28027532 
2101 -0.28030857 
2102 -0.2804384 
2103 -0.28057948 
2104 -0.28068516 
2105 -0.2806755 
2106 -0.2808536 
2107 -0.2810274 
2108 -0.28099146 
2109 -0.28071573 
2110 -0.28045556 
2111 -0.28043625 
2112 -0.28027532 
2113 -0.280072 
2114 -0.280116 
2115 -0.28023133 
2116 -0.2802485 
2117 -0.28014067 
2118 -0.280094 
2119 -0.2800409 
2120 -0.28008702 
2121 -0.2801734 
2122 -0.28012833 
2123 -0.28007683 
2124 -0.28009614 
2125 -0.28006825 
2126 -0.2801294 
2127 -0.2801455 
2128 -0.28012833 
2129 -0.28018358 
2130 -0.280278 
2131 -0.28044483 
2132 -0.28038743 
2133 -0.280337 
2134 -0.28045824 
2135 -0.28051135 
2136 -0.280587 
2137 -0.28037778 
2138 -0.2801986 
2139 -0.28006664 
2140 -0.27985153 
2141 -0.27978233 
2142 -0.27976784 
2143 -0.27975443 
2144 -0.2797378 
2145 -0.2797877 
2146 -0.27982095 
2147 -0.2797099 
2148 -0.2796171 
2149 -0.27971634 
2150 -0.279704 
2151 -0.27978393 
2152 -0.27983168 
2153 -0.27996632 
2154 -0.28005323 
2155 -0.2799792 
2156 -0.27984992 
2157 -0.27979305 
2158 -0.27967557 
2159 -0.2797496 
2160 -0.27983275 
2161 -0.27967504 
2162 -0.27967182 
2163 -0.27981183 
2164 -0.2796482 
2165 -0.27930757 
2166 -0.2794036 
2167 -0.27934352 
2168 -0.27941433 
2169 -0.27954897 
2170 -0.27967128 
2171 -0.27972707 
2172 -0.27976087 
2173 -0.27975926 
2174 -0.27978233 
2175 -0.27982202 
2176 -0.2797791 
2177 -0.27962622 
2178 -0.2796171 
2179 -0.27953395 
2180 -0.2794551 
2181 -0.27949694 
2182 -0.2795742 
2183 -0.27966163 
2184 -0.2796804 
2185 -0.27988747 
2186 -0.2799749 
2187 -0.27994594 
2188 -0.2799674 
2189 -0.27995077 
2190 -0.27984402 
2191 -0.2797437 
2192 -0.279645 
2193 -0.27969274 
2194 -0.27973673 
2195 -0.2796906 
2196 -0.27961442 
2197 -0.27950874 
2198 -0.27966967 
2199 -0.2796493 
2200 -0.27954522 
2201 -0.27941808 
2202 -0.27933815 
2203 -0.27941164 
2204 -0.27951893 
2205 -0.2796879 
2206 -0.27969328 
2207 -0.27972922 
2208 -0.27973136 
2209 -0.27966323 
2210 -0.27962783 
2211 -0.27981505 
2212 -0.279829 
2213 -0.27974692 
2214 -0.279704 
2215 -0.2797582 
2216 -0.27968416 
2217 -0.27968147 
2218 -0.27958867 
2219 -0.27949694 
2220 -0.27952966 
2221 -0.27942827 
2222 -0.2792872 
2223 -0.27925983 
2224 -0.27934083 
2225 -0.27954683 
2226 -0.27973297 
2227 -0.2796938 
2228 -0.2795731 
2229 -0.2797496 
2230 -0.27990624 
2231 -0.2800409 
2232 -0.28008863 
2233 -0.27998188 
2234 -0.27996203 
2235 -0.27986118 
2236 -0.2798628 
2237 -0.27981398 
2238 -0.27979842 
2239 -0.27972278 
2240 -0.27966967 
2241 -0.27953717 
2242 -0.27961013 
2243 -0.2797126 
2244 -0.27968845 
2245 -0.27954093 
2246 -0.2793505 
2247 -0.2794653 
2248 -0.27985045 
2249 -0.27984616 
2250 -0.2798762 
2251 -0.28004357 
2252 -0.28010258 
2253 -0.27995345 
2254 -0.27973887 
2255 -0.27985153 
2256 -0.2797995 
2257 -0.2797244 
2258 -0.2798263 
2259 -0.2798644 
2260 -0.27989337 
2261 -0.27992663 
2262 -0.27999046 
2263 -0.28001943 
2264 -0.2800044 
2265 -0.28007308 
2266 -0.28003016 
2267 -0.27997974 
2268 -0.27997544 
2269 -0.28005055 
2270 -0.2800661 
2271 -0.27998886 
2272 -0.27990088 
2273 -0.27996954 
2274 -0.2800586 
2275 -0.28009078 
2276 -0.2802222 
2277 -0.28026888 
2278 -0.28010795 
2279 -0.27991322 
2280 -0.27980056 
2281 -0.279763 
2282 -0.27988264 
2283 -0.2799454 
2284 -0.279954 
2285 -0.28005645 
2286 -0.2801766 
2287 -0.28013745 
2288 -0.2801632 
2289 -0.2801176 
2290 -0.2800661 
2291 -0.28021201 
2292 -0.28026834 
2293 -0.28028712 
2294 -0.28016588 
2295 -0.28011706 
2296 -0.2801852 
2297 -0.28015354 
2298 -0.28013316 
2299 -0.28012404 
2300 -0.280035 
2301 -0.28005 
2302 -0.27993682 
2303 -0.27995774 
2304 -0.2800103 
2305 -0.2801809 
2306 -0.2802485 
2307 -0.28018734 
2308 -0.280337 
2309 -0.28036705 
2310 -0.28045502 
2311 -0.28048882 
2312 -0.28055802 
2313 -0.2806138 
2314 -0.28076026 
2315 -0.28079513 
2316 -0.2806283 
2317 -0.28049955 
2318 -0.28049257 
2319 -0.28042284 
2320 -0.2803397 
2321 -0.28025118 
2322 -0.28028497 
2323 -0.2803869 
2324 -0.2805564 
2325 -0.28071734 
2326 -0.28069642 
2327 -0.28067818 
2328 -0.28068623 
2329 -0.28059396 
2330 -0.28083053 
2331 -0.280786 
2332 -0.2806889 
2333 -0.2805945 
2334 -0.2805591 
2335 -0.2807329 
2336 -0.28071573 
2337 -0.28077957 
2338 -0.28083536 
2339 -0.28093246 
2340 -0.28105208 
2341 -0.28097537 
2342 -0.28092816 
2343 -0.28095177 
2344 -0.28104404 
2345 -0.28121677 
2346 -0.2810993 
2347 -0.2810215 
2348 -0.28118727 
2349 -0.28127363 
2350 -0.2812071 
2351 -0.28117707 
2352 -0.28103974 
2353 -0.28105852 
2354 -0.2812141 
2355 -0.28125325 
2356 -0.2811363 
2357 -0.2810451 
2358 -0.28107032 
2359 -0.28100488 
2360 -0.2809539 
2361 -0.28101453 
2362 -0.28119263 
2363 -0.28134605 
2364 -0.2813305 
2365 -0.2813675 
2366 -0.28142652 
2367 -0.28157672 
2368 -0.2815365 
2369 -0.28155687 
2370 -0.2816207 
2371 -0.28166255 
2372 -0.28166524 
2373 -0.28156063 
2374 -0.28174356 
2375 -0.28175482 
2376 -0.28181973 
2377 -0.28184494 
2378 -0.28169796 
2379 -0.28166148 
2380 -0.28151235 
2381 -0.2812318 
2382 -0.2814496 
2383 -0.2815043 
2384 -0.28144744 
2385 -0.28149894 
2386 -0.28156707 
2387 -0.28161374 
2388 -0.28165022 
2389 -0.28161588 
2390 -0.28169045 
2391 -0.28187874 
2392 -0.2818235 
2393 -0.28167704 
2394 -0.28151503 
2395 -0.2815381 
2396 -0.2814437 
2397 -0.28142062 
2398 -0.28154883 
2399 -0.28155473 
2400 -0.28147587 
2401 -0.28157082 
2402 -0.2814555 
2403 -0.28123125 
2404 -0.2814249 
2405 -0.28165022 
2406 -0.28176984 
2407 -0.2817988 
2408 -0.28168938 
2409 -0.28176716 
2410 -0.28194633 
2411 -0.2822285 
2412 -0.28235295 
2413 -0.28225908 
2414 -0.28233954 
2415 -0.28236046 
2416 -0.28230628 
2417 -0.28218612 
2418 -0.2822285 
2419 -0.28216466 
2420 -0.28205952 
2421 -0.28198388 
2422 -0.28180417 
2423 -0.28151342 
2424 -0.28152683 
2425 -0.28175107 
2426 -0.28183153 
2427 -0.28168347 
2428 -0.28169635 
2429 -0.28165987 
2430 -0.28173444 
2431 -0.28198013 
2432 -0.28200588 
2433 -0.28212336 
2434 -0.2822081 
2435 -0.28237334 
2436 -0.2824345 
2437 -0.28238836 
2438 -0.28227088 
2439 -0.28218773 
2440 -0.28220007 
2441 -0.28226283 
2442 -0.2822419 
2443 -0.28226337 
2444 -0.28230628 
2445 -0.2823433 
2446 -0.2822167 
2447 -0.2823181 
2448 -0.28244522 
2449 -0.28242752 
2450 -0.2824318 
2451 -0.28249726 
2452 -0.28235242 
2453 -0.28242162 
2454 -0.2825643 
2455 -0.28262547 
2456 -0.28258738 
2457 -0.28227678 
2458 -0.2821577 
2459 -0.28224137 
2460 -0.28224137 
2461 -0.28223225 
2462 -0.28229073 
2463 -0.2821904 
2464 -0.28215608 
2465 -0.28239158 
2466 -0.28244147 
2467 -0.28236368 
2468 -0.28240928 
2469 -0.28250906 
2470 -0.28252032 
2471 -0.28248116 
2472 -0.28255627 
2473 -0.28258577 
2474 -0.2825187 
2475 -0.28255144 
2476 -0.2824318 
2477 -0.28233525 
2478 -0.2824082 
2479 -0.28245112 
2480 -0.28242376 
2481 -0.2823932 
2482 -0.28231862 
2483 -0.28245488 
2484 -0.2825316 
2485 -0.28260025 
2486 -0.2825289 
2487 -0.28247312 
2488 -0.28246668 
2489 -0.2824876 
2490 -0.28246024 
2491 -0.28236905 
2492 -0.2823889 
2493 -0.28258792 
2494 -0.2828143 
2495 -0.28281 
2496 -0.28255573 
2497 -0.28228912 
2498 -0.28243557 
2499 -0.28249618 
2500 -0.28249243 
2501 -0.2824565 
2502 -0.28235564 
2503 -0.28229502 
2504 -0.28226712 
2505 -0.2823154 
2506 -0.28239158 
2507 -0.28266624 
2508 -0.28274992 
2509 -0.2828454 
2510 -0.28296235 
2511 -0.28294036 
2512 -0.28295806 
2513 -0.282773 
2514 -0.28274563 
2515 -0.2828025 
2516 -0.28268448 
2517 -0.28252086 
2518 -0.2824286 
2519 -0.28240392 
2520 -0.28250638 
2521 -0.28253213 
2522 -0.28269467 
2523 -0.28261957 
2524 -0.28262493 
2525 -0.2828159 
2526 -0.2827601 
2527 -0.28266087 
2528 -0.28255144 
2529 -0.28262547 
2530 -0.2827644 
2531 -0.28290495 
2532 -0.28281108 
2533 -0.2826464 
2534 -0.2827113 
2535 -0.2828304 
2536 -0.28299132 
2537 -0.28324077 
2538 -0.28313348 
2539 -0.28299347 
2540 -0.28281268 
2541 -0.28283146 
2542 -0.28274456 
2543 -0.2827054 
2544 -0.28282395 
2545 -0.28281966 
2546 -0.28277406 
2547 -0.28276333 
2548 -0.282685 
2549 -0.282692 
2550 -0.2829291 
2551 -0.28296933 
2552 -0.28289476 
2553 -0.2828749 
2554 -0.283016 
2555 -0.2830294 
2556 -0.28296342 
2557 -0.28280732 
2558 -0.2826158 
2559 -0.28272417 
2560 -0.28262976 
2561 -0.2825568 
2562 -0.28256163 
2563 -0.28279015 
2564 -0.2830294 
2565 -0.28320482 
2566 -0.28326115 
2567 -0.28330138 
2568 -0.28358784 
2569 -0.2834591 
2570 -0.2833309 
2571 -0.2832558 
2572 -0.28322682 
2573 -0.28330514 
2574 -0.2833207 
2575 -0.28328744 
2576 -0.28320858 
2577 -0.2832338 
2578 -0.283141 
2579 -0.28305408 
2580 -0.28292158 
2581 -0.28279927 
2582 -0.2828175 
2583 -0.2828379 
2584 -0.28292158 
2585 -0.2830133 
2586 -0.28312382 
2587 -0.28310022 
2588 -0.2831469 
2589 -0.28334162 
2590 -0.28348002 
2591 -0.28351006 
2592 -0.28333303 
2593 -0.28308412 
2594 -0.2829527 
2595 -0.28284487 
2596 -0.2827483 
2597 -0.282626 
2598 -0.2825702 
2599 -0.2826893 
2600 -0.2828572 
2601 -0.28296933 
2602 -0.28303638 
2603 -0.28305623 
2604 -0.28302082 
2605 -0.2830514 
2606 -0.28323165 
2607 -0.28325954 
2608 -0.28305247 
2609 -0.2832338 
2610 -0.28333464 
2611 -0.2830117 
2612 -0.2828116 
2613 -0.28268287 
2614 -0.2826099 
2615 -0.2826067 
2616 -0.2824597 
2617 -0.28242913 
2618 -0.28254554 
2619 -0.28254607 
2620 -0.28273436 
2621 -0.28297523 
2622 -0.28302512 
2623 -0.2829248 
2624 -0.28307608 
2625 -0.28311738 
2626 -0.28305194 
2627 -0.2829511 
2628 -0.28285024 
2629 -0.28277835 
2630 -0.28260025 
2631 -0.28261903 
2632 -0.28278372 
2633 -0.28267482 
2634 -0.2825391 
2635 -0.28243878 
2636 -0.2824361 
2637 -0.28235832 
2638 -0.28232345 
2639 -0.28243396 
2640 -0.2824286 
2641 -0.28239962 
2642 -0.2824447 
2643 -0.2826405 
2644 -0.28277674 
2645 -0.28267643 
2646 -0.28268448 
2647 -0.2828422 
2648 -0.2831292 
2649 -0.28333893 
2650 -0.28336468 
2651 -0.2833872 
2652 -0.283406 
2653 -0.2832236 
2654 -0.28312114 
2655 -0.28296557 
2656 -0.28291085 
2657 -0.28283307 
2658 -0.28273705 
2659 -0.28268018 
2660 -0.28285292 
2661 -0.28295323 
2662 -0.28294894 
2663 -0.28295323 
2664 -0.28289744 
2665 -0.28287867 
2666 -0.28289047 
2667 -0.28300634 
2668 -0.283053 
2669 -0.28318283 
2670 -0.28310773 
2671 -0.28317264 
2672 -0.28322843 
2673 -0.2831587 
2674 -0.2830836 
2675 -0.2829983 
2676 -0.28302243 
2677 -0.28304335 
2678 -0.28293392 
2679 -0.2829366 
2680 -0.28290495 
2681 -0.28290173 
2682 -0.2828304 
2683 -0.28277728 
2684 -0.2826818 
2685 -0.2827569 
2686 -0.2828926 
2687 -0.28298864 
2688 -0.283119 
2689 -0.28297362 
2690 -0.28281966 
2691 -0.28288457 
2692 -0.28272364 
2693 -0.28252783 
2694 -0.28250584 
2695 -0.28248706 
2696 -0.28250262 
2697 -0.28242645 
2698 -0.28252622 
2699 -0.28263834 
2700 -0.28270325 
2701 -0.28277406 
2702 -0.28282127 
2703 -0.2827247 
2704 -0.28279284 
2705 -0.28297576 
2706 -0.2829173 
2707 -0.28290817 
2708 -0.2828926 
2709 -0.2828749 
2710 -0.28276923 
2711 -0.2827274 
2712 -0.28272095 
2713 -0.282567 
2714 -0.28257236 
2715 -0.28264853 
2716 -0.28265175 
2717 -0.28244522 
2718 -0.2822934 
2719 -0.28224996 
2720 -0.28228858 
2721 -0.28271934 
2722 -0.28309754 
2723 -0.2831324 
2724 -0.28316727 
2725 -0.28325793 
2726 -0.2834312 
2727 -0.28327134 
2728 -0.2832236 
2729 -0.2832043 
2730 -0.28316996 
2731 -0.28301653 
2732 -0.28313455 
2733 -0.28315118 
2734 -0.28299507 
2735 -0.28300098 
2736 -0.28290603 
2737 -0.28280142 
2738 -0.28285882 
2739 -0.28285345 
2740 -0.28274992 
2741 -0.28270915 
2742 -0.28258845 
2743 -0.28242752 
2744 -0.2825643 
2745 -0.2825949 
2746 -0.28251657 
2747 -0.2824683 
2748 -0.28250852 
2749 -0.28260884 
2750 -0.28281537 
2751 -0.28284487 
2752 -0.28287223 
2753 -0.28291622 
2754 -0.28295216 
2755 -0.2831131 
2756 -0.28331962 
2757 -0.28324398 
2758 -0.28317532 
2759 -0.28311363 
2760 -0.28299615 
2761 -0.28262815 
2762 -0.28252837 
2763 -0.28250638 
2764 -0.28255036 
2765 -0.2825611 
2766 -0.28260937 
2767 -0.2827542 
2768 -0.28268018 
2769 -0.2827365 
2770 -0.2828116 
2771 -0.2828878 
2772 -0.2829747 
2773 -0.28296825 
2774 -0.28304443 
2775 -0.28304657 
2776 -0.28297415 
2777 -0.28285453 
2778 -0.2827467 
2779 -0.282604 
2780 -0.28257343 
2781 -0.28261045 
2782 -0.28250745 
2783 -0.28250584 
2784 -0.2827274 
2785 -0.28288457 
2786 -0.28284273 
2787 -0.2828878 
2788 -0.28294143 
2789 -0.28287384 
2790 -0.28275314 
2791 -0.28258148 
2792 -0.2825316 
2793 -0.2826201 
2794 -0.28263405 
2795 -0.28277943 
2796 -0.28288725 
2797 -0.28275904 
2798 -0.28254768 
2799 -0.28235456 
2800 -0.2823551 
2801 -0.28240928 
2802 -0.28239158 
2803 -0.28241304 
2804 -0.2825493 
2805 -0.28255305 
2806 -0.2825273 
2807 -0.28273383 
2808 -0.28280088 
2809 -0.28294197 
2810 -0.28294572 
2811 -0.2828556 
2812 -0.2827939 
2813 -0.28282663 
2814 -0.2827188 
2815 -0.282692 
2816 -0.282692 
2817 -0.28251603 
2818 -0.2823433 
2819 -0.2822902 
2820 -0.28241625 
2821 -0.28247204 
2822 -0.28242537 
2823 -0.2824817 
2824 -0.28249618 
2825 -0.2825171 
2826 -0.28242162 
2827 -0.28248546 
2828 -0.2824302 
2829 -0.2824082 
2830 -0.28246024 
2831 -0.28260615 
2832 -0.2825509 
2833 -0.28256914 
2834 -0.28264531 
2835 -0.28274992 
2836 -0.28275904 
2837 -0.28267375 
2838 -0.28262386 
2839 -0.28254393 
2840 -0.28241357 
2841 -0.282361 
2842 -0.28238246 
2843 -0.28252193 
2844 -0.28245488 
2845 -0.28243825 
2846 -0.28249672 
2847 -0.28251764 
2848 -0.28254446 
2849 -0.2824318 
2850 -0.28236905 
2851 -0.28237495 
2852 -0.2824023 
2853 -0.28238836 
2854 -0.28236744 
2855 -0.28243825 
2856 -0.28257558 
2857 -0.28242376 
2858 -0.28228483 
2859 -0.28213838 
2860 -0.2821212 
2861 -0.28202412 
2862 -0.28204933 
2863 -0.2820697 
2864 -0.2820858 
2865 -0.28236637 
2866 -0.2825155 
2867 -0.28250638 
2868 -0.2826673 
2869 -0.2826582 
2870 -0.28252837 
2871 -0.28256592 
2872 -0.2824951 
2873 -0.28247365 
2874 -0.28250584 
2875 -0.28254768 
2876 -0.28254607 
2877 -0.2824495 
2878 -0.28232506 
2879 -0.28224298 
2880 -0.28206006 
2881 -0.28212067 
2882 -0.2820901 
2883 -0.28207937 
2884 -0.2821963 
2885 -0.28222153 
2886 -0.28234383 
2887 -0.28240392 
2888 -0.28236368 
2889 -0.28235295 
2890 -0.28233793 
2891 -0.2824141 
2892 -0.2823653 
2893 -0.28237495 
2894 -0.28248867 
2895 -0.28244898 
2896 -0.28232345 
2897 -0.2822387 
2898 -0.28229502 
2899 -0.2822242 
2900 -0.2822108 
2901 -0.28212765 
2902 -0.2820842 
2903 -0.28214964 
2904 -0.28228644 
2905 -0.28222045 
2906 -0.2821636 
2907 -0.28198227 
2908 -0.28180417 
2909 -0.2818385 
2910 -0.28208205 
2911 -0.28229234 
2912 -0.282118 
2913 -0.28211263 
2914 -0.28220704 
2915 -0.28219846 
2916 -0.28217378 
2917 -0.28205362 
2918 -0.28199837 
2919 -0.28188464 
2920 -0.2819045 
2921 -0.28184065 
2922 -0.2820461 
2923 -0.2821963 
2924 -0.2821695 
2925 -0.28220704 
2926 -0.2821636 
2927 -0.28195813 
2928 -0.28189054 
2929 -0.2819769 
2930 -0.2821593 
2931 -0.28213838 
2932 -0.28216788 
2933 -0.28214803 
2934 -0.28213355 
2935 -0.28215823 
2936 -0.28215286 
2937 -0.2820579 
2938 -0.28199515 
2939 -0.28187338 
2940 -0.28190127 
2941 -0.2819399 
2942 -0.28194955 
2943 -0.2820166 
2944 -0.28208044 
2945 -0.28215715 
2946 -0.28229877 
2947 -0.2823964 
2948 -0.28227785 
2949 -0.28203538 
2950 -0.2819576 
2951 -0.2819737 
2952 -0.28197852 
2953 -0.28202036 
2954 -0.2822167 
2955 -0.28228965 
2956 -0.2821931 
2957 -0.28200695 
2958 -0.28200856 
2959 -0.28191844 
2960 -0.28175107 
2961 -0.28164324 
2962 -0.2817076 
2963 -0.28176233 
2964 -0.28183958 
2965 -0.28200695 
2966 -0.2819635 
2967 -0.28193077 
2968 -0.2819517 
2969 -0.28198174 
2970 -0.2821035 
2971 -0.2822065 
2972 -0.2823814 
2973 -0.28234598 
2974 -0.2822478 
2975 -0.28231487 
2976 -0.28239855 
2977 -0.2823991 
2978 -0.28223225 
2979 -0.28202412 
2980 -0.28187016 
2981 -0.28176126 
2982 -0.28171083 
2983 -0.2818165 
2984 -0.2817913 
2985 -0.28176555 
2986 -0.28179398 
2987 -0.28188035 
2988 -0.28202465 
2989 -0.28203538 
2990 -0.28199515 
2991 -0.28187874 
2992 -0.2818192 
2993 -0.2819989 
2994 -0.28221187 
2995 -0.2821078 
2996 -0.28202948 
2997 -0.28189752 
2998 -0.28189108 
2999 -0.28186855 
3000 -0.2817709 
3001 -0.28176555 
3002 -0.28175107 
3003 -0.28170118 
3004 -0.2817001 
3005 -0.28177252 
3006 -0.2818648 
3007 -0.2818884 
3008 -0.28189 
3009 -0.2819313 
3010 -0.28190342 
3011 -0.28194687 
3012 -0.28197584 
3013 -0.28192487 
3014 -0.28181544 
3015 -0.28173497 
3016 -0.28174838 
3017 -0.28178325 
3018 -0.28169742 
3019 -0.28168777 
3020 -0.28161106 
3021 -0.28160247 
3022 -0.2815483 
3023 -0.28165612 
3024 -0.2817693 
3025 -0.28189912 
3026 -0.28192595 
3027 -0.28200105 
3028 -0.28198925 
3029 -0.2818916 
3030 -0.2818149 
3031 -0.28170225 
3032 -0.28152576 
3033 -0.2815145 
3034 -0.2816572 
3035 -0.2817001 
3036 -0.28166094 
3037 -0.28172156 
3038 -0.28176823 
3039 -0.2816647 
3040 -0.28161535 
3041 -0.2816631 
3042 -0.2817661 
3043 -0.28177735 
3044 -0.28175053 
3045 -0.28162447 
3046 -0.2814335 
3047 -0.28142062 
3048 -0.28157082 
3049 -0.28166202 
3050 -0.2817532 
3051 -0.28166792 
3052 -0.28159603 
3053 -0.28161535 
3054 -0.28167006 
3055 -0.28174517 
3056 -0.28174946 
3057 -0.2817119 
3058 -0.28173926 
3059 -0.28160676 
3060 -0.28138468 
3061 -0.28142866 
3062 -0.28148338 
3063 -0.28165987 
3064 -0.28179076 
3065 -0.28178915 
3066 -0.2820064 
3067 -0.282052 
3068 -0.2819002 
3069 -0.28173336 
3070 -0.28155473 
3071 -0.28153327 
3072 -0.28156438 
3073 -0.28149572 
3074 -0.28154132 
3075 -0.2817264 
3076 -0.28163788 
3077 -0.28154185 
3078 -0.28154507 
3079 -0.28138146 
3080 -0.2814233 
3081 -0.28152844 
3082 -0.28148285 
3083 -0.28146192 
3084 -0.28149572 
3085 -0.28146353 
3086 -0.2814689 
3087 -0.28155258 
3088 -0.28150913 
3089 -0.2815365 
3090 -0.281625 
3091 -0.28167275 
3092 -0.28162447 
3093 -0.2816057 
3094 -0.28160998 
3095 -0.28162125 
3096 -0.28165558 
3097 -0.28167006 
3098 -0.2817237 
3099 -0.28181008 
3100 -0.28180632 
3101 -0.2816325 
3102 -0.28152093 
3103 -0.28158477 
3104 -0.28147748 
3105 -0.28135088 
3106 -0.28123447 
3107 -0.28119424 
3108 -0.28122267 
3109 -0.2812806 
3110 -0.28131923 
3111 -0.28153113 
3112 -0.28156546 
3113 -0.28161964 
3114 -0.28170493 
3115 -0.281603 
3116 -0.28148553 
3117 -0.28155097 
3118 -0.2815322 
3119 -0.2814587 
3120 -0.28157833 
3121 -0.2815204 
3122 -0.2814764 
3123 -0.28154454 
3124 -0.28148016 
3125 -0.28138843 
3126 -0.2812409 
3127 -0.28103438 
3128 -0.28114703 
3129 -0.28134444 
3130 -0.28148338 
3131 -0.28154936 
3132 -0.28163144 
3133 -0.28167918 
3134 -0.2816942 
3135 -0.28164753 
3136 -0.2816722 
3137 -0.28148285 
3138 -0.2814823 
3139 -0.2813997 
3140 -0.28137234 
3141 -0.28135142 
3142 -0.28132138 
3143 -0.28137878 
3144 -0.2813482 
3145 -0.28146675 
3146 -0.28171137 
3147 -0.2818471 
3148 -0.28173175 
3149 -0.28160515 
3150 -0.28168777 
3151 -0.28173605 
3152 -0.2816325 
3153 -0.28152308 
3154 -0.2815 
3155 -0.28153864 
3156 -0.28162447 
3157 -0.28159228 
3158 -0.28148016 
3159 -0.2815027 
3160 -0.28139165 
3161 -0.28132728 
3162 -0.28127363 
3163 -0.28124627 
3164 -0.28132138 
3165 -0.28139326 
3166 -0.28145227 
3167 -0.2815306 
3168 -0.28152308 
3169 -0.2815617 
3170 -0.2815365 
3171 -0.28145334 
3172 -0.28158423 
3173 -0.28169206 
3174 -0.28164217 
3175 -0.28159657 
3176 -0.28165933 
3177 -0.28160462 
3178 -0.2814732 
3179 -0.28136376 
3180 -0.28133908 
3181 -0.28135785 
3182 -0.28131118 
3183 -0.2811481 
3184 -0.28115454 
3185 -0.28114757 
3186 -0.2811449 
3187 -0.2813321 
3188 -0.28155044 
3189 -0.28166255 
3190 -0.2817956 
3191 -0.28198817 
3192 -0.28202572 
3193 -0.28192917 
3194 -0.28188035 
3195 -0.28189698 
3196 -0.2818782 
3197 -0.28168133 
3198 -0.28162232 
3199 -0.28153327 
3200 -0.28134283 
3201 -0.28122106 
3202 -0.281257 
3203 -0.28143457 
3204 -0.2814115 
3205 -0.2813659 
3206 -0.28138092 
3207 -0.28144208 
3208 -0.28137287 
3209 -0.28126237 
3210 -0.28126773 
3211 -0.28128168 
3212 -0.2811481 
3213 -0.28112343 
3214 -0.2810612 
3215 -0.2810451 
3216 -0.2810628 
3217 -0.28103438 
3218 -0.2810628 
3219 -0.28125754 
3220 -0.28128758 
3221 -0.28135625 
3222 -0.28133264 
3223 -0.2812865 
3224 -0.2811964 
3225 -0.28128704 
3226 -0.2814233 
3227 -0.28123608 
3228 -0.28106925 
3229 -0.28121033 
3230 -0.2813085 
3231 -0.2813407 
3232 -0.28132513 
3233 -0.28128168 
3234 -0.281073 
3235 -0.28103974 
3236 -0.28109232 
3237 -0.28110036 
3238 -0.281014 
3239 -0.28119478 
3240 -0.281198 
3241 -0.28114864 
3242 -0.2811953 
3243 -0.28119692 
3244 -0.2812023 
3245 -0.28130797 
3246 -0.28127256 
3247 -0.28120068 
3248 -0.2811803 
3249 -0.2811878 
3250 -0.28130528 
3251 -0.28145656 
3252 -0.2815027 
3253 -0.28154024 
3254 -0.28146783 
3255 -0.28127202 
3256 -0.28110412 
3257 -0.28092495 
3258 -0.28081122 
3259 -0.2806417 
3260 -0.28066584 
3261 -0.2807592 
3262 -0.28068355 
3263 -0.2806444 
3264 -0.28088847 
3265 -0.28089866 
3266 -0.28089115 
3267 -0.2809786 
3268 -0.28096357 
3269 -0.28102258 
3270 -0.281117 
3271 -0.28113362 
3272 -0.28128275 
3273 -0.28150967 
3274 -0.28166845 
3275 -0.28158155 
3276 -0.28132728 
3277 -0.28138092 
3278 -0.28153595 
3279 -0.28140238 
3280 -0.2811599 
3281 -0.2809877 
3282 -0.28077474 
3283 -0.28076348 
3284 -0.28079942 
3285 -0.28077045 
3286 -0.28060523 
3287 -0.28059074 
3288 -0.28060147 
3289 -0.28069267 
3290 -0.2809051 
3291 -0.2810746 
3292 -0.2812012 
3293 -0.28121677 
3294 -0.28136107 
3295 -0.28129938 
3296 -0.28130367 
3297 -0.28125486 
3298 -0.28113738 
3299 -0.28089437 
3300 -0.28078225 
3301 -0.28067175 
3302 -0.28064707 
3303 -0.2808037 
3304 -0.28087774 
3305 -0.28089812 
3306 -0.28099468 
3307 -0.28088632 
3308 -0.28073397 
3309 -0.28087023 
3310 -0.28099737 
3311 -0.28096786 
3312 -0.28095338 
3313 -0.28090242 
3314 -0.28094372 
3315 -0.2810451 
3316 -0.2811304 
3317 -0.28128114 
3318 -0.28121194 
3319 -0.28097966 
3320 -0.2808225 
3321 -0.280668 
3322 -0.28055212 
3323 -0.28058484 
3324 -0.2807034 
3325 -0.2807592 
3326 -0.28067818 
3327 -0.28063312 
3328 -0.28061113 
3329 -0.28081712 
3330 -0.28086433 
3331 -0.28092763 
3332 -0.28093567 
3333 -0.28102097 
3334 -0.28103116 
3335 -0.28095123 
3336 -0.28077528 
3337 -0.28064707 
3338 -0.28069696 
3339 -0.28068838 
3340 -0.28069267 
3341 -0.28070286 
3342 -0.28078654 
3343 -0.28077045 
3344 -0.2807345 
3345 -0.28082088 
3346 -0.280764 
3347 -0.2807077 
3348 -0.28085735 
3349 -0.28086486 
3350 -0.28082195 
3351 -0.28080907 
3352 -0.28073075 
3353 -0.28071144 
3354 -0.280764 
3355 -0.28087398 
3356 -0.2808493 
3357 -0.28080264 
3358 -0.28097805 
3359 -0.28087237 
3360 -0.28083375 
3361 -0.2806755 
3362 -0.28050438 
3363 -0.28059182 
3364 -0.28066584 
3365 -0.28069428 
3366 -0.28055105 
3367 -0.28059235 
3368 -0.2809244 
3369 -0.28090456 
3370 -0.28086326 
3371 -0.2808123 
3372 -0.280764 
3373 -0.2806342 
3374 -0.2805843 
3375 -0.2804561 
3376 -0.28035846 
3377 -0.28042552 
3378 -0.28039655 
3379 -0.28035685 
3380 -0.2805108 
3381 -0.28051725 
3382 -0.28056124 
3383 -0.2805843 
3384 -0.28052208 
3385 -0.28062668 
3386 -0.28066316 
3387 -0.28054622 
3388 -0.28051028 
3389 -0.28072593 
3390 -0.28081927 
3391 -0.28078815 
3392 -0.2807624 
3393 -0.2807608 
3394 -0.28075114 
3395 -0.28079352 
3396 -0.28090402 
3397 -0.28084126 
3398 -0.28067926 
3399 -0.28068087 
3400 -0.28055802 
3401 -0.2804738 
3402 -0.28040835 
3403 -0.28020772 
3404 -0.2802458 
3405 -0.28025118 
3406 -0.2803236 
3407 -0.28030375 
3408 -0.28022113 
3409 -0.28029624 
3410 -0.2804561 
3411 -0.28060415 
3412 -0.28083214 
3413 -0.28077313 
3414 -0.28082463 
3415 -0.2807007 
3416 -0.28058913 
3417 -0.28057894 
3418 -0.28053603 
3419 -0.28048185 
3420 -0.28037402 
3421 -0.28030106 
3422 -0.28036222 
3423 -0.28058806 
3424 -0.28061488 
3425 -0.28066155 
3426 -0.2805119 
3427 -0.28019217 
3428 -0.28030375 
3429 -0.28035042 
3430 -0.280359 
3431 -0.28032735 
3432 -0.28039655 
3433 -0.28047112 
3434 -0.2804899 
3435 -0.28047916 
3436 -0.28052905 
3437 -0.28057197 
3438 -0.28048292 
3439 -0.28048614 
3440 -0.2803987 
3441 -0.28034666 
3442 -0.2803488 
3443 -0.2803209 
3444 -0.28037456 
3445 -0.2805119 
3446 -0.28047112 
3447 -0.28052154 
3448 -0.28052798 
3449 -0.28048453 
3450 -0.28039387 
3451 -0.28047594 
3452 -0.28057894 
3453 -0.2807093 
3454 -0.28085092 
3455 -0.28073773 
3456 -0.28046843 
3457 -0.28019592 
3458 -0.28005537 
3459 -0.2799717 
3460 -0.27976033 
3461 -0.27960476 
3462 -0.27975067 
3463 -0.27975175 
3464 -0.27990893 
3465 -0.28007844 
3466 -0.2801589 
3467 -0.2803032 
3468 -0.28043625 
3469 -0.28036597 
3470 -0.28048667 
3471 -0.2805607 
3472 -0.28064707 
3473 -0.28081283 
3474 -0.280602 
3475 -0.28061864 
3476 -0.28073665 
3477 -0.2806991 
3478 -0.28035793 
3479 -0.28012833 
3480 -0.2801428 
3481 -0.2801868 
3482 -0.280234 
3483 -0.28018734 
3484 -0.2801884 
3485 -0.280278 
3486 -0.28025386 
3487 -0.28018358 
3488 -0.28023025 
3489 -0.28036276 
3490 -0.2805194 
3491 -0.28057894 
3492 -0.28061596 
3493 -0.2806106 
3494 -0.2804781 
3495 -0.28044215 
3496 -0.2804486 
3497 -0.2804443 
3498 -0.28053603 
3499 -0.2804486 
3500 -0.28032842 
3501 -0.28024152 
3502 -0.2801632 
3503 -0.28006342 
3504 -0.2799454 
3505 -0.28016964 
3506 -0.28017232 
3507 -0.28012618 
3508 -0.28010902 
3509 -0.2800983 
3510 -0.28022596 
3511 -0.28035632 
3512 -0.28031984 
3513 -0.28033754 
3514 -0.28035578 
3515 -0.28041103 
3516 -0.2804207 
3517 -0.28028926 
3518 -0.28022864 
3519 -0.280175 
3520 -0.280175 
3521 -0.280138 
3522 -0.28002372 
3523 -0.27995935 
3524 -0.2799792 
3525 -0.2802002 
3526 -0.28031018 
3527 -0.28030214 
3528 -0.28047004 
3529 -0.28048345 
3530 -0.28033003 
3531 -0.28016534 
3532 -0.2801074 
3533 -0.28022006 
3534 -0.28035095 
3535 -0.28042552 
3536 -0.28040138 
3537 -0.2803531 
3538 -0.28025493 
3539 -0.28014335 
3540 -0.28018466 
3541 -0.28023776 
3542 -0.28024366 
3543 -0.2801439 
3544 -0.28010312 
3545 -0.28022972 
3546 -0.28024206 
3547 -0.2801058 
3548 -0.28012672 
3549 -0.28017607 
3550 -0.28031716 
3551 -0.2803751 
3552 -0.28054675 
3553 -0.28067496 
3554 -0.2805194 
3555 -0.28048185 
3556 -0.28043196 
3557 -0.2803236 
3558 -0.2803456 
3559 -0.28033754 
3560 -0.2802383 
3561 -0.28015247 
3562 -0.28006557 
3563 -0.2800822 
3564 -0.2801632 
3565 -0.28011975 
3566 -0.28003284 
3567 -0.28007415 
3568 -0.28016105 
3569 -0.28010365 
3570 -0.2801133 
3571 -0.28018788 
3572 -0.28025976 
3573 -0.280278 
3574 -0.28034505 
3575 -0.28031984 
3576 -0.2802458 
3577 -0.28009936 
3578 -0.28019217 
3579 -0.28021416 
3580 -0.28021523 
3581 -0.2803134 
3582 -0.2803574 
3583 -0.28027317 
3584 -0.28027746 
3585 -0.2803692 
3586 -0.2803413 
3587 -0.28020558 
3588 -0.28022704 
3589 -0.2803724 
3590 -0.28033164 
3591 -0.28031394 
3592 -0.28027424 
3593 -0.28027853 
3594 -0.28037992 
3595 -0.28032896 
3596 -0.28008917 
3597 -0.2800162 
3598 -0.28016266 
3599 -0.28014067 
3600 -0.28014442 
3601 -0.28010955 
3602 -0.2800559 
3603 -0.2802249 
3604 -0.28033057 
3605 -0.28047916 
3606 -0.2805532 
3607 -0.28041264 
3608 -0.2803869 
3609 -0.28050116 
3610 -0.2804475 
3611 -0.28034344 
3612 -0.28026673 
3613 -0.28017232 
3614 -0.28003928 
3615 -0.2800205 
3616 -0.2800087 
3617 -0.2798424 
3618 -0.2797453 
3619 -0.2798113 
3620 -0.2799336 
3621 -0.2799497 
3622 -0.28019324 
3623 -0.28031072 
3624 -0.28010955 
3625 -0.28008756 
3626 -0.2802544 
3627 -0.28030214 
3628 -0.28026244 
3629 -0.28022704 
3630 -0.28032145 
3631 -0.2802045 
3632 -0.28005 
3633 -0.27988103 
3634 -0.2798274 
3635 -0.2798896 
3636 -0.27998188 
3637 -0.2799143 
3638 -0.27980164 
3639 -0.27971098 
3640 -0.27976516 
3641 -0.27992395 
3642 -0.27986655 
3643 -0.27987728 
3644 -0.28004786 
3645 -0.28039172 
3646 -0.28044108 
3647 -0.28051457 
3648 -0.2805296 
3649 -0.28050116 
3650 -0.28046307 
3651 -0.28047004 
3652 -0.28031394 
3653 -0.2800425 
3654 -0.27993897 
3655 -0.27992555 
3656 -0.27980003 
3657 -0.27988908 
3658 -0.2798628 
3659 -0.2798424 
3660 -0.27980217 
3661 -0.27990088 
3662 -0.28010634 
3663 -0.28001782 
3664 -0.27992287 
3665 -0.2801042 
3666 -0.28020933 
3667 -0.28009883 
3668 -0.27999583 
3669 -0.28011867 
3670 -0.2802517 
3671 -0.28020343 
3672 -0.28009346 
3673 -0.28011224 
3674 -0.2802796 
3675 -0.2802163 
3676 -0.28011063 
3677 -0.28007308 
3678 -0.2801337 
3679 -0.28007683 
3680 -0.28000602 
3681 -0.2799261 
3682 -0.27993092 
3683 -0.28003123 
3684 -0.28016803 
3685 -0.28023562 
3686 -0.28014818 
3687 -0.2800044 
3688 -0.280131 
3689 -0.28019646 
3690 -0.28025547 
3691 -0.28029516 
3692 -0.28029463 
3693 -0.280278 
3694 -0.28024366 
3695 -0.28011116 
3696 -0.28000227 
3697 -0.28003928 
3698 -0.27996525 
3699 -0.2798923 
3700 -0.27986172 
3701 -0.27990517 
3702 -0.27979735 
3703 -0.279667 
3704 -0.2795597 
3705 -0.27953234 
3706 -0.27998993 
3707 -0.28022704 
3708 -0.28016642 
3709 -0.28018358 
3710 -0.28021362 
3711 -0.2800677 
3712 -0.28009507 
3713 -0.28013048 
3714 -0.28005216 
3715 -0.27996632 
3716 -0.27987996 
3717 -0.27980164 
3718 -0.2797303 
3719 -0.27978823 
3720 -0.2797657 
3721 -0.279667 
3722 -0.27953932 
3723 -0.27955917 
3724 -0.27962515 
3725 -0.27977803 
3726 -0.27982095 
3727 -0.27992663 
3728 -0.27996847 
3729 -0.2799481 
3730 -0.2799572 
3731 -0.28003553 
3732 -0.28004518 
3733 -0.27999046 
3734 -0.28002426 
3735 -0.28002748 
3736 -0.27991322 
3737 -0.2798837 
3738 -0.2799776 
3739 -0.28004894 
3740 -0.2799218 
3741 -0.27975228 
3742 -0.27961656 
3743 -0.2795715 
3744 -0.27964124 
3745 -0.2797689 
3746 -0.27984777 
3747 -0.27992126 
3748 -0.28002748 
3749 -0.28011492 
3750 -0.280131 
3751 -0.28022167 
3752 -0.2802941 
3753 -0.2804593 
3754 -0.28048775 
3755 -0.28036007 
3756 -0.28024474 
3757 -0.28022328 
3758 -0.2802882 
3759 -0.2803279 
3760 -0.2802678 
3761 -0.28005055 
3762 -0.27986172 
3763 -0.2797185 
3764 -0.27972868 
3765 -0.27979198 
3766 -0.27991268 
3767 -0.27997115 
3768 -0.27996793 
3769 -0.2799084 
3770 -0.27987942 
3771 -0.28000763 
3772 -0.28019646 
3773 -0.2802635 
3774 -0.2802029 
3775 -0.28010526 
3776 -0.27997813 
3777 -0.27996954 
3778 -0.28010097 
3779 -0.28012243 
3780 -0.2801648 
3781 -0.280131 
3782 -0.28016266 
3783 -0.28013477 
3784 -0.28006878 
3785 -0.28012028 
3786 -0.28010365 
3787 -0.28002855 
3788 -0.2799293 
3789 -0.2798086 
3790 -0.27980378 
3791 -0.2797512 
3792 -0.2798086 
3793 -0.279969 
3794 -0.28002962 
3795 -0.28011814 
3796 -0.28010955 
3797 -0.28009078 
3798 -0.28006342 
3799 -0.27999637 
3800 -0.27994004 
3801 -0.27995667 
3802 -0.27987137 
3803 -0.27978554 
3804 -0.2798263 
3805 -0.2797834 
3806 -0.27979627 
3807 -0.27983811 
3808 -0.27975014 
3809 -0.27957204 
3810 -0.2793328 
3811 -0.2792239 
3812 -0.27926466 
3813 -0.27923408 
3814 -0.27920833 
3815 -0.27935264 
3816 -0.2796037 
3817 -0.27963534 
3818 -0.2795833 
3819 -0.27961442 
3820 -0.2797158 
3821 -0.2799293 
3822 -0.2800795 
3823 -0.27997866 
3824 -0.27996364 
3825 -0.2799202 
3826 -0.2798188 
3827 -0.27993897 
3828 -0.27996042 
3829 -0.2798896 
3830 -0.2797893 
3831 -0.27972546 
3832 -0.27980807 
3833 -0.27982578 
3834 -0.27970615 
3835 -0.27955273 
3836 -0.27951464 
3837 -0.2795141 
3838 -0.27964124 
3839 -0.27962622 
3840 -0.27968737 
3841 -0.27984294 
3842 -0.2798365 
3843 -0.27985474 
3844 -0.27983704 
3845 -0.27993146 
3846 -0.27994862 
3847 -0.27985582 
3848 -0.27966377 
3849 -0.27973565 
3850 -0.27998725 
3851 -0.28014442 
3852 -0.27997223 
3853 -0.2800291 
3854 -0.2800291 
3855 -0.28005645 
3856 -0.27998832 
3857 -0.27985474 
3858 -0.2798848 
3859 -0.2799497 
3860 -0.27978608 
3861 -0.27970883 
3862 -0.2797539 
3863 -0.2798483 
3864 -0.27981666 
3865 -0.27979037 
3866 -0.2797716 
3867 -0.27980593 
3868 -0.2799084 
3869 -0.27995774 
3870 -0.27992126 
3871 -0.27984294 
3872 -0.2798408 
3873 -0.27993682 
3874 -0.2801042 
3875 -0.28009775 
3876 -0.28002158 
3877 -0.28007522 
3878 -0.27981183 
3879 -0.27955058 
3880 -0.27937195 
3881 -0.2794036 
3882 -0.27931723 
3883 -0.27942505 
3884 -0.27958706 
3885 -0.27951303 
3886 -0.27944544 
3887 -0.27943793 
3888 -0.27966914 
3889 -0.2798601 
3890 -0.27998564 
3891 -0.27999744 
3892 -0.28005 
3893 -0.27991912 
3894 -0.2798247 
3895 -0.28004196 
3896 -0.27980486 
3897 -0.2797362 
3898 -0.2796214 
3899 -0.27944973 
3900 -0.27962407 
3901 -0.27966163 
3902 -0.27953556 
3903 -0.27949265 
3904 -0.27962086 
3905 -0.2798966 
3906 -0.279866 
3907 -0.2798231 
3908 -0.27975067 
3909 -0.27982792 
3910 -0.27973726 
3911 -0.27992287 
3912 -0.27991322 
3913 -0.27994487 
3914 -0.28003874 
3915 -0.2799293 
3916 -0.27989498 
3917 -0.28003928 
3918 -0.2800409 
3919 -0.28011438 
3920 -0.27996418 
3921 -0.27967986 
3922 -0.2795082 
3923 -0.27949265 
3924 -0.2794347 
3925 -0.2793596 
3926 -0.279402 
3927 -0.27951518 
3928 -0.27962407 
3929 -0.27968362 
3930 -0.27969167 
3931 -0.27984133 
3932 -0.2798322 
3933 -0.2798274 
3934 -0.27979037 
3935 -0.27967718 
3936 -0.2796332 
3937 -0.27958545 
3938 -0.27962354 
3939 -0.27959672 
3940 -0.27960637 
3941 -0.27963534 
3942 -0.27973136 
3943 -0.27983758 
3944 -0.2798054 
3945 -0.27994004 
3946 -0.27994218 
3947 -0.27989712 
3948 -0.27983543 
3949 -0.2798086 
3950 -0.2798923 
3951 -0.2798762 
3952 -0.27992126 
3953 -0.2800382 
3954 -0.27994916 
3955 -0.27991268 
3956 -0.27990088 
3957 -0.27992824 
3958 -0.2799808 
3959 -0.28000227 
3960 -0.27986923 
3961 -0.27971312 
3962 -0.27945617 
3963 -0.27942398 
3964 -0.27948514 
3965 -0.2795168 
3966 -0.27961013 
3967 -0.2795436 
3968 -0.27972814 
3969 -0.2799175 
3970 -0.27990517 
3971 -0.27981773 
3972 -0.2798837 
3973 -0.27978984 
3974 -0.2796423 
3975 -0.27946153 
3976 -0.27952752 
3977 -0.27960905 
3978 -0.279483 
3979 -0.2795286 
3980 -0.27947924 
3981 -0.2794551 
3982 -0.27948996 
3983 -0.27954736 
3984 -0.27948567 
3985 -0.2796053 
3986 -0.27993253 
3987 -0.2798274 
3988 -0.27971098 
3989 -0.27982846 
3990 -0.2799792 
3991 -0.27993843 
3992 -0.2800307 
3993 -0.2800071 
3994 -0.27997652 
3995 -0.27994916 
3996 -0.2798601 
3997 -0.2797083 
3998 -0.27973887 
3999 -0.2796155 
4000 -0.27948514 
4001 -0.2793757 
4002 -0.27932796 
4003 -0.27950498 
4004 -0.27967665 
4005 -0.2797539 
4006 -0.27977535 
4007 -0.2797437 
4008 -0.27982202 
4009 -0.2797598 
4010 -0.27973726 
4011 -0.27968147 
4012 -0.2796568 
4013 -0.2797421 
4014 -0.279785 
4015 -0.2797158 
4016 -0.279623 
4017 -0.27960745 
4018 -0.27963588 
4019 -0.27960476 
4020 -0.27948835 
4021 -0.27932635 
4022 -0.27927217 
4023 -0.2793328 
4024 -0.2794331 
4025 -0.27946797 
4026 -0.27962247 
4027 -0.27965894 
4028 -0.2796847 
4029 -0.27967557 
4030 -0.279829 
4031 -0.27982363 
4032 -0.27979788 
4033 -0.27989337 
4034 -0.27973083 
4035 -0.27970722 
4036 -0.2796332 
4037 -0.2796053 
4038 -0.2795817 
4039 -0.27947763 
4040 -0.27938107 
4041 -0.2793258 
4042 -0.2794052 
4043 -0.27958277 
4044 -0.27976194 
4045 -0.27991268 
4046 -0.28003016 
4047 -0.27996418 
4048 -0.2798542 
4049 -0.27980378 
4050 -0.2797818 
4051 -0.2798263 
4052 -0.28002694 
4053 -0.27996042 
4054 -0.2798907 
4055 -0.2798424 
4056 -0.2797378 
4057 -0.27982363 
4058 -0.2798129 
4059 -0.27962998 
4060 -0.2796552 
4061 -0.27960262 
4062 -0.27955326 
4063 -0.27957043 
4064 -0.27950284 
4065 -0.2794685 
4066 -0.2795125 
4067 -0.27946904 
4068 -0.27944276 
4069 -0.27985582 
4070 -0.2799658 
4071 -0.27987084 
4072 -0.2799352 
4073 -0.27990302 
4074 -0.2797056 
4075 -0.27959672 
4076 -0.27977696 
4077 -0.279645 
4078 -0.27954897 
4079 -0.27949265 
4080 -0.27937678 
4081 -0.27937034 
4082 -0.27952483 
4083 -0.27951786 
4084 -0.2797995 
4085 -0.27994326 
4086 -0.27992985 
4087 -0.27979252 
4088 -0.27981827 
4089 -0.27985582 
4090 -0.27982202 
4091 -0.27977267 
4092 -0.27980646 
4093 -0.27992716 
4094 -0.28015193 
4095 -0.2800527 
4096 -0.28009936 
4097 -0.28032574 
4098 -0.28022113 
4099 -0.2798628 
4100 -0.279601 
4101 -0.2796552 
4102 -0.27964178 
4103 -0.27971527 
4104 -0.2797598 
4105 -0.2797893 
4106 -0.2797995 
4107 -0.2798306 
4108 -0.27978823 
4109 -0.27980003 
4110 -0.27984777 
4111 -0.27979842 
4112 -0.27977535 
4113 -0.2798349 
4114 -0.27977964 
4115 -0.27986923 
4116 -0.2797496 
4117 -0.27961174 
4118 -0.27978072 
4119 -0.27977 
4120 -0.27964768 
4121 -0.27978984 
4122 -0.2796584 
4123 -0.2794551 
4124 -0.27935746 
4125 -0.2794256 
4126 -0.2795377 
4127 -0.27949104 
4128 -0.2794948 
4129 -0.27969328 
4130 -0.27976623 
4131 -0.27978233 
4132 -0.27993038 
4133 -0.27996257 
4134 -0.27991644 
4135 -0.27981988 
4136 -0.27986655 
4137 -0.2799116 
4138 -0.27986494 
4139 -0.2798719 
4140 -0.27974692 
4141 -0.27960745 
4142 -0.27969489 
4143 -0.27973673 
4144 -0.2798998 
4145 -0.27979788 
4146 -0.27973083 
4147 -0.2798628 
4148 -0.27984938 
4149 -0.27972707 
4150 -0.27976462 
4151 -0.279932 
4152 -0.28005484 
4153 -0.2799969 
4154 -0.279888 
4155 -0.27987996 
4156 -0.28001568 
4157 -0.27999154 
4158 -0.27999797 
4159 -0.27993682 
4160 -0.2797582 
4161 -0.27957687 
4162 -0.27950552 
4163 -0.2794921 
4164 -0.2795007 
4165 -0.2795715 
4166 -0.27956077 
4167 -0.27961817 
4168 -0.27960798 
4169 -0.2796568 
4170 -0.27955166 
4171 -0.27956507 
4172 -0.27973458 
4173 -0.27982578 
4174 -0.279932 
4175 -0.2799631 
4176 -0.27994272 
4177 -0.27980217 
4178 -0.27963266 
4179 -0.2796906 
4180 -0.27944705 
4181 -0.279358 
4182 -0.2793843 
4183 -0.27955702 
4184 -0.27981344 
4185 -0.27999797 
4186 -0.2799556 
4187 -0.2797185 
4188 -0.2797024 
4189 -0.27989015 
4190 -0.28000227 
4191 -0.27994487 
4192 -0.27997115 
4193 -0.27993628 
4194 -0.27994272 
4195 -0.2799084 
4196 -0.27992448 
4197 -0.2799588 
4198 -0.2798864 
4199 -0.27991214 
4200 -0.27974048 
4201 -0.2794669 
4202 -0.2794889 
4203 -0.27951625 
4204 -0.27957526 
4205 -0.27963695 
4206 -0.27971473 
4207 -0.27978072 
4208 -0.27962676 
4209 -0.27953878 
4210 -0.27955434 
4211 -0.27976945 
4212 -0.2798719 
4213 -0.2797995 
4214 -0.27975067 
4215 -0.27983436 
4216 -0.27988854 
4217 -0.27973995 
4218 -0.27961227 
4219 -0.2793993 
4220 -0.27944705 
4221 -0.27936444 
4222 -0.27936175 
4223 -0.27931508 
4224 -0.2794948 
4225 -0.2795994 
4226 -0.27954575 
4227 -0.27958062 
4228 -0.2797555 
4229 -0.27991 
4230 -0.27982202 
4231 -0.28002855 
4232 -0.27991644 
4233 -0.27967343 
4234 -0.27961925 
4235 -0.27996096 
4236 -0.27986172 
4237 -0.27977267 
4238 -0.27974102 
4239 -0.2797201 
4240 -0.27968308 
4241 -0.27947333 
4242 -0.27952054 
4243 -0.27947333 
4244 -0.27954414 
4245 -0.279932 
4246 -0.27995238 
4247 -0.28001675 
4248 -0.27995828 
4249 -0.27988854 
4250 -0.28012082 
4251 -0.27999476 
4252 -0.27993467 
4253 -0.28000978 
4254 -0.27969918 
4255 -0.27961066 
4256 -0.2796611 
4257 -0.27978233 
4258 -0.2798247 
4259 -0.2798424 
4260 -0.27977964 
4261 -0.27972063 
4262 -0.27970025 
4263 -0.27974585 
4264 -0.27979627 
4265 -0.27980486 
4266 -0.279888 
4267 -0.2798939 
4268 -0.2799556 
4269 -0.2800189 
4270 -0.2800162 
4271 -0.2800291 
4272 -0.28002372 
4273 -0.27991375 
4274 -0.27981827 
4275 -0.27980754 
4276 -0.27971473 
4277 -0.27949747 
4278 -0.27938643 
4279 -0.27949694 
4280 -0.2796214 
4281 -0.2797834 
4282 -0.27978662 
4283 -0.27979413 
4284 -0.27984884 
4285 -0.27990678 
4286 -0.27998617 
4287 -0.27993092 
4288 -0.28003928 
4289 -0.28009292 
4290 -0.28003016 
4291 -0.2798907 
4292 -0.27965304 
4293 -0.27969864 
4294 -0.279726 
4295 -0.27959564 
4296 -0.2795742 
4297 -0.27964607 
4298 -0.27963212 
4299 -0.27979735 
4300 -0.28007308 
4301 -0.27995506 
4302 -0.27986923 
4303 -0.27984402 
4304 -0.2798113 
4305 -0.2796761 
4306 -0.27980432 
4307 -0.27977267 
4308 -0.27966538 
4309 -0.27962568 
4310 -0.27965572 
4311 -0.27972654 
4312 -0.27965894 
4313 -0.27968308 
4314 -0.27965465 
4315 -0.2796938 
4316 -0.27967718 
4317 -0.2796702 
4318 -0.27972814 
4319 -0.2797496 
4320 -0.2797008 
4321 -0.2796096 
4322 -0.27956185 
4323 -0.27952537 
4324 -0.27943096 
4325 -0.27972063 
4326 -0.27978018 
4327 -0.27970776 
4328 -0.27969006 
4329 -0.27971902 
4330 -0.2798349 
4331 -0.27983114 
4332 -0.27976623 
4333 -0.27995345 
4334 -0.2801428 
4335 -0.28013048 
4336 -0.27990946 
4337 -0.28005484 
4338 -0.28012565 
4339 -0.28004572 
4340 -0.279947 
4341 -0.27977964 
4342 -0.2797303 
4343 -0.2796922 
4344 -0.27967343 
4345 -0.27972224 
4346 -0.27982095 
4347 -0.2799041 
4348 -0.27986172 
4349 -0.27992716 
4350 -0.28004733 
4351 -0.28016105 
4352 -0.28015837 
4353 -0.28015837 
4354 -0.28021845 
4355 -0.28011975 
4356 -0.28007737 
4357 -0.27999797 
4358 -0.2798204 
4359 -0.2797539 
4360 -0.27968094 
4361 -0.27964285 
4362 -0.27977267 
4363 -0.27963158 
4364 -0.27965733 
4365 -0.2797657 
4366 -0.2797657 
4367 -0.2798086 
4368 -0.27983972 
4369 -0.27990302 
4370 -0.27974263 
4371 -0.27966806 
4372 -0.27957848 
4373 -0.2796879 
4374 -0.27979252 
4375 -0.27979144 
4376 -0.27982202 
4377 -0.27989873 
4378 -0.27986816 
4379 -0.27975872 
4380 -0.2796155 
4381 -0.2796922 
4382 -0.27963695 
4383 -0.2795715 
4384 -0.27961013 
4385 -0.27963534 
4386 -0.27966377 
4387 -0.27988908 
4388 -0.27992502 
4389 -0.27991483 
4390 -0.27998564 
4391 -0.28009453 
4392 -0.2800677 
4393 -0.28003177 
4394 -0.28010204 
4395 -0.2802206 
4396 -0.2801809 
4397 -0.28008112 
4398 -0.27995935 
4399 -0.28004143 
4400 -0.28000656 
4401 -0.27983275 
4402 -0.27968952 
4403 -0.27954307 
4404 -0.2794492 
4405 -0.2795243 
4406 -0.2796246 
4407 -0.27974477 
4408 -0.27975175 
4409 -0.27987942 
4410 -0.2800409 
4411 -0.28019002 
4412 -0.28014067 
4413 -0.28019646 
4414 -0.28013638 
4415 -0.27997544 
4416 -0.27995023 
4417 -0.27986816 
4418 -0.27983811 
4419 -0.2799218 
4420 -0.27991107 
4421 -0.27983436 
4422 -0.2797614 
4423 -0.27968577 
4424 -0.27967235 
4425 -0.2797598 
4426 -0.27970722 
4427 -0.27968255 
4428 -0.2797539 
4429 -0.27980164 
4430 -0.27979842 
4431 -0.28000334 
4432 -0.2798129 
4433 -0.27958438 
4434 -0.27980164 
4435 -0.27987084 
4436 -0.28000817 
4437 -0.2799749 
4438 -0.27991965 
4439 -0.27987996 
4440 -0.2799352 
4441 -0.2799454 
4442 -0.2798805 
4443 -0.27980217 
4444 -0.27971527 
4445 -0.27974746 
4446 -0.27962944 
4447 -0.27954468 
4448 -0.27947924 
4449 -0.27924588 
4450 -0.27931938 
4451 -0.2795404 
4452 -0.27950338 
4453 -0.2795554 
4454 -0.27969167 
4455 -0.27996632 
4456 -0.27992985 
4457 -0.2799658 
4458 -0.2800291 
4459 -0.2798569 
4460 -0.27978125 
4461 -0.27976248 
4462 -0.27966377 
4463 -0.2799497 
4464 -0.2800232 
4465 -0.28004143 
4466 -0.28010365 
4467 -0.2800012 
4468 -0.27987996 
4469 -0.2799041 
4470 -0.2798306 
4471 -0.28000495 
4472 -0.28005967 
4473 -0.27991053 
4474 -0.2799218 
4475 -0.2799175 
4476 -0.27975228 
4477 -0.27967826 
4478 -0.27958867 
4479 -0.27954897 
4480 -0.27967665 
4481 -0.27961335 
4482 -0.27954468 
4483 -0.27946797 
4484 -0.27951464 
4485 -0.279704 
4486 -0.2797834 
4487 -0.27983543 
4488 -0.27984563 
4489 -0.2799041 
4490 -0.28000066 
4491 -0.2800221 
4492 -0.28006503 
4493 -0.28005806 
4494 -0.28022006 
4495 -0.2802957 
4496 -0.28022864 
4497 -0.2801884 
4498 -0.2801294 
4499 -0.2800221 
4500 -0.28004625 
4501 -0.2800747 
4502 -0.27991322 
4503 -0.27985314 
4504 -0.28000066 
4505 -0.28002426 
4506 -0.27998993 
4507 -0.28012082 
4508 -0.28009936 
4509 -0.2800248 
4510 -0.27997813 
4511 -0.28012565 
4512 -0.28008327 
4513 -0.2800795 
4514 -0.2800865 
4515 -0.28012136 
4516 -0.28001192 
4517 -0.279991 
4518 -0.27986225 
4519 -0.27972814 
4520 -0.27970025 
4521 -0.27975604 
4522 -0.2797394 
4523 -0.27978072 
4524 -0.27980378 
4525 -0.27979198 
4526 -0.27981398 
4527 -0.27974048 
4528 -0.27972493 
4529 -0.27986494 
4530 -0.27983597 
4531 -0.27989176 
4532 -0.27987567 
4533 -0.2798778 
4534 -0.27991322 
4535 -0.2800527 
4536 -0.28013477 
4537 -0.27989444 
4538 -0.2798274 
4539 -0.27993575 
4540 -0.27974746 
4541 -0.2796568 
4542 -0.27959564 
4543 -0.27939877 
4544 -0.2792255 
4545 -0.27926037 
4546 -0.27941862 
4547 -0.2796332 
4548 -0.2798408 
4549 -0.2801133 
4550 -0.28017285 
4551 -0.28024527 
4552 -0.28022704 
4553 -0.27997813 
4554 -0.2801632 
4555 -0.28025386 
4556 -0.28016588 
4557 -0.2801428 
4558 -0.2802072 
4559 -0.28005484 
4560 -0.27990195 
4561 -0.27984616 
4562 -0.2798628 
4563 -0.2797099 
4564 -0.27953288 
4565 -0.27956882 
4566 -0.27963856 
4567 -0.27967986 
4568 -0.27971527 
4569 -0.27964875 
4570 -0.2797968 
4571 -0.27998993 
4572 -0.2800747 
4573 -0.28016374 
4574 -0.28018197 
4575 -0.2802823 
4576 -0.2803193 
4577 -0.28018358 
4578 -0.28001407 
4579 -0.27994165 
4580 -0.27984938 
4581 -0.27997276 
4582 -0.27997115 
4583 -0.27989015 
4584 -0.2799379 
4585 -0.27992502 
4586 -0.27994594 
4587 -0.27991322 
4588 -0.2797995 
4589 -0.27991268 
4590 -0.27998886 
4591 -0.27984884 
4592 -0.2796922 
4593 -0.27966377 
4594 -0.27964768 
4595 -0.279601 
4596 -0.27965465 
4597 -0.27973458 
4598 -0.27962944 
4599 -0.27962247 
4600 -0.27959135 
4601 -0.27966377 
4602 -0.27971527 
4603 -0.2797834 
4604 -0.27988908 
4605 -0.2798027 
4606 -0.27980217 
4607 -0.27976355 
4608 -0.2796466 
4609 -0.27955756 
4610 -0.27954522 
4611 -0.27945027 
4612 -0.27953556 
4613 -0.27955648 
4614 -0.27956346 
4615 -0.27955917 
4616 -0.27968577 
4617 -0.27961442 
4618 -0.2795656 
4619 -0.2795715 
4620 -0.279667 
4621 -0.27957687 
4622 -0.2794905 
4623 -0.27947226 
4624 -0.27948675 
4625 -0.2795125 
4626 -0.2794374 
4627 -0.2793875 
4628 -0.27948567 
4629 -0.27972922 
4630 -0.27968147 
4631 -0.27961066 
4632 -0.2795994 
4633 -0.27945617 
4634 -0.27944383 
4635 -0.2794551 
4636 -0.279402 
4637 -0.2793269 
4638 -0.27934405 
4639 -0.27946904 
4640 -0.2794948 
4641 -0.279542 
4642 -0.27946153 
4643 -0.2794111 
4644 -0.27932206 
4645 -0.27925393 
4646 -0.2793478 
4647 -0.27934888 
4648 -0.279402 
4649 -0.27953556 
4650 -0.27963158 
4651 -0.27977374 
4652 -0.2796702 
4653 -0.27965412 
4654 -0.2798011 
4655 -0.27988425 
4656 -0.27983597 
4657 -0.2798585 
4658 -0.27980593 
4659 -0.27965572 
4660 -0.27956238 
4661 -0.27940306 
4662 -0.27936712 
4663 -0.27936658 
4664 -0.27932957 
4665 -0.27942827 
4666 -0.27954575 
4667 -0.27958062 
4668 -0.27953127 
4669 -0.27956882 
4670 -0.27952054 
4671 -0.27964017 
4672 -0.27973512 
4673 -0.27973297 
4674 -0.2797378 
4675 -0.27981988 
4676 -0.27978984 
4677 -0.27974746 
4678 -0.2795699 
4679 -0.2794213 
4680 -0.27931133 
4681 -0.27938107 
4682 -0.27942827 
4683 -0.27934942 
4684 -0.27930865 
4685 -0.27931616 
4686 -0.2792416 
4687 -0.27938643 
4688 -0.27948192 
4689 -0.27957472 
4690 -0.27968255 
4691 -0.2797142 
4692 -0.27971366 
4693 -0.27968147 
4694 -0.27975926 
4695 -0.27975336 
4696 -0.2797496 
4697 -0.27971098 
4698 -0.27960423 
4699 -0.2796128 
4700 -0.27945456 
4701 -0.27924374 
4702 -0.27915093 
4703 -0.2792078 
4704 -0.27931777 
4705 -0.2793859 
4706 -0.27941218 
4707 -0.27951732 
4708 -0.27954093 
4709 -0.27953342 
4710 -0.27953556 
4711 -0.27947065 
4712 -0.27947333 
4713 -0.27947763 
4714 -0.27940574 
4715 -0.27939823 
4716 -0.27937195 
4717 -0.27938804 
4718 -0.2793596 
4719 -0.27929738 
4720 -0.27922067 
4721 -0.27924213 
4722 -0.27929738 
4723 -0.27946314 
4724 -0.2794846 
4725 -0.27954307 
4726 -0.27956775 
4727 -0.2795377 
4728 -0.27949908 
4729 -0.2794465 
4730 -0.2794524 
4731 -0.2794347 
4732 -0.2795125 
4733 -0.2795731 
4734 -0.27960476 
4735 -0.27967504 
4736 -0.27966163 
4737 -0.27962676 
4738 -0.2795286 
4739 -0.2794508 
4740 -0.27942935 
4741 -0.27931508 
4742 -0.2791123 
4743 -0.27913645 
4744 -0.27923355 
4745 -0.27929524 
4746 -0.27936336 
4747 -0.27940735 
4748 -0.2794524 
4749 -0.2795082 
4750 -0.2796053 
4751 -0.2798322 
4752 -0.27986333 
4753 -0.27985153 
4754 -0.27986225 
4755 -0.279807 
4756 -0.27971634 
4757 -0.27967986 
4758 -0.27971205 
4759 -0.2795141 
4760 -0.2794052 
4761 -0.27930543 
4762 -0.27922013 
4763 -0.27916273 
4764 -0.2790726 
4765 -0.27918848 
4766 -0.27933654 
4767 -0.2792754 
4768 -0.27926412 
4769 -0.27941164 
4770 -0.2794406 
4771 -0.27951893 
4772 -0.27952912 
4773 -0.27955326 
4774 -0.27959135 
4775 -0.27959296 
4776 -0.2796375 
4777 -0.27962354 
4778 -0.27953288 
4779 -0.2794921 
4780 -0.27939072 
4781 -0.27917132 
4782 -0.2791284 
4783 -0.27921852 
4784 -0.27935585 
4785 -0.279402 
4786 -0.2793773 
4787 -0.27929255 
4788 -0.2793183 
4789 -0.2794095 
4790 -0.27945617 
4791 -0.27948353 
4792 -0.2795404 
4793 -0.27953824 
4794 -0.27962247 
4795 -0.27951893 
4796 -0.27941862 
4797 -0.27944276 
4798 -0.27931133 
4799 -0.27905008 
4800 -0.27901468 
4801 -0.27909085 
4802 -0.27909675 
4803 -0.27915844 
4804 -0.2793081 
4805 -0.2793859 
4806 -0.27945456 
4807 -0.2794846 
4808 -0.27936658 
4809 -0.27939662 
4810 -0.27953288 
4811 -0.2794406 
4812 -0.2793419 
4813 -0.27926144 
4814 -0.27939287 
4815 -0.27944115 
4816 -0.27947387 
4817 -0.27936873 
4818 -0.27947226 
4819 -0.2793698 
4820 -0.27933815 
4821 -0.2792314 
4822 -0.27912465 
4823 -0.27905652 
4824 -0.27907154 
4825 -0.2792373 
4826 -0.27924964 
4827 -0.27926198 
4828 -0.27926627 
4829 -0.27925232 
4830 -0.27937678 
4831 -0.27945027 
4832 -0.27941003 
4833 -0.27937946 
4834 -0.2793934 
4835 -0.2793462 
4836 -0.27930543 
4837 -0.27928612 
4838 -0.27927217 
4839 -0.27918258 
4840 -0.27914718 
4841 -0.27914074 
4842 -0.27907154 
4843 -0.2790222 
4844 -0.27903506 
4845 -0.27906457 
4846 -0.27906832 
4847 -0.27912197 
4848 -0.27930114 
4849 -0.27940413 
4850 -0.27959082 
4851 -0.2796745 
4852 -0.27973726 
4853 -0.2797614 
4854 -0.27975014 
4855 -0.27973673 
4856 -0.27986547 
4857 -0.27994862 
4858 -0.27982953 
4859 -0.27978018 
4860 -0.27960637 
4861 -0.27942076 
4862 -0.2792593 
4863 -0.27918795 
4864 -0.27923462 
4865 -0.27931777 
4866 -0.27927378 
4867 -0.2793918 
4868 -0.279439 
4869 -0.27942237 
4870 -0.27954736 
4871 -0.27956346 
4872 -0.27950498 
4873 -0.27938643 
4874 -0.27925286 
4875 -0.27913967 
4876 -0.27905384 
4877 -0.27897766 
4878 -0.27890256 
4879 -0.27908602 
4880 -0.2792094 
4881 -0.27929094 
4882 -0.27928182 
4883 -0.27925554 
4884 -0.27940574 
4885 -0.27955005 
4886 -0.27959457 
4887 -0.27963212 
4888 -0.27953985 
4889 -0.27958652 
4890 -0.27956936 
4891 -0.27946797 
4892 -0.27940896 
4893 -0.27933332 
4894 -0.27932045 
4895 -0.27933547 
4896 -0.27926305 
4897 -0.27920833 
4898 -0.27924213 
4899 -0.27938107 
4900 -0.2792888 
4901 -0.27930006 
4902 -0.27923784 
4903 -0.27919117 
4904 -0.27914932 
4905 -0.27914664 
4906 -0.2791327 
4907 -0.27911445 
4908 -0.27913162 
4909 -0.2791976 
4910 -0.27928665 
4911 -0.27936766 
4912 -0.27944973 
4913 -0.27951786 
4914 -0.279564 
4915 -0.27967557 
4916 -0.2797673 
4917 -0.27972063 
4918 -0.2795098 
4919 -0.2795141 
4920 -0.27950713 
4921 -0.27938536 
4922 -0.2793285 
4923 -0.27932635 
4924 -0.27925608 
4925 -0.27913538 
4926 -0.27904633 
4927 -0.2791815 
4928 -0.2793623 
4929 -0.27938643 
4930 -0.27945778 
4931 -0.27956024 
4932 -0.2795495 
4933 -0.27956238 
4934 -0.2796482 
4935 -0.27969489 
4936 -0.2796879 
4937 -0.27957204 
4938 -0.27925876 
4939 -0.27933654 
4940 -0.2794213 
4941 -0.27937838 
4942 -0.27940091 
4943 -0.2793317 
4944 -0.27946153 
4945 -0.27960208 
4946 -0.2795919 
4947 -0.27958116 
4948 -0.27948192 
4949 -0.2793478 
4950 -0.27941057 
4951 -0.27921906 
4952 -0.27899644 
4953 -0.27896586 
4954 -0.27897123 
4955 -0.2790474 
4956 -0.2790313 
4957 -0.2792003 
4958 -0.27941862 
4959 -0.27944812 
4960 -0.27935907 
4961 -0.2793462 
4962 -0.2793623 
4963 -0.27942184 
4964 -0.2794524 
4965 -0.27944008 
4966 -0.27935156 
4967 -0.2793049 
4968 -0.2792534 
4969 -0.27926037 
4970 -0.27941808 
4971 -0.27948728 
4972 -0.27957043 
4973 -0.2795227 
4974 -0.2793419 
4975 -0.27936658 
4976 -0.27938697 
4977 -0.2793183 
4978 -0.27930865 
4979 -0.27927378 
4980 -0.27930328 
4981 -0.27921048 
4982 -0.27916542 
4983 -0.27921745 
4984 -0.27925125 
4985 -0.27910534 
4986 -0.27926573 
4987 -0.27932957 
4988 -0.27938482 
4989 -0.27951035 
4990 -0.27964446 
4991 -0.2797056 
4992 -0.2796407 
4993 -0.2795876 
4994 -0.2795286 
4995 -0.27952698 
4996 -0.27956614 
4997 -0.2794921 
4998 -0.27941594 
4999 -0.27936175 
5000 -0.27922013 
5001 -0.27930704 
5002 -0.27930167 
5003 -0.27912626 
5004 -0.27910587 
5005 -0.27918366 
5006 -0.27926573 
5007 -0.2792813 
5008 -0.27934244 
5009 -0.27944437 
5010 -0.27952 
5011 -0.27962783 
5012 -0.27980915 
5013 -0.28000066 
5014 -0.28006503 
5015 -0.27999046 
5016 -0.2798322 
5017 -0.27977535 
5018 -0.27967772 
5019 -0.27969328 
5020 -0.2794948 
5021 -0.2793419 
5022 -0.27930436 
5023 -0.27929953 
5024 -0.279417 
5025 -0.2795951 
5026 -0.27971205 
5027 -0.27982685 
5028 -0.27987567 
5029 -0.2797598 
5030 -0.27978447 
5031 -0.2798054 
5032 -0.27965948 
5033 -0.27964017 
5034 -0.2797158 
5035 -0.27979252 
5036 -0.27986762 
5037 -0.2796525 
5038 -0.2795345 
5039 -0.2794889 
5040 -0.27931347 
5041 -0.27924535 
5042 -0.27937946 
5043 -0.27943203 
5044 -0.27941808 
5045 -0.27948353 
5046 -0.2794712 
5047 -0.27941057 
5048 -0.27954575 
5049 -0.27969489 
5050 -0.2797673 
5051 -0.27990195 
5052 -0.2799175 
5053 -0.27979037 
5054 -0.27975443 
5055 -0.2796981 
5056 -0.2797995 
5057 -0.27983168 
5058 -0.27992126 
5059 -0.27987888 
5060 -0.2798011 
5061 -0.27970025 
5062 -0.2795994 
5063 -0.27938107 
5064 -0.2793902 
5065 -0.27944544 
5066 -0.279439 
5067 -0.27937678 
5068 -0.2793934 
5069 -0.27939072 
5070 -0.27938214 
5071 -0.27953503 
5072 -0.2795613 
5073 -0.2794476 
5074 -0.27947387 
5075 -0.27957472 
5076 -0.27943096 
5077 -0.2793934 
5078 -0.27939984 
5079 -0.279439 
5080 -0.2793639 
5081 -0.2792212 
5082 -0.27922013 
5083 -0.27916595 
5084 -0.2793623 
5085 -0.27944437 
5086 -0.27930436 
5087 -0.27918205 
5088 -0.2792389 
5089 -0.27929845 
5090 -0.2793741 
5091 -0.2793505 
5092 -0.27940413 
5093 -0.2794846 
5094 -0.27949318 
5095 -0.2795377 
5096 -0.2795994 
5097 -0.27954307 
5098 -0.27933225 
5099 -0.2791343 
5100 -0.27905223 
5101 -0.2792137 
5102 -0.27916113 
5103 -0.27923515 
5104 -0.27936766 
5105 -0.27942774 
5106 -0.2795479 
5107 -0.27950928 
5108 -0.27947924 
5109 -0.27955005 
5110 -0.2795581 
5111 -0.27950177 
5112 -0.27946314 
5113 -0.27952483 
5114 -0.27954414 
5115 -0.2794331 
5116 -0.27951625 
5117 -0.27931508 
5118 -0.27906725 
5119 -0.2790222 
5120 -0.27902165 
5121 -0.27907422 
5122 -0.27917185 
5123 -0.27927378 
5124 -0.2793639 
5125 -0.2793226 
5126 -0.27932742 
5127 -0.27939072 
5128 -0.27937892 
5129 -0.27923515 
5130 -0.27941754 
5131 -0.27948675 
5132 -0.27950338 
5133 -0.27954683 
5134 -0.27950606 
5135 -0.27962354 
5136 -0.27964768 
5137 -0.27973244 
5138 -0.27977803 
5139 -0.27960154 
5140 -0.27945617 
5141 -0.2793773 
5142 -0.27926895 
5143 -0.27925608 
5144 -0.27930382 
5145 -0.27930436 
5146 -0.27935317 
5147 -0.27936605 
5148 -0.27931562 
5149 -0.27936336 
5150 -0.27955595 
5151 -0.27967665 
5152 -0.2798086 
5153 -0.27987084 
5154 -0.27974156 
5155 -0.2796761 
5156 -0.27971634 
5157 -0.27971205 
5158 -0.2795892 
5159 -0.27945617 
5160 -0.2793317 
5161 -0.27932903 
5162 -0.27942076 
5163 -0.2794374 
5164 -0.27944973 
5165 -0.27969542 
5166 -0.27977267 
5167 -0.27969918 
5168 -0.2796466 
5169 -0.27960745 
5170 -0.27958867 
5171 -0.2795259 
5172 -0.27958813 
5173 -0.2796611 
5174 -0.2796053 
5175 -0.2795742 
5176 -0.2794889 
5177 -0.2795098 
5178 -0.27951625 
5179 -0.2794095 
5180 -0.27931294 
5181 -0.27926466 
5182 -0.2793183 
5183 -0.27943578 
5184 -0.2794921 
5185 -0.27959296 
5186 -0.27961335 
5187 -0.27962247 
5188 -0.27963158 
5189 -0.27973887 
5190 -0.27976677 
5191 -0.2797936 
5192 -0.27983704 
5193 -0.27979735 
5194 -0.27983543 
5195 -0.2798955 
5196 -0.27988586 
5197 -0.27990463 
5198 -0.27980646 
5199 -0.27965036 
5200 -0.27942345 
5201 -0.27924213 
5202 -0.2792534 
5203 -0.2792566 
5204 -0.27931884 
5205 -0.2795302 
5206 -0.2796879 
5207 -0.27976516 
5208 -0.27976462 
5209 -0.2797362 
5210 -0.27980056 
5211 -0.27991 
5212 -0.27978447 
5213 -0.279851 
5214 -0.27990785 
5215 -0.27972868 
5216 -0.2795731 
5217 -0.2793977 
5218 -0.27929148 
5219 -0.27933332 
5220 -0.27944008 
5221 -0.27959242 
5222 -0.27962622 
5223 -0.27956775 
5224 -0.2796037 
5225 -0.27981934 
5226 -0.27997062 
5227 -0.27990356 
5228 -0.2798628 
5229 -0.2797555 
5230 -0.2796922 
5231 -0.27978984 
5232 -0.27966645 
5233 -0.27955273 
5234 -0.27951518 
5235 -0.27952054 
5236 -0.27961227 
5237 -0.2796863 
5238 -0.2798263 
5239 -0.27991268 
5240 -0.27998027 
5241 -0.2798907 
5242 -0.27985743 
5243 -0.27984777 
5244 -0.27981827 
5245 -0.2796423 
5246 -0.27955702 
5247 -0.2797689 
5248 -0.27984402 
5249 -0.27998564 
5250 -0.28013584 
5251 -0.2802072 
5252 -0.28016427 
5253 -0.28009507 
5254 -0.28010044 
5255 -0.27999315 
5256 -0.27995613 
5257 -0.27995506 
5258 -0.27990517 
5259 -0.27979574 
5260 -0.2798113 
5261 -0.2799025 
5262 -0.27981988 
5263 -0.27989444 
5264 -0.28002587 
5265 -0.28004894 
5266 -0.28001997 
5267 -0.27997813 
5268 -0.2799631 
5269 -0.28003177 
5270 -0.28009722 
5271 -0.280175 
5272 -0.28016052 
5273 -0.2799218 
5274 -0.27999637 
5275 -0.28003284 
5276 -0.28000495 
5277 -0.27990624 
5278 -0.2798408 
5279 -0.27991912 
5280 -0.2799835 
5281 -0.28010044 
5282 -0.2800543 
5283 -0.28001085 
5284 -0.28001836 
5285 -0.28016213 
5286 -0.28029838 
5287 -0.2802308 
5288 -0.27998832 
5289 -0.279829 
5290 -0.27975336 
5291 -0.2796375 
5292 -0.27954844 
5293 -0.2795157 
5294 -0.2795216 
5295 -0.2795978 
5296 -0.2798703 
5297 -0.2800307 
5298 -0.280116 
5299 -0.2801439 
5300 -0.2801369 
5301 -0.28013477 
5302 -0.280234 
5303 -0.28020343 
5304 -0.28024527 
5305 -0.28011224 
5306 -0.27996472 
5307 -0.2799497 
5308 -0.27994218 
5309 -0.27994058 
5310 -0.27997008 
5311 -0.27999637 
5312 -0.28012565 
5313 -0.28012618 
5314 -0.2800409 
5315 -0.28005376 
5316 -0.28001997 
5317 -0.27996954 
5318 -0.27983436 
5319 -0.27975228 
5320 -0.27987513 
5321 -0.27978072 
5322 -0.2798113 
5323 -0.27987996 
5324 -0.2801337 
5325 -0.28033808 
5326 -0.28034398 
5327 -0.2802839 
5328 -0.28031877 
5329 -0.28041264 
5330 -0.28047273 
5331 -0.28037724 
5332 -0.28039494 
5333 -0.28042606 
5334 -0.2804046 
5335 -0.28037187 
5336 -0.28036705 
5337 -0.2802839 
5338 -0.28031233 
5339 -0.28034022 
5340 -0.28038046 
5341 -0.28030643 
5342 -0.28027424 
5343 -0.28033486 
5344 -0.28028765 
5345 -0.28031608 
5346 -0.28031072 
5347 -0.2802619 
5348 -0.2800924 
5349 -0.2800677 
5350 -0.28012887 
5351 -0.28009722 
5352 -0.28010687 
5353 -0.28003874 
5354 -0.28009614 
5355 -0.28001568 
5356 -0.28005323 
5357 -0.2799808 
5358 -0.27997223 
5359 -0.2800543 
5360 -0.28021845 
5361 -0.28031072 
5362 -0.2803912 
5363 -0.28051725 
5364 -0.280587 
5365 -0.28054193 
5366 -0.28046468 
5367 -0.28033432 
5368 -0.28020933 
5369 -0.2800983 
5370 -0.2801498 
5371 -0.27993628 
5372 -0.27979198 
5373 -0.2799057 
5374 -0.2799352 
5375 -0.28003713 
5376 -0.2802045 
5377 -0.280278 
5378 -0.28026083 
5379 -0.28029248 
5380 -0.28028336 
5381 -0.28020987 
5382 -0.28004357 
5383 -0.2798569 
5384 -0.27988425 
5385 -0.28018627 
5386 -0.28029677 
5387 -0.28042713 
5388 -0.28048185 
5389 -0.28045556 
5390 -0.2803751 
5391 -0.28048185 
5392 -0.2804475 
5393 -0.28033754 
5394 -0.28025976 
5395 -0.28019914 
5396 -0.28022167 
5397 -0.28018948 
5398 -0.28013745 
5399 -0.28010687 
5400 -0.28019968 
5401 -0.28018466 
5402 -0.28001568 
5403 -0.27986816 
5404 -0.27992448 
5405 -0.27992716 
5406 -0.27994433 
5407 -0.28000602 
5408 -0.28014818 
5409 -0.2801589 
5410 -0.28017768 
5411 -0.2803327 
5412 -0.2805076 
5413 -0.2805253 
5414 -0.2804663 
5415 -0.28045288 
5416 -0.2805414 
5417 -0.28044483 
5418 -0.28036436 
5419 -0.2802957 
5420 -0.28016803 
5421 -0.2800881 
5422 -0.28006878 
5423 -0.28017393 
5424 -0.28030857 
5425 -0.28027907 
5426 -0.28026083 
5427 -0.28025225 
5428 -0.280197 
5429 -0.2803853 
5430 -0.28059986 
5431 -0.2805843 
5432 -0.28055534 
5433 -0.28048345 
5434 -0.28034934 
5435 -0.28035578 
5436 -0.2803413 
5437 -0.2802249 
5438 -0.28013209 
5439 -0.28004465 
5440 -0.28001192 
5441 -0.28010795 
5442 -0.27999154 
5443 -0.2800999 
5444 -0.28030375 
5445 -0.28041747 
5446 -0.28047702 
5447 -0.28033754 
5448 -0.2802796 
5449 -0.28046468 
5450 -0.28047326 
5451 -0.28044108 
5452 -0.2805564 
5453 -0.28067175 
5454 -0.2806959 
5455 -0.28064224 
5456 -0.28048453 
5457 -0.28031126 
5458 -0.28021792 
5459 -0.2800747 
5460 -0.2799615 
5461 -0.27995774 
5462 -0.27996793 
5463 -0.27991375 
5464 -0.28003284 
5465 -0.28024098 
5466 -0.28036705 
5467 -0.28033218 
5468 -0.2803338 
5469 -0.2803869 
5470 -0.2804062 
5471 -0.28036436 
5472 -0.28036222 
5473 -0.28033003 
5474 -0.28033164 
5475 -0.28042498 
5476 -0.280462 
5477 -0.28036705 
5478 -0.28022006 
5479 -0.28019807 
5480 -0.28013316 
5481 -0.28009185 
5482 -0.2799749 
5483 -0.2798837 
5484 -0.27988693 
5485 -0.28007147 
5486 -0.28019378 
5487 -0.28029355 
5488 -0.28025547 
5489 -0.2803295 
5490 -0.28037563 
5491 -0.28048453 
5492 -0.28043142 
5493 -0.28034022 
5494 -0.28059933 
5495 -0.28066584 
5496 -0.2806122 
5497 -0.28063795 
5498 -0.2806696 
5499 -0.2805682 
5500 -0.28047702 
5501 -0.28040835 
5502 -0.2804738 
5503 -0.28035417 
5504 -0.2802544 
5505 -0.28049257 
5506 -0.28041264 
5507 -0.28035632 
5508 -0.28041425 
5509 -0.28041908 
5510 -0.28042552 
5511 -0.28039172 
5512 -0.2804282 
5513 -0.28052905 
5514 -0.28053012 
5515 -0.28047165 
5516 -0.28042176 
5517 -0.2803268 
5518 -0.2802544 
5519 -0.27999422 
5520 -0.2799792 
5521 -0.28014496 
5522 -0.28011975 
5523 -0.28014442 
5524 -0.28008327 
5525 -0.28000763 
5526 -0.28000763 
5527 -0.28012243 
5528 -0.2801825 
5529 -0.28031233 
5530 -0.28038904 
5531 -0.28040943 
5532 -0.28035793 
5533 -0.28023508 
5534 -0.28041747 
5535 -0.28051832 
5536 -0.28047004 
5537 -0.28041533 
5538 -0.2802823 
5539 -0.28012243 
5540 -0.2803118 
5541 -0.28023025 
5542 -0.28021255 
5543 -0.28029034 
5544 -0.2803209 
5545 -0.2802796 
5546 -0.28035954 
5547 -0.28025708 
5548 -0.2801954 
5549 -0.28021523 
5550 -0.28016534 
5551 -0.28020236 
5552 -0.28025922 
5553 -0.28035095 
5554 -0.28024045 
5555 -0.28017285 
5556 -0.27996472 
5557 -0.27994594 
5558 -0.2798746 
5559 -0.27980915 
5560 -0.27985528 
5561 -0.27982792 
5562 -0.27982846 
5563 -0.27982524 
5564 -0.27982095 
5565 -0.2799336 
5566 -0.2800999 
5567 -0.28017125 
5568 -0.28009668 
5569 -0.2800881 
5570 -0.28009507 
5571 -0.28005484 
5572 -0.28004357 
5573 -0.28009024 
5574 -0.27998778 
5575 -0.2799615 
5576 -0.27994058 
5577 -0.27996418 
5578 -0.27977428 
5579 -0.279763 
5580 -0.27970722 
5581 -0.27969489 
5582 -0.27966967 
5583 -0.2797689 
5584 -0.2798086 
5585 -0.27978125 
5586 -0.27973512 
5587 -0.2798247 
5588 -0.27996632 
5589 -0.28001568 
5590 -0.28002748 
5591 -0.28012404 
5592 -0.28014657 
5593 -0.28012243 
5594 -0.28023723 
5595 -0.28027263 
5596 -0.2801616 
5597 -0.28017876 
5598 -0.28022972 
5599 -0.28027532 
5600 -0.28020665 
5601 -0.28019914 
5602 -0.28011546 
5603 -0.27995452 
5604 -0.27995935 
5605 -0.28010526 
5606 -0.28004465 
5607 -0.27998832 
5608 -0.28000173 
5609 -0.27993575 
5610 -0.27995935 
5611 -0.28005806 
5612 -0.2800865 
5613 -0.28009775 
5614 -0.2801707 
5615 -0.28017232 
5616 -0.28005752 
5617 -0.2800559 
5618 -0.27997866 
5619 -0.2798467 
5620 -0.2798129 
5621 -0.27995238 
5622 -0.28000334 
5623 -0.27996418 
5624 -0.279969 
5625 -0.27997866 
5626 -0.27994004 
5627 -0.2799497 
5628 -0.27991644 
5629 -0.27991858 
5630 -0.28003392 
5631 -0.2800881 
5632 -0.28001782 
5633 -0.28001353 
5634 -0.27998564 
5635 -0.2800366 
5636 -0.2801471 
5637 -0.2800484 
5638 -0.27996042 
5639 -0.27989176 
5640 -0.27985153 
5641 -0.27982202 
5642 -0.27977 
5643 -0.27980056 
5644 -0.27995613 
5645 -0.27993467 
5646 -0.2800146 
5647 -0.28002748 
5648 -0.27996632 
5649 -0.28015193 
5650 -0.28018036 
5651 -0.2802029 
5652 -0.28014174 
5653 -0.2800232 
5654 -0.2799792 
5655 -0.2799749 
5656 -0.2800645 
5657 -0.28017178 
5658 -0.27999797 
5659 -0.27993682 
5660 -0.27984026 
5661 -0.27967772 
5662 -0.27965412 
5663 -0.27964553 
5664 -0.27970937 
5665 -0.27977696 
5666 -0.2798907 
5667 -0.2798864 
5668 -0.27992663 
5669 -0.27999797 
5670 -0.2800736 
5671 -0.28015247 
5672 -0.28017232 
5673 -0.28025386 
5674 -0.28035578 
5675 -0.28036973 
5676 -0.28027585 
5677 -0.2801927 
5678 -0.280094 
5679 -0.28009132 
5680 -0.27991912 
5681 -0.27974907 
5682 -0.27976194 
5683 -0.27971795 
5684 -0.27968147 
5685 -0.27977106 
5686 -0.27978715 
5687 -0.279726 
5688 -0.27992287 
5689 -0.2800854 
5690 -0.28015622 
5691 -0.2802104 
5692 -0.2801793 
5693 -0.2801498 
5694 -0.2802045 
5695 -0.28030053 
5696 -0.28030106 
5697 -0.28055534 
5698 -0.28043625 
5699 -0.28039333 
5700 -0.2802694 
5701 -0.28016105 
5702 -0.28009722 
5703 -0.27990785 
5704 -0.27997383 
5705 -0.28009078 
5706 -0.28001943 
5707 -0.27998456 
5708 -0.28008595 
5709 -0.280116 
5710 -0.2800881 
5711 -0.27998886 
5712 -0.2799985 
5713 -0.28003177 
5714 -0.2799717 
5715 -0.28000495 
5716 -0.27998725 
5717 -0.2799808 
5718 -0.2799143 
5719 -0.2798263 
5720 -0.27976462 
5721 -0.2798719 
5722 -0.279932 
