# 3:1 
0 -0.06891454 
1 -0.06892795 
2 -0.06866831 
3 -0.06862915 
4 -0.06874288 
5 -0.06898803 
6 -0.069245525 
7 -0.06934262 
8 -0.06938232 
9 -0.06936408 
10 -0.06934745 
11 -0.069403775 
12 -0.06941772 
13 -0.06930668 
14 -0.06920583 
15 -0.069098 
16 -0.0691377 
17 -0.06926108 
18 -0.06930775 
19 -0.06910283 
20 -0.06910927 
21 -0.06914682 
22 -0.06908942 
23 -0.069029875 
24 -0.06907923 
25 -0.06921441 
26 -0.06902666 
27 -0.068992324 
28 -0.069130726 
29 -0.06916935 
30 -0.06907708 
31 -0.069022365 
32 -0.06927986 
33 -0.06936032 
34 -0.06940807 
35 -0.06933618 
36 -0.06922085 
37 -0.069334574 
38 -0.06955827 
39 -0.06942309 
40 -0.06923694 
41 -0.06918598 
42 -0.069284685 
43 -0.06942416 
44 -0.06938822 
45 -0.06929917 
46 -0.06919081 
47 -0.069096394 
48 -0.06913609 
49 -0.06917257 
50 -0.06911785 
51 -0.06913716 
52 -0.06917418 
53 -0.06911463 
54 -0.068960674 
55 -0.068894155 
56 -0.068989106 
57 -0.068998225 
58 -0.06904597 
59 -0.06921119 
60 -0.06933618 
61 -0.06938661 
62 -0.06928683 
63 -0.06925786 
64 -0.06928522 
65 -0.06925518 
66 -0.06916291 
67 -0.06909961 
68 -0.0690921 
69 -0.06917096 
70 -0.06924499 
71 -0.06917525 
72 -0.069085665 
73 -0.069273956 
74 -0.06941075 
75 -0.069379635 
76 -0.06910659 
77 -0.069072254 
78 -0.06922192 
79 -0.06922836 
80 -0.06923158 
81 -0.0691554 
82 -0.06910015 
83 -0.06929863 
84 -0.06943757 
85 -0.069378026 
86 -0.06937266 
87 -0.06951053 
88 -0.069497116 
89 -0.069290586 
90 -0.06911195 
91 -0.0690347 
92 -0.068989106 
93 -0.069022365 
94 -0.06913341 
95 -0.06920958 
96 -0.06905455 
97 -0.06900627 
98 -0.06920154 
99 -0.06931312 
100 -0.06930936 
101 -0.068921514 
102 -0.06866241 
103 -0.06896926 
104 -0.0691259 
105 -0.069260545 
106 -0.06935067 
107 -0.06945259 
108 -0.06949014 
109 -0.069385 
110 -0.069204755 
111 -0.06908245 
112 -0.06905777 
113 -0.069118924 
114 -0.06909425 
115 -0.069147356 
116 -0.06916935 
117 -0.06917096 
118 -0.06932277 
119 -0.069385536 
120 -0.069236405 
121 -0.06933618 
122 -0.069498725 
123 -0.06931741 
124 -0.06915594 
125 -0.06919349 
126 -0.0692643 
127 -0.069139846 
128 -0.06915433 
129 -0.06923158 
130 -0.06923104 
131 -0.06925625 
132 -0.069301315 
133 -0.0693732 
134 -0.0693673 
135 -0.06926537 
136 -0.06912375 
137 -0.06901593 
138 -0.06896121 
139 -0.068992324 
140 -0.06902022 
141 -0.06903095 
142 -0.06897677 
143 -0.06899769 
144 -0.068977304 
145 -0.06902934 
146 -0.06914789 
147 -0.06891186 
148 -0.068695135 
149 -0.06887431 
150 -0.069094785 
151 -0.068924196 
152 -0.06897945 
153 -0.06928254 
154 -0.069474585 
155 -0.06958831 
156 -0.069567926 
157 -0.06933028 
158 -0.06920744 
159 -0.06931741 
160 -0.0691892 
161 -0.069299705 
162 -0.06965805 
163 -0.069690235 
164 -0.069526084 
165 -0.06946815 
166 -0.06933028 
167 -0.06931365 
168 -0.069308825 
169 -0.06917632 
170 -0.06908513 
171 -0.06902022 
172 -0.06901217 
173 -0.06909961 
174 -0.06919349 
175 -0.06912161 
176 -0.06913877 
177 -0.06911839 
178 -0.069029875 
179 -0.06901378 
180 -0.069467075 
181 -0.06949926 
182 -0.0691436 
183 -0.069197245 
184 -0.0691613 
185 -0.068983205 
186 -0.06917257 
187 -0.069426306 
188 -0.06946761 
189 -0.06942684 
190 -0.06927503 
191 -0.06929434 
192 -0.069191344 
193 -0.06906582 
194 -0.06925733 
195 -0.06930668 
196 -0.069251426 
197 -0.06914628 
198 -0.069143064 
199 -0.0691436 
200 -0.06921119 
201 -0.069253035 
202 -0.06922192 
203 -0.069132335 
204 -0.06911034 
205 -0.0690685 
206 -0.06896711 
207 -0.068856604 
208 -0.06879545 
209 -0.06898803 
210 -0.06908674 
211 -0.069111414 
212 -0.06910122 
213 -0.06907601 
214 -0.068921514 
215 -0.068879135 
216 -0.06891508 
217 -0.068879135 
218 -0.06916935 
219 -0.069206364 
220 -0.069079764 
221 -0.069156475 
222 -0.06922621 
223 -0.06915701 
224 -0.06911624 
225 -0.06917364 
226 -0.06918437 
227 -0.06919832 
228 -0.069275565 
229 -0.0692761 
230 -0.0691774 
231 -0.06912161 
232 -0.06903792 
233 -0.068895765 
234 -0.06876273 
235 -0.068900056 
236 -0.068934925 
237 -0.06890864 
238 -0.06900198 
239 -0.06911463 
240 -0.069147356 
241 -0.0691613 
242 -0.0691774 
243 -0.06922675 
244 -0.069247134 
245 -0.06918759 
246 -0.06901378 
247 -0.06899286 
248 -0.06911302 
249 -0.06920422 
250 -0.06903041 
251 -0.06881852 
252 -0.06891883 
253 -0.06902505 
254 -0.06902666 
255 -0.069167204 
256 -0.069254644 
257 -0.06937588 
258 -0.069299705 
259 -0.06918169 
260 -0.06920046 
261 -0.06919671 
262 -0.06922192 
263 -0.069310434 
264 -0.06920368 
265 -0.06912268 
266 -0.06906635 
267 -0.06909854 
268 -0.06933028 
269 -0.06928254 
270 -0.06914521 
271 -0.06919939 
272 -0.06937534 
273 -0.06940699 
274 -0.06943489 
275 -0.06935979 
276 -0.06931526 
277 -0.06932867 
278 -0.06940056 
279 -0.069409676 
280 -0.06944991 
281 -0.06950302 
282 -0.06943918 
283 -0.06933565 
284 -0.06939251 
285 -0.06946493 
286 -0.06944508 
287 -0.069394656 
288 -0.06936247 
289 -0.06936676 
290 -0.06936032 
291 -0.06924499 
292 -0.069067426 
293 -0.06891561 
294 -0.068924196 
295 -0.06920207 
296 -0.06930453 
297 -0.06931312 
298 -0.06934906 
299 -0.069308825 
300 -0.06932009 
301 -0.06932331 
302 -0.06922085 
303 -0.069213875 
304 -0.0692069 
305 -0.06919027 
306 -0.06920154 
307 -0.06923533 
308 -0.06914253 
309 -0.068968184 
310 -0.06894619 
311 -0.069070645 
312 -0.06904114 
313 -0.06910766 
314 -0.069043286 
315 -0.068814225 
316 -0.06871123 
317 -0.06895209 
318 -0.06927449 
319 -0.069299705 
320 -0.069260545 
321 -0.06931151 
322 -0.069387145 
323 -0.06933779 
324 -0.06929166 
325 -0.06922943 
326 -0.069152184 
327 -0.06919081 
328 -0.06934155 
329 -0.069286294 
330 -0.06912 
331 -0.06908888 
332 -0.06911088 
333 -0.06940431 
334 -0.06954003 
335 -0.069418795 
336 -0.06937642 
337 -0.06935496 
338 -0.0693276 
339 -0.06932063 
340 -0.0693276 
341 -0.06934155 
342 -0.0693732 
343 -0.069219775 
344 -0.06889362 
345 -0.06892956 
346 -0.06924338 
347 -0.06931687 
348 -0.06931955 
349 -0.06919832 
350 -0.069059916 
351 -0.06909586 
352 -0.06904972 
353 -0.06928254 
354 -0.06931097 
355 -0.06912536 
356 -0.0693335 
357 -0.06964142 
358 -0.0695057 
359 -0.06930668 
360 -0.06919671 
361 -0.06931312 
362 -0.06938393 
363 -0.0694365 
364 -0.06940109 
365 -0.069461174 
366 -0.06946439 
367 -0.06932492 
368 -0.06923104 
369 -0.06899715 
370 -0.06895477 
371 -0.06915379 
372 -0.06912268 
373 -0.068871625 
374 -0.06887484 
375 -0.069044895 
376 -0.06907011 
377 -0.06884802 
378 -0.068886645 
379 -0.06917847 
380 -0.06933994 
381 -0.06926913 
382 -0.06930614 
383 -0.069370516 
384 -0.06935496 
385 -0.0693276 
386 -0.06922568 
387 -0.06925357 
388 -0.06922997 
389 -0.06885875 
390 -0.068735905 
391 -0.06905831 
392 -0.06918008 
393 -0.0690921 
394 -0.06879545 
395 -0.06881959 
396 -0.06915916 
397 -0.06920744 
398 -0.06929166 
399 -0.069186516 
400 -0.0690229 
401 -0.06912 
402 -0.06905938 
403 -0.06914092 
404 -0.06940592 
405 -0.06932921 
406 -0.069017 
407 -0.06906957 
408 -0.06930775 
409 -0.06930453 
410 -0.06929166 
411 -0.069028266 
412 -0.06904543 
413 -0.06933994 
414 -0.069397874 
415 -0.06935979 
416 -0.06939251 
417 -0.06944025 
418 -0.06954218 
419 -0.069626935 
420 -0.069444545 
421 -0.06930614 
422 -0.0693276 
423 -0.069079764 
424 -0.068944044 
425 -0.0691495 
426 -0.06942845 
427 -0.06929863 
428 -0.06916989 
429 -0.06948853 
430 -0.06960923 
431 -0.069347985 
432 -0.06918598 
433 -0.06902773 
434 -0.06877721 
435 -0.06903953 
436 -0.069357105 
437 -0.06931526 
438 -0.06924606 
439 -0.06926913 
440 -0.06933618 
441 -0.06934369 
442 -0.06926537 
443 -0.069238015 
444 -0.06933189 
445 -0.06939895 
446 -0.06936408 
447 -0.06921495 
448 -0.06883193 
449 -0.068655975 
450 -0.06914575 
451 -0.069412895 
452 -0.06925035 
453 -0.069111414 
454 -0.06910498 
455 -0.069072254 
456 -0.068996616 
457 -0.069218166 
458 -0.06948853 
459 -0.0694483 
460 -0.06949014 
461 -0.0694086 
462 -0.06933082 
463 -0.06940592 
464 -0.069437034 
465 -0.06944991 
466 -0.069412895 
467 -0.069167204 
468 -0.069128044 
469 -0.069189735 
470 -0.06922568 
471 -0.069189735 
472 -0.06896872 
473 -0.06896336 
474 -0.06931955 
475 -0.06936247 
476 -0.06903256 
477 -0.06874878 
478 -0.06899179 
479 -0.06958348 
480 -0.06969667 
481 -0.069531985 
482 -0.069390364 
483 -0.06942094 
484 -0.06940324 
485 -0.0691774 
486 -0.0689419 
487 -0.06897516 
488 -0.06929702 
489 -0.06951589 
490 -0.06952072 
491 -0.069435425 
492 -0.069271274 
493 -0.069212265 
494 -0.069154866 
495 -0.06909103 
496 -0.0691613 
497 -0.069433816 
498 -0.069435425 
499 -0.069531985 
500 -0.0695293 
501 -0.06946761 
502 -0.06939197 
503 -0.06940431 
504 -0.06939734 
505 -0.0693791 
506 -0.06935174 
507 -0.06926484 
508 -0.06918169 
509 -0.06902719 
510 -0.06896979 
511 -0.069346376 
512 -0.06942577 
513 -0.06932009 
514 -0.06926001 
515 -0.06925035 
516 -0.06917847 
517 -0.06919832 
518 -0.06929005 
519 -0.06925035 
520 -0.06930078 
521 -0.06922192 
522 -0.069152184 
523 -0.06918544 
524 -0.06925411 
525 -0.06939251 
526 -0.06943006 
527 -0.06945635 
528 -0.06952769 
529 -0.06948907 
530 -0.06945581 
531 -0.06936998 
532 -0.06932653 
533 -0.069338866 
534 -0.06933028 
535 -0.06898696 
536 -0.06873537 
537 -0.06895531 
538 -0.06899286 
539 -0.06883944 
540 -0.068860896 
541 -0.06882227 
542 -0.06874395 
543 -0.06880564 
544 -0.06905133 
545 -0.06941772 
546 -0.06934155 
547 -0.069251426 
548 -0.06965376 
549 -0.06964571 
550 -0.069361396 
551 -0.06922836 
552 -0.0692879 
553 -0.06937588 
554 -0.06945635 
555 -0.06934316 
556 -0.06917525 
557 -0.06945688 
558 -0.06959421 
559 -0.0696382 
560 -0.06962801 
561 -0.069714375 
562 -0.06966341 
563 -0.06951267 
564 -0.06933672 
565 -0.0691833 
566 -0.06916077 
567 -0.06926752 
568 -0.06930507 
569 -0.069381244 
570 -0.06934423 
571 -0.06920207 
572 -0.06902344 
573 -0.068999834 
574 -0.06898052 
575 -0.069084056 
576 -0.06930936 
577 -0.06923372 
578 -0.06903524 
579 -0.06905884 
580 -0.06935228 
581 -0.069411285 
582 -0.06939734 
583 -0.06943006 
584 -0.06937105 
585 -0.06919939 
586 -0.06925035 
587 -0.069394656 
588 -0.0693394 
589 -0.06934316 
590 -0.0692466 
591 -0.069123216 
592 -0.06921334 
593 -0.06940109 
594 -0.06927503 
595 -0.06922621 
596 -0.069273956 
597 -0.06920958 
598 -0.06908352 
599 -0.069059916 
600 -0.06908674 
601 -0.06919242 
602 -0.069402166 
603 -0.06961245 
604 -0.069602795 
605 -0.06946278 
606 -0.06919617 
607 -0.06889147 
608 -0.06853313 
609 -0.06872947 
610 -0.069212265 
611 -0.06969292 
612 -0.06955934 
613 -0.06943113 
614 -0.06931902 
615 -0.06926537 
616 -0.06925679 
617 -0.0691613 
618 -0.06928844 
619 -0.0696323 
620 -0.069589384 
621 -0.069437034 
622 -0.06944991 
623 -0.06954754 
624 -0.06936247 
625 -0.069139846 
626 -0.06922353 
627 -0.06930614 
628 -0.06924338 
629 -0.06921173 
630 -0.068925805 
631 -0.06867368 
632 -0.06880189 
633 -0.06904865 
634 -0.069277175 
635 -0.069394656 
636 -0.06938446 
637 -0.06933511 
638 -0.06942738 
639 -0.069515355 
640 -0.06941611 
641 -0.06927664 
642 -0.06928415 
643 -0.06937534 
644 -0.069299705 
645 -0.0691613 
646 -0.06900198 
647 -0.068785794 
648 -0.069019146 
649 -0.069394656 
650 -0.06959904 
651 -0.06959099 
652 -0.06958348 
653 -0.06953467 
654 -0.069422014 
655 -0.069247134 
656 -0.069033094 
657 -0.06912429 
658 -0.069461174 
659 -0.06960172 
660 -0.069656976 
661 -0.069604404 
662 -0.069541104 
663 -0.0692702 
664 -0.06923265 
665 -0.06936944 
666 -0.069589384 
667 -0.06962801 
668 -0.06957919 
669 -0.06963069 
670 -0.06962586 
671 -0.069565244 
672 -0.0696146 
673 -0.06939251 
674 -0.06936891 
675 -0.06967736 
676 -0.06978733 
677 -0.06950838 
678 -0.06937481 
679 -0.06945635 
680 -0.06961889 
681 -0.06950516 
682 -0.06935603 
683 -0.06934155 
684 -0.06948639 
685 -0.06945688 
686 -0.06921119 
687 -0.06894297 
688 -0.06875146 
689 -0.06884212 
690 -0.06901539 
691 -0.06917793 
692 -0.069163986 
693 -0.069074936 
694 -0.06910551 
695 -0.06940485 
696 -0.06962318 
697 -0.069735296 
698 -0.06965376 
699 -0.06966288 
700 -0.06962425 
701 -0.06956685 
702 -0.06967414 
703 -0.06978143 
704 -0.06982166 
705 -0.06982971 
706 -0.06972725 
707 -0.06952662 
708 -0.0691318 
709 -0.06876112 
710 -0.06836093 
711 -0.068402775 
712 -0.068745025 
713 -0.06892849 
714 -0.069094785 
715 -0.06939251 
716 -0.06955988 
717 -0.06951804 
718 -0.0698281 
719 -0.0701505 
720 -0.07016713 
721 -0.07003517 
722 -0.070103295 
723 -0.06998957 
724 -0.06958992 
725 -0.0692879 
726 -0.06932277 
727 -0.06946225 
728 -0.06940914 
729 -0.069236405 
730 -0.069100685 
731 -0.06911356 
732 -0.0690052 
733 -0.06890381 
734 -0.0688271 
735 -0.06904865 
736 -0.06916077 
737 -0.06927235 
738 -0.06928147 
739 -0.06941182 
740 -0.06967414 
741 -0.06968165 
742 -0.069556125 
743 -0.06949229 
744 -0.069504626 
745 -0.069524474 
746 -0.06943757 
747 -0.06945152 
748 -0.069613524 
749 -0.069578655 
750 -0.0692584 
751 -0.06928093 
752 -0.06944508 
753 -0.06941826 
754 -0.06923158 
755 -0.068949945 
756 -0.06899769 
757 -0.06939358 
758 -0.06944025 
759 -0.06948102 
760 -0.06938393 
761 -0.069154866 
762 -0.06919939 
763 -0.06923104 
764 -0.06907869 
765 -0.06919671 
766 -0.06944079 
767 -0.06941772 
768 -0.06941772 
769 -0.06938393 
770 -0.0692879 
771 -0.06929488 
772 -0.069322236 
773 -0.06926859 
774 -0.06922192 
775 -0.069260545 
776 -0.06925089 
777 -0.06925518 
778 -0.069277175 
779 -0.0694306 
780 -0.06947673 
781 -0.06911088 
782 -0.06916828 
783 -0.06948639 
784 -0.0695293 
785 -0.06949658 
786 -0.069393046 
787 -0.0692407 
788 -0.0691318 
789 -0.069385536 
790 -0.069554515 
791 -0.06953413 
792 -0.06944991 
793 -0.0695985 
794 -0.06961674 
795 -0.069497116 
796 -0.06945527 
797 -0.06939841 
798 -0.06938339 
799 -0.06939519 
800 -0.06954164 
801 -0.069466 
802 -0.069332965 
803 -0.06924123 
804 -0.06922997 
805 -0.06928361 
806 -0.06933565 
807 -0.06936837 
808 -0.06950677 
809 -0.06933511 
810 -0.0690229 
811 -0.06900144 
812 -0.06932438 
813 -0.0693099 
814 -0.06933833 
815 -0.06951857 
816 -0.069516964 
817 -0.069477804 
818 -0.06957007 
819 -0.069649465 
820 -0.06966663 
821 -0.069480486 
822 -0.069323845 
823 -0.0693673 
824 -0.06921173 
825 -0.069154866 
826 -0.0693158 
827 -0.06927771 
828 -0.068916686 
829 -0.06896872 
830 -0.06938446 
831 -0.0694939 
832 -0.069491215 
833 -0.06946332 
834 -0.069382854 
835 -0.069347985 
836 -0.069346376 
837 -0.06943274 
838 -0.069277175 
839 -0.06911356 
840 -0.069364615 
841 -0.06970472 
842 -0.06967736 
843 -0.06956417 
844 -0.06949014 
845 -0.06950892 
846 -0.06934101 
847 -0.06916023 
848 -0.06927771 
849 -0.0693968 
850 -0.06950516 
851 -0.06932921 
852 -0.06929005 
853 -0.06944186 
854 -0.0693673 
855 -0.06926323 
856 -0.069349594 
857 -0.06943757 
858 -0.06957168 
859 -0.06972242 
860 -0.06965644 
861 -0.06949497 
862 -0.06951428 
863 -0.06946064 
864 -0.06926484 
865 -0.069152184 
866 -0.06913716 
867 -0.06927503 
868 -0.06941933 
869 -0.06938822 
870 -0.06919939 
871 -0.06922568 
872 -0.06921763 
873 -0.06930346 
874 -0.06938178 
875 -0.069301315 
876 -0.06946439 
877 -0.069943435 
878 -0.07011778 
879 -0.06992573 
880 -0.06979752 
881 -0.07000781 
882 -0.07008184 
883 -0.069795914 
884 -0.06965805 
885 -0.06965161 
886 -0.06944186 
887 -0.06927825 
888 -0.06931312 
889 -0.06940431 
890 -0.06940002 
891 -0.06939734 
892 -0.06946761 
893 -0.069721885 
894 -0.06975729 
895 -0.069667704 
896 -0.06966878 
897 -0.069584556 
898 -0.06945903 
899 -0.06941772 
900 -0.069468684 
901 -0.06941665 
902 -0.06926591 
903 -0.0692069 
904 -0.06909532 
905 -0.06898803 
906 -0.06897355 
907 -0.06894297 
908 -0.06905723 
909 -0.069338866 
910 -0.06941343 
911 -0.06949175 
912 -0.069679506 
913 -0.06993056 
914 -0.07000781 
915 -0.06994987 
916 -0.06986994 
917 -0.069501944 
918 -0.069126435 
919 -0.069174714 
920 -0.06933565 
921 -0.06940914 
922 -0.06926752 
923 -0.06908137 
924 -0.06905616 
925 -0.06925196 
926 -0.069236405 
927 -0.06918491 
928 -0.069269665 
929 -0.0694027 
930 -0.06936998 
931 -0.06927288 
932 -0.06926537 
933 -0.06927664 
934 -0.06937105 
935 -0.069563635 
936 -0.069675215 
937 -0.069688626 
938 -0.069577046 
939 -0.06945849 
940 -0.06951214 
941 -0.06970418 
942 -0.06960709 
943 -0.069420405 
944 -0.06926323 
945 -0.06912429 
946 -0.06924928 
947 -0.0694086 
948 -0.06934477 
949 -0.06930024 
950 -0.069446154 
951 -0.06942148 
952 -0.06930614 
953 -0.06931365 
954 -0.06949926 
955 -0.06962479 
956 -0.069482096 
957 -0.06943221 
958 -0.06953306 
959 -0.06965376 
960 -0.0696323 
961 -0.069628544 
962 -0.06964625 
963 -0.06944669 
964 -0.06919939 
965 -0.069271274 
966 -0.069372125 
967 -0.06945635 
968 -0.06948853 
969 -0.069394656 
970 -0.0692407 
971 -0.06951965 
972 -0.06988443 
973 -0.069946654 
974 -0.069839366 
975 -0.069703646 
976 -0.069636054 
977 -0.06948639 
978 -0.069468684 
979 -0.06942255 
980 -0.06927932 
981 -0.06925572 
982 -0.0693791 
983 -0.06965912 
984 -0.069641955 
985 -0.06950677 
986 -0.06938983 
987 -0.06935979 
988 -0.06925357 
989 -0.069370516 
990 -0.069567926 
991 -0.06961084 
992 -0.06964839 
993 -0.06980611 
994 -0.0698619 
995 -0.06976534 
996 -0.06957061 
997 -0.0693217 
998 -0.06909747 
999 -0.06919456 
1000 -0.06924874 
1001 -0.06939734 
1002 -0.06935067 
1003 -0.06928361 
1004 -0.06926913 
1005 -0.06908084 
1006 -0.06908245 
1007 -0.069292195 
1008 -0.069268055 
1009 -0.06922085 
1010 -0.06930239 
1011 -0.069258936 
1012 -0.06936891 
1013 -0.069569536 
1014 -0.06975997 
1015 -0.069712766 
1016 -0.06972671 
1017 -0.069738515 
1018 -0.06968809 
1019 -0.069625326 
1020 -0.06935764 
1021 -0.06914467 
1022 -0.06936032 
1023 -0.06941665 
1024 -0.06928898 
1025 -0.06936032 
1026 -0.06947244 
1027 -0.069388755 
1028 -0.06928361 
1029 -0.06935335 
1030 -0.06938017 
1031 -0.06923587 
1032 -0.06903792 
1033 -0.069108196 
1034 -0.06940431 
1035 -0.06949926 
1036 -0.06953735 
1037 -0.069409676 
1038 -0.06929863 
1039 -0.06918544 
1040 -0.06923426 
1041 -0.06935603 
1042 -0.069342084 
1043 -0.069182225 
1044 -0.069029875 
1045 -0.068877526 
1046 -0.06888772 
1047 -0.06913019 
1048 -0.06940699 
1049 -0.06941236 
1050 -0.069547005 
1051 -0.069593675 
1052 -0.06950409 
1053 -0.069577046 
1054 -0.069589384 
1055 -0.06949658 
1056 -0.06928898 
1057 -0.069361396 
1058 -0.06935496 
1059 -0.06938983 
1060 -0.069483705 
1061 -0.06938446 
1062 -0.06941933 
1063 -0.06938446 
1064 -0.06916828 
1065 -0.06908084 
1066 -0.069067426 
1067 -0.06908674 
1068 -0.06910122 
1069 -0.06904865 
1070 -0.068948336 
1071 -0.068889864 
1072 -0.068903275 
1073 -0.069070645 
1074 -0.06918491 
1075 -0.069266446 
1076 -0.06935979 
1077 -0.06929112 
1078 -0.069133945 
1079 -0.069308825 
1080 -0.06941933 
1081 -0.06942577 
1082 -0.06940056 
1083 -0.069387145 
1084 -0.069390364 
1085 -0.06935335 
1086 -0.069191344 
1087 -0.069091566 
1088 -0.06910176 
1089 -0.069143064 
1090 -0.06933082 
1091 -0.06930614 
1092 -0.06918008 
1093 -0.06918705 
1094 -0.06932331 
1095 -0.069405384 
1096 -0.069411285 
1097 -0.0695116 
1098 -0.06950141 
1099 -0.069444545 
1100 -0.0693335 
1101 -0.06935496 
1102 -0.06948746 
1103 -0.06945474 
1104 -0.06961299 
1105 -0.06971706 
1106 -0.069619425 
1107 -0.069474585 
1108 -0.06927986 
1109 -0.06930775 
1110 -0.069293804 
1111 -0.06921602 
1112 -0.069150575 
1113 -0.06911034 
1114 -0.069228895 
1115 -0.069307216 
1116 -0.06944025 
1117 -0.06959046 
1118 -0.06959582 
1119 -0.069492824 
1120 -0.06950355 
1121 -0.06970204 
1122 -0.06974173 
1123 -0.06976909 
1124 -0.069818445 
1125 -0.06967253 
1126 -0.06938446 
1127 -0.06912161 
1128 -0.06901003 
1129 -0.06895102 
1130 -0.069055624 
1131 -0.06908459 
1132 -0.0690803 
1133 -0.0690803 
1134 -0.0690052 
1135 -0.06903256 
1136 -0.06931955 
1137 -0.06959904 
1138 -0.0697192 
1139 -0.069700964 
1140 -0.06967039 
1141 -0.069842584 
1142 -0.06993271 
1143 -0.0698737 
1144 -0.06982381 
1145 -0.069788404 
1146 -0.06968755 
1147 -0.06953467 
1148 -0.069329746 
1149 -0.069284685 
1150 -0.069338866 
1151 -0.06937481 
1152 -0.06944401 
1153 -0.06953681 
1154 -0.06956417 
1155 -0.06956417 
1156 -0.0695513 
1157 -0.0695572 
1158 -0.06959099 
1159 -0.0696618 
1160 -0.069617815 
1161 -0.069580264 
1162 -0.06955827 
1163 -0.069323845 
1164 -0.0689537 
1165 -0.06895209 
1166 -0.069242306 
1167 -0.06896175 
1168 -0.069031484 
1169 -0.069506235 
1170 -0.06986136 
1171 -0.06981308 
1172 -0.06968594 
1173 -0.06981898 
1174 -0.070019074 
1175 -0.06985975 
1176 -0.06966502 
1177 -0.06981469 
1178 -0.069675215 
1179 -0.06953735 
1180 -0.06957222 
1181 -0.06962264 
1182 -0.0695352 
1183 -0.06944776 
1184 -0.06938178 
1185 -0.069420405 
1186 -0.06943328 
1187 -0.06934316 
1188 -0.069132335 
1189 -0.069069035 
1190 -0.0692128 
1191 -0.069459565 
1192 -0.06957168 
1193 -0.069636054 
1194 -0.06968487 
1195 -0.06973315 
1196 -0.069676824 
1197 -0.06961835 
1198 -0.06954271 
1199 -0.069459565 
1200 -0.0693791 
1201 -0.06946332 
1202 -0.06960172 
1203 -0.06963498 
1204 -0.06950838 
1205 -0.06929005 
1206 -0.069126435 
1207 -0.06900788 
1208 -0.068924196 
1209 -0.06893439 
1210 -0.06893063 
1211 -0.06899876 
1212 -0.06914521 
1213 -0.069147356 
1214 -0.069103904 
1215 -0.06918276 
1216 -0.06916774 
1217 -0.06905455 
1218 -0.06900627 
1219 -0.06911249 
1220 -0.06930024 
1221 -0.069293804 
1222 -0.069156475 
1223 -0.06926269 
1224 -0.069387145 
1225 -0.069411285 
1226 -0.06951857 
1227 -0.06933833 
1228 -0.06922407 
1229 -0.06937856 
1230 -0.069480486 
1231 -0.06934906 
1232 -0.06931902 
1233 -0.069448836 
1234 -0.06930078 
1235 -0.069154866 
1236 -0.06930239 
1237 -0.06951589 
1238 -0.069528766 
1239 -0.069417186 
1240 -0.06943113 
1241 -0.06953091 
1242 -0.06957758 
1243 -0.06958134 
1244 -0.0693909 
1245 -0.06925572 
1246 -0.06926752 
1247 -0.06942899 
1248 -0.069411285 
1249 -0.069218166 
1250 -0.06925518 
1251 -0.06944937 
1252 -0.06940753 
1253 -0.06908352 
1254 -0.06925625 
1255 -0.06949551 
1256 -0.06947941 
1257 -0.069444545 
1258 -0.0694086 
1259 -0.06941611 
1260 -0.06938607 
1261 -0.06941504 
1262 -0.06963659 
1263 -0.0696779 
1264 -0.069526084 
1265 -0.06942309 
1266 -0.06936515 
1267 -0.06930829 
1268 -0.06925572 
1269 -0.06926323 
1270 -0.069337256 
1271 -0.06932921 
1272 -0.06917632 
1273 -0.06929327 
1274 -0.06946493 
1275 -0.06943113 
1276 -0.069442935 
1277 -0.06949819 
1278 -0.06961084 
1279 -0.06959636 
1280 -0.06949604 
1281 -0.06955076 
1282 -0.06968326 
1283 -0.06976534 
1284 -0.06968326 
1285 -0.06939841 
1286 -0.06912965 
1287 -0.06908513 
1288 -0.06916989 
1289 -0.069334574 
1290 -0.06957436 
1291 -0.06966556 
1292 -0.0697074 
1293 -0.06966288 
1294 -0.06968487 
1295 -0.0695572 
1296 -0.06945259 
1297 -0.06949068 
1298 -0.06947405 
1299 -0.069370516 
1300 -0.06947673 
1301 -0.06966663 
1302 -0.06984044 
1303 -0.06982649 
1304 -0.06971706 
1305 -0.069636054 
1306 -0.06950087 
1307 -0.069271274 
1308 -0.0691613 
1309 -0.06908191 
1310 -0.06924874 
1311 -0.0694027 
1312 -0.0693158 
1313 -0.06939841 
1314 -0.06957061 
1315 -0.06950355 
1316 -0.06939895 
1317 -0.0692187 
1318 -0.06910015 
1319 -0.06919081 
1320 -0.06945849 
1321 -0.0696205 
1322 -0.06962211 
1323 -0.06955076 
1324 -0.06942738 
1325 -0.06956417 
1326 -0.06978465 
1327 -0.06980664 
1328 -0.06968326 
1329 -0.06962425 
1330 -0.06951804 
1331 -0.06956417 
1332 -0.06966073 
1333 -0.06961889 
1334 -0.069625326 
1335 -0.06951428 
1336 -0.069308825 
1337 -0.069204755 
1338 -0.06917096 
1339 -0.06933189 
1340 -0.06944186 
1341 -0.06937749 
1342 -0.06918115 
1343 -0.069215484 
1344 -0.069477804 
1345 -0.069452055 
1346 -0.069323845 
1347 -0.069504626 
1348 -0.069786794 
1349 -0.06993968 
1350 -0.069810934 
1351 -0.069688626 
1352 -0.06965483 
1353 -0.06970257 
1354 -0.06966556 
1355 -0.06966073 
1356 -0.069619425 
1357 -0.06968004 
1358 -0.06961835 
1359 -0.06946439 
1360 -0.06917954 
1361 -0.06909103 
1362 -0.06943918 
1363 -0.06962425 
1364 -0.06945527 
1365 -0.069394656 
1366 -0.06959421 
1367 -0.069732614 
1368 -0.069816835 
1369 -0.06972081 
1370 -0.06957436 
1371 -0.069617815 
1372 -0.06970579 
1373 -0.069886036 
1374 -0.06988067 
1375 -0.06973798 
1376 -0.06952662 
1377 -0.069382854 
1378 -0.069308825 
1379 -0.06909049 
1380 -0.0689655 
1381 -0.06901217 
1382 -0.06916452 
1383 -0.06920046 
1384 -0.069301315 
1385 -0.069468684 
1386 -0.06955076 
1387 -0.06966663 
1388 -0.06958187 
1389 -0.069409676 
1390 -0.069521256 
1391 -0.06952233 
1392 -0.069516964 
1393 -0.069770165 
1394 -0.06986994 
1395 -0.06985385 
1396 -0.06972457 
1397 -0.06971169 
1398 -0.069771774 
1399 -0.069664486 
1400 -0.069418795 
1401 -0.069238015 
1402 -0.06912429 
1403 -0.06908084 
1404 -0.06888021 
1405 -0.06892795 
1406 -0.06911249 
1407 -0.06920046 
1408 -0.06931204 
1409 -0.069506235 
1410 -0.06960065 
1411 -0.069632836 
1412 -0.06953842 
1413 -0.06944937 
1414 -0.069442935 
1415 -0.06945474 
1416 -0.06956417 
1417 -0.069509454 
1418 -0.06945635 
1419 -0.069457956 
1420 -0.069349594 
1421 -0.06936515 
1422 -0.06927664 
1423 -0.069271274 
1424 -0.06935174 
1425 -0.069094785 
1426 -0.06876058 
1427 -0.06894297 
1428 -0.06941933 
1429 -0.0693217 
1430 -0.06922621 
1431 -0.06948263 
1432 -0.0695985 
1433 -0.06950999 
1434 -0.06956846 
1435 -0.06966556 
1436 -0.06977285 
1437 -0.06989623 
1438 -0.06970204 
1439 -0.06957222 
1440 -0.06959475 
1441 -0.06954379 
1442 -0.06939841 
1443 -0.0692879 
1444 -0.069263764 
1445 -0.06931687 
1446 -0.06932277 
1447 -0.06920154 
1448 -0.06923533 
1449 -0.06948907 
1450 -0.06955559 
1451 -0.069347985 
1452 -0.06923158 
1453 -0.069323845 
1454 -0.069427915 
1455 -0.06946493 
1456 -0.06938178 
1457 -0.06928361 
1458 -0.06926323 
1459 -0.06923748 
1460 -0.06926591 
1461 -0.06932063 
1462 -0.06940592 
1463 -0.06951589 
1464 -0.06947512 
1465 -0.06943757 
1466 -0.06941343 
1467 -0.06938017 
1468 -0.06940807 
1469 -0.06950087 
1470 -0.06944562 
1471 -0.06935335 
1472 -0.069357105 
1473 -0.06934423 
1474 -0.06927449 
1475 -0.06923426 
1476 -0.06919832 
1477 -0.06927288 
1478 -0.06944508 
1479 -0.0694027 
1480 -0.06915111 
1481 -0.06919939 
1482 -0.069571145 
1483 -0.06957222 
1484 -0.06927825 
1485 -0.06912965 
1486 -0.06903041 
1487 -0.06900359 
1488 -0.06916667 
1489 -0.06933994 
1490 -0.06932277 
1491 -0.06917954 
1492 -0.06896389 
1493 -0.06889094 
1494 -0.06899769 
1495 -0.06907601 
1496 -0.06906421 
1497 -0.06928737 
1498 -0.06957329 
1499 -0.069476195 
1500 -0.06937695 
1501 -0.06935228 
1502 -0.069323845 
1503 -0.06940109 
1504 -0.06939358 
1505 -0.06943811 
1506 -0.069501944 
1507 -0.06948746 
1508 -0.06924821 
1509 -0.06913609 
1510 -0.069222994 
1511 -0.06927074 
1512 -0.069382854 
1513 -0.06945313 
1514 -0.06920261 
1515 -0.06905884 
1516 -0.06912268 
1517 -0.069115706 
1518 -0.06916345 
1519 -0.06930668 
1520 -0.06933565 
1521 -0.06924606 
1522 -0.06917042 
1523 -0.069044895 
1524 -0.06879813 
1525 -0.06896228 
1526 -0.069117315 
1527 -0.06895477 
1528 -0.0688094 
1529 -0.06891722 
1530 -0.069228895 
1531 -0.06916774 
1532 -0.069079764 
1533 -0.06924767 
1534 -0.069347985 
1535 -0.0693909 
1536 -0.069393046 
1537 -0.06934262 
1538 -0.069215484 
1539 -0.06922621 
1540 -0.069204755 
1541 -0.06911839 
1542 -0.06919617 
1543 -0.0692128 
1544 -0.06914682 
1545 -0.06899393 
1546 -0.06905723 
1547 -0.06926698 
1548 -0.069260545 
1549 -0.06922085 
1550 -0.06938017 
1551 -0.06941397 
1552 -0.06908352 
1553 -0.06880135 
1554 -0.06896926 
1555 -0.068977304 
1556 -0.0692246 
1557 -0.06955505 
1558 -0.06953306 
1559 -0.069497116 
1560 -0.06946064 
1561 -0.06931312 
1562 -0.069275565 
1563 -0.06934584 
1564 -0.069222994 
1565 -0.06906099 
1566 -0.0689655 
1567 -0.068934925 
1568 -0.06906528 
1569 -0.06920154 
1570 -0.069188125 
1571 -0.069124825 
1572 -0.06910498 
1573 -0.06902183 
1574 -0.068885036 
1575 -0.06886519 
1576 -0.06916989 
1577 -0.069139846 
1578 -0.06904597 
1579 -0.0691495 
1580 -0.069387145 
1581 -0.06949175 
1582 -0.06945152 
1583 -0.06940646 
1584 -0.06924606 
1585 -0.069040604 
1586 -0.06902344 
1587 -0.06900466 
1588 -0.069064744 
1589 -0.06911624 
1590 -0.06926484 
1591 -0.0692702 
1592 -0.06916989 
1593 -0.0690803 
1594 -0.069019146 
1595 -0.06909854 
1596 -0.06902183 
1597 -0.06919617 
1598 -0.069387145 
1599 -0.06935603 
1600 -0.06920583 
1601 -0.069266446 
1602 -0.06931741 
1603 -0.06934101 
1604 -0.069222994 
1605 -0.06913448 
1606 -0.06929434 
1607 -0.06927503 
1608 -0.06913663 
1609 -0.06890113 
1610 -0.06875039 
1611 -0.068865724 
1612 -0.06904221 
1613 -0.06912161 
1614 -0.069247134 
1615 -0.069522865 
1616 -0.06962425 
1617 -0.069515355 
1618 -0.06936998 
1619 -0.0694719 
1620 -0.06936569 
1621 -0.06942845 
1622 -0.06942094 
1623 -0.06906367 
1624 -0.06898428 
1625 -0.06901378 
1626 -0.06903202 
1627 -0.069029875 
1628 -0.06896872 
1629 -0.068996616 
1630 -0.069100685 
1631 -0.06917418 
1632 -0.06910498 
1633 -0.069188125 
1634 -0.069381244 
1635 -0.06960601 
1636 -0.06983239 
1637 -0.06983668 
1638 -0.06968058 
1639 -0.06957919 
1640 -0.06961138 
1641 -0.069337256 
1642 -0.06915594 
1643 -0.06936944 
1644 -0.06944991 
1645 -0.06930614 
1646 -0.068981595 
1647 -0.06880618 
1648 -0.0688786 
1649 -0.068949945 
1650 -0.06912161 
1651 -0.0691833 
1652 -0.06913609 
1653 -0.06912375 
1654 -0.06912536 
1655 -0.06916667 
1656 -0.06928737 
1657 -0.06936891 
1658 -0.06943221 
1659 -0.06935925 
1660 -0.069308825 
1661 -0.06944079 
1662 -0.06936086 
1663 -0.06918276 
1664 -0.06898696 
1665 -0.06899769 
1666 -0.06908781 
1667 -0.0691554 
1668 -0.069098 
1669 -0.06900842 
1670 -0.06905938 
1671 -0.06915755 
1672 -0.06901807 
1673 -0.06884051 
1674 -0.06885553 
1675 -0.069099076 
1676 -0.06922514 
1677 -0.06927825 
1678 -0.06928254 
1679 -0.06933511 
1680 -0.06936998 
1681 -0.06930239 
1682 -0.06910712 
1683 -0.06902719 
1684 -0.06915755 
1685 -0.069305606 
1686 -0.069351204 
1687 -0.069128044 
1688 -0.06896336 
1689 -0.06906528 
1690 -0.06921763 
1691 -0.06928737 
1692 -0.06932116 
1693 -0.06913502 
1694 -0.069277175 
1695 -0.06945527 
1696 -0.06961138 
1697 -0.06952769 
1698 -0.06951589 
1699 -0.06956578 
1700 -0.06955881 
1701 -0.06940431 
1702 -0.069275565 
1703 -0.06928361 
1704 -0.069243915 
1705 -0.06919778 
1706 -0.06912697 
1707 -0.069171496 
1708 -0.069323845 
1709 -0.0693394 
1710 -0.06929327 
1711 -0.06930346 
1712 -0.06926484 
1713 -0.06924445 
1714 -0.06912536 
1715 -0.06928361 
1716 -0.069480486 
1717 -0.06942094 
1718 -0.06938071 
1719 -0.06938178 
1720 -0.06928254 
1721 -0.0692761 
1722 -0.069334574 
1723 -0.06951482 
1724 -0.06955559 
1725 -0.069522865 
1726 -0.069325455 
1727 -0.06920744 
1728 -0.069310434 
1729 -0.06933189 
1730 -0.06924499 
1731 -0.06931365 
1732 -0.06931151 
1733 -0.06925196 
1734 -0.069191344 
1735 -0.06912751 
1736 -0.06917042 
1737 -0.069143064 
1738 -0.069139846 
1739 -0.06908137 
1740 -0.068714984 
1741 -0.06852991 
1742 -0.0688035 
1743 -0.06902022 
1744 -0.06922782 
1745 -0.06931955 
1746 -0.069227286 
1747 -0.06931365 
1748 -0.06938661 
1749 -0.06925089 
1750 -0.06914789 
1751 -0.069156475 
1752 -0.069079764 
1753 -0.06903417 
1754 -0.06910766 
1755 -0.06908298 
1756 -0.06904758 
1757 -0.069402166 
1758 -0.06976748 
1759 -0.069753 
1760 -0.06948907 
1761 -0.06932921 
1762 -0.069215484 
1763 -0.06892956 
1764 -0.06890274 
1765 -0.068924196 
1766 -0.06879545 
1767 -0.068728395 
1768 -0.0688212 
1769 -0.06879491 
1770 -0.06863613 
1771 -0.06862057 
1772 -0.06884641 
1773 -0.0689714 
1774 -0.069126435 
1775 -0.06924928 
1776 -0.069429524 
1777 -0.06944776 
1778 -0.06944723 
1779 -0.06941504 
1780 -0.06925625 
1781 -0.06911463 
1782 -0.06930239 
1783 -0.0694306 
1784 -0.069238015 
1785 -0.06912107 
1786 -0.06899769 
1787 -0.06892634 
1788 -0.068901666 
1789 -0.0690567 
1790 -0.06910283 
1791 -0.06906099 
1792 -0.06911946 
1793 -0.0691318 
1794 -0.069128044 
1795 -0.06918598 
1796 -0.069245525 
1797 -0.06913609 
1798 -0.06908513 
1799 -0.06905938 
1800 -0.06892312 
1801 -0.06895477 
1802 -0.06913341 
1803 -0.06905938 
1804 -0.068815835 
1805 -0.068838365 
1806 -0.06893975 
1807 -0.0689419 
1808 -0.06919349 
1809 -0.06925733 
1810 -0.06915916 
1811 -0.06911302 
1812 -0.06900198 
1813 -0.06881154 
1814 -0.06872571 
1815 -0.06900252 
1816 -0.069277175 
1817 -0.069263764 
1818 -0.069338866 
1819 -0.0693732 
1820 -0.06916828 
1821 -0.06911249 
1822 -0.069284685 
1823 -0.06929273 
1824 -0.069210656 
1825 -0.06922782 
1826 -0.068955846 
1827 -0.0687402 
1828 -0.068916686 
1829 -0.06902344 
1830 -0.06886894 
1831 -0.06886036 
1832 -0.06888879 
1833 -0.068895765 
1834 -0.069102295 
1835 -0.06941343 
1836 -0.069411285 
1837 -0.06930185 
1838 -0.06919403 
1839 -0.06924499 
1840 -0.06943274 
1841 -0.06944186 
1842 -0.06936408 
1843 -0.06922353 
1844 -0.06897677 
1845 -0.06878311 
1846 -0.06873215 
1847 -0.06870855 
1848 -0.068760045 
1849 -0.06874878 
1850 -0.068834074 
1851 -0.06899125 
1852 -0.069221385 
1853 -0.069130726 
1854 -0.069011636 
1855 -0.06895531 
1856 -0.06869782 
1857 -0.06876273 
1858 -0.06915916 
1859 -0.06932599 
1860 -0.069372125 
1861 -0.069349594 
1862 -0.069266446 
1863 -0.06916184 
1864 -0.06903846 
1865 -0.06906099 
1866 -0.06901539 
1867 -0.06872571 
1868 -0.06860501 
1869 -0.068743415 
1870 -0.068919905 
1871 -0.06903041 
1872 -0.069017 
1873 -0.0689655 
1874 -0.06900091 
1875 -0.069179006 
1876 -0.069258936 
1877 -0.069165595 
1878 -0.069099076 
1879 -0.069163986 
1880 -0.06907172 
1881 -0.069076546 
1882 -0.06909961 
1883 -0.06905884 
1884 -0.06897838 
1885 -0.06898803 
1886 -0.06907762 
1887 -0.068933316 
1888 -0.068802424 
1889 -0.06893063 
1890 -0.069052406 
1891 -0.06912965 
1892 -0.069067426 
1893 -0.06912697 
1894 -0.0691318 
1895 -0.069094785 
1896 -0.0690626 
1897 -0.069040604 
1898 -0.06896282 
1899 -0.068936534 
1900 -0.06886519 
1901 -0.068806715 
1902 -0.06903685 
1903 -0.06938822 
1904 -0.06942523 
1905 -0.06922568 
1906 -0.06896282 
1907 -0.06908513 
1908 -0.069044895 
1909 -0.0688271 
1910 -0.068752535 
1911 -0.06885553 
1912 -0.068900056 
1913 -0.06882388 
1914 -0.06901754 
1915 -0.06906367 
1916 -0.06896443 
1917 -0.06900198 
1918 -0.06908352 
1919 -0.069139846 
1920 -0.06912536 
1921 -0.06899501 
1922 -0.06895477 
1923 -0.068921514 
1924 -0.068778284 
1925 -0.06871069 
1926 -0.068853386 
1927 -0.068910785 
1928 -0.06884319 
1929 -0.068936 
1930 -0.069143064 
1931 -0.06908352 
1932 -0.069019146 
1933 -0.0689993 
1934 -0.069005735 
1935 -0.069067426 
1936 -0.069180615 
1937 -0.06932653 
1938 -0.069283076 
1939 -0.06931955 
1940 -0.06939197 
1941 -0.06936676 
1942 -0.06937642 
1943 -0.06936676 
1944 -0.06913716 
1945 -0.06889845 
1946 -0.06876112 
1947 -0.068870015 
1948 -0.06901432 
1949 -0.06905133 
1950 -0.06912214 
1951 -0.06926913 
1952 -0.069396265 
1953 -0.06938232 
1954 -0.06914038 
1955 -0.069111414 
1956 -0.06934155 
1957 -0.06936891 
1958 -0.06931526 
1959 -0.06924767 
1960 -0.06931955 
1961 -0.06929166 
1962 -0.069162376 
1963 -0.06923158 
1964 -0.06924821 
1965 -0.069188125 
1966 -0.0690921 
1967 -0.069016464 
1968 -0.06900359 
1969 -0.069016464 
1970 -0.06891722 
1971 -0.068948336 
1972 -0.06916667 
1973 -0.0692246 
1974 -0.06921495 
1975 -0.06914843 
1976 -0.06909049 
1977 -0.069028266 
1978 -0.06915165 
1979 -0.0691377 
1980 -0.06901539 
1981 -0.06888128 
1982 -0.068799205 
1983 -0.06888879 
1984 -0.06911249 
1985 -0.06927449 
1986 -0.069366224 
1987 -0.06941236 
1988 -0.06950516 
1989 -0.06955827 
1990 -0.06940431 
1991 -0.06921495 
1992 -0.06922621 
1993 -0.06920207 
1994 -0.06910605 
1995 -0.06901378 
1996 -0.06909425 
1997 -0.069118924 
1998 -0.06923372 
1999 -0.069206364 
2000 -0.06919671 
2001 -0.06914682 
2002 -0.06908835 
2003 -0.069044895 
2004 -0.068885036 
2005 -0.068713374 
2006 -0.068680115 
2007 -0.0687005 
2008 -0.068838365 
2009 -0.068944044 
2010 -0.06897033 
2011 -0.06907333 
2012 -0.06925411 
2013 -0.069173105 
2014 -0.06887216 
2015 -0.06894297 
2016 -0.06920261 
2017 -0.06935335 
2018 -0.0693335 
2019 -0.06938822 
2020 -0.06937481 
2021 -0.06945688 
2022 -0.06942845 
2023 -0.069290586 
2024 -0.06918759 
2025 -0.069111414 
2026 -0.06898964 
2027 -0.068873234 
2028 -0.06888772 
2029 -0.069020756 
2030 -0.069069035 
2031 -0.06900681 
2032 -0.06898589 
2033 -0.06912536 
2034 -0.06915272 
2035 -0.06915379 
2036 -0.06940699 
2037 -0.0694483 
2038 -0.069482096 
2039 -0.0695631 
2040 -0.06949229 
2041 -0.06934262 
2042 -0.06928361 
2043 -0.06940431 
2044 -0.069357105 
2045 -0.06914414 
2046 -0.06907333 
2047 -0.069099076 
2048 -0.06905187 
2049 -0.06891615 
2050 -0.06897623 
2051 -0.069079764 
2052 -0.06929166 
2053 -0.069373734 
2054 -0.069282 
2055 -0.06928737 
2056 -0.069158085 
2057 -0.069008954 
2058 -0.06904007 
2059 -0.06913126 
2060 -0.06926108 
2061 -0.06938661 
2062 -0.069388755 
2063 -0.0692128 
2064 -0.069159694 
2065 -0.06920851 
2066 -0.06912107 
2067 -0.069180615 
2068 -0.069167204 
2069 -0.06907601 
2070 -0.06927771 
2071 -0.06938446 
2072 -0.069349594 
2073 -0.069201 
2074 -0.06925035 
2075 -0.069424696 
2076 -0.06929434 
2077 -0.069183834 
2078 -0.069228895 
2079 -0.06935442 
2080 -0.069338866 
2081 -0.06908888 
2082 -0.06914843 
2083 -0.06935174 
2084 -0.06934369 
2085 -0.06926752 
2086 -0.06919242 
2087 -0.0691495 
2088 -0.0690111 
2089 -0.068948336 
2090 -0.06896175 
2091 -0.06903417 
2092 -0.06912912 
2093 -0.069215484 
2094 -0.069271274 
2095 -0.069227286 
2096 -0.06915862 
2097 -0.06918437 
2098 -0.06916023 
2099 -0.069124825 
2100 -0.06913341 
2101 -0.06911356 
2102 -0.069260545 
2103 -0.06922675 
2104 -0.069079764 
2105 -0.06896926 
2106 -0.069011636 
2107 -0.068999834 
2108 -0.06908781 
2109 -0.069118924 
2110 -0.06921119 
2111 -0.06915916 
2112 -0.06904382 
2113 -0.06924177 
2114 -0.06931365 
2115 -0.069424696 
2116 -0.06935764 
2117 -0.06931848 
2118 -0.06937534 
2119 -0.0694365 
2120 -0.069373734 
2121 -0.06919671 
2122 -0.06908459 
2123 -0.06929863 
2124 -0.06939251 
2125 -0.0693732 
2126 -0.069310434 
2127 -0.069295414 
2128 -0.06936515 
2129 -0.069329746 
2130 -0.06929702 
2131 -0.069204755 
2132 -0.06918866 
2133 -0.06925947 
2134 -0.06931902 
2135 -0.069317944 
2136 -0.06918759 
2137 -0.06900091 
2138 -0.06890703 
2139 -0.06895263 
2140 -0.069031484 
2141 -0.069031484 
2142 -0.06892259 
2143 -0.069023974 
2144 -0.0692246 
2145 -0.06915755 
2146 -0.06917632 
2147 -0.06925679 
2148 -0.06918008 
2149 -0.06908459 
2150 -0.06907172 
2151 -0.06916506 
2152 -0.069117315 
2153 -0.06897891 
2154 -0.069037385 
2155 -0.06903953 
2156 -0.06912107 
2157 -0.06923211 
2158 -0.06935657 
2159 -0.06940002 
2160 -0.069337256 
2161 -0.069163986 
2162 -0.06923158 
2163 -0.06938929 
2164 -0.069387145 
2165 -0.06933243 
2166 -0.0691951 
2167 -0.06912858 
2168 -0.06908942 
2169 -0.068983205 
2170 -0.06891615 
2171 -0.06893922 
2172 -0.06890274 
2173 -0.069020756 
2174 -0.06908888 
2175 -0.069179006 
2176 -0.06917793 
2177 -0.069019146 
2178 -0.0690508 
2179 -0.06922353 
2180 -0.06917257 
2181 -0.06908352 
2182 -0.068968184 
2183 -0.06885124 
2184 -0.06890757 
2185 -0.06882656 
2186 -0.06886787 
2187 -0.069076546 
2188 -0.06910015 
2189 -0.06910659 
2190 -0.06914682 
2191 -0.06911034 
2192 -0.06917579 
2193 -0.069372125 
2194 -0.069411285 
2195 -0.06933082 
2196 -0.06932492 
2197 -0.069426306 
2198 -0.069363005 
2199 -0.06934155 
2200 -0.069349594 
2201 -0.06919617 
2202 -0.06916828 
2203 -0.069188125 
2204 -0.069147356 
2205 -0.06906528 
2206 -0.06901432 
2207 -0.06894136 
2208 -0.068894155 
2209 -0.06882817 
2210 -0.06898374 
2211 -0.06918598 
2212 -0.06909049 
2213 -0.069069035 
2214 -0.069111414 
2215 -0.06919993 
2216 -0.06898428 
2217 -0.06892956 
2218 -0.06909425 
2219 -0.06922675 
2220 -0.06917525 
2221 -0.06912965 
2222 -0.06901539 
2223 -0.06899501 
2224 -0.06917203 
2225 -0.06920207 
2226 -0.06915326 
2227 -0.0692187 
2228 -0.069286294 
2229 -0.06932867 
2230 -0.069215484 
2231 -0.0691318 
2232 -0.06908513 
2233 -0.06899769 
2234 -0.069048114 
2235 -0.06922031 
2236 -0.069230504 
2237 -0.06926859 
2238 -0.06933082 
2239 -0.069378026 
2240 -0.0691833 
2241 -0.06900949 
2242 -0.06911624 
2243 -0.06930668 
2244 -0.0692069 
2245 -0.06903095 
2246 -0.069011636 
2247 -0.06903363 
2248 -0.06917042 
2249 -0.069271274 
2250 -0.06930078 
2251 -0.069260545 
2252 -0.069228895 
2253 -0.069188125 
2254 -0.068992324 
2255 -0.06888772 
2256 -0.06902558 
2257 -0.06942416 
2258 -0.06958241 
2259 -0.06963498 
2260 -0.069572754 
2261 -0.069515355 
2262 -0.06950516 
2263 -0.0693673 
2264 -0.06920851 
2265 -0.06908781 
2266 -0.06899286 
2267 -0.06902934 
2268 -0.068948336 
2269 -0.068933316 
2270 -0.068885036 
2271 -0.06885285 
2272 -0.06889952 
2273 -0.06886143 
2274 -0.06885392 
2275 -0.06882603 
2276 -0.06879813 
2277 -0.068877526 
2278 -0.0687874 
2279 -0.06876863 
2280 -0.06892634 
2281 -0.06917686 
2282 -0.06936515 
2283 -0.06944186 
2284 -0.0691951 
2285 -0.068836756 
2286 -0.06876487 
2287 -0.068955846 
2288 -0.06932492 
2289 -0.06936676 
2290 -0.069295414 
2291 -0.06935925 
2292 -0.069273956 
2293 -0.0692128 
2294 -0.069143064 
2295 -0.069165595 
2296 -0.06923426 
2297 -0.06920422 
2298 -0.069117315 
2299 -0.06912965 
2300 -0.069162376 
2301 -0.069064744 
2302 -0.06909532 
2303 -0.06925679 
2304 -0.069385536 
2305 -0.06924445 
2306 -0.06911302 
2307 -0.068805106 
2308 -0.06881315 
2309 -0.06908084 
2310 -0.06940485 
2311 -0.06939519 
2312 -0.06927771 
2313 -0.06932814 
2314 -0.06930453 
2315 -0.06918437 
2316 -0.06908996 
2317 -0.06906582 
2318 -0.06918491 
2319 -0.069227286 
2320 -0.069347985 
2321 -0.0693158 
2322 -0.0691141 
2323 -0.06899447 
2324 -0.06910015 
2325 -0.069182225 
2326 -0.069260545 
2327 -0.06929595 
2328 -0.06928898 
2329 -0.069271274 
2330 -0.06919242 
2331 -0.06901003 
2332 -0.069046505 
2333 -0.06921441 
2334 -0.06917525 
2335 -0.069230504 
2336 -0.06926269 
2337 -0.069457956 
2338 -0.06948102 
2339 -0.0694365 
2340 -0.06942148 
2341 -0.06929005 
2342 -0.06921709 
2343 -0.06930775 
2344 -0.06930507 
2345 -0.06912375 
2346 -0.06891937 
2347 -0.068752535 
2348 -0.06890381 
2349 -0.06922621 
2350 -0.06925572 
2351 -0.069275565 
2352 -0.06918437 
2353 -0.06893975 
2354 -0.068728395 
2355 -0.06879599 
2356 -0.06912697 
2357 -0.0693158 
2358 -0.06933618 
2359 -0.06920851 
2360 -0.06907601 
2361 -0.06931526 
2362 -0.06952072 
2363 -0.06939251 
2364 -0.06920583 
2365 -0.06896175 
2366 -0.06895209 
2367 -0.069076546 
2368 -0.069014855 
2369 -0.06899554 
2370 -0.069133945 
2371 -0.06920154 
2372 -0.069135554 
2373 -0.06903792 
2374 -0.06901271 
2375 -0.06890649 
2376 -0.06879545 
2377 -0.06922407 
2378 -0.06945527 
2379 -0.06940485 
2380 -0.06937588 
2381 -0.06941075 
2382 -0.06955988 
2383 -0.06954593 
2384 -0.0693968 
2385 -0.069322236 
2386 -0.069260545 
2387 -0.069043286 
2388 -0.068944044 
2389 -0.06897462 
2390 -0.06910551 
2391 -0.06921334 
2392 -0.069390364 
2393 -0.06943757 
2394 -0.069269665 
2395 -0.06899125 
2396 -0.068979986 
2397 -0.06920207 
2398 -0.069325455 
2399 -0.069541104 
2400 -0.069476195 
2401 -0.06918437 
2402 -0.06909586 
2403 -0.069103904 
2404 -0.06923265 
2405 -0.0692525 
2406 -0.069351204 
2407 -0.06943757 
2408 -0.069308825 
2409 -0.06918866 
2410 -0.069158085 
2411 -0.06926752 
2412 -0.06927825 
2413 -0.069316335 
2414 -0.06927664 
2415 -0.06907333 
2416 -0.06889952 
2417 -0.06889845 
2418 -0.06912429 
2419 -0.06933243 
2420 -0.069373734 
2421 -0.069405384 
2422 -0.069485314 
2423 -0.069470294 
2424 -0.06941933 
2425 -0.0693791 
2426 -0.0693276 
2427 -0.06923909 
2428 -0.06914843 
2429 -0.06906635 
2430 -0.06896604 
2431 -0.06902451 
2432 -0.06906421 
2433 -0.069017 
2434 -0.06903846 
2435 -0.06911034 
2436 -0.069067426 
2437 -0.06911195 
2438 -0.069340475 
2439 -0.069396265 
2440 -0.06931741 
2441 -0.069271274 
2442 -0.06924338 
2443 -0.06918544 
2444 -0.06919456 
2445 -0.06925518 
2446 -0.06918169 
2447 -0.06917847 
2448 -0.06926269 
2449 -0.0692128 
2450 -0.06905187 
2451 -0.06904972 
2452 -0.06910766 
2453 -0.069070645 
2454 -0.0692879 
2455 -0.069346376 
2456 -0.06924767 
2457 -0.06910766 
2458 -0.06899393 
2459 -0.06889469 
2460 -0.06906206 
2461 -0.06931151 
2462 -0.06913663 
2463 -0.06898964 
2464 -0.06923265 
2465 -0.06956578 
2466 -0.069448836 
2467 -0.06938983 
2468 -0.069206364 
2469 -0.06911034 
2470 -0.069020756 
2471 -0.06887806 
2472 -0.06902773 
2473 -0.069325455 
2474 -0.069753535 
2475 -0.06988711 
2476 -0.06974978 
2477 -0.069592066 
2478 -0.06959743 
2479 -0.069645174 
2480 -0.069506235 
2481 -0.06938339 
2482 -0.06913341 
2483 -0.069020756 
2484 -0.0690111 
2485 -0.06896604 
2486 -0.069247134 
2487 -0.06939841 
2488 -0.069301315 
2489 -0.06924445 
2490 -0.06916291 
2491 -0.06922514 
2492 -0.069381244 
2493 -0.06931955 
2494 -0.069247134 
2495 -0.06925786 
2496 -0.0691495 
2497 -0.06917096 
2498 -0.069282 
2499 -0.0692879 
2500 -0.06917042 
2501 -0.06925572 
2502 -0.06938929 
2503 -0.069370516 
2504 -0.069275565 
2505 -0.06924338 
2506 -0.069308825 
2507 -0.0692128 
2508 -0.069163986 
2509 -0.069282 
2510 -0.069227286 
2511 -0.06920744 
2512 -0.069239624 
2513 -0.06922836 
2514 -0.06921763 
2515 -0.069290586 
2516 -0.06932009 
2517 -0.06919456 
2518 -0.069143064 
2519 -0.06914843 
2520 -0.0690567 
2521 -0.06903041 
2522 -0.06908352 
2523 -0.06923158 
2524 -0.069198854 
2525 -0.06911624 
2526 -0.06911302 
2527 -0.0692128 
2528 -0.06916935 
2529 -0.06919939 
2530 -0.06922192 
2531 -0.069227286 
2532 -0.06922568 
2533 -0.06926859 
2534 -0.06923855 
2535 -0.06921119 
2536 -0.06940592 
2537 -0.06945313 
2538 -0.06922675 
2539 -0.06921763 
2540 -0.06930936 
2541 -0.06927181 
2542 -0.0692407 
2543 -0.06918276 
2544 -0.06924445 
2545 -0.06921495 
2546 -0.06923211 
2547 -0.06922836 
2548 -0.0692702 
2549 -0.06931741 
2550 -0.069396265 
2551 -0.06938929 
2552 -0.06936837 
2553 -0.06943274 
2554 -0.06942255 
2555 -0.0692407 
2556 -0.0691495 
2557 -0.06932814 
2558 -0.069444545 
2559 -0.069310434 
2560 -0.069212265 
2561 -0.06934477 
2562 -0.0692525 
2563 -0.06917525 
2564 -0.06940163 
2565 -0.069477804 
2566 -0.06944991 
2567 -0.069472976 
2568 -0.069424696 
2569 -0.06932492 
2570 -0.06925411 
2571 -0.069236405 
2572 -0.069388755 
2573 -0.069405384 
2574 -0.06946922 
2575 -0.06942577 
2576 -0.06943113 
2577 -0.069467075 
2578 -0.069592066 
2579 -0.069721885 
2580 -0.06955559 
2581 -0.06944776 
2582 -0.06958509 
2583 -0.0694939 
2584 -0.06932438 
2585 -0.0693394 
2586 -0.06923104 
2587 -0.06910283 
2588 -0.069228895 
2589 -0.06930078 
2590 -0.06930668 
2591 -0.06928898 
2592 -0.069295414 
2593 -0.069366224 
2594 -0.06938929 
2595 -0.06942148 
2596 -0.06932814 
2597 -0.069282 
2598 -0.06939197 
2599 -0.06959797 
2600 -0.06964464 
2601 -0.0696205 
2602 -0.06952233 
2603 -0.06945152 
2604 -0.06940324 
2605 -0.06935442 
2606 -0.069349594 
2607 -0.069238015 
2608 -0.06909425 
2609 -0.06907869 
2610 -0.069093175 
2611 -0.06905133 
2612 -0.06896979 
2613 -0.0691318 
2614 -0.06919939 
2615 -0.069029875 
2616 -0.0689419 
2617 -0.068959065 
2618 -0.06894297 
2619 -0.06898642 
2620 -0.06911249 
2621 -0.06906796 
2622 -0.06931526 
2623 -0.06949443 
2624 -0.06947566 
2625 -0.069424696 
2626 -0.06925572 
2627 -0.069099076 
2628 -0.06916023 
2629 -0.06929863 
2630 -0.06922997 
2631 -0.0692069 
2632 -0.06916828 
2633 -0.06917525 
2634 -0.069204755 
2635 -0.06918544 
2636 -0.069195636 
2637 -0.06912965 
2638 -0.06912 
2639 -0.06926323 
2640 -0.069174714 
2641 -0.069061525 
2642 -0.069299705 
2643 -0.06930936 
2644 -0.06902773 
2645 -0.06913502 
2646 -0.0691951 
2647 -0.06919617 
2648 -0.06916613 
2649 -0.06907547 
2650 -0.068888254 
2651 -0.06906582 
2652 -0.06930453 
2653 -0.069334574 
2654 -0.06936247 
2655 -0.06946386 
2656 -0.06951643 
2657 -0.06942845 
2658 -0.06934745 
2659 -0.06919188 
2660 -0.068925805 
2661 -0.06893868 
2662 -0.06922782 
2663 -0.069322236 
2664 -0.069167204 
2665 -0.069139846 
2666 -0.069213875 
2667 -0.06905455 
2668 -0.06896175 
2669 -0.06913877 
2670 -0.069322236 
2671 -0.06937105 
2672 -0.0693335 
2673 -0.069163986 
2674 -0.06908674 
2675 -0.06922246 
2676 -0.06926162 
2677 -0.069253035 
2678 -0.06937427 
2679 -0.069349594 
2680 -0.069260545 
2681 -0.06931902 
2682 -0.06935174 
2683 -0.06939895 
2684 -0.06924767 
2685 -0.068984814 
2686 -0.06893063 
2687 -0.06893922 
2688 -0.068814225 
2689 -0.06880779 
2690 -0.06916291 
2691 -0.06940056 
2692 -0.069472976 
2693 -0.069557734 
2694 -0.06963981 
2695 -0.069457956 
2696 -0.06930668 
2697 -0.06931312 
2698 -0.069266446 
2699 -0.069011636 
2700 -0.068992324 
2701 -0.0690626 
2702 -0.06903685 
2703 -0.06909049 
2704 -0.069159694 
2705 -0.06926323 
2706 -0.0691833 
2707 -0.0690744 
2708 -0.06900681 
2709 -0.069067426 
2710 -0.06917418 
2711 -0.069263764 
2712 -0.06928951 
2713 -0.06942148 
2714 -0.06938446 
2715 -0.06936515 
2716 -0.06931848 
2717 -0.06944347 
2718 -0.069488 
2719 -0.0695513 
2720 -0.069424696 
2721 -0.06913931 
2722 -0.069016464 
2723 -0.06909854 
2724 -0.06908513 
2725 -0.06913877 
2726 -0.06926108 
2727 -0.069118924 
2728 -0.068989106 
2729 -0.0691141 
2730 -0.06920154 
2731 -0.06915379 
2732 -0.06916345 
2733 -0.06931419 
2734 -0.069470294 
2735 -0.069587775 
2736 -0.06951589 
2737 -0.069506235 
2738 -0.069349594 
2739 -0.06902719 
2740 -0.06882388 
2741 -0.06888289 
2742 -0.068940826 
2743 -0.06890113 
2744 -0.06884802 
2745 -0.06884105 
2746 -0.06900091 
2747 -0.069171496 
2748 -0.069441326 
2749 -0.06979645 
2750 -0.06974495 
2751 -0.06954432 
2752 -0.06955183 
2753 -0.069577046 
2754 -0.06938446 
2755 -0.06921173 
2756 -0.06918544 
2757 -0.06898589 
2758 -0.06890649 
2759 -0.068983205 
2760 -0.06901003 
2761 -0.06903524 
2762 -0.06909961 
2763 -0.06913502 
2764 -0.06913287 
2765 -0.06904382 
2766 -0.06894619 
2767 -0.068944044 
2768 -0.06885875 
2769 -0.06890971 
2770 -0.069008954 
2771 -0.06902505 
2772 -0.06896389 
2773 -0.06902773 
2774 -0.06912268 
2775 -0.06908888 
2776 -0.069180615 
2777 -0.06932814 
2778 -0.06947137 
2779 -0.06951857 
2780 -0.06946064 
2781 -0.06944562 
2782 -0.06930346 
2783 -0.069158085 
2784 -0.06912 
2785 -0.069069035 
2786 -0.069064744 
2787 -0.06903846 
2788 -0.06909693 
2789 -0.06904919 
2790 -0.06911678 
2791 -0.06932063 
2792 -0.069569 
2793 -0.069524474 
2794 -0.06949658 
2795 -0.06946386 
2796 -0.06928951 
2797 -0.06919617 
2798 -0.06913877 
2799 -0.06912214 
2800 -0.069186516 
2801 -0.06930507 
2802 -0.06941075 
2803 -0.06938607 
2804 -0.06931419 
2805 -0.0692584 
2806 -0.06918437 
2807 -0.06908245 
2808 -0.069019146 
2809 -0.06904704 
2810 -0.06904865 
2811 -0.06915326 
2812 -0.06940056 
2813 -0.069442935 
2814 -0.0693276 
2815 -0.06938178 
2816 -0.06956632 
2817 -0.069688626 
2818 -0.06970579 
2819 -0.06963659 
2820 -0.06946171 
2821 -0.06936676 
2822 -0.06937534 
2823 -0.06918115 
2824 -0.06913716 
2825 -0.06925518 
2826 -0.069363005 
2827 -0.06938446 
2828 -0.06926913 
2829 -0.06904597 
2830 -0.069115706 
2831 -0.06924338 
2832 -0.06935603 
2833 -0.06934745 
2834 -0.069355495 
2835 -0.06925357 
2836 -0.06930668 
2837 -0.06954003 
2838 -0.06975139 
2839 -0.06981576 
2840 -0.06975461 
2841 -0.069714375 
2842 -0.06968702 
2843 -0.06949765 
2844 -0.06949443 
2845 -0.069507845 
2846 -0.0694027 
2847 -0.06928415 
2848 -0.0691613 
2849 -0.069079764 
2850 -0.069004126 
2851 -0.069070645 
2852 -0.0690862 
2853 -0.06934691 
2854 -0.06956256 
2855 -0.06952555 
2856 -0.069507845 
2857 -0.069531985 
2858 -0.06955881 
2859 -0.069251426 
2860 -0.06917793 
2861 -0.06928898 
2862 -0.06923158 
2863 -0.069227286 
2864 -0.06915594 
2865 -0.06925947 
2866 -0.06957436 
2867 -0.069660194 
2868 -0.069747634 
2869 -0.06973047 
2870 -0.069652684 
2871 -0.06962264 
2872 -0.069608696 
2873 -0.0696205 
2874 -0.06952018 
2875 -0.06945849 
2876 -0.06946225 
2877 -0.0695234 
2878 -0.069397874 
2879 -0.06924821 
2880 -0.06908513 
2881 -0.069111414 
2882 -0.06933565 
2883 -0.06920958 
2884 -0.06923211 
2885 -0.0694027 
2886 -0.0694998 
2887 -0.06954218 
2888 -0.06962264 
2889 -0.069507845 
2890 -0.06943918 
2891 -0.06947995 
2892 -0.06947244 
2893 -0.069530375 
2894 -0.06960226 
2895 -0.06960172 
2896 -0.06956256 
2897 -0.069491215 
2898 -0.06943006 
2899 -0.06944723 
2900 -0.06940324 
2901 -0.06919456 
2902 -0.06909961 
2903 -0.06927825 
2904 -0.06940485 
2905 -0.069314726 
2906 -0.06923104 
2907 -0.06918544 
2908 -0.06897194 
2909 -0.06886626 
2910 -0.068886645 
2911 -0.06896443 
2912 -0.069076546 
2913 -0.06909371 
2914 -0.06912161 
2915 -0.069222994 
2916 -0.06935657 
2917 -0.0694601 
2918 -0.0695234 
2919 -0.06964142 
2920 -0.06959099 
2921 -0.069501944 
2922 -0.06948585 
2923 -0.06944401 
2924 -0.06949819 
2925 -0.06948317 
2926 -0.069253035 
2927 -0.06900305 
2928 -0.068945654 
2929 -0.068987496 
2930 -0.06903685 
2931 -0.06935228 
2932 -0.06949497 
2933 -0.06945635 
2934 -0.06949926 
2935 -0.06943918 
2936 -0.06938929 
2937 -0.0694483 
2938 -0.069531985 
2939 -0.06955076 
2940 -0.0693732 
2941 -0.06928415 
2942 -0.06930507 
2943 -0.069295414 
2944 -0.06931151 
2945 -0.06923211 
2946 -0.068977304 
2947 -0.06901861 
2948 -0.069263764 
2949 -0.069182225 
2950 -0.069266446 
2951 -0.069488 
2952 -0.0694424 
2953 -0.06940002 
2954 -0.0694939 
2955 -0.06959797 
2956 -0.06970901 
2957 -0.0699032 
2958 -0.069783576 
2959 -0.06962479 
2960 -0.06963015 
2961 -0.06957758 
2962 -0.06951911 
2963 -0.069435425 
2964 -0.06927235 
2965 -0.06906528 
2966 -0.06907172 
2967 -0.06899769 
2968 -0.06900627 
2969 -0.0691259 
2970 -0.06908513 
2971 -0.069044895 
2972 -0.069079764 
2973 -0.069180615 
2974 -0.06937588 
2975 -0.0696264 
2976 -0.06979001 
2977 -0.06977553 
2978 -0.06973583 
2979 -0.06978304 
2980 -0.06990803 
2981 -0.06989945 
2982 -0.06969399 
2983 -0.06953842 
2984 -0.06953681 
2985 -0.06943113 
2986 -0.06932009 
2987 -0.06939734 
2988 -0.06957061 
2989 -0.069446154 
2990 -0.06946278 
2991 -0.06954593 
2992 -0.069580264 
2993 -0.06967843 
2994 -0.069492824 
2995 -0.06932653 
2996 -0.06950302 
2997 -0.0695985 
2998 -0.069513746 
2999 -0.06936837 
3000 -0.06926752 
3001 -0.069130726 
3002 -0.06916828 
3003 -0.069531985 
3004 -0.06991286 
3005 -0.06996114 
3006 -0.06986619 
3007 -0.06977338 
3008 -0.06955827 
3009 -0.0694542 
3010 -0.06947405 
3011 -0.06947405 
3012 -0.06942899 
3013 -0.069363005 
3014 -0.069450445 
3015 -0.06941987 
3016 -0.06950677 
3017 -0.06947941 
3018 -0.0694939 
3019 -0.069433816 
3020 -0.06920744 
3021 -0.069251426 
3022 -0.0691951 
3023 -0.06907601 
3024 -0.06901968 
3025 -0.06912 
3026 -0.06927449 
3027 -0.06943811 
3028 -0.06963123 
3029 -0.0696779 
3030 -0.06958241 
3031 -0.069562025 
3032 -0.069521256 
3033 -0.06970579 
3034 -0.0696838 
3035 -0.0695808 
3036 -0.069491215 
3037 -0.069735296 
3038 -0.06985653 
3039 -0.06980128 
3040 -0.06969399 
3041 -0.06965 
3042 -0.06953145 
3043 -0.06947405 
3044 -0.0693791 
3045 -0.069358714 
3046 -0.069247134 
3047 -0.069108196 
3048 -0.06917364 
3049 -0.0692128 
3050 -0.06915004 
3051 -0.06910498 
3052 -0.06915326 
3053 -0.06939519 
3054 -0.06973047 
3055 -0.069740124 
3056 -0.06955827 
3057 -0.06951965 
3058 -0.06969345 
3059 -0.06992573 
3060 -0.07006521 
3061 -0.07012475 
3062 -0.07006199 
3063 -0.070008345 
3064 -0.07009096 
3065 -0.07006306 
3066 -0.06997455 
3067 -0.06997026 
3068 -0.06968165 
3069 -0.069204755 
3070 -0.06907011 
3071 -0.069230504 
3072 -0.069366224 
3073 -0.06948692 
3074 -0.0696323 
3075 -0.06951214 
3076 -0.06953467 
3077 -0.06965215 
3078 -0.06965376 
3079 -0.069628544 
3080 -0.06977392 
3081 -0.06978787 
3082 -0.069616206 
3083 -0.069565244 
3084 -0.06959099 
3085 -0.0695352 
3086 -0.0694365 
3087 -0.06939197 
3088 -0.069412895 
3089 -0.06946278 
3090 -0.06949604 
3091 -0.06941933 
3092 -0.069411285 
3093 -0.06938983 
3094 -0.069409676 
3095 -0.06931955 
3096 -0.069522865 
3097 -0.06971008 
3098 -0.069684334 
3099 -0.06952984 
3100 -0.06936247 
3101 -0.069206364 
3102 -0.069234796 
3103 -0.069239624 
3104 -0.06914253 
3105 -0.06939519 
3106 -0.069684334 
3107 -0.069742806 
3108 -0.06969453 
3109 -0.06967307 
3110 -0.06973637 
3111 -0.069822736 
3112 -0.06973905 
3113 -0.06965376 
3114 -0.06952662 
3115 -0.06933243 
3116 -0.06910444 
3117 -0.069087274 
3118 -0.069227286 
3119 -0.06926484 
3120 -0.0692246 
3121 -0.06923855 
3122 -0.0692246 
3123 -0.06916935 
3124 -0.06920422 
3125 -0.069308825 
3126 -0.06926537 
3127 -0.06923158 
3128 -0.069133945 
3129 -0.069022365 
3130 -0.069165595 
3131 -0.06940056 
3132 -0.06955344 
3133 -0.06954432 
3134 -0.0693732 
3135 -0.06938822 
3136 -0.0695631 
3137 -0.069656976 
3138 -0.06957329 
3139 -0.069482096 
3140 -0.06936354 
3141 -0.06931097 
3142 -0.069307216 
3143 -0.06936891 
3144 -0.06922782 
3145 -0.069133945 
3146 -0.06923587 
3147 -0.069409676 
3148 -0.06942416 
3149 -0.06936783 
3150 -0.06929863 
3151 -0.06929005 
3152 -0.06927664 
3153 -0.06939251 
3154 -0.06947512 
3155 -0.06942738 
3156 -0.06936891 
3157 -0.06941772 
3158 -0.06954754 
3159 -0.06962962 
3160 -0.0695749 
3161 -0.06952501 
3162 -0.06944347 
3163 -0.06931204 
3164 -0.06925518 
3165 -0.06924874 
3166 -0.06917793 
3167 -0.06920958 
3168 -0.06931955 
3169 -0.06929702 
3170 -0.06920851 
3171 -0.06903524 
3172 -0.06906635 
3173 -0.06928415 
3174 -0.06934477 
3175 -0.06939895 
3176 -0.0694483 
3177 -0.06963337 
3178 -0.06962801 
3179 -0.06969238 
3180 -0.0697589 
3181 -0.06960923 
3182 -0.0696146 
3183 -0.06951106 
3184 -0.069357105 
3185 -0.06916667 
3186 -0.06905938 
3187 -0.06910927 
3188 -0.06912375 
3189 -0.069163986 
3190 -0.0692187 
3191 -0.06925786 
3192 -0.069186516 
3193 -0.06912965 
3194 -0.06910659 
3195 -0.06913824 
3196 -0.06913341 
3197 -0.06922568 
3198 -0.069649465 
3199 -0.06972457 
3200 -0.06971062 
3201 -0.06977714 
3202 -0.06973637 
3203 -0.069798596 
3204 -0.06985814 
3205 -0.06973959 
3206 -0.06955344 
3207 -0.06953413 
3208 -0.06930668 
3209 -0.06909693 
3210 -0.069099076 
3211 -0.06900842 
3212 -0.06918544 
3213 -0.0692643 
3214 -0.06932009 
3215 -0.06957544 
3216 -0.069589384 
3217 -0.06948639 
3218 -0.06934906 
3219 -0.069258936 
3220 -0.0693909 
3221 -0.069482096 
3222 -0.06939895 
3223 -0.069476195 
3224 -0.069541104 
3225 -0.0695985 
3226 -0.069509454 
3227 -0.06950838 
3228 -0.06950731 
3229 -0.06945098 
3230 -0.06933833 
3231 -0.06934852 
3232 -0.06945742 
3233 -0.0694086 
3234 -0.06918169 
3235 -0.06911463 
3236 -0.069242306 
3237 -0.06947137 
3238 -0.069507845 
3239 -0.069433816 
3240 -0.06948639 
3241 -0.06966127 
3242 -0.06975568 
3243 -0.06974334 
3244 -0.06954164 
3245 -0.069577046 
3246 -0.06955881 
3247 -0.06934262 
3248 -0.06919617 
3249 -0.06923211 
3250 -0.06946278 
3251 -0.069491215 
3252 -0.06948853 
3253 -0.069528766 
3254 -0.06954218 
3255 -0.069706865 
3256 -0.06964142 
3257 -0.06959153 
3258 -0.069690235 
3259 -0.069660194 
3260 -0.06947941 
3261 -0.06947137 
3262 -0.06954057 
3263 -0.06948907 
3264 -0.069409676 
3265 -0.06942523 
3266 -0.0694998 
3267 -0.06951267 
3268 -0.069397874 
3269 -0.069417186 
3270 -0.069394656 
3271 -0.0693335 
3272 -0.06944025 
3273 -0.069426306 
3274 -0.069448836 
3275 -0.06967146 
3276 -0.06986565 
3277 -0.069619425 
3278 -0.06943113 
3279 -0.06943113 
3280 -0.06956632 
3281 -0.06983883 
3282 -0.069792695 
3283 -0.06960333 
3284 -0.06949765 
3285 -0.06950892 
3286 -0.0695116 
3287 -0.0696441 
3288 -0.06965215 
3289 -0.069690235 
3290 -0.06975461 
3291 -0.06984151 
3292 -0.06995524 
3293 -0.06990052 
3294 -0.06986619 
3295 -0.06981469 
3296 -0.06959904 
3297 -0.06951482 
3298 -0.0695867 
3299 -0.06965215 
3300 -0.0696838 
3301 -0.06958885 
3302 -0.06957436 
3303 -0.06973637 
3304 -0.06979752 
3305 -0.069723494 
3306 -0.06963123 
3307 -0.06970955 
3308 -0.06981898 
3309 -0.069857605 
3310 -0.06978036 
3311 -0.069684334 
3312 -0.06962747 
3313 -0.06966985 
3314 -0.06990857 
3315 -0.06988282 
3316 -0.06972993 
3317 -0.06967575 
3318 -0.069522865 
3319 -0.06939573 
3320 -0.06942523 
3321 -0.06952555 
3322 -0.069673605 
3323 -0.06983078 
3324 -0.06991608 
3325 -0.06977231 
3326 -0.069539495 
3327 -0.06941236 
3328 -0.06965966 
3329 -0.06967092 
3330 -0.0696441 
3331 -0.06971008 
3332 -0.0696956 
3333 -0.06965376 
3334 -0.06957651 
3335 -0.069572754 
3336 -0.06962318 
3337 -0.069886036 
3338 -0.06995577 
3339 -0.06979699 
3340 -0.06965429 
3341 -0.069524474 
3342 -0.06969131 
3343 -0.06980235 
3344 -0.06965483 
3345 -0.06958241 
3346 -0.069474585 
3347 -0.06932331 
3348 -0.069275565 
3349 -0.06920744 
3350 -0.06927825 
3351 -0.069452055 
3352 -0.06974334 
3353 -0.069954164 
3354 -0.0700872 
3355 -0.07013924 
3356 -0.070110805 
3357 -0.06979699 
3358 -0.069521256 
3359 -0.06933833 
3360 -0.06931365 
3361 -0.06932009 
3362 -0.06925786 
3363 -0.06912268 
3364 -0.06920583 
3365 -0.0693158 
3366 -0.06929166 
3367 -0.069379635 
3368 -0.06944723 
3369 -0.06955827 
3370 -0.06980557 
3371 -0.070070036 
3372 -0.070049115 
3373 -0.07004697 
3374 -0.06999976 
3375 -0.06984044 
3376 -0.069610305 
3377 -0.069697745 
3378 -0.06982381 
3379 -0.06978733 
3380 -0.069557734 
3381 -0.069266446 
3382 -0.06913609 
3383 -0.06926108 
3384 -0.069351204 
3385 -0.069310434 
3386 -0.06938393 
3387 -0.06941021 
3388 -0.06955559 
3389 -0.06961513 
3390 -0.06957544 
3391 -0.069492824 
3392 -0.06943596 
3393 -0.06951911 
3394 -0.06960387 
3395 -0.06974656 
3396 -0.06991447 
3397 -0.06991447 
3398 -0.0698914 
3399 -0.069915004 
3400 -0.06985868 
3401 -0.06977285 
3402 -0.06969131 
3403 -0.06971974 
3404 -0.069552906 
3405 -0.069394656 
3406 -0.069411285 
3407 -0.06959797 
3408 -0.06962801 
3409 -0.069470294 
3410 -0.069332965 
3411 -0.06934477 
3412 -0.06924177 
3413 -0.069239624 
3414 -0.06947941 
3415 -0.06968058 
3416 -0.069587775 
3417 -0.06963391 
3418 -0.0697015 
3419 -0.06963659 
3420 -0.06955344 
3421 -0.069480486 
3422 -0.069497116 
3423 -0.06942845 
3424 -0.06934369 
3425 -0.069277175 
3426 -0.069204755 
3427 -0.06914789 
3428 -0.069271274 
3429 -0.06951482 
3430 -0.06966073 
3431 -0.06952501 
3432 -0.06944347 
3433 -0.06952662 
3434 -0.06950999 
3435 -0.06949336 
3436 -0.06959421 
3437 -0.06972081 
3438 -0.069655366 
3439 -0.0695808 
3440 -0.06952394 
3441 -0.069461174 
3442 -0.06958885 
3443 -0.06961084 
3444 -0.0695572 
3445 -0.06949551 
3446 -0.06940163 
3447 -0.06936247 
3448 -0.0693791 
3449 -0.06948907 
3450 -0.06952769 
3451 -0.06948692 
3452 -0.06951857 
3453 -0.06966073 
3454 -0.069896765 
3455 -0.06994236 
3456 -0.06989891 
3457 -0.06984902 
3458 -0.069779284 
3459 -0.06971384 
3460 -0.06963123 
3461 -0.069664486 
3462 -0.06971491 
3463 -0.06965376 
3464 -0.06965912 
3465 -0.06962908 
3466 -0.06962425 
3467 -0.069587775 
3468 -0.069446154 
3469 -0.06948585 
3470 -0.06953842 
3471 -0.069761045 
3472 -0.069890864 
3473 -0.06987745 
3474 -0.06992037 
3475 -0.069798596 
3476 -0.06963659 
3477 -0.069656976 
3478 -0.069690235 
3479 -0.069768555 
3480 -0.069700964 
3481 -0.069708474 
3482 -0.06991608 
3483 -0.06990052 
3484 -0.06971706 
3485 -0.06965376 
3486 -0.06969667 
3487 -0.06971813 
3488 -0.06963337 
3489 -0.06957222 
3490 -0.0696146 
3491 -0.06965805 
3492 -0.0696897 
3493 -0.06979055 
3494 -0.069742806 
3495 -0.06968594 
3496 -0.069738515 
3497 -0.06974495 
3498 -0.06974334 
3499 -0.069822736 
3500 -0.0698045 
3501 -0.069723494 
3502 -0.06959904 
3503 -0.06968219 
3504 -0.06977714 
3505 -0.069727786 
3506 -0.06966556 
3507 -0.06960333 
3508 -0.06956578 
3509 -0.06965 
3510 -0.0698222 
3511 -0.06990857 
3512 -0.06999654 
3513 -0.07006735 
3514 -0.07003892 
3515 -0.069822736 
3516 -0.06960548 
3517 -0.0695985 
3518 -0.069651075 
3519 -0.0697074 
3520 -0.06973047 
3521 -0.06970204 
3522 -0.0696559 
3523 -0.06957329 
3524 -0.06957919 
3525 -0.06962264 
3526 -0.069682725 
3527 -0.069586165 
3528 -0.06941665 
3529 -0.069424696 
3530 -0.069641955 
3531 -0.06973476 
3532 -0.06978143 
3533 -0.06996114 
3534 -0.07003034 
3535 -0.069874234 
3536 -0.06988228 
3537 -0.0700003 
3538 -0.06991715 
3539 -0.06969345 
3540 -0.06959046 
3541 -0.06974388 
3542 -0.06993646 
3543 -0.06994773 
3544 -0.06978733 
3545 -0.06973744 
3546 -0.06983454 
3547 -0.06976963 
3548 -0.06960762 
3549 -0.06960172 
3550 -0.06966878 
3551 -0.069641955 
3552 -0.069810934 
3553 -0.06977553 
3554 -0.06968487 
3555 -0.06958134 
3556 -0.069569 
3557 -0.069641955 
3558 -0.06978411 
3559 -0.069871016 
3560 -0.06989033 
3561 -0.06988121 
3562 -0.06979162 
3563 -0.06972242 
3564 -0.069655366 
3565 -0.069578655 
3566 -0.069628544 
3567 -0.06975407 
3568 -0.06986029 
3569 -0.06988818 
3570 -0.069827564 
3571 -0.069679506 
3572 -0.06957919 
3573 -0.069613524 
3574 -0.06982113 
3575 -0.0699944 
3576 -0.07017089 
3577 -0.07030178 
3578 -0.07017464 
3579 -0.06985868 
3580 -0.06980664 
3581 -0.069807716 
3582 -0.06977446 
3583 -0.06971008 
3584 -0.069747634 
3585 -0.06978197 
3586 -0.069904275 
3587 -0.06988282 
3588 -0.06986565 
3589 -0.06984634 
3590 -0.06988443 
3591 -0.070006736 
3592 -0.07015694 
3593 -0.070249744 
3594 -0.07029212 
3595 -0.070207365 
3596 -0.07002015 
3597 -0.06989623 
3598 -0.07001156 
3599 -0.069922514 
3600 -0.069655366 
3601 -0.06951804 
3602 -0.06945688 
3603 -0.06941611 
3604 -0.06952984 
3605 -0.06968058 
3606 -0.06975568 
3607 -0.06969238 
3608 -0.06989408 
3609 -0.070136555 
3610 -0.07011778 
3611 -0.07009686 
3612 -0.070101686 
3613 -0.070140846 
3614 -0.07009525 
3615 -0.07009096 
3616 -0.070134945 
3617 -0.07016445 
3618 -0.070196636 
3619 -0.07016552 
3620 -0.0700062 
3621 -0.06990803 
3622 -0.0698678 
3623 -0.0696264 
3624 -0.06966824 
3625 -0.06968916 
3626 -0.06953467 
3627 -0.069531985 
3628 -0.0696897 
3629 -0.06976909 
3630 -0.069744416 
3631 -0.069753 
3632 -0.069736905 
3633 -0.06985224 
3634 -0.06987799 
3635 -0.06992198 
3636 -0.0700062 
3637 -0.07001049 
3638 -0.069994934 
3639 -0.06994451 
3640 -0.06992466 
3641 -0.0698399 
3642 -0.06989623 
3643 -0.07003624 
3644 -0.07022721 
3645 -0.07023204 
3646 -0.07007379 
3647 -0.07001478 
3648 -0.06995953 
3649 -0.0699311 
3650 -0.06979484 
3651 -0.06971169 
3652 -0.06979162 
3653 -0.06991822 
3654 -0.0700577 
3655 -0.06998099 
3656 -0.06976158 
3657 -0.06972886 
3658 -0.06996865 
3659 -0.06996436 
3660 -0.06991715 
3661 -0.06997562 
3662 -0.070162304 
3663 -0.070216484 
3664 -0.07019932 
3665 -0.07001371 
3666 -0.06983615 
3667 -0.06985063 
3668 -0.069855995 
3669 -0.06983239 
3670 -0.069776066 
3671 -0.06967414 
3672 -0.0696779 
3673 -0.069641955 
3674 -0.06964088 
3675 -0.06965429 
3676 -0.06966341 
3677 -0.069727786 
3678 -0.06975836 
3679 -0.069785185 
3680 -0.06968594 
3681 -0.070021756 
3682 -0.07014192 
3683 -0.06978948 
3684 -0.06978787 
3685 -0.069934316 
3686 -0.07001264 
3687 -0.06995148 
3688 -0.070071645 
3689 -0.070168205 
3690 -0.070073254 
3691 -0.069920905 
3692 -0.07000942 
3693 -0.07012046 
3694 -0.070082374 
3695 -0.070064135 
3696 -0.069930024 
3697 -0.06977338 
3698 -0.06989462 
3699 -0.07014889 
3700 -0.07012958 
3701 -0.06997616 
3702 -0.06999279 
3703 -0.06988711 
3704 -0.069848485 
3705 -0.06993378 
3706 -0.0698458 
3707 -0.069735296 
3708 -0.06993324 
3709 -0.06992788 
3710 -0.06996865 
3711 -0.07002873 
3712 -0.07002551 
3713 -0.07005448 
3714 -0.07006789 
3715 -0.06999708 
3716 -0.06990964 
3717 -0.0698619 
3718 -0.069890864 
3719 -0.06999601 
3720 -0.07014031 
3721 -0.07014031 
3722 -0.07009257 
3723 -0.07023794 
3724 -0.070291586 
3725 -0.070184834 
3726 -0.07019771 
3727 -0.07004858 
3728 -0.069958456 
3729 -0.07010008 
3730 -0.07018215 
3731 -0.070099 
3732 -0.07000405 
3733 -0.07006521 
3734 -0.07018591 
3735 -0.07020468 
3736 -0.07002229 
3737 -0.06987692 
3738 -0.07000942 
3739 -0.06997401 
3740 -0.06997133 
3741 -0.06993056 
3742 -0.070018 
3743 -0.07019181 
3744 -0.0701784 
3745 -0.07016928 
3746 -0.07025833 
3747 -0.07018054 
3748 -0.070017464 
3749 -0.07004643 
3750 -0.070269056 
3751 -0.070255645 
3752 -0.070228286 
3753 -0.070159085 
3754 -0.069976695 
3755 -0.06992466 
3756 -0.0700239 
3757 -0.070000835 
3758 -0.06989784 
3759 -0.069753 
3760 -0.06973208 
3761 -0.06965751 
3762 -0.06962801 
3763 -0.069700964 
3764 -0.069920905 
3765 -0.070039995 
3766 -0.06995792 
3767 -0.0699032 
3768 -0.06999064 
3769 -0.07013709 
3770 -0.07032967 
3771 -0.070347376 
3772 -0.07026262 
3773 -0.07024545 
3774 -0.07027281 
3775 -0.07020468 
3776 -0.07032592 
3777 -0.07025618 
3778 -0.07006521 
3779 -0.0698855 
3780 -0.06970472 
3781 -0.06953145 
3782 -0.069472976 
3783 -0.06953252 
3784 -0.06961513 
3785 -0.06968004 
3786 -0.06961513 
3787 -0.06938661 
3788 -0.06949014 
3789 -0.06969453 
3790 -0.06989891 
3791 -0.069840975 
3792 -0.06977124 
3793 -0.069943435 
3794 -0.06995685 
3795 -0.0698914 
3796 -0.070002444 
3797 -0.070192344 
3798 -0.070228286 
3799 -0.07022614 
3800 -0.07030017 
3801 -0.07019932 
3802 -0.070184834 
3803 -0.07018752 
3804 -0.07027603 
3805 -0.070142455 
3806 -0.07000566 
3807 -0.069816835 
3808 -0.06968219 
3809 -0.06955398 
3810 -0.0694424 
3811 -0.069414504 
3812 -0.06950141 
3813 -0.069711156 
3814 -0.06991608 
3815 -0.070002444 
3816 -0.07001371 
3817 -0.07003356 
3818 -0.07018805 
3819 -0.0701328 
3820 -0.06998099 
3821 -0.0700872 
3822 -0.07029373 
3823 -0.070318945 
3824 -0.07032538 
3825 -0.07010598 
3826 -0.06994397 
3827 -0.06992734 
3828 -0.07002283 
3829 -0.06995577 
3830 -0.069846876 
3831 -0.069807716 
3832 -0.06981898 
3833 -0.069820054 
3834 -0.069941826 
3835 -0.070070036 
3836 -0.070034094 
3837 -0.07008452 
3838 -0.070160694 
3839 -0.07007111 
3840 -0.069756754 
3841 -0.0695985 
3842 -0.06984312 
3843 -0.07022668 
3844 -0.07020522 
3845 -0.070140846 
3846 -0.0700003 
3847 -0.06986029 
3848 -0.0699311 
3849 -0.07010276 
3850 -0.07032592 
3851 -0.07034684 
3852 -0.070270665 
3853 -0.07021434 
3854 -0.07021595 
3855 -0.07032592 
3856 -0.0701902 
3857 -0.07019878 
3858 -0.070199855 
3859 -0.07010705 
3860 -0.069982596 
3861 -0.069872625 
3862 -0.0697412 
3863 -0.06980128 
3864 -0.069978304 
3865 -0.070223995 
3866 -0.07023204 
3867 -0.07027013 
3868 -0.07027496 
3869 -0.070207365 
3870 -0.070244916 
3871 -0.070202 
3872 -0.07018644 
3873 -0.070283 
3874 -0.07033933 
3875 -0.07030285 
3876 -0.07018859 
3877 -0.07004107 
3878 -0.07007057 
3879 -0.07017089 
3880 -0.070164986 
3881 -0.0701902 
3882 -0.07008291 
3883 -0.070049115 
3884 -0.070127435 
3885 -0.070116706 
3886 -0.0702417 
3887 -0.07010812 
3888 -0.070103295 
3889 -0.07021219 
3890 -0.07024599 
3891 -0.07009793 
3892 -0.070058234 
3893 -0.07008881 
3894 -0.07001478 
3895 -0.07007218 
3896 -0.070270665 
3897 -0.070428915 
3898 -0.07041872 
3899 -0.070255645 
3900 -0.07004429 
3901 -0.06993646 
3902 -0.07000137 
3903 -0.07006467 
3904 -0.06998528 
3905 -0.069952555 
3906 -0.06998635 
3907 -0.07011349 
3908 -0.070318945 
3909 -0.07041175 
3910 -0.07033128 
3911 -0.07026959 
3912 -0.07015801 
3913 -0.07014353 
3914 -0.070136555 
3915 -0.0700577 
3916 -0.06994451 
3917 -0.06988067 
3918 -0.06985117 
3919 -0.0697707 
3920 -0.06957436 
3921 -0.06968594 
3922 -0.06974924 
3923 -0.06976212 
3924 -0.06986297 
3925 -0.070065744 
3926 -0.070116706 
3927 -0.070175715 
3928 -0.07021863 
3929 -0.070259936 
3930 -0.070308216 
3931 -0.07033665 
3932 -0.07027174 
3933 -0.070172496 
3934 -0.07009632 
3935 -0.07034791 
3936 -0.07045681 
3937 -0.070300706 
3938 -0.07032324 
3939 -0.0703345 
3940 -0.07015694 
3941 -0.07015587 
3942 -0.070284076 
3943 -0.07035381 
3944 -0.07020254 
3945 -0.06999064 
3946 -0.069907494 
3947 -0.06991071 
3948 -0.06988711 
3949 -0.06985117 
3950 -0.0697074 
3951 -0.06951106 
3952 -0.06936837 
3953 -0.06941504 
3954 -0.06979377 
3955 -0.07016928 
3956 -0.07019717 
3957 -0.070101686 
3958 -0.0700813 
3959 -0.070207365 
3960 -0.070261545 
3961 -0.0701843 
3962 -0.070110805 
3963 -0.07003463 
3964 -0.06996114 
3965 -0.070023365 
3966 -0.07025618 
3967 -0.07029588 
3968 -0.07024116 
3969 -0.070269056 
3970 -0.07029373 
3971 -0.0702079 
3972 -0.0700754 
3973 -0.07000298 
3974 -0.06983722 
3975 -0.069756754 
3976 -0.06977875 
3977 -0.06994075 
3978 -0.0700121 
3979 -0.07015962 
3980 -0.070296414 
3981 -0.07023955 
3982 -0.07016338 
3983 -0.07007379 
3984 -0.07003892 
3985 -0.070029266 
3986 -0.06998313 
3987 -0.06990696 
3988 -0.07002229 
3989 -0.070134945 
3990 -0.07025833 
3991 -0.07024331 
3992 -0.07021756 
3993 -0.07023472 
3994 -0.07009954 
3995 -0.069915004 
3996 -0.06990857 
3997 -0.070097394 
3998 -0.07027335 
3999 -0.07042516 
4000 -0.070415504 
4001 -0.07019342 
4002 -0.07003302 
4003 -0.07029212 
4004 -0.070439644 
4005 -0.07032002 
4006 -0.070201464 
4007 -0.07018644 
4008 -0.07012207 
4009 -0.070121534 
4010 -0.07017625 
4011 -0.07018752 
4012 -0.070222385 
4013 -0.07019127 
4014 -0.0700239 
4015 -0.06983668 
4016 -0.0698855 
4017 -0.07006789 
4018 -0.07018752 
4019 -0.0702138 
4020 -0.07016874 
4021 -0.070053406 
4022 -0.07013387 
4023 -0.07020307 
4024 -0.07007594 
4025 -0.07002819 
4026 -0.07013387 
4027 -0.07008345 
4028 -0.06996382 
4029 -0.070024975 
4030 -0.07005555 
4031 -0.07016928 
4032 -0.07014138 
4033 -0.070079155 
4034 -0.0701328 
4035 -0.070231505 
4036 -0.07017142 
4037 -0.07017142 
4038 -0.070205756 
4039 -0.07022185 
4040 -0.07025082 
4041 -0.07017786 
4042 -0.070038386 
4043 -0.07013226 
4044 -0.07028247 
4045 -0.07015694 
4046 -0.07003302 
4047 -0.06995685 
4048 -0.06988872 
4049 -0.06986833 
4050 -0.06985492 
4051 -0.07002766 
4052 -0.070136555 
4053 -0.07009847 
4054 -0.070207365 
4055 -0.07030607 
4056 -0.07027442 
4057 -0.07033075 
4058 -0.07035113 
4059 -0.0703109 
4060 -0.070309825 
4061 -0.07025833 
4062 -0.07024331 
4063 -0.07024706 
4064 -0.070149966 
4065 -0.07008023 
4066 -0.07024223 
4067 -0.070174105 
4068 -0.07003678 
4069 -0.07002229 
4070 -0.07018108 
4071 -0.070138164 
4072 -0.070110805 
4073 -0.070269056 
4074 -0.07034201 
4075 -0.070231505 
4076 -0.07016177 
4077 -0.07016552 
4078 -0.07021595 
4079 -0.07022185 
4080 -0.07014353 
4081 -0.0701843 
4082 -0.07013763 
4083 -0.070085056 
4084 -0.07007647 
4085 -0.070015855 
4086 -0.07001854 
4087 -0.07013173 
4088 -0.070140846 
4089 -0.07000513 
4090 -0.06988443 
4091 -0.06997723 
4092 -0.07003624 
4093 -0.070148356 
4094 -0.07008559 
4095 -0.069937 
4096 -0.07001961 
4097 -0.07015104 
4098 -0.070190735 
4099 -0.07022721 
4100 -0.070347376 
4101 -0.07025189 
4102 -0.070294805 
4103 -0.0704493 
4104 -0.07051582 
4105 -0.07056839 
4106 -0.07046915 
4107 -0.07037366 
4108 -0.07010973 
4109 -0.07003946 
4110 -0.07010061 
4111 -0.07019288 
4112 -0.070183225 
4113 -0.070270665 
4114 -0.07031841 
4115 -0.07027496 
4116 -0.0701902 
4117 -0.07015533 
4118 -0.07020039 
4119 -0.07022292 
4120 -0.07018376 
4121 -0.07007594 
4122 -0.06996275 
4123 -0.069969185 
4124 -0.070077546 
4125 -0.070074864 
4126 -0.07004321 
4127 -0.0702476 
4128 -0.07017196 
4129 -0.07029212 
4130 -0.07050402 
4131 -0.07056946 
4132 -0.07057268 
4133 -0.07053513 
4134 -0.07049758 
4135 -0.07046486 
4136 -0.07037527 
4137 -0.07012046 
4138 -0.069910176 
4139 -0.069875844 
4140 -0.06973047 
4141 -0.069673605 
4142 -0.06980289 
4143 -0.069866724 
4144 -0.069958456 
4145 -0.07008345 
4146 -0.07039941 
4147 -0.0705818 
4148 -0.07065154 
4149 -0.07066495 
4150 -0.07052011 
4151 -0.07050777 
4152 -0.07049919 
4153 -0.07059253 
4154 -0.07060755 
4155 -0.07048417 
4156 -0.070380636 
4157 -0.07037527 
4158 -0.070368834 
4159 -0.07017947 
4160 -0.070018 
4161 -0.07006896 
4162 -0.070070036 
4163 -0.06994612 
4164 -0.06995953 
4165 -0.07011349 
4166 -0.070030876 
4167 -0.070086665 
4168 -0.07031197 
4169 -0.07047612 
4170 -0.0703978 
4171 -0.07030661 
4172 -0.070317335 
4173 -0.07049704 
4174 -0.07059521 
4175 -0.070578046 
4176 -0.07040907 
4177 -0.0703742 
4178 -0.07057107 
4179 -0.07063437 
4180 -0.07060433 
4181 -0.070484705 
4182 -0.070404775 
4183 -0.070421405 
4184 -0.07049275 
4185 -0.07051367 
4186 -0.070382245 
4187 -0.07027174 
4188 -0.070207365 
4189 -0.07004643 
4190 -0.06995953 
4191 -0.07008559 
4192 -0.07031787 
4193 -0.0704493 
4194 -0.070463784 
4195 -0.07042194 
4196 -0.07038654 
4197 -0.070454665 
4198 -0.07042409 
4199 -0.07042355 
4200 -0.07042999 
4201 -0.07033343 
4202 -0.07031465 
4203 -0.070190735 
4204 -0.07019449 
4205 -0.07037688 
4206 -0.07037098 
4207 -0.0703227 
4208 -0.07029105 
4209 -0.07031948 
4210 -0.07029749 
4211 -0.07041711 
4212 -0.07044608 
4213 -0.070214875 
4214 -0.070121534 
4215 -0.07029802 
4216 -0.070510454 
4217 -0.070553906 
4218 -0.07074005 
4219 -0.070817836 
4220 -0.070802815 
4221 -0.07073415 
4222 -0.07053084 
4223 -0.07042999 
4224 -0.07045735 
4225 -0.0702712 
4226 -0.07017464 
4227 -0.070222385 
4228 -0.070196636 
4229 -0.07016767 
4230 -0.07010812 
4231 -0.07012314 
4232 -0.07030714 
4233 -0.07047505 
4234 -0.07041121 
4235 -0.07033611 
4236 -0.07047773 
4237 -0.07057751 
4238 -0.07042784 
4239 -0.07009471 
4240 -0.06997294 
4241 -0.07006789 
4242 -0.070062526 
4243 -0.07022668 
4244 -0.07021702 
4245 -0.07009471 
4246 -0.06995363 
4247 -0.069928415 
4248 -0.06991286 
4249 -0.069859214 
4250 -0.07000942 
4251 -0.07012422 
4252 -0.07010544 
4253 -0.070073254 
4254 -0.07016016 
4255 -0.07020468 
4256 -0.07013441 
4257 -0.07037956 
4258 -0.07053245 
4259 -0.07055283 
4260 -0.07053406 
4261 -0.07051904 
4262 -0.07042623 
4263 -0.070439644 
4264 -0.070412286 
4265 -0.07030446 
4266 -0.070270665 
4267 -0.07032002 
4268 -0.070151575 
4269 -0.07009525 
4270 -0.070041604 
4271 -0.07006682 
4272 -0.070144065 
4273 -0.07021273 
4274 -0.070352204 
4275 -0.070343085 
4276 -0.07037956 
4277 -0.07043857 
4278 -0.07037795 
4279 -0.070404775 
4280 -0.07049597 
4281 -0.07042355 
4282 -0.07058556 
4283 -0.07068265 
4284 -0.07049865 
4285 -0.070403166 
4286 -0.07043911 
4287 -0.07033772 
4288 -0.07037527 
4289 -0.07050509 
4290 -0.07057322 
4291 -0.070594676 
4292 -0.07064081 
4293 -0.07058931 
4294 -0.07051367 
4295 -0.07043696 
4296 -0.070386 
4297 -0.070328064 
4298 -0.07031841 
4299 -0.07039458 
4300 -0.07042248 
4301 -0.07045788 
4302 -0.0705523 
4303 -0.070633836 
4304 -0.07058556 
4305 -0.07048578 
4306 -0.07048095 
4307 -0.070294805 
4308 -0.070198245 
4309 -0.070460565 
4310 -0.07071323 
4311 -0.07075239 
4312 -0.07078672 
4313 -0.07079048 
4314 -0.070642956 
4315 -0.07056356 
4316 -0.07074166 
4317 -0.07079745 
4318 -0.07070572 
4319 -0.07060916 
4320 -0.07052869 
4321 -0.070406385 
4322 -0.07039995 
4323 -0.07036025 
4324 -0.07021702 
4325 -0.070281394 
4326 -0.0705877 
4327 -0.07057751 
4328 -0.070557125 
4329 -0.07053352 
4330 -0.07046915 
4331 -0.07063276 
4332 -0.070650466 
4333 -0.07061399 
4334 -0.07055605 
4335 -0.07060165 
4336 -0.070612915 
4337 -0.07048578 
4338 -0.070424624 
4339 -0.070587166 
4340 -0.070612915 
4341 -0.07042945 
4342 -0.07035918 
4343 -0.07035113 
4344 -0.07026584 
4345 -0.070261545 
4346 -0.07019288 
4347 -0.07012958 
4348 -0.07008935 
4349 -0.07004482 
4350 -0.07031519 
4351 -0.07065637 
4352 -0.07065744 
4353 -0.07057322 
4354 -0.070605405 
4355 -0.07056946 
4356 -0.07050455 
4357 -0.07059897 
4358 -0.070587166 
4359 -0.07052762 
4360 -0.07065315 
4361 -0.070665486 
4362 -0.07064349 
4363 -0.0705818 
4364 -0.07056839 
4365 -0.070499726 
4366 -0.070303924 
4367 -0.07018054 
4368 -0.07005448 
4369 -0.07001049 
4370 -0.07009364 
4371 -0.070053406 
4372 -0.07000459 
4373 -0.07006306 
4374 -0.07016928 
4375 -0.0703624 
4376 -0.070477195 
4377 -0.07054318 
4378 -0.07050563 
4379 -0.07064886 
4380 -0.070709474 
4381 -0.070644565 
4382 -0.07044769 
4383 -0.070237406 
4384 -0.07041711 
4385 -0.07050938 
4386 -0.07029749 
4387 -0.07020307 
4388 -0.07031465 
4389 -0.07042033 
4390 -0.07039673 
4391 -0.07032967 
4392 -0.07037527 
4393 -0.070315726 
4394 -0.07041711 
4395 -0.07053781 
4396 -0.07049436 
4397 -0.07037527 
4398 -0.07036025 
4399 -0.07032002 
4400 -0.07039297 
4401 -0.07043374 
4402 -0.07040853 
4403 -0.070382245 
4404 -0.07028354 
4405 -0.07018215 
4406 -0.070181616 
4407 -0.07021756 
4408 -0.07010598 
4409 -0.070121534 
4410 -0.07029051 
4411 -0.070246525 
4412 -0.07016713 
4413 -0.07015426 
4414 -0.07010759 
4415 -0.0701446 
4416 -0.07031358 
4417 -0.07048363 
4418 -0.07042033 
4419 -0.070272274 
4420 -0.07049704 
4421 -0.07076848 
4422 -0.07064886 
4423 -0.07051421 
4424 -0.07042087 
4425 -0.07027496 
4426 -0.070133336 
4427 -0.07012851 
4428 -0.07029588 
4429 -0.070501335 
4430 -0.070540495 
4431 -0.0704949 
4432 -0.070548005 
4433 -0.07049329 
4434 -0.07046861 
4435 -0.07039029 
4436 -0.07039619 
4437 -0.07045037 
4438 -0.07038707 
4439 -0.07034845 
4440 -0.070356496 
4441 -0.07038493 
4442 -0.07029427 
4443 -0.0703286 
4444 -0.07037044 
4445 -0.07044501 
4446 -0.070371516 
4447 -0.0702417 
4448 -0.07022936 
4449 -0.07010705 
4450 -0.06996811 
4451 -0.06986726 
4452 -0.06993539 
4453 -0.07009632 
4454 -0.070164986 
4455 -0.07018752 
4456 -0.07017357 
4457 -0.07033665 
4458 -0.07036186 
4459 -0.07021166 
4460 -0.070080765 
4461 -0.07008452 
4462 -0.06998528 
4463 -0.06997723 
4464 -0.06998045 
4465 -0.06991661 
4466 -0.06990535 
4467 -0.070029266 
4468 -0.07023955 
4469 -0.07030661 
4470 -0.07023633 
4471 -0.070175715 
4472 -0.070257254 
4473 -0.07028944 
4474 -0.070134945 
4475 -0.07020468 
4476 -0.07044179 
4477 -0.0704729 
4478 -0.07048149 
4479 -0.070326455 
4480 -0.07034094 
4481 -0.070204146 
4482 -0.070101686 
4483 -0.070099 
4484 -0.069945045 
4485 -0.06995148 
4486 -0.0701151 
4487 -0.0701902 
4488 -0.07024009 
4489 -0.07029266 
4490 -0.07023097 
4491 -0.070183225 
4492 -0.070114024 
4493 -0.070279785 
4494 -0.070487924 
4495 -0.07058341 
4496 -0.070603795 
4497 -0.07062901 
4498 -0.070489 
4499 -0.07040585 
4500 -0.070309825 
4501 -0.07009364 
4502 -0.070006736 
4503 -0.070136555 
4504 -0.070320554 
4505 -0.07028837 
4506 -0.070038386 
4507 -0.069930024 
4508 -0.06991983 
4509 -0.06969131 
4510 -0.06973422 
4511 -0.07005555 
4512 -0.07015265 
4513 -0.070125826 
4514 -0.07010437 
4515 -0.07010383 
4516 -0.0703919 
4517 -0.070483096 
4518 -0.0705936 
4519 -0.070514746 
4520 -0.07037205 
4521 -0.07035489 
4522 -0.0704493 
4523 -0.070382245 
4524 -0.07033879 
4525 -0.07013548 
4526 -0.06997616 
4527 -0.06995148 
4528 -0.07007862 
4529 -0.07019932 
4530 -0.07019717 
4531 -0.070208974 
4532 -0.07035864 
4533 -0.0704611 
4534 -0.07037956 
4535 -0.07022775 
4536 -0.070272274 
4537 -0.07029695 
4538 -0.07039834 
4539 -0.07054264 
4540 -0.07058019 
4541 -0.07057912 
4542 -0.07064832 
4543 -0.070627935 
4544 -0.07041121 
4545 -0.070359714 
4546 -0.07027174 
4547 -0.07008774 
4548 -0.06993217 
4549 -0.069990106 
4550 -0.06997026 
4551 -0.07011563 
4552 -0.07030446 
4553 -0.070432134 
4554 -0.070514746 
4555 -0.07052655 
4556 -0.070499726 
4557 -0.07055444 
4558 -0.07056839 
4559 -0.07062579 
4560 -0.07068319 
4561 -0.07049329 
4562 -0.07030178 
4563 -0.07015694 
4564 -0.07005448 
4565 -0.06997294 
4566 -0.06998099 
4567 -0.069982596 
4568 -0.07015211 
4569 -0.07026369 
4570 -0.07035596 
4571 -0.0704037 
4572 -0.07049329 
4573 -0.07062418 
4574 -0.07052655 
4575 -0.07032377 
4576 -0.070341475 
4577 -0.07032538 
4578 -0.07025618 
4579 -0.07050402 
4580 -0.07043857 
4581 -0.070196636 
4582 -0.07030768 
4583 -0.070404775 
4584 -0.07024009 
4585 -0.07009525 
4586 -0.070116706 
4587 -0.070257254 
4588 -0.07036186 
4589 -0.07039297 
4590 -0.07035596 
4591 -0.07026101 
4592 -0.0702771 
4593 -0.07021756 
4594 -0.070341475 
4595 -0.07050026 
4596 -0.070512064 
4597 -0.07053084 
4598 -0.07040102 
4599 -0.07023204 
4600 -0.07045413 
4601 -0.07071752 
4602 -0.07064725 
4603 -0.07047505 
4604 -0.07050563 
4605 -0.07059307 
4606 -0.07046861 
4607 -0.07043374 
4608 -0.07052601 
4609 -0.07062257 
4610 -0.07057 
4611 -0.07059414 
4612 -0.070596285 
4613 -0.070483096 
4614 -0.070512064 
4615 -0.07053513 
4616 -0.07051367 
4617 -0.07059092 
4618 -0.070558734 
4619 -0.07041604 
4620 -0.0701902 
4621 -0.07004375 
4622 -0.07007111 
4623 -0.070237406 
4624 -0.07032324 
4625 -0.07025135 
4626 -0.070223995 
4627 -0.07014889 
4628 -0.07011617 
4629 -0.070328064 
4630 -0.070564635 
4631 -0.070523866 
4632 -0.0704949 
4633 -0.070578046 
4634 -0.07069177 
4635 -0.070698746 
4636 -0.070667095 
4637 -0.070697136 
4638 -0.07069553 
4639 -0.07064242 
4640 -0.07050348 
4641 -0.07030768 
4642 -0.07027925 
4643 -0.07021219 
4644 -0.07006038 
4645 -0.07010812 
4646 -0.07016338 
4647 -0.07023097 
4648 -0.070281394 
4649 -0.07021112 
4650 -0.070153184 
4651 -0.07009471 
4652 -0.070118316 
4653 -0.0702771 
4654 -0.07036508 
4655 -0.0702535 
4656 -0.070328064 
4657 -0.070443936 
4658 -0.07044876 
4659 -0.07047988 
4660 -0.07030446 
4661 -0.07019181 
4662 -0.07014514 
4663 -0.07031948 
4664 -0.07039083 
4665 -0.07021219 
4666 -0.07022614 
4667 -0.070333965 
4668 -0.07023794 
4669 -0.07010061 
4670 -0.07004858 
4671 -0.069978304 
4672 -0.07009525 
4673 -0.07016338 
4674 -0.07015426 
4675 -0.07026369 
4676 -0.070281394 
4677 -0.070347376 
4678 -0.07030446 
4679 -0.070379026 
4680 -0.07042355 
4681 -0.0703227 
4682 -0.07021273 
4683 -0.07024867 
4684 -0.07031251 
4685 -0.07018644 
4686 -0.070134945 
4687 -0.07013548 
4688 -0.07012046 
4689 -0.070136555 
4690 -0.07017679 
4691 -0.070160694 
4692 -0.07008291 
4693 -0.0700518 
4694 -0.07020629 
4695 -0.07024116 
4696 -0.07015801 
4697 -0.07023848 
4698 -0.07043589 
4699 -0.070468076 
4700 -0.07035274 
4701 -0.07045359 
4702 -0.07060058 
4703 -0.07040853 
4704 -0.07035918 
4705 -0.070328064 
4706 -0.07031519 
4707 -0.070223995 
4708 -0.07007057 
4709 -0.07007379 
4710 -0.070193954 
4711 -0.0703404 
4712 -0.07030768 
4713 -0.07017357 
4714 -0.07031197 
4715 -0.07034577 
4716 -0.0701784 
4717 -0.07018859 
4718 -0.07030661 
4719 -0.07034255 
4720 -0.07033182 
4721 -0.07019288 
4722 -0.07012261 
4723 -0.07028622 
4724 -0.07048685 
4725 -0.07036454 
4726 -0.07022024 
4727 -0.07023472 
4728 -0.07016338 
4729 -0.069970794 
4730 -0.06987477 
4731 -0.07006199 
4732 -0.07026423 
4733 -0.0703624 
4734 -0.070326455 
4735 -0.07041068 
4736 -0.070388146 
4737 -0.070403166 
4738 -0.07044501 
4739 -0.07026262 
4740 -0.07027496 
4741 -0.07045788 
4742 -0.070558734 
4743 -0.07058985 
4744 -0.07042087 
4745 -0.07021058 
4746 -0.070114024 
4747 -0.07012529 
4748 -0.07016338 
4749 -0.07016284 
4750 -0.07027388 
4751 -0.07037795 
4752 -0.07038171 
4753 -0.070333965 
4754 -0.07026369 
4755 -0.07035381 
4756 -0.07039297 
4757 -0.07027496 
4758 -0.070257254 
4759 -0.07026959 
4760 -0.07017303 
4761 -0.07023043 
4762 -0.07046915 
4763 -0.07063491 
4764 -0.07048417 
4765 -0.070386 
4766 -0.07045949 
4767 -0.07042355 
4768 -0.0702771 
4769 -0.07021166 
4770 -0.07024277 
4771 -0.07030285 
4772 -0.070398875 
4773 -0.07045359 
4774 -0.07030661 
4775 -0.07031787 
4776 -0.07032324 
4777 -0.070367225 
4778 -0.07054693 
4779 -0.07057751 
4780 -0.07057858 
4781 -0.07072932 
4782 -0.070806034 
4783 -0.07055766 
4784 -0.07030553 
4785 -0.07022453 
4786 -0.07021595 
4787 -0.07032914 
4788 -0.07040531 
4789 -0.070427306 
4790 -0.07053191 
4791 -0.07074005 
4792 -0.07076795 
4793 -0.0706215 
4794 -0.070489 
4795 -0.070380636 
4796 -0.0703404 
4797 -0.070339866 
4798 -0.070276566 
4799 -0.07022882 
4800 -0.07039244 
4801 -0.07044876 
4802 -0.07031197 
4803 -0.070341475 
4804 -0.07055498 
4805 -0.070644565 
4806 -0.07052869 
4807 -0.070367225 
4808 -0.07017089 
4809 -0.07014138 
4810 -0.070127435 
4811 -0.070255645 
4812 -0.07030661 
4813 -0.07023043 
4814 -0.07016928 
4815 -0.07029856 
4816 -0.07052869 
4817 -0.0705641 
4818 -0.070507236 
4819 -0.07035542 
4820 -0.07043535 
4821 -0.070694454 
4822 -0.070670314 
4823 -0.07057751 
4824 -0.07048685 
4825 -0.07030714 
4826 -0.07026637 
4827 -0.070174105 
4828 -0.07001156 
4829 -0.07015801 
4830 -0.070237406 
4831 -0.07020951 
4832 -0.07039405 
4833 -0.07048363 
4834 -0.070419796 
4835 -0.07030875 
4836 -0.070246525 
4837 -0.07051367 
4838 -0.07055659 
4839 -0.07040746 
4840 -0.07030768 
4841 -0.07010544 
4842 -0.07003195 
4843 -0.070350595 
4844 -0.070462175 
4845 -0.07048524 
4846 -0.07064188 
4847 -0.07058609 
4848 -0.07054157 
4849 -0.07056571 
4850 -0.070519574 
4851 -0.07033826 
4852 -0.07025618 
4853 -0.070281394 
4854 -0.07017303 
4855 -0.07025618 
4856 -0.0703227 
4857 -0.07030178 
4858 -0.07034416 
4859 -0.07027603 
4860 -0.070172496 
4861 -0.070225604 
4862 -0.070350595 
4863 -0.07042355 
4864 -0.07030714 
4865 -0.07021756 
4866 -0.07002766 
4867 -0.07020844 
4868 -0.07041336 
4869 -0.07037366 
4870 -0.07047827 
4871 -0.07046754 
4872 -0.07047076 
4873 -0.07047773 
4874 -0.070451446 
4875 -0.07034523 
4876 -0.07033128 
4877 -0.07065315 
4878 -0.07058824 
4879 -0.07051582 
4880 -0.07064725 
4881 -0.07064725 
4882 -0.07038707 
4883 -0.07013173 
4884 -0.07010061 
4885 -0.07018644 
4886 -0.070162304 
4887 -0.0702771 
4888 -0.07028998 
4889 -0.07021595 
4890 -0.07018215 
4891 -0.0702476 
4892 -0.070246525 
4893 -0.070264764 
4894 -0.07040531 
4895 -0.07044769 
4896 -0.07032324 
4897 -0.07032431 
4898 -0.07054747 
4899 -0.07059897 
4900 -0.070563026 
4901 -0.07057912 
4902 -0.07066066 
4903 -0.07075722 
4904 -0.07074971 
4905 -0.07061399 
4906 -0.07041819 
4907 -0.07037366 
4908 -0.07045091 
4909 -0.07052333 
4910 -0.07042945 
4911 -0.07036079 
4912 -0.07034577 
4913 -0.07041872 
4914 -0.07041604 
4915 -0.07041282 
4916 -0.07053352 
4917 -0.070668705 
4918 -0.070670314 
4919 -0.07056732 
4920 -0.0705185 
4921 -0.07049758 
4922 -0.07063437 
4923 -0.07073308 
4924 -0.07069338 
4925 -0.07085968 
4926 -0.07097126 
4927 -0.07083232 
4928 -0.07059414 
4929 -0.070650466 
4930 -0.07063813 
4931 -0.0706392 
4932 -0.070661195 
4933 -0.070575364 
4934 -0.0705067 
4935 -0.07058609 
4936 -0.0705523 
4937 -0.070575364 
4938 -0.070490606 
4939 -0.070443936 
4940 -0.07045359 
4941 -0.07040209 
4942 -0.07031787 
4943 -0.07019127 
4944 -0.07033075 
4945 -0.07044823 
4946 -0.07050992 
4947 -0.07049114 
4948 -0.07047022 
4949 -0.07049436 
4950 -0.070463784 
4951 -0.07033826 
4952 -0.070359714 
4953 -0.07054425 
4954 -0.07048095 
4955 -0.0704316 
4956 -0.07038761 
4957 -0.07033289 
4958 -0.07050831 
4959 -0.070466466 
4960 -0.07018698 
4961 -0.07018752 
4962 -0.070451446 
4963 -0.07077599 
4964 -0.070890255 
4965 -0.07077975 
4966 -0.07068265 
4967 -0.07061345 
4968 -0.07063437 
4969 -0.07066602 
4970 -0.07054103 
4971 -0.07043428 
4972 -0.07036991 
4973 -0.07025833 
4974 -0.07015372 
4975 -0.07030929 
4976 -0.0704257 
4977 -0.07035167 
4978 -0.07037688 
4979 -0.070324846 
4980 -0.07031036 
4981 -0.070204146 
4982 -0.070214875 
4983 -0.07027871 
4984 -0.07018805 
4985 -0.07000405 
4986 -0.07004321 
4987 -0.07006521 
4988 -0.06989891 
4989 -0.06998367 
4990 -0.07019503 
4991 -0.070214875 
4992 -0.07015104 
4993 -0.07019771 
4994 -0.07029105 
4995 -0.07029212 
4996 -0.07026423 
4997 -0.07031036 
4998 -0.07053567 
4999 -0.070548005 
5000 -0.0705185 
5001 -0.07054693 
5002 -0.070495434 
5003 -0.07051743 
5004 -0.07049704 
5005 -0.07042087 
5006 -0.07032967 
5007 -0.07028622 
5008 -0.07017786 
5009 -0.07010008 
5010 -0.07012636 
5011 -0.070229895 
5012 -0.07045413 
5013 -0.07058073 
5014 -0.07060004 
5015 -0.070587166 
5016 -0.070578046 
5017 -0.07044769 
5018 -0.07035113 
5019 -0.07057107 
5020 -0.07070572 
5021 -0.07066656 
5022 -0.07067353 
5023 -0.07077653 
5024 -0.07073469 
5025 -0.07069606 
5026 -0.07063276 
5027 -0.07055927 
5028 -0.07052172 
5029 -0.07052655 
5030 -0.07048363 
5031 -0.07039619 
5032 -0.07033075 
5033 -0.07028837 
5034 -0.07023419 
5035 -0.07014889 
5036 -0.07003785 
5037 -0.07019181 
5038 -0.07049168 
5039 -0.07072718 
5040 -0.0707363 
5041 -0.07060862 
5042 -0.07043589 
5043 -0.070246525 
5044 -0.07026637 
5045 -0.0702417 
5046 -0.07017947 
5047 -0.07011617 
5048 -0.07019717 
5049 -0.070284076 
5050 -0.070112415 
5051 -0.07031626 
5052 -0.07064671 
5053 -0.07074649 
5054 -0.07054318 
5055 -0.07047827 
5056 -0.07047076 
5057 -0.070692845 
5058 -0.07076097 
5059 -0.070489 
5060 -0.07036615 
5061 -0.07030661 
5062 -0.070332356 
5063 -0.07031841 
5064 -0.07018054 
5065 -0.070140846 
5066 -0.070174105 
5067 -0.070070036 
5068 -0.07000137 
5069 -0.07027496 
5070 -0.07040746 
5071 -0.07040692 
5072 -0.07032324 
5073 -0.07027442 
5074 -0.07027496 
5075 -0.07027549 
5076 -0.07034952 
5077 -0.070293196 
5078 -0.07028193 
5079 -0.070380636 
5080 -0.07038761 
5081 -0.070406385 
5082 -0.07048846 
5083 -0.07038117 
5084 -0.07029749 
5085 -0.07022346 
5086 -0.07014728 
5087 -0.07016767 
5088 -0.07022721 
5089 -0.07015694 
5090 -0.070193954 
5091 -0.07024116 
5092 -0.070259936 
5093 -0.07029427 
5094 -0.070246525 
5095 -0.07030446 
5096 -0.07035381 
5097 -0.07034523 
5098 -0.070558734 
5099 -0.07065583 
5100 -0.0705818 
5101 -0.070572145 
5102 -0.070492215 
5103 -0.070285685 
5104 -0.070341475 
5105 -0.07024438 
5106 -0.07005555 
5107 -0.06989408 
5108 -0.06985546 
5109 -0.07023043 
5110 -0.07031519 
5111 -0.07012314 
5112 -0.07013065 
5113 -0.07024599 
5114 -0.07027335 
5115 -0.07021434 
5116 -0.070189126 
5117 -0.07025082 
5118 -0.07024867 
5119 -0.07035918 
5120 -0.0704375 
5121 -0.07032699 
5122 -0.07026369 
5123 -0.07020254 
5124 -0.07017035 
5125 -0.0700062 
5126 -0.069871016 
5127 -0.07005609 
5128 -0.07021219 
5129 -0.070261545 
5130 -0.07027603 
5131 -0.07039244 
5132 -0.07038493 
5133 -0.07030661 
5134 -0.0701902 
5135 -0.07006467 
5136 -0.07017786 
5137 -0.07026959 
5138 -0.07029051 
5139 -0.0703742 
5140 -0.07025833 
5141 -0.070164986 
5142 -0.0702712 
5143 -0.070213266 
5144 -0.070222385 
5145 -0.070269056 
5146 -0.07019878 
5147 -0.07003034 
5148 -0.06996221 
5149 -0.07001049 
5150 -0.070193954 
5151 -0.07024277 
5152 -0.07018752 
5153 -0.07020254 
5154 -0.070255645 
5155 -0.070276566 
5156 -0.07023955 
5157 -0.070308216 
5158 -0.07050509 
5159 -0.07044876 
5160 -0.07022775 
5161 -0.07016874 
5162 -0.07024331 
5163 -0.07022131 
5164 -0.07016606 
5165 -0.07016177 
5166 -0.07022185 
5167 -0.07013012 
5168 -0.070140846 
5169 -0.070077546 
5170 -0.07009257 
5171 -0.07021863 
5172 -0.0702991 
5173 -0.07025457 
5174 -0.070127435 
5175 -0.07011617 
5176 -0.07009847 
5177 -0.07019127 
5178 -0.07020629 
5179 -0.07019556 
5180 -0.07029695 
5181 -0.070415504 
5182 -0.07042409 
5183 -0.07058824 
5184 -0.070627935 
5185 -0.07041872 
5186 -0.07038546 
5187 -0.070320554 
5188 -0.07023097 
5189 -0.07026369 
5190 -0.0701269 
5191 -0.069978304 
5192 -0.069943435 
5193 -0.07001478 
5194 -0.070064135 
5195 -0.0700518 
5196 -0.070136555 
5197 -0.070328064 
5198 -0.070383854 
5199 -0.070451446 
5200 -0.07044018 
5201 -0.07034684 
5202 -0.07031465 
5203 -0.07028676 
5204 -0.07028032 
5205 -0.07020093 
5206 -0.06998528 
5207 -0.06987209 
5208 -0.069872625 
5209 -0.06997187 
5210 -0.07010276 
5211 -0.07034094 
5212 -0.07028515 
5213 -0.070190735 
5214 -0.07019771 
5215 -0.07016767 
5216 -0.07035542 
5217 -0.07061345 
5218 -0.070655294 
5219 -0.07058609 
5220 -0.07056142 
5221 -0.07050509 
5222 -0.07044501 
5223 -0.07042516 
5224 -0.07034577 
5225 -0.070255645 
5226 -0.070237406 
5227 -0.070199855 
5228 -0.07021219 
5229 -0.07018859 
5230 -0.07007057 
5231 -0.07006896 
5232 -0.070089884 
5233 -0.069945045 
5234 -0.069905885 
5235 -0.07011295 
5236 -0.070352204 
5237 -0.07040853 
5238 -0.07042677 
5239 -0.0703286 
5240 -0.0700577 
5241 -0.06992734 
5242 -0.06992573 
5243 -0.07000942 
5244 -0.070140846 
5245 -0.070347376 
5246 -0.07047076 
5247 -0.070674606 
5248 -0.070841976 
5249 -0.07078672 
5250 -0.070747025 
5251 -0.07083125 
5252 -0.07085002 
5253 -0.0705818 
5254 -0.07036025 
5255 -0.07026101 
5256 -0.07017089 
5257 -0.07005287 
5258 -0.069839366 
5259 -0.06986458 
5260 -0.06998474 
5261 -0.069954164 
5262 -0.06992573 
5263 -0.069937 
5264 -0.06993646 
5265 -0.07003356 
5266 -0.07014192 
5267 -0.07015587 
5268 -0.07004965 
5269 -0.07014031 
5270 -0.0704949 
5271 -0.07059146 
5272 -0.07051743 
5273 -0.070542105 
5274 -0.07062364 
5275 -0.07057697 
5276 -0.0703624 
5277 -0.07037956 
5278 -0.07030124 
5279 -0.07030446 
5280 -0.07025511 
5281 -0.070140846 
5282 -0.07009525 
5283 -0.07011885 
5284 -0.0701269 
5285 -0.07027335 
5286 -0.070136555 
5287 -0.0699547 
5288 -0.07001639 
5289 -0.07020254 
5290 -0.07018054 
5291 -0.07012636 
5292 -0.07011617 
5293 -0.07004268 
5294 -0.07003356 
5295 -0.06984956 
5296 -0.06946171 
5297 -0.069420405 
5298 -0.06966878 
5299 -0.06990052 
5300 -0.06977499 
5301 -0.06955505 
5302 -0.069613524 
5303 -0.06968004 
5304 -0.06978089 
5305 -0.06994075 
5306 -0.07000513 
5307 -0.06999547 
5308 -0.06993378 
5309 -0.07000137 
5310 -0.06987477 
5311 -0.069779284 
5312 -0.06993968 
5313 -0.07005555 
5314 -0.07004804 
5315 -0.07004697 
5316 -0.07013548 
5317 -0.07023955 
5318 -0.07021541 
5319 -0.07022882 
5320 -0.07026101 
5321 -0.070095785 
5322 -0.07022131 
5323 -0.07032431 
5324 -0.07036991 
5325 -0.0703978 
5326 -0.070397265 
5327 -0.07041282 
5328 -0.07041926 
5329 -0.070356496 
5330 -0.070270665 
5331 -0.070208974 
5332 -0.070269056 
5333 -0.0704316 
5334 -0.0705362 
5335 -0.070428915 
5336 -0.07037527 
5337 -0.070380636 
5338 -0.07054747 
5339 -0.0707599 
5340 -0.070692845 
5341 -0.070525475 
5342 -0.07047183 
5343 -0.07044769 
5344 -0.07044769 
5345 -0.070389755 
5346 -0.07029105 
5347 -0.070352204 
5348 -0.070379026 
5349 -0.0703463 
5350 -0.07036615 
5351 -0.07037795 
5352 -0.07037527 
5353 -0.07043267 
5354 -0.070379026 
5355 -0.070149966 
5356 -0.07028032 
5357 -0.07044501 
5358 -0.07043267 
5359 -0.070517965 
5360 -0.07047183 
5361 -0.07042623 
5362 -0.070341475 
5363 -0.07017518 
5364 -0.06997455 
5365 -0.069934316 
5366 -0.070029266 
5367 -0.07016767 
5368 -0.07025886 
5369 -0.07022668 
5370 -0.070255645 
5371 -0.070240624 
5372 -0.07024545 
5373 -0.07028783 
5374 -0.07029588 
5375 -0.070145674 
5376 -0.06996865 
5377 -0.07003678 
5378 -0.07022668 
5379 -0.0704434 
5380 -0.07055015 
5381 -0.07049168 
5382 -0.07041121 
5383 -0.07036186 
5384 -0.07032753 
5385 -0.07035435 
5386 -0.07021273 
5387 -0.070174105 
5388 -0.07014728 
5389 -0.07016338 
5390 -0.07024331 
5391 -0.070278175 
5392 -0.070198245 
5393 -0.07012958 
5394 -0.070134945 
5395 -0.070213266 
5396 -0.07043267 
5397 -0.07045037 
5398 -0.07040531 
5399 -0.070590384 
5400 -0.070553906 
5401 -0.07035381 
5402 -0.07030929 
5403 -0.070246525 
5404 -0.07008023 
5405 -0.07011778 
5406 -0.07028247 
5407 -0.07023419 
5408 -0.07013924 
5409 -0.07000459 
5410 -0.070002444 
5411 -0.07018054 
5412 -0.07025618 
5413 -0.07016177 
5414 -0.07017035 
5415 -0.07027603 
5416 -0.07022936 
5417 -0.070284076 
5418 -0.07025082 
5419 -0.07009847 
5420 -0.070094176 
5421 -0.07018376 
5422 -0.07005287 
5423 -0.06989623 
5424 -0.06995577 
5425 -0.07012314 
5426 -0.07011724 
5427 -0.07008291 
5428 -0.07017947 
5429 -0.070160694 
5430 -0.07017679 
5431 -0.07017679 
5432 -0.07022668 
5433 -0.070257254 
5434 -0.070348985 
5435 -0.070328064 
5436 -0.07014299 
5437 -0.07003731 
5438 -0.07018215 
5439 -0.07035918 
5440 -0.070398875 
5441 -0.07049919 
5442 -0.070415504 
5443 -0.07027496 
5444 -0.07022668 
5445 -0.07021595 
5446 -0.07023848 
5447 -0.07024223 
5448 -0.07004053 
5449 -0.069928415 
5450 -0.070015855 
5451 -0.070008345 
5452 -0.07009525 
5453 -0.07032002 
5454 -0.07042355 
5455 -0.07036776 
5456 -0.07041604 
5457 -0.07041282 
5458 -0.07036508 
5459 -0.0704257 
5460 -0.07054479 
5461 -0.07053406 
5462 -0.070318945 
5463 -0.070294805 
5464 -0.070294805 
5465 -0.07018054 
5466 -0.07022453 
5467 -0.07023204 
5468 -0.070101686 
5469 -0.07016445 
5470 -0.070272274 
5471 -0.070235796 
5472 -0.07009847 
5473 -0.070159085 
5474 -0.07025028 
5475 -0.07015372 
5476 -0.07004804 
5477 -0.07033611 
5478 -0.07056034 
5479 -0.07047612 
5480 -0.07040102 
5481 -0.07035489 
5482 -0.070379026 
5483 -0.07048578 
5484 -0.07045681 
5485 -0.070386 
5486 -0.07048256 
5487 -0.070257254 
5488 -0.069963284 
5489 -0.06997455 
5490 -0.07017786 
5491 -0.07026101 
5492 -0.07030178 
5493 -0.07019342 
5494 -0.070172496 
5495 -0.07014353 
5496 -0.07017357 
5497 -0.07035918 
5498 -0.070502944 
5499 -0.070477195 
5500 -0.07026691 
5501 -0.070041604 
5502 -0.07003624 
5503 -0.070162304 
5504 -0.0702197 
5505 -0.07004804 
5506 -0.06992895 
5507 -0.07023955 
5508 -0.070352204 
5509 -0.07035596 
5510 -0.07042194 
5511 -0.07059682 
5512 -0.07068104 
5513 -0.07039244 
5514 -0.07041926 
5515 -0.070626326 
5516 -0.07070518 
5517 -0.070716985 
5518 -0.0707717 
5519 -0.07066602 
5520 -0.070665486 
5521 -0.070706256 
5522 -0.07079906 
5523 -0.0706848 
5524 -0.070548005 
5525 -0.07051582 
5526 -0.07040853 
5527 -0.07025618 
5528 -0.07021434 
5529 -0.070403166 
5530 -0.07060755 
5531 -0.07063223 
5532 -0.07046861 
5533 -0.07045735 
5534 -0.07039512 
5535 -0.070445545 
5536 -0.0706333 
5537 -0.07055069 
5538 -0.07037956 
5539 -0.0704434 
5540 -0.07050509 
5541 -0.07052333 
5542 -0.07037259 
5543 -0.07029588 
5544 -0.07023204 
5545 -0.07024223 
5546 -0.07041175 
5547 -0.070358105 
5548 -0.070320554 
5549 -0.07028944 
5550 -0.07028837 
5551 -0.07035167 
5552 -0.07041175 
5553 -0.07050241 
5554 -0.070626326 
5555 -0.07056088 
5556 -0.07048363 
5557 -0.07043589 
5558 -0.07041068 
5559 -0.07038707 
5560 -0.07040531 
5561 -0.07044984 
5562 -0.070480414 
