# 2:1 
0 -0.118734434 
1 -0.118802026 
2 -0.11900963 
3 -0.119005874 
4 -0.11886211 
5 -0.11865397 
6 -0.11856009 
7 -0.118637875 
8 -0.118541315 
9 -0.118310645 
10 -0.11831708 
11 -0.11869688 
12 -0.11885996 
13 -0.118821874 
14 -0.118773594 
15 -0.11863251 
16 -0.11873926 
17 -0.11926122 
18 -0.11965604 
19 -0.11966516 
20 -0.11956699 
21 -0.119354025 
22 -0.11919953 
23 -0.11921187 
24 -0.11926551 
25 -0.1190107 
26 -0.11864753 
27 -0.118708685 
28 -0.119067565 
29 -0.11907454 
30 -0.11895545 
31 -0.11896993 
32 -0.11907454 
33 -0.11919524 
34 -0.11895706 
35 -0.11863841 
36 -0.11868562 
37 -0.11874516 
38 -0.11877896 
39 -0.11907776 
40 -0.11919631 
41 -0.11908795 
42 -0.11895116 
43 -0.1190166 
44 -0.11907937 
45 -0.119002655 
46 -0.11877413 
47 -0.11862983 
48 -0.11876662 
49 -0.1188326 
50 -0.11888303 
51 -0.11893989 
52 -0.118948475 
53 -0.11873712 
54 -0.118955985 
55 -0.119130865 
56 -0.11919846 
57 -0.119225815 
58 -0.11915393 
59 -0.11905308 
60 -0.11915822 
61 -0.11930843 
62 -0.1191947 
63 -0.11916037 
64 -0.119244054 
65 -0.11911477 
66 -0.11904557 
67 -0.11899407 
68 -0.11901714 
69 -0.11896725 
70 -0.11902197 
71 -0.119074 
72 -0.11914052 
73 -0.119183436 
74 -0.119246736 
75 -0.119201675 
76 -0.11918129 
77 -0.11911102 
78 -0.11902894 
79 -0.11892702 
80 -0.11876501 
81 -0.118656114 
82 -0.118598714 
83 -0.118461385 
84 -0.11847319 
85 -0.11853756 
86 -0.11856653 
87 -0.11852361 
88 -0.11836375 
89 -0.11838843 
90 -0.11852898 
91 -0.11861749 
92 -0.118707076 
93 -0.11882563 
94 -0.11883314 
95 -0.11860676 
96 -0.11858906 
97 -0.11892326 
98 -0.11913891 
99 -0.118850306 
100 -0.11881222 
101 -0.11931272 
102 -0.1194597 
103 -0.11953105 
104 -0.11964853 
105 -0.11931594 
106 -0.11909653 
107 -0.11924459 
108 -0.1193728 
109 -0.119495645 
110 -0.11908366 
111 -0.11902626 
112 -0.119240835 
113 -0.11931647 
114 -0.11928697 
115 -0.11930521 
116 -0.11921348 
117 -0.11937226 
118 -0.11942698 
119 -0.119486526 
120 -0.11938353 
121 -0.1193964 
122 -0.119533196 
123 -0.11939694 
124 -0.11905523 
125 -0.11899836 
126 -0.119298235 
127 -0.1194125 
128 -0.11938675 
129 -0.11942215 
130 -0.119323984 
131 -0.11917271 
132 -0.1191196 
133 -0.11899997 
134 -0.11902894 
135 -0.11905791 
136 -0.11911692 
137 -0.11926551 
138 -0.11925049 
139 -0.119108334 
140 -0.119073465 
141 -0.119138375 
142 -0.119127646 
143 -0.11914803 
144 -0.119249955 
145 -0.11915983 
146 -0.11896081 
147 -0.11899729 
148 -0.1192977 
149 -0.11926927 
150 -0.11914106 
151 -0.11921455 
152 -0.119121745 
153 -0.11898978 
154 -0.11899032 
155 -0.11896618 
156 -0.11884977 
157 -0.11873175 
158 -0.11876555 
159 -0.11881222 
160 -0.118948475 
161 -0.11900373 
162 -0.11894579 
163 -0.11883636 
164 -0.11874677 
165 -0.11882563 
166 -0.11900963 
167 -0.119304135 
168 -0.119179145 
169 -0.11897959 
170 -0.11894472 
171 -0.11912818 
172 -0.11922313 
173 -0.119050935 
174 -0.118830994 
175 -0.119136766 
176 -0.11936636 
177 -0.119329885 
178 -0.119409814 
179 -0.11937012 
180 -0.11924942 
181 -0.11918129 
182 -0.11916734 
183 -0.11899836 
184 -0.11912282 
185 -0.119233325 
186 -0.1189871 
187 -0.11883743 
188 -0.118861035 
189 -0.11897154 
190 -0.11889161 
191 -0.11889215 
192 -0.119477406 
193 -0.1196142 
194 -0.11949779 
195 -0.11925478 
196 -0.119180754 
197 -0.11927785 
198 -0.119185045 
199 -0.119207576 
200 -0.11940445 
201 -0.11945434 
202 -0.11924942 
203 -0.11916037 
204 -0.119084194 
205 -0.119180754 
206 -0.119278386 
207 -0.11935134 
208 -0.119456485 
209 -0.11942966 
210 -0.11912979 
211 -0.118939355 
212 -0.11910994 
213 -0.11939372 
214 -0.119477406 
215 -0.11927463 
216 -0.11894311 
217 -0.11898388 
218 -0.11923279 
219 -0.11922045 
220 -0.11907722 
221 -0.11913462 
222 -0.119279996 
223 -0.119361535 
224 -0.119346514 
225 -0.11940391 
226 -0.11937387 
227 -0.11929341 
228 -0.11927785 
229 -0.11919524 
230 -0.119195774 
231 -0.1191947 
232 -0.1192065 
233 -0.119168416 
234 -0.11893399 
235 -0.118859425 
236 -0.11932184 
237 -0.11951174 
238 -0.11945434 
239 -0.11942859 
240 -0.119385675 
241 -0.11924137 
242 -0.118993536 
243 -0.11875053 
244 -0.1189356 
245 -0.11916466 
246 -0.11931594 
247 -0.119365826 
248 -0.119343296 
249 -0.11930682 
250 -0.11956431 
251 -0.11952032 
252 -0.11943181 
253 -0.11929448 
254 -0.11922635 
255 -0.1190445 
256 -0.11908795 
257 -0.11923708 
258 -0.11899622 
259 -0.11875643 
260 -0.119013384 
261 -0.11917432 
262 -0.119374946 
263 -0.119415715 
264 -0.11928053 
265 -0.11908741 
266 -0.11881705 
267 -0.11917539 
268 -0.119334176 
269 -0.119283214 
270 -0.11945166 
271 -0.1194184 
272 -0.119326666 
273 -0.11926229 
274 -0.11920221 
275 -0.119391575 
276 -0.11950101 
277 -0.11961742 
278 -0.11955841 
279 -0.11939587 
280 -0.119365826 
281 -0.11942376 
282 -0.1194302 
283 -0.11938085 
284 -0.119287506 
285 -0.11919846 
286 -0.11921723 
287 -0.11922903 
288 -0.11915554 
289 -0.11899836 
290 -0.11894633 
291 -0.11895116 
292 -0.118918434 
293 -0.11892809 
294 -0.118924335 
295 -0.119035915 
296 -0.11915822 
297 -0.1192285 
298 -0.11921133 
299 -0.119168416 
300 -0.11912818 
301 -0.119074 
302 -0.119043425 
303 -0.11881705 
304 -0.118286505 
305 -0.117864326 
306 -0.118741944 
307 -0.11965604 
308 -0.11975904 
309 -0.11964746 
310 -0.11952247 
311 -0.119322374 
312 -0.11905791 
313 -0.118928626 
314 -0.11913408 
315 -0.1191255 
316 -0.119082585 
317 -0.11927463 
318 -0.11953963 
319 -0.11947794 
320 -0.119480625 
321 -0.11952944 
322 -0.119467214 
323 -0.11947204 
324 -0.11946131 
325 -0.11945112 
326 -0.11940767 
327 -0.11925639 
328 -0.11904235 
329 -0.118974224 
330 -0.1192521 
331 -0.11925961 
332 -0.119239226 
333 -0.11912979 
334 -0.11871083 
335 -0.11889805 
336 -0.119374946 
337 -0.11942054 
338 -0.119246736 
339 -0.11909546 
340 -0.11901285 
341 -0.1192859 
342 -0.11930521 
343 -0.119095996 
344 -0.11916627 
345 -0.11922206 
346 -0.1194935 
347 -0.11969788 
348 -0.11957933 
349 -0.11928804 
350 -0.119192556 
351 -0.119242445 
352 -0.11923279 
353 -0.11922367 
354 -0.119144276 
355 -0.11889215 
356 -0.118634656 
357 -0.11882724 
358 -0.11916359 
359 -0.11903216 
360 -0.118746236 
361 -0.11859335 
362 -0.11912282 
363 -0.11978747 
364 -0.119752064 
365 -0.119240835 
366 -0.119011775 
367 -0.1195804 
368 -0.11977996 
369 -0.119629756 
370 -0.119525686 
371 -0.11951925 
372 -0.11949189 
373 -0.1193728 
374 -0.11930145 
375 -0.11924942 
376 -0.11937173 
377 -0.11948277 
378 -0.119430736 
379 -0.119408205 
380 -0.119391575 
381 -0.119320765 
382 -0.11921133 
383 -0.11920275 
384 -0.11934973 
385 -0.119439855 
386 -0.119564846 
387 -0.11952944 
388 -0.11957879 
389 -0.11957182 
390 -0.11926712 
391 -0.11928536 
392 -0.1194876 
393 -0.11957236 
394 -0.11935671 
395 -0.11915983 
396 -0.11951764 
397 -0.119720414 
398 -0.11964853 
399 -0.11954768 
400 -0.11938621 
401 -0.119387284 
402 -0.11934812 
403 -0.1193213 
404 -0.11942269 
405 -0.11935134 
406 -0.11939104 
407 -0.11932881 
408 -0.11920221 
409 -0.119354025 
410 -0.11946668 
411 -0.119482234 
412 -0.11936797 
413 -0.11933525 
414 -0.11950262 
415 -0.11950369 
416 -0.119530514 
417 -0.11955626 
418 -0.11943717 
419 -0.11937334 
420 -0.11944951 
421 -0.119533196 
422 -0.11945756 
423 -0.119242445 
424 -0.11920865 
425 -0.11922152 
426 -0.11924888 
427 -0.11937387 
428 -0.119473115 
429 -0.11948545 
430 -0.11946507 
431 -0.119495645 
432 -0.11943664 
433 -0.11941786 
434 -0.11949779 
435 -0.119558945 
436 -0.119454876 
437 -0.11899836 
438 -0.11833693 
439 -0.11832674 
440 -0.11888839 
441 -0.11905952 
442 -0.11947687 
443 -0.11968072 
444 -0.11965926 
445 -0.11965121 
446 -0.119729 
447 -0.11967857 
448 -0.1197467 
449 -0.119748846 
450 -0.11964531 
451 -0.119638875 
452 -0.1196598 
453 -0.11961527 
454 -0.11941303 
455 -0.119290724 
456 -0.11934812 
457 -0.11934866 
458 -0.11928536 
459 -0.11947419 
460 -0.11949082 
461 -0.1193964 
462 -0.11940445 
463 -0.11934705 
464 -0.11923064 
465 -0.11928107 
466 -0.1193846 
467 -0.119258 
468 -0.11931594 
469 -0.11948921 
470 -0.11932559 
471 -0.11950208 
472 -0.119788006 
473 -0.119741336 
474 -0.11966677 
475 -0.119486526 
476 -0.11937441 
477 -0.11945112 
478 -0.11958738 
479 -0.11971344 
480 -0.119672135 
481 -0.11958255 
482 -0.11945219 
483 -0.11954822 
484 -0.119679645 
485 -0.11980303 
486 -0.11986472 
487 -0.11991997 
488 -0.1198497 
489 -0.11972149 
490 -0.11962117 
491 -0.11954017 
492 -0.11957504 
493 -0.119616345 
494 -0.11963834 
495 -0.11961956 
496 -0.11955412 
497 -0.11956699 
498 -0.11951764 
499 -0.11929877 
500 -0.11915071 
501 -0.11915608 
502 -0.11920865 
503 -0.119234934 
504 -0.119136766 
505 -0.119328275 
506 -0.11982663 
507 -0.11995162 
508 -0.11988188 
509 -0.11953695 
510 -0.11939211 
511 -0.11952676 
512 -0.119494036 
513 -0.119623855 
514 -0.11968769 
515 -0.119573966 
516 -0.11955358 
517 -0.11955626 
518 -0.119560555 
519 -0.11954446 
520 -0.11957236 
521 -0.11959757 
522 -0.11959542 
523 -0.1196893 
524 -0.1195804 
525 -0.11946078 
526 -0.119506374 
527 -0.11956163 
528 -0.11954017 
529 -0.11948438 
530 -0.11949028 
531 -0.119557336 
532 -0.11961688 
533 -0.11961849 
534 -0.11945702 
535 -0.11941196 
536 -0.11935939 
537 -0.119233325 
538 -0.11931647 
539 -0.11947955 
540 -0.11950745 
541 -0.11958523 
542 -0.11966516 
543 -0.119486526 
544 -0.119311646 
545 -0.11932452 
546 -0.11937119 
547 -0.11940713 
548 -0.119132474 
549 -0.11934008 
550 -0.11980732 
551 -0.120142594 
552 -0.12018444 
553 -0.12007715 
554 -0.119914606 
555 -0.11979015 
556 -0.11989315 
557 -0.12002404 
558 -0.12001331 
559 -0.11991568 
560 -0.11982824 
561 -0.11976923 
562 -0.11971988 
563 -0.11962707 
564 -0.11970593 
565 -0.11981751 
566 -0.119724706 
567 -0.119711295 
568 -0.11962654 
569 -0.119581476 
570 -0.11953212 
571 -0.11929609 
572 -0.11946668 
573 -0.11983575 
574 -0.11977191 
575 -0.119936064 
576 -0.11998327 
577 -0.119800344 
578 -0.119875446 
579 -0.12010451 
580 -0.12042691 
581 -0.120392576 
582 -0.12006535 
583 -0.11992426 
584 -0.120057836 
585 -0.12005676 
586 -0.120014384 
587 -0.11999346 
588 -0.11993499 
589 -0.11984755 
590 -0.119752064 
591 -0.11967535 
592 -0.11980678 
593 -0.119940355 
594 -0.11978157 
595 -0.119709685 
596 -0.119782105 
597 -0.11981054 
598 -0.11960079 
599 -0.11952032 
600 -0.1197011 
601 -0.12006964 
602 -0.120320156 
603 -0.12015493 
604 -0.11975314 
605 -0.119408205 
606 -0.119807854 
607 -0.120186046 
608 -0.1202016 
609 -0.120079294 
610 -0.12018229 
611 -0.1200455 
612 -0.11975367 
613 -0.11999722 
614 -0.12047358 
615 -0.12036629 
616 -0.12016244 
617 -0.1198969 
618 -0.119592205 
619 -0.11957128 
620 -0.11960025 
621 -0.11938138 
622 -0.11927624 
623 -0.119406596 
624 -0.11957289 
625 -0.11946614 
626 -0.11945273 
627 -0.11973758 
628 -0.1200176 
629 -0.120035306 
630 -0.12011577 
631 -0.120023504 
632 -0.120020285 
633 -0.119901195 
634 -0.11986847 
635 -0.11967696 
636 -0.11969949 
637 -0.11980142 
638 -0.12001224 
639 -0.12007554 
640 -0.11998434 
641 -0.11991407 
642 -0.119780496 
643 -0.11979927 
644 -0.11996503 
645 -0.11995967 
646 -0.119860426 
647 -0.11997737 
648 -0.12015815 
649 -0.11993231 
650 -0.119839504 
651 -0.119958594 
652 -0.11997898 
653 -0.11985935 
654 -0.11963029 
655 -0.1195686 
656 -0.11957182 
657 -0.11948116 
658 -0.11948921 
659 -0.11952408 
660 -0.11955573 
661 -0.119632974 
662 -0.11969574 
663 -0.119702175 
664 -0.11964907 
665 -0.119530514 
666 -0.11952247 
667 -0.119724706 
668 -0.119869545 
669 -0.11973329 
670 -0.11970593 
671 -0.11965121 
672 -0.11978318 
673 -0.11963995 
674 -0.119448975 
675 -0.119244054 
676 -0.11882241 
677 -0.11911799 
678 -0.11973758 
679 -0.119919434 
680 -0.11983092 
681 -0.11987062 
682 -0.11987169 
683 -0.11972256 
684 -0.11946346 
685 -0.11942215 
686 -0.11976762 
687 -0.11995055 
688 -0.11991139 
689 -0.119761184 
690 -0.11927624 
691 -0.11923601 
692 -0.11960079 
693 -0.11966516 
694 -0.11955197 
695 -0.11961581 
696 -0.11964317 
697 -0.119724706 
698 -0.119871154 
699 -0.11983414 
700 -0.119750455 
701 -0.11941786 
702 -0.11935349 
703 -0.11968018 
704 -0.11971451 
705 -0.11953856 
706 -0.11963566 
707 -0.11962707 
708 -0.11971559 
709 -0.11971934 
710 -0.1194935 
711 -0.11924137 
712 -0.119268194 
713 -0.11950584 
714 -0.1195171 
715 -0.11969681 
716 -0.11971612 
717 -0.119510666 
718 -0.11923386 
719 -0.119264975 
720 -0.119506374 
721 -0.11984594 
722 -0.11993499 
723 -0.11993982 
724 -0.11985077 
725 -0.11978318 
726 -0.11959542 
727 -0.1193551 
728 -0.119358316 
729 -0.11953856 
730 -0.11982824 
731 -0.119646385 
732 -0.11948492 
733 -0.11941464 
734 -0.11934222 
735 -0.119415715 
736 -0.119409814 
737 -0.11942591 
738 -0.1194479 
739 -0.119421616 
740 -0.119509056 
741 -0.11957933 
742 -0.11959113 
743 -0.119456485 
744 -0.119387284 
745 -0.11952783 
746 -0.11942859 
747 -0.11931647 
748 -0.11936958 
749 -0.119477406 
750 -0.11954929 
751 -0.11954714 
752 -0.119607225 
753 -0.11942108 
754 -0.11921777 
755 -0.11932291 
756 -0.11950852 
757 -0.119694665 
758 -0.119752064 
759 -0.11978908 
760 -0.119681254 
761 -0.11951657 
762 -0.1194125 
763 -0.119361535 
764 -0.1194597 
765 -0.119626 
766 -0.119768694 
767 -0.119711295 
768 -0.11970003 
769 -0.119657114 
770 -0.11965443 
771 -0.11967857 
772 -0.11964585 
773 -0.11952515 
774 -0.11949296 
775 -0.11947043 
776 -0.1193551 
777 -0.11932452 
778 -0.1192462 
779 -0.11909117 
780 -0.118827775 
781 -0.11875589 
782 -0.11905952 
783 -0.119458094 
784 -0.11970754 
785 -0.11967428 
786 -0.11964853 
787 -0.11951764 
788 -0.11946346 
789 -0.1195509 
790 -0.11958738 
791 -0.119501546 
792 -0.119683936 
793 -0.119708076 
794 -0.11945005 
795 -0.11940391 
796 -0.119577184 
797 -0.119518176 
798 -0.11945434 
799 -0.11922796 
800 -0.11925693 
801 -0.11960937 
802 -0.11950208 
803 -0.1190386 
804 -0.11911209 
805 -0.11941089 
806 -0.11949189 
807 -0.119542316 
808 -0.11955197 
809 -0.119530514 
810 -0.1196201 
811 -0.11961205 
812 -0.119608834 
813 -0.11960079 
814 -0.119479015 
815 -0.11952408 
816 -0.119477406 
817 -0.11934598 
818 -0.11924513 
819 -0.119129255 
820 -0.118939355 
821 -0.118812755 
822 -0.11921133 
823 -0.11954714 
824 -0.119647995 
825 -0.11964317 
826 -0.11957772 
827 -0.11969198 
828 -0.119729 
829 -0.119456485 
830 -0.1194302 
831 -0.119233325 
832 -0.119257465 
833 -0.11946882 
834 -0.11963029 
835 -0.11956592 
836 -0.119620636 
837 -0.11958577 
838 -0.119279996 
839 -0.11928268 
840 -0.11960347 
841 -0.11939748 
842 -0.1192521 
843 -0.11923708 
844 -0.11942591 
845 -0.11948384 
846 -0.11939855 
847 -0.119376555 
848 -0.11948277 
849 -0.11947419 
850 -0.11948545 
851 -0.11945005 
852 -0.1195686 
853 -0.11958094 
854 -0.11943664 
855 -0.11913945 
856 -0.11911316 
857 -0.11920597 
858 -0.11906274 
859 -0.11915393 
860 -0.11910136 
861 -0.11891897 
862 -0.119082585 
863 -0.119462386 
864 -0.11953695 
865 -0.11937119 
866 -0.119248345 
867 -0.119093314 
868 -0.11951174 
869 -0.119655505 
870 -0.119350806 
871 -0.119367436 
872 -0.119421616 
873 -0.11941679 
874 -0.11944468 
875 -0.119305745 
876 -0.11897959 
877 -0.11858745 
878 -0.11871834 
879 -0.11917539 
880 -0.11912389 
881 -0.11931218 
882 -0.119525686 
883 -0.11933042 
884 -0.11936368 
885 -0.119400695 
886 -0.119246736 
887 -0.11929931 
888 -0.119160905 
889 -0.11896242 
890 -0.11910726 
891 -0.1195391 
892 -0.11929609 
893 -0.11922635 
894 -0.11907454 
895 -0.119010165 
896 -0.11923279 
897 -0.1196083 
898 -0.119702175 
899 -0.11953588 
900 -0.1193331 
901 -0.11917646 
902 -0.119227424 
903 -0.11934115 
904 -0.119179145 
905 -0.11908044 
906 -0.11899944 
907 -0.11923011 
908 -0.11913355 
909 -0.11901285 
910 -0.1191432 
911 -0.11935617 
912 -0.11942054 
913 -0.11947258 
914 -0.11946882 
915 -0.119432345 
916 -0.1193669 
917 -0.11950101 
918 -0.1195112 
919 -0.11939104 
920 -0.11923225 
921 -0.11894955 
922 -0.1189812 
923 -0.11908312 
924 -0.11926766 
925 -0.11935671 
926 -0.11947043 
927 -0.119402304 
928 -0.11919846 
929 -0.11888088 
930 -0.118756965 
931 -0.11888035 
932 -0.11905308 
933 -0.11900802 
934 -0.119025186 
935 -0.11906274 
936 -0.11932291 
937 -0.11969198 
938 -0.11971344 
939 -0.119488135 
940 -0.11930789 
941 -0.1191829 
942 -0.11916788 
943 -0.11943503 
944 -0.11931755 
945 -0.1189238 
946 -0.11901392 
947 -0.11916037 
948 -0.118993 
949 -0.11910029 
950 -0.119209185 
951 -0.11931111 
952 -0.119367436 
953 -0.11954017 
954 -0.1194184 
955 -0.1191314 
956 -0.11917968 
957 -0.11939104 
958 -0.11968823 
959 -0.11978854 
960 -0.11961366 
961 -0.1191711 
962 -0.11848606 
963 -0.11862446 
964 -0.1192006 
965 -0.119376555 
966 -0.11947258 
967 -0.119363144 
968 -0.11924298 
969 -0.119180754 
970 -0.119108334 
971 -0.119058445 
972 -0.11898656 
973 -0.118876055 
974 -0.11897583 
975 -0.118901804 
976 -0.11882992 
977 -0.1188841 
978 -0.11873175 
979 -0.11876823 
980 -0.11921133 
981 -0.11945863 
982 -0.119433954 
983 -0.11943556 
984 -0.119183436 
985 -0.11876233 
986 -0.119144276 
987 -0.1195509 
988 -0.11953427 
989 -0.11955573 
990 -0.11940713 
991 -0.119257465 
992 -0.11910297 
993 -0.11900802 
994 -0.11895169 
995 -0.11887927 
996 -0.11884977 
997 -0.11870976 
998 -0.118972614 
999 -0.1192006 
1000 -0.119001046 
1001 -0.11892004 
1002 -0.11923815 
1003 -0.119358316 
1004 -0.11912228 
1005 -0.1190225 
1006 -0.11906381 
1007 -0.119130865 
1008 -0.11915769 
1009 -0.11911155 
1010 -0.11907937 
1011 -0.11922903 
1012 -0.11927463 
1013 -0.11916734 
1014 -0.11904664 
1015 -0.118853524 
1016 -0.118483916 
1017 -0.11847265 
1018 -0.11862178 
1019 -0.11861159 
1020 -0.11896403 
1021 -0.11912818 
1022 -0.11912604 
1023 -0.11903967 
1024 -0.119136766 
1025 -0.1192344 
1026 -0.119082585 
1027 -0.11902948 
1028 -0.11916573 
1029 -0.11932345 
1030 -0.11907776 
1031 -0.11894472 
1032 -0.11895169 
1033 -0.11887123 
1034 -0.11894901 
1035 -0.1190166 
1036 -0.11888088 
1037 -0.11874141 
1038 -0.11861803 
1039 -0.118921116 
1040 -0.119344905 
1041 -0.11932291 
1042 -0.11907132 
1043 -0.118756965 
1044 -0.118708685 
1045 -0.11875267 
1046 -0.11888571 
1047 -0.1189753 
1048 -0.11915393 
1049 -0.11910994 
1050 -0.11904289 
1051 -0.11906864 
1052 -0.11889912 
1053 -0.11882563 
1054 -0.11888035 
1055 -0.11906542 
1056 -0.11899193 
1057 -0.11890449 
1058 -0.11897476 
1059 -0.11890288 
1060 -0.11893077 
1061 -0.11896779 
1062 -0.118948475 
1063 -0.11890878 
1064 -0.118743554 
1065 -0.11876018 
1066 -0.11893667 
1067 -0.11891414 
1068 -0.11889912 
1069 -0.11866416 
1070 -0.1185043 
1071 -0.1189297 
1072 -0.11939104 
1073 -0.11954768 
1074 -0.119266585 
1075 -0.11902572 
1076 -0.11883636 
1077 -0.11871673 
1078 -0.118948475 
1079 -0.11884548 
1080 -0.11881168 
1081 -0.11904825 
1082 -0.119130865 
1083 -0.11912282 
1084 -0.1189753 
1085 -0.11895813 
1086 -0.11894311 
1087 -0.11897798 
1088 -0.119058445 
1089 -0.118933454 
1090 -0.11913569 
1091 -0.11923869 
1092 -0.11935671 
1093 -0.1193964 
1094 -0.11939962 
1095 -0.11936529 
1096 -0.11935295 
1097 -0.119370654 
1098 -0.11914964 
1099 -0.11875267 
1100 -0.11861427 
1101 -0.11874838 
1102 -0.11888786 
1103 -0.11890824 
1104 -0.118972614 
1105 -0.11892219 
1106 -0.11879988 
1107 -0.11891951 
1108 -0.11910994 
1109 -0.11898495 
1110 -0.11873175 
1111 -0.11858691 
1112 -0.1185102 
1113 -0.11858155 
1114 -0.118583694 
1115 -0.11859657 
1116 -0.118771985 
1117 -0.11892219 
1118 -0.11895491 
1119 -0.119025186 
1120 -0.11905576 
1121 -0.119043425 
1122 -0.11923547 
1123 -0.119186655 
1124 -0.119084194 
1125 -0.11914159 
1126 -0.11921294 
1127 -0.11928643 
1128 -0.119215086 
1129 -0.11898549 
1130 -0.1188723 
1131 -0.11873551 
1132 -0.11865665 
1133 -0.118738726 
1134 -0.118607834 
1135 -0.118134156 
1136 -0.11785735 
1137 -0.11793728 
1138 -0.118457094 
1139 -0.11886425 
1140 -0.118955985 
1141 -0.11918773 
1142 -0.11931701 
1143 -0.11921884 
1144 -0.11910136 
1145 -0.11894043 
1146 -0.1190048 
1147 -0.11913355 
1148 -0.119037524 
1149 -0.119123355 
1150 -0.11895169 
1151 -0.118859425 
1152 -0.118915215 
1153 -0.118986025 
1154 -0.11908795 
1155 -0.11898227 
1156 -0.118654504 
1157 -0.11839916 
1158 -0.118589595 
1159 -0.11871137 
1160 -0.11855687 
1161 -0.118576184 
1162 -0.11891951 
1163 -0.11912228 
1164 -0.119073465 
1165 -0.11909546 
1166 -0.119095996 
1167 -0.11902036 
1168 -0.11921616 
1169 -0.11924352 
1170 -0.11921616 
1171 -0.119153395 
1172 -0.11906542 
1173 -0.119121745 
1174 -0.11894043 
1175 -0.11866577 
1176 -0.11855419 
1177 -0.11860247 
1178 -0.118582085 
1179 -0.118440464 
1180 -0.118568674 
1181 -0.118826166 
1182 -0.118631974 
1183 -0.11842759 
1184 -0.11869259 
1185 -0.11902358 
1186 -0.11895384 
1187 -0.11901821 
1188 -0.11921187 
1189 -0.11899246 
1190 -0.11886747 
1191 -0.11895384 
1192 -0.1188841 
1193 -0.11879183 
1194 -0.118862644 
1195 -0.1188723 
1196 -0.11865343 
1197 -0.11860837 
1198 -0.11885513 
1199 -0.11908312 
1200 -0.11905415 
1201 -0.118954375 
1202 -0.11903162 
1203 -0.119026795 
1204 -0.11879344 
1205 -0.1185043 
1206 -0.11877413 
1207 -0.119270876 
1208 -0.11930145 
1209 -0.119005874 
1210 -0.11886962 
1211 -0.11885996 
1212 -0.11886586 
1213 -0.11891897 
1214 -0.119050935 
1215 -0.11907293 
1216 -0.11901446 
1217 -0.118866935 
1218 -0.11878647 
1219 -0.11876072 
1220 -0.118637875 
1221 -0.11876126 
1222 -0.119095996 
1223 -0.11921401 
1224 -0.11908044 
1225 -0.11883207 
1226 -0.11859496 
1227 -0.11880578 
1228 -0.11911155 
1229 -0.11900373 
1230 -0.1189238 
1231 -0.11901821 
1232 -0.1189474 
1233 -0.118939355 
1234 -0.11893399 
1235 -0.118738726 
1236 -0.118749455 
1237 -0.11896457 
1238 -0.11897637 
1239 -0.11891629 
1240 -0.11882831 
1241 -0.11884923 
1242 -0.11909868 
1243 -0.11916788 
1244 -0.1190166 
1245 -0.11903806 
1246 -0.119084194 
1247 -0.1190166 
1248 -0.11903806 
1249 -0.11900373 
1250 -0.11901714 
1251 -0.119020894 
1252 -0.11899139 
1253 -0.11911102 
1254 -0.11904074 
1255 -0.11894901 
1256 -0.11887123 
1257 -0.118838504 
1258 -0.118770376 
1259 -0.118675426 
1260 -0.11866577 
1261 -0.11878218 
1262 -0.11894204 
1263 -0.11894633 
1264 -0.11912979 
1265 -0.11912443 
1266 -0.11905362 
1267 -0.11934169 
1268 -0.11950798 
1269 -0.11915608 
1270 -0.11893667 
1271 -0.1190386 
1272 -0.119136766 
1273 -0.11923815 
1274 -0.11912282 
1275 -0.11892165 
1276 -0.11891307 
1277 -0.11895867 
1278 -0.119105116 
1279 -0.11912443 
1280 -0.11911102 
1281 -0.11916681 
1282 -0.1193551 
1283 -0.11963029 
1284 -0.119482234 
1285 -0.11899193 
1286 -0.11871083 
1287 -0.11879881 
1288 -0.11867757 
1289 -0.118766084 
1290 -0.119135156 
1291 -0.11914213 
1292 -0.11905737 
1293 -0.11909975 
1294 -0.119149104 
1295 -0.11936636 
1296 -0.11947043 
1297 -0.11944629 
1298 -0.11937763 
1299 -0.11932291 
1300 -0.119160905 
1301 -0.11911102 
1302 -0.11914159 
1303 -0.1190225 
1304 -0.118961886 
1305 -0.11897798 
1306 -0.11909546 
1307 -0.11910029 
1308 -0.1193272 
1309 -0.11931057 
1310 -0.11915554 
1311 -0.11907454 
1312 -0.11923011 
1313 -0.11919953 
1314 -0.11896081 
1315 -0.1190107 
1316 -0.11922689 
1317 -0.119177535 
1318 -0.11896403 
1319 -0.118939355 
1320 -0.11925264 
1321 -0.119400695 
1322 -0.11941035 
1323 -0.11943181 
1324 -0.11950262 
1325 -0.11921455 
1326 -0.11908151 
1327 -0.11927302 
1328 -0.11938299 
1329 -0.11936475 
1330 -0.11933203 
1331 -0.11913945 
1332 -0.11912818 
1333 -0.119268194 
1334 -0.11946775 
1335 -0.11941196 
1336 -0.119361 
1337 -0.11930038 
1338 -0.11932935 
1339 -0.11944254 
1340 -0.11937602 
1341 -0.11946185 
1342 -0.11945917 
1343 -0.1195804 
1344 -0.11979391 
1345 -0.11971988 
1346 -0.11952032 
1347 -0.11935939 
1348 -0.119467214 
1349 -0.11940445 
1350 -0.11930628 
1351 -0.11944039 
1352 -0.1195053 
1353 -0.11966409 
1354 -0.11967589 
1355 -0.11955787 
1356 -0.11948867 
1357 -0.11952193 
1358 -0.11951657 
1359 -0.11933096 
1360 -0.119164124 
1361 -0.11918773 
1362 -0.11929716 
1363 -0.11924888 
1364 -0.11921938 
1365 -0.11943127 
1366 -0.11942269 
1367 -0.119281605 
1368 -0.119168416 
1369 -0.11922367 
1370 -0.11927302 
1371 -0.11931057 
1372 -0.11915769 
1373 -0.11928375 
1374 -0.119584695 
1375 -0.11952783 
1376 -0.11949082 
1377 -0.11953212 
1378 -0.1195391 
1379 -0.11952783 
1380 -0.11971988 
1381 -0.11979927 
1382 -0.1195171 
1383 -0.119177535 
1384 -0.11914964 
1385 -0.11915018 
1386 -0.11915232 
1387 -0.11901124 
1388 -0.118866935 
1389 -0.118891075 
1390 -0.11910404 
1391 -0.11921026 
1392 -0.119192556 
1393 -0.1196952 
1394 -0.12013991 
1395 -0.120133474 
1396 -0.12014206 
1397 -0.1200514 
1398 -0.11985935 
1399 -0.119657114 
1400 -0.11949833 
1401 -0.11942698 
1402 -0.11940499 
1403 -0.11910243 
1404 -0.11879398 
1405 -0.118928626 
1406 -0.11905898 
1407 -0.119132474 
1408 -0.119112626 
1409 -0.119164124 
1410 -0.11920275 
1411 -0.11896832 
1412 -0.11902787 
1413 -0.119216695 
1414 -0.119218305 
1415 -0.11919148 
1416 -0.11926551 
1417 -0.11942054 
1418 -0.11925317 
1419 -0.119115844 
1420 -0.119203284 
1421 -0.119414106 
1422 -0.11944361 
1423 -0.1195053 
1424 -0.1195391 
1425 -0.1195053 
1426 -0.1197011 
1427 -0.11977996 
1428 -0.119729534 
1429 -0.11968072 
1430 -0.11973597 
1431 -0.119593814 
1432 -0.11951174 
1433 -0.119598106 
1434 -0.119617954 
1435 -0.11947419 
1436 -0.119268194 
1437 -0.11924942 
1438 -0.119409814 
1439 -0.11956699 
1440 -0.11957236 
1441 -0.119568065 
1442 -0.1194876 
1443 -0.11931755 
1444 -0.119400695 
1445 -0.11955358 
1446 -0.119354025 
1447 -0.119103506 
1448 -0.11918129 
1449 -0.11954178 
1450 -0.11968608 
1451 -0.11947419 
1452 -0.11931701 
1453 -0.11952086 
1454 -0.119614735 
1455 -0.11952032 
1456 -0.11937924 
1457 -0.11925317 
1458 -0.11925693 
1459 -0.11931755 
1460 -0.11934437 
1461 -0.119367436 
1462 -0.11938836 
1463 -0.11943288 
1464 -0.119519785 
1465 -0.119536415 
1466 -0.11952783 
1467 -0.1195745 
1468 -0.11958201 
1469 -0.11935939 
1470 -0.11917807 
1471 -0.11925317 
1472 -0.11925317 
1473 -0.119149104 
1474 -0.11902465 
1475 -0.11890341 
1476 -0.11920382 
1477 -0.119263366 
1478 -0.11936636 
1479 -0.11930628 
1480 -0.119248345 
1481 -0.11944468 
1482 -0.11965336 
1483 -0.1196657 
1484 -0.11955412 
1485 -0.119367436 
1486 -0.11934705 
1487 -0.11950798 
1488 -0.11940499 
1489 -0.11935778 
1490 -0.11919953 
1491 -0.119032696 
1492 -0.119168416 
1493 -0.119257465 
1494 -0.11894579 
1495 -0.11872907 
1496 -0.11909385 
1497 -0.119337395 
1498 -0.11908688 
1499 -0.11918451 
1500 -0.119155005 
1501 -0.11884065 
1502 -0.118842795 
1503 -0.11922528 
1504 -0.11931755 
1505 -0.11929233 
1506 -0.11927195 
1507 -0.11918987 
1508 -0.11911155 
1509 -0.119231716 
1510 -0.11926873 
1511 -0.11927141 
1512 -0.11930038 
1513 -0.11938085 
1514 -0.1191373 
1515 -0.11903484 
1516 -0.119123355 
1517 -0.118857816 
1518 -0.11873014 
1519 -0.11893292 
1520 -0.11924942 
1521 -0.1193213 
1522 -0.11928375 
1523 -0.119311646 
1524 -0.11931594 
1525 -0.11932559 
1526 -0.119295016 
1527 -0.11927302 
1528 -0.11912818 
1529 -0.118846014 
1530 -0.11872049 
1531 -0.11900802 
1532 -0.11936958 
1533 -0.1193964 
1534 -0.11922152 
1535 -0.11917378 
1536 -0.11912818 
1537 -0.119159296 
1538 -0.11921455 
1539 -0.11899729 
1540 -0.11899139 
1541 -0.11907615 
1542 -0.11923279 
1543 -0.11931755 
1544 -0.119320765 
1545 -0.1191432 
1546 -0.11903162 
1547 -0.119049326 
1548 -0.11906703 
1549 -0.11915232 
1550 -0.1191019 
1551 -0.11886747 
1552 -0.118866935 
1553 -0.11916895 
1554 -0.11916627 
1555 -0.119002655 
1556 -0.119112626 
1557 -0.11907293 
1558 -0.11898227 
1559 -0.11890985 
1560 -0.118775204 
1561 -0.11898227 
1562 -0.11904396 
1563 -0.11901285 
1564 -0.11919202 
1565 -0.11924888 
1566 -0.11940606 
1567 -0.119454876 
1568 -0.11927624 
1569 -0.1192462 
1570 -0.11948492 
1571 -0.11952837 
1572 -0.11951496 
1573 -0.11953749 
1574 -0.11945166 
1575 -0.11909868 
1576 -0.11874409 
1577 -0.11883582 
1578 -0.11888571 
1579 -0.118526295 
1580 -0.11832781 
1581 -0.1187119 
1582 -0.11892219 
1583 -0.11889805 
1584 -0.119047716 
1585 -0.119010165 
1586 -0.118732825 
1587 -0.11879505 
1588 -0.11901821 
1589 -0.119025186 
1590 -0.11910243 
1591 -0.11934169 
1592 -0.119358316 
1593 -0.11916681 
1594 -0.11919524 
1595 -0.11928643 
1596 -0.119224206 
1597 -0.119091704 
1598 -0.11902733 
1599 -0.118900195 
1600 -0.11891414 
1601 -0.11889483 
1602 -0.118874446 
1603 -0.118787006 
1604 -0.11878647 
1605 -0.1192403 
1606 -0.11946829 
1607 -0.11933096 
1608 -0.11933042 
1609 -0.11930145 
1610 -0.119103506 
1611 -0.11894365 
1612 -0.11891897 
1613 -0.119130865 
1614 -0.119210795 
1615 -0.11912818 
1616 -0.11909117 
1617 -0.119028404 
1618 -0.11901446 
1619 -0.11894472 
1620 -0.11895813 
1621 -0.11895706 
1622 -0.11873014 
1623 -0.118483916 
1624 -0.11874731 
1625 -0.11917324 
1626 -0.119159296 
1627 -0.11903055 
1628 -0.11906113 
1629 -0.11909492 
1630 -0.11908151 
1631 -0.11905791 
1632 -0.11905898 
1633 -0.118954375 
1634 -0.11911745 
1635 -0.11911209 
1636 -0.11903001 
1637 -0.11896564 
1638 -0.11883797 
1639 -0.118571356 
1640 -0.118440464 
1641 -0.118692055 
1642 -0.1188267 
1643 -0.118891075 
1644 -0.11877574 
1645 -0.11871834 
1646 -0.11873551 
1647 -0.11861427 
1648 -0.118598714 
1649 -0.11864914 
1650 -0.11883797 
1651 -0.11923011 
1652 -0.11905147 
1653 -0.11905576 
1654 -0.11897208 
1655 -0.11882402 
1656 -0.11887874 
1657 -0.11896886 
1658 -0.11893828 
1659 -0.11887123 
1660 -0.11875965 
1661 -0.118697956 
1662 -0.118719414 
1663 -0.11882241 
1664 -0.11880739 
1665 -0.11872853 
1666 -0.11889 
1667 -0.11911155 
1668 -0.11911638 
1669 -0.119065955 
1670 -0.11890234 
1671 -0.11877091 
1672 -0.118785396 
1673 -0.118872836 
1674 -0.11908527 
1675 -0.118965104 
1676 -0.118532196 
1677 -0.1183026 
1678 -0.118379846 
1679 -0.118444756 
1680 -0.11849035 
1681 -0.11883582 
1682 -0.119218305 
1683 -0.11918612 
1684 -0.11912818 
1685 -0.11895813 
1686 -0.11893292 
1687 -0.11884816 
1688 -0.11882724 
1689 -0.118976906 
1690 -0.11891092 
1691 -0.11875804 
1692 -0.11879666 
1693 -0.118912 
1694 -0.11899944 
1695 -0.11872102 
1696 -0.11863144 
1697 -0.11872049 
1698 -0.11865772 
1699 -0.11858101 
1700 -0.11850752 
1701 -0.11871888 
1702 -0.11904128 
1703 -0.11919846 
1704 -0.11914213 
1705 -0.11899944 
1706 -0.11894043 
1707 -0.118805245 
1708 -0.11862929 
1709 -0.118743554 
1710 -0.118978515 
1711 -0.11914052 
1712 -0.11914267 
1713 -0.11905362 
1714 -0.11888035 
1715 -0.11878325 
1716 -0.11870332 
1717 -0.11853702 
1718 -0.1184469 
1719 -0.118526295 
1720 -0.11865933 
1721 -0.11890985 
1722 -0.118891075 
1723 -0.11883743 
1724 -0.11880417 
1725 -0.11856277 
1726 -0.118493035 
1727 -0.11872102 
1728 -0.11874999 
1729 -0.11848982 
1730 -0.1187001 
1731 -0.11911209 
1732 -0.11905737 
1733 -0.11893882 
1734 -0.11882241 
1735 -0.118684545 
1736 -0.11878164 
1737 -0.11883475 
1738 -0.11865397 
1739 -0.11856921 
1740 -0.118651286 
1741 -0.118781105 
1742 -0.118866935 
1743 -0.11891629 
1744 -0.118667915 
1745 -0.11848177 
1746 -0.1187634 
1747 -0.11890663 
1748 -0.11886157 
1749 -0.1187398 
1750 -0.118512884 
1751 -0.11834015 
1752 -0.11851181 
1753 -0.11849572 
1754 -0.118353024 
1755 -0.1184351 
1756 -0.11861856 
1757 -0.118467286 
1758 -0.11846836 
1759 -0.11849733 
1760 -0.118656114 
1761 -0.11877896 
1762 -0.11877735 
1763 -0.118756965 
1764 -0.11876072 
1765 -0.118881956 
1766 -0.1189474 
1767 -0.11894365 
1768 -0.11872156 
1769 -0.118621245 
1770 -0.118587986 
1771 -0.118706 
1772 -0.11908795 
1773 -0.11910565 
1774 -0.118809 
1775 -0.11848499 
1776 -0.11828919 
1777 -0.118348196 
1778 -0.11855151 
1779 -0.118621245 
1780 -0.11871512 
1781 -0.118532196 
1782 -0.11855741 
1783 -0.11882831 
1784 -0.11881061 
1785 -0.118833676 
1786 -0.11874087 
1787 -0.11844583 
1788 -0.11860408 
1789 -0.11877681 
1790 -0.1186191 
1791 -0.11864968 
1792 -0.11873819 
1793 -0.11878218 
1794 -0.11864431 
1795 -0.118420616 
1796 -0.118610516 
1797 -0.11862768 
1798 -0.11852576 
1799 -0.11862983 
1800 -0.11885513 
1801 -0.11895384 
1802 -0.11902197 
1803 -0.11898388 
1804 -0.11894794 
1805 -0.118726924 
1806 -0.11851181 
1807 -0.11864968 
1808 -0.118741944 
1809 -0.11865665 
1810 -0.11856224 
1811 -0.11853863 
1812 -0.11873926 
1813 -0.11884977 
1814 -0.11863895 
1815 -0.11848123 
1816 -0.11847694 
1817 -0.11853863 
1818 -0.11867006 
1819 -0.118794516 
1820 -0.11883207 
1821 -0.11894043 
1822 -0.11900641 
1823 -0.11869098 
1824 -0.11880739 
1825 -0.11891146 
1826 -0.11878808 
1827 -0.11881222 
1828 -0.11891629 
1829 -0.118806854 
1830 -0.11854078 
1831 -0.118390575 
1832 -0.11837341 
1833 -0.118377164 
1834 -0.118343905 
1835 -0.11834766 
1836 -0.11863573 
1837 -0.11858584 
1838 -0.118208185 
1839 -0.11827792 
1840 -0.11871512 
1841 -0.118940964 
1842 -0.11896457 
1843 -0.11889161 
1844 -0.1187693 
1845 -0.11859174 
1846 -0.11875804 
1847 -0.11903109 
1848 -0.11914052 
1849 -0.11914213 
1850 -0.11910458 
1851 -0.11891951 
1852 -0.118775204 
1853 -0.11868186 
1854 -0.118695274 
1855 -0.11866845 
1856 -0.11868079 
1857 -0.1186883 
1858 -0.118438855 
1859 -0.11823286 
1860 -0.118441 
1861 -0.118764475 
1862 -0.1191255 
1863 -0.119093314 
1864 -0.11887981 
1865 -0.11893077 
1866 -0.1188841 
1867 -0.11882992 
1868 -0.11870761 
1869 -0.11872746 
1870 -0.11868186 
1871 -0.11872102 
1872 -0.118785396 
1873 -0.11894418 
1874 -0.11883582 
1875 -0.1186706 
1876 -0.11878164 
1877 -0.11888303 
1878 -0.11899139 
1879 -0.11886908 
1880 -0.1187972 
1881 -0.1188605 
1882 -0.11893399 
1883 -0.11884655 
1884 -0.1186765 
1885 -0.11862607 
1886 -0.11868991 
1887 -0.1187913 
1888 -0.11873336 
1889 -0.11860408 
1890 -0.11858155 
1891 -0.11830099 
1892 -0.11818351 
1893 -0.11865236 
1894 -0.11901231 
1895 -0.11895169 
1896 -0.11903645 
1897 -0.11932023 
1898 -0.11947204 
1899 -0.119259074 
1900 -0.11902358 
1901 -0.11876018 
1902 -0.118621245 
1903 -0.118483916 
1904 -0.11859335 
1905 -0.118909314 
1906 -0.11868079 
1907 -0.118517175 
1908 -0.11843242 
1909 -0.118324056 
1910 -0.1182275 
1911 -0.11834659 
1912 -0.11852576 
1913 -0.118392184 
1914 -0.11828382 
1915 -0.11846031 
1916 -0.118597105 
1917 -0.11845173 
1918 -0.11849894 
1919 -0.11861159 
1920 -0.11867006 
1921 -0.11864002 
1922 -0.118656114 
1923 -0.11878218 
1924 -0.11871351 
1925 -0.11858155 
1926 -0.11839594 
1927 -0.11831172 
1928 -0.118527904 
1929 -0.118627146 
1930 -0.1186486 
1931 -0.118738726 
1932 -0.118861035 
1933 -0.11897798 
1934 -0.119108334 
1935 -0.11918612 
1936 -0.11912711 
1937 -0.11887874 
1938 -0.118639484 
1939 -0.118615344 
1940 -0.1186486 
1941 -0.11853649 
1942 -0.118488744 
1943 -0.11849679 
1944 -0.11860247 
1945 -0.118643776 
1946 -0.118552044 
1947 -0.11851449 
1948 -0.11849411 
1949 -0.11860086 
1950 -0.11848177 
1951 -0.118128255 
1952 -0.118199065 
1953 -0.11845817 
1954 -0.11861856 
1955 -0.11853649 
1956 -0.11853434 
1957 -0.118607834 
1958 -0.11853917 
1959 -0.1184984 
1960 -0.11854078 
1961 -0.11867221 
1962 -0.11872102 
1963 -0.11884065 
1964 -0.11887498 
1965 -0.11867918 
1966 -0.11862661 
1967 -0.11864753 
1968 -0.118476406 
1969 -0.11829992 
1970 -0.118221596 
1971 -0.1184984 
1972 -0.118820265 
1973 -0.11872639 
1974 -0.11836751 
1975 -0.1184233 
1976 -0.11850269 
1977 -0.11827417 
1978 -0.118236616 
1979 -0.11832781 
1980 -0.11841686 
1981 -0.11860837 
1982 -0.11875965 
1983 -0.11895062 
1984 -0.11898388 
1985 -0.11881168 
1986 -0.11877145 
1987 -0.11882241 
1988 -0.11874892 
1989 -0.118468896 
1990 -0.118312255 
1991 -0.11848338 
1992 -0.11869313 
1993 -0.11870064 
1994 -0.118818656 
1995 -0.118957594 
1996 -0.11882402 
1997 -0.118820265 
1998 -0.11878164 
1999 -0.11865075 
2000 -0.118652895 
2001 -0.118627146 
2002 -0.11847372 
2003 -0.11860891 
2004 -0.11875214 
2005 -0.11855687 
2006 -0.11848982 
2007 -0.118544534 
2008 -0.118728 
2009 -0.11886962 
2010 -0.118829384 
2011 -0.11893721 
2012 -0.11899783 
2013 -0.118971005 
2014 -0.11879344 
2015 -0.11856224 
2016 -0.11853112 
2017 -0.11853273 
2018 -0.11840345 
2019 -0.11862017 
2020 -0.11883475 
2021 -0.118865326 
2022 -0.11888839 
2023 -0.11895223 
2024 -0.11902894 
2025 -0.11899836 
2026 -0.11887069 
2027 -0.11878003 
2028 -0.11864431 
2029 -0.118512884 
2030 -0.11868186 
2031 -0.118790224 
2032 -0.118723705 
2033 -0.11872478 
2034 -0.118646994 
2035 -0.11870225 
2036 -0.11893238 
2037 -0.11890449 
2038 -0.11877252 
2039 -0.11869313 
2040 -0.11860247 
2041 -0.11857994 
2042 -0.11887391 
2043 -0.11885567 
2044 -0.11868401 
2045 -0.11861803 
2046 -0.11861481 
2047 -0.118708685 
2048 -0.118866935 
2049 -0.11882295 
2050 -0.11856492 
2051 -0.11866684 
2052 -0.118829384 
2053 -0.118830994 
2054 -0.118989244 
2055 -0.11896081 
2056 -0.11895706 
2057 -0.11903484 
2058 -0.11895545 
2059 -0.11884494 
2060 -0.11882563 
2061 -0.118571356 
2062 -0.118453875 
2063 -0.118461385 
2064 -0.11858906 
2065 -0.11873604 
2066 -0.11877628 
2067 -0.119002655 
2068 -0.119219914 
2069 -0.11928643 
2070 -0.119090095 
2071 -0.11885245 
2072 -0.11879291 
2073 -0.11886157 
2074 -0.118719414 
2075 -0.11852522 
2076 -0.11859389 
2077 -0.1187972 
2078 -0.11859174 
2079 -0.11839755 
2080 -0.11830635 
2081 -0.11826451 
2082 -0.118383065 
2083 -0.118621245 
2084 -0.11878647 
2085 -0.11892058 
2086 -0.11893828 
2087 -0.119123355 
2088 -0.11907883 
2089 -0.118906096 
2090 -0.11887927 
2091 -0.11885996 
2092 -0.11888839 
2093 -0.119001046 
2094 -0.11904289 
2095 -0.11889215 
2096 -0.11872853 
2097 -0.11885996 
2098 -0.118969396 
2099 -0.11880793 
2100 -0.11872478 
2101 -0.11883743 
2102 -0.11884065 
2103 -0.11861695 
2104 -0.11855848 
2105 -0.118866935 
2106 -0.1192462 
2107 -0.11930038 
2108 -0.11904557 
2109 -0.11891736 
2110 -0.11878647 
2111 -0.118728 
2112 -0.11888142 
2113 -0.118987635 
2114 -0.119041815 
2115 -0.118844405 
2116 -0.118567064 
2117 -0.11876501 
2118 -0.11885084 
2119 -0.118741944 
2120 -0.11856277 
2121 -0.11862339 
2122 -0.11888303 
2123 -0.11892219 
2124 -0.118868545 
2125 -0.11891146 
2126 -0.118976906 
2127 -0.11910458 
2128 -0.11912282 
2129 -0.11904128 
2130 -0.11897637 
2131 -0.11881651 
2132 -0.11884762 
2133 -0.11890127 
2134 -0.11867006 
2135 -0.11843188 
2136 -0.11844154 
2137 -0.11871298 
2138 -0.11873926 
2139 -0.11861105 
2140 -0.118522 
2141 -0.118541315 
2142 -0.118639484 
2143 -0.118645385 
2144 -0.118710294 
2145 -0.11860998 
2146 -0.11834605 
2147 -0.11853273 
2148 -0.11883582 
2149 -0.118851915 
2150 -0.11867221 
2151 -0.118619636 
2152 -0.118686154 
2153 -0.11888035 
2154 -0.11895652 
2155 -0.1188959 
2156 -0.11884065 
2157 -0.11890502 
2158 -0.11873497 
2159 -0.11855151 
2160 -0.118660405 
2161 -0.11879827 
2162 -0.11876662 
2163 -0.11862822 
2164 -0.11858477 
2165 -0.11874463 
2166 -0.11900909 
2167 -0.11866094 
2168 -0.118428126 
2169 -0.118607834 
2170 -0.11874141 
2171 -0.11864807 
2172 -0.11889644 
2173 -0.11898388 
2174 -0.119002655 
2175 -0.11895974 
2176 -0.1189356 
2177 -0.118881956 
2178 -0.118812755 
2179 -0.11882402 
2180 -0.11881383 
2181 -0.118868545 
2182 -0.118907705 
2183 -0.11895974 
2184 -0.11887927 
2185 -0.11882509 
2186 -0.11870225 
2187 -0.11838414 
2188 -0.11835839 
2189 -0.11877306 
2190 -0.1189297 
2191 -0.11882563 
2192 -0.11897959 
2193 -0.1189533 
2194 -0.1188208 
2195 -0.11882885 
2196 -0.1189179 
2197 -0.11881919 
2198 -0.11885138 
2199 -0.11890824 
2200 -0.11898495 
2201 -0.11896886 
2202 -0.11893989 
2203 -0.119080976 
2204 -0.119108334 
2205 -0.11900534 
2206 -0.1188208 
2207 -0.118862644 
2208 -0.11899085 
2209 -0.11901231 
2210 -0.11894365 
2211 -0.11898066 
2212 -0.119040206 
2213 -0.11922474 
2214 -0.1192403 
2215 -0.119183436 
2216 -0.119314864 
2217 -0.119365826 
2218 -0.11931111 
2219 -0.119120136 
2220 -0.119056836 
2221 -0.11921938 
2222 -0.119350806 
2223 -0.11906864 
2224 -0.11918612 
2225 -0.11913784 
2226 -0.1192639 
2227 -0.118969396 
2228 -0.11867435 
2229 -0.11876233 
2230 -0.118909314 
2231 -0.11890556 
2232 -0.11894418 
2233 -0.11917378 
2234 -0.119076684 
2235 -0.119073465 
2236 -0.119219914 
2237 -0.11943556 
2238 -0.11926444 
2239 -0.119156614 
2240 -0.11919309 
2241 -0.11901231 
2242 -0.1192006 
2243 -0.11930682 
2244 -0.11932935 
2245 -0.11905791 
2246 -0.11866416 
2247 -0.118764475 
2248 -0.118972614 
2249 -0.11876072 
2250 -0.118372336 
2251 -0.11842705 
2252 -0.118984416 
2253 -0.1192698 
2254 -0.11954124 
2255 -0.11922528 
2256 -0.119179145 
2257 -0.11968608 
2258 -0.119923726 
2259 -0.11966087 
2260 -0.119473115 
2261 -0.1194758 
2262 -0.11941303 
2263 -0.118881956 
2264 -0.11867221 
2265 -0.11897637 
2266 -0.119323984 
2267 -0.11909492 
2268 -0.119090095 
2269 -0.11902304 
2270 -0.11890288 
2271 -0.1189812 
2272 -0.11903538 
2273 -0.11884226 
2274 -0.118535414 
2275 -0.118678644 
2276 -0.11894472 
2277 -0.11903323 
2278 -0.118996754 
2279 -0.11869098 
2280 -0.11890127 
2281 -0.11917324 
2282 -0.119304135 
2283 -0.11912443 
2284 -0.11902787 
2285 -0.1189812 
2286 -0.11890234 
2287 -0.11892219 
2288 -0.11919792 
2289 -0.119249955 
2290 -0.11931057 
2291 -0.119130865 
2292 -0.11883904 
2293 -0.118924335 
2294 -0.11901714 
2295 -0.11891414 
2296 -0.11893506 
2297 -0.11874141 
2298 -0.119106725 
2299 -0.11923279 
2300 -0.118974224 
2301 -0.11868562 
2302 -0.118565455 
2303 -0.11888249 
2304 -0.11918236 
2305 -0.11917271 
2306 -0.11914803 
2307 -0.11910404 
2308 -0.11866148 
2309 -0.11820711 
2310 -0.11871351 
2311 -0.11925317 
2312 -0.11937226 
2313 -0.11927302 
2314 -0.119047716 
2315 -0.11896081 
2316 -0.11885567 
2317 -0.11878915 
2318 -0.11896671 
2319 -0.1189474 
2320 -0.119112626 
2321 -0.119121745 
2322 -0.119032696 
2323 -0.11924942 
2324 -0.11928643 
2325 -0.119069174 
2326 -0.11916788 
2327 -0.119177 
2328 -0.11905576 
2329 -0.119155005 
2330 -0.119080976 
2331 -0.119075075 
2332 -0.11919685 
2333 -0.11927034 
2334 -0.119045034 
2335 -0.11871137 
2336 -0.11864592 
2337 -0.11874141 
2338 -0.11884977 
2339 -0.119183436 
2340 -0.11917968 
2341 -0.119060054 
2342 -0.11916573 
2343 -0.11945112 
2344 -0.11951603 
2345 -0.11931379 
2346 -0.11935939 
2347 -0.119406596 
2348 -0.119402304 
2349 -0.11939962 
2350 -0.11913945 
2351 -0.11905308 
2352 -0.119112626 
2353 -0.119144276 
2354 -0.119270876 
2355 -0.119335786 
2356 -0.11909546 
2357 -0.118753746 
2358 -0.1189415 
2359 -0.11913194 
2360 -0.11898656 
2361 -0.118954375 
2362 -0.11914213 
2363 -0.11920597 
2364 -0.11904611 
2365 -0.11902411 
2366 -0.1192006 
2367 -0.11938836 
2368 -0.11941196 
2369 -0.11934866 
2370 -0.119240835 
2371 -0.11938031 
2372 -0.11943127 
2373 -0.11928643 
2374 -0.11939801 
2375 -0.119433954 
2376 -0.11908795 
2377 -0.11881758 
2378 -0.11902948 
2379 -0.119093314 
2380 -0.11900212 
2381 -0.119248345 
2382 -0.11957128 
2383 -0.119625464 
2384 -0.11940499 
2385 -0.119071856 
2386 -0.11888142 
2387 -0.11914857 
2388 -0.11946507 
2389 -0.11941303 
2390 -0.119382456 
2391 -0.11932559 
2392 -0.119266585 
2393 -0.11933632 
2394 -0.119295016 
2395 -0.1190225 
2396 -0.11888464 
2397 -0.11892487 
2398 -0.11904289 
2399 -0.11931647 
2400 -0.11932559 
2401 -0.11901446 
2402 -0.11891629 
2403 -0.119162515 
2404 -0.11927892 
2405 -0.11923708 
2406 -0.11918773 
2407 -0.11935885 
2408 -0.119365826 
2409 -0.119212404 
2410 -0.11902465 
2411 -0.11900748 
2412 -0.119577184 
2413 -0.1196893 
2414 -0.119441465 
2415 -0.119399086 
2416 -0.11930199 
2417 -0.11922796 
2418 -0.11939265 
2419 -0.11954285 
2420 -0.119442 
2421 -0.11946346 
2422 -0.11953856 
2423 -0.11952247 
2424 -0.119670525 
2425 -0.11956163 
2426 -0.11922367 
2427 -0.11926605 
2428 -0.1193905 
2429 -0.11943717 
2430 -0.119361535 
2431 -0.11931594 
2432 -0.11921294 
2433 -0.1193095 
2434 -0.1193492 
2435 -0.11939372 
2436 -0.11936046 
2437 -0.11937173 
2438 -0.11931057 
2439 -0.119244054 
2440 -0.119231716 
2441 -0.11934115 
2442 -0.11909385 
2443 -0.119065955 
2444 -0.11920811 
2445 -0.11928643 
2446 -0.11946882 
2447 -0.11950959 
2448 -0.11954285 
2449 -0.11955626 
2450 -0.11957772 
2451 -0.1195509 
2452 -0.11953588 
2453 -0.11970271 
2454 -0.11986257 
2455 -0.11985238 
2456 -0.1197467 
2457 -0.119557336 
2458 -0.119549826 
2459 -0.119411424 
2460 -0.11918183 
2461 -0.11919631 
2462 -0.119439855 
2463 -0.11957504 
2464 -0.119617954 
2465 -0.11969037 
2466 -0.11961152 
2467 -0.119687155 
2468 -0.11950047 
2469 -0.11918022 
2470 -0.119296625 
2471 -0.11955519 
2472 -0.11951603 
2473 -0.11957504 
2474 -0.11961366 
2475 -0.11968608 
2476 -0.1195627 
2477 -0.11938353 
2478 -0.11941679 
2479 -0.119278386 
2480 -0.11909278 
2481 -0.118954375 
2482 -0.11930843 
2483 -0.119568065 
2484 -0.11950369 
2485 -0.119495645 
2486 -0.11941625 
2487 -0.11925478 
2488 -0.11949511 
2489 -0.11964531 
2490 -0.11970861 
2491 -0.11967589 
2492 -0.11954178 
2493 -0.119617954 
2494 -0.11964746 
2495 -0.11953588 
2496 -0.11950959 
2497 -0.11944254 
2498 -0.11937012 
2499 -0.11946507 
2500 -0.11943878 
2501 -0.11926283 
2502 -0.11921562 
2503 -0.11935671 
2504 -0.11955251 
2505 -0.119729534 
2506 -0.11967321 
2507 -0.119343296 
2508 -0.11899246 
2509 -0.119307354 
2510 -0.1196716 
2511 -0.11955519 
2512 -0.11952998 
2513 -0.11962868 
2514 -0.11942215 
2515 -0.11920275 
2516 -0.11935188 
2517 -0.1196598 
2518 -0.11962815 
2519 -0.11957611 
2520 -0.11957289 
2521 -0.11958738 
2522 -0.119733825 
2523 -0.11976655 
2524 -0.11969413 
2525 -0.11963566 
2526 -0.11951549 
2527 -0.11963941 
2528 -0.11952032 
2529 -0.119385675 
2530 -0.119812146 
2531 -0.12014474 
2532 -0.120023504 
2533 -0.119644776 
2534 -0.11935885 
2535 -0.11957128 
2536 -0.11992104 
2537 -0.11977674 
2538 -0.1194876 
2539 -0.1198041 
2540 -0.12005676 
2541 -0.11998488 
2542 -0.119886175 
2543 -0.11997469 
2544 -0.11993553 
2545 -0.11966087 
2546 -0.119486526 
2547 -0.1195509 
2548 -0.11972846 
2549 -0.11985023 
2550 -0.119549826 
2551 -0.11943664 
2552 -0.1195112 
2553 -0.11961903 
2554 -0.11960079 
2555 -0.11952515 
2556 -0.11956109 
2557 -0.11947365 
2558 -0.11955787 
2559 -0.11977084 
2560 -0.11977728 
2561 -0.119592205 
2562 -0.11965765 
2563 -0.11979659 
2564 -0.119943574 
2565 -0.11994089 
2566 -0.119739726 
2567 -0.11957879 
2568 -0.11959006 
2569 -0.1196437 
2570 -0.11950208 
2571 -0.1193036 
2572 -0.11950745 
2573 -0.119987026 
2574 -0.119958594 
2575 -0.11979391 
2576 -0.119708076 
2577 -0.119732216 
2578 -0.1197408 
2579 -0.11968608 
2580 -0.119705394 
2581 -0.11971398 
2582 -0.11970486 
2583 -0.119644776 
2584 -0.119378164 
2585 -0.1192065 
2586 -0.11914535 
2587 -0.11926927 
2588 -0.119554654 
2589 -0.11986633 
2590 -0.11986472 
2591 -0.11975904 
2592 -0.11975689 
2593 -0.119792834 
2594 -0.11993553 
2595 -0.12000902 
2596 -0.119979516 
2597 -0.11988349 
2598 -0.119718805 
2599 -0.1195053 
2600 -0.11971451 
2601 -0.11988725 
2602 -0.12000419 
2603 -0.120012775 
2604 -0.119997755 
2605 -0.11992641 
2606 -0.11974724 
2607 -0.119679645 
2608 -0.119792834 
2609 -0.120077685 
2610 -0.12004335 
2611 -0.119800344 
2612 -0.11974616 
2613 -0.119972005 
2614 -0.120077685 
2615 -0.120006874 
2616 -0.11994518 
2617 -0.119789615 
2618 -0.11980732 
2619 -0.120035306 
2620 -0.12014742 
2621 -0.12006642 
2622 -0.11994411 
2623 -0.119629756 
2624 -0.11933364 
2625 -0.119409814 
2626 -0.11984058 
2627 -0.12011899 
2628 -0.12008037 
2629 -0.11995323 
2630 -0.11981483 
2631 -0.119708076 
2632 -0.11964156 
2633 -0.11961742 
2634 -0.11960508 
2635 -0.1196716 
2636 -0.119925335 
2637 -0.12010236 
2638 -0.12025793 
2639 -0.12005837 
2640 -0.11975528 
2641 -0.11977728 
2642 -0.11987437 
2643 -0.11963834 
2644 -0.119421616 
2645 -0.11961956 
2646 -0.11978854 
2647 -0.11998595 
2648 -0.120124355 
2649 -0.12001009 
2650 -0.11986525 
2651 -0.11991675 
2652 -0.12006052 
2653 -0.120066956 
2654 -0.1200514 
2655 -0.119972005 
2656 -0.11988725 
2657 -0.11974402 
2658 -0.1195804 
2659 -0.11952032 
2660 -0.119533196 
2661 -0.11943181 
2662 -0.11937441 
2663 -0.11934115 
2664 -0.11926176 
2665 -0.11945273 
2666 -0.11981429 
2667 -0.11980893 
2668 -0.11980142 
2669 -0.11968501 
2670 -0.11971022 
2671 -0.119847015 
2672 -0.119812146 
2673 -0.11974563 
2674 -0.11980142 
2675 -0.11986847 
2676 -0.119739726 
2677 -0.119498864 
2678 -0.119354025 
2679 -0.11951496 
2680 -0.119711295 
2681 -0.11971559 
2682 -0.11970754 
2683 -0.119679645 
2684 -0.11965497 
2685 -0.119804636 
2686 -0.119938746 
2687 -0.120006874 
2688 -0.12001224 
2689 -0.119824484 
2690 -0.11965926 
2691 -0.11957665 
2692 -0.11963244 
2693 -0.1195804 
2694 -0.11959006 
2695 -0.11953266 
2696 -0.119264975 
2697 -0.11907239 
2698 -0.11921455 
2699 -0.119670525 
2700 -0.11976172 
2701 -0.11963566 
2702 -0.119869545 
2703 -0.120074466 
2704 -0.119895294 
2705 -0.119617954 
2706 -0.11954017 
2707 -0.119685546 
2708 -0.11975367 
2709 -0.119949475 
2710 -0.1200632 
2711 -0.12006588 
2712 -0.1199763 
2713 -0.1198674 
2714 -0.12008841 
2715 -0.12008627 
2716 -0.11977191 
2717 -0.119812146 
2718 -0.11982556 
2719 -0.119765475 
2720 -0.119860426 
2721 -0.11985023 
2722 -0.11997308 
2723 -0.12011041 
2724 -0.11993177 
2725 -0.11970003 
2726 -0.11973329 
2727 -0.11983414 
2728 -0.119836286 
2729 -0.11973168 
2730 -0.1197231 
2731 -0.11968501 
2732 -0.119596496 
2733 -0.11988349 
2734 -0.120202675 
2735 -0.11996986 
2736 -0.11967428 
2737 -0.11960615 
2738 -0.11960079 
2739 -0.11964692 
2740 -0.1196952 
2741 -0.11977996 
2742 -0.11971666 
2743 -0.119847015 
2744 -0.12006159 
2745 -0.1199543 
2746 -0.11982609 
2747 -0.11978586 
2748 -0.11970432 
2749 -0.11957772 
2750 -0.119545534 
2751 -0.119668916 
2752 -0.119925335 
2753 -0.11976923 
2754 -0.11974187 
2755 -0.11980946 
2756 -0.11982985 
2757 -0.119668916 
2758 -0.11965336 
2759 -0.11962922 
2760 -0.11962707 
2761 -0.11975099 
2762 -0.11993821 
2763 -0.12011202 
2764 -0.12000795 
2765 -0.11980142 
2766 -0.11978103 
2767 -0.119785324 
2768 -0.11985774 
2769 -0.119827166 
2770 -0.11990066 
2771 -0.11994089 
2772 -0.120059446 
2773 -0.119949475 
2774 -0.11987813 
2775 -0.119926944 
2776 -0.11961903 
2777 -0.11949994 
2778 -0.11961098 
2779 -0.11981858 
2780 -0.11979659 
2781 -0.119683936 
2782 -0.11954714 
2783 -0.119577184 
2784 -0.11991139 
2785 -0.120029405 
2786 -0.120107725 
2787 -0.11992051 
2788 -0.11974831 
2789 -0.119733825 
2790 -0.11954446 
2791 -0.11938192 
2792 -0.11948384 
2793 -0.11953266 
2794 -0.11945166 
2795 -0.11936046 
2796 -0.1195391 
2797 -0.11981 
2798 -0.119923726 
2799 -0.11982019 
2800 -0.11956592 
2801 -0.11982985 
2802 -0.11995323 
2803 -0.119872764 
2804 -0.12002243 
2805 -0.119979516 
2806 -0.1199822 
2807 -0.12014206 
2808 -0.120081976 
2809 -0.119875446 
2810 -0.11959864 
2811 -0.11975475 
2812 -0.11989315 
2813 -0.11981107 
2814 -0.11973865 
2815 -0.11974777 
2816 -0.11959435 
2817 -0.119379774 
2818 -0.11952944 
2819 -0.119785324 
2820 -0.11965121 
2821 -0.11968447 
2822 -0.11967696 
2823 -0.1196893 
2824 -0.11963941 
2825 -0.11950101 
2826 -0.11954822 
2827 -0.11956002 
2828 -0.11952676 
2829 -0.119845405 
2830 -0.11997737 
2831 -0.11976655 
2832 -0.11947258 
2833 -0.119711295 
2834 -0.11999722 
2835 -0.11967428 
2836 -0.11954285 
2837 -0.11961527 
2838 -0.11955519 
2839 -0.11946829 
2840 -0.11965336 
2841 -0.11997415 
2842 -0.11986472 
2843 -0.119558945 
2844 -0.1195804 
2845 -0.1198674 
2846 -0.119847015 
2847 -0.11992051 
2848 -0.12005891 
2849 -0.12002136 
2850 -0.11993553 
2851 -0.11974831 
2852 -0.11964853 
2853 -0.1197644 
2854 -0.11968769 
2855 -0.11964746 
2856 -0.1195745 
2857 -0.119554654 
2858 -0.11972685 
2859 -0.11976762 
2860 -0.11973758 
2861 -0.119742945 
2862 -0.11987437 
2863 -0.119852915 
2864 -0.119880274 
2865 -0.11988725 
2866 -0.119763866 
2867 -0.11969252 
2868 -0.11982824 
2869 -0.11993767 
2870 -0.119907096 
2871 -0.119788006 
2872 -0.11979981 
2873 -0.11973865 
2874 -0.11969735 
2875 -0.11974616 
2876 -0.11959542 
2877 -0.11961098 
2878 -0.11994572 
2879 -0.1200337 
2880 -0.119880274 
2881 -0.11974402 
2882 -0.11970915 
2883 -0.11973758 
2884 -0.11979981 
2885 -0.11970271 
2886 -0.11967857 
2887 -0.11957504 
2888 -0.11946131 
2889 -0.11944415 
2890 -0.11936475 
2891 -0.11956163 
2892 -0.119843796 
2893 -0.120059446 
2894 -0.119947866 
2895 -0.119991854 
2896 -0.12005408 
2897 -0.12002297 
2898 -0.12009914 
2899 -0.12017371 
2900 -0.12027134 
2901 -0.11992051 
2902 -0.11972095 
2903 -0.119824484 
2904 -0.120057836 
2905 -0.120172635 
2906 -0.12011202 
2907 -0.12017371 
2908 -0.120176926 
2909 -0.1198733 
2910 -0.11979766 
2911 -0.119892076 
2912 -0.1198851 
2913 -0.11971344 
2914 -0.11961903 
2915 -0.119678035 
2916 -0.11977352 
2917 -0.11982556 
2918 -0.11995806 
2919 -0.119752064 
2920 -0.119608834 
2921 -0.11980195 
2922 -0.11990817 
2923 -0.12003799 
2924 -0.120237544 
2925 -0.12027134 
2926 -0.120332494 
2927 -0.12052883 
2928 -0.12069513 
2929 -0.12039204 
2930 -0.120193556 
2931 -0.11989154 
2932 -0.11974724 
2933 -0.119616345 
2934 -0.11952408 
2935 -0.119369045 
2936 -0.11913891 
2937 -0.11939372 
2938 -0.11972149 
2939 -0.11997308 
2940 -0.12018497 
2941 -0.12022735 
2942 -0.12034483 
2943 -0.12049396 
2944 -0.12051274 
2945 -0.1203502 
2946 -0.12040223 
2947 -0.120489135 
2948 -0.12014796 
2949 -0.11982019 
2950 -0.11954285 
2951 -0.11941089 
2952 -0.1197408 
2953 -0.119687155 
2954 -0.119503155 
2955 -0.11954017 
2956 -0.11952032 
2957 -0.11961366 
2958 -0.11954017 
2959 -0.11950423 
2960 -0.119385675 
2961 -0.11942591 
2962 -0.11971827 
2963 -0.11996342 
2964 -0.11996128 
2965 -0.119800344 
2966 -0.119729534 
2967 -0.11991729 
2968 -0.119962886 
2969 -0.11991836 
2970 -0.12008841 
2971 -0.12007554 
2972 -0.12001921 
2973 -0.11997308 
2974 -0.11986096 
2975 -0.11961152 
2976 -0.1196716 
2977 -0.119824484 
2978 -0.11968233 
2979 -0.11954178 
2980 -0.11949994 
2981 -0.11944361 
2982 -0.11981858 
2983 -0.12000151 
2984 -0.120115235 
2985 -0.12002726 
2986 -0.11990173 
2987 -0.11980839 
2988 -0.119681254 
2989 -0.11958362 
2990 -0.120057836 
2991 -0.12028153 
2992 -0.12013455 
2993 -0.12006588 
2994 -0.119744554 
2995 -0.119453266 
2996 -0.119527295 
2997 -0.11966033 
2998 -0.11960025 
2999 -0.119592205 
3000 -0.11981751 
3001 -0.11989744 
3002 -0.11992909 
3003 -0.119831994 
3004 -0.119789615 
3005 -0.119791225 
3006 -0.11964585 
3007 -0.11983414 
3008 -0.120005265 
3009 -0.11986472 
3010 -0.119625464 
3011 -0.11964424 
3012 -0.11977781 
3013 -0.119872764 
3014 -0.1200117 
3015 -0.11980839 
3016 -0.11973597 
3017 -0.119887784 
3018 -0.119767085 
3019 -0.119497254 
3020 -0.11961688 
3021 -0.11976816 
3022 -0.119875446 
3023 -0.1198041 
3024 -0.11977889 
3025 -0.11972417 
3026 -0.11971612 
3027 -0.11974509 
3028 -0.119914606 
3029 -0.11995055 
3030 -0.11972417 
3031 -0.11971666 
3032 -0.119997755 
3033 -0.12001492 
3034 -0.119901195 
3035 -0.11987652 
3036 -0.11972417 
3037 -0.119560555 
3038 -0.11957182 
3039 -0.11965443 
3040 -0.119588986 
3041 -0.119389966 
3042 -0.11933096 
3043 -0.11939104 
3044 -0.119590595 
3045 -0.119467214 
3046 -0.11930145 
3047 -0.11980303 
3048 -0.120005265 
3049 -0.119804636 
3050 -0.11981751 
3051 -0.11976816 
3052 -0.11979391 
3053 -0.1200455 
3054 -0.12006964 
3055 -0.11996986 
3056 -0.12003799 
3057 -0.119956985 
3058 -0.11971076 
3059 -0.11960347 
3060 -0.11969413 
3061 -0.119477406 
3062 -0.11914052 
3063 -0.11929877 
3064 -0.119729 
3065 -0.11987223 
3066 -0.11970003 
3067 -0.11976655 
3068 -0.1198851 
3069 -0.11969037 
3070 -0.11959757 
3071 -0.11959006 
3072 -0.11981107 
3073 -0.120002046 
3074 -0.11996557 
3075 -0.119845405 
3076 -0.11999293 
3077 -0.120116845 
3078 -0.12008627 
3079 -0.11985238 
3080 -0.11980249 
3081 -0.12004013 
3082 -0.11985238 
3083 -0.119700566 
3084 -0.11977942 
3085 -0.11955197 
3086 -0.11935671 
3087 -0.119448975 
3088 -0.119631365 
3089 -0.119732216 
3090 -0.119718805 
3091 -0.11946131 
3092 -0.11935456 
3093 -0.11966194 
3094 -0.1198041 
3095 -0.11989261 
3096 -0.11997576 
3097 -0.11985345 
3098 -0.119828776 
3099 -0.1198336 
3100 -0.11973168 
3101 -0.11967696 
3102 -0.11961903 
3103 -0.11943449 
3104 -0.11926766 
3105 -0.11923976 
3106 -0.11940123 
3107 -0.11958684 
3108 -0.11973329 
3109 -0.11974509 
3110 -0.119632974 
3111 -0.11977996 
3112 -0.120174244 
3113 -0.120171025 
3114 -0.120020285 
3115 -0.119886175 
3116 -0.11953856 
3117 -0.11925961 
3118 -0.11930306 
3119 -0.119458094 
3120 -0.11956431 
3121 -0.11957128 
3122 -0.1194184 
3123 -0.119240835 
3124 -0.119209185 
3125 -0.119486526 
3126 -0.119670525 
3127 -0.11958577 
3128 -0.11941679 
3129 -0.11944844 
3130 -0.11940338 
3131 -0.11929448 
3132 -0.119374946 
3133 -0.11958791 
3134 -0.11958201 
3135 -0.11957611 
3136 -0.119545534 
3137 -0.11940016 
3138 -0.119326666 
3139 -0.119391575 
3140 -0.11948009 
3141 -0.11963834 
3142 -0.11980678 
3143 -0.11996986 
3144 -0.119655505 
3145 -0.11934973 
3146 -0.11944361 
3147 -0.11962493 
3148 -0.11949779 
3149 -0.11947365 
3150 -0.119450584 
3151 -0.11959113 
3152 -0.11979981 
3153 -0.11974402 
3154 -0.119586304 
3155 -0.11947258 
3156 -0.11937548 
3157 -0.11920704 
3158 -0.11914857 
3159 -0.11924352 
3160 -0.11932291 
3161 -0.11931594 
3162 -0.11937173 
3163 -0.11930843 
3164 -0.119209185 
3165 -0.11905201 
3166 -0.11877252 
3167 -0.11885835 
3168 -0.1192462 
3169 -0.119534805 
3170 -0.119465604 
3171 -0.119219914 
3172 -0.11919685 
3173 -0.119423226 
3174 -0.11971237 
3175 -0.11992641 
3176 -0.119783714 
3177 -0.11958201 
3178 -0.119724706 
3179 -0.11985721 
3180 -0.11973329 
3181 -0.11959167 
3182 -0.11945166 
3183 -0.11916573 
3184 -0.1191196 
3185 -0.11922474 
3186 -0.11944951 
3187 -0.1195053 
3188 -0.119458094 
3189 -0.11937387 
3190 -0.119545534 
3191 -0.11963512 
3192 -0.11959113 
3193 -0.11940552 
3194 -0.11932935 
3195 -0.11932023 
3196 -0.11922903 
3197 -0.119130865 
3198 -0.11905898 
3199 -0.11925103 
3200 -0.11953105 
3201 -0.119599715 
3202 -0.11956377 
3203 -0.11951603 
3204 -0.119334176 
3205 -0.119183436 
3206 -0.11919899 
3207 -0.1191888 
3208 -0.11907829 
3209 -0.11905737 
3210 -0.119160905 
3211 -0.119139984 
3212 -0.119186655 
3213 -0.11920704 
3214 -0.11924352 
3215 -0.11904289 
3216 -0.1190799 
3217 -0.11929716 
3218 -0.119311646 
3219 -0.11914213 
3220 -0.11913355 
3221 -0.119251564 
3222 -0.119322374 
3223 -0.11910297 
3224 -0.11921026 
3225 -0.11960991 
3226 -0.11951764 
3227 -0.11924942 
3228 -0.11936046 
3229 -0.119545534 
3230 -0.11942913 
3231 -0.11932452 
3232 -0.119361535 
3233 -0.11944415 
3234 -0.1196083 
3235 -0.11948277 
3236 -0.11936207 
3237 -0.11964102 
3238 -0.11955197 
3239 -0.119278386 
3240 -0.11943288 
3241 -0.11932881 
3242 -0.11910297 
3243 -0.118756965 
3244 -0.118812755 
3245 -0.119329885 
3246 -0.11940499 
3247 -0.119482234 
3248 -0.119558945 
3249 -0.11944361 
3250 -0.11953427 
3251 -0.119569674 
3252 -0.11934008 
3253 -0.11938299 
3254 -0.11959435 
3255 -0.11975743 
3256 -0.119473115 
3257 -0.11932559 
3258 -0.11943771 
3259 -0.11954822 
3260 -0.119631365 
3261 -0.11974616 
3262 -0.11963941 
3263 -0.119518176 
3264 -0.11952408 
3265 -0.11965014 
3266 -0.11936475 
3267 -0.11901231 
3268 -0.11922045 
3269 -0.11934169 
3270 -0.11935939 
3271 -0.119471505 
3272 -0.11951335 
3273 -0.11965121 
3274 -0.11957879 
3275 -0.11934008 
3276 -0.11926551 
3277 -0.119474724 
3278 -0.11960454 
3279 -0.11961152 
3280 -0.11946292 
3281 -0.119512275 
3282 -0.11951335 
3283 -0.11954607 
3284 -0.119423226 
3285 -0.11929126 
3286 -0.11882831 
3287 -0.118806854 
3288 -0.118937746 
3289 -0.1188841 
3290 -0.119034305 
3291 -0.11923601 
3292 -0.11925317 
3293 -0.11933257 
3294 -0.11928268 
3295 -0.11907722 
3296 -0.119124964 
3297 -0.11933096 
3298 -0.11950101 
3299 -0.11945756 
3300 -0.11948867 
3301 -0.11958791 
3302 -0.119512275 
3303 -0.11928804 
3304 -0.11922796 
3305 -0.119279996 
3306 -0.11917646 
3307 -0.119159296 
3308 -0.11940445 
3309 -0.11950798 
3310 -0.119549826 
3311 -0.11918719 
3312 -0.118803635 
3313 -0.11875589 
3314 -0.11901553 
3315 -0.11908795 
3316 -0.11922367 
3317 -0.11942591 
3318 -0.119219914 
3319 -0.11909868 
3320 -0.11921294 
3321 -0.11937763 
3322 -0.11947848 
3323 -0.1193213 
3324 -0.11908795 
3325 -0.119326666 
3326 -0.11961581 
3327 -0.11967911 
3328 -0.11957879 
3329 -0.11954822 
3330 -0.11951871 
3331 -0.11946131 
3332 -0.11940606 
3333 -0.11958952 
3334 -0.11957128 
3335 -0.119486526 
3336 -0.11922367 
3337 -0.11906864 
3338 -0.11903377 
3339 -0.11900534 
3340 -0.11899944 
3341 -0.119052544 
3342 -0.11936046 
3343 -0.11947687 
3344 -0.11940391 
3345 -0.11923762 
3346 -0.119268194 
3347 -0.1193272 
3348 -0.11945166 
3349 -0.11952783 
3350 -0.11942537 
3351 -0.119361535 
3352 -0.11945863 
3353 -0.11938514 
3354 -0.119183436 
3355 -0.11911745 
3356 -0.11916788 
3357 -0.11904128 
3358 -0.11909707 
3359 -0.11922206 
3360 -0.11906864 
3361 -0.11909868 
3362 -0.11917271 
3363 -0.119369045 
3364 -0.11956431 
3365 -0.11939211 
3366 -0.11921026 
3367 -0.11927624 
3368 -0.11922367 
3369 -0.11899193 
3370 -0.11901446 
3371 -0.11921294 
3372 -0.11919524 
3373 -0.1194597 
3374 -0.11955197 
3375 -0.11938031 
3376 -0.11934061 
3377 -0.11928268 
3378 -0.11937924 
3379 -0.11951335 
3380 -0.11944039 
3381 -0.11937119 
3382 -0.119387284 
3383 -0.119370654 
3384 -0.11929019 
3385 -0.119242445 
3386 -0.119402304 
3387 -0.11934973 
3388 -0.119339004 
3389 -0.119414106 
3390 -0.11967106 
3391 -0.11961366 
3392 -0.119592205 
3393 -0.11937334 
3394 -0.11925103 
3395 -0.11937173 
3396 -0.11908688 
3397 -0.11911102 
3398 -0.119278386 
3399 -0.1192006 
3400 -0.11919792 
3401 -0.119376555 
3402 -0.11934973 
3403 -0.11953212 
3404 -0.119581476 
3405 -0.11942805 
3406 -0.11955626 
3407 -0.119598106 
3408 -0.11963566 
3409 -0.11951657 
3410 -0.11921938 
3411 -0.11926015 
3412 -0.11952032 
3413 -0.119851306 
3414 -0.11976762 
3415 -0.11944361 
3416 -0.11921884 
3417 -0.11934544 
3418 -0.119501546 
3419 -0.11930145 
3420 -0.11922099 
3421 -0.11928107 
3422 -0.1196142 
3423 -0.11982341 
3424 -0.119693056 
3425 -0.11944415 
3426 -0.11932613 
3427 -0.11933096 
3428 -0.1195171 
3429 -0.11963619 
3430 -0.11954929 
3431 -0.11955519 
3432 -0.11955573 
3433 -0.11951442 
3434 -0.11952354 
3435 -0.11944522 
3436 -0.11928965 
3437 -0.11931969 
3438 -0.11926873 
3439 -0.11932881 
3440 -0.11943181 
3441 -0.11928804 
3442 -0.11933686 
3443 -0.11957772 
3444 -0.11952354 
3445 -0.119439855 
3446 -0.11963941 
3447 -0.11966516 
3448 -0.11970647 
3449 -0.11960025 
3450 -0.119605616 
3451 -0.119765475 
3452 -0.11989583 
3453 -0.12006213 
3454 -0.12024774 
3455 -0.11998595 
3456 -0.119445756 
3457 -0.11910726 
3458 -0.11925049 
3459 -0.119343296 
3460 -0.11933471 
3461 -0.11926551 
3462 -0.119305745 
3463 -0.11925371 
3464 -0.11914267 
3465 -0.11922903 
3466 -0.11921562 
3467 -0.11910565 
3468 -0.119186655 
3469 -0.1193551 
3470 -0.11932452 
3471 -0.119408205 
3472 -0.1199763 
3473 -0.120201066 
3474 -0.119943574 
3475 -0.119474724 
3476 -0.119433954 
3477 -0.11959918 
3478 -0.119581476 
3479 -0.11929716 
3480 -0.119047716 
3481 -0.119093314 
3482 -0.11921294 
3483 -0.11927302 
3484 -0.11924566 
3485 -0.11925478 
3486 -0.11939587 
3487 -0.1195171 
3488 -0.1196893 
3489 -0.11952247 
3490 -0.11932291 
3491 -0.11932023 
3492 -0.119439855 
3493 -0.11966999 
3494 -0.1196716 
3495 -0.119560555 
3496 -0.11949028 
3497 -0.119326666 
3498 -0.119326666 
3499 -0.11936958 
3500 -0.11925425 
3501 -0.1194758 
3502 -0.11987974 
3503 -0.12000151 
3504 -0.11989154 
3505 -0.119661406 
3506 -0.11960079 
3507 -0.11947633 
3508 -0.11942108 
3509 -0.119771376 
3510 -0.11983468 
3511 -0.11971612 
3512 -0.11958362 
3513 -0.119391575 
3514 -0.119329885 
3515 -0.11944361 
3516 -0.1195171 
3517 -0.1194125 
3518 -0.119473115 
3519 -0.11964585 
3520 -0.11965819 
3521 -0.11948599 
3522 -0.11958416 
3523 -0.11971344 
3524 -0.11962922 
3525 -0.1197231 
3526 -0.11984916 
3527 -0.11981107 
3528 -0.119756356 
3529 -0.11971988 
3530 -0.11977513 
3531 -0.11992426 
3532 -0.11984165 
3533 -0.11985506 
3534 -0.11974241 
3535 -0.11955358 
3536 -0.11961205 
3537 -0.11968233 
3538 -0.11977781 
3539 -0.11964907 
3540 -0.11974402 
3541 -0.11994143 
3542 -0.11991407 
3543 -0.11986847 
3544 -0.11975314 
3545 -0.11964907 
3546 -0.11971988 
3547 -0.1196893 
3548 -0.119605616 
3549 -0.11949135 
3550 -0.11963083 
3551 -0.119605616 
3552 -0.119569674 
3553 -0.11954124 
3554 -0.11943717 
3555 -0.1194302 
3556 -0.11950691 
3557 -0.11947687 
3558 -0.11939855 
3559 -0.119361535 
3560 -0.11951496 
3561 -0.11966516 
3562 -0.11971237 
3563 -0.11971559 
3564 -0.1196716 
3565 -0.11960454 
3566 -0.11971344 
3567 -0.11991353 
3568 -0.11980893 
3569 -0.11965497 
3570 -0.11955787 
3571 -0.11963566 
3572 -0.11954929 
3573 -0.11949296 
3574 -0.11967321 
3575 -0.11973329 
3576 -0.11975743 
3577 -0.11961688 
3578 -0.11947258 
3579 -0.11933847 
3580 -0.11924298 
3581 -0.11925961 
3582 -0.119281605 
3583 -0.119374946 
3584 -0.11954661 
3585 -0.1197011 
3586 -0.11948492 
3587 -0.11930789 
3588 -0.11954822 
3589 -0.11949618 
3590 -0.11946614 
3591 -0.1195686 
3592 -0.119934455 
3593 -0.12002458 
3594 -0.11990817 
3595 -0.11968072 
3596 -0.11952032 
3597 -0.11943556 
3598 -0.11935349 
3599 -0.11930682 
3600 -0.11920704 
3601 -0.11925639 
3602 -0.11934812 
3603 -0.11937441 
3604 -0.119329885 
3605 -0.11925693 
3606 -0.1194243 
3607 -0.11965443 
3608 -0.11978264 
3609 -0.11972149 
3610 -0.11946346 
3611 -0.11947955 
3612 -0.11984165 
3613 -0.11965604 
3614 -0.11936368 
3615 -0.11943181 
3616 -0.11958416 
3617 -0.11974026 
3618 -0.119534805 
3619 -0.11945112 
3620 -0.11948438 
3621 -0.119519785 
3622 -0.11967267 
3623 -0.11985989 
3624 -0.120070174 
3625 -0.119991854 
3626 -0.119872764 
3627 -0.11978908 
3628 -0.119663015 
3629 -0.119763866 
3630 -0.11948492 
3631 -0.11914964 
3632 -0.119283214 
3633 -0.11959489 
3634 -0.11974241 
3635 -0.11970915 
3636 -0.119518176 
3637 -0.119168416 
3638 -0.11921938 
3639 -0.119430736 
3640 -0.119562164 
3641 -0.11948599 
3642 -0.11966033 
3643 -0.120079294 
3644 -0.120042816 
3645 -0.11984165 
3646 -0.11977513 
3647 -0.11963405 
3648 -0.11972095 
3649 -0.11977674 
3650 -0.11983253 
3651 -0.11984111 
3652 -0.11973114 
3653 -0.11974241 
3654 -0.11984165 
3655 -0.11966838 
3656 -0.11966248 
3657 -0.11956914 
3658 -0.11955948 
3659 -0.11960347 
3660 -0.11956592 
3661 -0.11948116 
3662 -0.11963244 
3663 -0.119593814 
3664 -0.11929341 
3665 -0.11940552 
3666 -0.11976816 
3667 -0.119938746 
3668 -0.11989261 
3669 -0.11972363 
3670 -0.11960937 
3671 -0.119519785 
3672 -0.119365826 
3673 -0.1193964 
3674 -0.11927141 
3675 -0.119263366 
3676 -0.11942698 
3677 -0.11958845 
3678 -0.119623855 
3679 -0.1196378 
3680 -0.11977352 
3681 -0.11967589 
3682 -0.1195686 
3683 -0.11956002 
3684 -0.1196598 
3685 -0.11957236 
3686 -0.11942591 
3687 -0.11948867 
3688 -0.11943449 
3689 -0.119411424 
3690 -0.11948599 
3691 -0.1195391 
3692 -0.11949833 
3693 -0.11956592 
3694 -0.11957075 
3695 -0.11946936 
3696 -0.11936207 
3697 -0.119275704 
3698 -0.11937602 
3699 -0.11948492 
3700 -0.11947848 
3701 -0.119527295 
3702 -0.11971559 
3703 -0.11974992 
3704 -0.11964424 
3705 -0.119543925 
3706 -0.11950745 
3707 -0.11954446 
3708 -0.119564846 
3709 -0.11945273 
3710 -0.11942108 
3711 -0.119414106 
3712 -0.119783714 
3713 -0.11993928 
3714 -0.11996664 
3715 -0.11980142 
3716 -0.119538024 
3717 -0.119259074 
3718 -0.11918987 
3719 -0.119132474 
3720 -0.11944093 
3721 -0.119772986 
3722 -0.119839504 
3723 -0.11982824 
3724 -0.11976279 
3725 -0.119632974 
3726 -0.119573966 
3727 -0.11949189 
3728 -0.11969788 
3729 -0.1198277 
3730 -0.11979498 
3731 -0.11989261 
3732 -0.1199881 
3733 -0.12003477 
3734 -0.119981125 
3735 -0.1196657 
3736 -0.11948116 
3737 -0.11954339 
3738 -0.11977191 
3739 -0.11986686 
3740 -0.11974026 
3741 -0.11959274 
3742 -0.1195112 
3743 -0.119295016 
3744 -0.11930843 
3745 -0.11950798 
3746 -0.11965068 
3747 -0.11981483 
3748 -0.11993338 
3749 -0.119741336 
3750 -0.119678035 
3751 -0.11994733 
3752 -0.12008895 
3753 -0.11997844 
3754 -0.11988081 
3755 -0.11964531 
3756 -0.11959596 
3757 -0.1198969 
3758 -0.12001975 
3759 -0.11997898 
3760 -0.119712904 
3761 -0.11966355 
3762 -0.11963512 
3763 -0.119519785 
3764 -0.11923976 
3765 -0.11899461 
3766 -0.11919524 
3767 -0.11956002 
3768 -0.119598106 
3769 -0.119562164 
3770 -0.119631365 
3771 -0.119616345 
3772 -0.11966731 
3773 -0.119893685 
3774 -0.11997844 
3775 -0.120059446 
3776 -0.120014384 
3777 -0.11987759 
3778 -0.119744554 
3779 -0.11986257 
3780 -0.11988671 
3781 -0.1199822 
3782 -0.120115235 
3783 -0.11993714 
3784 -0.11999507 
3785 -0.119858816 
3786 -0.11967696 
3787 -0.1196834 
3788 -0.119759575 
3789 -0.119783714 
3790 -0.119756356 
3791 -0.119788006 
3792 -0.11984433 
3793 -0.1198497 
3794 -0.119735435 
3795 -0.11965175 
3796 -0.11985828 
3797 -0.120145276 
3798 -0.120226815 
3799 -0.12009324 
3800 -0.11992909 
3801 -0.11979605 
3802 -0.11975528 
3803 -0.11965926 
3804 -0.1198733 
3805 -0.11996825 
3806 -0.119763866 
3807 -0.11975367 
3808 -0.11976279 
3809 -0.11960454 
3810 -0.119566455 
3811 -0.11952783 
3812 -0.11936636 
3813 -0.11975314 
3814 -0.11995484 
3815 -0.11976065 
3816 -0.11974831 
3817 -0.119991854 
3818 -0.12001921 
3819 -0.120228425 
3820 -0.120395795 
3821 -0.1203223 
3822 -0.12039311 
3823 -0.12037273 
3824 -0.120180145 
3825 -0.11989637 
3826 -0.11979444 
3827 -0.11970647 
3828 -0.119625464 
3829 -0.11958094 
3830 -0.11970861 
3831 -0.11970164 
3832 -0.11951764 
3833 -0.11952515 
3834 -0.11950584 
3835 -0.11926068 
3836 -0.11928429 
3837 -0.11946185 
3838 -0.119750455 
3839 -0.12000312 
3840 -0.119919434 
3841 -0.119863644 
3842 -0.11981 
3843 -0.119664624 
3844 -0.11962922 
3845 -0.11966999 
3846 -0.119914606 
3847 -0.12004872 
3848 -0.12008841 
3849 -0.12012221 
3850 -0.119872764 
3851 -0.119644776 
3852 -0.119646385 
3853 -0.120125964 
3854 -0.11995323 
3855 -0.11957933 
3856 -0.11937334 
3857 -0.11927463 
3858 -0.11932559 
3859 -0.119370654 
3860 -0.11934437 
3861 -0.11930306 
3862 -0.11956377 
3863 -0.119668916 
3864 -0.11956377 
3865 -0.119581476 
3866 -0.11980946 
3867 -0.119854525 
3868 -0.11998917 
3869 -0.12012489 
3870 -0.12014474 
3871 -0.12006535 
3872 -0.12024988 
3873 -0.120280996 
3874 -0.11980517 
3875 -0.119523 
3876 -0.11953159 
3877 -0.11958791 
3878 -0.11953266 
3879 -0.11937763 
3880 -0.11923064 
3881 -0.11937226 
3882 -0.11981912 
3883 -0.11980303 
3884 -0.11978264 
3885 -0.11980678 
3886 -0.119702175 
3887 -0.11971451 
3888 -0.119668916 
3889 -0.119703785 
3890 -0.119693056 
3891 -0.119655505 
3892 -0.119663015 
3893 -0.11989583 
3894 -0.120092705 
3895 -0.11964585 
3896 -0.119367436 
3897 -0.11984809 
3898 -0.11999722 
3899 -0.120042816 
3900 -0.11990173 
3901 -0.119919434 
3902 -0.1199999 
3903 -0.12019999 
3904 -0.120189264 
3905 -0.11996825 
3906 -0.119768694 
3907 -0.11965658 
3908 -0.11971344 
3909 -0.11975743 
3910 -0.11971559 
3911 -0.119839504 
3912 -0.11977781 
3913 -0.1196775 
3914 -0.11959864 
3915 -0.119558945 
3916 -0.11938353 
3917 -0.11929877 
3918 -0.1195391 
3919 -0.11961098 
3920 -0.119503155 
3921 -0.11963244 
3922 -0.119700566 
3923 -0.11990602 
3924 -0.119991854 
3925 -0.11997469 
3926 -0.1199881 
3927 -0.1198556 
3928 -0.11953749 
3929 -0.11957772 
3930 -0.12003048 
3931 -0.12009646 
3932 -0.119910315 
3933 -0.1197231 
3934 -0.11982341 
3935 -0.11973329 
3936 -0.11977781 
3937 -0.11976011 
3938 -0.11993338 
3939 -0.11973758 
3940 -0.11967589 
3941 -0.119653895 
3942 -0.11944254 
3943 -0.11970164 
3944 -0.11980142 
3945 -0.11964907 
3946 -0.11962707 
3947 -0.119860426 
3948 -0.11988403 
3949 -0.11992802 
3950 -0.11982234 
3951 -0.11967321 
3952 -0.119729 
3953 -0.11982931 
3954 -0.11982824 
3955 -0.11972363 
3956 -0.11971076 
3957 -0.12011041 
3958 -0.12051757 
3959 -0.120395795 
3960 -0.12016405 
3961 -0.12009002 
3962 -0.12012221 
3963 -0.12013884 
3964 -0.11999346 
3965 -0.11980249 
3966 -0.119789615 
3967 -0.119757965 
3968 -0.11969252 
3969 -0.1197467 
3970 -0.1198497 
3971 -0.1198851 
3972 -0.119878665 
3973 -0.119672135 
3974 -0.11942591 
3975 -0.119642094 
3976 -0.120066956 
3977 -0.120098606 
3978 -0.12004335 
3979 -0.120003656 
3980 -0.12007232 
3981 -0.11974509 
3982 -0.119554654 
3983 -0.119936064 
3984 -0.11989851 
3985 -0.119877055 
3986 -0.119932845 
3987 -0.11987491 
3988 -0.12000848 
3989 -0.11997469 
3990 -0.11977889 
3991 -0.11957611 
3992 -0.11954446 
3993 -0.11965443 
3994 -0.11966731 
3995 -0.119774595 
3996 -0.11971076 
3997 -0.11955787 
3998 -0.11977513 
3999 -0.119742945 
4000 -0.1196083 
4001 -0.11947848 
4002 -0.11938514 
4003 -0.119400695 
4004 -0.11947633 
4005 -0.119729534 
4006 -0.12000848 
4007 -0.119941965 
4008 -0.11984219 
4009 -0.11986096 
4010 -0.11984058 
4011 -0.11989261 
4012 -0.11999507 
4013 -0.119852915 
4014 -0.11968823 
4015 -0.11965926 
4016 -0.11968769 
4017 -0.119763866 
4018 -0.11970754 
4019 -0.11966784 
4020 -0.11966033 
4021 -0.119625464 
4022 -0.11952622 
4023 -0.119735435 
4024 -0.119707 
4025 -0.11960454 
4026 -0.11952676 
4027 -0.11949296 
4028 -0.11946078 
4029 -0.11936958 
4030 -0.11935027 
4031 -0.11957504 
4032 -0.1197011 
4033 -0.11964746 
4034 -0.119584695 
4035 -0.119423226 
4036 -0.11921938 
4037 -0.11903967 
4038 -0.11900909 
4039 -0.11904879 
4040 -0.119378164 
4041 -0.119281605 
4042 -0.11938138 
4043 -0.119763866 
4044 -0.11982502 
4045 -0.11975153 
4046 -0.11974938 
4047 -0.119673744 
4048 -0.11959435 
4049 -0.11974831 
4050 -0.11977781 
4051 -0.11967106 
4052 -0.119741336 
4053 -0.11993499 
4054 -0.11980839 
4055 -0.11965819 
4056 -0.11961527 
4057 -0.11932291 
4058 -0.11930682 
4059 -0.11960508 
4060 -0.11959167 
4061 -0.11951281 
4062 -0.119700566 
4063 -0.119765475 
4064 -0.119863644 
4065 -0.11993982 
4066 -0.11976279 
4067 -0.11945219 
4068 -0.119415715 
4069 -0.11960615 
4070 -0.1197011 
4071 -0.11969037 
4072 -0.11951281 
4073 -0.11951442 
4074 -0.11955519 
4075 -0.11961742 
4076 -0.11948706 
4077 -0.119299844 
4078 -0.11955197 
4079 -0.119673744 
4080 -0.119512275 
4081 -0.11941089 
4082 -0.11935295 
4083 -0.11928858 
4084 -0.11934866 
4085 -0.11960669 
4086 -0.119774595 
4087 -0.119752064 
4088 -0.119774595 
4089 -0.119726315 
4090 -0.1196657 
4091 -0.119647995 
4092 -0.11963566 
4093 -0.11976172 
4094 -0.11989315 
4095 -0.11969413 
4096 -0.11957343 
4097 -0.11947633 
4098 -0.11968233 
4099 -0.11969681 
4100 -0.11963566 
4101 -0.11958201 
4102 -0.119812146 
4103 -0.1199425 
4104 -0.11990227 
4105 -0.11965121 
4106 -0.11948545 
4107 -0.11939748 
4108 -0.11933096 
4109 -0.11931218 
4110 -0.11926712 
4111 -0.11937119 
4112 -0.11974724 
4113 -0.119852915 
4114 -0.11988403 
4115 -0.11976494 
4116 -0.119729534 
4117 -0.11974509 
4118 -0.11974938 
4119 -0.11979444 
4120 -0.11989583 
4121 -0.119871154 
4122 -0.11977781 
4123 -0.11980303 
4124 -0.11977084 
4125 -0.11970486 
4126 -0.119673744 
4127 -0.119789615 
4128 -0.1199543 
4129 -0.119956985 
4130 -0.11985023 
4131 -0.1198336 
4132 -0.11971934 
4133 -0.11964746 
4134 -0.11976172 
4135 -0.11979176 
4136 -0.119791225 
4137 -0.11998971 
4138 -0.1202472 
4139 -0.12021287 
4140 -0.12010719 
4141 -0.119982734 
4142 -0.11981 
4143 -0.11969198 
4144 -0.11969359 
4145 -0.1198792 
4146 -0.12005301 
4147 -0.1201029 
4148 -0.12006374 
4149 -0.119804636 
4150 -0.119720414 
4151 -0.119763866 
4152 -0.1195509 
4153 -0.11957343 
4154 -0.11992212 
4155 -0.11986257 
4156 -0.11978747 
4157 -0.11973114 
4158 -0.119757965 
4159 -0.11982556 
4160 -0.11965658 
4161 -0.119761184 
4162 -0.11979337 
4163 -0.11970754 
4164 -0.11967911 
4165 -0.119644776 
4166 -0.119480625 
4167 -0.11962332 
4168 -0.11984755 
4169 -0.11976601 
4170 -0.119608834 
4171 -0.11974563 
4172 -0.119962886 
4173 -0.11992963 
4174 -0.119919434 
4175 -0.11983146 
4176 -0.11965175 
4177 -0.119688764 
4178 -0.11998005 
4179 -0.119800344 
4180 -0.119670525 
4181 -0.11958845 
4182 -0.119486526 
4183 -0.119549826 
4184 -0.11964907 
4185 -0.1197011 
4186 -0.11963029 
4187 -0.119837895 
4188 -0.11989798 
4189 -0.11988671 
4190 -0.11996932 
4191 -0.119907096 
4192 -0.11977996 
4193 -0.11965175 
4194 -0.119554654 
4195 -0.11954822 
4196 -0.119807854 
4197 -0.11978747 
4198 -0.11959435 
4199 -0.11955519 
4200 -0.11951871 
4201 -0.119590595 
4202 -0.11981912 
4203 -0.12000419 
4204 -0.11996825 
4205 -0.11987813 
4206 -0.11980571 
4207 -0.11985184 
4208 -0.12011041 
4209 -0.12001814 
4210 -0.11975743 
4211 -0.11978157 
4212 -0.119938746 
4213 -0.11995055 
4214 -0.11973865 
4215 -0.119447365 
4216 -0.11926122 
4217 -0.119295016 
4218 -0.11973007 
4219 -0.11987974 
4220 -0.11975743 
4221 -0.11972685 
4222 -0.119973615 
4223 -0.12007876 
4224 -0.12001331 
4225 -0.11994572 
4226 -0.119806245 
4227 -0.1197585 
4228 -0.11990388 
4229 -0.119972005 
4230 -0.11986633 
4231 -0.11983897 
4232 -0.119748846 
4233 -0.119661406 
4234 -0.11969359 
4235 -0.11969574 
4236 -0.119771376 
4237 -0.119763866 
4238 -0.119632974 
4239 -0.11969735 
4240 -0.1199881 
4241 -0.12010075 
4242 -0.1200455 
4243 -0.11992909 
4244 -0.119871154 
4245 -0.11997844 
4246 -0.120321766 
4247 -0.120324984 
4248 -0.120424226 
4249 -0.120165125 
4250 -0.11982073 
4251 -0.11970915 
4252 -0.119967714 
4253 -0.11995752 
4254 -0.12003638 
4255 -0.12020911 
4256 -0.1201147 
4257 -0.119967714 
4258 -0.119878665 
4259 -0.119828776 
4260 -0.11970647 
4261 -0.1195627 
4262 -0.11983468 
4263 -0.11990066 
4264 -0.11981858 
4265 -0.11990602 
4266 -0.11976977 
4267 -0.11965497 
4268 -0.11970432 
4269 -0.11978479 
4270 -0.119510666 
4271 -0.11937173 
4272 -0.11943717 
4273 -0.11942376 
4274 -0.11937387 
4275 -0.119295016 
4276 -0.119385675 
4277 -0.11951764 
4278 -0.119707 
4279 -0.12005891 
4280 -0.1201839 
4281 -0.120314255 
4282 -0.120596424 
4283 -0.12050684 
4284 -0.12025739 
4285 -0.1196716 
4286 -0.11924566 
4287 -0.11933632 
4288 -0.11945863 
4289 -0.119439855 
4290 -0.11938621 
4291 -0.11928536 
4292 -0.1191829 
4293 -0.1194479 
4294 -0.1197349 
4295 -0.11970003 
4296 -0.11969145 
4297 -0.11997147 
4298 -0.12010504 
4299 -0.12025471 
4300 -0.12047465 
4301 -0.12053634 
4302 -0.12053956 
4303 -0.120546535 
4304 -0.12057336 
4305 -0.12070103 
4306 -0.12049128 
4307 -0.12009002 
4308 -0.11976065 
4309 -0.11957504 
4310 -0.1195627 
4311 -0.11945917 
4312 -0.11961742 
4313 -0.11980571 
4314 -0.11974563 
4315 -0.11956002 
4316 -0.11936046 
4317 -0.11927785 
4318 -0.11935939 
4319 -0.11948867 
4320 -0.11966784 
4321 -0.119642094 
4322 -0.11954822 
4323 -0.11968501 
4324 -0.119590595 
4325 -0.11957826 
4326 -0.11973168 
4327 -0.11991836 
4328 -0.11988349 
4329 -0.11984487 
4330 -0.12000634 
4331 -0.12014742 
4332 -0.12023862 
4333 -0.12007554 
4334 -0.11996235 
4335 -0.11996557 
4336 -0.11974509 
4337 -0.119454876 
4338 -0.11969145 
4339 -0.11977245 
4340 -0.11958362 
4341 -0.11937387 
4342 -0.119510666 
4343 -0.119521394 
4344 -0.11959542 
4345 -0.11987384 
4346 -0.11992963 
4347 -0.11980732 
4348 -0.11981751 
4349 -0.11984165 
4350 -0.11988135 
4351 -0.11978586 
4352 -0.119785324 
4353 -0.119863644 
4354 -0.11999883 
4355 -0.119752064 
4356 -0.11953373 
4357 -0.11948599 
4358 -0.119519785 
4359 -0.11968823 
4360 -0.119717196 
4361 -0.11985077 
4362 -0.11981 
4363 -0.11977513 
4364 -0.11988886 
4365 -0.11993016 
4366 -0.11983253 
4367 -0.11985828 
4368 -0.11998381 
4369 -0.11982019 
4370 -0.11963673 
4371 -0.119474724 
4372 -0.119549826 
4373 -0.11993714 
4374 -0.12004121 
4375 -0.11977996 
4376 -0.119737044 
4377 -0.11982019 
4378 -0.119767085 
4379 -0.11981054 
4380 -0.11957879 
4381 -0.119323984 
4382 -0.11963941 
4383 -0.119941965 
4384 -0.12012167 
4385 -0.120115235 
4386 -0.120066956 
4387 -0.12001331 
4388 -0.1201383 
4389 -0.120038524 
4390 -0.11973329 
4391 -0.119837895 
4392 -0.119913 
4393 -0.1197585 
4394 -0.119545 
4395 -0.11954768 
4396 -0.119592205 
4397 -0.11964692 
4398 -0.11987974 
4399 -0.11993982 
4400 -0.119806245 
4401 -0.11977781 
4402 -0.11983521 
4403 -0.11986472 
4404 -0.11971022 
4405 -0.11981107 
4406 -0.11990763 
4407 -0.120057836 
4408 -0.120106116 
4409 -0.12003584 
4410 -0.12006588 
4411 -0.12003584 
4412 -0.1200176 
4413 -0.12012489 
4414 -0.1200455 
4415 -0.11999883 
4416 -0.120118454 
4417 -0.120140985 
4418 -0.11991407 
4419 -0.11978264 
4420 -0.11980839 
4421 -0.11993821 
4422 -0.119970396 
4423 -0.11985935 
4424 -0.11988188 
4425 -0.1199763 
4426 -0.120020285 
4427 -0.12005569 
4428 -0.11992855 
4429 -0.12001224 
4430 -0.1202354 
4431 -0.12034108 
4432 -0.12004979 
4433 -0.11990495 
4434 -0.120068565 
4435 -0.120321766 
4436 -0.12026544 
4437 -0.120285824 
4438 -0.12024774 
4439 -0.12019892 
4440 -0.12021716 
4441 -0.120057836 
4442 -0.12004335 
4443 -0.12026329 
4444 -0.120166734 
4445 -0.11988564 
4446 -0.119931236 
4447 -0.12032552 
4448 -0.12054278 
4449 -0.120375946 
4450 -0.12011148 
4451 -0.119744554 
4452 -0.11970432 
4453 -0.11971559 
4454 -0.119663015 
4455 -0.119718805 
4456 -0.11975582 
4457 -0.11978693 
4458 -0.11992748 
4459 -0.12004389 
4460 -0.119907096 
4461 -0.11946775 
4462 -0.119608834 
4463 -0.11988725 
4464 -0.11987008 
4465 -0.11987652 
4466 -0.119934455 
4467 -0.12009592 
4468 -0.120222524 
4469 -0.120237544 
4470 -0.1203502 
4471 -0.12048055 
4472 -0.12040652 
4473 -0.12050791 
4474 -0.12068601 
4475 -0.1204827 
4476 -0.12000848 
4477 -0.11958201 
4478 -0.11957236 
4479 -0.11962332 
4480 -0.11975904 
4481 -0.11979444 
4482 -0.11979069 
4483 -0.11984916 
4484 -0.11973329 
4485 -0.11964853 
4486 -0.11975099 
4487 -0.11987008 
4488 -0.11980678 
4489 -0.1197467 
4490 -0.119947866 
4491 -0.120020285 
4492 -0.11981322 
4493 -0.12000044 
4494 -0.120066956 
4495 -0.119848624 
4496 -0.11962922 
4497 -0.11942376 
4498 -0.11941947 
4499 -0.11941786 
4500 -0.11976816 
4501 -0.119800344 
4502 -0.119711295 
4503 -0.119798735 
4504 -0.11979015 
4505 -0.11976762 
4506 -0.11991997 
4507 -0.11993714 
4508 -0.119827166 
4509 -0.119791225 
4510 -0.12006749 
4511 -0.12019892 
4512 -0.12023218 
4513 -0.12020965 
4514 -0.12018283 
4515 -0.12011041 
4516 -0.11986847 
4517 -0.11972685 
4518 -0.11958577 
4519 -0.11952837 
4520 -0.11969574 
4521 -0.11982395 
4522 -0.11986579 
4523 -0.11983897 
4524 -0.11973597 
4525 -0.11974563 
4526 -0.119763866 
4527 -0.12013562 
4528 -0.120356634 
4529 -0.120226815 
4530 -0.12001385 
4531 -0.11988886 
4532 -0.12015815 
4533 -0.1200809 
4534 -0.119919434 
4535 -0.119887784 
4536 -0.119856134 
4537 -0.11979766 
4538 -0.11973061 
4539 -0.119629756 
4540 -0.119673744 
4541 -0.119504765 
4542 -0.11949994 
4543 -0.11977245 
4544 -0.120027795 
4545 -0.12003209 
4546 -0.12005623 
4547 -0.119996145 
4548 -0.11972256 
4549 -0.119653895 
4550 -0.12002994 
4551 -0.12009914 
4552 -0.119867936 
4553 -0.11977352 
4554 -0.11992051 
4555 -0.11982556 
4556 -0.119756356 
4557 -0.11982073 
4558 -0.11986847 
4559 -0.11996986 
4560 -0.119821265 
4561 -0.11964585 
4562 -0.119708076 
4563 -0.119678035 
4564 -0.11960186 
4565 -0.119629756 
4566 -0.119562164 
4567 -0.119592205 
4568 -0.1194597 
4569 -0.11942859 
4570 -0.11956324 
4571 -0.11968608 
4572 -0.119632974 
4573 -0.119637266 
4574 -0.11949457 
4575 -0.11929341 
4576 -0.11919738 
4577 -0.11938031 
4578 -0.11942591 
4579 -0.11950369 
4580 -0.11979015 
4581 -0.11991568 
4582 -0.11961205 
4583 -0.11934544 
4584 -0.11959918 
4585 -0.11980195 
4586 -0.11978425 
4587 -0.11963566 
4588 -0.119670525 
4589 -0.11977191 
4590 -0.11979176 
4591 -0.119683936 
4592 -0.119523 
4593 -0.11934973 
4594 -0.11945595 
4595 -0.119445756 
4596 -0.11957128 
4597 -0.119732216 
4598 -0.11974241 
4599 -0.119653895 
4600 -0.11960454 
4601 -0.1192344 
4602 -0.1193095 
4603 -0.11968608 
4604 -0.119739726 
4605 -0.11961903 
4606 -0.119566455 
4607 -0.11953588 
4608 -0.11967535 
4609 -0.11976226 
4610 -0.11989154 
4611 -0.11975367 
4612 -0.119687155 
4613 -0.11965014 
4614 -0.11951603 
4615 -0.11931862 
4616 -0.119387284 
4617 -0.11961903 
4618 -0.1198218 
4619 -0.11985399 
4620 -0.11976065 
4621 -0.11969574 
4622 -0.119657114 
4623 -0.11974563 
4624 -0.11973061 
4625 -0.11969574 
4626 -0.11970593 
4627 -0.11978693 
4628 -0.119676426 
4629 -0.11947955 
4630 -0.119521394 
4631 -0.11965765 
4632 -0.11968286 
4633 -0.11969145 
4634 -0.11952354 
4635 -0.119378164 
4636 -0.11953749 
4637 -0.119827166 
4638 -0.11981268 
4639 -0.11962761 
4640 -0.11992051 
4641 -0.12014903 
4642 -0.12020697 
4643 -0.12026276 
4644 -0.12014581 
4645 -0.12009914 
4646 -0.120113626 
4647 -0.12004389 
4648 -0.11990495 
4649 -0.119911924 
4650 -0.119848624 
4651 -0.11968072 
4652 -0.119664624 
4653 -0.11973275 
4654 -0.119789615 
4655 -0.12009539 
4656 -0.11981805 
4657 -0.11956753 
4658 -0.119729534 
4659 -0.11963458 
4660 -0.119623855 
4661 -0.11991675 
4662 -0.11992641 
4663 -0.119780496 
4664 -0.1195804 
4665 -0.119763866 
4666 -0.119949475 
4667 -0.119872764 
4668 -0.11968179 
4669 -0.119763866 
4670 -0.11985506 
4671 -0.11966784 
4672 -0.119608834 
4673 -0.11985077 
4674 -0.11985667 
4675 -0.11991729 
4676 -0.119882956 
4677 -0.11972685 
4678 -0.11974509 
4679 -0.11976226 
4680 -0.11948921 
4681 -0.11924298 
4682 -0.119530514 
4683 -0.11984111 
4684 -0.1198851 
4685 -0.11979981 
4686 -0.119642094 
4687 -0.11983521 
4688 -0.11998005 
4689 -0.11987652 
4690 -0.119880274 
4691 -0.12002297 
4692 -0.12004335 
4693 -0.11993016 
4694 -0.119653895 
4695 -0.11911906 
4696 -0.11928858 
4697 -0.11982019 
4698 -0.11995806 
4699 -0.11994465 
4700 -0.11969037 
4701 -0.11957021 
4702 -0.119448975 
4703 -0.119482234 
4704 -0.11955519 
4705 -0.119430736 
4706 -0.119355634 
4707 -0.11959703 
4708 -0.11972202 
4709 -0.1196893 
4710 -0.11953856 
4711 -0.11959757 
4712 -0.11966409 
4713 -0.11957879 
4714 -0.11936797 
4715 -0.119376555 
4716 -0.11931808 
4717 -0.11956699 
4718 -0.11976065 
4719 -0.119884565 
4720 -0.119798735 
4721 -0.11957826 
4722 -0.119592205 
4723 -0.11973865 
4724 -0.11983253 
4725 -0.11975099 
4726 -0.119815364 
4727 -0.12002672 
4728 -0.11996825 
4729 -0.11988349 
4730 -0.11975904 
4731 -0.11959328 
4732 -0.11977889 
4733 -0.11975528 
4734 -0.11967696 
4735 -0.11972846 
4736 -0.11980356 
4737 -0.11976279 
4738 -0.11961205 
4739 -0.119545534 
4740 -0.11969681 
4741 -0.119830385 
4742 -0.11987598 
4743 -0.11985667 
4744 -0.119765475 
4745 -0.11956002 
4746 -0.11966087 
4747 -0.11996825 
4748 -0.12003262 
4749 -0.119926944 
4750 -0.11966248 
4751 -0.11955519 
4752 -0.11962278 
4753 -0.11962117 
4754 -0.11971344 
4755 -0.119774595 
4756 -0.11966623 
4757 -0.119527295 
4758 -0.11952193 
4759 -0.1194479 
4760 -0.11948492 
4761 -0.119525686 
4762 -0.11943288 
4763 -0.119488135 
4764 -0.11957343 
4765 -0.119661406 
4766 -0.11968769 
4767 -0.11969681 
4768 -0.11961098 
4769 -0.119462386 
4770 -0.119657114 
4771 -0.11987223 
4772 -0.11987008 
4773 -0.11988135 
4774 -0.11960615 
4775 -0.11967696 
4776 -0.11974509 
4777 -0.119512275 
4778 -0.11929609 
4779 -0.11943127 
4780 -0.119664624 
4781 -0.119605616 
4782 -0.11955036 
4783 -0.11982073 
4784 -0.11988886 
4785 -0.119657114 
4786 -0.11949028 
4787 -0.11957665 
4788 -0.11974724 
4789 -0.11973275 
4790 -0.11970325 
4791 -0.11952622 
4792 -0.119374946 
4793 -0.11962868 
4794 -0.119652286 
4795 -0.119482234 
4796 -0.11932559 
4797 -0.11939533 
4798 -0.11943556 
4799 -0.11950423 
4800 -0.11948116 
4801 -0.11956431 
4802 -0.11977352 
4803 -0.1196657 
4804 -0.119399086 
4805 -0.11954124 
4806 -0.119729 
4807 -0.119895294 
4808 -0.11988886 
4809 -0.11966355 
4810 -0.119581476 
4811 -0.11977513 
4812 -0.11996879 
4813 -0.11991729 
4814 -0.119718805 
4815 -0.119586304 
4816 -0.11959596 
4817 -0.11950262 
4818 -0.119519785 
4819 -0.119605616 
4820 -0.11957075 
4821 -0.11946024 
4822 -0.119752064 
4823 -0.12013133 
4824 -0.12029548 
4825 -0.12011792 
4826 -0.11998542 
4827 -0.11993177 
4828 -0.11993553 
4829 -0.119687155 
4830 -0.11937548 
4831 -0.11932935 
4832 -0.119385675 
4833 -0.11941786 
4834 -0.11952032 
4835 -0.11956163 
4836 -0.119688764 
4837 -0.11983575 
4838 -0.1198556 
4839 -0.11988242 
4840 -0.11993821 
4841 -0.12007393 
4842 -0.12024988 
4843 -0.12006481 
4844 -0.11977728 
4845 -0.11953534 
4846 -0.119785324 
4847 -0.11997308 
4848 -0.11989851 
4849 -0.119807854 
4850 -0.11968447 
4851 -0.11975904 
4852 -0.119899586 
4853 -0.11985667 
4854 -0.11954714 
4855 -0.11929394 
4856 -0.11938621 
4857 -0.11949243 
4858 -0.11941035 
4859 -0.11948706 
4860 -0.119313255 
4861 -0.11934061 
4862 -0.11957879 
4863 -0.11959274 
4864 -0.11962815 
4865 -0.11948545 
4866 -0.119394794 
4867 -0.11939426 
4868 -0.11957611 
4869 -0.11987437 
4870 -0.119916216 
4871 -0.1198218 
4872 -0.11979981 
4873 -0.11999239 
4874 -0.12004067 
4875 -0.119956985 
4876 -0.11986096 
4877 -0.119852915 
4878 -0.119727924 
4879 -0.11951925 
4880 -0.119339004 
4881 -0.11926015 
4882 -0.119257465 
4883 -0.119266585 
4884 -0.11942752 
4885 -0.11950852 
4886 -0.11957665 
4887 -0.11966945 
4888 -0.11975904 
4889 -0.11958523 
4890 -0.119504765 
4891 -0.11966087 
4892 -0.11961903 
4893 -0.11949833 
4894 -0.11953373 
4895 -0.11953588 
4896 -0.11934115 
4897 -0.11945005 
4898 -0.11984594 
4899 -0.119763866 
4900 -0.11952622 
4901 -0.11963029 
4902 -0.11971076 
4903 -0.11972417 
4904 -0.11965872 
4905 -0.11952944 
4906 -0.119415715 
4907 -0.119678035 
4908 -0.11987384 
4909 -0.11980142 
4910 -0.11978586 
4911 -0.11969145 
4912 -0.11988081 
4913 -0.119752064 
4914 -0.119564846 
4915 -0.119601324 
4916 -0.11945166 
4917 -0.11923011 
4918 -0.11936261 
4919 -0.119450584 
4920 -0.11938889 
4921 -0.11936046 
4922 -0.119354025 
4923 -0.11958791 
4924 -0.11993821 
4925 -0.12005891 
4926 -0.120044425 
4927 -0.119913 
4928 -0.119726315 
4929 -0.11959757 
4930 -0.11935617 
4931 -0.11935885 
4932 -0.119439855 
4933 -0.11958577 
4934 -0.119562164 
4935 -0.11946346 
4936 -0.119554654 
4937 -0.1196319 
4938 -0.11948277 
4939 -0.11942269 
4940 -0.11963941 
4941 -0.119847015 
4942 -0.11982556 
4943 -0.119872764 
4944 -0.11968447 
4945 -0.11976011 
4946 -0.12004818 
4947 -0.11998595 
4948 -0.11995913 
4949 -0.11993016 
4950 -0.119688764 
4951 -0.11952944 
4952 -0.11954714 
4953 -0.119735435 
4954 -0.11978586 
4955 -0.11949189 
4956 -0.119331494 
4957 -0.11936368 
4958 -0.119620636 
4959 -0.119717196 
4960 -0.11996557 
4961 -0.11997791 
4962 -0.11985989 
4963 -0.11961688 
4964 -0.11960401 
4965 -0.11979766 
4966 -0.11982985 
4967 -0.11987437 
4968 -0.11977781 
4969 -0.11958577 
4970 -0.1195745 
4971 -0.119804636 
4972 -0.11987598 
4973 -0.11984058 
4974 -0.11989476 
4975 -0.11984165 
4976 -0.119649604 
4977 -0.11960347 
4978 -0.11969788 
4979 -0.11968608 
4980 -0.11967911 
4981 -0.11986686 
4982 -0.119991854 
4983 -0.119871154 
4984 -0.1197408 
4985 -0.11966731 
4986 -0.11942805 
4987 -0.119439855 
4988 -0.119653895 
4989 -0.11961366 
4990 -0.11964746 
4991 -0.11961098 
4992 -0.11964853 
4993 -0.119782105 
4994 -0.11975582 
4995 -0.11968662 
4996 -0.11986686 
4997 -0.12000151 
4998 -0.11989261 
4999 -0.119800344 
5000 -0.119792834 
5001 -0.11980732 
5002 -0.119726315 
5003 -0.119776204 
5004 -0.119668916 
5005 -0.11958201 
5006 -0.119717196 
5007 -0.11958845 
5008 -0.119613126 
5009 -0.11952837 
5010 -0.119391575 
5011 -0.119236544 
5012 -0.11931111 
5013 -0.119613126 
5014 -0.11969198 
5015 -0.1194758 
5016 -0.11953373 
5017 -0.11971344 
5018 -0.119783714 
5019 -0.12007822 
5020 -0.12000902 
5021 -0.11993982 
5022 -0.11999722 
5023 -0.120260075 
5024 -0.12000151 
5025 -0.11953588 
5026 -0.11939962 
5027 -0.119400695 
5028 -0.11954929 
5029 -0.11945005 
5030 -0.119352415 
5031 -0.11950745 
5032 -0.11974938 
5033 -0.11979069 
5034 -0.119726315 
5035 -0.11969949 
5036 -0.1197349 
5037 -0.11969788 
5038 -0.11974563 
5039 -0.119771376 
5040 -0.11956699 
5041 -0.119696274 
5042 -0.119812146 
5043 -0.119756356 
5044 -0.12015815 
5045 -0.120116845 
5046 -0.1198674 
5047 -0.11954339 
5048 -0.119616345 
5049 -0.11983146 
5050 -0.11958845 
5051 -0.11935617 
5052 -0.11939694 
5053 -0.11940499 
5054 -0.11934705 
5055 -0.11943664 
5056 -0.11945166 
5057 -0.119359925 
5058 -0.11944254 
5059 -0.11948599 
5060 -0.11952944 
5061 -0.11952783 
5062 -0.11966784 
5063 -0.11968233 
5064 -0.11960293 
5065 -0.11959435 
5066 -0.119737044 
5067 -0.11987062 
5068 -0.119847015 
5069 -0.11992212 
5070 -0.119828776 
5071 -0.11970486 
5072 -0.11978425 
5073 -0.11984326 
5074 -0.119807854 
5075 -0.119693056 
5076 -0.11974831 
5077 -0.11973865 
5078 -0.119363144 
5079 -0.11944522 
5080 -0.11945541 
5081 -0.1193036 
5082 -0.11961098 
5083 -0.11978693 
5084 -0.119506374 
5085 -0.11926229 
5086 -0.119218305 
5087 -0.119688764 
5088 -0.12002726 
5089 -0.11997469 
5090 -0.119737044 
5091 -0.11968233 
5092 -0.11979015 
5093 -0.11971398 
5094 -0.11953212 
5095 -0.119599715 
5096 -0.11979927 
5097 -0.11965336 
5098 -0.11955251 
5099 -0.119712904 
5100 -0.11971666 
5101 -0.11962493 
5102 -0.11960991 
5103 -0.11978586 
5104 -0.11983897 
5105 -0.11982609 
5106 -0.11965819 
5107 -0.1196437 
5108 -0.11984058 
5109 -0.11976065 
5110 -0.119477406 
5111 -0.11958523 
5112 -0.119737044 
5113 -0.119596496 
5114 -0.119458094 
5115 -0.11938192 
5116 -0.11928214 
5117 -0.11932023 
5118 -0.11947419 
5119 -0.11943664 
5120 -0.11950959 
5121 -0.119705394 
5122 -0.11992051 
5123 -0.120050326 
5124 -0.11991836 
5125 -0.11992212 
5126 -0.11992212 
5127 -0.1199999 
5128 -0.12004979 
5129 -0.11998917 
5130 -0.11976601 
5131 -0.11984648 
5132 -0.11990227 
5133 -0.119800344 
5134 -0.1198041 
5135 -0.1198792 
5136 -0.11964853 
5137 -0.119554654 
5138 -0.119512275 
5139 -0.11946131 
5140 -0.11943127 
5141 -0.1194302 
5142 -0.11935939 
5143 -0.11937387 
5144 -0.11953856 
5145 -0.11967589 
5146 -0.11988671 
5147 -0.12022735 
5148 -0.12006481 
5149 -0.11985935 
5150 -0.119851306 
5151 -0.119720414 
5152 -0.119543925 
5153 -0.119631365 
5154 -0.11979337 
5155 -0.11972846 
5156 -0.11957879 
5157 -0.1196378 
5158 -0.119593814 
5159 -0.119638875 
5160 -0.119936064 
5161 -0.11974348 
5162 -0.11954661 
5163 -0.119480625 
5164 -0.11941518 
5165 -0.11936797 
5166 -0.11932291 
5167 -0.119329885 
5168 -0.119296625 
5169 -0.11940123 
5170 -0.1195171 
5171 -0.119385675 
5172 -0.119299844 
5173 -0.11958845 
5174 -0.119807854 
5175 -0.119679645 
5176 -0.119638875 
5177 -0.11983414 
5178 -0.1201147 
5179 -0.12019463 
5180 -0.120107725 
5181 -0.11972256 
5182 -0.119423226 
5183 -0.119545534 
5184 -0.119523 
5185 -0.11930843 
5186 -0.1193095 
5187 -0.11979498 
5188 -0.11986901 
5189 -0.11971344 
5190 -0.11954071 
5191 -0.119233325 
5192 -0.11935188 
5193 -0.11981912 
5194 -0.12001063 
5195 -0.119763866 
5196 -0.119385675 
5197 -0.119231716 
5198 -0.11927302 
5199 -0.11916359 
5200 -0.11921348 
5201 -0.119519785 
5202 -0.11968769 
5203 -0.11960615 
5204 -0.119498864 
5205 -0.11945166 
5206 -0.11944951 
5207 -0.11938031 
5208 -0.11956163 
5209 -0.11993982 
5210 -0.11983092 
5211 -0.119622245 
5212 -0.11972417 
5213 -0.12009592 
5214 -0.11994572 
5215 -0.11983521 
5216 -0.1198615 
5217 -0.119678035 
5218 -0.11950369 
5219 -0.11967106 
5220 -0.11974831 
5221 -0.11965121 
5222 -0.11962868 
5223 -0.1198336 
5224 -0.119765475 
5225 -0.11960615 
5226 -0.11969145 
5227 -0.119807854 
5228 -0.119839504 
5229 -0.11988188 
5230 -0.11948492 
5231 -0.119025186 
5232 -0.11920972 
5233 -0.11951174 
5234 -0.11956324 
5235 -0.11958791 
5236 -0.119681254 
5237 -0.11952408 
5238 -0.119521394 
5239 -0.11966516 
5240 -0.11961366 
5241 -0.11985238 
5242 -0.1198497 
5243 -0.11957772 
5244 -0.1195509 
5245 -0.119608834 
5246 -0.119509056 
5247 -0.119501546 
5248 -0.119771376 
5249 -0.11985828 
5250 -0.11971988 
5251 -0.11964746 
5252 -0.11964102 
5253 -0.11953105 
5254 -0.11966409 
5255 -0.11962439 
5256 -0.11929448 
5257 -0.11941625 
5258 -0.11975582 
5259 -0.11972417 
5260 -0.11945541 
5261 -0.11927892 
5262 -0.11945863 
5263 -0.11961366 
5264 -0.119605616 
5265 -0.11952944 
5266 -0.1194876 
5267 -0.11949189 
5268 -0.119513884 
5269 -0.11973865 
5270 -0.12003155 
5271 -0.119887784 
5272 -0.11977084 
5273 -0.11995216 
5274 -0.12000258 
5275 -0.119919434 
5276 -0.11959328 
5277 -0.11934115 
5278 -0.11918129 
5279 -0.11936475 
5280 -0.11933793 
5281 -0.119275704 
5282 -0.119246736 
5283 -0.119411424 
5284 -0.11965282 
5285 -0.119830385 
5286 -0.11987491 
5287 -0.11991729 
5288 -0.11970915 
5289 -0.119443074 
5290 -0.11933632 
5291 -0.119279996 
5292 -0.1193272 
5293 -0.11960454 
5294 -0.11974831 
5295 -0.11973597 
5296 -0.11953856 
5297 -0.11940713 
5298 -0.11959757 
5299 -0.11967428 
5300 -0.119742945 
5301 -0.119681254 
5302 -0.11976816 
5303 -0.119593814 
5304 -0.11949028 
5305 -0.119664624 
5306 -0.119376555 
5307 -0.11928804 
5308 -0.119613126 
5309 -0.120020285 
5310 -0.119932845 
5311 -0.11971934 
5312 -0.11969037 
5313 -0.11956377 
5314 -0.119433954 
5315 -0.1193964 
5316 -0.1192639 
5317 -0.11915608 
5318 -0.11914052 
5319 -0.11919041 
5320 -0.11940874 
5321 -0.11981429 
5322 -0.11981805 
5323 -0.11977942 
5324 -0.119694665 
5325 -0.11954661 
5326 -0.11958577 
5327 -0.11960776 
5328 -0.11970325 
5329 -0.119815364 
5330 -0.11959274 
5331 -0.11944468 
5332 -0.11951764 
5333 -0.119729534 
5334 -0.11964585 
5335 -0.11974241 
5336 -0.119783714 
5337 -0.11976065 
5338 -0.1197644 
5339 -0.11956002 
5340 -0.11940499 
5341 -0.11933203 
5342 -0.11926015 
5343 -0.119501546 
5344 -0.11973865 
5345 -0.11962439 
5346 -0.11940767 
5347 -0.1193551 
5348 -0.119258 
5349 -0.119592205 
5350 -0.11974831 
5351 -0.119655505 
5352 -0.11959006 
5353 -0.1194758 
5354 -0.11939265 
5355 -0.11951549 
5356 -0.119607225 
5357 -0.119503155 
5358 -0.11955787 
5359 -0.1194994 
5360 -0.11957075 
5361 -0.11951174 
5362 -0.11960186 
5363 -0.119729 
5364 -0.119705394 
5365 -0.11957504 
5366 -0.11962171 
5367 -0.11971827 
5368 -0.11977728 
5369 -0.119943574 
5370 -0.12001546 
5371 -0.119877055 
5372 -0.11982395 
5373 -0.11976977 
5374 -0.1197011 
5375 -0.11979498 
5376 -0.119994536 
5377 -0.119741336 
5378 -0.11943181 
5379 -0.11952408 
5380 -0.11957182 
5381 -0.119442 
5382 -0.11937119 
5383 -0.11951281 
5384 -0.119672135 
5385 -0.11976011 
5386 -0.11995752 
5387 -0.11980839 
5388 -0.120011166 
5389 -0.12029226 
5390 -0.12022789 
5391 -0.120006874 
5392 -0.11980517 
5393 -0.11984916 
5394 -0.11977245 
5395 -0.119800344 
5396 -0.119893685 
5397 -0.11986525 
5398 -0.11983682 
5399 -0.119970396 
5400 -0.11996825 
5401 -0.11995484 
5402 -0.119990245 
5403 -0.1198556 
5404 -0.119406596 
5405 -0.119170025 
5406 -0.1191432 
5407 -0.119439855 
5408 -0.119748846 
5409 -0.119788006 
5410 -0.11972578 
5411 -0.119774595 
5412 -0.11998327 
5413 -0.12020804 
5414 -0.12020321 
5415 -0.11980946 
5416 -0.11957504 
5417 -0.11969413 
5418 -0.119800344 
5419 -0.11974938 
5420 -0.11981644 
5421 -0.11995216 
5422 -0.119887784 
5423 -0.11969949 
5424 -0.11938085 
5425 -0.119385675 
5426 -0.11969091 
5427 -0.119742945 
5428 -0.11970647 
5429 -0.11983253 
5430 -0.11996503 
5431 -0.12002297 
5432 -0.12012328 
5433 -0.12030192 
5434 -0.120220914 
5435 -0.11993821 
5436 -0.11985023 
5437 -0.1198792 
5438 -0.11981161 
5439 -0.119598106 
5440 -0.119477406 
5441 -0.11955358 
5442 -0.11957611 
5443 -0.119601324 
5444 -0.119663015 
5445 -0.11960025 
5446 -0.11948009 
5447 -0.1196201 
5448 -0.11965926 
5449 -0.11976977 
5450 -0.11993499 
5451 -0.119936064 
5452 -0.1199543 
5453 -0.11972095 
5454 -0.119454876 
5455 -0.11957879 
5456 -0.11960401 
5457 -0.119474724 
5458 -0.11950262 
5459 -0.119389966 
5460 -0.119186655 
5461 -0.119034305 
5462 -0.11936851 
5463 -0.11969359 
5464 -0.11967428 
5465 -0.11972417 
5466 -0.11987437 
5467 -0.11974402 
5468 -0.119672135 
5469 -0.11967911 
5470 -0.1196083 
5471 -0.11956163 
5472 -0.11977084 
5473 -0.11981751 
5474 -0.11984165 
5475 -0.120005265 
5476 -0.11975904 
5477 -0.11967106 
5478 -0.11967267 
5479 -0.119355634 
5480 -0.119074 
5481 -0.11912657 
5482 -0.11929126 
5483 -0.11948867 
5484 -0.11968662 
5485 -0.11968072 
5486 -0.11974187 
5487 -0.11980088 
5488 -0.11980356 
5489 -0.119908705 
5490 -0.11971076 
5491 -0.11946024 
5492 -0.11949296 
5493 -0.11956377 
5494 -0.119644776 
5495 -0.1195568 
5496 -0.11943878 
5497 -0.11925854 
5498 -0.11920865 
5499 -0.11940338 
5500 -0.11962922 
5501 -0.119908705 
5502 -0.11971559 
5503 -0.11958952 
5504 -0.11980571 
5505 -0.11985399 
5506 -0.11971183 
5507 -0.11975099 
5508 -0.11981322 
5509 -0.11987223 
5510 -0.119970396 
5511 -0.119848624 
5512 -0.11974616 
5513 -0.11970647 
5514 -0.119759575 
5515 -0.11979391 
5516 -0.11975421 
5517 -0.11980946 
5518 -0.11981751 
5519 -0.11966087 
5520 -0.11955787 
5521 -0.11953534 
5522 -0.1194935 
5523 -0.119549826 
5524 -0.11948009 
5525 -0.1196142 
5526 -0.11969037 
5527 -0.11961152 
5528 -0.119447365 
5529 -0.1193272 
5530 -0.119637266 
5531 -0.11996986 
5532 -0.11994894 
5533 -0.120057836 
5534 -0.1202987 
5535 -0.12042852 
5536 -0.12015922 
5537 -0.11994143 
5538 -0.12019034 
5539 -0.12044622 
5540 -0.120249346 
5541 -0.12006213 
5542 -0.12001063 
5543 -0.12006481 
5544 -0.12025471 
5545 -0.12018068 
5546 -0.11994733 
5547 -0.11987169 
5548 -0.119757965 
5549 -0.119573966 
5550 -0.119824484 
5551 -0.11998166 
5552 -0.119936064 
5553 -0.11983253 
5554 -0.119652286 
5555 -0.119361535 
5556 -0.11904235 
5557 -0.119283214 
