0	1.5003742606092	-3.887455278952188	-3.890082771221652	-3.8909067459309
1	1.487482489637424	-3.891648108592476	-3.894276137303808	-3.895100112013056
2	1.477094829305472	-3.842748750114936	-3.845375169500664	-3.846177686535192
3	1.484438718478392	-3.80742834464208	-3.810057446237148	-3.81084547934124
4	1.499409738130536	-3.836629021284792	-3.839262414414804	-3.840063858565596
5	1.500318470654928	-3.887404316974728	-3.89003771010474	-3.890860075488384
6	1.487328530821308	-3.891829962385728	-3.894458527538928	-3.89528142936444
7	1.476980567187588	-3.843095828003532	-3.8457217109473922	-3.846525300865656
8	1.4843614708494	-3.807410642060436	-3.810037597888032	-3.810827240317728
9	1.499361458362416	-3.836338806234204	-3.838967907829272	-3.839767206212592
10	1.500281456166036	-3.887247139507404	-3.88987677754434	-3.890698606486116
11	1.487448157357872	-3.891967827945804	-3.894593174447796	-3.895419294924516
12	1.477086782677452	-3.843279827564256	-3.845904101182512	-3.846708763984512
13	1.484394193803348	-3.807360752966712	-3.809989318119912	-3.8107757418984
14	1.499372723641644	-3.836097943835472	-3.838727581872408	-3.839526880255728
15	1.500450435354456	-3.887078696760852	-3.8897072619140522	-3.890530700181432
16	1.487632693360464	-3.891873950618904	-3.89449822423716	-3.895324881155748
17	1.477243960144776	-3.843338299727868	-3.845960427578652	-3.84676830903186
18	1.484514893223648	-3.80729691638442	-3.809919580677072	-3.810710832432372
19	1.4995159536204	-3.835846889041248	-3.838475454194448	-3.839274752577768
20	1.500468674377968	-3.886894697200128	-3.889522189469592	-3.890345627736972
21	1.487549544870924	-3.892036492504908	-3.894658620355692	-3.895486350158016
22	1.477064252118996	-3.843604374894396	-3.846225966303312	-3.84703116554718
23	1.484328747895452	-3.807444974339988	-3.810069784400112	-3.810857817504204
24	1.499484303550188	-3.835721361644136	-3.838352609006676	-3.839152443831864
25	1.5006376535663881	-3.886756295198184	-3.889383787467648	-3.890207225735028
26	1.48775983008318	-3.892091746017312	-3.894716019635568	-3.895541067228552
27	1.477107703910304	-3.8438607941073	-3.846481849074348	-3.84728597543448
28	1.484291196964692	-3.807467504898444	-3.810088023423624	-3.810879275178924
29	1.499526146015892	-3.8354917645246323	-3.838117647468492	-3.838921773828624
30	1.5007073910092281	-3.886588925335368	-3.889214808279228	-3.8900430745234202
31	1.487958850016208	-3.892207081018932	-3.89483081819532	-3.895659084439512
32	1.477348566309036	-3.844012070714076	-3.846632589239256	-3.847440470692464
33	1.484427989641032	-3.807376846222752	-3.809998974073536	-3.810790225828836
34	1.499573889342144	-3.835225152916236	-3.837854254511304	-3.838655698662096
35	1.50086242270908	-3.886312657773348	-3.888941759368416	-3.8897641247520602
36	1.488241554880644	-3.892134661366752	-3.894762690078084	-3.8955872012292
37	1.477463364868788	-3.844141353204264	-3.8467677725899923	-3.847571898950124
38	1.484293342732164	-3.807399376781208	-3.810024186841332	-3.810815438596632
39	1.499343219338904	-3.8351167916589	-3.837745893253968	-3.838549483172232
40	1.500643554426936	-3.886299783168516	-3.888932103414792	-3.889755541682172
41	1.487959386458076	-3.8923690864630682	-3.894996578732532	-3.895821089883648
42	1.477290630587292	-3.844425130952436	-3.847048868128824	-3.84785192160522
43	1.484166742451316	-3.807543143201832	-3.810167416820088	-3.810957595691652
44	1.499287429384632	-3.835000383773544	-3.837628412484876	-3.838430393077536
45	1.500654819706164	-3.886286372121816	-3.888914400833148	-3.889738375542396
46	1.487946511853244	-3.892546112279508	-3.895170922339632	-3.8959981157000882
47	1.477192998167316	-3.844738413003348	-3.847359467970396	-3.848165740098
48	1.483933926680604	-3.80761609929588	-3.810239836472268	-3.811030015343832
49	1.499085727242264	-3.834863591097204	-3.837488937599196	-3.838291991075592
50	1.500475648122252	-3.886150652329212	-3.888777608156808	-3.889601582866056
51	1.4878150835955841	-3.892723138095948	-3.895345265946732	-3.896172995749056
52	1.477096975072944	-3.845068324752168	-3.8476899161610842	-3.84849565184682
53	1.4838631163540281	-3.807616635737748	-3.810240372914136	-3.811031088227568
54	1.4991002111727	-3.834576058255956	-3.8372030140835522	-3.838004994676212
55	1.500611367914856	-3.885948413744976	-3.888577515340044	-3.8893998807236883
56	1.488141240251328	-3.8926609108392602	-3.895284648015648	-3.8961118413761042
57	1.477484822543508	-3.845014680565368	-3.847635199090548	-3.848441471218152
58	1.484184981474828	-3.807450338758668	-3.810071930167584	-3.810864791248488
59	1.499370577874172	-3.834260630437572	-3.836888122707036	-3.837690639741564
60	1.50098848654806	-3.8856946767414122	-3.88832377833648	-3.8891493623713322
61	1.488512458023984	-3.892602438675648	-3.8952245665264322	-3.896053369212492
62	1.477654874615664	-3.845087100217548	-3.847709228068332	-3.848517645963408
63	1.484090031264192	-3.807486280363824	-3.810108408214608	-3.810900732853644
64	1.499213400406848	-3.834087359714208	-3.8367148519836722	-3.837515759692596
65	1.500962737338396	-3.885570222228036	-3.888196105171896	-3.88902115276488
66	1.488450767209164	-3.892756933933632	-3.895380134668152	-3.896208937354212
67	1.4774681928456	-3.845383752570552	-3.848008562630676	-3.848814298316412
68	1.483913005447752	-3.807484134596352	-3.810108408214608	-3.810901269295512
69	1.49915117315016	-3.833866345664592	-3.836493301492188	-3.837295818526716
70	1.500838819266888	-3.885473126249928	-3.888102227844996	-3.888925666112376
71	1.488338114416884	-3.892904455447332	-3.895528729065588	-3.896357531751648
72	1.477301359424652	-3.845653046388288	-3.848274101355336	-3.849083592134148
73	1.483595968303764	-3.807648822249828	-3.810273095868084	-3.8110632747396482
74	1.498826089378152	-3.8338245031988882	-3.836453068352088	-3.837252903177276
75	1.5006408722175961	-3.88536261922512	-3.887991720820188	-3.888812476878228
76	1.488283933788216	-3.892984921727532	-3.895610268229524	-3.896433706496904
77	1.477157593004028	-3.845935751252724	-3.848556806219772	-3.849364151231112
78	1.483464003604236	-3.8077609386002402	-3.810382530009156	-3.811176463973796
79	1.498818042750132	-3.833641040080032	-3.83626745946576	-3.837071585825892
80	1.500850620987984	-3.885198468013512	-3.887825423841108	-3.888649934992224
81	1.488519968210136	-3.893045003216748	-3.895669813276872	-3.896495933753592
82	1.477348029867168	-3.846093465161916	-3.8487155930127	-3.849525083791512
83	1.48372578723582	-3.807767912344524	-3.81039218596278	-3.81118343771808
84	1.499169412173672	-3.833286988447152	-3.835914480716616	-3.836716461309276
85	1.501131180084948	-3.8848964512418283	-3.887525016395028	-3.888348991104276
86	1.488699139794048	-3.893127078822552	-3.8957540346501482	-3.896581764452472
87	1.477503598008888	-3.846278537606376	-3.848901738340896	-3.84971069267784
88	1.483678580351436	-3.807678862994436	-3.810305818822032	-3.811097070577332
89	1.498929622658676	-3.833151268654548	-3.835780906691484	-3.836580741516672
90	1.500954154268508	-3.8848315417758	-3.887459034045264	-3.888281399428908
91	1.488720597468768	-3.8931839416605603	-3.895807678836948	-3.896636481523008
92	1.47766399412742	-3.846479703306876	-3.849101294715792	-3.849912931262076
93	1.483806789957888	-3.807639702738072	-3.810264512798196	-3.811057910320968
94	1.499086263684132	-3.832729088904432	-3.835357654057632	-3.83616017109216
95	1.501131180084948	-3.884680265169024	-3.887308293880356	-3.888131732147736
96	1.488716305933824	-3.893311614825144	-3.895934279117796	-3.896762545361988
97	1.477544904032724	-3.846605230703988	-3.8492268221129042	-3.850033094240508
98	1.483594895420028	-3.807855888810876	-3.810481235312868	-3.811268731975092
99	1.498773518075088	-3.832800435672876	-3.83543061015168	-3.83622722632566
100	1.501009407780912	-3.884369128885584	-3.88699876692252	-3.887818986538692
101	1.488961996309368	-3.893395299756552	-3.89601903693294	-3.896844620967792
102	1.47746014621758	-3.846931387359732	-3.8495535152105163	-3.85036246954746
103	1.483377636463488	-3.8075710381789682	-3.810195848239092	-3.810986027110656
104	1.498779955377504	-3.832648622624232	-3.8352761148936962	-3.836077559044488
105	1.500904265174784	-3.884601408214428	-3.887228364042024	-3.888053411635008
106	1.488605262467148	-3.893298740220312	-3.895920868071096	-3.896749670757156
107	1.477625370312924	-3.847120214897268	-3.849741806306184	-3.850550760643128
108	1.483542324116964	-3.808023258673692	-3.810645386524476	-3.811436101837908
109	1.498680177190056	-3.832001673731424	-3.834629702442756	-3.835428464384208
110	1.501185360713616	-3.884064966346428	-3.886694067941496	-3.887514287557668
111	1.489083768613404	-3.893714482668012	-3.89634090205374	-3.897166486088592
112	1.477676868732252	-3.846906174591936	-3.849528838884588	-3.850334574570324
113	1.483765483934052	-3.807310863872988	-3.809934064607508	-3.810725852804676
114	1.499180141011032	-3.832265066688612	-3.83489416828368	-3.835696685318208
115	1.501214865016356	-3.883932465205032	-3.886562103241968	-3.887386077951216
116	1.489128293288448	-3.893230075661208	-3.895854885721332	-3.896683151965524
117	1.477767527407944	-3.847659338974608	-3.850280393941656	-3.8510904211623362
118	1.483333648230312	-3.807851060834064	-3.810474261568584	-3.811267122649488
119	1.49873006628378	-3.831472742049576	-3.834100770760908	-3.834900605586096
120	1.501230421830528	-3.883971089019528	-3.8866017999402	-3.887423092440108
121	1.488839687563464	-3.89386790504226	-3.896493251544252	-3.8973193720209722
122	1.47746014621758	-3.847531129368156	-3.850157012312016	-3.850962747997752
123	1.483263910787472	-3.808048471441488	-3.810672208617876	-3.81146238748944
124	1.498540165862508	-3.832001137289556	-3.834627020233416	-3.835428464384208
125	1.501030865455632	-3.883714133364756	-3.88633894342488	-3.8871656003434683
126	1.4892538206855601	-3.893903846647416	-3.896525438056332	-3.89735209497492
127	1.477576017661068	-3.847986568514088	-3.850607623481136	-3.851414968492476
128	1.483120680808716	-3.807520612643376	-3.810144886261632	-3.81093399224946
129	1.498739185795536	-3.831525849794508	-3.834152805622104	-3.834948885354216
130	1.501210037039544	-3.883892232064932	-3.886517042125056	-3.887338871066832
131	1.488906742796964	-3.893830890553368	-3.89645355484602	-3.89728235753208
132	1.477774501152228	-3.848217238517328	-3.850839366368112	-3.851645638495716
133	1.48340392211502	-3.808080657953568	-3.810704931571824	-3.811494037559652
134	1.498674812771376	-3.830850469482696	-3.833477425310292	-3.834276723693612
135	1.5014873774853	-3.883419090337356	-3.886044436839348	-3.886867875106728
136	1.489353598873008	-3.894440824957284	-3.897062952808068	-3.897891755494128
137	1.477493405613396	-3.848170568074812	-3.850792159483728	-3.8515989680532
138	1.483180762297932	-3.80753295080634	-3.810154542215256	-3.810945257528688
139	1.4988850979836321	-3.831504392119788	-3.83412973862178	-3.834932255656308
140	1.501274410063704	-3.8835081396874442	-3.886135631956908	-3.886959070224288
141	1.48920017649876	-3.89399665109058	-3.896620388266968	-3.897449727394896
142	1.477663457685552	-3.848896373922216	-3.851514210238056	-3.8523263832262082
143	1.483195246228368	-3.80787090918318	-3.8104941099177	-3.8112853616730002
144	1.498733821376856	-3.830282913986352	-3.832910942697684	-3.8337134597322122
145	1.501600566719448	-3.883340769824628	-3.88596879853596	-3.886793309687076
146	1.489348234454328	-3.894476230120572	-3.897100503738828	-3.897927697099284
147	1.477824390245952	-3.848439861892548	-3.851063599068936	-3.8518730898477482
148	1.48342001537106	-3.807760402158372	-3.810384675776628	-3.811179146183136
149	1.4987424044467441	-3.830638574944836	-3.833267140098036	-3.83406804780696
150	1.501374188251152	-3.883014076727016	-3.885645324089556	-3.886467153031332
151	1.489590706178664	-3.894769663822368	-3.897396083208096	-3.89822649521976
152	1.477639317801492	-3.849181224554124	-3.851806034614248	-3.85261552539306
153	1.483051479807744	-3.807362362292316	-3.809985563026836	-3.810776814782136
154	1.498896899704728	-3.8302276604739482	-3.83285568918528	-3.8336565968942042
155	1.501569989532972	-3.883223825497404	-3.885853999976208	-3.886677974685456
156	1.489363254826632	-3.894558842168244	-3.897185261553972	-3.898014064240032
157	1.477901101433076	-3.849389363998908	-3.852010418965956	-3.852818836861032
158	1.48312497234366	-3.808069929116208	-3.810693666292596	-3.811484381606028
159	1.498527827699544	-3.829857515585028	-3.832487690063832	-3.833286988447152
160	1.501686397418328	-3.8830478725647	-3.885678583485372	-3.886500948869016
161	1.48972320732006	-3.895358676993432	-3.897986169262896	-3.898813362623352
162	1.477699399290708	-3.849258472183116	-3.851881136475768	-3.852689017928976
163	1.483114779948168	-3.807294770616948	-3.809918507793336	-3.810708150223032
164	1.498882415774292	-3.830356406522268	-3.832983362349864	-3.83378373361692
165	1.501518491113644	-3.883161061798848	-3.885788554068312	-3.886613065219428
166	1.489636303737444	-3.895018036407252	-3.897641237141772	-3.8984700398278322
167	1.477807760548044	-3.850151111451468	-3.852774312185988	-3.853584875848536
168	1.483019829737532	-3.807829066717476	-3.8104538767776	-3.811248347184108
169	1.49866837546896	-3.829299616042308	-3.831931399846716	-3.832731771113772
170	1.501720193256012	-3.883278006126072	-3.8859103263723482	-3.886731082430388
171	1.489399732873656	-3.895793194906512	-3.89841961429224	-3.899247344094564
172	1.477738559547072	-3.849890937145488	-3.852511455670668	-3.853321482891348
173	1.483153403762664	-3.807847305740988	-3.810466751382432	-3.811261758230808
174	1.498761716353992	-3.82973359751352	-3.832361089782984	-3.833160924608172
175	1.501747015349412	-3.882745855793016	-3.885372811620612	-3.8861957134461242
176	1.489863755089476	-3.8956274343693	-3.898251171545688	-3.8990783649061442
177	1.477586746498428	-3.850411285757448	-3.853031804282628	-3.853840758619572
178	1.482839585269884	-3.807435318386364	-3.8100585191208842	-3.81084816155058
179	1.498847547052872	-3.829303371135384	-3.831929790521112	-3.832730161788168
180	1.501850012188068	-3.882866555213316	-3.8854919017153082	-3.8863158764245562
181	1.489676000435676	-3.895383889761228	-3.898007090495748	-3.898834820298072
182	1.47801536355096	-3.850471903688532	-3.8530934950974483	-3.853903522318128
183	1.483166278367496	-3.80797819755678	-3.810601934733168	-3.811392113604732
184	1.4987456230979521	-3.828637646777196	-3.831266211930396	-3.832064973871848
185	1.502071562679552	-3.88248192639396	-3.885109955105292	-3.885932320488936
186	1.489983918067908	-3.896073754003476	-3.898698027621732	-3.899528976075264
187	1.477676332290384	-3.850426306129752	-3.853048433980536	-3.853860606968688
188	1.482864261595812	-3.807491108340636	-3.810114845517024	-3.810905024388588
189	1.498800340168488	-3.829451429090952	-3.832081067127888	-3.832876610418132
190	1.501851621513672	-3.882638030977548	-3.885268205456352	-3.886088425072524
191	1.490008594393836	-3.895615632648204	-3.898240442708328	-3.899069245394388
192	1.4779145124797761	-3.851169278116932	-3.853789796642112	-3.854600896746528
193	1.482877672642512	-3.8079057779046	-3.810530051522856	-3.811322376161892
194	1.498673203445772	-3.828317927423868	-3.830946492577068	-3.831745790960388
195	1.501934770003212	-3.8824749526496762	-3.885101908477272	-3.885925346744652
196	1.4896974581103961	-3.896090383701384	-3.898713047994036	-3.899542923563832
197	1.477668822104232	-3.850796451018672	-3.8534164331019842	-3.854226460322664
198	1.482689381546844	-3.808005556092048	-3.810626074617228	-3.811415180605056
199	1.498415711349132	-3.828825401430996	-3.83145289370046	-3.832247900548836
200	1.501831773164556	-3.882092469597792	-3.884722644076596	-3.885542863692768
201	1.4899828451841721	-3.896087165050176	-3.898710365784696	-3.899538632028888
202	1.477471411496808	-3.8514546651907082	-3.854075183715888	-3.854882528727228
203	1.482531667637652	-3.80760268824918	-3.810224279658096	-3.811015531413396
204	1.498736503586196	-3.828288959562996	-3.83091645183246	-3.831717895983252
205	1.501840356234444	-3.882094078923396	-3.88472157119286	-3.885547155227712
206	1.489542426410544	-3.895877416279788	-3.898501153456176	-3.899331029025972
207	1.477700472174444	-3.851594676518256	-3.854214658601568	-3.85502414938038
208	1.4827923783855	-3.808146640303332	-3.8107687681541162	-3.811559483467548
209	1.498490813210652	-3.827639328460848	-3.83026735717218	-3.8310666555555
210	1.501979831120124	-3.881541007357488	-3.884165817417612	-3.88498979212686
211	1.489968361253736	-3.896245951843104	-3.898870761903228	-3.89969902814742
212	1.477807760548044	-3.851186980698576	-3.853811254316832	-3.854620208653776
213	1.48325371839198	-3.807219668755428	-3.809844478815552	-3.810634121245248
214	1.499385598246476	-3.8276795616009482	-3.830307053870412	-3.831106352253732
215	1.502374115893104	-3.880937510255988	-3.883564466083584	-3.884387904350964
216	1.490308465398048	-3.895390327063644	-3.898012991356296	-3.898843939809828
217	1.478162348622792	-3.851916005197188	-3.854534914396764	-3.85534601450118
218	1.4831142435063	-3.807702466436628	-3.810323521403676	-3.811114236717108
219	1.498985412612948	-3.826765464657876	-3.829393493369208	-3.830190645985056
220	1.502246979170388	-3.881203048980648	-3.883830541250112	-3.884653979517492
221	1.489716770017644	-3.896324272355832	-3.898949082415956	-3.899778421543884
222	1.47773104936092	-3.851986279081896	-3.85461108914202	-3.855420579920832
223	1.482873381107568	-3.808153077605748	-3.810778960549608	-3.81156967586304
224	1.498661938166544	-3.827425288155516	-3.83005278042498	-3.830854224575772
225	1.502019527818356	-3.88094770265148	-3.883575194920944	-3.884398633188324
226	1.490125002279192	-3.896434242938772	-3.899060125882632	-3.899888928568692
227	1.477610886382488	-3.852608551648776	-3.855234434592636	-3.856041779603976
228	1.482572973661488	-3.807860716787688	-3.810486599731548	-3.811276242161244
229	1.498778882493768	-3.827443527179028	-3.830073701657832	-3.830871390715548
230	1.501973393817708	-3.881364517982916	-3.883995228903588	-3.884815984961628
231	1.489757539599612	-3.896359141077252	-3.898987706230452	-3.899814899590908
232	1.477839947060124	-3.852920224374084	-3.855543961550472	-3.8563545252130202
233	1.482685626453768	-3.808688446590012	-3.811311110882664	-3.812105044847304
234	1.498465600442856	-3.826914059055312	-3.829541551324776	-3.830342995475568
235	1.502261999542692	-3.881123655584184	-3.8837522207373842	-3.8845767318885
236	1.490244628815756	-3.8969706848067722	-3.899597640634368	-3.900428052646032
237	1.477664530569288	-3.852624644904816	-3.855247845639336	-3.856061627953092
238	1.482510209962932	-3.808067246906868	-3.810690984083256	-3.811484918047896
239	1.498832526680568	-3.827642010670188	-3.830270575823388	-3.831070410648576
240	1.502266827519504	-3.88115691498	-3.883783870807596	-3.884608381958712
241	1.490307392514312	-3.896484668474364	-3.899108405650752	-3.899938817662416
242	1.477751970593772	-3.853531231661736	-3.85615067730318	-3.856963923175068
243	1.482480169218324	-3.808597251472452	-3.811219379323236	-3.8120111675204043
244	1.498731675609384	-3.826805161356108	-3.829431044299968	-3.830231415567024
245	1.502435270266056	-3.881348961168744	-3.883978062763812	-3.884804183240532
246	1.49012285651172	-3.897194917507596	-3.899820264009588	-3.90064853025378
247	1.477927923526476	-3.853199710587312	-3.855819156228756	-3.856630256333172
248	1.482795597036708	-3.808782323916912	-3.811403915325828	-3.812196239964864
249	1.498728993400044	-3.827315317572576	-3.829944419167644	-3.830743181109096
250	1.502218547751384	-3.881161742956812	-3.883788698784408	-3.884612673493656
251	1.490322949328484	-3.89741378578974	-3.900036450082392	-3.900866862094056
252	1.477768063849812	-3.853774776269808	-3.8563958312368563	-3.857203176248196
253	1.482835830176808	-3.8081380572334442	-3.810761794409832	-3.8115514368395282
254	1.499409201688668	-3.826776729937104	-3.829405831532172	-3.830206739241096
255	1.502605322338212	-3.880991154442788	-3.883620792479724	-3.884446376514576
256	1.490038635138444	-3.897017891691156	-3.899642165309412	-3.900470967995472
257	1.477947771875592	-3.854046752296884	-3.856667807263932	-3.85747837092648
258	1.483036995877308	-3.808917507267648	-3.811539635118432	-3.812333032641204
259	1.4991940884996	-3.82602946641498	-3.828655885800708	-3.829456793509632
260	1.502808633806184	-3.880477243133244	-3.883105271844576	-3.883929782995692
261	1.4901684540705	-3.897568817489592	-3.900193091107848	-3.901022966677644
262	1.477408111356384	-3.8539872072495363	-3.85660933510032	-3.857419898762868
263	1.482720495175188	-3.808550581029936	-3.811174854648192	-3.811967179287228
264	1.499367359222964	-3.826727913727116	-3.82935808820592	-3.830158459472976
265	1.502484086476044	-3.88048904485434	-3.883117073565672	-3.883938902507448
266	1.489901842462104	-3.897329027974596	-3.8999500829416442	-3.900782104278912
267	1.477354467169584	-3.8550772571253122	-3.85769294767368	-3.85850833931304
268	1.482585311824452	-3.808953985314672	-3.811575576723588	-3.812368437804492
269	1.49909216454468	-3.82576124548098	-3.828388201308576	-3.829188572575632
270	1.502402547312108	-3.880523377133892	-3.88314979651962	-3.883973771228868
271	1.489642204597992	-3.897878344447428	-3.900502081623816	-3.901333030077348
272	1.477455854682636	-3.854807963307576	-3.857427945390888	-3.85824280058838
273	1.482904494735912	-3.80918250955044	-3.811804637401224	-3.812599107807732
274	1.4993287354084681	-3.825988160391144	-3.828617261986212	-3.829414951043928
275	1.502651992780728	-3.8799552851956802	-3.882584923232616	-3.883405679290656
276	1.489901306020236	-3.897852058795896	-3.900480623949096	-3.901310499518892
277	1.477038502909332	-3.855408241757868	-3.85803358825986	-3.858844151922408
278	1.482743562175512	-3.808768912870212	-3.811395868697808	-3.812184974685636
279	1.499753597367924	-3.82562445280464	-3.828256773050916	-3.829053389224896
280	1.502661648734352	-3.879938119055904	-3.882568829976576	-3.883391731802088
281	1.48968029197062	-3.897445435859952	-3.900072391687548	-3.90090334014108
282	1.477546513358328	-3.855526258968828	-3.8581483868196123	-3.858962169133368
283	1.482850850549112	-3.809276923319208	-3.811900660495596	-3.8126935215765
284	1.49927991919848	-3.824725376233872	-3.827355550712676	-3.828154312654128
285	1.50298673250636	-3.8792423539531082	-3.88187038266444	-3.882693284489952
286	1.4901824015590681	-3.89771151102648	-3.900335784644736	-3.901167805982004
287	1.477284729726744	-3.854964067891164	-3.857585122858212	-3.858396759404496
288	1.482619107662136	-3.80858437686762	-3.811209723369612	-3.811999902241176
289	1.49955082234182	-3.825218902752432	-3.8278474679056322	-3.82864462052148
290	1.502768400666084	-3.878914051529892	-3.881544226008696	-3.882364445624868
291	1.4901888388614841	-3.897023256109836	-3.899647529728092	-3.900477941739756
292	1.477618933010508	-3.855634620226164	-3.85825352942574	-3.859066775297628
293	1.482870698898228	-3.80871312291594	-3.8113357872085922	-3.812128111847628
294	1.499424222060972	-3.824090765504028	-3.82671879421536	-3.827515946831208
295	1.5028284821553	-3.878863089552432	-3.881491654705632	-3.882312410763672
296	1.489969434137472	-3.897558088652232	-3.900183971596092	-3.901012774282152
297	1.477662921243684	-3.855458130851592	-3.858081331586112	-3.858890285923056
298	1.482784868199348	-3.809036597362344	-3.811657652329392	-3.812448904084692
299	1.499206963104432	-3.824403511113072	-3.827031003382536	-3.827829765323988
300	1.502754989619384	-3.878522448966252	-3.88115423277066	-3.881971770177492
301	1.4902237075829041	-3.897707755933404	-3.900333102435396	-3.901160295795852
302	1.4773979189608921	-3.856003692231348	-3.858624747198396	-3.859437456628416
303	1.482597649987416	-3.808517858075988	-3.811142668136112	-3.811936065658884
304	1.499430659363388	-3.824247942971352	-3.826878653892024	-3.827675806507872
305	1.50262195203612	-3.878703229875768	-3.881335550122044	-3.8821546968544802
306	1.489963533276924	-3.8973891094638122	-3.900016065291408	-3.900845940861204
307	1.477669894987968	-3.856250991932496	-3.858877947760092	-3.859689047864508
308	1.482653439941688	-3.809314474249968	-3.811940357193828	-3.812729999623524
309	1.499085727242264	-3.823542521914932	-3.826172696393736	-3.826967703242112
310	1.502936306970768	-3.878220432194568	-3.880852215998976	-3.88166921696394
311	1.490247847466964	-3.897984559937292	-3.900609906439284	-3.901437636241608
312	1.477545440474592	-3.85603266009222	-3.858655324384872	-3.859466424489288
313	1.48262339919708	-3.808791979870536	-3.811415180605056	-3.8122075052440922
314	1.499346437990112	-3.824091301945896	-3.826717184889756	-3.82751809259868
315	1.502728703967852	-3.878112070937232	-3.880736880997356	-3.881562465032208
316	1.49025428476938	-3.897476549488296	-3.900099213780948	-3.900929625792612
317	1.477598011777656	-3.856915643406948	-3.859537771257732	-3.860349407804016
318	1.482481778543928	-3.809055372827724	-3.811677500678508	-3.81246821599194
319	1.499172094383012	-3.823025928396048	-3.825652884223644	-3.826448963955756
320	1.502811316015524	-3.877865307677952	-3.880493872831152	-3.881313556005456
321	1.489936174741656	-3.897849376586556	-3.900475795972284	-3.901304062216476
322	1.477593183800844	-3.856599679146696	-3.85922180699748	-3.860032370660028
323	1.482539177823804	-3.809283360621624	-3.811908170681748	-3.812694594460236
324	1.498845937727268	-3.823272691655328	-3.825904475459736	-3.826698409424376
325	1.502825263504092	-3.8774897983703522	-3.880119972849156	-3.8809380466978562
326	1.4905171412847	-3.897774274725036	-3.900400157668896	-3.901226814587484
327	1.477388263007268	-3.856953194337708	-3.859576395072228	-3.860388031618512
328	1.482039214002828	-3.808914825058308	-3.811538025792828	-3.812330350431864
329	1.498910847193296	-3.823313461237296	-3.825944172157968	-3.82673756968074
330	1.502679887757864	-3.877679162349756	-3.8803104097122962	-3.881125801351656
331	1.490250529676304	-3.897524829256416	-3.900150712200276	-3.9009768326769962
332	1.47771227389554	-3.857331385854648	-3.859954586589168	-3.860765686693584
333	1.482105196352592	-3.809738799767556	-3.812361464060208	-3.81315217937364
334	1.498463991117252	-3.822668121670092	-3.825295613939556	-3.826094375881008
335	1.502891245853856	-3.877357833670824	-3.87998747170776	-3.880808764207668
336	1.490641059356208	-3.898209865521852	-3.900834139140108	-3.901662941826168
337	1.477738559547072	-3.856975188454296	-3.85959731630508	-3.860408416409496
338	1.482147038818296	-3.809113844991336	-3.811740800818932	-3.812530979690496
339	1.49856108709536	-3.823300586632464	-3.825931297553136	-3.82672952305272
340	1.502323153915644	-3.87742596178806	-3.880055599824996	-3.88087796520864
341	1.490241946606416	-3.897908921633904	-3.900532122368424	-3.901363070821956
342	1.47741991307748	-3.857929518537468	-3.860553255713856	-3.861365428702008
343	1.481739342998616	-3.80956606548606	-3.812191411988052	-3.812985345952692
344	1.49828750174268	-3.822603748645932	-3.82523553245034	-3.826035367275528
345	1.50256294343064	-3.877295069972268	-3.879924708009204	-3.880747609834716
346	1.4903567451661681	-3.89811652463682	-3.900740798255076	-3.901575501801684
347	1.477860331851108	-3.857468714972856	-3.860091915707376	-3.8609083802304722
348	1.482273102657276	-3.809335931924688	-3.811957523333604	-3.812753066623848
349	1.498845937727268	-3.822316752246552	-3.82494317163228	-3.825743542899336
350	1.503275874673212	-3.876526885217292	-3.879157596137964	-3.879977815754136
351	1.491220416573648	-3.897538776744984	-3.900164659688844	-3.900993462374904
352	1.478059888226004	-3.857539525299432	-3.8601605802664802	-3.860975435463972
353	1.482044578421508	-3.809139057759132	-3.811759576284312	-3.812554583132688
354	1.498504224257352	-3.822256670757336	-3.824882553701196	-3.825682388526384
355	1.502918067947256	-3.876795106151292	-3.879422061978888	-3.880248182455608
356	1.4909194726857	-3.897740478887352	-3.900365288947476	-3.90120106537782
357	1.478023946620848	-3.857829203908152	-3.8604524046426723	-3.861267796282032
358	1.481930852745492	-3.809580012974628	-3.812201604383544	-3.812995001906316
359	1.49819630662512	-3.822069988987272	-3.824698554140472	-3.825496243198188
360	1.502687397944016	-3.876529030984764	-3.879160278347304	-3.879981570847212
361	1.490829886893744	-3.898039813449696	-3.900666232835424	-3.901497181288956
362	1.477888226828244	-3.858185401308504	-3.860808065601156	-3.861622920798648
363	1.481729150603124	-3.80952583234596	-3.812148496638612	-3.812943503486988
364	1.49817753115974	-3.821985231172128	-3.824611650557856	-3.825410948941176
365	1.502728167525984	-3.876362197563816	-3.8789918356007522	-3.879812591658792
366	1.4908384699636321	-3.897895510587204	-3.900521393531064	-3.901354487752068
367	1.477848530130012	-3.858376374613512	-3.860999038906164	-3.8618149669873922
368	1.481694281881704	-3.8096942750925122	-3.8123185487107683	-3.813111409791672
369	1.498124959856676	-3.821725056866148	-3.82435308557748	-3.825150774635196
370	1.502901438249348	-3.876148693700352	-3.878777258853552	-3.879596942027856
371	1.491042317873472	-3.897962029378836	-3.900584693671488	-3.901416715008756
372	1.477890372595716	-3.858521213917872	-3.861144414652392	-3.861955514756808
373	1.48164439278798	-3.809821948257096	-3.812447294759088	-3.813239082956256
374	1.497999432459564	-3.821703599191428	-3.824332164344628	-3.825130389844212
375	1.502690616595224	-3.87611704363014	-3.878746681667076	-3.879568510608852
376	1.490944685453496	-3.898178751893508	-3.900806244162972	-3.901637192616504
377	1.47799390587624	-3.858921935993268	-3.86154460028592	-3.862363210576488
378	1.48170876581214	-3.80987451956016	-3.812498256736548	-3.813293263584924
379	1.498071315669876	-3.8213409644886602	-3.823968993199992	-3.824767218699576
380	1.502911094202972	-3.875740997880672	-3.878371172359476	-3.879192464859384
381	1.491261186155616	-3.898063953333756	-3.900691982045088	-3.901520784731148
382	1.478110850203464	-3.858920326667664	-3.861544063844052	-3.862355163948468
383	1.481618107136448	-3.80987988397884	-3.812505230480832	-3.8132975551198682
384	1.497974219691768	-3.821278737231972	-3.823906765943304	-3.824705527884756
385	1.502918604389124	-3.875681989275192	-3.878310554428392	-3.879132383370168
386	1.491401197483164	-3.898118670404292	-3.900742944022548	-3.901574965359816
387	1.478353858369668	-3.8590860872048762	-3.861708751497528	-3.862524143136888
388	1.481583238415028	-3.809936746816848	-3.812560483993236	-3.813356563725348
389	1.497679176664368	-3.821171448858372	-3.823801623337176	-3.824600385278628
390	1.502644482594576	-3.875641756135092	-3.878273003497632	-3.879092686671936
391	1.49123329117848	-3.898340220895776	-3.900965567397768	-3.901797052293168
392	1.478261590368372	-3.859483054187196	-3.862103572712376	-3.862918964351736
393	1.481598258787332	-3.810097679377248	-3.8127203436699	-3.813513741192672
394	1.497892680527832	-3.82090376436624	-3.823530720193836	-3.824330018577156
395	1.503107968368528	-3.875268929036832	-3.877895884864428	-3.8787193231318082
396	1.491582514834548	-3.8981755332423	-3.900799806860556	-3.90163021887222
397	1.4781902435999281	-3.859592488328268	-3.862214616179052	-3.863027325609072
398	1.481434107575724	-3.810219988123152	-3.81284372529954	-3.813635513496708
399	1.497776809084344	-3.820724592782328	-3.823349402842452	-3.824149774109508
400	1.502954009552412	-3.875172369500592	-3.877796643118848	-3.878619008502492
401	1.491707505789792	-3.898233468964044	-3.900856669698564	-3.901687081710228
402	1.478638172559708	-3.85964827828254	-3.862269869691456	-3.863083652005212
403	1.481682480160608	-3.810063347097696	-3.812686011390348	-3.813477263145648
404	1.497826698178068	-3.820486412592936	-3.823111759094928	-3.823906229501436
405	1.503026429204592	-3.875016801358872	-3.87764590295394	-3.878465049686376
406	1.491682293021996	-3.898350413291268	-3.900977905560732	-3.901805098921188
407	1.478443980603492	-3.859984627333776	-3.862606218742692	-3.863418928172712
408	1.481451810157368	-3.810312792566316	-3.8129333110914962	-3.813727245056136
409	1.4975981739423	-3.820484803267332	-3.823110686211192	-3.823908375268908
410	1.502930942552088	-3.874999635219096	-3.877627663930428	-3.878446274220996
411	1.491661908231012	-3.89846252964168	-3.901084657492464	-3.9019172152716
412	1.4783930186260321	-3.8602523118259082	-3.862871221025484	-3.863686076222976
413	1.481401384621776	-3.810476407336056	-3.813099608070576	-3.813891396267744
414	1.497813287131368	-3.82029490284606	-3.822921858673656	-3.823717938405768
415	1.503418031768232	-3.874618761492816	-3.877247863087884	-3.878067546262188
416	1.492264868890644	-3.8982694105692	-3.900891001978116	-3.901721950431648
417	1.479048550588728	-3.860209396476468	-3.862829915001648	-3.863645306641008
418	1.481932462071096	-3.810301527287088	-3.812920972928532	-3.813713834009436
419	1.498090091135256	-3.819850192537488	-3.822476611923216	-3.8232743009809322
420	1.503408912256476	-3.8744095491642963	-3.877039187201232	-3.877859943259272
421	1.491989137770492	-3.898452873688056	-3.901079293073784	-3.901909705085448
422	1.47871273797936	-3.860651961017568	-3.863276771077692	-3.864089480507712
423	1.481484533111316	-3.810589060128336	-3.813214406630328	-3.814007267711232
424	1.497717264036996	-3.820005760679208	-3.822632716506804	-3.823431478448256
425	1.503184679555652	-3.8743977474432	-3.877027385480136	-3.877848677980044
426	1.492011668328948	-3.898606832504172	-3.901230033238692	-3.902063127459696
427	1.478582382605436	-3.860945931161232	-3.863565913244544	-3.864381304883904
428	1.481368661667828	-3.810859963271676	-3.813485309773668	-3.814276561528968
429	1.497548284848576	-3.819941924096916	-3.822569952808248	-3.823364959656624
430	1.503143373531816	-3.874391846582652	-3.877020411735852	-3.877840094910156
431	1.491887213815572	-3.898696418296128	-3.901320691914384	-3.902151640367916
432	1.478603840280156	-3.861108473047236	-3.863729528014284	-3.864545456095512
433	1.481362224365412	-3.8107907622707042	-3.813414499447092	-3.814207360527996
434	1.497510197475948	-3.819795475466952	-3.822420285527076	-3.823219047468528
435	1.5030811462751281	-3.874227695371044	-3.876855187640508	-3.877675943698548
436	1.491883995164364	-3.898683543691296	-3.901308890193288	-3.902137692879348
437	1.4784203771613	-3.861309638747736	-3.863933912365992	-3.864743939586672
438	1.481243134270716	-3.810886785365076	-3.813511058983332	-3.8143023107386322
439	1.497491958452436	-3.8194205026012202	-3.822049604196288	-3.8228456839284
440	1.503098848856772	-3.873786740155548	-3.87641745107622	-3.877236061366788
441	1.491801383116692	-3.898577328201432	-3.901202138261556	-3.9020320138313522
442	1.478501379883368	-3.861486664564176	-3.864108255973092	-3.864922574728716
443	1.481165350199856	-3.810846015783108	-3.813469216517628	-3.814263686924136
444	1.4975064423828721	-3.819235966598628	-3.821863458868092	-3.822661147925808
445	1.503172877834556	-3.873529784500776	-3.87615995897958	-3.876980178595752
446	1.491951586839732	-3.898465748292888	-3.901090558353012	-3.901922043248412
447	1.478410184765808	-3.861645451357104	-3.864268115649756	-3.865082970847248
448	1.481018365128024	-3.811064884065252	-3.813689157683508	-3.814482018764412
449	1.497323515705884	-3.819087372201192	-3.82171647379626	-3.822511480644636
450	1.50304842332118	-3.873361878196092	-3.875991516233028	-3.8768117358492002
451	1.491834642512508	-3.898620243550872	-3.901246126494732	-3.902077074948264
452	1.478435933975472	-3.861928692663408	-3.864552429839796	-3.865365675711684
453	1.480986178615944	-3.811205431834668	-3.813831314778528	-3.8146225665338283
454	1.4972274926115121	-3.819173202900072	-3.82180230449514	-3.822596774901648
455	1.503052178414256	-3.873487942035072	-3.876120262281348	-3.876936726804444
456	1.492058338771464	-3.898793514274236	-3.901419933659964	-3.902248736346024
457	1.478649437838936	-3.862132540573248	-3.864754668424032	-3.865566841412184
458	1.481050551640104	-3.811343833836612	-3.813967571013	-3.814757213442696
459	1.49713951614516	-3.81904767550296	-3.821677313539896	-3.822473393272008
460	1.503010335948552	-3.87337314347532	-3.8760033179541242	-3.876821928244692
461	1.492079796446184	-3.898910995043328	-3.9015347322197163	-3.902366217115116
462	1.478598475861476	-3.862453332810312	-3.865075460661096	-3.865890315858588
463	1.48085582324202	-3.811543926653376	-3.814168200271632	-3.8149599884688
464	1.4969549801425681	-3.819063232317132	-3.821692870354068	-3.822484658551236
465	1.502997997785588	-3.873302869590612	-3.875935189836888	-3.876751654359984
466	1.492183329726708	-3.89896142057892	-3.901586767080912	-3.902417179092576
467	1.478759408421876	-3.862559548300176	-3.8651843583603	-3.865995458464716
468	1.480997443895172	-3.811554119048868	-3.814180001992728	-3.814970180864292
469	1.497037055748372	-3.8188089588717	-3.8214375240249	-3.822231994431408
470	1.503103676833584	-3.873117260704284	-3.875747971624956	-3.876566045473656
471	1.492337288542824	-3.898956592602108	-3.901582475545968	-3.902411814673896
472	1.478936970680184	-3.862718871534972	-3.86533992650202	-3.866154781699512
473	1.481048405872632	-3.811644241282692	-3.81426529624974	-3.815057620888776
474	1.497022035376068	-3.81869362387008	-3.821322725465148	-3.82211880519726
475	1.503007653739212	-3.872941844213448	-3.875574164459724	-3.876391701866556
476	1.492130758423644	-3.899159367628212	-3.901784177688336	-3.902615126141868
477	1.478718638839908	-3.863137296192012	-3.865759424042796	-3.866574815682156
478	1.480908930986952	-3.811885640123292	-3.814513132392756	-3.815303847706188
479	1.496909382583788	-3.818635688148336	-3.82126586262714	-3.8220603330336482
480	1.503162685439064	-3.872849576212152	-3.875479214249088	-3.876298360981524
481	1.492440821823348	-3.898994679974736	-3.901622708686068	-3.902451511372128
482	1.4788366560508681	-3.863178602215848	-3.865803412275972	-3.866615048822256
483	1.480844557962792	-3.811976835240852	-3.814600035975372	-3.81539182417254
484	1.496858957048196	-3.818391070656528	-3.821023390902804	-3.8218162519837082
485	1.503129426043248	-3.872531466184428	-3.875162713546968	-3.87597756874446
486	1.492462279498068	-3.899015601207588	-3.901643093477052	-3.9024724326049802
487	1.478936434238316	-3.863410881544692	-3.866035691604816	-3.866851083244176
488	1.480910003870688	-3.812066421032808	-3.814692840418536	-3.81548570149944
489	1.496863785025008	-3.8182607152826042	-3.820891426203276	-3.821686433051652
490	1.503325763766936	-3.872240714691972	-3.874873034938248	-3.87569057234508
491	1.492756249641732	-3.898833747414336	-3.901462312567536	-3.902293261021068
492	1.4790238742628	-3.863447896033584	-3.866071633209972	-3.8668875612912
493	1.480807007032032	-3.81203906249754	-3.814660117464588	-3.815456733638568
494	1.496870222327424	-3.818046674977272	-3.82067577657234	-3.821471856304452
495	1.503205600788504	-3.8720513507125682	-3.874682598075108	-3.8754995990400722
496	1.492584051802104	-3.898930306950576	-3.901556189894436	-3.902386065464232
497	1.478942335098864	-3.863747767037796	-3.866372040656052	-3.867189041621016
498	1.480774284078084	-3.812300309687256	-3.814925656189248	-3.815719590153888
499	1.496840718024684	-3.817881987323796	-3.820511088918864	-3.821307705092844
500	1.503291431487384	-3.871850721453936	-3.8744792866071363	-3.875297360455836
501	1.492592098430124	-3.898941572229804	-3.901566382289928	-3.902397867185328
502	1.479008317448628	-3.864015451529928	-3.866639725148184	-3.867455653229412
503	1.480874062265532	-3.812372192897568	-3.814995930073956	-3.8157887911548602
504	1.4970080878875	-3.817607865529248	-3.820236430682448	-3.821030901088956
505	1.503466311536352	-3.871427468820084	-3.874056570415152	-3.874875717147588
506	1.492806138735456	-3.898810143972144	-3.901436563357872	-3.902266438927668
507	1.479168177125292	-3.86399613962268	-3.866619876799068	-3.867433122670956
508	1.480956674313204	-3.812284216431216	-3.814910099375076	-3.815700814688508
509	1.4968568112807241	-3.817341253920852	-3.819973574167128	-3.820766435248032
510	1.503400329186588	-3.871352366958564	-3.873981468553632	-3.874799542402332
511	1.492776097990848	-3.898799951576652	-3.901425834520512	-3.9022541007647042
512	1.479267418870872	-3.86413025008968	-3.866750232172992	-3.8675672331379563
513	1.480876744474872	-3.812311038524616	-3.814934239259136	-3.815727636781908
514	1.496949615723888	-3.81726937071054	-3.819898472305608	-3.820692406270248
515	1.503621879678072	-3.871014945023592	-3.87364404661866	-3.874462656909228
516	1.493070068134512	-3.898630435946364	-3.9012600739833	-3.902088340227492
517	1.479292631638668	-3.864093772042656	-3.866719118544648	-3.8675312915328
518	1.480842948637188	-3.812281534221876	-3.814907417165736	-3.815700814688508
519	1.496712508418232	-3.816959307310836	-3.819587872464036	-3.820381806428676
520	1.503530148118644	-3.870860449765608	-3.87349384289562	-3.87430923453498
521	1.493028225668808	-3.89864223766746	-3.901271875704396	-3.902099069064852
522	1.479252934940436	-3.864394179488736	-3.86701898954886	-3.867832771862616
523	1.480755508612704	-3.812528297481156	-3.815152034657544	-3.815942749970976
524	1.496810140838208	-3.816970036148196	-3.81959752841766	-3.8203903894985642
525	1.503551069351496	-3.870721511321796	-3.873351149358732	-3.874168686765564
526	1.493197204857228	-3.89873343278502	-3.9013603886126162	-3.902189727740544
527	1.479460537943352	-3.864544383211776	-3.867170266155636	-3.86798458491126
528	1.480829537590488	-3.812668308808704	-3.815295801078168	-3.8160865163916
529	1.496634187905504	-3.817000076892804	-3.8196297149297402	-3.820421503126908
530	1.503435734349876	-3.870753161392008	-3.873384408754548	-3.874199800393908
531	1.4931424877866921	-3.8988975839966282	-3.901523466940488	-3.902354951835888
532	1.479379535221284	-3.864823332983136	-3.867449215926996	-3.868264607566356
533	1.480597794703512	-3.812914535626116	-3.815543637221184	-3.816336498302088
534	1.496474864670708	-3.816945359822268	-3.819576607184808	-3.820370541149448
535	1.503409985140212	-3.870544485505356	-3.873175732867896	-3.873992197390992
536	1.493070068134512	-3.898955519718372	-3.901583011987836	-3.902411814673896
537	1.479307115569104	-3.865182749034696	-3.86780755909482	-3.868621341408576
538	1.480691672030412	-3.813045963883776	-3.815668628176428	-3.816463635024804
539	1.496577325067496	-3.816735074610012	-3.819360957553872	-3.820154891518512
540	1.503462020001408	-3.87039052668924	-3.873020164726176	-3.873836629249272
541	1.493148925089108	-3.89900433592836	-3.901633437523428	-3.90246170376762
542	1.479435325175556	-3.8653721130141	-3.867994240864884	-3.868807486736772
543	1.480603159122192	-3.813131794582656	-3.815756068200912	-3.816547319956212
544	1.496401372134792	-3.816610620096636	-3.8192381123661	-3.820029900563268
545	1.503569308375008	-3.8702006262679682	-3.872832410072376	-3.873646192386132
546	1.493444504558376	-3.898892219577948	-3.901523466940488	-3.90234905097534
547	1.479570508526292	-3.865411273270464	-3.8680360833305882	-3.8688471834350042
548	1.480616570168892	-3.813155934466716	-3.815781280968708	-3.816569850514668
549	1.496345045738652	-3.816505477490508	-3.819134579085576	-3.81992744016648
550	1.5036261712130161	-3.870088509917556	-3.872718147954492	-3.873536221803192
551	1.493574323490432	-3.898906167066516	-3.901535268661584	-3.902362998463908
552	1.479617178968808	-3.865602246575472	-3.868226520193728	-3.869039229623748
553	1.480393410351804	-3.813400551958524	-3.816024289134912	-3.816815004448344
554	1.496090235851352	-3.816554293700496	-3.8191828588536962	-3.819975183492732
555	1.503605249980164	-3.870020918242188	-3.872653774930332	-3.873467557244088
556	1.493730964515888	-3.898867006810152	-3.901494499079616	-3.902323301765676
557	1.479870379530504	-3.865669301808972	-3.868291966101624	-3.869106284857248
558	1.48065197533218	-3.813302919538548	-3.815927193156804	-3.816720590679576
559	1.496277990505152	-3.816271052394192	-3.818900690431128	-3.8196930150701642
560	1.503706101051348	-3.869711391284352	-3.872344247972496	-3.8731607124955922
561	1.493769588330384	-3.898873980554436	-3.901500399940164	-3.902329202626224
562	1.47984731253018	-3.865925721021876	-3.868548385314528	-3.8693637769538882
563	1.48064124649482	-3.81349281995982	-3.816116557136208	-3.816910491100848
564	1.496407809437208	-3.816029653553592	-3.818657682264924	-3.819452152671432
565	1.503871325146692	-3.8694335143967282	-3.872063688875532	-3.872880153398628
566	1.493750812865004	-3.898860569507736	-3.901486452451596	-3.902313109370184
567	1.479715347830652	-3.866206816560708	-3.868828407969624	-3.869641653841512
568	1.480443835887396	-3.81371007891636	-3.816332206767144	-3.817125067848048
569	1.496052148478724	-3.81605164767018	-3.8186791399396443	-3.819472537462416
570	1.503515664188208	-3.869465700908808	-3.872094802503876	-3.872909657701368
571	1.493702533096884	-3.899026866486816	-3.901653822314412	-3.902481552116736
572	1.479700327458348	-3.866475037494708	-3.869095556019888	-3.869910947659248
573	1.480223894721516	-3.813963279478056	-3.816583261561368	-3.817377195526008
574	1.495903554081288	-3.816102073205772	-3.818730638358972	-3.819523499439876
575	1.503516737071944	-3.8693289082324682	-3.871957473385668	-3.872773401466896
576	1.493611337979324	-3.899136837069756	-3.901764865781088	-3.902592595583412
577	1.479623616271224	-3.866788855987488	-3.869409910954536	-3.870225302593896
578	1.480139136906372	-3.814137623085156	-3.816758141610336	-3.817552075574976
579	1.49576890717242	-3.815878376946816	-3.81850586921628	-3.819299266739052
580	1.503604177096428	-3.869085900066264	-3.871716610986936	-3.872532002626296
581	1.493886532657608	-3.898981805369904	-3.901607151871896	-3.902435418116088
582	1.479867160879296	-3.866716972777176	-3.869341246395432	-3.870153955825452
583	1.480374098444556	-3.813944504012676	-3.816569850514668	-3.817359492944364
584	1.495940032128312	-3.815526471081408	-3.818155036234608	-3.8189452151061722
585	1.50367606030674	-3.868717364502948	-3.871347538981752	-3.872161321295508
586	1.494005622752304	-3.898863251717076	-3.901492353312144	-3.902317937346996
587	1.479853213390728	-3.866906873198448	-3.869533292584176	-3.8703465384560642
588	1.480118752115388	-3.814233646179528	-3.816860065565256	-3.817649707994952
589	1.495666446775632	-3.815673992595108	-3.818301484864572	-3.819093809503608
590	1.503492597187884	-3.868818215574132	-3.871446780727332	-3.872263781692296
591	1.493729355190284	-3.89907675558054	-3.901700492756928	-3.902529831884856
592	1.4796810155511	-3.867318324111204	-3.869938306194516	-3.870754770717612
593	1.479894519414564	-3.814502939997264	-3.817126677173652	-3.817919001812688
594	1.495490493842928	-3.815632150129404	-3.818258569515132	-3.81905303992164
595	1.503709319702556	-3.8686041752688	-3.871232203980132	-3.872048668503228
596	1.494251313127848	-3.898921723880688	-3.901545461057076	-3.90237855527808
597	1.480074227440344	-3.86715310001586	-3.869774691424776	-3.870591155947872
598	1.480362833165328	-3.81431894043654	-3.816942677612928	-3.817736611577568
599	1.495841863266468	-3.815235719588952	-3.8178642847421522	-3.818657145823056
600	1.50376457321496	-3.86823939479856	-3.870872251486704	-3.8716871066841962
601	1.494161727335892	-3.898801024460388	-3.901428516729852	-3.902257319415912
602	1.480073690998476	-3.867403618368216	-3.8700262826608682	-3.870841674300228
603	1.480444372329264	-3.814381167693228	-3.817007587078956	-3.817796693066784
604	1.4959947491988481	-3.81497071730616	-3.8176019646687	-3.818389997772792
605	1.503921750682284	-3.867871395677112	-3.870504788807124	-3.8713164253534083
606	1.494272770802568	-3.898755426901608	-3.901384528496676	-3.902211185415264
607	1.480062425719248	-3.867593518789488	-3.870218328849612	-3.871032647605236
608	1.480178297162736	-3.814598963091636	-3.817221627384288	-3.818013415581456
609	1.4957855368703281	-3.814948723189572	-3.817575679017168	-3.818366930772468
610	1.50389600147262	-3.867734603000772	-3.870365313921444	-3.8711769504677283
611	1.494262578407076	-3.898680861481956	-3.9013062079839482	-3.902130719135064
612	1.480043650253868	-3.867811850629764	-3.870433978480548	-3.8712461514687
613	1.480162740348564	-3.814758286326432	-3.817381487060952	-3.818170056606912
614	1.495764079195608	-3.814774379582472	-3.8174007989682	-3.818190441397896
615	1.503897610798224	-3.867492667718304	-3.870121769313372	-3.870931796534052
616	1.49440098040902	-3.898735578552492	-3.901359852170748	-3.902186509089336
617	1.480196536186248	-3.867885879607548	-3.870509080342068	-3.871323399097692
618	1.48016649544164	-3.8147775982336802	-3.8174018718519362	-3.818191514281632
619	1.495670738310576	-3.814668164092608	-3.817296729245808	-3.81808744455924
620	1.504116479080368	-3.867390207321516	-3.870022527567792	-3.870836309881548
621	1.494821550833532	-3.898616488457796	-3.90124398072726	-3.902071710529584
622	1.480583847214944	-3.867813996397236	-3.870437733573624	-3.871252052329248
623	1.480399311212352	-3.814679965813704	-3.817299947897016	-3.818092272536052
624	1.49572867403232	-3.814490065392432	-3.817117021220028	-3.817909882300932
625	1.503926042217228	-3.867262534156932	-3.869893781519472	-3.8707107824844362
626	1.494477691596144	-3.8987361149943602	-3.901362534380088	-3.902192946391752
627	1.480176687837132	-3.868257097380204	-3.870880298114724	-3.871697835521556
628	1.480099976650008	-3.815073177702948	-3.817696914879336	-3.818489239518372
629	1.495562913495108	-3.814521179020776	-3.817149207732108	-3.81793992304554
630	1.503919604914812	-3.867147199155312	-3.869776837192248	-3.870592228831608
631	1.494526507806132	-3.898789222739292	-3.9014172514506242	-3.902245517694816
632	1.48034352125808	-3.868431977429172	-3.871054105279956	-3.871872179128656
633	1.480066717254192	-3.815167055029848	-3.817790255764368	-3.818581507519668
634	1.4954255843769	-3.814440176298708	-3.817066595684436	-3.817856238114132
635	1.503914240496132	-3.867075852386868	-3.869704417540068	-3.87051927273756
636	1.494665982691812	-3.898849840670376	-3.901475723614236	-3.902303989858428
637	1.480462611352776	-3.868598274408252	-3.87122201158464	-3.872037403224
638	1.480195463302512	-3.815323159613436	-3.817949042557296	-3.818738684986992
639	1.495424511493164	-3.814307138715444	-3.816935167426776	-3.817722664089
640	1.50393087019404	-3.866848401034836	-3.869478039071772	-3.870289139176188
641	1.494721772646084	-3.8988471584610362	-3.901470359195556	-3.902299698323484
642	1.480382681514444	-3.868918530203448	-3.871539585170496	-3.872354976809856
643	1.4798687702049	-3.815651462036652	-3.818277344980512	-3.819066987410208
644	1.495131077791368	-3.814381704135096	-3.817011342172032	-3.817799911717992
645	1.503828409797252	-3.86676149745222	-3.869393817698496	-3.870204381361044
646	1.494664373366208	-3.898929770508708	-3.901558335661908	-3.902384456138628
647	1.480321527141492	-3.869168512113936	-3.871794931499664	-3.8726092502552882
648	1.479921877949832	-3.815792009806068	-3.8184157469824562	-3.819207535179624
649	1.495187404187508	-3.814174637574048	-3.816801056959776	-3.8175917722732082
650	1.50383967507648	-3.866561404635456	-3.869192115556128	-3.870005361428016
651	1.494627895319184	-3.898895438229156	-3.901521321173016	-3.902350123859076
652	1.480428279073224	-3.869285992883028	-3.871910266501284	-3.872725121698776
653	1.479957819554988	-3.815750703782232	-3.818374977400488	-3.819167838481392
654	1.495198133024868	-3.814006731269364	-3.816632614213224	-3.817427084619732
655	1.503959838054912	-3.866247586142676	-3.868876151295876	-3.869692615818972
656	1.494986238487008	-3.898697491179864	-3.90132176479812	-3.902152713251652
657	1.480599404029116	-3.869326226023128	-3.871949963199516	-3.872765891280744
658	1.479987323857728	-3.815803275085296	-3.818427548703552	-3.819219873342588
659	1.4952378297231	-3.813758895126348	-3.816385850953944	-3.817179248476716
660	1.504026893288412	-3.866009942395152	-3.868638507548352	-3.8694528263039762
661	1.49497229099844	-3.898666913993388	-3.90129226049538	-3.9021210631814403
662	1.480650366006576	-3.869412593163876	-3.87203472101466	-3.8728533313052282
663	1.479899347391376	-3.815830633620564	-3.818453834355084	-3.819247231877856
664	1.495080115813908	-3.813734755242288	-3.8163622475117522	-3.817154572150788
665	1.504012409357976	-3.865895680277268	-3.8685242454304682	-3.869339637069828
666	1.495113911651592	-3.8986851530169	-3.901312108844496	-3.902139302204952
667	1.480590820959228	-3.869641117399644	-3.872263245250428	-3.873077564006052
668	1.479721785133068	-3.816081688414788	-3.81870435270744	-3.819496140904608
669	1.494807066903096	-3.813725635730532	-3.816353127999996	-3.817144379755296
670	1.503691080679044	-3.865940204952312	-3.868569842989248	-3.869381479535532
671	1.494812967763644	-3.898886855159268	-3.901512738103128	-3.9023393950217162
672	1.480619252378232	-3.8699061196824363	-3.872529320416956	-3.873343102730712
673	1.479811370925024	-3.816212043788712	-3.818837390290704	-3.819632933580948
674	1.494883241648352	-3.81366716356692	-3.816297874487592	-3.817089126242892
675	1.503919068472944	-3.8657073891816	-3.868339709427876	-3.869150809532292
676	1.495187404187508	-3.898793514274236	-3.901422615869304	-3.902250882113496
677	1.480802715497088	-3.869982294427692	-3.872606568045948	-3.87342410545278
678	1.47994387206642	-3.81629841092946	-3.818923757431452	-3.819716618512356
679	1.494946005346908	-3.813496575052896	-3.816128895299172	-3.816916928403264
680	1.503927651542832	-3.865556649016692	-3.868186823495496	-3.869000069367384
681	1.495207252536624	-3.89880853464654	-3.901432808264796	-3.902263756718328
682	1.480805397706428	-3.870077781080196	-3.872698299605376	-3.873513691244736
683	1.479857504925672	-3.816371903465376	-3.818995104199896	-3.81978528307146
684	1.494918110369772	-3.813401088400392	-3.816029653553592	-3.81682144175076
685	1.504032257707092	-3.8652723348266522	-3.867906264398532	-3.868718973828552
686	1.495306494282204	-3.898696418296128	-3.901327665658668	-3.902152713251652
687	1.480791986659728	-3.870329372316288	-3.8729515001670722	-3.873769574015772
688	1.479734123296032	-3.816617057399052	-3.81924079457544	-3.820035801423816
689	1.494754495600032	-3.813316330585248	-3.815945432180316	-3.816737220377484
690	1.503945890566344	-3.865199915174472	-3.867831162537012	-3.868642799083296
691	1.495269479793312	-3.898722167505792	-3.901348050449652	-3.902173098042636
692	1.480878890242344	-3.87047903959746	-3.873103313215716	-3.873914413320132
693	1.47980707939008	-3.816582188677632	-3.819206462295888	-3.819998250493056
694	1.494794728740132	-3.813073322419044	-3.815698668921036	-3.816488311350732
695	1.503833774215932	-3.864932767124208	-3.867560259393672	-3.8683718959399562
696	1.495164873629052	-3.898812826181484	-3.901438172683476	-3.902266438927668
697	1.480773747636216	-3.870789639439032	-3.873413913057288	-3.874229304696648
698	1.47967028671374	-3.816884205449316	-3.81951169771878	-3.820299730822872
699	1.494671347110492	-3.813029334185868	-3.815658435780936	-3.816447005326896
700	1.503995779660068	-3.86472033614448	-3.867351047065152	-3.868162147169568
701	1.495494248936004	-3.89861005115538	-3.901235397657372	-3.902064200343432
702	1.4811406738739281	-3.870748333415196	-3.8733699248241122	-3.874187998672812
703	1.47989827450764	-3.816794083215492	-3.81941513818254	-3.820211217914652
704	1.494751813390692	-3.812837287997124	-3.815465316708456	-3.816256032021888
705	1.504026356846544	-3.8645722781889122	-3.867202452667716	-3.868013552772132
706	1.495387497004272	-3.898722167505792	-3.901349123333388	-3.902173634484504
707	1.480879426684212	-3.871113113885436	-3.873736314619956	-3.87455063337558
708	1.479615569643204	-3.81720231547704	-3.819827661979032	-3.820619986618068
709	1.494447114409668	-3.813003584976204	-3.815631613687536	-3.816422329000968
710	1.503665867911248	-3.864667764841416	-3.867296329994616	-3.868107430099032
711	1.495220663583324	-3.898943717997276	-3.901570137383004	-3.902398403627196
712	1.480918050498708	-3.871332518609448	-3.8739562557858362	-3.874772183867064
713	1.479639709527264	-3.8172559596638402	-3.819879696840228	-3.820668802828056
714	1.494528117131736	-3.812801346391968	-3.815428838661432	-3.8162163353236562
715	1.503963593147988	-3.8642868911151362	-3.86691974780328	-3.86772977502396
716	1.495555939750824	-3.898743625180512	-3.901373263217448	-3.902197237926696
717	1.481034458384064	-3.871495060495452	-3.87412147988118	-3.874934725753068
718	1.479685307086044	-3.817299411455148	-3.8199242215152722	-3.82071600971244
719	1.494565131620628	-3.812605545110148	-3.815231964495876	-3.816023216251176
720	1.503881517542184	-3.864144197578248	-3.866775981382656	-3.867587081487072
721	1.495306494282204	-3.89871733952898	-3.901346441124048	-3.902174170926372
722	1.48096579382496	-3.871769718731868	-3.874396138117596	-3.875210993315088
723	1.479588747549804	-3.817763970112836	-3.82038878017296	-3.821180568370128
724	1.494406881269568	-3.812520787295004	-3.815146133796996	-3.815936849110428
725	1.504093412080044	-3.863885096156004	-3.866514197751072	-3.867325834297356
726	1.495686831566616	-3.898885782275532	-3.901513810986864	-3.9023393950217162
727	1.480990470150888	-3.871611468380808	-3.8742352055571962	-3.875048987870952
728	1.479551733060912	-3.81754027385388	-3.820165620355872	-3.820955799227436
729	1.494343044687276	-3.812836751555256	-3.815465316708456	-3.81625549558002
730	1.503757599470676	-3.863945714087088	-3.8665780343333642	-3.867389670879648
731	1.49553823716918	-3.898531730642652	-3.901160295795852	-3.901986416272572
732	1.48118037057216	-3.8723303004839282	-3.874956719869656	-3.87577103862528
733	1.479478776966864	-3.817791865089972	-3.820416138708228	-3.821205781137924
734	1.494310858175196	-3.812102362637964	-3.814728782023692	-3.815518424453388
735	1.50413740031322	-3.863647988850348	-3.866278163329152	-3.867090872759172
736	1.495788219079668	-3.898869689019492	-3.901498254172692	-3.902324374649412
737	1.4812136299679761	-3.8717632814294523	-3.8743837999546322	-3.875197582268388
738	1.479677796899892	-3.81807939793122	-3.820700452898268	-3.821491704653568
739	1.494293155593552	-3.812524005946212	-3.81515042533194	-3.815939531319768
740	1.504148665592448	-3.863269797333408	-3.865899435370344	-3.866711608358496
741	1.496080579897728	-3.898577328201432	-3.901203211145292	-3.902029331622012
742	1.481265128387304	-3.87253897637058	-3.875161104221364	-3.87597756874446
743	1.479479313408732	-3.817849800811716	-3.820474074429972	-3.821266935510876
744	1.4943661116876	-3.812243446849248	-3.814872548444316	-3.81566272731588
745	1.503985050822708	-3.863541236918616	-3.866171947839288	-3.866985193711176
746	1.495673420519916	-3.898553188317372	-3.901178534819364	-3.902005191737952
747	1.481264591945436	-3.872639290999896	-3.875260882408812	-3.876076274048172
748	1.47921431112594	-3.818733320568312	-3.821355448419096	-3.822146700174396
749	1.493614556630532	-3.8121377678012522	-3.814763114303244	-3.8155511474073363
750	1.503809097890004	-3.863102427470592	-3.8657320655075282	-3.866541019844472
751	1.495935740593368	-3.899012918998248	-3.90164094770958	-3.902465995302564
752	1.481200755363144	-3.8724129125316002	-3.875035576824252	-3.875852041347348
753	1.479663312969456	-3.817982301953112	-3.82060335692016	-3.821397827326668
754	1.494401516850888	-3.812214478988376	-3.814842507699708	-3.815631613687536
755	1.504063907777304	-3.862841180280876	-3.86547135475968	-3.866281918422228
756	1.496014061106096	-3.89815675777692	-3.900785859371988	-3.901610370523104
757	1.481674969974456	-3.873099021680772	-3.875722222415292	-3.876537614054652
758	1.479534030479268	-3.818392679982132	-3.82101641715852	-3.821808741797556
759	1.494032444845704	-3.811479553629216	-3.814106509456812	-3.814894542560904
760	1.504135254545748	-3.862740329209692	-3.865374258781572	-3.866179994467308
761	1.496046784060044	-3.898900266205968	-3.901527758475432	-3.902355488277756
762	1.481319309015972	-3.872620515534516	-3.875243716269036	-3.876061790117736
763	1.479464293036428	-3.818741367196332	-3.821360812837776	-3.822157429011756
764	1.494027616868892	-3.812151178847952	-3.814773843140604	-3.815565631337772
765	1.50397110333414	-3.862299910436064	-3.864927402705528	-3.865739039251812
766	1.495935740593368	-3.89845448301366	-3.901080902399388	-3.901907022876108
767	1.481026948197912	-3.873581282920104	-3.87620555653836	-3.877020411735852
768	1.478890300237668	-3.818620131334164	-3.821244941394288	-3.82203565670772
769	1.493658544863708	-3.811842724773852	-3.814471289927052	-3.815259859473012
770	1.503724876516728	-3.862773588605508	-3.865405908851784	-3.866215936072464
771	1.495825770010428	-3.898448582153112	-3.901076074422576	-3.901901658457428
772	1.4816223986713921	-3.873402111336192	-3.876026384954448	-3.876841776593808
773	1.479358613988432	-3.819163546946448	-3.821789429890308	-3.822579608761872
774	1.493757786609288	-3.811484381606028	-3.814112946759228	-3.814901516305188
775	1.504302624408564	-3.86195766052428	-3.864587298561216	-3.865398398665632
776	1.496505441857184	-3.89863687324878	-3.901263292634508	-3.90208887666936
777	1.481590212159312	-3.8731891439145962	-3.875814490416588	-3.876633637149024
778	1.479679942667364	-3.81861315758988	-3.821237431208136	-3.82203297449838
779	1.494234146988072	-3.811687156632132	-3.8143162582272	-3.815105364215028
780	1.504031721265224	-3.862044027665028	-3.864677957236908	-3.8654879844575882
781	1.496206643736708	-3.898040349891564	-3.900670524370368	-3.90149610840522
782	1.482037068235356	-3.8738929556454123	-3.876518302147404	-3.877333157344896
783	1.479693353714064	-3.818883524291352	-3.821508334351476	-3.822300658990512
784	1.49406033982284	-3.8108025639918	-3.813431665586868	-3.814220235132828
785	1.504342857548664	-3.861571958821188	-3.864203206183728	-3.865013769846276
786	1.496458771414668	-3.8985269026658402	-3.901152249167832	-3.901978369644552
787	1.481589675717444	-3.873354904451808	-3.875978641628196	-3.876795106151292
788	1.479400992896004	-3.819391534740348	-3.822019027009812	-3.82281349741632
789	1.493737938260172	-3.811605081026328	-3.814235791947	-3.815025970818564
790	1.5040622984517	-3.861433020377376	-3.864063731298048	-3.864877513611804
791	1.496443751042364	-3.898233468964044	-3.9008593519079042	-3.9016897639195682
792	1.481624007996996	-3.874139718904692	-3.876762919639212	-3.877582602813516
793	1.479256153591644	-3.818992958432424	-3.821615086283208	-3.822412238899056
794	1.493965389612204	-3.811110481624032	-3.813736364567892	-3.814526543439456
795	1.504126135033992	-3.861612728403156	-3.864238074905148	-3.865050784335168
796	1.496387424646224	-3.898063953333756	-3.900689836277616	-3.9015148838706
797	1.481923879001208	-3.873973421925612	-3.876597695543868	-3.8774136236250962
798	1.479412258175232	-3.819715009186752	-3.82233874636314	-3.823131071002176
799	1.493777634958404	-3.810740336735112	-3.813367829004576	-3.814154789224932
800	1.504493061271704	-3.860716334041728	-3.863347581404268	-3.864157608624948
801	1.496900263072032	-3.898379917594008	-3.901006336979736	-3.901833530340192
802	1.4818348296511201	-3.873673014479532	-3.876293533004712	-3.877110533969676
803	1.479656339225172	-3.819104538340968	-3.821729348401092	-3.822523282365732
804	1.494074823753276	-3.8111458867873202	-3.813776597707992	-3.814564094370216
805	1.504117551964104	-3.8609212548353042	-3.863553038639712	-3.864362529418524
806	1.49657356997442	-3.897717411887028	-3.900345977040228	-3.901172097516948
807	1.482197464353888	-3.8745989131437	-3.877223186761956	-3.878041797052524
808	1.47932696391822	-3.819587336022168	-3.822211073198556	-3.823005007163196
809	1.493544282745824	-3.810493573475832	-3.8131232115127682	-3.813909635291256
810	1.50404352298632	-3.860857418253012	-3.863485983406212	-3.864297619952496
811	1.496404054344132	-3.8984984712468362	-3.90112328130696	-3.901953693318624
812	1.48170071918412	-3.874207847021928	-3.876829974872712	-3.877647512279544
813	1.479290485871196	-3.820108221075996	-3.822731421810516	-3.823527501542628
814	1.4935512564901081	-3.8111458867873202	-3.81377445194052	-3.81456570369582
815	1.504230204756384	-3.860390713827852	-3.863020888306656	-3.863833061294808
816	1.496853056187648	-3.897833819772384	-3.90046077559998	-3.90128957828604
817	1.481978596071744	-3.874765746564648	-3.877390020182904	-3.878207557589736
818	1.479278147708232	-3.819788501722668	-3.82241116601532	-3.823208318631168
819	1.493754031516212	-3.810747310479396	-3.813372656981388	-3.814164981620424
820	1.504243079361216	-3.860540917550892	-3.863171092029696	-3.863983265017848
821	1.496915819886204	-3.89768200672374	-3.900308426109468	-3.901136155911792
822	1.482493580265024	-3.874641292051272	-3.877265565669528	-3.8780825666344922
823	1.479549050851572	-3.820423112452512	-3.823047386070768	-3.823842392919144
824	1.493468644442436	-3.81044583014958	-3.81307439530278	-3.813864037732476
825	1.504422250945128	-3.859832277843264	-3.862464061647672	-3.863273552426484
826	1.497250023169968	-3.898176069684168	-3.9008040983955	-3.901629682430352
827	1.482208193191248	-3.874610714864796	-3.87723284271558	-3.878052525889884
828	1.479591429759144	-3.820066378610292	-3.822690652228548	-3.823484586193188
829	1.493778171400272	-3.810821875899048	-3.813450977494116	-3.8142390105982082
830	1.504114869754764	-3.859947612844884	-3.862576177998084	-3.8633867416606322
831	1.496857347722592	-3.897460992674124	-3.900087412059852	-3.9009135325365722
832	1.4824302801246	-3.875398747968888	-3.878020875819672	-3.878838949668372
833	1.479355931779092	-3.820400045452188	-3.823019491093632	-3.823815034383876
834	1.493398370557728	-3.8100842683305483	-3.812706396181332	-3.813498720820368
835	1.5042634641522	-3.859778097214596	-3.862407198809664	-3.86321829891408
836	1.496992531073328	-3.89814602893956	-3.900773521209024	-3.901601787453216
837	1.482203901656304	-3.874900929915384	-3.877523594208036	-3.878341131614868
838	1.479399920012268	-3.820757852178144	-3.823381052912664	-3.82417605976104
839	1.493251921927764	-3.810646459408212	-3.813275024561412	-3.8140646669911082
840	1.504101458708064	-3.859415998953696	-3.8620461734325002	-3.862856737095048
841	1.497073533795396	-3.897774274725036	-3.900401230552632	-3.9012273510293523
842	1.482300997634412	-3.875500671923808	-3.878125481983932	-3.878943019390764
843	1.479433179408084	-3.820198879751688	-3.8228210076024722	-3.823614941567112
844	1.4937223814460001	-3.810152932889652	-3.812777206507908	-3.8135700675888122
845	1.504251125989236	-3.859571567095416	-3.862199595806748	-3.863014987446108
846	1.497084799074624	-3.897577937001348	-3.900203819945208	-3.901032622631268
847	1.482638419569384	-3.875510327877432	-3.878131919286348	-3.878952675344388
848	1.479285121452516	-3.821145699648708	-3.823766218173888	-3.824561761464132
849	1.4929745814820081	-3.810108944656476	-3.812734291158468	-3.813524470030032
850	1.504149738476184	-3.859072676158176	-3.861701241311376	-3.862515560067
851	1.497209790029868	-3.898110623776272	-3.900737579603868	-3.901567991615532
852	1.482152939678844	-3.875443272643932	-3.878068082704056	-3.878888302320228
853	1.479256690033512	-3.8208243709697762	-3.8234486445880322	-3.824244724320144
854	1.4932438752997441	-3.810543999011424	-3.813169345513416	-3.813963815919924
855	1.503765109656828	-3.859247019765276	-3.8618782671278162	-3.862692049441572
856	1.49671840927878	-3.8976111963971642	-3.900239225108496	-3.901067491352688
857	1.4822827586109	-3.876443736727752	-3.879066937462272	-3.879886084194708
858	1.478939652889524	-3.821165011555956	-3.823790358057948	-3.82458375558072
859	1.492944004295532	-3.809769376954032	-3.812397942107232	-3.813187584536928
860	1.504044059428188	-3.858986309017428	-3.861615410612496	-3.862425437833176
861	1.497121813563516	-3.898029084612336	-3.900654967556196	-3.901484306684124
862	1.48241955128724	-3.875625662879052	-3.878247254287968	-3.879066937462272
863	1.479327500360088	-3.821323261907016	-3.823944316874064	-3.824742542373648
864	1.4930030129010121	-3.810124501470648	-3.812750384414508	-3.813542709053544
865	1.504184607197604	-3.858474007033488	-3.861103108628556	-3.861915818058576
866	1.4973734047996081	-3.897672350770116	-3.900295015062768	-3.901126499958168
867	1.4824876794044761	-3.8763713170755723	-3.878990226275148	-3.879815273868132
868	1.479311943545916	-3.820942924622604	-3.823563979589652	-3.824362205089236
869	1.493383886627292	-3.809744700628104	-3.812372192897568	-3.813162908211
870	1.504155102894864	-3.85880606454978	-3.861439457679792	-3.862246802691132
871	1.497214081564812	-3.897484059674448	-3.900114234153252	-3.900940354629972
872	1.482715130756508	-3.876297288097788	-3.878923171041648	-3.879739099122876
873	1.479243278986812	-3.821688042377256	-3.824311243111776	-3.825102494867076
874	1.492824377758968	-3.809569284137268	-3.812196776406732	-3.812984273068956
875	1.504092339196308	-3.8581483868196123	-3.860776415530944	-3.861584296984152
876	1.497310641101052	-3.898048396519584	-3.900673743021576	-3.901502009265768
877	1.482323528192868	-3.876276903306804	-3.878901713366928	-3.879719787215628
878	1.479135454171344	-3.821490631769832	-3.824114905388088	-3.824908839352728
879	1.492946686504872	-3.810088023423624	-3.812712833483748	-3.813503012355312
880	1.503867570053616	-3.8583162931242962	-3.860947004044968	-3.861755958381912
881	1.497248413844364	-3.8973322466258042	-3.899958666011532	-3.90078800513946
882	1.482761264757156	-3.8771067788766	-3.879726760959912	-3.880549126343556
883	1.478993833518192	-3.82177011798306	-3.82439063650824	-3.825185643356616
884	1.492688657966364	-3.809291943691512	-3.811913535100428	-3.812706396181332
885	1.504011872916108	-3.858089378214132	-3.860716870483596	-3.861530652797352
886	1.497253778263044	-3.897956128518288	-3.900582011462148	-3.901413496357548
887	1.482355714704948	-3.876662068568028	-3.87928473286068	-3.88010548891872
888	1.478902101958764	-3.8223585947122563	-3.824981259004908	-3.825777875178888
889	1.492587270453312	-3.809912606932788	-3.812538489876648	-3.813328668748212
890	1.504171196150904	-3.857586195741948	-3.860214760895148	-3.861025324557696
891	1.49764645371042	-3.897505517349168	-3.900131936734896	-3.90095966653722
892	1.482723177384528	-3.877191000249876	-3.879812055216924	-3.880634957042436
893	1.479194462776824	-3.821678386423632	-3.82429944139068	-3.82509605756466
894	1.493094208018572	-3.809278532644812	-3.8119022698212	-3.812694058018368
895	1.5041561757786	-3.85773049860444	-3.860358527315772	-3.861172846071396
896	1.497427585428276	-3.897261972741096	-3.89988946501056	-3.900718804138488
897	1.482906104061516	-3.877221577436352	-3.879843705287136	-3.880662852019572
898	1.479145110124968	-3.822492705179256	-3.825115905913776	-3.825912522087756
899	1.492555083941232	-3.809058055037064	-3.81168501086466	-3.812475726178092
900	1.504203382662984	-3.857104470944484	-3.85973410898142	-3.860543599760232
901	1.497697952129748	-3.897830601121176	-3.900457020506904	-3.901285286751096
902	1.482581020289508	-3.877046160945516	-3.879669898121904	-3.880487435528736
903	1.479098439682452	-3.822196052826252	-3.824818180677036	-3.825612114641676
904	1.492761077618544	-3.8095612375092482	-3.812188729778712	-3.812977299324672
905	1.503994170334464	-3.857174744829192	-3.859804382866128	-3.8606138736449402
906	1.497446897335524	-3.897058124831256	-3.899686153542588	-3.900512274019308
907	1.482904494735912	-3.877890520445748	-3.880513721180268	-3.881331795028968
908	1.478973448727208	-3.822380052386976	-3.82500218023776	-3.82579879641174
909	1.492685975757024	-3.808707222055392	-3.81133632365046	-3.812125966080156
910	1.504312280362188	-3.856976261338032	-3.859607508700572	-3.8604175359212523
911	1.497806849828952	-3.897453482487972	-3.900083656966776	-3.900910850327232
912	1.4828728446657	-3.877154522202852	-3.879778795821108	-3.88059901543728
913	1.479167640683424	-3.822803305020828	-3.825427042197216	-3.82622258548746
914	1.492486955823996	-3.809274777551736	-3.811902806263068	-3.812691375809028
915	1.504084829010156	-3.856553545146048	-3.859184792508588	-3.859995356171136
916	1.4979736832499	-3.897351558533052	-3.899977441476912	-3.900807853488576
917	1.4830294856911561	-3.8778443864451	-3.880465977854016	-3.881291025447
918	1.479101121891792	-3.822371469317088	-3.82499413360974	-3.825791822667456
919	1.49272191736218	-3.808999046431584	-3.811625465817312	-3.812417790456348
920	1.504104140917404	-3.856972506244956	-3.859602144281892	-3.86041270794444
921	1.497788074363572	-3.896976049225452	-3.899606223704256	-3.900430734855372
922	1.483330966020972	-3.877783768514016	-3.880408042132272	-3.881227188864708
923	1.479226649288904	-3.823086546327132	-3.825707064852312	-3.826505290351896
924	1.492443504032688	-3.808719560218356	-3.811345443162216	-3.81213830424312
925	1.504289749803732	-3.856188764675808	-3.858818939154612	-3.859630039259028
926	1.4979946044827521	-3.89749425206994	-3.9001179892463282	-3.900947328374256
927	1.482811690292748	-3.877706520885024	-3.880324893642732	-3.8811472590263763
928	1.4791123871710201	-3.822911129836296	-3.825529502594004	-3.826326655209852
929	1.492621602732864	-3.8091996756902162	-3.811823412866604	-3.812612518854432
930	1.503914240496132	-3.856352915887416	-3.858982553924352	-3.859792044703164
931	1.497646990152288	-3.896854276921416	-3.899481232749012	-3.900308962551336
932	1.4831544766464	-3.87869464680588	-3.8813178475404	-3.882136457830968
933	1.478979886029624	-3.823168621932936	-3.825791286225588	-3.826585756632096
934	1.492535235592116	-3.808384284050856	-3.811008557669112	-3.81180034586628
935	1.504259172617256	-3.85610239753506	-3.858728816920788	-3.859543135676412
936	1.497942569621556	-3.8972560718805482	-3.899882491266276	-3.90071290327794
937	1.483135164739152	-3.877963476539796	-3.880583995064976	-3.8814068968904882
938	1.479264200219664	-3.823547886333612	-3.82616894130066	-3.826967166800244
939	1.492581369592764	-3.808758184032852	-3.811381384767372	-3.81217317296454
940	1.504391137316784	-3.855416288385888	-3.8580437806553523	-3.8588543443179
941	1.498225274485992	-3.896931524550408	-3.899556334610532	-3.900386210180328
942	1.483161450390684	-3.878591113525356	-3.88121592358548	-3.882036143201652
943	1.479133308403872	-3.823088155652736	-3.825708674177916	-3.826506363235632
944	1.49270582410614	-3.80854414372752	-3.811169490229512	-3.811960741984812
945	1.504173878360244	-3.8559141064393923	-3.858543744476328	-3.859354308138876
946	1.497955980668256	-3.896719630012548	-3.899346049398276	-3.900176997851808
947	1.483389974626452	-3.878566973641296	-3.881190174375816	-3.882010393991988
948	1.478998125053136	-3.8238783345243	-3.826499389491348	-3.827296542107196
949	1.492278279937344	-3.808336004282736	-3.810964032994068	-3.8117542118656322
950	1.504369679642064	-3.855208685382972	-3.857838859861776	-3.858651032849928
951	1.49834651034816	-3.897127862274096	-3.899753745217956	-3.900585230113356
952	1.483084202761692	-3.8783899478248562	-3.881011539233772	-3.881833368175548
953	1.479122043124644	-3.823632107706888	-3.826254235557672	-3.8270519246153882
954	1.492542745778268	-3.808763548451532	-3.811388894953524	-3.812182292476296
955	1.504085365452024	-3.8551754259871562	-3.857805064024092	-3.858616700570376
956	1.498015525715604	-3.896495933753592	-3.899121816697452	-3.899949546499776
957	1.483424843347872	-3.879296534581776	-3.881918125990692	-3.882739954932468
958	1.478888154470196	-3.823764072406416	-3.826386736699068	-3.827183352873048
959	1.49223643747164	-3.80800233744084	-3.810628756826568	-3.8114183992562642
960	1.504296723548016	-3.8551931285688	-3.857822230163868	-3.858631184500812
961	1.498446288535608	-3.896928842341068	-3.899556334610532	-3.900386210180328
962	1.4836158166528801	-3.878553562594596	-3.881177836212852	-3.882002347363968
963	1.479355395337224	-3.824046240828984	-3.826669978005372	-3.827466594179352
964	1.492440821823348	-3.808354779748116	-3.81098227201758	-3.811772450889144
965	1.50432247275768	-3.854477515116888	-3.85710554382822	-3.8579155710489
966	1.498435559698248	-3.896794731874068	-3.899418469050456	-3.900249953945856
967	1.483319700741744	-3.879361980489672	-3.88198303545672	-3.882807010165968
968	1.47886562391174	-3.823973284734936	-3.826595949027588	-3.827393101643436
969	1.492190303470992	-3.808279141444728	-3.810906633714192	-3.811696276143888
970	1.503993097450728	-3.855022003612908	-3.857652178091712	-3.858462205312392
971	1.49821239988116	-3.896690662151676	-3.89931815442114	-3.900145347781596
972	1.483609915792332	-3.879333549070668	-3.881957822688924	-3.882779115188832
973	1.479055524333012	-3.824426041671528	-3.827049242406048	-3.8278474679056322
974	1.491959097025884	-3.808193310745848	-3.810817047922236	-3.811608836119404
975	1.50406766287038	-3.854538133047972	-3.857164015991832	-3.857975652538116
976	1.498531046350752	-3.896862323549436	-3.899486597167692	-3.9003143269700162
977	1.48341196874304	-3.8793120913959482	-3.881933146362996	-3.882756048188508
978	1.479079127775204	-3.824339138088912	-3.826961802381564	-3.827758418555544
979	1.49229276386778	-3.8082013573738682	-3.81082670387586	-3.811615809863688
980	1.504265073477804	-3.854366471650212	-3.856993427477808	-3.857801308931016
981	1.4985047606992201	-3.89638649961252	-3.899011846114512	-3.899839575916836
982	1.483711839747252	-3.8795910411673082	-3.882212632576224	-3.883034461518
983	1.479103804101132	-3.824464129044156	-3.827087329778676	-3.827887164603864
984	1.492051901469048	-3.807905241462732	-3.81053166084846	-3.811323985487496
985	1.50419104450002	-3.854181399205752	-3.856809427917084	-3.857621600905236
986	1.49838137906958	-3.896714802035736	-3.899340148537728	-3.900171633433128
987	1.483477951092804	-3.879728370285516	-3.882349961694432	-3.88317393640368
988	1.478988469099512	-3.824684070210036	-3.827305125177084	-3.828103887118536
989	1.492049219259708	-3.808086022372248	-3.810711905316108	-3.811503157071408
990	1.504245225128688	-3.854005446273048	-3.856632402100644	-3.8574461844144
991	1.49866301105028	-3.89642941496196	-3.8990563707895562	-3.899888928568692
992	1.48376065595724	-3.879820638286812	-3.882443839021332	-3.883266204404976
993	1.478942335098864	-3.824785994164956	-3.827409194899476	-3.828206883957192
994	1.491916718118312	-3.8079765882311762	-3.810606226268112	-3.811394259372204
995	1.504169050383432	-3.853866507829236	-3.856497218749908	-3.857304563761248
996	1.498604538886668	-3.896521682963256	-3.899149711674588	-3.899976368593176
997	1.483668924397812	-3.879932754637224	-3.882555955371744	-3.883374565662312
998	1.478802860213184	-3.824964092865132	-3.827588902925256	-3.828385519099236
999	1.491737010092532	-3.807949229695908	-3.8105751126397682	-3.811366900836936
1000	1.504025820404676	-3.853773703386072	-3.856401732097404	-3.857213905085556
1001	1.498541238746244	-3.896424586985148	-3.899049397045272	-3.899882491266276
1002	1.483662487095396	-3.8801376754308	-3.8827603397234522	-3.883583777990832
1003	1.478834510283396	-3.82506387105258	-3.8276859989033643	-3.828485833728552
1004	1.491725744813304	-3.807842477764176	-3.810468360708036	-3.811260148905204
1005	1.504015628009184	-3.853542496940964	-3.856171598536032	-3.856983235082316
1006	1.498560014211624	-3.89644014379932	-3.899064953859444	-3.8998959023129762
1007	1.483702183793628	-3.880315774130976	-3.882937365539892	-3.883761876691008
1008	1.478899419749424	-3.825311170753728	-3.827930616395172	-3.828732596987832
1009	1.491888286699308	-3.80775557418156	-3.81038145712542	-3.811173245322588
1010	1.504139009638824	-3.853293051472344	-3.855923762393016	-3.856732180288092
1011	1.498737040028064	-3.8962979867043	-3.898924406090028	-3.899753208776088
1012	1.483847023097988	-3.880416088760292	-3.883036607285472	-3.883860045552852
1013	1.478899419749424	-3.825390564150192	-3.828012155559108	-3.828811990384296
1014	1.491672637068372	-3.807708903739044	-3.810336396008508	-3.811127647763808
1015	1.504013482241712	-3.853077938283276	-3.855706503436476	-3.856516530657156
1016	1.498689296701812	-3.89621483821476	-3.898839111833016	-3.899666305193472
1017	1.483872772307652	-3.880521767808288	-3.883138531240392	-3.883960360182168
1018	1.478938580005788	-3.825497852523792	-3.828117834607104	-3.8289155236648202
1019	1.491756858441648	-3.807595714504896	-3.810219988123152	-3.811009630552848
1020	1.504020992427864	-3.852948655793088	-3.855577220946288	-3.856387248166968
1021	1.498570743048984	-3.896227712819592	-3.898854668647188	-3.899684007775116
1022	1.483771921236468	-3.880801790463384	-3.883422845430432	-3.884247893023416
1023	1.47866714042058	-3.825851904156672	-3.828472422681852	-3.829272793948908
1024	1.491530479973352	-3.80773679871618	-3.810363218101908	-3.811150714764132
1025	1.5040349399164321	-3.852837612326412	-3.855466177479612	-3.856273522490952
1026	1.498783174028712	-3.896177287284	-3.898802097344124	-3.899630363588316
1027	1.483842195121176	-3.880834513417332	-3.88345288617504	-3.884275788000552
1028	1.478758871980008	-3.825921641599512	-3.828544305892164	-3.829343067833616
1029	1.491591097904436	-3.807561382225344	-3.810185119401732	-3.810975298273296
1030	1.504060689126096	-3.852636446625912	-3.855263938895376	-3.856071283906716
1031	1.498863640308912	-3.89608877437578	-3.898713047994036	-3.89954077779636
1032	1.483965040308948	-3.881015294326848	-3.883637422177632	-3.884459787561276
1033	1.478788912724616	-3.82604555967102	-3.82866339598686	-3.829463230812048
1034	1.4913754482735	-3.8075994695979722	-3.810222133890624	-3.811013385645924
1035	1.503826800471648	-3.852514137880008	-3.8551405572657362	-3.855950584486416
1036	1.4987381129118	-3.89614241856258	-3.898767765064572	-3.899597640634368
1037	1.483819128120852	-3.881212704934272	-3.883832150575716	-3.884657734610568
1038	1.478684843002224	-3.826264964395032	-3.828884946478344	-3.829685854187268
1039	1.491388322878332	-3.807509347364148	-3.810134157424272	-3.810925409179572
1040	1.503758672354412	-3.852457275042	-3.855082621543992	-3.85589318520654
1041	1.498698416213568	-3.896182115260812	-3.898806925320936	-3.899636800890732
1042	1.4840626727289241	-3.8812389905858042	-3.883861118436588	-3.884687775355176
1043	1.478788376282748	-3.8263041246513962	-3.828924643176576	-3.829726087327368
1044	1.491452159460624	-3.807400449664944	-3.810025259725068	-3.810815438596632
1045	1.504053715381812	-3.852053334315396	-3.854684581677936	-3.85549353601488
1046	1.498728456958176	-3.8959219409548322	-3.8985510425499	-3.8993793087940922
1047	1.483816445911512	-3.88139563161126	-3.884019368787648	-3.884841197729424
1048	1.478618324210592	-3.82648812421212	-3.829109715621036	-3.829908477562488
1049	1.491230072527272	-3.807402595432416	-3.810027941934408	-3.810820266573444
1050	1.503860596309332	-3.8520683546877	-3.854699065608372	-3.855509092829052
1051	1.499000432985252	-3.8959916783976722	-3.898619170667136	-3.8994495826788
1052	1.484234870568552	-3.881461077519156	-3.884082668928072	-3.884906107195452
1053	1.478963792773584	-3.82646130211872	-3.829082893527636	-3.829880582585352
1054	1.491582514834548	-3.8071461762195122	-3.809774204930844	-3.810562774476804
1055	1.504073563730928	-3.851707865752404	-3.854338040231208	-3.8551469945681522
1056	1.499081972149188	-3.895854885721332	-3.89848130510706	-3.899313326444328
1057	1.484327138569848	-3.881498628449916	-3.8841229020681722	-3.884947949661156
1058	1.478897273981952	-3.826578782887812	-3.829203056506068	-3.830005037098728
1059	1.49141299920426	-3.807226642499712	-3.809849843234232	-3.810645386524476
1060	1.504066589986644	-3.851650466472528	-3.854276885858256	-3.855089595288276
1061	1.499136689219724	-3.895765836371244	-3.898392255756972	-3.899222131326768
1062	1.484078765984964	-3.881715350964588	-3.884340161024712	-3.885163599292092
1063	1.478588819907852	-3.826925860776408	-3.829549597952796	-3.830348896336116
1064	1.491027297501168	-3.807328566454632	-3.809951767189152	-3.810742482502584
1065	1.50378334868034	-3.85158823921584	-3.8542141221597	-3.855025222264116
1066	1.498921039588788	-3.895928914699116	-3.898554261201108	-3.899383600329036
1067	1.483995617495424	-3.882014685526932	-3.884637886261452	-3.8854618609707
1068	1.478528738418636	-3.827194081710408	-3.829814600235588	-3.830616580828248
1069	1.490983309267992	-3.8073838199670362	-3.810011848678368	-3.810801491108064
1070	1.503947499891948	-3.851448227888292	-3.854079475250832	-3.854889502471512
1071	1.499292257361444	-3.8956998540214802	-3.898327882732812	-3.899155076093268
1072	1.48444998375762	-3.881980889689248	-3.884601944656296	-3.885424846481808
1073	1.478929460494032	-3.827108251011528	-3.8297266237692362	-3.830528067920028
1074	1.491358818575592	-3.807037278520308	-3.809657797045488	-3.810450658126392
1075	1.504090729870704	-3.851016392184552	-3.8536449573377523	-3.854451229465356
1076	1.4992654352680441	-3.895564670670744	-3.898190017172736	-3.899017210533192
1077	1.48439902178016	-3.882095151807132	-3.88471620677418	-3.885539108599692
1078	1.47886562391174	-3.827270792897532	-3.829892384306448	-3.830692755573504
1079	1.491226853876064	-3.806983634333508	-3.809607371509896	-3.810398086823328
1080	1.503932479519644	-3.850894619880516	-3.853522648591848	-3.854331066486924
1081	1.499359849036812	-3.895507271390868	-3.898133154334728	-3.89896142057892
1082	1.484639347737024	-3.882094615365264	-3.884719425425388	-3.885544473018372
1083	1.478814125492412	-3.827294932781592	-3.8299202792835843	-3.830719577666904
1084	1.490996720314692	-3.8070415700552522	-3.809671208092188	-3.81045924119628
1085	1.503747407075184	-3.850869943554588	-3.853501727358996	-3.85431068169594
1086	1.498970392240644	-3.895733649859164	-3.8983632878961	-3.899192627024028
1087	1.4840975414503441	-3.882626229256452	-3.885253185084048	-3.886075014025824
1088	1.478499770557764	-3.827787922858284	-3.830411660034672	-3.831210958417992
1089	1.490776779148812	-3.807125791428528	-3.809750601488652	-3.810542926127688
1090	1.503655675515756	-3.850769628925272	-3.853399266962208	-3.85420875774102
1091	1.499179604569164	-3.895631189462376	-3.898256535964368	-3.899086411534164
1092	1.484476269409152	-3.882560246906688	-3.885181838315604	-3.886004740141116
1093	1.478811443283072	-3.827694045531384	-3.8303156369403	-3.831115471765488
1094	1.49099457454722	-3.806851133192112	-3.809477016135972	-3.810264512798196
1095	1.503681961167288	-3.850431670548432	-3.853060235701632	-3.853868653596708
1096	1.49921554617432	-3.895541067228552	-3.898168023056148	-3.898995216416604
1097	1.484492362665192	-3.882715815048408	-3.885340625108532	-3.886162990492176
1098	1.478780866096596	-3.827824937347176	-3.830448674523564	-3.831247436465016
1099	1.490999402524032	-3.80683557637794	-3.809459313554328	-3.810253247518968
1100	1.503908876077452	-3.8502535718482562	-3.852880527675852	-3.853691627780268
1101	1.49935770326934	-3.895346875272336	-3.897972758216196	-3.898801024460388
1102	1.484532595805292	-3.882789307584324	-3.885408753225768	-3.886232727935016
1103	1.4786719683973921	-3.827949391860552	-3.830565618850788	-3.831367599443448
1104	1.490867437824504	-3.8068463052153	-3.809467360182348	-3.810260221263252
1105	1.503773692726716	-3.850175251335528	-3.852801134279388	-3.853612770825672
1106	1.499342146455168	-3.895337219318712	-3.897960420053232	-3.8987929778323682
1107	1.484424234547956	-3.882935756214288	-3.885556811181336	-3.886382395216188
1108	1.478523910441824	-3.828190254259284	-3.830811309226332	-3.831611680493388
1109	1.490725280729484	-3.806899412960232	-3.8095263687878282	-3.8103154747756562
1110	1.503818753843628	-3.849996079751616	-3.852625717788552	-3.8534357450092322
1111	1.499417248316688	-3.8952251029683	-3.897853131679632	-3.898683543691296
1112	1.484542788200784	-3.882987791075484	-3.88561206469374	-3.886434966519252
1113	1.4787384871890241	-3.828261601027728	-3.830882655994776	-3.831680345052492
1114	1.490965606686348	-3.806656941235896	-3.809282824179756	-3.810072466609452
1115	1.503949109217552	-3.849642564560604	-3.852273275481276	-3.8530806204926162
1116	1.499640944575644	-3.89507489924526	-3.89770346439846	-3.898530657758916
1117	1.48472088690096	-3.883084887053592	-3.885710233555584	-3.886533135381096
1118	1.478480458650516	-3.828429507332412	-3.831052708066932	-3.831850933566516
1119	1.490572931238972	-3.806818946680032	-3.8094437567401562	-3.81023393561172
1120	1.503690007795308	-3.849711229119708	-3.852341403598512	-3.8531503579354562
1121	1.4994488983869	-3.895210082595996	-3.897839184191064	-3.898664231784048
1122	1.484599114596924	-3.883245819613992	-3.885870629674116	-3.886693531499628
1123	1.478476167115572	-3.828602241613908	-3.83122490590656	-3.832026350057352
1124	1.49065929837972	-3.806771739795648	-3.809398695623244	-3.810189410936676
1125	1.503781202912868	-3.849515427837888	-3.852146675200428	-3.852956702421108
1126	1.499471965387224	-3.895104939989868	-3.897731895817464	-3.898561234945392
1127	1.484520794084196	-3.8834035335231842	-3.886025661373968	-3.886849636083216
1128	1.478544295232808	-3.828826474314732	-3.83144752928178	-3.832248973432572
1129	1.490776242706944	-3.806659623445236	-3.809283360621624	-3.810075148818792
1130	1.504020455985996	-3.8492252127873	-3.851855923707972	-3.852664878044916
1131	1.499914529928324	-3.894751424798856	-3.897379989952056	-3.898207183312512
1132	1.484988571393092	-3.8832088051251	-3.885830932975884	-3.886655444127
1133	1.478965402099188	-3.8286145797768723	-3.831237244069524	-3.832039224662184
1134	1.490970971105028	-3.806380137232008	-3.809005483734	-3.809795126163696
1135	1.503970030450404	-3.849037994575368	-3.851664413961096	-3.85247336829804
1136	1.499838891624936	-3.89488714459146	-3.897514636860924	-3.898343975988852
1137	1.484724105552168	-3.883561247432376	-3.886186593934368	-3.887008959318012
1138	1.478560388488848	-3.829104887644224	-3.831727015495008	-3.832527386762064
1139	1.490538062517552	-3.806655331910292	-3.80928175129602	-3.8100713937257162
1140	1.503796223285172	-3.849068035319976	-3.851696064031308	-3.852506627693856
1141	1.499603930086752	-3.894933278592108	-3.897560770861572	-3.898392255756972
1142	1.484773994645892	-3.883735054597608	-3.886359864657732	-3.887183302925112
1143	1.478597939419608	-3.829147266551796	-3.831768857960712	-3.832571911437108
1144	1.490525724354588	-3.8065646732346	-3.809190019736592	-3.8099796621662883
1145	1.503860059867464	-3.848875452689364	-3.851505627168168	-3.852312972179508
1146	1.499882879858112	-3.8947364044265522	-3.897364433137884	-3.89819162649834
1147	1.4850320231844	-3.883713596922888	-3.886338406983012	-3.887163454575996
1148	1.478798032236372	-3.829238998111224	-3.831861125962008	-3.832663106554668
1149	1.4905976075649001	-3.806436463628148	-3.80906181013014	-3.809850916117968
1150	1.503789785982756	-3.848614205499648	-3.851243843536584	-3.852050652106056
1151	1.499871614578884	-3.894764835845556	-3.897392864556888	-3.898220057917344
1152	1.485156477697776	-3.883834296343188	-3.886456424193972	-3.887278789577616
1153	1.4786274437223481	-3.82932858390318	-3.831949638870228	-3.83275108302102
1154	1.4902623313974	-3.806558772374052	-3.809183582434176	-3.809975907073212
1155	1.503309670510896	-3.848682870058752	-3.851310898770084	-3.852118780223292
1156	1.499653282738608	-3.894824917334772	-3.897450800278632	-3.898277993639088
1157	1.485246063489732	-3.88396250594964	-3.886586243126028	-3.887408072067804
1158	1.478879571400308	-3.829348968694164	-3.831971632986816	-3.832772004253872
1159	1.490534307424476	-3.806284650579504	-3.808912142848968	-3.809699639511192
1160	1.503611150840712	-3.84831057940236	-3.850941290323032	-3.851750781101844
1161	1.499679031948272	-3.89475303412446	-3.897381062835792	-3.89821040196372
1162	1.484970868811448	-3.884278470209892	-3.886901134502544	-3.88772564565366
1163	1.478555024070168	-3.829752909420768	-3.832375037271552	-3.833178090747948
1164	1.490100325953264	-3.806502445977912	-3.809128328921772	-3.809916898467732
1165	1.503275874673212	-3.84840982114794	-3.851037849859272	-3.851846267754348
1166	1.4994086652468	-3.894844765683888	-3.897470648627748	-3.898301060639412
1167	1.48472625131964	-3.88451235886434	-3.887133950273256	-3.887961143633712
1168	1.478387654207352	-3.829990553168292	-3.832609998809736	-3.833411979402396
1169	1.490363182468584	-3.806449874674848	-3.809073611851236	-3.809865936490272
1170	1.503738824005296	-3.847942043839044	-3.850567926782904	-3.851380636212924
1171	1.499755206693528	-3.89438288923554	-3.897007699295664	-3.897840793516668
1172	1.484940291624972	-3.884449058723916	-3.887072259458436	-3.887898379935156
1173	1.478433251766132	-3.830035077843336	-3.832655596368516	-3.833457040519308
1174	1.489960851067584	-3.806495472233628	-3.809120282293752	-3.809910997607184
1175	1.503449145396576	-3.848042894910228	-3.8506719965052962	-3.85148095084224
1176	1.499760571112208	-3.894558842168244	-3.897184188670236	-3.898014064240032
1177	1.485048652882308	-3.884637349819584	-3.887256795461028	-3.888082915937748
1178	1.478540003697864	-3.8301863544501122	-3.832805800091556	-3.833611535777292
1179	1.490194203280164	-3.806314154882244	-3.808937892058632	-3.8097291438139322
1180	1.503606859305768	-3.847740878138544	-3.850368906849876	-3.851176251861216
1181	1.499936524044912	-3.894368941746972	-3.896994288248964	-3.89782148160942
1182	1.48517149807008	-3.884630912517168	-3.887251967484216	-3.888076478635332
1183	1.4784874323948	-3.830258237660424	-3.832880901953076	-3.833681809662
1184	1.48988950429914	-3.806359215999156	-3.808983489617412	-3.809776350698316
1185	1.503200236369824	-3.847784329929852	-3.850412895083052	-3.851223995187468
1186	1.499587300388844	-3.894581909168568	-3.897209401438032	-3.898037131240356
1187	1.484752536971172	-3.885053628709152	-3.887679511653012	-3.888505632129732
1188	1.47809046541248	-3.830803262598312	-3.8334253904490962	-3.83422898036736
1189	1.489683510621828	-3.806616708095796	-3.8092409817140522	-3.810032233469352
1190	1.503334883278692	-3.84768026020746	-3.850309361802528	-3.851116706813868
1191	1.499871078137016	-3.894375379049388	-3.897002334876984	-3.897831137563044
1192	1.485216022745124	-3.884966725126536	-3.887589389419188	-3.888415509895908
1193	1.478463828952608	-3.830670225015048	-3.833289670656492	-3.834092724132888
1194	1.489968897695604	-3.806334539673228	-3.808960959058956	-3.809752210814256
1195	1.503403547837796	-3.847340156063148	-3.849971403425688	-3.850778748437028
1196	1.499830844996916	-3.894309396699624	-3.896937425410956	-3.897767300980752
1197	1.484961749299692	-3.885218852804496	-3.887843126422752	-3.88866978334134
1198	1.478123188366428	-3.831012474926832	-3.833632993452012	-3.834437119812144
1199	1.489651324109748	-3.806476696768248	-3.809100433944636	-3.809892222141804
1200	1.503242078835528	-3.847352494226112	-3.849980522937444	-3.850787867948784
1201	1.499941352021724	-3.894306178048416	-3.896933133876012	-3.897760863678336
1202	1.485272885583132	-3.885214024827684	-3.887836689120336	-3.8886612002714522
1203	1.478335619346156	-3.831007110508152	-3.833628701917068	-3.834430682509728
1204	1.489678146203148	-3.806329711696416	-3.808953985314672	-3.809745237069972
1205	1.503082755600732	-3.847218383759112	-3.849848558237916	-3.850658585458596
1206	1.499706926925408	-3.8943592857933482	-3.896986778062812	-3.897815580748872
1207	1.48503738760308	-3.885480099994212	-3.888105982938072	-3.888932103414792
1208	1.478200972437288	-3.831259238186112	-3.833884584688104	-3.834688174606368
1209	1.489544035736148	-3.80639569404618	-3.809022649873776	-3.809816047396548
1210	1.503184679555652	-3.847069252919808	-3.849697818073008	-3.85050730885182
1211	1.499851766229768	-3.894197280349212	-3.89682638194428	-3.897654648188472
1212	1.484974623904524	-3.885590070577152	-3.8882143441954082	-3.889039391788392
1213	1.477853358106824	-3.831464695421556	-3.834087896156076	-3.834887194539396
1214	1.489225925708424	-3.8065110290478	-3.809133693340452	-3.809924945095752
1215	1.503216329625864	-3.846927095824788	-3.849556197419856	-3.850364078873064
1216	1.5001907974903441	-3.893975729857728	-3.896604831452796	-3.897430951929516
1217	1.485383929049808	-3.885461324528832	-3.888086671030824	-3.88891118218194
1218	1.478452027231512	-3.831361162141032	-3.83398489931742	-3.834787416351948
1219	1.48984927115904	-3.806069000948568	-3.808693811008692	-3.809484526322124
1220	1.503334883278692	-3.846448589678532	-3.849078227715468	-3.849883963401204
1221	1.500033083581152	-3.893860394856108	-3.896487887125572	-3.897316689811632
1222	1.485425235073644	-3.88564156899648	-3.888264233289132	-3.889091963091456
1223	1.478322744741324	-3.831559645632192	-3.834181773482976	-3.834983754075636
1224	1.489569248503944	-3.806185945275792	-3.8088134375452563	-3.8096025435330843
1225	1.503202918579164	-3.846442688817984	-3.849070717529316	-3.849879135424392
1226	1.500021818301924	-3.893909211066096	-3.896534557568088	-3.897364433137884
1227	1.485275031350604	-3.8857708514866682	-3.888394052221188	-3.889221245581644
1228	1.478143036715544	-3.831706630704024	-3.834328758554808	-3.8351302027056002
1229	1.4891905205451361	-3.80618379950832	-3.808810755335916	-3.809601470649348
1230	1.502797368526956	-3.846429814213152	-3.849059452250088	-3.849867870145164
1231	1.499675813297064	-3.894067997859024	-3.896694417244752	-3.897525902140152
1232	1.485088886022408	-3.886019224071552	-3.888641351922336	-3.8894696181665283
1233	1.478290558229244	-3.831917452358148	-3.834537970883328	-3.835341560801592
1234	1.489486100014404	-3.80614624857756	-3.808769985753948	-3.809561773951116
1235	1.5030967030893	-3.846137453395092	-3.848767091432028	-3.849572290675896
1236	1.499903801090964	-3.893812651529856	-3.896439607357452	-3.897266800717908
1237	1.485243381280392	-3.886040681746272	-3.888662809597056	-3.889487320748172
1238	1.478166640157736	-3.832095551058324	-3.83471982467658	-3.8355191230599
1239	1.489262403755448	-3.806141957042616	-3.808768912870212	-3.809556945974304
1240	1.5029223594822	-3.846085418533896	-3.848716129454568	-3.849524010907776
1241	1.499770227065832	-3.893905992414888	-3.896534557568088	-3.897363360254148
1242	1.485229970233692	-3.886243993214244	-3.888866657506896	-3.88969170509988
1243	1.478298068415396	-3.832118618058648	-3.834739673025696	-3.835542726502092
1244	1.489360572617292	-3.80601213811056	-3.808640166821892	-3.809430345693456
1245	1.502908411993632	-3.845860112949336	-3.848491360311876	-3.849296023113876
1246	1.499895218021076	-3.893762762436132	-3.896392936914936	-3.897218520949788
1247	1.485231579559296	-3.886379713006848	-3.8890023772995	-3.889827961334352
1248	1.478070617063364	-3.832452821342412	-3.835078167844404	-3.8358812213208
1249	1.489252747801824	-3.80618111729898	-3.808810218894048	-3.809599861323744
1250	1.502962056180432	-3.8457281482498082	-3.848359395612348	-3.849166740623688
1251	1.499874833230092	-3.893739695435808	-3.896369869914612	-3.897197063275068
1252	1.485437573236608	-3.886554056613948	-3.889178866674072	-3.8900017684995842
1253	1.47827553785694	-3.832459258644828	-3.83508192293748	-3.835881757762668
1254	1.489421190548376	-3.806064172971756	-3.80869166524122	-3.80948023478718
1255	1.503173950718292	-3.845625151411152	-3.84825425300622	-3.849059452250088
1256	1.500137153303544	-3.893568034038048	-3.896193916981908	-3.897021646784232
1257	1.485431135934192	-3.886567467660648	-3.889191204837036	-3.890015715988152
1258	1.478427350905584	-3.832696902392352	-3.835322785336212	-3.8361220837195322
1259	1.489715697133908	-3.805895730225204	-3.8085216131690642	-3.80931125559876
1260	1.50334614855792	-3.845202435219168	-3.847828854604896	-3.848636199616236
1261	1.500275555305488	-3.89346020922258	-3.896083946398968	-3.89691221264316
1262	1.485485853004728	-3.886680120452928	-3.889300638978108	-3.890124613687356
1263	1.478125870575768	-3.832854079859676	-3.83547352550112	-3.836274969651912
1264	1.489030660868472	-3.806137665507672	-3.808759793358456	-3.809549435788152
1265	1.502847794062548	-3.8454078924546122	-3.848035384724076	-3.848842729735416
1266	1.500063660767628	-3.893557305200688	-3.89618265170268	-3.897012527272476
1267	1.485440255445948	-3.886875921734748	-3.889499122469268	-3.890325242945988
