0	1.616593854869532	-3.75317797853124	-3.755833902219708	-3.756609060718968
1	1.623456019244988	-3.714508030034592	-3.717167172374268	-3.717927846943092
2	1.636637468825484	-3.743325687183552	-3.74598965750004	-3.746760524464356
3	1.63703819090088	-3.797031564798372	-3.799690707138048	-3.8004846411026882
4	1.625286358898604	-3.803422196771856	-3.806075974692852	-3.8068736637505682
5	1.616248922748408	-3.753321208509996	-3.755974449989124	-3.756751217813988
6	1.623118060868148	-3.714760157712552	-3.717415544959152	-3.718177292411712
7	1.636436839566852	-3.743582106396456	-3.746241248736132	-3.747015334351656
8	1.636903007550144	-3.7972042990798682	-3.799861295652072	-3.800657911826052
9	1.625211257037084	-3.803472622307448	-3.806125327344708	-3.806923016402424
10	1.616130905537448	-3.753311552556372	-3.7559669398029722	-3.7567431711859682
11	1.623211938195048	-3.714791807782764	-3.717449340796836	-3.718210551807528
12	1.63666268159328	-3.743561721605472	-3.7462214003870162	-3.746996022444408
13	1.63707037741296	-3.797135098078896	-3.799794240418572	-3.8005892472669482
14	1.6251967731066481	-3.803336366072976	-3.805991753319576	-3.806790515261028
15	1.6162054709571	-3.753235377811116	-3.75588700996464	-3.756664314231372
16	1.623162585543192	-3.714781615387272	-3.717437002633872	-3.71819660431896
17	1.636454005706628	-3.743694222746868	-3.746354974412148	-3.747125841376464
18	1.6369512873182641	-3.7972305847314	-3.799890799954812	-3.800683661035716
19	1.6251908722461	-3.803338511840448	-3.805990143993972	-3.806788369493556
20	1.616216736236328	-3.753123797902572	-3.755778112265436	-3.75655219788096
21	1.623277920544812	-3.71470704996762	-3.717362973656088	-3.718120966015572
22	1.636559684754624	-3.743737138096308	-3.7463957439941162	-3.7471692931677723
23	1.636886914294104	-3.797235412708212	-3.799895091489756	-3.800689025454396
24	1.625213402804556	-3.803286476979252	-3.805941864225852	-3.806739553283568
25	1.616239266794784	-3.753024556156992	-3.755678334077988	-3.756456174786588
26	1.623194772055272	-3.714672717688068	-3.71733025070214	-3.718089852387228
27	1.6366122560576881	-3.743796146701788	-3.746455825483332	-3.747228301773252
28	1.636972744992984	-3.79730836880226	-3.799964828932596	-3.800761445106576
29	1.625201064641592	-3.803202792047844	-3.805857642852576	-3.806655331910292
30	1.616312222888832	-3.752866305805932	-3.755523302378136	-3.756298460877396
31	1.623333174057216	-3.714590105640396	-3.717248175096336	-3.718008313223292
32	1.636578460220004	-3.743794000934316	-3.746455825483332	-3.747228301773252
33	1.636747439408424	-3.797322852732696	-3.799980922188636	-3.800777001920748
34	1.624977368382636	-3.80338357295736	-3.80603627799462	-3.806836112819808
35	1.616076188466912	-3.753030993459408	-3.755686380706008	-3.756463148530872
36	1.623116451542544	-3.714800390852652	-3.717455778099252	-3.718216452668076
37	1.636508186335296	-3.744011796332724	-3.746669329346796	-3.7474418056367162
38	1.636988301807156	-3.797409756315312	-3.8000662164456482	-3.800862832619628
39	1.625228959618728	-3.803153439395988	-3.805807753758852	-3.806607052142172
40	1.61626984398126	-3.752827681991436	-3.755482532796168	-3.756259300621032
41	1.623221057706804	-3.714658233757632	-3.717317912539176	-3.718076977782396
42	1.636465807427724	-3.744016624309536	-3.746678448858552	-3.74745146159034
43	1.636767824199408	-3.797475738665076	-3.80013541744662	-3.8009320336206
44	1.625104505105352	-3.803217812420148	-3.80587266322488	-3.806671425166332
45	1.616203325189628	-3.75285611341044	-3.755512573540776	-3.7562898778075082
46	1.623250562009544	-3.714705977083884	-3.717366192307296	-3.718127403317988
47	1.636494775288596	-3.744089580403584	-3.746751941394468	-3.747524954126256
48	1.636829515014228	-3.797522409107592	-3.800180478563532	-3.800976558295644
49	1.625009554894716	-3.803219421745752	-3.805876418317956	-3.806675180259408
50	1.616200642980288	-3.752842165921872	-3.755497016726604	-3.756276466760808
51	1.623222667032408	-3.714706513525752	-3.717362973656088	-3.718124721108648
52	1.636603136545932	-3.744157172078952	-3.746815241534892	-3.747588790708548
53	1.637017269668028	-3.797469837804528	-3.80013005302794	-3.8009250598763162
54	1.625310498782664	-3.803002162789212	-3.805657550035812	-3.8064552390935282
55	1.616446333355832	-3.752594329778856	-3.755249180583588	-3.756024339082848
56	1.623541849943868	-3.714549872500296	-3.71720955128184	-3.717966470757588
57	1.636784990339184	-3.7439302571687882	-3.746594227485276	-3.747363485123988
58	1.637092371529548	-3.797382934221912	-3.800043685887192	-3.800837619851832
59	1.6254408541565881	-3.80294100841626	-3.805594786337256	-3.806394084720576
60	1.616608338799968	-3.752453245567572	-3.755107023488568	-3.755885937080904
61	1.623645383224392	-3.714467260452624	-3.71712372058296	-3.717886004477388
62	1.636809666665112	-3.744050956589088	-3.746710635370632	-3.747486866753628
63	1.636893888038388	-3.797556741387144	-3.800216420168688	-3.80101518211014
64	1.625108796640296	-3.803145929209836	-3.805801852898304	-3.806600078397888
65	1.6162215642131401	-3.7526168603373122	-3.755272247583912	-3.75605330694372
66	1.623244124707128	-3.71471777880498	-3.717375311819052	-3.718139741480952
67	1.636371930100824	-3.744334197895392	-3.746993876676936	-3.747770108059932
68	1.636518378730788	-3.797824425879276	-3.800483568218952	-3.801281257276668
69	1.624745089053792	-3.803347094910336	-3.806004627924408	-3.806804462749596
70	1.615965681442104	-3.752806760758584	-3.755462684447052	-3.756241598039388
71	1.623018819122568	-3.714868518969888	-3.717526588425828	-3.718289408762124
72	1.636299510448644	-3.744580961154672	-3.747240639936216	-3.748016871319212
73	1.636529107568148	-3.797900600624532	-3.800558670080472	-3.801356895580056
74	1.624776202682136	-3.803269847281344	-3.80592362520234	-3.806726142236868
75	1.616127150444372	-3.752607740825556	-3.755258836537212	-3.756040968780756
76	1.623271483242396	-3.714711877944432	-3.717365655865428	-3.71812954908546
77	1.6363746123101641	-3.744467235478656	-3.747125841376464	-3.747898854108252
78	1.6365768508944	-3.797880752275416	-3.800538821731356	-3.801335437905336
79	1.6248958292187	-3.803170069093896	-3.805822774131156	-3.8066231453982122
80	1.616295593190924	-3.752470411707348	-3.755122043860872	-3.75590042101134
81	1.623413640337416	-3.714667353269388	-3.71732488628346	-3.718087170177888
82	1.636651416314052	-3.74448225585096	-3.747144616841844	-3.747917629573632
83	1.6367200808731561	-3.797848565763336	-3.800507708103012	-3.801302714951388
84	1.624892074125624	-3.803123935093248	-3.805777713014244	-3.806574865630092
85	1.616126077560636	-3.752473630358556	-3.755124726070212	-3.75590310322068
86	1.62323017721856	-3.714730653409812	-3.717386040656412	-3.718148860992708
87	1.6363622741472	-3.744644261295096	-3.747304476518508	-3.748076952808428
88	1.636641760360428	-3.797968728741768	-3.800627334639576	-3.801420732162348
89	1.624821263799048	-3.803066535813372	-3.805720313734368	-3.806517466350216
90	1.616024690047584	-3.752417303962416	-3.755069472557808	-3.755847849708276
91	1.623299378219532	-3.714742991572776	-3.717399451703112	-3.718159589830068
92	1.636530180451884	-3.74461636631796	-3.747278190866976	-3.74804959427316
93	1.636703451175248	-3.797932787136612	-3.800593538801892	-3.801388545650268
94	1.624913531800344	-3.803019328928988	-3.805674716175588	-3.8064707959077
95	1.616188304817324	-3.7522874850303602	-3.754942335835092	-3.755715885008748
96	1.623370188546108	-3.714701149107072	-3.71735975500488	-3.7181172109224963
97	1.636561294080228	-3.744716144505408	-3.747375286845084	-3.748147226693136
98	1.636728127501176	-3.798000915253848	-3.800661666919128	-3.801455600883768
99	1.624916750451552	-3.802988751742512	-3.805646821198452	-3.80644129160496
100	1.616186159049852	-3.752276219751132	-3.754933216323336	-3.75570730193886
101	1.6233937919883	-3.714702758432676	-3.717361364330484	-3.718119893131836
102	1.6366755561981121	-3.744759596296716	-3.747421420845732	-3.748192287810048
103	1.636749585175896	-3.797963364323088	-3.8006241159883682	-3.8014196592786123
104	1.624821263799048	-3.802963538974716	-3.805617316895712	-3.8064171517209
105	1.616103010560312	-3.75224456968092	-3.75489727471818	-3.755675651868648
106	1.623363751243692	-3.714688810944108	-3.717345807516312	-3.718109164294476
107	1.636562366963964	-3.744794465018136	-3.747455216683416	-3.748228229415204
108	1.636569340708248	-3.798080308650312	-3.800739987431856	-3.801537140047704
109	1.624688226215784	-3.803046151022388	-3.805700465385252	-3.806500836652308
110	1.615995185744844	-3.752340592775292	-3.75499651646376	-3.755772211404888
111	1.623198527148348	-3.71483847822528	-3.717497084123088	-3.718256149366308
112	1.63642664717136	-3.744947350950516	-3.74760702973206	-3.748377896696376
113	1.6365232067076	-3.7982090546986322	-3.800869269922044	-3.801662667444816
114	1.624777275565872	-3.803027375557008	-3.8056854450129483	-3.806482597628796
115	1.615981774698144	-3.752237059494768	-3.754891373857632	-3.7556686781243642
116	1.62312288884496	-3.714890513086476	-3.717545363891208	-3.7183071113437682
117	1.636440594659928	-3.745018161277092	-3.747677840058636	-3.748450316348556
118	1.636672873988772	-3.7980824544177842	-3.800742669641196	-3.801538749373308
119	1.624833065520144	-3.802887900671328	-3.805544897243532	-3.806340440533776
120	1.616058485885268	-3.752114214306996	-3.754770674437332	-3.755544223610988
121	1.6233669698949	-3.714772495875516	-3.717431638215192	-3.718189094132808
122	1.636566658498908	-3.7449350127875523	-3.747595228010964	-3.748364485649676
123	1.636728127501176	-3.798159165604908	-3.800815625735244	-3.801611169025488
124	1.625000971824828	-3.802898629508688	-3.805551334545948	-3.806348487161796
125	1.616249995632144	-3.752031065817456	-3.754681625087244	-3.755458929353976
126	1.623457628570592	-3.714708122851356	-3.717362973656088	-3.718124721108648
127	1.636806448013904	-3.744937694996892	-3.74759898310404	-3.748370922952092
128	1.636863310851912	-3.798102839208768	-3.80076305443218	-3.801558597722424
129	1.624916214009684	-3.802818699670356	-3.8054762326844283	-3.806272848858408
130	1.616204934515232	-3.751961864816484	-3.754616179179348	-3.755390264794872
131	1.623431879360928	-3.714688810944108	-3.717345271074444	-3.71810272699206
132	1.636574705126928	-3.745094336022348	-3.747755087687628	-3.748528100419416
133	1.636639078151088	-3.798262162443564	-3.800919159015768	-3.801717384515352
134	1.624908703823532	-3.802803142856184	-3.805457457219048	-3.806255682718632
135	1.616348164493988	-3.751871206140792	-3.754522301852448	-3.755300142561048
136	1.623630899293956	-3.7146689625949922	-3.717323276957856	-3.718085024410416
137	1.636750121617764	-3.745063222394004	-3.747726119826756	-3.748495913907336
138	1.636722763082496	-3.798251433606204	-3.800910039504012	-3.801706119236124
139	1.624774056914664	-3.802773102111576	-3.805427952916308	-3.806226178415892
140	1.615979628930672	-3.751927532536932	-3.754584529109136	-3.755359151166528
141	1.623215693288124	-3.714911434319328	-3.717571113100872	-3.718330178344092
142	1.63640787170598	-3.745357728979536	-3.748020626412288	-3.748794712027812
143	1.6364727811720081	-3.798445089120552	-3.801103158576492	-3.801898701866736
144	1.624686080448312	-3.802909358346048	-3.805564745592648	-3.806361361766628
145	1.616094963932292	-3.751928605420668	-3.754581846899796	-3.755357005399056
146	1.623488205757068	-3.714793417108368	-3.71745095012244	-3.7182089424819242
147	1.636631031523068	-3.745224691396272	-3.747888125270892	-3.748660065118944
148	1.636514087195844	-3.798387689840676	-3.801046832180352	-3.801842375470596
149	1.624599713307564	-3.802828892065848	-3.8054853521961842	-3.806281431928296
150	1.6159774831632001	-3.751914121490232	-3.7545700451787	-3.755343057910488
151	1.623399692848848	-3.714911970761196	-3.717567358007796	-3.718329105460356
152	1.636656244290864	-3.7453625569563482	-3.7480216992960242	-3.748797394237152
153	1.636683066384264	-3.798368914375296	-3.801028056714972	-3.801823600005216
154	1.624814826496632	-3.802697463808188	-3.8053523146129202	-3.8061489307869
155	1.616199570096552	-3.751694180324352	-3.754349031129084	-3.755124726070212
156	1.623572963572212	-3.714720997456188	-3.717379603353996	-3.718141350806556
157	1.636747975850292	-3.745306767002076	-3.747969664434828	-3.748744822934088
158	1.636679311291188	-3.798404855980452	-3.801065607645732	-3.801861687377844
159	1.624766546728512	-3.802710874854888	-3.805368944310828	-3.806166096926676
160	1.616239266794784	-3.751620687788436	-3.7542776843606402	-3.7550539157436362
161	1.623648065433732	-3.71468022787422	-3.717338833772028	-3.718098971898984
162	1.636781235246108	-3.745308912769548	-3.747971273760432	-3.748744822934088
163	1.636790891199732	-3.798422558562096	-3.801085455994848	-3.801883681494432
164	1.624992925196808	-3.802611633109308	-3.80526916612338	-3.8060684645067
165	1.616282718586092	-3.751534857089556	-3.754191317219892	-3.75496969437036
166	1.623603540758688	-3.714714560153772	-3.717374238935316	-3.718135986387876
167	1.636730809710516	-3.745435513050396	-3.748098410483148	-3.748871423214936
168	1.6367485122921601	-3.79845635439978	-3.801116569623192	-3.801914258680908
169	1.62474294328632	-3.80261377887678	-3.805270775448984	-3.8060684645067
170	1.616145389467884	-3.7515488045781242	-3.754204191824724	-3.75498042320772
171	1.623547214362548	-3.7147038313164122	-3.717361364330484	-3.718123111783044
172	1.636718471547552	-3.745479501283572	-3.748141325832588	-3.7489154114481122
173	1.636693795221624	-3.798510535028448	-3.801171823135596	-3.801968439309576
174	1.624785322193892	-3.802581055922832	-3.805237516053168	-3.806035741552752
175	1.616230683724896	-3.751487650205172	-3.7541446467773762	-3.754919268834768
176	1.623695808759984	-3.71469363892092	-3.717353317702464	-3.71811345582942
177	1.637001176411988	-3.745511151353784	-3.748173512344668	-3.748946525076456
178	1.63700063997012	-3.798441334027476	-3.801099939925284	-3.801896019657396
179	1.625171023896984	-3.802391691943428	-3.805045469864424	-3.805842622480272
180	1.616494613123952	-3.751245178480836	-3.753897347076228	-3.754674114901092
181	1.623811680203472	-3.714565965756336	-3.717224035212276	-3.717984173339232
182	1.6369577246206801	-3.745490230120932	-3.748150981786212	-3.748925603843604
183	1.636947532225188	-3.798422022120228	-3.801081164459904	-3.801878317075752
184	1.625048178709212	-3.802480741293516	-3.805135592098248	-3.805935426923436
185	1.6163395814241	-3.75133530071466	-3.753990151519392	-3.754767992227992
186	1.623662549364168	-3.714657697315764	-3.71731683965544	-3.7180759048986602
187	1.636734028361724	-3.745628095681008	-3.748289920230024	-3.749061860078076
188	1.636553247452208	-3.798632307332484	-3.801290376788424	-3.802087529404272
189	1.624558407283728	-3.802640064528312	-3.805291696681836	-3.80609260439076
190	1.615901844859812	-3.75152305536846	-3.754176833289456	-3.75495360111432
191	1.623387354685884	-3.714911970761196	-3.717570040217136	-3.718326423251016
192	1.6365768508944	-3.7458791504752322	-3.748540975024248	-3.749312378430432
193	1.636560221196492	-3.798740132147952	-3.801399274487628	-3.802194817777872
194	1.624637800680192	-3.802553160945696	-3.805206938866692	-3.806007310133748
195	1.616035418884944	-3.751406111041236	-3.754058816078496	-3.7548382661127
196	1.623502689687504	-3.714879784249116	-3.717537853705056	-3.71829852827388
197	1.636677165523716	-3.745777226520312	-3.748436905301856	-3.74921099091738
198	1.636546273707924	-3.798685415077416	-3.80134509385896	-3.802143855800412
199	1.624556261516256	-3.802594466969532	-3.805251463541736	-3.806050225483188
200	1.616034882443076	-3.75137285164542	-3.754025020240812	-3.754803933833148
201	1.623501616803768	-3.71475801194508	-3.7174133991916802	-3.718175683086108
202	1.636665900244488	-3.745840526660736	-3.74850020544228	-3.749274827499672
203	1.636605282313404	-3.798674686240056	-3.801332755695996	-3.80213098119558
204	1.624742406844452	-3.8024335344091322	-3.805087848771996	-3.805886610713448
205	1.61615987339832	-3.751136280781632	-3.753791668028232	-3.754567899411228
206	1.623546141478812	-3.7146855922929	-3.717344734632576	-3.718107018527004
207	1.6367104249195321	-3.745931185336428	-3.748593009885444	-3.749367095500968
208	1.636691113012284	-3.798837764567928	-3.801495834023868	-3.802291377314112
209	1.624859887613544	-3.802379353780464	-3.80503313170146	-3.805832966526648
210	1.616192596352268	-3.751059569594508	-3.7537133475155042	-3.754491724665972
211	1.623735505458216	-3.714658233757632	-3.717316303213572	-3.718078587108
212	1.6368531184564201	-3.74585018261436	-3.74851093427964	-3.749287702104504
213	1.636517305847052	-3.798793776334752	-3.80144970002322	-3.802250607732144
214	1.624539631818348	-3.802457137851324	-3.805113061539792	-3.805911287039376
215	1.616084235094932	-3.7510295288499	-3.753687061863972	-3.754459001712024
216	1.623673814643396	-3.714672717688068	-3.717331860027744	-3.7180919981547
217	1.636715789338212	-3.74601916180278	-3.748680986351796	-3.749454535525452
218	1.636282344308868	-3.79890428335956	-3.801563425699236	-3.802360041873216
219	1.624353486490152	-3.802520437991748	-3.805175825238348	-3.8059735142960642
220	1.615984993349352	-3.751197435154584	-3.7538528224011842	-3.754632808877256
221	1.623492497292012	-3.71478751624782	-3.717443976378156	-3.718206796714452
222	1.6367200808731561	-3.746096409431772	-3.74875769753892	-3.74953285603818
223	1.63653125333562	-3.798857076475176	-3.8015178281404562	-3.802314444314436
224	1.624476868119792	-3.802364869850028	-3.80501972065476	-3.80581901903808
225	1.616074579141308	-3.75111267733944	-3.7537675281441722	-3.754544295969036
226	1.623602467874952	-3.714840623992752	-3.717498693448692	-3.718259368017516
227	1.636693795221624	-3.746226764805696	-3.748887516470976	-3.749661065644632
228	1.63657148647572	-3.798904819801428	-3.801562889257368	-3.802357896105744
229	1.624713975425448	-3.802307470570152	-3.80496071204928	-3.8057600104326
230	1.616236048143576	-3.750868059847632	-3.753522910652364	-3.754298605593492
231	1.623934525391244	-3.7146056624545682	-3.717264268352376	-3.718023870037464
232	1.637054820598788	-3.745943523499392	-3.748604275164672	-3.74937728789646
233	1.636622984895048	-3.798686487961152	-3.801346166742696	-3.80214171003294
234	1.624441462956504	-3.8020628530783442	-3.804718776766812	-3.805517002266396
235	1.616175430212492	-3.75083640977742	-3.7534885783728122	-3.754267491965148
236	1.623820799715228	-3.714794489992104	-3.71745095012244	-3.718209478923792
237	1.6368531184564201	-3.7461581002465922	-3.748817779028136	-3.749590255318056
238	1.636509259219032	-3.799013181058764	-3.801670714072836	-3.802466793804948
239	1.624443072282108	-3.802315517198172	-3.804971977328508	-3.80576805706062
240	1.616075652025044	-3.75085250303346	-3.753506280954456	-3.75428304877932
241	1.623782175900732	-3.714737090712228	-3.717394087284432	-3.718154761853256
242	1.636889596503444	-3.746355510854016	-3.749018408286768	-3.749790884576688
243	1.636348326658632	-3.79911349568808	-3.801775320237096	-3.802571936411076
244	1.624283212605444	-3.802390082617824	-3.805047615631896	-3.805845304689612
245	1.616000550163524	-3.750787593567432	-3.7534408350465602	-3.754217602871424
246	1.623729604597668	-3.714786979805952	-3.717442367052552	-3.718204114505112
247	1.636840243851588	-3.746578134229236	-3.7492383494526482	-3.750012435068172
248	1.636401970845432	-3.799331827528356	-3.8019931156355042	-3.8027886589257482
249	1.624399084048932	-3.802354141012668	-3.8050100647011362	-3.805806144433248
250	1.61621083537578	-3.750693716240532	-3.7533491034871322	-3.754126944195732
251	1.624055224811544	-3.714608344663908	-3.717264804794244	-3.718027088688672
252	1.637177129344692	-3.746442414436632	-3.74910102033444	-3.749876715275568
253	1.63654734659166	-3.7991853788983923	-3.801845594121804	-3.8026427467376522
254	1.624467212166168	-3.802352531687064	-3.805010601143004	-3.805808826642588
255	1.616151290328432	-3.75058159989012	-3.7532380600204562	-3.754014291403452
256	1.624013918787708	-3.714619609943136	-3.717279825166548	-3.718039963293504
257	1.636864920177516	-3.746505178135188	-3.749167539126072	-3.74994055185786
258	1.636344035123688	-3.799401564971196	-3.802059634427136	-3.802857323484852
259	1.624307888931372	-3.8022731382906	-3.804927989095332	-3.80572514171118
260	1.616137342839864	-3.750573016820232	-3.753229476950568	-3.7540051718916962
261	1.623929697414432	-3.71458366833798	-3.717243883561392	-3.718005094572084
262	1.637074668947904	-3.746529318019248	-3.749192215452	-3.749966301067524
263	1.636562366963964	-3.799317880039788	-3.801975949495728	-3.802774174995312
264	1.6244741859104521	-3.8021390278236002	-3.804793342186464	-3.805592640569784
265	1.6162054709571	-3.750444270771912	-3.753101267344116	-3.753876425843376
266	1.624121207161308	-3.714568111523808	-3.717226180979748	-3.717986319106704
267	1.637207706531168	-3.746891416280148	-3.7495543137129	-3.750327862886556
268	1.636544127940452	-3.799581272996976	-3.802242024662256	-3.803036495068764
269	1.62446131130562	-3.8023133714307003	-3.804966612909828	-3.805764838409412
270	1.616263943120712	-3.750389553701376	-3.753040649413032	-3.753816880796028
271	1.624149638580312	-3.714650187129612	-3.71730342860874	-3.718061957410092
272	1.637111146994928	-3.746806122023136	-3.749464727920944	-3.750239886420204
273	1.6365044312422201	-3.799581272996976	-3.802238806011048	-3.803037031510632
274	1.624382454351024	-3.802215202568856	-3.804866298280512	-3.805665596663832
275	1.6161866954917201	-3.7503412739332562	-3.752996661179856	-3.753771819679116
276	1.624028402718144	-3.714657160873896	-3.717313084562364	-3.71807322268932
277	1.63716425473986	-3.7468710314891642	-3.749532319596312	-3.750307478095572
278	1.636339207146876	-3.799664957928384	-3.802323563826192	-3.803121789325776
279	1.624114769858892	-3.8022656281044482	-3.804918869583576	-3.805715485757556
280	1.616087990188008	-3.750363804491712	-3.753017582412708	-3.753791668028232
281	1.624129253789328	-3.714560064895788	-3.717219743677332	-3.717978808920552
282	1.637110074111192	-3.746959544397384	-3.74961868673706	-3.750393308794452
283	1.636103172724956	-3.799727185185072	-3.802383645315408	-3.803180261489388
284	1.623759645342276	-3.8024748404329682	-3.805129154795832	-3.805925770969812
285	1.615724282601504	-3.750479139493332	-3.75313238097246	-3.753908075913588
286	1.6241313995568	-3.714828822271656	-3.717483673076388	-3.718245956970816
287	1.637178202228428	-3.747051275956812	-3.749712027622092	-3.7504871861213522
288	1.636154671144284	-3.79973308604562	-3.802391691943428	-3.803188844559276
289	1.623773592830844	-3.802386863966616	-3.805039569003876	-3.805841013154668
290	1.615928666953212	-3.750523127726508	-3.753177442089372	-3.753956355681708
291	1.624276775303028	-3.714748355991456	-3.717407498331132	-3.71816978222556
292	1.637342889881904	-3.746952034211232	-3.749612785876512	-3.7503890172595082
293	1.636142869423188	-3.79974917930166	-3.802405639431996	-3.803206010699052
294	1.623593348363196	-3.802423878455508	-3.805079265702108	-3.805878564085428
295	1.615826742998292	-3.750555314238588	-3.753211237927056	-3.753990151519392
296	1.624455410445072	-3.714575085268092	-3.717233154724032	-3.71799543861846
297	1.637318213555976	-3.746884442535864	-3.749545730643012	-3.750322498467876
298	1.6356514886721	-3.799803359930328	-3.80246357515374	-3.803263409978928
299	1.622914212958308	-3.802827282740244	-3.805482133544976	-3.8062808954864282
300	1.6155654958085761	-3.750733412938764	-3.753386654417892	-3.754164495126492
301	1.62501116422032	-3.7144817443830602	-3.717139813839	-3.717903707059032
302	1.638169010358624	-3.746345318458524	-3.7490044607982	-3.7497823015068
303	1.6357721880924	-3.799629016323228	-3.802284940011696	-3.803084774836884
304	1.622361677834268	-3.803062244278428	-3.805712267106348	-3.806514784140876
305	1.615400271713232	-3.7510450856640722	-3.753694572050124	-3.7544761678518
306	1.62528206736366	-3.71446565112702	-3.71712103837362	-3.717886004477388
307	1.638287564011452	-3.746242321619868	-3.748902000401412	-3.749679841110012
308	1.635682602300444	-3.799637599393116	-3.802296205290924	-3.803094430790508
309	1.622389036369536	-3.8030263026732722	-3.8056790077105322	-3.806479915419456
310	1.615454988783768	-3.751097120525268	-3.753747143353188	-3.754527666271128
311	1.625451582993948	-3.714340123729908	-3.716998193185848	-3.717761549964012
312	1.63849999499118	-3.746155418037252	-3.7488172425862683	-3.749594546853
313	1.635873575605452	-3.799396200552516	-3.80205587933406	-3.802854104833644
314	1.622519928185328	-3.80287127097342	-3.805525048894416	-3.806325420161472
315	1.6154641082955241	-3.750904537894656	-3.753557242931916	-3.75433669296612
316	1.625467676249988	-3.714460823150208	-3.717117819722412	-3.717879567174972
317	1.6384543974324	-3.746163464665272	-3.748825825656156	-3.749599374829812
318	1.635713715928788	-3.799546404275556	-3.802204473731496	-3.803003235672948
319	1.622231322460344	-3.80300269923108	-3.805657013593944	-3.806458457744736
320	1.615393297968948	-3.750976421104968	-3.753630735467832	-3.754412867711376
321	1.6253249827131	-3.714478525731852	-3.717134985862188	-3.717899951965956
322	1.63841952871098	-3.74624446738734	-3.748904682610752	-3.749679841110012
323	1.635786672022836	-3.7994385794600882	-3.802098258241632	-3.802894337973744
324	1.622259753879348	-3.802736624064552	-3.80538986554368	-3.806190236810736
325	1.615342335991488	-3.750894345499164	-3.753546514094556	-3.754327037012496
326	1.625644702066428	-3.7142832608919	-3.716939721022236	-3.717702541358532
327	1.638712962412776	-3.746033109291348	-3.748694397398496	-3.74947116522336
328	1.635863919651828	-3.799169285642352	-3.801827355098292	-3.802626653481612
329	1.62218947999464	-3.80272374945972	-3.80537645449698	-3.806176825764036
330	1.61527474431612	-3.750672258565812	-3.75332550004494	-3.754102804311672
331	1.625742870928272	-3.714189920006868	-3.71684745302094	-3.7176092004735
332	1.638799865995392	-3.74586091145172	-3.748522736000736	-3.749297358058128
333	1.6359181002804961	-3.799107594827532	-3.801768346492812	-3.802568717759868
334	1.622158366366296	-3.802476449758572	-3.80513237344704	-3.805932744714096
335	1.615260796827552	-3.750641144937468	-3.7532949228584642	-3.754072763567064
336	1.625482160180424	-3.714270386287068	-3.716928455743008	-3.717690739637436
337	1.6386405427605961	-3.745994485476852	-3.748656310025868	-3.7494320049669962
338	1.635701914207692	-3.79918591534026	-3.8018439847962	-3.802641137412048
339	1.622085946714116	-3.802524729526692	-3.805178507447688	-3.805976732947272
340	1.615307467270068	-3.750605203332312	-3.753258981253308	-3.754036821961908
341	1.625617879973028	-3.714134130052596	-3.716788980857328	-3.717551264751756
342	1.638539691689412	-3.746038473710028	-3.748694933840364	-3.749472238107096
343	1.6355844334386	-3.799196107735752	-3.801852567866088	-3.802654548458748
344	1.622195917297056	-3.802547260085148	-3.805201038006144	-3.806004627924408
345	1.615389006434004	-3.750470019981576	-3.753124870786308	-3.75390485726238
346	1.625693518276416	-3.714148613983032	-3.71680721988084	-3.717570576659004
347	1.638831516065604	-3.745946205708732	-3.748605884490276	-3.749383188757008
348	1.635969598699824	-3.798989041174704	-3.801646574188776	-3.802445336130228
349	1.622373479555364	-3.802295132407188	-3.804947837444448	-3.805749818037108
350	1.615726428368976	-3.750369168910392	-3.753024556156992	-3.75380293330746
351	1.6261832897019	-3.713925990607812	-3.7165829871800162	-3.717343125306972
352	1.639194150768372	-3.745625949913536	-3.748286165136948	-3.749060250752472
353	1.635926683350384	-3.79897133859306	-3.801628871607132	-3.802428169990452
354	1.622140663784652	-3.802298351058396	-3.804949446770052	-3.805750354478976
355	1.6154641082955241	-3.750467337772236	-3.753118433483892	-3.753897347076228
356	1.625868398325384	-3.714049372237452	-3.71670529592592	-3.71746704337848
357	1.638771434576388	-3.745936549755108	-3.748596228536652	-3.749371387035912
358	1.6355409816472921	-3.799164994107408	-3.801824672888952	-3.8026218255048
359	1.621808069826492	-3.802597149178872	-3.805251463541736	-3.806051298366924
360	1.615141170290988	-3.750479139493332	-3.7531334538561962	-3.753910758122928
361	1.625875372069668	-3.714153978401712	-3.716810974973916	-3.71757164954274
362	1.638885696694272	-3.7458507190562282	-3.748510397837772	-3.749286629220768
363	1.635589261415412	-3.799086137152812	-3.801743133725016	-3.802543504992072
364	1.62172813998816	-3.802486105712196	-3.80514042007506	-3.805944009993324
365	1.61519696024526	-3.750567652401552	-3.753219820996944	-3.754000880356752
366	1.625807243952432	-3.71414110379688	-3.716799709694688	-3.717560384263512
367	1.638849218647248	-3.745928503127088	-3.748589791234236	-3.749363340407892
368	1.635671873463084	-3.799212200991792	-3.801868661122128	-3.802669032389184
369	1.621816116454512	-3.802430852199792	-3.805085703004524	-3.805885537829712
370	1.615206616198884	-3.75048504035388	-3.75313774539114	-3.753914513216004
371	1.625831383836492	-3.714046153586244	-3.716704759484052	-3.717463824727272
372	1.638837416926152	-3.745902217475556	-3.74856457846644	-3.749339200523832
373	1.635594089392224	-3.799100621083248	-3.801760299864792	-3.802559061806244
374	1.621855276710876	-3.802476449758572	-3.805131837005172	-3.805931135388492
375	1.615168528826256	-3.750314988281724	-3.752969302644588	-3.753746070469452
376	1.625548142530188	-3.714147541099296	-3.716806146997104	-3.717568430891532
377	1.638460298292948	-3.746179557921312	-3.748841382470328	-3.749618150295192
378	1.6355474189497081	-3.79933075464462	-3.801989896984296	-3.802787586042012
379	1.621928769246792	-3.802361114756952	-3.80501703844542	-3.805817409712476
380	1.615351991945112	-3.750246860164488	-3.75290171096922	-3.753677942352216
381	1.62569780981136	-3.7140064568880122	-3.7166655992276882	-3.717424664470908
382	1.638607819806648	-3.746116257780888	-3.748777545888036	-3.749553240829164
383	1.6356423691603441	-3.799397273436252	-3.802055342892192	-3.802853031949908
384	1.622187334227168	-3.802325709593664	-3.804980023956528	-3.805780395223584
385	1.615475373574752	-3.75010953104628	-3.752761699641672	-3.753542222559612
386	1.625795442231336	-3.713834795490252	-3.716490182736852	-3.717254612398752
387	1.6387419302736481	-3.746073878873316	-3.748734094096728	-3.749509789037856
388	1.635574241043108	-3.799326463109676	-3.801983996123748	-3.802780612297728
389	1.62183542836176	-3.802471085339892	-3.80512432681902	-3.805925234527944
390	1.615145461825932	-3.750240422862072	-3.752894200783068	-3.753673114375404
391	1.625757891300576	-3.714038106958224	-3.716698322181636	-3.7174611425179322
392	1.638763387948368	-3.746131278153192	-3.748793102702208	-3.749569870527072
393	1.635603745345848	-3.79943804301822	-3.802098258241632	-3.802897556624952
394	1.6217898308029801	-3.802556916038772	-3.805213912610976	-3.806013210994296
395	1.615239339152832	-3.750357367189296	-3.753013827319632	-3.753790595144496
396	1.625750917556292	-3.714187774239396	-3.716847989462808	-3.717611346240972
397	1.638696332714868	-3.746428466948064	-3.749091900822684	-3.749867595763812
398	1.635465879785772	-3.799756689487812	-3.802416904711224	-3.803212448001468
399	1.621775346872544	-3.802543504992072	-3.805198892238672	-3.806000336389464
400	1.615201251780204	-3.750233449117788	-3.75288829992252	-3.753668286398592
401	1.625598031623912	-3.714033278981412	-3.716692421321088	-3.7174547052155162
402	1.6385010678749161	-3.746694005672724	-3.749356366663608	-3.750131525162868
403	1.635474999297528	-3.79977600139506	-3.802436216618472	-3.803234442118056
404	1.621789294361112	-3.802615924644252	-3.805270775448984	-3.806067928064832
405	1.61503334547552	-3.750246860164488	-3.7529022474110882	-3.753675796584744
406	1.625785786277712	-3.714222642960816	-3.716880712416756	-3.717643532753052
407	1.638855655949664	-3.746457434808936	-3.749117650032348	-3.749895490740948
408	1.63566758192814	-3.799648328230476	-3.802305861244548	-3.803105159627868
409	1.621952909130852	-3.802464111595608	-3.805115743749132	-3.805918797225528
410	1.6155687144597841	-3.749980248556092	-3.752630271384012	-3.753410794301952
411	1.626028258002048	-3.713903460049356	-3.716558847295956	-3.717323276957856
412	1.638903935717784	-3.746380723621812	-3.749041475287092	-3.749816633786352
413	1.635790427115912	-3.7995506958105	-3.8022087652664402	-3.803006454324156
414	1.622121888319272	-3.802120788800088	-3.8047724209536122	-3.805572792220668
415	1.615351991945112	-3.749827362623712	-3.752478458335368	-3.753257908369572
416	1.625804025301224	-3.713941547421984	-3.716599080436056	-3.717361900772352
417	1.63858046127138	-3.746627486881092	-3.749290384313844	-3.750066079254972
418	1.6355409816472921	-3.7996413544861922	-3.802301033267736	-3.803099795209188
419	1.622215229204304	-3.802177651638096	-3.804833038884696	-3.805631800826148
420	1.615683513019536	-3.749577380713224	-3.75223115863422	-3.753008462900952
421	1.62602772156018	-3.713704440116328	-3.7163646553397403	-3.717125329908564
422	1.638835807600548	-3.746458507692672	-3.749123014451028	-3.74989763650842
423	1.635977108885976	-3.799409611599216	-3.802071436148232	-3.80286858876408
424	1.622529584138952	-3.801717384515352	-3.804371698878216	-3.805170460819668
425	1.615586417041428	-3.749449171106772	-3.752104021911504	-3.752879180410764
426	1.625631291019728	-3.713897559188808	-3.716555628644748	-3.717316303213572
427	1.638521989107768	-3.746736921022164	-3.7493971362455762	-3.7501733676285722
428	1.635909517210608	-3.799607558648508	-3.802266700988184	-3.803065462929636
429	1.622661012396612	-3.801629944490868	-3.80428747750494	-3.805084630120788
430	1.615633087483944	-3.749355293779872	-3.752009071700868	-3.752786912409468
431	1.625370043830012	-3.713970515282856	-3.716626975413192	-3.7173914050750922
432	1.638357301454292	-3.747079170933948	-3.749738313273624	-3.75051454465662
433	1.635637004741664	-3.799765808999568	-3.802424951339244	-3.803223176838828
434	1.622338610833944	-3.801896019657396	-3.804551406903996	-3.805350705287316
435	1.615491466830792	-3.749366022617232	-3.752020336980096	-3.7527976412468282
436	1.625498253436464	-3.714026841678996	-3.7166838382512	-3.717443439936288
437	1.638173301893568	-3.747022844537808	-3.749683596203088	-3.750456608934876
438	1.635424573761936	-3.799841447302956	-3.802502735410104	-3.803298278700348
439	1.622353631206248	-3.801885290820036	-3.804541750950372	-3.805338367124352
440	1.615868049022128	-3.749244250313196	-3.751899101117928	-3.752674796059056
441	1.625694054718284	-3.713833722606516	-3.716495547155532	-3.717254612398752
442	1.638307412360568	-3.746983147839576	-3.749646045272328	-3.750421203771588
443	1.63557638681058	-3.799965901816332	-3.802625044156008	-3.803422733213724
444	1.6223064243218641	-3.801857932284768	-3.804512246647632	-3.80531208147282
445	1.615555839854952	-3.74937728789646	-3.752033748026796	-3.752808906526056
446	1.625572282414248	-3.713953885584948	-3.716614637250228	-3.71737316605158
447	1.638517697572824	-3.747037864910112	-3.749701298784732	-3.750473775074652
448	1.635731418510432	-3.799741669115508	-3.8023986656877122	-3.803197964071032
449	1.622290867507692	-3.80183593816818	-3.804488106763572	-3.805291160239968
450	1.615378277596644	-3.749369777710308	-3.752023555631304	-3.752800859898036
451	1.625368434504408	-3.714123401215236	-3.716782543554912	-3.71754214524
452	1.638143797590828	-3.747168220284036	-3.749830044833052	-3.750603594006708
453	1.635365028714588	-3.800006134956432	-3.802662595086768	-3.803461893470088
454	1.621825235966268	-3.802104695544048	-3.804757400581308	-3.805559917615836
455	1.615161555081972	-3.749600447713548	-3.752253152750808	-3.753032602785012
456	1.625357705667048	-3.714207086146644	-3.7168619369513762	-3.717623684403936
457	1.638131995869732	-3.74721006274974	-3.749868668647548	-3.750644363588676
458	1.63521965296836	-3.800072117306196	-3.802729650320268	-3.8035300215873242
459	1.621734577290576	-3.802017791961432	-3.804672106324296	-3.805471404707616
460	1.614931957962468	-3.749655164784084	-3.752311088472552	-3.753088929181152
461	1.6251967731066481	-3.71425375658916	-3.716913971812572	-3.717674646381396
462	1.638278980941564	-3.747289992588072	-3.749950744253352	-3.750725902752612
463	1.635634858974192	-3.799854321907788	-3.802512391363728	-3.803310616863312
464	1.6224110304861241	-3.801674469165912	-3.804329856412512	-3.805130764121436
465	1.615517752482324	-3.749073661799172	-3.751731194813244	-3.752506889754372
466	1.625556189158208	-3.713964614422308	-3.71662482964572	-3.717386040656412
467	1.638553102736112	-3.747146762609316	-3.749809660042068	-3.7505853549831962
468	1.635977108885976	-3.799754007278472	-3.802413686060016	-3.803211375117732
469	1.622765082119004	-3.801336510789072	-3.803992970919408	-3.804790659977124
470	1.615881996510696	-3.748802222213964	-3.751458145902432	-3.752234913727296
471	1.625734824300252	-3.713853570955632	-3.71651217685344	-3.717273387864132
472	1.638479073758328	-3.747217572935892	-3.749877251717436	-3.750653483100432
473	1.635767360115588	-3.799925668676232	-3.802582665248436	-3.803382500073624
474	1.622497397626872	-3.801536067163968	-3.804191454410568	-3.804992362119492
475	1.61562611373966	-3.748890198680316	-3.751546122368784	-3.752324499519252
476	1.62548859748284	-3.713958177119892	-3.7166178559014362	-3.717379066912128
477	1.638212462149932	-3.747398353845408	-3.750060714836292	-3.750834800451816
478	1.635584969880468	-3.7999664382582	-3.802626653481612	-3.80342380609746
479	1.622278529344728	-3.801582201164616	-3.804237588411216	-3.805036886794536
480	1.615370230968624	-3.749098874566968	-3.751752116046096	-3.752532638964036
481	1.62505139736042	-3.714265558310256	-3.716923627766196	-3.7176859116606242
482	1.637747903492244	-3.747884906619684	-3.750547804052436	-3.751321353226092
483	1.635441203459844	-3.8003285365191	-3.802987142416908	-3.803785367916492
484	1.6225440680693881	-3.801374061719832	-3.8040299854083	-3.804828210907884
485	1.61553760083144	-3.7487475051434282	-3.75140235594816	-3.752176978005552
486	1.624931770823856	-3.714177581843904	-3.716836187741712	-3.717596862310536
487	1.637628813397548	-3.747898317666384	-3.750559605773532	-3.751336373598396
488	1.635447104320392	-3.800306542402512	-3.802966221184056	-3.803763910241772
489	1.622537094325104	-3.801457210209372	-3.8041163525490482	-3.8049151144905
490	1.615661518902948	-3.748753942445844	-3.751412548343652	-3.752190389052252
491	1.625263828340148	-3.714046690028112	-3.7167069052515243	-3.717470262029688
492	1.638016660868112	-3.747675694291164	-3.750339664607652	-3.75111535954878
493	1.635609109764528	-3.800137563214092	-3.802797241995636	-3.803596540378956
494	1.622585910535092	-3.80126999199744	-3.803925915685908	-3.804724141185492
495	1.615692632531292	-3.74856994288512	-3.751226939457324	-3.752001025072848
496	1.625349659039028	-3.714044007818772	-3.716704759484052	-3.717465434052876
497	1.638091762729632	-3.747682668035448	-3.750345029026332	-3.751118578199988
498	1.63565685309078	-3.8001273708186	-3.80278812248388	-3.803585811541596
499	1.6225505053718041	-3.801304324276992	-3.803960784407328	-3.804761692116252
500	1.615622895088452	-3.748597301420388	-3.751252688666988	-3.752031065817456
501	1.625468749133724	-3.713947448282532	-3.716606590622208	-3.717368874516636
502	1.6383605201055	-3.747622586546232	-3.7502844110952482	-3.751060106036376
503	1.635688503160992	-3.800074799515536	-3.802733941855212	-3.803531630912928
504	1.622369724462288	-3.801320417533032	-3.803975268337764	-3.804775103162952
505	1.6156019738556	-3.7486289514906	-3.7512843387372	-3.752061106562064
506	1.62554760608832	-3.714054736656132	-3.716711733228336	-3.717474553564632
507	1.638302047941888	-3.747431076799356	-3.750091828464636	-3.750869669173236
508	1.635927219792252	-3.799989505258524	-3.802647038272596	-3.803446873097784
509	1.6227248489789041	-3.801047905064088	-3.803701146543216	-3.804501517810272
510	1.615807431091044	-3.748222328554656	-3.750875570033784	-3.751653947184252
511	1.625564235786228	-3.713750037675108	-3.716405961363576	-3.717168781699872
512	1.638030071914812	-3.747723437617416	-3.750381507073356	-3.751156665572616
513	1.635297973481088	-3.800347848426348	-3.803006454324156	-3.803805216265608
514	1.622228640251004	-3.801403566022572	-3.804060562594776	-3.804858251652492
515	1.615741985183148	-3.748416520510872	-3.75107244419934	-3.751846529814864
516	1.625772375231012	-3.713788661489604	-3.716448340271148	-3.71720955128184
517	1.63839002440824	-3.747708417245112	-3.750370778235996	-3.751148618944596
518	1.635621447927492	-3.800211055750008	-3.802869125205948	-3.80367056935674
519	1.622358995624928	-3.801265700462496	-3.803922160592832	-3.804723068301756
520	1.615815477719064	-3.748377896696376	-3.751033820384844	-3.751807906000368
521	1.62577022946354	-3.7138321132809122	-3.716492864946192	-3.717250320863808
522	1.638386805757032	-3.7478629125030962	-3.750523664168376	-3.751298822667636
523	1.6357153252543921	-3.8002754287741682	-3.802935107555712	-3.803734405939032
524	1.622628825884532	-3.801088138204188	-3.80374298900892	-3.804540678066636
525	1.615908282162228	-3.748015798435476	-3.750669039914604	-3.751446344181336
526	1.625972468047776	-3.713595005975256	-3.716250929663724	-3.717014822883756
527	1.638672729272676	-3.747696615524016	-3.750357367189296	-3.751133598572292
528	1.635765214348116	-3.800216420168688	-3.802873416740892	-3.803671642240476
529	1.62237991685778	-3.801136417972308	-3.803786440800228	-3.804585739183548
530	1.615827815882028	-3.7481997979962	-3.750851966591592	-3.751629270858324
531	1.626066881816544	-3.713657233231944	-3.716317448455356	-3.717079195907916
532	1.638653953807296	-3.747641362011612	-3.750303723002496	-3.7510799543854922
533	1.635639686951004	-3.800184233656608	-3.802842303112548	-3.803642137937736
534	1.622254925902536	-3.801033421133652	-3.803690417705856	-3.804489179647308
535	1.615726964810844	-3.748111821529848	-3.750769890985788	-3.751542903717576
536	1.625886100907028	-3.713708195209404	-3.71636733754908	-3.717125866350432
537	1.638582070596984	-3.747672475639956	-3.750334300188972	-3.751109458688232
538	1.635694940463408	-3.8001643853074922	-3.802824064089036	-3.803623898914224
539	1.622420686439748	-3.801010354133328	-3.803665741379928	-3.804465576205116
540	1.6158095768585161	-3.74793962369022	-3.750593938053084	-3.75137016943608
541	1.626060444514128	-3.71358856867284	-3.7162471745706482	-3.717010531348812
542	1.638702233575416	-3.747689105337864	-3.750354684979956	-3.751129307037348
543	1.635805983930084	-3.800177796354192	-3.802841230228812	-3.803637846402792
544	1.6226551115360641	-3.800903602201596	-3.803561671657536	-3.804359360715252
545	1.6159908942099	-3.747810341200032	-3.750469483539708	-3.751244642038968
546	1.6258346024877	-3.713620218743052	-3.716283652617672	-3.717044327186496
547	1.638393779501316	-3.747881687968476	-3.750547804052436	-3.751320816784224
548	1.635530252809932	-3.800385935798976	-3.803046151022388	-3.803842767196368
549	1.622169631645524	-3.801059170343316	-3.803715094031784	-3.804513855973236
550	1.615547793226932	-3.74807105194788	-3.750727512078216	-3.751505352786816
551	1.625676888578508	-3.713818702234212	-3.716480526783228	-3.717242810677656
552	1.638350327710008	-3.748032964575252	-3.750697471333608	-3.751472629832868
553	1.635527034158724	-3.800464792753572	-3.803126617302588	-3.8039226970347
554	1.622113305249384	-3.801117642506928	-3.803770883986056	-3.804573401020584
555	1.615405099690044	-3.748101629134356	-3.750754870613484	-3.751535929973292
556	1.625629145252256	-3.713909360909904	-3.716566893923976	-3.717330787144008
557	1.638355692128688	-3.74803081880778	-3.750692106914928	-3.751468874739792
558	1.6355844334386	-3.800463183427968	-3.80312339865138	-3.803921087709096
559	1.62230481499626	-3.800979776946852	-3.803637846402792	-3.804435535460508
560	1.615791337835004	-3.747828043781676	-3.750486113237616	-3.751262344620612
561	1.625911313674824	-3.713680300232268	-3.71634051545568	-3.717100653582636
562	1.638504822967992	-3.747998095853832	-3.750658847519112	-3.751436688227712
563	1.63552810704246	-3.800464792753572	-3.80312339865138	-3.803924306360304
564	1.62200440755018	-3.801034494017388	-3.8036888083802523	-3.804489179647308
565	1.615207152640752	-3.748043156970744	-3.75069693489174	-3.751475312042208
566	1.625467676249988	-3.714014503516032	-3.716671500088236	-3.717435393308268
567	1.638241966452672	-3.74824807776432	-3.7509120480808082	-3.751687743021936
568	1.635328550667564	-3.800589783708816	-3.803250535374096	-3.804047151548076
569	1.621904092920864	-3.801061852552656	-3.8037172397992562	-3.804516538182576
570	1.615277962967328	-3.747998095853832	-3.750654555984168	-3.751431323809032
571	1.625552434065132	-3.713978561910876	-3.716640386459892	-3.717402133912452
572	1.638351400593744	-3.748263098136624	-3.750928141336848	-3.751703836277976
573	1.635481436599944	-3.80049751570752	-3.803158803814668	-3.803958102197988
574	1.622023719457428	-3.800986214249268	-3.803641601495868	-3.804442509204792
575	1.615541355924516	-3.747879542201004	-3.75053600233134	-3.751313306598072
576	1.62577291167288	-3.713790807257076	-3.716449413154884	-3.717213306374916
577	1.638448496571852	-3.748117722390396	-3.750779546939412	-3.751555778322408
578	1.635561366438276	-3.800469084288516	-3.803128226628192	-3.803928597895248
579	1.622194307971452	-3.800719602640872	-3.803373380561868	-3.804175361154528
580	1.615560667831764	-3.747629023848648	-3.750282265327776	-3.751062251803848
581	1.625727850555968	-3.713676008697324	-3.716334614595132	-3.717097434931428
582	1.638288636895188	-3.74820516241488	-3.7508685962895	-3.751644827672496
583	1.635315676062732	-3.800596221011232	-3.803258045560248	-3.804057880385436
584	1.621927696363056	-3.800929887853128	-3.803585811541596	-3.804387255692388
585	1.61527206210678	-3.747744895292136	-3.75040189186434	-3.75117973257294
586	1.62548323306416	-3.713937792328908	-3.716596934668584	-3.717363510097956
587	1.638144870474564	-3.748412765417796	-3.751078345059888	-3.75185564932662
588	1.635387022831176	-3.800675614407696	-3.803336902514844	-3.804136737340032
589	1.622286575972748	-3.800719602640872	-3.8033749898874722	-3.804173751828924
590	1.615819769254008	-3.747424103055072	-3.750078953859804	-3.750854648800932
591	1.625875372069668	-3.713582667812292	-3.7162412737101	-3.717003557604528
592	1.638429721106472	-3.748233593833884	-3.750895954824768	-3.751671113324028
593	1.63564344204408	-3.80044655373006	-3.803107841837208	-3.803904458011188
594	1.6222806751122	-3.800638599918804	-3.803296132932876	-3.804095431316196
595	1.615651326507456	-3.7474637997533042	-3.750119186999904	-3.750897564150372
596	1.625832456720228	-3.713731262209728	-3.7163930867587442	-3.7171537613275683
597	1.6385214526659	-3.748230375182676	-3.750897027708504	-3.751672186207764
598	1.63552810704246	-3.800521119149712	-3.803184553024332	-3.803979559872708
599	1.62203122964358	-3.80064771943056	-3.803304179560896	-3.80409972285114
600	1.61561806711164	-3.747457898892756	-3.750115431906828	-3.750890590406088
601	1.625938135768224	-3.713653478138868	-3.716314229804148	-3.717075977256708
602	1.638401289687468	-3.748321570300236	-3.750986077058592	-3.751760162674116
603	1.635231991131324	-3.800616605802216	-3.8032768210256283	-3.804076119408948
604	1.621984559201064	-3.800698144966152	-3.803356214422092	-3.80415336703794
605	1.615688340996348	-3.747426248822544	-3.750082172511012	-3.750860013219612
606	1.62589092888384	-3.713652405255132	-3.71631101115294	-3.717074904372972
607	1.638394852385052	-3.748250223531792	-3.750912584522676	-3.75168935234754
608	1.635440667017976	-3.80048142245148	-3.803140564791156	-3.803939326732608
609	1.622125643412348	-3.800664349128468	-3.803321345700672	-3.804119571200256
610	1.615658836693608	-3.747380651263764	-3.750033356301024	-3.750810124125888
611	1.625909167907352	-3.713621828068656	-3.716280970408332	-3.7170427178608922
612	1.638554175619848	-3.74841169253406	-3.75107780861802	-3.75185296711728
613	1.635551174042784	-3.800579591313324	-3.8032419523042083	-3.804039104920056
614	1.622192698645848	-3.800591929476288	-3.803248926048492	-3.804045542222472
615	1.615721600392164	-3.747351683402892	-3.750010825742568	-3.750785984241828
616	1.625985342652608	-3.713680300232268	-3.716341051897548	-3.717101190024504
617	1.638431866873944	-3.74839559927802	-3.751058496710772	-3.751833655210032
618	1.63553615367048	-3.800573690452776	-3.803236587885528	-3.804032131175772
619	1.622231858902212	-3.800559742964208	-3.80321727597828	-3.804014965035996
620	1.6157462767180921	-3.747295357006752	-3.749952353578956	-3.750728048520084
621	1.6260760013283	-3.713579985602952	-3.716242346593836	-3.717002484720792
622	1.638767143041444	-3.748313523672216	-3.750977493988704	-3.7517515796042282
623	1.635626812346172	-3.800508780986748	-3.803171141977632	-3.80396829459348
624	1.621985095642932	-3.800560279406076	-3.803215666652676	-3.8040165743616
625	1.6153659394336801	-3.7474085462409	-3.750063397045632	-3.750838555544892
626	1.62556101713502	-3.71386483623486	-3.716522369248932	-3.717284116701492
627	1.638179739195984	-3.7486997618171762	-3.751363195691796	-3.752137817749188
628	1.63527866157384	-3.800829573223812	-3.803492470656564	-3.80429015971428
629	1.62199367871282	-3.800618751569688	-3.8032768210256283	-3.804074510083344
630	1.615707116461728	-3.7472878468206	-3.749945379834672	-3.750719465450196
631	1.626021284257764	-3.713673326487984	-3.716335687478868	-3.717095825605824
632	1.638582070596984	-3.748495377465468	-3.751160420665692	-3.751936652048688
633	1.63552542483312	-3.800623043104632	-3.803283258328044	-3.804084702478836
634	1.622059661062584	-3.800437434218304	-3.803093357906772	-3.803893729173828
635	1.615555303413084	-3.7471939694937	-3.7498504296240363	-3.750627733890768
636	1.625865716116044	-3.713717851163028	-3.71637806638644	-3.717140350280868
637	1.63855363917798	-3.7485350741637	-3.75119850803832	-3.751974202979448
638	1.635413308482708	-3.800680442384508	-3.803342266933524	-3.804141028874976
639	1.621947008270304	-3.800509853870484	-3.80316631400082	-3.803967758151612
640	1.615512388063644	-3.747146226167448	-3.749801613414048	-3.750579454122648
641	1.625768083696068	-3.713694247720836	-3.716354462944248	-3.71711567395494
642	1.638486047502612	-3.748631097258072	-3.751295604016428	-3.752072371841292
643	1.635312457411524	-3.800750179827348	-3.803411467934496	-3.804209156992212
644	1.62169595347608	-3.800535603080148	-3.803192599652352	-3.803992970919408
645	1.615513997389248	-3.747188068633152	-3.749845601647224	-3.750623978797692
646	1.62596066632668	-3.71374950123324	-3.716409716456652	-3.71717468256042
647	1.638346036175064	-3.748798467120888	-3.751462437437376	-3.7522397417041082
648	1.635175664735184	-3.800871952131384	-3.803533240238532	-3.804331465738116
649	1.621804851175284	-3.80045191814874	-3.803108378279076	-3.803908213104264
650	1.61530424861886	-3.747106529469216	-3.749762989599552	-3.750542439633756
651	1.625632363903464	-3.713840159908932	-3.716501984457948	-3.717262122584904
652	1.6384629805022881	-3.748849429098348	-3.7515139358567042	-3.752288021472228
653	1.635515232437628	-3.800777001920748	-3.803439362911632	-3.804235979085612
654	1.622179287599148	-3.800285084727792	-3.802939935532524	-3.803739770357712
655	1.615803675997968	-3.7468554746749922	-3.749509252595988	-3.750287093304588
656	1.626288432308028	-3.713490399810996	-3.71615007859254	-3.716912898928836
657	1.638828833856264	-3.748482502860636	-3.751148082502728	-3.751923241001988
658	1.63553883587982	-3.800727649268892	-3.803389473817908	-3.804190381526832
659	1.622035521178524	-3.8003553586125	-3.803011818742836	-3.803812190009892
660	1.615759151322924	-3.746912873954868	-3.749568797643336	-3.750346638351936
661	1.626087803049396	-3.713628265371072	-3.716287407710748	-3.717050764488912
662	1.638412018524828	-3.748842991795932	-3.751505889228684	-3.752284266379152
663	1.634998638918744	-3.801030738924312	-3.803692563473328	-3.804491861856648
664	1.621619778730824	-3.800559742964208	-3.80321727597828	-3.804014965035996
665	1.615435140434652	-3.747022844537808	-3.749680913993748	-3.750456608934876
666	1.626018065606556	-3.713772568233564	-3.716432783456976	-3.7171934580258
667	1.638627131713896	-3.748871423214936	-3.751535929973292	-3.752310015588816
668	1.635286171759992	-3.8008488851310602	-3.803510173238208	-3.804306789412188
669	1.621772664663204	-3.80035804082184	-3.803013964510308	-3.803811653568024
670	1.615687268112612	-3.7469252121178322	-3.749582208690036	-3.750356830747428
671	1.626117843794004	-3.713646504394584	-3.716307256059864	-3.717067930628688
672	1.638569195992152	-3.748841918912196	-3.751502670577476	-3.75228212061168
673	1.63532425913262	-3.800828500340076	-3.803486033354148	-3.804289623272412
674	1.621988850736008	-3.800272746564828	-3.802926524485824	-3.803727432194748
675	1.615828352323896	-3.746656991183832	-3.749311305546696	-3.7500880733715602
676	1.626380163867456	-3.713517758346264	-3.716179046453412	-3.716940793905972
677	1.638848145763512	-3.748743213608484	-3.751409866134312	-3.75218824328478
678	1.635483045925548	-3.8007791476882202	-3.803439362911632	-3.804239734178688
679	1.62194271673536	-3.800144536958376	-3.802802606414316	-3.803602441239504
680	1.615761833532264	-3.746661282718776	-3.749319888616584	-3.750096656441448
681	1.626163977794652	-3.713621828068656	-3.7162820432920682	-3.717046472953968
682	1.638780554088144	-3.748880006284824	-3.7515423672757082	-3.752320207984308
683	1.635540445205424	-3.800775392595144	-3.803433998492952	-3.804234369760008
684	1.621917503967564	-3.800149364935188	-3.802803142856184	-3.803605659890712
685	1.61565830025174	-3.746721364207992	-3.749376751454592	-3.75015244639572
686	1.626055080095448	-3.713700685023252	-3.716363046014136	-3.717120501931752
687	1.638524671317108	-3.749106921194988	-3.751770355069608	-3.752545513568868
688	1.635188539340016	-3.801032884691784	-3.803694172798932	-3.804492398298516
689	1.621742087476728	-3.800298495774492	-3.802952810137356	-3.80375640005562
690	1.61574413095062	-3.7467857372321522	-3.7494384422694123	-3.750220574512956
691	1.626454729287108	-3.713579449161084	-3.716239664384496	-3.717005166930132
692	1.638933976462392	-3.7488108052838522	-3.751472629832868	-3.752252079867072
693	1.635499675623456	-3.800777001920748	-3.803436680702292	-3.804237588411216
694	1.621899264944052	-3.800119860632448	-3.802775247879048	-3.803575619146104
695	1.6156035831812041	-3.746725119301068	-3.749379433663932	-3.750156737930664
696	1.62642737075184	-3.71369853925578	-3.716356072269852	-3.717119965489884
697	1.63897474604436	-3.74891594788998	-3.751576163113392	-3.752352930938256
698	1.635478754390604	-3.800855858875344	-3.803513391889416	-3.804313226714604
699	1.621882635246144	-3.800097330073992	-3.802749498669384	-3.803551479262044
700	1.615595536553184	-3.746629096206696	-3.749281264802088	-3.750060178394424
701	1.626169342213332	-3.713786515722132	-3.716445658061808	-3.717207941956236
702	1.638687213203112	-3.74913588905586	-3.751797177163008	-3.752576090755344
703	1.635317821830204	-3.8009186225739002	-3.80357669202984	-3.804376526855028
704	1.621877270827464	-3.8000184731193962	-3.802672251040392	-3.803473695191184
705	1.6156352332514161	-3.7465636502988002	-3.749217428219796	-3.749995268928396
706	1.626150030306084	-3.713712486744348	-3.716371629084024	-3.717134985862188
707	1.638496776339972	-3.749121941567292	-3.75178591188378	-3.752564825476116
708	1.63512309343212	-3.8010580974595802	-3.803719922008596	-3.80452082971752
709	1.621686833964324	-3.800176187028588	-3.80283372004266	-3.803633554867848
710	1.615505950761228	-3.746556676554516	-3.749211527359248	-3.749990440951584
711	1.626064736049072	-3.713765058047412	-3.716423127503352	-3.7171886300489883
712	1.638537009480072	-3.749351538686796	-3.752012826793944	-3.7527912039444122
713	1.635265786969008	-3.801201327438336	-3.803859396894276	-3.804660841045068
714	1.621890145432296	-3.800112350446296	-3.802764519041688	-3.80356596319248
715	1.6157366207644681	-3.746425248296856	-3.74907956265972	-3.74985740336832
716	1.626344758704168	-3.713633629789752	-3.716293845013164	-3.717054519581988
717	1.638756414204084	-3.749163784032996	-3.75182614502388	-3.752602376406876
718	1.635276515806368	-3.801135345088572	-3.803791805218908	-3.804592176485964
719	1.621680933103776	-3.800127907260468	-3.802781148739596	-3.803579910681048
720	1.615511851621776	-3.746532536670456	-3.7491879239170562	-3.749963082416316
721	1.626088875933132	-3.713793489466416	-3.716453704689828	-3.717214379258652
722	1.638560612922264	-3.749404646431728	-3.752067007422612	-3.752843238805608
723	1.635201413944848	-3.801246924997116	-3.803904994453056	-3.804704829278244
724	1.621705609429704	-3.800224466796708	-3.802878781159572	-3.803677006659156
725	1.615579443297144	-3.746416665226968	-3.749070979589832	-3.749846138089092
726	1.6262964789360481	-3.713694247720836	-3.716352317176776	-3.717114064629336
727	1.638716717505852	-3.749359585314816	-3.752023019189436	-3.7527997870143
728	1.635232527573192	-3.801198645228996	-3.803859396894276	-3.804659768161332
729	1.621607977009728	-3.800015790910056	-3.802669568831052	-3.803468330772504
730	1.615499513458812	-3.746389843133568	-3.749041475287092	-3.749817706670088
731	1.626099604770492	-3.713789197931472	-3.716447267387412	-3.7172068690725
732	1.63853754592194	-3.749557532364108	-3.752219893354992	-3.7529939789705162
733	1.6352400377593441	-3.8013086158119362	-3.803966685267876	-3.8047659836511962
734	1.621696489917948	-3.800030274840492	-3.8026840527614882	-3.803484960470412
735	1.61563147815834	-3.746295965806668	-3.748949207285796	-3.749729193761868
736	1.6264112774958	-3.713702294348856	-3.716360900246664	-3.717125866350432
737	1.638721545482664	-3.74946580080468	-3.75212655246996	-3.752905466062296
738	1.635225553828908	-3.801294668323368	-3.803953274221176	-3.8047541819301
739	1.621870833525048	-3.799851639698448	-3.802507026945048	-3.803307934653972
740	1.616003768814732	-3.74599502191872	-3.748649336281584	-3.749426104106448
741	1.626552361707084	-3.713511321043848	-3.716167781174184	-3.716932747277952
742	1.6386721928308081	-3.7495301738288402	-3.752191998377856	-3.752968229760852
743	1.635028679663352	-3.801388545650268	-3.8040466151062082	-3.80484537704766
744	1.6215489684042481	-3.800006134956432	-3.802663667970504	-3.80346135702822
745	1.615475373574752	-3.746216572410204	-3.7488741054242762	-3.749650336807272
746	1.626082975072584	-3.713820848001684	-3.716481063225096	-3.717242810677656
747	1.638506968735464	-3.749744214134172	-3.752406575125056	-3.753183879391788
748	1.635105927292344	-3.801395519394552	-3.804054661734228	-3.804853960117548
749	1.621705072987836	-3.799829109139992	-3.802483959944724	-3.803284867653648
750	1.615826206556424	-3.746038473710028	-3.7486933245147602	-3.749469555897756
751	1.62663390087102	-3.713587495789104	-3.716245028803176	-3.717006776255736
752	1.638841172019228	-3.749478675409512	-3.75213996351666	-3.752918340667128
753	1.635152061292992	-3.801246388555248	-3.803904994453056	-3.804706438603848
754	1.621710973848384	-3.799875779582508	-3.8025317032709762	-3.803332074538032
755	1.615796702253684	-3.74603257284948	-3.748685814328608	-3.749462582153472
756	1.62638177319306	-3.713640603534036	-3.716298672989976	-3.71706202976814
757	1.638508578061068	-3.7497045174359402	-3.752367414868692	-3.753144182693556
758	1.635000784686216	-3.8014700848142042	-3.80413190936322	-3.804929061979068
759	1.6216916619411361	-3.799935861071724	-3.802592857643928	-3.803389473817908
760	1.615732865671392	-3.746109820478472	-3.748767889934412	-3.749541439108068
761	1.626380700309324	-3.713653478138868	-3.716312620478544	-3.717073831489236
762	1.638877650066252	-3.749735094622416	-3.752396382729564	-3.753173150554428
763	1.635223408061436	-3.801333292137864	-3.803994580245012	-3.804790659977124
764	1.621629434684448	-3.79991011186206	-3.802567644876132	-3.803362651724508
765	1.615740375857544	-3.74606475936156	-3.74872014660816	-3.749493695781816
766	1.626418787681952	-3.713708731651272	-3.71637001975842	-3.717128548559772
767	1.638618548644008	-3.749912120438856	-3.75257448142974	-3.753350176370868
768	1.63509895354806	-3.801532312070892	-3.8041925272943042	-3.804989143468284
769	1.621671277150152	-3.799826426930652	-3.80248235061912	-3.803280576118704
770	1.615682976577668	-3.745955861662356	-3.748609639583352	-3.749386943850084
771	1.626383918960532	-3.713616463649976	-3.7162756059896522	-3.7170362805584762
772	1.638665219086524	-3.749876715275568	-3.75253961270832	-3.753317989858788
773	1.635213752107812	-3.801480813651564	-3.804141028874976	-3.804943545909504
774	1.621783393500564	-3.799728258068808	-3.802384718199144	-3.803186162349936
775	1.61575217757864	-3.745859302126116	-3.748514689372716	-3.7492925300813162
776	1.62640859528646	-3.713781151303452	-3.71643975720126	-3.717202577537556
777	1.6387102802034361	-3.749931968787972	-3.752593793336988	-3.753372170487456
778	1.635207851247264	-3.801496370465736	-3.8041576585728842	-3.804954811188732
779	1.621766227360788	-3.799642963811796	-3.802298351058396	-3.803097112999848
780	1.61577363525336	-3.74574289424076	-3.748396135719888	-3.749172903544752
781	1.626455802170844	-3.713643285743376	-3.716301891641184	-3.717064175535612
782	1.63871725394772	-3.749949671369616	-3.752615251011708	-3.7533898730691
783	1.63508554250136	-3.801543040908252	-3.804203256131664	-3.805001481631248
784	1.621678787336304	-3.799705727510352	-3.80236165119882	-3.803160413140272
785	1.6157462767180921	-3.745753086636252	-3.748409546766588	-3.749183632382112
786	1.626343685820432	-3.713743063930824	-3.716401669828632	-3.7171628808393242
787	1.6384661991534961	-3.750156737930664	-3.7528196353634162	-3.753594257420808
788	1.63488437680086	-3.801744206608752	-3.804403885390296	-3.80519942868054
789	1.621581154916328	-3.799758298813416	-3.802412076734412	-3.803210302233996
790	1.615767734392812	-3.745767570566688	-3.74842242137142	-3.749198652754416
791	1.626471895426884	-3.713669571394908	-3.716330323060188	-3.717092070512748
792	1.6386405427605961	-3.750000633347076	-3.752661385012356	-3.753437616395352
793	1.6350689128034521	-3.801529629861552	-3.80418823575936	-3.804986997700812
794	1.621699708569156	-3.799621506137076	-3.802276356941808	-3.803075655325128
795	1.615935104255628	-3.745586253215304	-3.748240567578168	-3.749015726077428
796	1.626755136733188	-3.713576766951744	-3.716235372849552	-3.716996583860244
797	1.63890769081086	-3.749926067927424	-3.752584673825232	-3.753363587417568
798	1.635185320688808	-3.801519973907928	-3.804178043363868	-3.80497948751466
799	1.62156452521842	-3.799559815322256	-3.802213593243252	-3.803012355184704
800	1.6158160141609321	-3.745617903285516	-3.748273290532116	-3.749049521915112
801	1.626755673175056	-3.71357783983548	-3.716236445733288	-3.716998729627716
802	1.639018197835668	-3.74997542057928	-3.752636708686428	-3.753415622278764
803	1.635353226993492	-3.801444872046408	-3.804102941502348	-3.804903312769404
804	1.621849912292196	-3.79942463197152	-3.80207733700878	-3.802876098950232
805	1.615836935393784	-3.745457507166984	-3.748112357971716	-3.7488869800291083
806	1.626539487102252	-3.713677618022928	-3.716334614595132	-3.717096362047692
807	1.638814349925828	-3.750177659163516	-3.752837874386928	-3.7536151786536602
808	1.635234673340664	-3.8015526968618762	-3.80421237564342	-3.805012210468608
809	1.621719020476404	-3.7993817166220802	-3.80203710386868	-3.802836402252
810	1.615837471835652	-3.745430685073584	-3.748086608762052	-3.748860694377576
811	1.626393038472288	-3.713718387604896	-3.716377529944572	-3.717139277397132
812	1.63861264778346	-3.750319816258536	-3.752981640807552	-3.753757872190548
813	1.635181029153864	-3.801679833584592	-3.804341658133608	-3.805137201423852
814	1.621719020476404	-3.799395664110648	-3.802051587799116	-3.802848203973096
815	1.615907209278492	-3.745375968003048	-3.748030282365912	-3.748807586632644
816	1.626633364429152	-3.713626656045468	-3.716285261943276	-3.717046472953968
817	1.638857265275268	-3.750216282978012	-3.752880789736368	-3.753657557561232
818	1.635156889269804	-3.801627798723396	-3.804289623272412	-3.805085166562656
819	1.621672350033888	-3.799418731110972	-3.802073581915704	-3.802870198089684
820	1.615933494930024	-3.745359874747008	-3.748013116226136	-3.748789347609132
821	1.626829165710972	-3.713578376277348	-3.716237518617024	-3.716998729627716
822	1.639108320069492	-3.7501513735119842	-3.752815343828472	-3.753590502327732
823	1.635338743063056	-3.801519973907928	-3.804180725573208	-3.80497948751466
824	1.621800023198472	-3.7992202476198123	-3.801874561982676	-3.802673323924128
825	1.615960853465292	-3.7451957235354	-3.747852720107604	-3.748625732839392
826	1.62675191808198	-3.713641676417772	-3.716301355199316	-3.7170593475588
827	1.638796110902316	-3.750386335050168	-3.7530481595991843	-3.753823854540312
828	1.635069985687188	-3.801788194841928	-3.804446800739736	-3.80524502623932
829	1.621574717613912	-3.799343629249452	-3.801997943612316	-3.802794023344428
830	1.615799384463024	-3.7452295193730842	-3.747882760852212	-3.748656310025868
831	1.626575965149276	-3.71366903495304	-3.716324958641508	-3.717088315419672
832	1.63883795336802	-3.750476457283992	-3.753134526739932	-3.753913440332268
833	1.635190685107488	-3.801736159980732	-3.804393156552936	-3.80519406426186
834	1.621616023637748	-3.799293740155728	-3.801947518076724	-3.80274788934378
835	1.615838544719388	-3.74519304132606	-3.74784574636332	-3.748625732839392
836	1.626741725686488	-3.713667425627436	-3.71632442219964	-3.717089388303408
837	1.638954897695244	-3.750470556423444	-3.753131844530592	-3.753911294564796
838	1.635295291271748	-3.80175815409732	-3.804416759995128	-3.805216594820316
839	1.621775883314412	-3.7991440728745562	-3.80180106944676	-3.802599294946344
840	1.615951197511668	-3.745051420672908	-3.747707344361376	-3.748483039302504
841	1.626746017221432	-3.71363684844096	-3.716293308571296	-3.717057738233196
842	1.638883014484932	-3.750511326005412	-3.753170468345088	-3.753949918379292
843	1.635164399455956	-3.801810725400384	-3.804468258414456	-3.80526916612338
844	1.621501761519864	-3.799230976457172	-3.801883681494432	-3.802682979877752
845	1.615702288484916	-3.745157099720904	-3.747811950525636	-3.748587109024896
846	1.626675743336724	-3.713812801373664	-3.716471407271472	-3.7172336911659
847	1.638836344042416	-3.75058964651814	-3.7532509346252882	-3.754027702450152
848	1.6349578693367761	-3.801921232425192	-3.804580374764868	-3.805378600264452
849	1.621466892798444	-3.799313052062976	-3.8019711215189163	-3.802768274134764
850	1.615915255906512	-3.745121158115748	-3.747776545362348	-3.748553313187212
851	1.626696664569576	-3.713661524766888	-3.716321203548432	-3.717082951000992
852	1.638676484365752	-3.750693716240532	-3.753357150115152	-3.754133381498148
853	1.634872575079764	-3.802046223380436	-3.804704292836376	-3.8055052005453
854	1.621462064821632	-3.799280865550896	-3.801935716355628	-3.802733405413344
855	1.615843909138068	-3.745088971603668	-3.7477438224084	-3.748518444465792
856	1.626808780919988	-3.713715168953688	-3.7163737748514962	-3.717136595187792
857	1.638887306019876	-3.7506679670308682	-3.753330328021752	-3.754109241614088
858	1.635037799175108	-3.80197541305386	-3.804635628277272	-3.805433853776856
859	1.621550577729852	-3.799188061107732	-3.8018439847962	-3.802640064528312
860	1.615957098372216	-3.74496237132282	-3.747619367895024	-3.7483923806268122
861	1.62680824447812	-3.713695320604572	-3.716357681595456	-3.717116210396808
862	1.638870676321968	-3.750762917241504	-3.753426887557992	-3.754202046057252
863	1.634960551546116	-3.802034958101208	-3.804695709766488	-3.805492862382336
864	1.6212764559353041	-3.79927442824848	-3.801930888378816	-3.80272643166906
865	1.615641134111964	-3.745135105604316	-3.74778941996718	-3.748565651350176
866	1.626783031710324	-3.713853570955632	-3.716514322620912	-3.717276070073472
867	1.638947387509092	-3.750789202893036	-3.7534537096513922	-3.754230477476256
868	1.635025461012144	-3.80199418851924	-3.804652794417048	-3.805452092800368
869	1.621474939426464	-3.79915641103752	-3.801810725400384	-3.802608950899968
870	1.615872340557072	-3.744888878786904	-3.747544266033504	-3.748319424532764
871	1.626643556824644	-3.713703367232592	-3.716360363804796	-3.717121574815488
872	1.638756950645952	-3.750937797290472	-3.753597476072016	-3.754375316780616
873	1.635013659291048	-3.802074118357572	-3.804731651371644	-3.805530949754964
874	1.6216535745685081	-3.799018009035576	-3.801670714072836	-3.8024684031305522
875	1.616114812281408	-3.744676984249044	-3.7473307621700402	-3.748104847785564
876	1.627063590807288	-3.713579985602952	-3.716238055058892	-3.716998729627716
877	1.639102419208944	-3.750784911358092	-3.7534472723489762	-3.754225113057576
878	1.6351322129438761	-3.801933570588156	-3.804592712927832	-3.805392011311152
879	1.621609586335332	-3.798952026685812	-3.801610096141752	-3.8024072487576
880	1.615984993349352	-3.744634605341472	-3.747292674797412	-3.74806836973854
881	1.626770157105492	-3.713671180720512	-3.716330323060188	-3.717092606954616
882	1.638742466715516	-3.751079417943624	-3.753745534027584	-3.754518010317504
883	1.634827513962852	-3.80218462538238	-3.804848059257	-3.805641456779772
884	1.621334391657048	-3.799105985501928	-3.8017619091903962	-3.80255745248064
885	1.615829425207632	-3.744763351389792	-3.747417665752656	-3.748192824251916
886	1.626902658246888	-3.713731798651596	-3.716389331665668	-3.717152152001964
887	1.638948460392828	-3.7510386483616562	-3.7536977907013322	-3.754475631409932
888	1.635027070337748	-3.802129371869976	-3.804790123535256	-3.805586203267368
889	1.621550577729852	-3.798851175614628	-3.801507099303096	-3.802303179035208
890	1.616027372256924	-3.744507468618756	-3.74716446519096	-3.747936405039012
891	1.626870471734808	-3.713687273976552	-3.716348025641832	-3.717109773094392
892	1.638882478043064	-3.75121460129436	-3.75387803516898	-3.75465587587758
893	1.635004003337424	-3.802191599126664	-3.804850205024472	-3.805651649175264
894	1.621503370845468	-3.79886136801012	-3.80151407304738	-3.802317662965644
895	1.616032200233736	-3.744554139061272	-3.747208989866004	-3.747989512783944
896	1.627121526529032	-3.713635239115356	-3.716297063664372	-3.7170582746750642
897	1.639223118629244	-3.750876106475652	-3.75354007679214	-3.754316844617004
898	1.635260958992196	-3.801855786517296	-3.804516001740708	-3.805315836565896
899	1.621622460940164	-3.798637671751164	-3.801293058997764	-3.802088602288008
900	1.616017179861432	-3.744358337779452	-3.747012115700448	-3.747786201315972
901	1.626808780919988	-3.713636311999092	-3.716293845013164	-3.717054519581988
902	1.638649125830484	-3.75128970315588	-3.753952064146764	-3.7547309777391003
903	1.634739001054632	-3.802445872572096	-3.805105014911772	-3.805905386178828
904	1.621348339145616	-3.798925204592412	-3.801578982513408	-3.802377208012992
905	1.615936177139364	-3.744430220989764	-3.747086144678232	-3.74786183961936
906	1.627000827108732	-3.713665816301832	-3.716325495083376	-3.717088315419672
907	1.639073451348072	-3.751112140897572	-3.753775574772192	-3.754552879038924
908	1.635231991131324	-3.80202637503132	-3.804686053812864	-3.805483206428712
909	1.621705609429704	-3.798555059703492	-3.801208837624488	-3.8020059902403363
910	1.616048829931644	-3.744225836638056	-3.746881223884656	-3.747654236616444
911	1.62701209238796	-3.713640067092168	-3.716300818757448	-3.717060420442536
912	1.63892110185756	-3.751331545621584	-3.753994443054336	-3.754770674437332
913	1.634917636196676	-3.8022876222210362	-3.804946228118844	-3.805744453618428
914	1.621385353634508	-3.798739059264216	-3.801395519394552	-3.802192135568532
915	1.615877168533884	-3.7443293699185802	-3.746985293607048	-3.747760988548176
916	1.627020675457848	-3.713743600372692	-3.716405424921708	-3.717168245258004
917	1.639062186068844	-3.7512891667140122	-3.753953673472368	-3.754730441297232
918	1.634985764313912	-3.802254899267088	-3.804913505164896	-3.805713339990084
919	1.621358531541108	-3.798661811635224	-3.801316125998088	-3.802113815055804
920	1.615913646580908	-3.74424622142904	-3.746900535791904	-3.7476767671749
921	1.627024966992792	-3.7137199969305	-3.7163802121539122	-3.717141423164604
922	1.639122803999928	-3.7513513939707	-3.75401482784532	-3.754791059228316
923	1.635150988409256	-3.802223785638744	-3.804885073745892	-3.805683835687344
924	1.621595102404896	-3.798484249376916	-3.801144464600328	-3.801941080774308
925	1.615807431091044	-3.744142688148516	-3.7468012940463242	-3.747575916103716
926	1.626746017221432	-3.713885221025844	-3.716546509132992	-3.717307183701816
927	1.638887842461744	-3.751575626671524	-3.754237987662408	-3.755015828371008
928	1.63502385168654	-3.802364869850028	-3.805024548631572	-3.805824919898628
929	1.62145187242614	-3.798659665867752	-3.801313443788748	-3.802112742172068
930	1.616179185305568	-3.744079388008092	-3.746734775254692	-3.747512615963292
931	1.627314645601512	-3.713560673695704	-3.716220888919116	-3.716982636371676
932	1.639137287930364	-3.751395918645744	-3.754057206752892	-3.7548355839033603
933	1.634987910081384	-3.802245243313464	-3.804903312769404	-3.8057063662458
934	1.621518391217772	-3.798392517817488	-3.801048977947824	-3.801847739889276
935	1.616169529351944	-3.743962980122736	-3.7466178309274683	-3.747394598752332
936	1.6272829955313	-3.713609489905692	-3.71626541359416	-3.717030379697928
937	1.639215608443092	-3.751436151785844	-3.75409529412552	-3.754876889927196
938	1.635186930014412	-3.8022527534996162	-3.804910822955556	-3.805713339990084
939	1.621576326939516	-3.7983898356081482	-3.801043077087276	-3.801842375470596
940	1.616140025049204	-3.743977464053172	-3.746632314857904	-3.7474069369152962
941	1.627095777319368	-3.713703367232592	-3.716360363804796	-3.717122111257356
942	1.63897474604436	-3.751604058090528	-3.75426427331394	-3.755045332673748
943	1.634907980243052	-3.802490933689008	-3.805149003144948	-3.805949910853872
944	1.621456700402952	-3.798540039331188	-3.801193280810316	-3.801993652077372
945	1.615981774698144	-3.743984974239324	-3.746640897927792	-3.747417665752656
946	1.626984733852692	-3.7138449878857442	-3.716504666667288	-3.71726855988732
947	1.639043947045332	-3.751731194813244	-3.754396774455336	-3.755174078722068
948	1.635060866175432	-3.8024684031305522	-3.805130764121436	-3.805930598946624
949	1.621491032682504	-3.798430605190116	-3.801087065320452	-3.801886363703772
950	1.61610354700218	-3.743871248563308	-3.746527172251776	-3.747304476518508
951	1.627109188366068	-3.713790270815208	-3.71645048603862	-3.717212769933048
952	1.639085253069168	-3.751755871139172	-3.754418768571924	-3.755196072838656
953	1.635015268616652	-3.802413686060016	-3.805074437725296	-3.805873736108616
954	1.621437924937572	-3.798412366166604	-3.801067753413204	-3.801867588238392
955	1.616277354167412	-3.743724263491476	-3.746380723621812	-3.747154809237336
956	1.627432126370604	-3.713592323765916	-3.71625200254746	-3.71701375000002
957	1.639396925794476	-3.751609958951076	-3.754271783500092	-3.755049087766824
958	1.635317821830204	-3.802299423942132	-3.80495802983994	-3.805761083316336
959	1.6217549620815601	-3.79819349788446	-3.800846739363588	-3.801647647072512
960	1.6162977389583961	-3.743682421025772	-3.746334053179296	-3.747111893887896
961	1.627096850203104	-3.713773104675432	-3.716428491922032	-3.717193994467668
962	1.638859947484608	-3.7520020979565842	-3.754659630970656	-3.7554417632142
963	1.6347867443808841	-3.802657767109956	-3.805313154356556	-3.806119962926028
964	1.621316689075404	-3.798410220399132	-3.801061316110788	-3.801863833145316
965	1.615943150883648	-3.7437843449806922	-3.746435977134216	-3.747215963610288
966	1.626975077899068	-3.713899168514412	-3.716553482877276	-3.717320594748516
967	1.638955434137112	-3.7520305293755882	-3.754690208157132	-3.755470731075072
968	1.635055501756752	-3.802600904271948	-3.80525843728602	-3.806060954320548
969	1.621491032682504	-3.798155410511832	-3.800807042665356	-3.801611169025488
970	1.616070287606364	-3.743563330931076	-3.746215499526468	-3.7469949495606723
971	1.6272186225071401	-3.71371731472116	-3.716374847735232	-3.717136595187792
972	1.639009078323912	-3.751918949467044	-3.754579164690456	-3.75535861472466
973	1.634837706358344	-3.802570327085472	-3.805226787215808	-3.806030377134072
974	1.621371942587808	-3.798244996303788	-3.800898237782916	-3.801695926840632
975	1.61615987339832	-3.743552602093716	-3.746206380014712	-3.746981538513972
976	1.627201456367364	-3.713734480860936	-3.716394696084348	-3.717156443536908
977	1.638946851067224	-3.752047159073496	-3.754710592948116	-3.75548736077298
978	1.634917636196676	-3.802632017900292	-3.8052890144724962	-3.806088312855816
979	1.621527510729528	-3.798074944231632	-3.800729258594496	-3.801522656117268
980	1.616249995632144	-3.7433449990908	-3.745999849895532	-3.746771253301716
981	1.627314109159644	-3.713670107836776	-3.716330859502056	-3.717090461187144
982	1.639066477603788	-3.7520589607945922	-3.754724003994816	-3.7555007718196802
983	1.634862382684272	-3.802606805132496	-3.805268093239644	-3.806065245855492
984	1.621343511168804	-3.798155410511832	-3.800809188432828	-3.801606341048676
985	1.616011279000884	-3.743502712999992	-3.746157027362856	-3.746932722303984
986	1.627147812180564	-3.713831040397176	-3.716489109853116	-3.717250857305676
987	1.639126559093004	-3.752133526214244	-3.754795887205128	-3.755571582146256
988	1.6352336004569281	-3.802501662526368	-3.805161341307912	-3.805960639691232
989	1.621678787336304	-3.797855003065752	-3.800509317428616	-3.801307006486332
990	1.616391079843428	-3.7431631452975482	-3.745817459660412	-3.746593691043408
991	1.627469677301364	-3.713562283021308	-3.716219279593512	-3.716982636371676
992	1.639093836139056	-3.752125479586224	-3.754785694809636	-3.7555640719601042
993	1.634707887426288	-3.802729650320268	-3.805388256218076	-3.806185408833924
994	1.621251779609376	-3.7981108858367882	-3.8007635908740482	-3.801560207048028
995	1.616087990188008	-3.743303156625096	-3.745955861662356	-3.746731020161616
996	1.627247590368012	-3.713750574116976	-3.71640488847984	-3.717168245258004
997	1.638995667277212	-3.7522397417041082	-3.754896738276312	-3.755676188310516
998	1.634727735775404	-3.802743061366968	-3.805401130822908	-3.806199356322492
999	1.621330100122104	-3.798036320417136	-3.800690098338132	-3.801484032302772
1000	1.616127150444372	-3.743211961507536	-3.7458662758704	-3.746636606392848
1001	1.627287287066244	-3.713735553744672	-3.716394696084348	-3.717152688443832
1002	1.639053066557088	-3.752328254612328	-3.7549906156032122	-3.755767383428076
1003	1.6347867443808841	-3.8027950962281643	-3.805453702125972	-3.806255146276764
1004	1.621217447329824	-3.798065824719876	-3.8007174568734	-3.801518901024192
1005	1.616092281722952	-3.74325648618258	-3.745908654777972	-3.746685422602836
1006	1.627367216904576	-3.713781151303452	-3.71643975720126	-3.71720150465382
1007	1.639189859233428	-3.752304114728268	-3.754965402835416	-3.755745389311488
1008	1.635022778802804	-3.802559598248112	-3.805218740587788	-3.806019648296712
1009	1.62158598289314	-3.797652764481516	-3.800307615286248	-3.8011058407858322
1010	1.616282718586092	-3.742943740573536	-3.745598591378268	-3.7463737498775282
1011	1.62730445320602	-3.7137623758380722	-3.71641829952654	-3.71718272918844
1012	1.63917591174486	-3.752473093916688	-3.755133845581968	-3.755912222732436
1013	1.635079105198944	-3.802682979877752	-3.805339440008088	-3.80613820194954
1014	1.621612268544672	-3.797687633202936	-3.8003419475658	-3.801137490856044
1015	1.616266625330052	-3.742920673573212	-3.745573378610472	-3.746348537109732
1016	1.6273994034166561	-3.713693711278968	-3.71635124429304	-3.7171124553037322
1017	1.639336307863392	-3.752336301240348	-3.754998662231232	-3.755778112265436
1018	1.635248620829232	-3.802559598248112	-3.805220349913392	-3.806020721180448
1019	1.621605294800388	-3.797578735503732	-3.800233049866596	-3.801030738924312
1020	1.616301494051472	-3.742817140292688	-3.745472527539288	-3.746247686038548
1021	1.627455193370928	-3.71364489506898	-3.716303500966788	-3.717065248419348
1022	1.639140506581572	-3.752443589613948	-3.75510380483736	-3.755882181987828
1023	1.634793718125168	-3.80282567341464	-3.805484279312448	-3.806284650579504
1024	1.621300595819364	-3.797714991738204	-3.800368233217332	-3.801167531600652
1025	1.616054194350324	-3.742882586200584	-3.7455369005634482	-3.746310986178972
1026	1.627308744740964	-3.713807973396852	-3.716465506410924	-3.717227790305352
1027	1.639209171140676	-3.752524592336016	-3.7551869533269002	-3.7559669398029722
1028	1.634886522568332	-3.802762373274216	-3.805421515613892	-3.806220277555344
1029	1.621342438285068	-3.797677440807444	-3.800331755170308	-3.801131053553628
1030	1.616306858470152	-3.742787635989948	-3.745443559678416	-3.746219791061412
1031	1.627558190209584	-3.713698002813912	-3.716354462944248	-3.717116746838676
1032	1.639218290652432	-3.7525884289183082	-3.755248107699852	-3.756027021292188
1033	1.634949286266888	-3.802784903832672	-3.8054413639630082	-3.806243344555668
1034	1.621524828520188	-3.79756854310824	-3.800221784587368	-3.801020010086952
1035	1.61653806491526	-3.742699659523596	-3.74535397388646	-3.7461296688275882
1036	1.627805489910732	-3.713575694068008	-3.716232690640212	-3.716994438092772
1037	1.639460762376768	-3.752462901521196	-3.755120970977136	-3.755899884569472
1038	1.635054965314884	-3.802740379157628	-3.805394157078624	-3.806195064787548
1039	1.621510344589752	-3.797519726898252	-3.800171359051776	-3.800970120993228
1040	1.616185622607984	-3.742739356221828	-3.7453909883753522	-3.746166146874612
1041	1.627354878741612	-3.71389165832826	-3.716548654900464	-3.7173087930274202
1042	1.639197905861448	-3.7528545040848362	-3.75551418286638	-3.756293096458716
1043	1.634963233755456	-3.802913113439124	-3.80556957356946	-3.806369408394648
1044	1.621340828959464	-3.797603948271528	-3.800256653308788	-3.801055951692108
1045	1.61621619979446	-3.742775834268852	-3.745428539306112	-3.746203697805372
1046	1.62768264472296	-3.71382460309476	-3.716482136108832	-3.717243347119524
1047	1.639437695376444	-3.75272736736212	-3.755384900376192	-3.756164886852264
1048	1.634942312522604	-3.802848203973096	-3.805503591219696	-3.806302889603016
1049	1.621372479029676	-3.797504706525948	-3.8001579480050762	-3.8009534912953202
1050	1.616203325189628	-3.742711461244692	-3.745367921375028	-3.746140934106816
1051	1.627394038997976	-3.713921699072868	-3.716580304970676	-3.717342052423236
1052	1.639174302419256	-3.753010072226556	-3.755673506101176	-3.756449737484172
1053	1.634762068054956	-3.80309925876732	-3.8057600104326	-3.806555553722844
1054	1.6212415872138841	-3.79757390752692	-3.800228221889784	-3.801024838063764
1055	1.616301494051472	-3.742618656801528	-3.745274580489996	-3.746049202547388
1056	1.627698737979	-3.713814947141136	-3.716474089480812	-3.717238519142712
1057	1.639343818049544	-3.752901174527352	-3.755563535518236	-3.7563440584361762
1058	1.634848971637572	-3.802990897509984	-3.8056505762915283	-3.806452556884188
1059	1.621143954793908	-3.797539575247368	-3.800192280284628	-3.800991578667948
1060	1.616164164933264	-3.742692685779312	-3.745344854374704	-3.746120012873964
1061	1.627397257649184	-3.713937792328908	-3.716592106691772	-3.7173565363536722
1062	1.639039655510388	-3.753131844530592	-3.75579313263774	-3.756571509788208
1063	1.634698231472664	-3.8031373461399482	-3.805795952037756	-3.806596323304812
1064	1.621182578608404	-3.7975529862940682	-3.800207300656932	-3.801008208365856
1065	1.616233902376104	-3.742654061964816	-3.745308912769548	-3.746085680594412
1066	1.627589303837928	-3.713915261770452	-3.716574404110128	-3.717336151562688
1067	1.639288028095272	-3.753057815552808	-3.755719103659956	-3.756499626577896
1068	1.634910662452392	-3.803004844998552	-3.80566345089636	-3.806464895047152
1069	1.621379989215828	-3.797321243407092	-3.799977703537428	-3.800777001920748
1070	1.6163991264714481	-3.742428756380256	-3.74508575295246	-3.74586359366106
1071	1.627731460932948	-3.713783833512792	-3.716444048736204	-3.7172068690725
1072	1.63944949709754	-3.753030993459408	-3.755692281566556	-3.756471195158892
1073	1.634855408939988	-3.802960320323508	-3.805618926221316	-3.806418224604636
1074	1.621257680469924	-3.797362549430928	-3.800015790910056	-3.8008140164096402
1075	1.61636908572684	-3.742409444473008	-3.745060540184664	-3.745836235125792
1076	1.627686936257904	-3.713865909118596	-3.716523978574536	-3.7172867989108322
1077	1.639378150329096	-3.753109313972136	-3.755772747846756	-3.75654951567162
1078	1.634947676941284	-3.803031667091952	-3.805688663664156	-3.806487425605608
1079	1.621296840726288	-3.797283692476332	-3.799936397513592	-3.800731940803836
1080	1.616332071237948	-3.742357409611812	-3.745010114649072	-3.745783663822728
1081	1.627576965674964	-3.713890049002656	-3.716547582016728	-3.717310402353024
1082	1.639179130396068	-3.753245570206608	-3.755907931197492	-3.756687917673564
1083	1.634861309800536	-3.803097649441716	-3.805755718897656	-3.8065598452577882
1084	1.621426659658344	-3.797141535381312	-3.799793167534836	-3.800593002360024
1085	1.616440968937152	-3.7422281271216242	-3.744882441484488	-3.745656527100012
1086	1.627774376282388	-3.713769349582356	-3.71642634615456	-3.717187557165252
1087	1.639396389352608	-3.753162421717068	-3.755822100498612	-3.7566036963002882
1088	1.634977717685892	-3.803138955465552	-3.805797024921492	-3.80659954195602
1089	1.621465819914708	-3.79712061414846	-3.79977600139506	-3.800573690452776
1090	1.6164592079606641	-3.742137468445932	-3.744794465018136	-3.745569087075528
1091	1.627780813584804	-3.713819775117948	-3.716481599666964	-3.717240664910184
1092	1.639420529236668	-3.753308333905164	-3.755970694896048	-3.756746926279044
1093	1.634898324289428	-3.803181870814992	-3.805842622480272	-3.806643530189196
1094	1.621204036283124	-3.797248287313044	-3.799905820327116	-3.800702436501096
1095	1.616229074399292	-3.742342389239508	-3.745000995137316	-3.74577508075284
1096	1.627796906840844	-3.714063856167888	-3.716724607833168	-3.7174885010532
1097	1.639681239984516	-3.753282048253632	-3.755944409244516	-3.756722786394984
1098	1.6351354315950841	-3.802986069533172	-3.805645211872848	-3.806445046698036
1099	1.621332245889576	-3.7970299554727682	-3.7996826605100282	-3.800480349567744
1100	1.616320269516852	-3.742191112632732	-3.744845426995596	-3.745620049052988
1101	1.627660650606372	-3.714046153586244	-3.716707441693392	-3.717469189145952
1102	1.639105637860152	-3.75356958109488	-3.756231942085764	-3.757013001445572
1103	1.634550709958964	-3.803357823747696	-3.806018575412976	-3.8068194831219
1104	1.621077436002276	-3.797285301801936	-3.799941761932272	-3.800741060315592
1105	1.616242485445992	-3.742270506029196	-3.744923747508324	-3.745702124658792
1106	1.62776042879382	-3.714013430632296	-3.716670963646368	-3.717437002633872
1107	1.639406045306232	-3.753468730023696	-3.756130018130844	-3.7569110774906522
1108	1.634772260450448	-3.803208692908392	-3.805868371689936	-3.806668742956992
1109	1.621322053494084	-3.796991331658272	-3.7996477917886082	-3.80044655373006
1110	1.616567569218	-3.741927719675544	-3.744585252689616	-3.745359874747008
1111	1.627980906401568	-3.71383533193212	-3.716498229364872	-3.717258903933696
1112	1.639551957494328	-3.753454782535128	-3.756118752851616	-3.756894984234612
1113	1.634947140499416	-3.803171141977632	-3.80582974787544	-3.806628509816892
1114	1.6213145433079321	-3.796996696076952	-3.799651010439816	-3.800450308823136
1115	1.616413610401884	-3.742040908909692	-3.744697905481896	-3.745473063981156
1116	1.627818364515564	-3.713986608538896	-3.716648433087912	-3.717409644098604
1117	1.639358838421848	-3.753632344793436	-3.756296851551792	-3.757077374469732
1118	1.634702523007608	-3.803362651724508	-3.806026085599128	-3.806822701773108
1119	1.621219593097296	-3.797044439403204	-3.79970358174288	-3.800501270800596
1120	1.6165638141249241	-3.741889632302916	-3.74454931108446	-3.745322860258116
1121	1.627994853890136	-3.713783833512792	-3.716448340271148	-3.717206332630632
1122	1.639334698537788	-3.753576554839164	-3.756239988713784	-3.757016756538648
1123	1.634489555586012	-3.803412540818232	-3.8060716831579082	-3.8068731273087
1124	1.620949762837692	-3.7972305847314	-3.799886508419868	-3.800686343245056
1125	1.616278427051148	-3.7420795327241883	-3.744736529296392	-3.745513833563124
1126	1.627761501677556	-3.713991436515708	-3.7166527246228562	-3.717417154284756
1127	1.639332016328448	-3.753759481516152	-3.756423988274508	-3.757204511192448
1128	1.63487901238218	-3.803352459329016	-3.806012674552428	-3.806814655145088
1129	1.621416467262852	-3.796843810144572	-3.799502952484248	-3.800298495774492
1130	1.61672581956906	-3.741680419974396	-3.744338489430336	-3.745110965720256
1131	1.628265220591608	-3.713718387604896	-3.716379675712044	-3.717140350280868
1132	1.639706452752312	-3.753541149675876	-3.756205656434232	-3.756981887817228
1133	1.635076959431472	-3.803114815581492	-3.805775567246772	-3.806573792746356
1134	1.621472257217124	-3.79669682507274	-3.7993532852030762	-3.800150437818924
1135	1.616521435217352	-3.741693294579228	-3.744350291151432	-3.745122767441352
1136	1.628021139541668	-3.713824066652892	-3.71648535476004	-3.717246029328864
1137	1.639558931238612	-3.753622688839812	-3.756287195598168	-3.757065572748636
1138	1.634872575079764	-3.803266628630136	-3.805928453179152	-3.806727215120604
1139	1.62123193126026	-3.796797676143924	-3.799456282041732	-3.80025343465758
1140	1.616438286727812	-3.741688466602416	-3.744344926732752	-3.745120085232012
1141	1.62775774658448	-3.713903460049356	-3.7165631388309	-3.717325959167196
1142	1.639121194674324	-3.753956355681708	-3.75661925311446	-3.7573992395905322
1143	1.634465415701952	-3.80355791656446	-3.806216522462268	-3.807017430171192
1144	1.621123570002924	-3.796928567959716	-3.79958288232258	-3.800378962054692
1145	1.61643614096034	-3.741669691137036	-3.744327760592976	-3.745098627557292
1146	1.628072101519128	-3.713930818584624	-3.71659264313364	-3.717353317702464
1147	1.639536400680156	-3.7537895222607602	-3.756455101902852	-3.757234551937056
1148	1.634846289428232	-3.8033336838636362	-3.805995508412652	-3.806794806795972
1149	1.621294694958816	-3.796658201258244	-3.79931466138858	-3.800113423330032
1150	1.616609948125572	-3.741586006205628	-3.744243002777832	-3.745019234160828
1151	1.628184754311408	-3.713904532933092	-3.716565284598372	-3.717328641376536
1152	1.639593263518164	-3.7538994928437	-3.756563999602056	-3.757342913194392
1153	1.634797473218244	-3.80343453493482	-3.806099041693176	-3.806897803634628
1154	1.621222811748504	-3.796771390492392	-3.799429459948332	-3.80022929477352
1155	1.616569714985472	-3.741546845949264	-3.744203842521468	-3.744979537462596
1156	1.628140229636364	-3.7139018507237522	-3.716561529505296	-3.717327032050932
1157	1.639662464519136	-3.753936507332592	-3.756598868323476	-3.757379927683284
1158	1.634995420267536	-3.803314371956388	-3.8059745871798	-3.806777104214328
1159	1.6213810620995641	-3.796508533977072	-3.799165530549276	-3.799963219606992
1160	1.616487639379668	-3.741421318552152	-3.744080997333696	-3.744853473623616
1161	1.627832312004132	-3.713955494910552	-3.716620001668908	-3.717379066912128
1162	1.639132459953552	-3.754270710616356	-3.756936290258448	-3.7577130580833122
1163	1.634359200212088	-3.803838475661424	-3.806503518861648	-3.80729959859376
1164	1.620766836160704	-3.796853466098196	-3.79951314487974	-3.800307615286248
1165	1.615999477279788	-3.74173299127746	-3.744389451407796	-3.745164073465188
1166	1.6276053970939681	-3.71437982042814	-3.717041108535288	-3.717801246662244
1167	1.639246722071436	-3.754346885361612	-3.7570092463524962	-3.757789769270436
1168	1.634725590007932	-3.8035997590301642	-3.80626158357918	-3.807061418404368
1169	1.62133117300584	-3.796432359231816	-3.79908935580402	-3.799888117745472
1170	1.616821842663432	-3.74116972731606	-3.743827796772	-3.74460295527126
1171	1.628273803661496	-3.713787588605868	-3.716451022480488	-3.71721223349118
1172	1.639547665959384	-3.7541006585442	-3.756764628860688	-3.757543542453024
1173	1.634646196611468	-3.803527875819852	-3.806187554601396	-3.806986852984716
1174	1.62106563428118	-3.796591682466612	-3.7992486790388162	-3.800044758770928
1175	1.6165037326357081	-3.741337633620744	-3.743995166634816	-3.744767106482868
1176	1.628069419309788	-3.713915261770452	-3.716576013435732	-3.717336688004556
1177	1.63952459895906	-3.754158594265944	-3.756824710349904	-3.757600405291032
1178	1.634797473218244	-3.803435071376688	-3.8060974323675723	-3.806895121425288
1179	1.621086019072164	-3.796365840440184	-3.799022837012388	-3.799819989628236
1180	1.6165321640547121	-3.741210496898028	-3.743869102795836	-3.744642115527624
1181	1.628159541543612	-3.713842842118272	-3.716506275992892	-3.71726587767798
1182	1.639467199679184	-3.754277147918772	-3.756943264002732	-3.75771895894386
1183	1.63471003319376	-3.803563817425008	-3.806225641974024	-3.807024403915476
1184	1.621120887793584	-3.796337945463048	-3.798993332709648	-3.799791558209232
1185	1.616439896053416	-3.741178846827816	-3.743836379841888	-3.744610465457412
1186	1.628029722611556	-3.714083704517004	-3.716747674833492	-3.717506740076712
1187	1.639487584470168	-3.754322209035684	-3.756988861561512	-3.757765629386376
1188	1.63483877924208	-3.803523584284908	-3.806183263066452	-3.806983634333508
1189	1.621389645169452	-3.796211881624068	-3.79886941463814	-3.799663885044648
1190	1.616840618128812	-3.740876293614264	-3.743536508837676	-3.74430523003452
1191	1.628260929056664	-3.713793489466416	-3.716455314015432	-3.717215452142388
1192	1.639543910866308	-3.754302360686568	-3.756966331003056	-3.757743635269788
1193	1.634693403495852	-3.803524120726776	-3.80618379950832	-3.806984170775376
1194	1.621156292956872	-3.796322388648876	-3.798981530988552	-3.7997786836044
1195	1.616573470078548	-3.741040444825872	-3.743699587165548	-3.744472063455468
1196	1.628189045846352	-3.713911506677376	-3.716574404110128	-3.717334005795216
1197	1.639541765098836	-3.7543694159200682	-3.7570349955621603	-3.757812299828892
1198	1.634660680541904	-3.803617461611808	-3.806278213277088	-3.807077511660408
1199	1.62108172753722	-3.796271963113284	-3.798926813918016	-3.799723430091996
1200	1.616414146843752	-3.741042054151476	-3.743698514281812	-3.744472063455468
1201	1.627965886029264	-3.714108380842932	-3.716770741833816	-3.7175308799607722
1202	1.639353474003168	-3.754576482481116	-3.757240452797604	-3.758018829948072
1203	1.634627421146088	-3.803664668496192	-3.806326493045208	-3.807125791428528
1204	1.621095675025788	-3.796107275459808	-3.798764272032012	-3.799557669554784
1205	1.616530554729108	-3.74087468428866	-3.743532217302732	-3.744302011383312
1206	1.628121454170984	-3.713968905957252	-3.7166301940644	-3.717389795749488
1207	1.639412482608648	-3.754511573015088	-3.757173934005972	-3.757952847598308
1208	1.634572167633684	-3.803673788007948	-3.80633400323136	-3.807135447382152
1209	1.621223348190372	-3.796031100714552	-3.798684878635548	-3.799484713460736
1210	1.616894262315612	-3.740577495493788	-3.743231809856652	-3.744006968355912
1211	1.628555435642196	-3.71361002634756	-3.716271314454708	-3.717031989023532
1212	1.639856656475352	-3.7542428156392202	-3.756906785955708	-3.7576846266643082
1213	1.635036726291372	-3.803350313561544	-3.806009992343088	-3.8068103636101442
1214	1.62139286382066	-3.795815451083616	-3.79847244765582	-3.799268527387932
1215	1.616592245543928	-3.740630066796852	-3.743286526927188	-3.744059003217108
1216	1.628177780567124	-3.713967833073516	-3.716629657622532	-3.71739194151696
1217	1.639619549169696	-3.754528739154864	-3.757192173029484	-3.757971623063688
1218	1.634824295311644	-3.803597076820824	-3.806256755602368	-3.807058736195028
1219	1.621199208306312	-3.795949561550616	-3.798607094564688	-3.799404247180536
1220	1.61665608212622	-3.740692830495408	-3.743348754183876	-3.744123376241268
1221	1.628277558754572	-3.7139715881665922	-3.716633949157476	-3.7173946237263
1222	1.639450033539408	-3.754682161529112	-3.757348277613072	-3.758126118321672
1223	1.634611327890048	-3.803781612823416	-3.806444510256168	-3.80724327219762
1224	1.621122497119188	-3.7961078119016762	-3.798764272032012	-3.799559278880388
1225	1.616685049987092	-3.740655279564648	-3.743312276136852	-3.744084752426772
1226	1.628299016429292	-3.713834795490252	-3.7164960835974	-3.717257294608092
1227	1.639463981027976	-3.754702009878228	-3.757365443752848	-3.758144893787052
1228	1.634619374518068	-3.8037869772420962	-3.80644665602364	-3.807247027290696
1229	1.621227103283448	-3.795887334293928	-3.7985448673080002	-3.799342019923848
1230	1.616834180826396	-3.740416562933388	-3.743075168831196	-3.7438476451211162
1231	1.6285302228744	-3.7138669820023322	-3.716529342993216	-3.717288944678304
1232	1.63982768861448	-3.754611887644404	-3.757277467286496	-3.758054771553228
1233	1.635017950825992	-3.803507491028868	-3.806168779136016	-3.806968077519336
1234	1.621377307006488	-3.795708162710016	-3.79836515928222	-3.799161239014332
1235	1.616830962175188	-3.7404251460032762	-3.743082679017348	-3.743856228191004
1236	1.628307063057312	-3.713907215142432	-3.716566357482108	-3.717328104934668
1237	1.6394929488888481	-3.754877962810932	-3.7575387144762122	-3.758318164510416
1238	1.63459738040148	-3.803881927452732	-3.806539996908672	-3.807339295291992
1239	1.621235149911468	-3.795932931852708	-3.798588319099308	-3.799382253063948
1240	1.616790729035088	-3.740549600516652	-3.743207133530724	-3.743976391169436
1241	1.628301162196764	-3.714004847562408	-3.716663453460216	-3.717425737354644
1242	1.639436622492708	-3.754978277440248	-3.757640638431132	-3.7584195520234682
1243	1.634382267212412	-3.803969367477216	-3.806630119142496	-3.807429417525816
1244	1.620908993255724	-3.796062214342896	-3.798720820240704	-3.799515290647212
1245	1.61678751038388	-3.740488982585568	-3.743145442715904	-3.743919528331428
1246	1.628485698199356	-3.71392384484034	-3.7165829871800162	-3.717344734632576
1247	1.639732738403844	-3.754947163811904	-3.757611134128392	-3.758390584162596
1248	1.63482268598604	-3.803854568917464	-3.806513174815272	-3.807315155407932
1249	1.621335464540784	-3.7957151364543	-3.798371060142768	-3.799168749200484
1250	1.616887288571328	-3.740289426210672	-3.742945886341008	-3.743718362630928
1251	1.628477115129468	-3.713993045841312	-3.7166527246228562	-3.717415008517284
1252	1.639560540564216	-3.755013682603536	-3.757677652920024	-3.758457639396096
1253	1.634498675097768	-3.803908213104264	-3.80657003765328	-3.807370408920336
1254	1.620988386652188	-3.795912010619856	-3.798570616517664	-3.799367769133512
1255	1.616710262754888	-3.7404213909102	-3.743080533249876	-3.743855155307268
1256	1.628529149990664	-3.713974270375932	-3.716638777134288	-3.717399451703112
1257	1.6397783359626241	-3.754964866393548	-3.757629909593772	-3.758408823186108
1258	1.63485487249812	-3.803784295032756	-3.806445583139904	-3.807247027290696
1259	1.621383207867036	-3.795576734452356	-3.798232658140824	-3.799031420082276
1260	1.616862075803532	-3.740195548883772	-3.742849863246636	-3.743626094629632
1261	1.628294724894348	-3.714077267214588	-3.716738018879868	-3.717499766332428
1262	1.639372785910416	-3.755335547724336	-3.7579984451570883	-3.758777358749424
1263	1.634477217423048	-3.804065390571588	-3.806725069353132	-3.807524367736452
1264	1.621060806304368	-3.79577682726912	-3.798433823841324	-3.799227221364096
1265	1.616720991592248	-3.740322685606488	-3.742978609294956	-3.743753231352348
1266	1.628209967079204	-3.714151296192372	-3.716808292764576	-3.717572185984608
1267	1.639379223212832	-3.755367197794548	-3.758027949459828	-3.758808472377768
