0	-0.107311440600324
1	-0.106641424707192
2	-0.106516433751948
3	-0.10716981994717201
4	-0.107654226953976
5	-0.107218099715292
6	-0.106445086983504
7	-0.106471909076904
8	-0.107514215626428
9	-0.107971264097964
10	-0.10716606485409601
11	-0.106567932171276
12	-0.106496585402832
13	-0.106876386245376
14	-0.107392443322392
15	-0.106999231433148
16	-0.106229437352568
17	-0.106185449119392
18	-0.10688067778032
19	-0.107420874741396
20	-0.107064140899176
21	-0.106354428307812
22	-0.1062691340508
23	-0.10696919068854
24	-0.107559813185208
25	-0.10729373801868
26	-0.106481565030528
27	-0.106290055283652
28	-0.106999231433148
29	-0.10756517760388801
30	-0.10708881722510401
31	-0.106251431469156
32	-0.10617257451456
33	-0.107018543340396
34	-0.107637597256068
35	-0.107126368155864
36	-0.106227291585096
37	-0.106201005933564
38	-0.1072213183665
39	-0.107957316609396
40	-0.107562495394548
41	-0.106533063449856
42	-0.105940831627584
43	-0.106704724847616
44	-0.107339872019328
45	-0.10696114406052
46	-0.106227828026964
47	-0.106437040355484
48	-0.107485247765556
49	-0.10781515951437601
50	-0.107059849364232
51	-0.106206370352244
52	-0.106265915399592
53	-0.107034636596436
54	-0.107490075742368
55	-0.107010496712376
56	-0.106195641514884
57	-0.106053484419864
58	-0.106820596291104
59	-0.107315732135268
60	-0.106814695430556
61	-0.106028271652068
62	-0.106240702631796
63	-0.106849564151976
64	-0.107010496712376
65	-0.106631768753568
66	-0.105931712115828
67	-0.105905962906164
68	-0.106815231872424
69	-0.10735918392657601
70	-0.106566322845672
71	-0.105781508392788
72	-0.105910254441108
73	-0.106865120966148
74	-0.107427312043812
75	-0.106883896431528
76	-0.105923665487808
77	-0.105918837510996
78	-0.10674924952266
79	-0.107377422950088
80	-0.106917692269212
81	-0.105975163907136
82	-0.105892551859464
83	-0.106822742058576
84	-0.107548011464112
85	-0.107231510761992
86	-0.10643972256482401
87	-0.106429530169332
88	-0.107263160832204
89	-0.108120931379136
90	-0.107572151348172
91	-0.106284690864972
92	-0.106189204212468
93	-0.107103837597408
94	-0.107451451927872
95	-0.106718135894316
96	-0.105845881416948
97	-0.105785799927732
98	-0.106852246361316
99	-0.10775239581582
100	-0.107532991091808
101	-0.106644106916532
102	-0.10636623002890801
103	-0.10699869499128001
104	-0.107613993813876
105	-0.107230974320124
106	-0.10657490591556
107	-0.106521798170628
108	-0.107117785085976
109	-0.107664955791336
110	-0.107310904158456
111	-0.106349063889132
112	-0.106308830749032
113	-0.107350600856688
114	-0.107904745306332
115	-0.107211125971008
116	-0.106197250840488
117	-0.106250895027288
118	-0.107287837158132
119	-0.107876850329196
120	-0.107202006459252
121	-0.106162382119068
122	-0.106131804932592
123	-0.107020152666
124	-0.107628477744312
125	-0.107278717646376
126	-0.106580806776108
127	-0.106610847520716
128	-0.10735811104284
129	-0.107721282187476
130	-0.107241166715616
131	-0.106277717120688
132	-0.106178475375108
133	-0.107200933575516
134	-0.108035100680256
135	-0.107422484067
136	-0.10640109875032801
137	-0.106418801331972
138	-0.107264770157808
139	-0.107880605422272
140	-0.107464862974572
141	-0.106593144939072
142	-0.106779290267268
143	-0.10757268779004
144	-0.107862902840628
145	-0.10749704948665201
146	-0.106830252244728
147	-0.106771243639248
148	-0.107447696834796
149	-0.108044220192012
150	-0.10771591776879601
151	-0.107031417945228
152	-0.107083989248292
153	-0.107655299837712
154	-0.107769561955596
155	-0.107335044042516
156	-0.10685385568692
157	-0.107058776480496
158	-0.107772244164936
159	-0.108153117891216
160	-0.107613457372008
161	-0.106675220544876
162	-0.106626404334888
163	-0.10738117804316401
164	-0.107978237842248
165	-0.107595754790364
166	-0.106787873337156
167	-0.106786264011552
168	-0.107524944463788
169	-0.107893480027104
170	-0.107408536578432
171	-0.106793774197704
172	-0.10691554650174
173	-0.107595754790364
174	-0.10800452349378
175	-0.107634915046728
176	-0.107207370877932
177	-0.107548011464112
178	-0.10833926321941201
179	-0.108525408547608
180	-0.107980920051588
181	-0.107272816785828
182	-0.107365621228992
183	-0.108200861217468
184	-0.108690632642952
185	-0.108285082590744
186	-0.107691241442868
187	-0.10748792997489601
188	-0.107732011024836
189	-0.108150972123744
190	-0.107832325654152
191	-0.107061458689836
192	-0.106871021826696
193	-0.107653690512108
194	-0.108233584171416
195	-0.107708944024512
196	-0.106811476779348
197	-0.106883896431528
198	-0.107877923212932
199	-0.108491076268056
200	-0.107878996096668
201	-0.10698796615392
202	-0.107001913642488
203	-0.107876850329196
204	-0.108404709127308
205	-0.10776580686252
206	-0.10685385568692
207	-0.106992257688864
208	-0.10794390556269601
209	-0.108446551593012
210	-0.107925130097316
211	-0.107184303877608
212	-0.107394589089864
213	-0.108242703683172
214	-0.108501805105416
215	-0.108003987051912
216	-0.107338262693724
217	-0.107448233276664
218	-0.108254505404268
219	-0.108650399502852
220	-0.108056558354976
221	-0.107329143181968
222	-0.107660664256392
223	-0.108322097079636
224	-0.108421875267084
225	-0.10794766065577201
226	-0.107683731256716
227	-0.107891334259632
228	-0.108131123774628
229	-0.108170284030992
230	-0.107816232398112
231	-0.107598973441572
232	-0.107935322492808
233	-0.108212662938564
234	-0.108167065379784
235	-0.107853246887004
236	-0.107441795974248
237	-0.107501877463464
238	-0.10789991732952
239	-0.107924593655448
240	-0.107563568278284
241	-0.107404245043488
242	-0.107635987930464
243	-0.108003987051912
244	-0.108064068541128
245	-0.107719672861872
246	-0.10741175522964
247	-0.107622040441896
248	-0.108001304842572
249	-0.107887042724688
250	-0.107452524811608
251	-0.107301248204832
252	-0.107696605861548
253	-0.108080161797168
254	-0.10776312465318
255	-0.107360256810312
256	-0.107293201576812
257	-0.107579125092456
258	-0.107851101119532
259	-0.107766879746256
260	-0.107488466416764
261	-0.1074358951137
262	-0.107692850768472
263	-0.107958389493132
264	-0.107888115608424
265	-0.107565714045756
266	-0.107471836718856
267	-0.10792191144610801
268	-0.108068360076072
269	-0.107697142303416
270	-0.107376350066352
271	-0.107357574600972
272	-0.107526017347524
273	-0.107549620789716
274	-0.107514215626428
275	-0.107490612184236
276	-0.107544792812904
277	-0.107685877024188
278	-0.107644571000352
279	-0.107263160832204
280	-0.106909109199324
281	-0.106830788686596
282	-0.1071676741797
283	-0.107334507600648
284	-0.107185913203212
285	-0.106954170316236
286	-0.106940759269536
287	-0.107217026831556
288	-0.107489002858632
289	-0.10740639081096
290	-0.107146752946848
291	-0.107109738457956
292	-0.107402635717884
293	-0.107612384488272
294	-0.107428384927548
295	-0.107120467295316
296	-0.107117785085976
297	-0.107451451927872
298	-0.107705188931436
299	-0.107630087069916
300	-0.107361329694048
301	-0.107278717646376
302	-0.107521189370712
303	-0.107626868418708
304	-0.107448233276664
305	-0.107116175760372
306	-0.107059849364232
307	-0.107394589089864
308	-0.107675148186828
309	-0.107384396694372
310	-0.10704965696874
311	-0.107145143621244
312	-0.107571614906304
313	-0.107703579605832
314	-0.107396198415468
315	-0.107122613062788
316	-0.106989039037656
317	-0.10714407073750801
318	-0.107474518928196
319	-0.107495976602916
320	-0.107289446483736
321	-0.107180548784532
322	-0.107387078903712
323	-0.107656372721448
324	-0.107596291232232
325	-0.107281399855716
326	-0.107141924970036
327	-0.107466472300176
328	-0.107775999258012
329	-0.107667101558808
330	-0.107340944903064
331	-0.107252431994844
332	-0.107541037719828
333	-0.107875241003592
334	-0.10797501919104
335	-0.10778726453724
336	-0.107351137298556
337	-0.107173575040248
338	-0.107416583206452
339	-0.107603264976516
340	-0.107203615784856
341	-0.106903744780644
342	-0.107078088387744
343	-0.107582880185532
344	-0.107939614027752
345	-0.107361329694048
346	-0.106773925848588
347	-0.107001913642488
348	-0.107432140020624
349	-0.107521189370712
350	-0.107224537017708
351	-0.107067359550384
352	-0.107468618067648
353	-0.107822669700528
354	-0.10761828534882
355	-0.10729642022802
356	-0.107349527972952
357	-0.107959462376868
358	-0.108698679270972
359	-0.108471764360808
360	-0.107313586367796
361	-0.106726182522336
362	-0.107008350944904
363	-0.107416583206452
364	-0.107498658812256
365	-0.10717893945892801
366	-0.107057167154892
367	-0.10740692725282801
368	-0.107814623072508
369	-0.107829643444812
370	-0.107580197976192
371	-0.107502413905332
372	-0.107718599978136
373	-0.107958389493132
374	-0.107888652050292
375	-0.107585562394872
376	-0.107530845324336
377	-0.10784359093338
378	-0.108074797378488
379	-0.107899380887652
380	-0.107455743462816
381	-0.107261015064732
382	-0.107628477744312
383	-0.107928885190392
384	-0.107822669700528
385	-0.107538891952356
386	-0.107396198415468
387	-0.107637597256068
388	-0.108109666099908
389	-0.10813702463517601
390	-0.107801212025808
391	-0.107711089791984
392	-0.10805548547124
393	-0.108374131940832
394	-0.10832638861458001
395	-0.107942296237092
396	-0.10774703139714
397	-0.108019007424216
398	-0.108413828639064
399	-0.10840363624357201
400	-0.108179939984616
401	-0.107995940423892
402	-0.108115566960456
403	-0.108349455614904
404	-0.108315123335352
405	-0.107963217469944
406	-0.107778145025484
407	-0.108231974845812
408	-0.108727110689976
409	-0.108485175407508
410	-0.107958389493132
411	-0.107707334698908
412	-0.107873631677988
413	-0.108245385892512
414	-0.108257187613608
415	-0.107938541144016
416	-0.10784466381711601
417	-0.108187986612636
418	-0.10856778745518
419	-0.108522726338268
420	-0.108132733100232
421	-0.107952488632584
422	-0.1082137358223
423	-0.10852487210574
424	-0.108500195779812
425	-0.108236802822624
426	-0.108140243286384
427	-0.108364475987208
428	-0.108704043689652
429	-0.108727647131844
430	-0.10840953710412
431	-0.108112348309248
432	-0.108419729499612
433	-0.108766807388208
434	-0.108568860338916
435	-0.108128978007156
436	-0.107969118330492
437	-0.108250750311192
438	-0.108600510409128
439	-0.108634306246812
440	-0.108366085312812
441	-0.108303858056124
442	-0.108530772966288
443	-0.10879577524908
444	-0.108705653015256
445	-0.108101619471888
446	-0.107959998818736
447	-0.108334971684468
448	-0.108587635804296
449	-0.10852862719881601
450	-0.108206762078016
451	-0.108073724494752
452	-0.10820300698494
453	-0.108424557476424
454	-0.10846800926773201
455	-0.108228219752736
456	-0.107963217469944
457	-0.108116639844192
458	-0.108610166362752
459	-0.108679903805592
460	-0.108326925056448
461	-0.108133805983968
462	-0.108310831800408
463	-0.108545793338592
464	-0.108413292197196
465	-0.108038319331464
466	-0.107852174003268
467	-0.1081600916355
468	-0.108565641687708
469	-0.108625723176924
470	-0.108269525776572
471	-0.108106983890568
472	-0.108434749871916
473	-0.108820451575008
474	-0.10869975215470801
475	-0.1082807910558
476	-0.10805548547124
477	-0.108147753472536
478	-0.108492149151792
479	-0.1085221898964
480	-0.108242703683172
481	-0.108016325214876
482	-0.108194423915052
483	-0.108414365080932
484	-0.108364475987208
485	-0.108067287192336
486	-0.108020080307952
487	-0.108321560637768
488	-0.108665419875156
489	-0.108729792899316
490	-0.108594073106712
491	-0.108648790177248
492	-0.108689023317348
493	-0.108665419875156
494	-0.108705116573388
495	-0.108469082151468
496	-0.10748792997489601
497	-0.10820568919428
498	-0.108504487314756
499	-0.10842563036016
500	-0.108018470982348
501	-0.107944978446432
502	-0.108185304403296
503	-0.108400954034232
504	-0.10826577068349601
505	-0.107939614027752
506	-0.107868267259308
507	-0.10807694314596
508	-0.108348919173036
509	-0.10832370640524
510	-0.108097864378812
511	-0.107962681028076
512	-0.108206225636148
513	-0.108636988456152
514	-0.108470155035204
515	-0.108010424354328
516	-0.107868267259308
517	-0.10827006221844
518	-0.108706725898992
519	-0.10864449864230401
520	-0.108238948590096
521	-0.108086062657716
522	-0.10834516407996
523	-0.108646107967908
524	-0.108527017873212
525	-0.108142925495724
526	-0.108132733100232
527	-0.1084014904761
528	-0.108462108407184
529	-0.108238412148228
530	-0.108062995657392
531	-0.10805977700618401
532	-0.108410609987856
533	-0.108812941388856
534	-0.108691705526688
535	-0.10805816768058
536	-0.107834471421624
537	-0.108067823634204
538	-0.108434749871916
539	-0.108385933661928
540	-0.108003987051912
541	-0.10772020930374
542	-0.108001304842572
543	-0.108389688755004
544	-0.108351601382376
545	-0.108016861656744
546	-0.108030809145312
547	-0.108359111568528
548	-0.108628405386264
549	-0.108560277269028
550	-0.108175112007804
551	-0.10800720570312
552	-0.108148826356272
553	-0.108515752593984
554	-0.108689023317348
555	-0.108510388175304
556	-0.108092499960132
557	-0.108127368681552
558	-0.108379496359512
559	-0.108368767522152
560	-0.108049048168824
561	-0.108064068541128
562	-0.108372522615228
563	-0.108572078990124
564	-0.108398271824892
565	-0.107941223353356
566	-0.108002377726308
567	-0.108489466942452
568	-0.108789874388532
569	-0.108744276829752
570	-0.108482493198168
571	-0.108271135102176
572	-0.108511997500908
573	-0.10867024785196801
574	-0.10842563036016
575	-0.108022762517292
576	-0.108126832239684
577	-0.108609093479016
578	-0.108944369646516
579	-0.108797921016552
580	-0.108301175846784
581	-0.107997013307628
582	-0.108288301241952
583	-0.108513070384644
584	-0.108091963518264
585	-0.107898844445784
586	-0.108019007424216
587	-0.108308149591068
588	-0.108651472386588
589	-0.108602119734732
590	-0.108218563799112
591	-0.10817886710088
592	-0.108566178129576
593	-0.108772708248756
594	-0.108444942267408
595	-0.108097864378812
596	-0.108141852611988
597	-0.108580662060012
598	-0.108910037366964
599	-0.108807040528308
600	-0.108373059057096
601	-0.108237339264492
602	-0.108665419875156
603	-0.108670784293836
604	-0.10830224873052
605	-0.108042610866408
606	-0.108113957634852
607	-0.10850663308222801
608	-0.108808649853912
609	-0.108583344269352
610	-0.10830063940491601
611	-0.108354820033584
612	-0.108683658898668
613	-0.108897699204
614	-0.108812404946988
615	-0.108489466942452
616	-0.108412755755328
617	-0.10870458013152
618	-0.108836544831048
619	-0.108496977128604
620	-0.108143461937592
621	-0.108212126496696
622	-0.108646644409776
623	-0.109102619997576
624	-0.109459890281664
625	-0.109105838648784
626	-0.108486248291244
627	-0.108692241968556
628	-0.108948124739592
629	-0.108692241968556
630	-0.108451916011692
631	-0.108830107528632
632	-0.109382642652672
633	-0.10896260867002801
634	-0.108451379569824
635	-0.108388615871268
636	-0.108745349713488
637	-0.109251214395012
638	-0.109230829604028
639	-0.108767343830076
640	-0.108551157757272
641	-0.108705653015256
642	-0.108948124739592
643	-0.108936323018496
644	-0.108647180851644
645	-0.108391834522476
646	-0.108569933222652
647	-0.108925594181136
648	-0.108969582414312
649	-0.108651472386588
650	-0.108461571965316
651	-0.109003914693864
652	-0.109484566607592
653	-0.109268380534788
654	-0.108793629481608
655	-0.108582807827484
656	-0.108820451575008
657	-0.109113885276804
658	-0.10915519130064
659	-0.10883761771478401
660	-0.108690096201084
661	-0.109035028322208
662	-0.109470619119024
663	-0.109437896165076
664	-0.109102083555708
665	-0.108813477830724
666	-0.109071506369232
667	-0.109335435768288
668	-0.1091793311847
669	-0.1088172329238
670	-0.10869599706163201
671	-0.108906818715756
672	-0.109243167766992
673	-0.109042002066492
674	-0.108660591898344
675	-0.108741058178544
676	-0.109209908371176
677	-0.109390689280692
678	-0.109379424001464
679	-0.109382642652672
680	-0.1090988649045
681	-0.109200252417552
682	-0.10925872458116401
683	-0.108764661620736
684	-0.108204079868676
685	-0.108181012868352
686	-0.108717454736352
687	-0.109072579252968
688	-0.108860684715108
689	-0.108366085312812
690	-0.10831297756788
691	-0.108828498203028
692	-0.109212054138648
693	-0.109087599625272
694	-0.108714236085144
695	-0.10868312245680001
696	-0.109068287718024
697	-0.10936440362916
698	-0.10915787350998
699	-0.10871530896888
700	-0.108692778410424
701	-0.109051658020116
702	-0.109406782536732
703	-0.109297884837528
704	-0.109005524019468
705	-0.109150899765696
706	-0.109571470190208
707	-0.109609021120968
708	-0.109308613674888
709	-0.10882474310995201
710	-0.108849955877748
711	-0.109406782536732
712	-0.109749032448516
713	-0.10940034523431601
714	-0.108842445691596
715	-0.108740521736676
716	-0.109071506369232
717	-0.10937781467586
718	-0.109265698325448
719	-0.108753396341508
720	-0.108620895200112
721	-0.108957780693216
722	-0.109304858581812
723	-0.109235121138972
724	-0.108922911971796
725	-0.108845664342804
726	-0.109200252417552
727	-0.109517826003408
728	-0.109511388700992
729	-0.109163774370528
730	-0.108892871227188
731	-0.10922492874348
732	-0.10964335340052
733	-0.109589172771852
734	-0.1091793311847
735	-0.108921302646192
736	-0.109198643091948
737	-0.10947973863078
738	-0.109362257861688
739	-0.108947051855856
740	-0.108833862621708
741	-0.109141243812072
742	-0.109603656702288
743	-0.109650863586672
744	-0.109240485557652
745	-0.109127832765372
746	-0.10943950549068
747	-0.109617067748988
748	-0.109775854541916
749	-0.109712554401492
750	-0.109520508212748
751	-0.109087599625272
752	-0.109111203067464
753	-0.10915572774250801
754	-0.108853710970824
755	-0.108763052295132
756	-0.10917396676602
757	-0.109428240211452
758	-0.109237803348312
759	-0.108888043250376
760	-0.108715845410748
761	-0.108976019716728
762	-0.109341873070704
763	-0.109430385978924
764	-0.10911710392801201
765	-0.108897162762132
766	-0.109138561602732
767	-0.109559668469112
768	-0.109541965887468
769	-0.109171820998548
770	-0.108886433924772
771	-0.109048975810776
772	-0.10938317909454
773	-0.109426630885848
774	-0.10910798441625601
775	-0.108939005227836
776	-0.109175039649756
777	-0.109577907492624
778	-0.109609021120968
779	-0.109238876232048
780	-0.109099401346368
781	-0.109405709652996
782	-0.109743668029836
783	-0.109665883958976
784	-0.10941804781596
785	-0.10943896904881201
786	-0.109824134310036
787	-0.110089136592828
788	-0.109864367450136
789	-0.109604193144156
790	-0.109506024282312
791	-0.109456135188588
792	-0.109626723702612
793	-0.109535528585052
794	-0.109125150556032
795	-0.109079552997252
796	-0.109480811514516
797	-0.109912110776388
798	-0.109907282799576
799	-0.10949851409616
800	-0.109430922420792
801	-0.110023154243064
802	-0.110481812040204
803	-0.11024255896707601
804	-0.109760297727744
805	-0.10948510304946
806	-0.109741522262364
807	-0.11015297317512
808	-0.110045148359652
809	-0.10958434479504
810	-0.109508706491652
811	-0.110081089964808
812	-0.110445870435048
813	-0.110200716501372
814	-0.109678758563808
815	-0.109502269189236
816	-0.10995448968396
817	-0.1102522149207
818	-0.110021008475592
819	-0.10954411165494
820	-0.109410537629808
821	-0.109717382378304
822	-0.110067678918108
823	-0.109968973614396
824	-0.109590782097456
825	-0.109533919259448
826	-0.109908355683312
827	-0.11034877445694
828	-0.110347165131336
829	-0.109849347077832
830	-0.109685195866224
831	-0.11009932898832
832	-0.110537601994476
833	-0.110314978619256
834	-0.109889580217932
835	-0.109696461145452
836	-0.109883679357384
837	-0.110127223965456
838	-0.110034419522292
839	-0.10968090433128
840	-0.109590782097456
841	-0.110080017081072
842	-0.110400272876268
843	-0.11018730545467201
844	-0.10978014607686
845	-0.10970772642468
846	-0.110056950080748
847	-0.110404564411212
848	-0.110216273315544
849	-0.109786046937408
850	-0.109649254261068
851	-0.110064996708768
852	-0.110459817923616
853	-0.110343946480128
854	-0.110044075475916
855	-0.110022617801196
856	-0.110248996269492
857	-0.110525263831512
858	-0.110386861829568
859	-0.110001160126476
860	-0.109831644496188
861	-0.110127223965456
862	-0.110451771295596
863	-0.110384716062096
864	-0.109987749079776
865	-0.10979087491422
866	-0.110086454383488
867	-0.110329462549692
868	-0.110202325826976
869	-0.109856857263984
870	-0.10974044937862801
871	-0.110014034731308
872	-0.110325707456616
873	-0.110224856385432
874	-0.109871877636288
875	-0.109790338472352
876	-0.110203398710712
877	-0.110613776739732
878	-0.11053491978513601
879	-0.11015565538446
880	-0.109913720101992
881	-0.110129906174796
882	-0.110427094969668
883	-0.110296203153876
884	-0.109896553962216
885	-0.109740985820496
886	-0.109931422683636
887	-0.110235585222792
888	-0.110259725106852
889	-0.11004836701086
890	-0.110003842335816
891	-0.110317124386728
892	-0.1106947794618
893	-0.11056978850655601
894	-0.10997219226560401
895	-0.109748496006648
896	-0.11005855940635201
897	-0.110373987224736
898	-0.110286547200252
899	-0.109861148798928
900	-0.109760297727744
901	-0.110083772174148
902	-0.110451234853728
903	-0.11031390573552
904	-0.109792484239824
905	-0.109684122982488
906	-0.110045148359652
907	-0.110442115341972
908	-0.110667420926532
909	-0.110386861829568
910	-0.109882606473648
911	-0.110015644056912
912	-0.110283864990912
913	-0.110155118942592
914	-0.109845055542888
915	-0.109654618679748
916	-0.109900309055292
917	-0.110393835573852
918	-0.110283328549044
919	-0.109669639052052
920	-0.109526409073296
921	-0.109833253821792
922	-0.110118640895568
923	-0.11001081608010001
924	-0.109693242494244
925	-0.10956396000405601
926	-0.109837545356736
927	-0.110261334432456
928	-0.110153509616988
929	-0.10966481107524
930	-0.109653545796012
931	-0.110176576617312
932	-0.110601975018636
933	-0.110247386943888
934	-0.109618677074592
935	-0.1095011963055
936	-0.109775854541916
937	-0.109977020242416
938	-0.109854711496512
939	-0.109461499607268
940	-0.10947973863078
941	-0.109974874474944
942	-0.11022002840862
943	-0.110035492406028
944	-0.109669639052052
945	-0.109518362445276
946	-0.10976405282082
947	-0.110096110337112
948	-0.109940542195392
949	-0.109530164166372
950	-0.10960312026042
951	-0.110018326266252
952	-0.110156191826328
953	-0.109778000309388
954	-0.109449697886172
955	-0.109475447095836
956	-0.109853638612776
957	-0.110172821524236
958	-0.110032810196688
959	-0.109605266027892
960	-0.10951728956154
961	-0.1098767056131
962	-0.11014224433776
963	-0.109889043776064
964	-0.109565032887792
965	-0.109756542634668
966	-0.110292984502668
967	-0.110526873157116
968	-0.110156191826328
969	-0.109590245655588
970	-0.10944486990936
971	-0.109849347077832
972	-0.110121323104908
973	-0.110010279638232
974	-0.109689487401168
975	-0.109606875353496
976	-0.10998131177736
977	-0.110195352082692
978	-0.11002369068493201
979	-0.1097694172395
980	-0.109752787541592
981	-0.109975410916812
982	-0.110186232570936
983	-0.110029055103612
984	-0.109689487401168
985	-0.109565032887792
986	-0.109831644496188
987	-0.110133661267872
988	-0.110043539034048
989	-0.109768344355764
990	-0.109836472473
991	-0.110127223965456
992	-0.110360039736168
993	-0.110208763129392
994	-0.109582735469436
995	-0.109290374651376
996	-0.109868122543212
997	-0.110332144759032
998	-0.109993649940324
999	-0.109526945515164
1000	-0.109528554840768
1001	-0.10988475224112
1002	-0.110124005314248
1003	-0.10988582512485601
1004	-0.109475447095836
1005	-0.109388007071352
1006	-0.109710945075888
1007	-0.109969510056264
1008	-0.109797848658504
1009	-0.109534992143184
1010	-0.109613312655912
1011	-0.110007060987024
1012	-0.1102656259674
1013	-0.11006714247624
1014	-0.109603656702288
1015	-0.109455062304852
1016	-0.109706653540944
1017	-0.109905137032104
1018	-0.109789265588616
1019	-0.109472228444628
1020	-0.109339727303232
1021	-0.10965944665656
1022	-0.110037101731632
1023	-0.109921766730012
1024	-0.109488321700668
1025	-0.109294129744452
1026	-0.10967607635446801
1027	-0.110107912058208
1028	-0.109993649940324
1029	-0.109511388700992
1030	-0.109373523140916
1031	-0.109892262427272
1032	-0.110266162409268
1033	-0.109773172332576
1034	-0.109391762164428
1035	-0.109554304050432
1036	-0.109749568890384
1037	-0.109815551240148
1038	-0.10965676444722
1039	-0.10937513246652
1040	-0.109587563446248
1041	-0.10995931766077201
1042	-0.109881533589912
1043	-0.109492076793744
1044	-0.10920883548744
1045	-0.10943145886266
1046	-0.109678758563808
1047	-0.109755469750932
1048	-0.109508706491652
1049	-0.109293056860716
1050	-0.109295739070056
1051	-0.109765662146424
1052	-0.110052122103936
1053	-0.109799457984108
1054	-0.109400881676184
1055	-0.109526945515164
1056	-0.109931422683636
1057	-0.110078944197336
1058	-0.109801067309712
1059	-0.109590245655588
1060	-0.109673930586996
1061	-0.110050512778332
1062	-0.110181941035992
1063	-0.109866513217608
1064	-0.109489394584404
1065	-0.109508706491652
1066	-0.109949661707148
1067	-0.110221101292356
1068	-0.10999794147526801
1069	-0.10973991293676
1070	-0.10982574363564
1071	-0.110141707895892
1072	-0.110311759968048
1073	-0.110099865430188
1074	-0.109729720541268
1075	-0.109749032448516
1076	-0.110198034292032
1077	-0.110516144319756
1078	-0.110215200431808
1079	-0.109609557562836
1080	-0.109737767169288
1081	-0.110091818802168
1082	-0.11026294375806
1083	-0.10997058294
1084	-0.109662665307768
1085	-0.109774245216312
1086	-0.11021680975741201
1087	-0.110414220364836
1088	-0.110164774896216
1089	-0.109725965448192
1090	-0.109755469750932
1091	-0.110116495128096
1092	-0.110291911618932
1093	-0.110076261987996
1094	-0.109652472912276
1095	-0.109579516818228
1096	-0.110003842335816
1097	-0.110198034292032
1098	-0.109947515939676
1099	-0.109563423562188
1100	-0.109547866748016
1101	-0.109916402311332
1102	-0.110086454383488
1103	-0.109889580217932
1104	-0.109607948237232
1105	-0.109610630446572
1106	-0.10992498538122
1107	-0.11011542224436
1108	-0.109881533589912
1109	-0.109479202188912
1110	-0.109587563446248
1111	-0.110135270593476
1112	-0.11041904834164801
1113	-0.11017443084984001
1114	-0.109854711496512
1115	-0.109722210355116
1116	-0.1097962393329
1117	-0.109745813797308
1118	-0.109518362445276
1119	-0.109303249256208
1120	-0.109373523140916
1121	-0.109708262866548
1122	-0.109837008914868
1123	-0.109450770769908
1124	-0.109083844532196
1125	-0.109216345673592
1126	-0.109714163727096
1127	-0.109958781218904
1128	-0.109816624123884
1129	-0.109508706491652
1130	-0.109548939631752
1131	-0.10999794147526801
1132	-0.11016155624500801
1133	-0.109666420400844
1134	-0.109338117977628
1135	-0.109386934187616
1136	-0.109771563006972
1137	-0.110083772174148
1138	-0.109713627285228
1139	-0.10931022300049201
1140	-0.109437359723208
1141	-0.110038174615368
1142	-0.110291911618932
1143	-0.109789265588616
1144	-0.10936976804784
1145	-0.109444333467492
1146	-0.109848274194096
1147	-0.109735084959948
1148	-0.109440041932548
1149	-0.1091525090913
1150	-0.109226538069084
1151	-0.109685195866224
1152	-0.10985524793838
1153	-0.109556986259772
1154	-0.109177721859096
1155	-0.109218491441064
1156	-0.109663201749636
1157	-0.109883142915516
1158	-0.109558059143508
1159	-0.109175576091624
1160	-0.109233511813368
1161	-0.109761907053348
1162	-0.109886898008592
1163	-0.109475983537704
1164	-0.10908223520659201
1165	-0.109150363323828
1166	-0.10957898037636
1167	-0.1096353067725
1168	-0.109441114816284
1169	-0.109191669347664
1170	-0.109147681114488
1171	-0.109543575213072
1172	-0.10972757477379601
1173	-0.109479202188912
1174	-0.109254969488088
1175	-0.10931022300049201
1176	-0.109625114377008
1177	-0.109808041053996
1178	-0.109592927864928
1179	-0.10936976804784
1180	-0.109480811514516
1181	-0.109722210355116
1182	-0.109816087682016
1183	-0.109496904770556
1184	-0.109198643091948
1185	-0.109230829604028
1186	-0.109597219399872
1187	-0.109750105332252
1188	-0.109433068188264
1189	-0.109130514974712
1190	-0.109241558441388
1191	-0.109677149238204
1192	-0.109912110776388
1193	-0.109648181377332
1194	-0.109373523140916
1195	-0.109429313095188
1196	-0.10974420447170401
1197	-0.109881533589912
1198	-0.109620286400196
1199	-0.109307540791152
1200	-0.109303249256208
1201	-0.109745813797308
1202	-0.109940005753524
1203	-0.10950334207297201
1204	-0.109049512252644
1205	-0.109075797904176
1206	-0.109481884398252
1207	-0.10964335340052
1208	-0.109393371490032
1209	-0.109244777092596
1210	-0.109411610513544
1211	-0.109641744074916
1212	-0.109559668469112
1213	-0.109238876232048
1214	-0.108971728181784
1215	-0.109177185417228
1216	-0.109706117099076
1217	-0.109765125704556
1218	-0.109364940071028
1219	-0.108996404507712
1220	-0.109035028322208
1221	-0.109433604630132
1222	-0.109604729586024
1223	-0.109249605069408
1224	-0.108848882994012
1225	-0.108866585575656
1226	-0.109214736347988
1227	-0.109480811514516
1228	-0.109407855420468
1229	-0.109287692442036
1230	-0.109487248816932
1231	-0.109716309494568
1232	-0.109775854541916
1233	-0.109423948676508
1234	-0.109106375090652
1235	-0.109267307651052
1236	-0.109607948237232
1237	-0.109613312655912
1238	-0.1092061532781
1239	-0.108873022878072
1240	-0.108977092600464
1241	-0.109322024721588
1242	-0.10943896904881201
1243	-0.109091891160216
1244	-0.108801676109628
1245	-0.10896743664684
1246	-0.109398735908712
1247	-0.109606875353496
1248	-0.109425021560244
1249	-0.109047366485172
1250	-0.109046293601436
1251	-0.109446479234964
1252	-0.109633697446896
1253	-0.1092866195583
1254	-0.108867658459392
1255	-0.109015179973092
1256	-0.10956396000405601
1257	-0.109758151960272
1258	-0.10931934251224801
1259	-0.108928276390476
1260	-0.108965290879368
1261	-0.109360112094216
1262	-0.109506024282312
1263	-0.109099937788236
1264	-0.108732475108656
1265	-0.108876777971148
1266	-0.109220637208536
1267	-0.109378351117728
1268	-0.109179867626568
1269	-0.108860684715108
1270	-0.10900123248452401
1271	-0.109500123421764
1272	-0.109687878075564
1273	-0.109331680675212
1274	-0.108833862621708
1275	-0.108731938666788
1276	-0.109183086277776
1277	-0.109332753558948
1278	-0.109015179973092
1279	-0.10877324469062401
1280	-0.108987284995956
1281	-0.109328998465872
1282	-0.109447015676832
1283	-0.109198643091948
1284	-0.108906818715756
1285	-0.109002841810128
1286	-0.10940946474607201
1287	-0.109655691563484
1288	-0.10947759286330801
1289	-0.109189523580192
1290	-0.109153045533168
1291	-0.109399808792448
1292	-0.109630478795688
1293	-0.109320415395984
1294	-0.108963145111896
1295	-0.108978701926068
1296	-0.109507633607916
1297	-0.109798385100372
1298	-0.109566105771528
1299	-0.109057022438796
1300	-0.10897923836793601
1301	-0.109506024282312
1302	-0.109681977215016
1303	-0.1092597974649
1304	-0.10887355931994
1305	-0.108894480552792
1306	-0.10928393734896
1307	-0.109314514535436
1308	-0.108829034644896
1309	-0.108480347430696
1310	-0.108623040967584
1311	-0.109158946393716
1312	-0.109437359723208
1313	-0.109280718697752
1314	-0.109074188578572
1315	-0.109071506369232
1316	-0.10937513246652
1317	-0.109518898887144
1318	-0.109283400907092
1319	-0.108905209390152
1320	-0.10909510981142401
1321	-0.109551621841092
1322	-0.109605266027892
1323	-0.10927052630226
1324	-0.10894597897212
1325	-0.108939005227836
1326	-0.109472228444628
1327	-0.109781755402464
1328	-0.109508706491652
1329	-0.108971728181784
1330	-0.108925057739268
1331	-0.109386397745748
1332	-0.109454525862984
1333	-0.109099401346368
1334	-0.108811332063252
1335	-0.108947051855856
1336	-0.10932953490774
1337	-0.109528554840768
1338	-0.109167529463604
1339	-0.108689559759216
1340	-0.108737303085468
1341	-0.10914982688196
1342	-0.10931934251224801
1343	-0.109075261462308
1344	-0.108822060900612
1345	-0.108984602786616
1346	-0.109433604630132
1347	-0.109609557562836
1348	-0.109386397745748
1349	-0.109114421718672
1350	-0.109283400907092
1351	-0.10962833302821601
1352	-0.10951246158472801
1353	-0.109178794742832
1354	-0.109022690159244
1355	-0.109022153717376
1356	-0.1092866195583
1357	-0.109475447095836
1358	-0.109146608230752
1359	-0.108849955877748
1360	-0.10896207222816
1361	-0.109296811953792
1362	-0.109248532185672
1363	-0.108974410391124
1364	-0.108730329341184
1365	-0.108852638087088
1366	-0.109250141511276
1367	-0.109331144233344
1368	-0.109049512252644
1369	-0.108866049133788
1370	-0.10909135471834801
1371	-0.109545720980544
1372	-0.109716309494568
1373	-0.109343482396308
1374	-0.109005524019468
1375	-0.109170748114812
1376	-0.10955215828296
1377	-0.109614921981516
1378	-0.109244240650728
1379	-0.10892398485553201
1380	-0.108991040089032
1381	-0.109281791581488
1382	-0.109488858142536
1383	-0.109103692881312
1384	-0.108588172246164
1385	-0.10858119850188
1386	-0.10905326734572
1387	-0.109273744953468
1388	-0.10886336692444801
1389	-0.108552230641008
1390	-0.108897699204
1391	-0.109429849537056
1392	-0.10961921351646
1393	-0.109338654419496
1394	-0.108840836365992
1395	-0.108917011111248
1396	-0.109391762164428
1397	-0.10949046746814001
1398	-0.109174503207888
1399	-0.108863903366316
1400	-0.108917011111248
1401	-0.109227074510952
1402	-0.109426630885848
1403	-0.109098328462632
1404	-0.108654154595928
1405	-0.10867400294504401
1406	-0.10905273090385201
1407	-0.109166993021736
1408	-0.108895553436528
1409	-0.108741058178544
1410	-0.109040392740888
1411	-0.109556449817904
1412	-0.109732402750608
1413	-0.109271062744128
1414	-0.108775390458096
1415	-0.10886819490126
1416	-0.109239949115784
1417	-0.109322561163456
1418	-0.108977092600464
1419	-0.108676685154384
1420	-0.108858002505768
1421	-0.109254969488088
1422	-0.109369231605972
1423	-0.1091256869979
1424	-0.1087904108304
1425	-0.10872067338756
1426	-0.109172893882284
1427	-0.109292520418848
1428	-0.108941687437176
1429	-0.108706725898992
1430	-0.108994795182108
1431	-0.109373523140916
1432	-0.109377278233992
1433	-0.10905648599692801
1434	-0.108800066784024
1435	-0.10895939001882
1436	-0.109389079955088
1437	-0.109437896165076
1438	-0.109073652136704
1439	-0.108834399063576
1440	-0.10890199073894401
1441	-0.109185768487116
1442	-0.109363867187292
1443	-0.109228147394688
1444	-0.108750714132168
1445	-0.108744276829752
1446	-0.109323634047192
1447	-0.109403563885524
1448	-0.108974946832992
1449	-0.108568323897048
1450	-0.10869921571284
1451	-0.109236194022708
1452	-0.109328998465872
1453	-0.108894480552792
1454	-0.108698142829104
1455	-0.109022153717376
1456	-0.10945184365364401
1457	-0.109398735908712
1458	-0.109015179973092
1459	-0.108745349713488
1460	-0.108971191739916
1461	-0.109316660302908
1462	-0.109291447535112
1463	-0.108890189017848
1464	-0.108638061339888
1465	-0.108884824599168
1466	-0.109330607791476
1467	-0.109414829164752
1468	-0.109111203067464
1469	-0.108767343830076
1470	-0.108977629042332
1471	-0.109295739070056
1472	-0.109416438490356
1473	-0.109172357440416
1474	-0.108875168645544
1475	-0.108896089878396
1476	-0.109057022438796
1477	-0.108963681553764
1478	-0.108818842249404
1479	-0.108635915572416
1480	-0.108697606387236
1481	-0.109065069066816
1482	-0.109167529463604
1483	-0.108815623598196
1484	-0.108543111129252
1485	-0.108783437086116
1486	-0.109292520418848
1487	-0.10949851409616
1488	-0.109105302206916
1489	-0.108779145551172
1490	-0.108934713692892
1491	-0.109231366045896
1492	-0.109153581975036
1493	-0.10876037008579201
1494	-0.108564568803972
1495	-0.10869921571284
1496	-0.109059704648136
1497	-0.109168065905472
1498	-0.108807576970176
1499	-0.10844708803488
1500	-0.108597828199788
1501	-0.108867658459392
1502	-0.108788801504796
1503	-0.108487857616848
1504	-0.10836393954534
1505	-0.108662737665816
1506	-0.109126759881636
1507	-0.109132660742184
1508	-0.108706725898992
1509	-0.108471764360808
1510	-0.108737839527336
1511	-0.109229220278424
1512	-0.10935099258246
1513	-0.109005524019468
1514	-0.108741058178544
1515	-0.1089915765309
1516	-0.10942233935090401
1517	-0.109314514535436
1518	-0.108737303085468
1519	-0.108395053173684
1520	-0.108676148712516
1521	-0.109133197184052
1522	-0.109102619997576
1523	-0.108665956317024
1524	-0.108316196219088
1525	-0.10852755431508
1526	-0.1089647544375
1527	-0.10908008943912
1528	-0.108770026039416
1529	-0.108485711849376
1530	-0.108786655737324
1531	-0.109239949115784
1532	-0.109229756720292
1533	-0.108823670226216
1534	-0.108535064501232
1535	-0.108847810110276
1536	-0.109346164605648
1537	-0.10938371553640801
1538	-0.108926130623004
1539	-0.108607484153412
1540	-0.108807576970176
1541	-0.10912836920724
1542	-0.109133197184052
1543	-0.108706189457124
1544	-0.108457280430372
1545	-0.108731938666788
1546	-0.109133197184052
1547	-0.10909135471834801
1548	-0.108791483714136
1549	-0.108547402664196
1550	-0.10875554210898
1551	-0.109185768487116
1552	-0.109204007510628
1553	-0.108767343830076
1554	-0.108533455175628
1555	-0.108681513131196
1556	-0.109081698764724
1557	-0.109161628603056
1558	-0.108814014272592
1559	-0.10851414326838
1560	-0.108694387736028
1561	-0.109223319417876
1562	-0.109268916976656
1563	-0.108700288596576
1564	-0.10836662175468
1565	-0.108639670665492
1566	-0.1091122759512
1567	-0.109316660302908
1568	-0.10902376304298
1569	-0.108745886155356
1570	-0.10892773994860801
1571	-0.109278036488412
1572	-0.10928393734896
1573	-0.108963145111896
1574	-0.108816696481932
1575	-0.1089513433908
1576	-0.109239949115784
1577	-0.109237266906444
1578	-0.108965290879368
1579	-0.108833862621708
1580	-0.109094573369556
1581	-0.109521581096484
1582	-0.10944486990936
1583	-0.108949197623328
1584	-0.108614457897696
1585	-0.108818305807536
1586	-0.109158946393716
1587	-0.109151436207564
1588	-0.108783437086116
1589	-0.108655763921532
1590	-0.108888579692244
1591	-0.109153045533168
1592	-0.109094036927688
1593	-0.10881186850512001
1594	-0.10863537913054801
1595	-0.108856929622032
1596	-0.109207762603704
1597	-0.109137488718996
1598	-0.108772708248756
1599	-0.108484102523772
1600	-0.108660055456476
1601	-0.109027518136056
1602	-0.108974946832992
1603	-0.108577979850672
1604	-0.108326925056448
1605	-0.108543111129252
1606	-0.109064532624948
1607	-0.109214736347988
1608	-0.108871413552468
1609	-0.108620358758244
1610	-0.108873022878072
1611	-0.109244777092596
1612	-0.109288765325772
1613	-0.108985675670352
1614	-0.108659519014608
1615	-0.108898772087736
1616	-0.109286083116432
1617	-0.10922010076666801
1618	-0.108808649853912
1619	-0.108523799222004
1620	-0.108774854016228
1621	-0.109202934626892
1622	-0.109097792020764
1623	-0.108649863060984
1624	-0.108426703243896
1625	-0.108666492758892
1626	-0.109115494602408
1627	-0.109215272789856
1628	-0.108795238807212
1629	-0.10834301831248801
1630	-0.1085356009431
1631	-0.10908223520659201
1632	-0.109183086277776
1633	-0.108802212551496
1634	-0.108563495920236
1635	-0.10875285989964
1636	-0.109198643091948
1637	-0.109237266906444
1638	-0.10874213106228
1639	-0.108426703243896
1640	-0.108722819155032
1641	-0.109238876232048
1642	-0.109156264184376
1643	-0.108579589176276
1644	-0.108400954034232
1645	-0.108773781132492
1646	-0.109275354279072
1647	-0.109205080394364
1648	-0.108666492758892
1649	-0.10850663308222801
1650	-0.108730329341184
1651	-0.109066141950552
1652	-0.10908008943912
1653	-0.108745886155356
1654	-0.108520580570796
1655	-0.108756614992716
1656	-0.1091390980446
1657	-0.1091122759512
1658	-0.108780218434908
1659	-0.108568860338916
1660	-0.108835471947312
1661	-0.109190596463928
1662	-0.10917664897536
1663	-0.108712090317672
1664	-0.108338190335676
1665	-0.108517361919588
1666	-0.108851028761484
1667	-0.108822060900612
1668	-0.108448160918616
1669	-0.108306003823596
1670	-0.108673466503176
1671	-0.109124614114164
1672	-0.109121395462956
1673	-0.108724428480636
1674	-0.108496440686736
1675	-0.108761979411396
1676	-0.109218491441064
1677	-0.109215809231724
1678	-0.108764661620736
1679	-0.1085758340832
1680	-0.108858538947636
1681	-0.109299494163132
1682	-0.109377278233992
1683	-0.10902644525232
1684	-0.108656836805268
1685	-0.108910573808832
1686	-0.109206689719968
1687	-0.109290374651376
1688	-0.109068824159892
1689	-0.108770026039416
1690	-0.108757687876452
1691	-0.109038783415284
1692	-0.109016252856828
1693	-0.108576370525068
1694	-0.10839612605742
1695	-0.108755005667112
1696	-0.109247459301936
1697	-0.109260870348636
1698	-0.10884941943588
1699	-0.10865361815406
1700	-0.108925057739268
1701	-0.109217418557328
1702	-0.109084380974064
1703	-0.1086026561766
1704	-0.108512533942776
1705	-0.108786655737324
1706	-0.109057022438796
1707	-0.109053803787588
1708	-0.10870189792218
1709	-0.108502877989152
1710	-0.108861221156976
1711	-0.109373523140916
1712	-0.109465254700344
1713	-0.109124077672296
1714	-0.108869804226864
1715	-0.109060777531872
1716	-0.10927159918599601
1717	-0.10934294595444
1718	-0.109057022438796
1719	-0.108738912411072
1720	-0.108904672948284
1721	-0.109300567046868
1722	-0.109390689280692
1723	-0.109100474230104
1724	-0.108739985294808
1725	-0.108890189017848
1726	-0.109216345673592
1727	-0.109239412673916
1728	-0.108828498203028
1729	-0.108607484153412
1730	-0.108848882994012
1731	-0.109239412673916
1732	-0.109277500046544
1733	-0.108869267784996
1734	-0.10861874943264001
1735	-0.108851028761484
1736	-0.109244777092596
1737	-0.10922761095282
1738	-0.10883869059852
1739	-0.10867239361944
1740	-0.1089647544375
1741	-0.109308613674888
1742	-0.10928393734896
1743	-0.109038246973416
1744	-0.108826352435556
1745	-0.108982457019144
1746	-0.109206689719968
1747	-0.109207762603704
1748	-0.108902527180812
1749	-0.108783437086116
1750	-0.109113348834936
1751	-0.109542502329336
1752	-0.109484566607592
1753	-0.10895348915827201
1754	-0.108628941828132
1755	-0.108879996622356
1756	-0.109276963604676
1757	-0.109199715975684
1758	-0.108822060900612
1759	-0.108646644409776
1760	-0.108810259179516
1761	-0.109127832765372
1762	-0.109079552997252
1763	-0.108748568364696
1764	-0.10863162403747201
1765	-0.108866049133788
1766	-0.109186841370852
1767	-0.109167529463604
1768	-0.108791483714136
1769	-0.10865361815406
1770	-0.108922911971796
1771	-0.10930271281434
1772	-0.10922224653414
1773	-0.10878236420238
1774	-0.108692241968556
1775	-0.108972264623652
1776	-0.109159482835584
1777	-0.10902108083364
1778	-0.108641816432964
1779	-0.10852862719881601
1780	-0.108714772527012
1781	-0.108899844971472
1782	-0.108831716854236
1783	-0.108493222035528
1784	-0.108370913289624
1785	-0.10869599706163201
1786	-0.10894973406519601
1787	-0.108807576970176
1788	-0.108410073545988
1789	-0.108321560637768
1790	-0.108639670665492
1791	-0.10903449188034
1792	-0.10919435155700401
1793	-0.108996404507712
1794	-0.108714236085144
1795	-0.108802212551496
1796	-0.10909135471834801
1797	-0.10903073678726401
1798	-0.108632696921208
1799	-0.108508242407832
1800	-0.108775390458096
1801	-0.109024299484848
1802	-0.108914328901908
1803	-0.108591390897372
1804	-0.108472300802676
1805	-0.108871949994336
1806	-0.109433604630132
1807	-0.109349919698724
1808	-0.108736230201732
1809	-0.108512533942776
1810	-0.10882474310995201
1811	-0.109189523580192
1812	-0.109205616836232
1813	-0.108816696481932
1814	-0.108719064061956
1815	-0.108965290879368
1816	-0.10912085902108801
1817	-0.109020544391772
1818	-0.10873837596920401
1819	-0.108603192618468
1820	-0.10888697036664
1821	-0.109368158722236
1822	-0.109266234767316
1823	-0.108710480992068
1824	-0.108482493198168
1825	-0.10865361815406
1826	-0.10896260867002801
1827	-0.108987821437824
1828	-0.108666492758892
1829	-0.10844226005806801
1830	-0.108756614992716
1831	-0.109229220278424
1832	-0.109234048255236
1833	-0.108875705087412
1834	-0.108686341108008
1835	-0.109028591019792
1836	-0.109361184977952
1837	-0.109215272789856
1838	-0.108785582853588
1839	-0.108697606387236
1840	-0.109085990299668
1841	-0.10930271281434
1842	-0.109167529463604
1843	-0.108826352435556
1844	-0.108554912850348
1845	-0.108809722737648
1846	-0.109238876232048
1847	-0.109242094883256
1848	-0.108903600064548
1849	-0.108670784293836
1850	-0.108836544831048
1851	-0.10914714467262
1852	-0.109119786137352
1853	-0.108751250574036
1854	-0.108558667943424
1855	-0.108944906088384
1856	-0.109281791581488
1857	-0.109184159161512
1858	-0.108755005667112
1859	-0.10862250452571601
1860	-0.108947051855856
1861	-0.109172893882284
1862	-0.109076870787912
1863	-0.108663810549552
1864	-0.108549548431668
1865	-0.108831716854236
1866	-0.109128905649108
1867	-0.109030200345396
1868	-0.108697606387236
1869	-0.1086428893167
1870	-0.109011424880016
1871	-0.109441651258152
1872	-0.109226001627216
1873	-0.108774854016228
1874	-0.108704043689652
1875	-0.108959926460688
1876	-0.10924370420886
1877	-0.109255505929956
1878	-0.108823133784348
1879	-0.108616603665168
1880	-0.108952952716404
1881	-0.109208299045572
1882	-0.109028591019792
1883	-0.10865898257274
1884	-0.108511997500908
1885	-0.108847810110276
1886	-0.109143926021412
1887	-0.109015179973092
1888	-0.108675612270648
1889	-0.10855705861782
1890	-0.108866049133788
1891	-0.109191132905796
1892	-0.109209908371176
1893	-0.108875168645544
1894	-0.108654691037796
1895	-0.109041465624624
1896	-0.10949583188682
1897	-0.109222782976008
1898	-0.10869921571284
1899	-0.108505023756624
1900	-0.108758760760188
1901	-0.10898621211222
1902	-0.108830107528632
1903	-0.108461571965316
1904	-0.108385933661928
1905	-0.108745886155356
1906	-0.109151436207564
1907	-0.109164310812396
1908	-0.108701361480312
1909	-0.108391834522476
1910	-0.108678830921856
1911	-0.109116031044276
1912	-0.109099401346368
1913	-0.108763588737
1914	-0.108552767082876
1915	-0.108906818715756
1916	-0.109292520418848
1917	-0.109076870787912
1918	-0.108698679270972
1919	-0.108630014711868
1920	-0.108903600064548
1921	-0.109213663464252
1922	-0.10906560550868401
1923	-0.108777536225568
1924	-0.108767343830076
1925	-0.109009815554412
1926	-0.109378351117728
1927	-0.109328998465872
1928	-0.10890574583202
1929	-0.108635915572416
1930	-0.10896260867002801
1931	-0.109312905209832
1932	-0.10923029316216
1933	-0.108755005667112
1934	-0.108691705526688
1935	-0.109075261462308
1936	-0.109381033327068
1937	-0.109177721859096
1938	-0.108656836805268
1939	-0.10841758373214
1940	-0.108733011550524
1941	-0.10910422932318001
1942	-0.108928812832344
1943	-0.108349455614904
1944	-0.108113421192984
1945	-0.108598901083524
1946	-0.10904361139209601
1947	-0.109058095322532
1948	-0.108767880271944
1949	-0.108705653015256
1950	-0.108903600064548
1951	-0.109221173650404
1952	-0.109175039649756
1953	-0.108877314413016
1954	-0.108748568364696
1955	-0.109015179973092
1956	-0.109251214395012
1957	-0.109110130183728
1958	-0.10877324469062401
1959	-0.108674539386912
1960	-0.108976556158596
1961	-0.109264625441712
1962	-0.109245313534464
1963	-0.108934177251024
1964	-0.108750714132168
1965	-0.109110666625596
1966	-0.109475447095836
1967	-0.109227074510952
1968	-0.10880113966776
1969	-0.10878236420238
1970	-0.109123541230428
1971	-0.10935099258246
1972	-0.109207762603704
1973	-0.108721209829428
1974	-0.10857046966452
1975	-0.108958853576952
1976	-0.109362257861688
1977	-0.10925711525556
1978	-0.108933104367288
1979	-0.108849955877748
1980	-0.109193815115136
1981	-0.109467400467816
1982	-0.109158946393716
1983	-0.108702970805916
1984	-0.108627868944396
1985	-0.10902912746166
1986	-0.109376205350256
1987	-0.10930807723302
1988	-0.108950806948932
1989	-0.108748568364696
1990	-0.1089915765309
1991	-0.109336508652024
1992	-0.109201325301288
1993	-0.108784509969852
1994	-0.108690632642952
1995	-0.109153581975036
1996	-0.10965140002854
1997	-0.1095414294456
1998	-0.10900123248452401
1999	-0.10880650408644
2000	-0.109067214834288
2001	-0.109247459301936
2002	-0.108883751715432
2003	-0.108522726338268
2004	-0.108548475547932
2005	-0.108903600064548
2006	-0.109118713253616
2007	-0.108995331623976
2008	-0.108700288596576
2009	-0.108586026478692
2010	-0.10895939001882
2011	-0.1094475521187
2012	-0.109425558002112
2013	-0.10896260867002801
2014	-0.108838154156652
2015	-0.109210981254912
2016	-0.10950924293352
2017	-0.109278036488412
2018	-0.108822060900612
2019	-0.1087233555969
2020	-0.10908008943912
2021	-0.109369231605972
2022	-0.109072579252968
2023	-0.108574761199464
2024	-0.108477665221356
2025	-0.1088440550172
2026	-0.109053803787588
2027	-0.109040392740888
2028	-0.108875168645544
2029	-0.108985139228484
2030	-0.10933758153576
2031	-0.109419657141564
2032	-0.109064532624948
2033	-0.108582271385616
2034	-0.10852862719881601
2035	-0.108906282273888
2036	-0.109333290000816
2037	-0.109197033766344
2038	-0.108726574248108
2039	-0.108711017433936
2040	-0.10907848011351601
2041	-0.109357429884876
2042	-0.10919810665008
2043	-0.108871949994336
2044	-0.108966900204972
2045	-0.109373523140916
2046	-0.109497977654292
2047	-0.1090854538578
2048	-0.108708335224596
2049	-0.108691705526688
2050	-0.109086526741536
2051	-0.10950334207297201
2052	-0.10931612386104
2053	-0.108822060900612
2054	-0.108851565203352
2055	-0.10920722616183601
2056	-0.109390689280692
2057	-0.109232438929632
2058	-0.108876777971148
2059	-0.108892871227188
2060	-0.109302176372472
2061	-0.109529091282636
2062	-0.109328998465872
2063	-0.108984602786616
2064	-0.108815623598196
2065	-0.109067214834288
2066	-0.109421266467168
2067	-0.109377278233992
2068	-0.109141243812072
2069	-0.109050048694512
2070	-0.109333290000816
2071	-0.109655691563484
2072	-0.10949583188682
2073	-0.109045757159568
2074	-0.109006060461336
2075	-0.109399808792448
2076	-0.109658910214692
2077	-0.109497977654292
2078	-0.109087599625272
2079	-0.109013570647488
2080	-0.109373523140916
2081	-0.109662665307768
2082	-0.109356893443008
2083	-0.108823670226216
2084	-0.10874749548096001
2085	-0.109126223439768
2086	-0.10947759286330801
2087	-0.109367622280368
2088	-0.109076870787912
2089	-0.1091927422314
2090	-0.1094475521187
2091	-0.109650863586672
2092	-0.109642280516784
2093	-0.109322024721588
2094	-0.109072579252968
2095	-0.109354747675536
2096	-0.109519435329012
2097	-0.109378887559596
2098	-0.108942760320912
2099	-0.108752323457772
2100	-0.109112812393068
2101	-0.109494222561216
2102	-0.109353138349932
2103	-0.108940078111572
2104	-0.108908964483228
2105	-0.109417511374092
2106	-0.10965140002854
2107	-0.109263016116108
2108	-0.10885049231961601
2109	-0.108867658459392
2110	-0.109201325301288
2111	-0.10950334207297201
2112	-0.109431995304528
2113	-0.10903717408968
2114	-0.108995868065844
2115	-0.109255505929956
2116	-0.109516216677804
2117	-0.109335435768288
2118	-0.108843518575332
2119	-0.108732475108656
2120	-0.109107447974388
2121	-0.10942341223464
2122	-0.109305931465548
2123	-0.109000159600788
2124	-0.108923448413664
2125	-0.109250141511276
2126	-0.109585954120644
2127	-0.109369231605972
2128	-0.108906818715756
2129	-0.10895348915827201
2130	-0.109386934187616
2131	-0.109688414517432
2132	-0.109547330306148
2133	-0.109035028322208
2134	-0.108870340668732
2135	-0.109136952277128
2136	-0.109350456140592
2137	-0.109171820998548
2138	-0.10882474310995201
2139	-0.108849955877748
2140	-0.109257651697428
2141	-0.109487248816932
2142	-0.109238876232048
2143	-0.108898235645868
2144	-0.109009815554412
2145	-0.109562350678452
2146	-0.109819842775092
2147	-0.109320951837852
2148	-0.10877163536502
2149	-0.108748031922828
2150	-0.109233511813368
2151	-0.109632088121292
2152	-0.109449697886172
2153	-0.108938468785968
2154	-0.108840836365992
2155	-0.109292520418848
2156	-0.109521044654616
2157	-0.109185768487116
2158	-0.108810795621384
2159	-0.108785582853588
2160	-0.10923029316216
2161	-0.109524263305824
2162	-0.10927159918599601
2163	-0.108913256018172
2164	-0.108957244251348
2165	-0.109311295884228
2166	-0.109548939631752
2167	-0.109394444373768
2168	-0.109011424880016
2169	-0.108925594181136
2170	-0.109314514535436
2171	-0.10967822212194
2172	-0.109554304050432
2173	-0.109175039649756
2174	-0.109037710531548
2175	-0.109381033327068
2176	-0.109696461145452
2177	-0.109597219399872
2178	-0.109157337068112
2179	-0.108965827321236
2180	-0.10931934251224801
2181	-0.109691096726772
2182	-0.109568251539
2183	-0.10920722616183601
2184	-0.109076870787912
2185	-0.109354211233668
2186	-0.109639061865576
2187	-0.109384251978276
2188	-0.109015179973092
2189	-0.108992649414636
2190	-0.109244777092596
2191	-0.109444333467492
2192	-0.109276427162808
2193	-0.109025908810452
2194	-0.109012497763752
2195	-0.109343482396308
2196	-0.109626187260744
2197	-0.109401418118052
2198	-0.109045757159568
2199	-0.10912836920724
2200	-0.109599901609212
2201	-0.109910501450784
2202	-0.109611703330308
2203	-0.109177721859096
2204	-0.109081698764724
2205	-0.109489394584404
2206	-0.10971845526204001
2207	-0.109421266467168
2208	-0.108996404507712
2209	-0.108979774809804
2210	-0.109390689280692
2211	-0.109758151960272
2212	-0.109620286400196
2213	-0.109239949115784
2214	-0.10916055571932
2215	-0.109531773491976
2216	-0.109759761285876
2217	-0.109420193583432
2218	-0.108943833204648
2219	-0.1089781654842
2220	-0.109320415395984
2221	-0.109554304050432
2222	-0.109376741792124
2223	-0.108900917855208
2224	-0.108844591459068
2225	-0.109156264184376
2226	-0.109375668908388
2227	-0.109232438929632
2228	-0.108973873949256
2229	-0.109061850415608
2230	-0.109507633607916
2231	-0.109808041053996
2232	-0.109620286400196
2233	-0.109138561602732
2234	-0.109010888438148
2235	-0.109382106210804
2236	-0.109611703330308
2237	-0.109375668908388
2238	-0.10896743664684
2239	-0.10898621211222
2240	-0.109315587419172
2241	-0.109482957281988
2242	-0.109149290440092
2243	-0.108814014272592
2244	-0.108987284995956
2245	-0.109354211233668
2246	-0.109531237050108
2247	-0.109392835048164
2248	-0.109111739509332
2249	-0.109084917415932
2250	-0.109476519979572
2251	-0.10970182556413201
2252	-0.109443260583756
2253	-0.109186304928984
2254	-0.109141243812072
2255	-0.109371913815312
2256	-0.109523190422088
2257	-0.109352065466196
2258	-0.10902912746166
2259	-0.109129442090976
2260	-0.109574688841416
2261	-0.10968626874996
2262	-0.10923029316216
2263	-0.10877968199304
2264	-0.108772708248756
2265	-0.109217954999196
2266	-0.109523190422088
2267	-0.109342409512572
2268	-0.109000696042656
2269	-0.109031809671
2270	-0.109479202188912
2271	-0.109803749519052
2272	-0.109648181377332
2273	-0.109193278673268
2274	-0.109081162322856
2275	-0.109427167327716
2276	-0.109693778936112
2277	-0.1094743742121
2278	-0.109116031044276
2279	-0.10913373362592
2280	-0.109412146955412
2281	-0.10951246158472801
2282	-0.109338117977628
2283	-0.109021617275508
2284	-0.108925057739268
2285	-0.109263552557976
2286	-0.109639061865576
2287	-0.1093804968852
2288	-0.108968509530576
2289	-0.10903449188034
2290	-0.109407855420468
2291	-0.109730256983136
2292	-0.109568787980868
2293	-0.109212054138648
2294	-0.109141243812072
2295	-0.109523190422088
2296	-0.109782291844332
2297	-0.10946096316540001
2298	-0.108903600064548
2299	-0.108998550275184
2300	-0.109470082677156
2301	-0.109722210355116
2302	-0.109370304489708
2303	-0.10892988571608
2304	-0.108940078111572
2305	-0.109433604630132
2306	-0.109619749958328
2307	-0.109328998465872
2308	-0.108990503647164
2309	-0.109072579252968
2310	-0.109534992143184
2311	-0.109768344355764
2312	-0.109509779375388
2313	-0.109216345673592
2314	-0.109400881676184
2315	-0.109646572051728
2316	-0.109782291844332
2317	-0.109539283678128
2318	-0.109107447974388
2319	-0.109035564764076
2320	-0.109433604630132
2321	-0.109672321261392
2322	-0.10936440362916
2323	-0.109008742670676
2324	-0.109043074950228
2325	-0.109403027443656
2326	-0.109668029726448
2327	-0.109506024282312
2328	-0.109068287718024
2329	-0.109022153717376
2330	-0.109434677513868
2331	-0.109663201749636
2332	-0.109427167327716
2333	-0.109032882554736
2334	-0.108989967205296
2335	-0.109455062304852
2336	-0.109643889842388
2337	-0.109280718697752
2338	-0.108976019716728
2339	-0.10903449188034
2340	-0.109362257861688
2341	-0.109465791142212
2342	-0.109177185417228
2343	-0.108904136506416
2344	-0.109073652136704
2345	-0.109544648096808
2346	-0.109673394145128
2347	-0.109340800186968
2348	-0.108897699204
2349	-0.10890842804136
2350	-0.109285010232696
2351	-0.10956020491098
2352	-0.10938747062948401
2353	-0.109160019277452
2354	-0.10923565758084
2355	-0.109454525862984
2356	-0.109586490562512
2357	-0.109240485557652
2358	-0.1088708771106
2359	-0.108890189017848
2360	-0.10928125513962
2361	-0.109571470190208
2362	-0.109403027443656
2363	-0.109162165044924
2364	-0.109373523140916
2365	-0.109810723263336
2366	-0.109796775774768
2367	-0.109356893443008
2368	-0.108880533064224
2369	-0.108847273668408
2370	-0.109393371490032
2371	-0.109803749519052
2372	-0.109436286839472
2373	-0.108936323018496
2374	-0.109008206228808
2375	-0.109376205350256
2376	-0.109581126143832
2377	-0.109338654419496
2378	-0.108930422157948
2379	-0.108886433924772
2380	-0.109251214395012
2381	-0.109430922420792
2382	-0.109118713253616
2383	-0.108788801504796
2384	-0.108973337507388
2385	-0.109523726863956
2386	-0.109752787541592
2387	-0.109357429884876
2388	-0.108910573808832
2389	-0.10899425874024
2390	-0.109431995304528
2391	-0.109622432167668
2392	-0.109418584257828
2393	-0.109195960882608
2394	-0.10918201339404
2395	-0.109537137910656
2396	-0.109745813797308
2397	-0.10944486990936
2398	-0.109115494602408
2399	-0.109045757159568
2400	-0.10925175083688
2401	-0.109261406790504
2402	-0.108980311251672
2403	-0.108724428480636
2404	-0.10877968199304
2405	-0.10924370420886
2406	-0.109523726863956
2407	-0.109217954999196
2408	-0.108729792899316
2409	-0.108796311690948
2410	-0.10938854351322
2411	-0.109783364728068
2412	-0.109530164166372
2413	-0.109124077672296
2414	-0.10911495816054
2415	-0.109572543073944
2416	-0.109775318100048
2417	-0.109351529024328
2418	-0.108934713692892
2419	-0.108846200784672
2420	-0.109170748114812
2421	-0.109424485118376
2422	-0.10918201339404
2423	-0.108749641248432
2424	-0.108808113412044
2425	-0.109343482396308
2426	-0.1095548404923
2427	-0.109149290440092
2428	-0.108831716854236
2429	-0.10901410708935601
2430	-0.109430385978924
2431	-0.10957361595768
2432	-0.109343482396308
2433	-0.108948124739592
2434	-0.10898352990288
2435	-0.109449697886172
2436	-0.109703434889736
2437	-0.10951246158472801
2438	-0.109106375090652
2439	-0.109060777531872
2440	-0.10940946474607201
2441	-0.109582199027568
2442	-0.10922761095282
2443	-0.108790947272268
2444	-0.108877314413016
2445	-0.109471155560892
2446	-0.109716309494568
2447	-0.109362794303556
2448	-0.10888911613411201
2449	-0.108942760320912
2450	-0.109376741792124
2451	-0.109637452539972
2452	-0.109394980815636
2453	-0.109036637647812
2454	-0.10910798441625601
2455	-0.109430385978924
2456	-0.109572006632076
2457	-0.1092061532781
2458	-0.10887355931994
2459	-0.108999086717052
2460	-0.109485639491328
2461	-0.109636916098104
2462	-0.109252823720616
2463	-0.108801676109628
2464	-0.108767343830076
2465	-0.109178794742832
2466	-0.10941268339728
2467	-0.109162165044924
2468	-0.108918620436852
2469	-0.109000696042656
2470	-0.109499050538028
2471	-0.109878851380572
2472	-0.109607948237232
2473	-0.109095646253292
2474	-0.109058095322532
2475	-0.109339727303232
2476	-0.109524799747692
2477	-0.109249605069408
2478	-0.1089513433908
2479	-0.109011424880016
2480	-0.109404100327392
2481	-0.10956020491098
2482	-0.109292520418848
2483	-0.108871949994336
2484	-0.10900498757760001
2485	-0.109417511374092
2486	-0.10937459602465201
2487	-0.109051121578248
2488	-0.108846200784672
2489	-0.108993722298372
2490	-0.109444333467492
2491	-0.109606875353496
2492	-0.109287692442036
2493	-0.108902527180812
2494	-0.108976019716728
2495	-0.109369231605972
2496	-0.109404100327392
2497	-0.109139634486468
2498	-0.108820988016876
2499	-0.108840836365992
2500	-0.10928447379082801
2501	-0.10958702700438
2502	-0.109307540791152
2503	-0.10877163536502
2504	-0.108859075389504
2505	-0.10932417048906
2506	-0.109555376934168
2507	-0.109337045093892
2508	-0.109020544391772
2509	-0.109092427602084
2510	-0.109414292722884
2511	-0.109568251539
2512	-0.109199179533816
2513	-0.108799530342156
2514	-0.10899425874024
2515	-0.109530164166372
2516	-0.109597219399872
2517	-0.109177721859096
2518	-0.108815087156328
2519	-0.10901303420562
2520	-0.109494222561216
2521	-0.109702898447868
2522	-0.109237803348312
2523	-0.108816160040064
2524	-0.108919693320588
2525	-0.109453989421116
2526	-0.10975332398346001
2527	-0.109358502768612
2528	-0.108705653015256
2529	-0.108838154156652
2530	-0.109285010232696
2531	-0.109405173211128
2532	-0.109134270067788
2533	-0.108867658459392
2534	-0.108942223879044
2535	-0.109364940071028
2536	-0.109647644935464
2537	-0.109496904770556
2538	-0.10911710392801201
2539	-0.108987284995956
2540	-0.109214736347988
2541	-0.109428240211452
2542	-0.10905273090385201
2543	-0.10873462087612801
2544	-0.10906560550868401
2545	-0.109611703330308
2546	-0.109797848658504
2547	-0.10933597221015601
2548	-0.1088708771106
2549	-0.10891486534377601
2550	-0.109379960443332
2551	-0.10951192514286
2552	-0.109242094883256
2553	-0.10901410708935601
2554	-0.109149290440092
2555	-0.109485639491328
2556	-0.109582735469436
2557	-0.109307540791152
2558	-0.109071506369232
2559	-0.109325779814664
2560	-0.109812869030808
2561	-0.109703434889736
2562	-0.109142316695808
2563	-0.108844591459068
2564	-0.10899211297276801
2565	-0.109533919259448
2566	-0.109814478356412
2567	-0.109642816958652
2568	-0.10943521395573601
2569	-0.109590245655588
2570	-0.109883142915516
2571	-0.109923912497484
2572	-0.109713627285228
2573	-0.109445406351228
2574	-0.109604193144156
2575	-0.1099303497999
2576	-0.109942151520996
2577	-0.10962833302821601
2578	-0.10934884681498801
2579	-0.109471155560892
2580	-0.10994107863726
2581	-0.110097719662716
2582	-0.109710945075888
2583	-0.109216345673592
2584	-0.109314514535436
2585	-0.109754396867196
2586	-0.109896017520348
2587	-0.109580053260096
2588	-0.109282328023356
2589	-0.109292520418848
2590	-0.109605266027892
2591	-0.109768344355764
2592	-0.109433604630132
2593	-0.10919542444074
2594	-0.109358502768612
2595	-0.109912110776388
2596	-0.110038174615368
2597	-0.109489394584404
2598	-0.109154654858772
2599	-0.109303249256208
2600	-0.109556986259772
2601	-0.109788729146748
2602	-0.10954947607362
2603	-0.109165383696132
2604	-0.109293056860716
2605	-0.109716845936436
2606	-0.109995259265928
2607	-0.109733475634344
2608	-0.109220637208536
2609	-0.109322024721588
2610	-0.109772635890708
2611	-0.109882606473648
2612	-0.109580589701964
2613	-0.10937459602465201
2614	-0.109630478795688
2615	-0.109944833730336
2616	-0.109875632729364
2617	-0.10949958697989601
2618	-0.109111739509332
2619	-0.109249605069408
2620	-0.109734012076212
2621	-0.109880460706176
2622	-0.109531773491976
2623	-0.10916323792866
2624	-0.109355284117404
2625	-0.109925521823088
2626	-0.11004836701086
2627	-0.109567715097132
2628	-0.109336508652024
2629	-0.109401418118052
2630	-0.109794093565428
2631	-0.10995931766077201
2632	-0.109640134749312
2633	-0.109330071349608
2634	-0.109453989421116
2635	-0.109974874474944
2636	-0.10992766759056
2637	-0.109548939631752
2638	-0.109323634047192
2639	-0.109496368328688
2640	-0.109826280077508
2641	-0.109869731868816
2642	-0.109558595585376
2643	-0.109254969488088
2644	-0.109347773931252
2645	-0.109771026565104
2646	-0.109889580217932
2647	-0.109645499167992
2648	-0.109356893443008
2649	-0.109471155560892
2650	-0.109779609634992
2651	-0.109889580217932
2652	-0.109508706491652
2653	-0.10916323792866
2654	-0.10941321983914801
2655	-0.109893871752876
2656	-0.109988821963512
2657	-0.109659983098428
2658	-0.109356893443008
2659	-0.10949958697989601
2660	-0.109811796147072
2661	-0.10995931766077201
2662	-0.109683050098752
2663	-0.109473301328364
2664	-0.10956020491098
2665	-0.10974420447170401
2666	-0.109874559845628
2667	-0.109643889842388
2668	-0.109273744953468
2669	-0.109092964043952
2670	-0.109476519979572
2671	-0.10960258381855201
2672	-0.109290374651376
2673	-0.1088574660639
2674	-0.109066141950552
2675	-0.1096084846791
2676	-0.10972650189006
2677	-0.109236194022708
2678	-0.108947051855856
2679	-0.109083308090328
2680	-0.10948510304946
2681	-0.109550548957356
2682	-0.109204007510628
2683	-0.108886433924772
2684	-0.109066141950552
2685	-0.109550548957356
2686	-0.109594537190532
2687	-0.109113348834936
2688	-0.108847273668408
2689	-0.108913256018172
2690	-0.109301639930604
2691	-0.109437896165076
2692	-0.109130514974712
2693	-0.108893407669056
2694	-0.109079552997252
2695	-0.109433604630132
2696	-0.109544648096808
2697	-0.109236194022708
2698	-0.10894973406519601
2699	-0.1091122759512
2700	-0.10941321983914801
2701	-0.109517826003408
2702	-0.109156264184376
2703	-0.108973337507388
2704	-0.1092732085116
2705	-0.109594537190532
2706	-0.109712017959624
2707	-0.109404100327392
2708	-0.109004451135732
2709	-0.109116031044276
2710	-0.109547866748016
2711	-0.109642280516784
2712	-0.109193815115136
2713	-0.108740521736676
2714	-0.10882527955182
2715	-0.109202398185024
2716	-0.109239412673916
2717	-0.108976019716728
2718	-0.108869267784996
2719	-0.109160019277452
2720	-0.109540893003732
2721	-0.109587563446248
2722	-0.109309150116756
2723	-0.109101010671972
2724	-0.109358502768612
2725	-0.109607948237232
2726	-0.109786046937408
2727	-0.10955215828296
2728	-0.109243167766992
2729	-0.109283400907092
2730	-0.109633697446896
2731	-0.109770490123236
2732	-0.109507097166048
2733	-0.109167529463604
2734	-0.109199179533816
2735	-0.109436286839472
2736	-0.109473301328364
2737	-0.109175576091624
2738	-0.108877850854884
2739	-0.109046293601436
2740	-0.109390689280692
2741	-0.10938747062948401
2742	-0.108915938227512
2743	-0.10859997396726
2744	-0.108947588297724
2745	-0.109358502768612
2746	-0.109350456140592
2747	-0.10904790292704
2748	-0.109000696042656
2749	-0.109233511813368
2750	-0.109558059143508
2751	-0.109652472912276
2752	-0.109264625441712
2753	-0.108940078111572
2754	-0.109258188139296
2755	-0.109761907053348
2756	-0.109863831008268
2757	-0.10957361595768
2758	-0.109086526741536
2759	-0.109016789298696
2760	-0.109391762164428
2761	-0.109444333467492
2762	-0.109149290440092
2763	-0.108938468785968
2764	-0.109171820998548
2765	-0.109570397306472
2766	-0.10967983144754401
2767	-0.109400881676184
2768	-0.109186841370852
2769	-0.109433604630132
2770	-0.109787119821144
2771	-0.109599901609212
2772	-0.109073652136704
2773	-0.108779145551172
2774	-0.108981920577276
2775	-0.109381033327068
2776	-0.109489394584404
2777	-0.10913641583526
2778	-0.108950806948932
2779	-0.109286083116432
2780	-0.109702362006
2781	-0.109640134749312
2782	-0.109204543952496
2783	-0.108906818715756
2784	-0.109069897043628
2785	-0.109504951398576
2786	-0.109598828725476
2787	-0.109259261023032
2788	-0.109123541230428
2789	-0.109334362884552
2790	-0.109433068188264
2791	-0.10943521395573601
2792	-0.10919435155700401
2793	-0.108980311251672
2794	-0.10923565758084
2795	-0.109716309494568
2796	-0.109782291844332
2797	-0.109371377373444
2798	-0.109085990299668
2799	-0.109233511813368
2800	-0.109612239772176
2801	-0.10962726014448
2802	-0.109118176811748
2803	-0.108799530342156
2804	-0.109001768926392
2805	-0.109384251978276
2806	-0.10947383777023201
2807	-0.109110666625596
2808	-0.108887506808508
2809	-0.10923029316216
2810	-0.10978014607686
2811	-0.109805358844656
2812	-0.109427167327716
2813	-0.109204007510628
2814	-0.109464181816608
2815	-0.109938932869788
2816	-0.10996790073066
2817	-0.109545184538676
2818	-0.109230829604028
2819	-0.109378887559596
2820	-0.109689487401168
2821	-0.109690023843036
2822	-0.109278036488412
2823	-0.108882678831696
2824	-0.10893685946036401
2825	-0.109294129744452
2826	-0.109403027443656
2827	-0.109156800626244
2828	-0.109126223439768
2829	-0.109537137910656
2830	-0.11002690933614
2831	-0.109975410916812
2832	-0.109593464306796
2833	-0.10934509172191201
2834	-0.109462572491004
2835	-0.109751714657856
2836	-0.109712017959624
2837	-0.109191132905796
2838	-0.108913256018172
2839	-0.109194887998872
2840	-0.109540893003732
2841	-0.109505487840444
2842	-0.109134270067788
2843	-0.108896089878396
2844	-0.10914714467262
2845	-0.109685195866224
2846	-0.109722210355116
2847	-0.109228147394688
2848	-0.108984066344748
2849	-0.109214736347988
2850	-0.10962457793514
2851	-0.109684659424356
2852	-0.1093268526984
2853	-0.109052194461984
2854	-0.109252823720616
2855	-0.109620286400196
2856	-0.109629405911952
2857	-0.10918147695217201
2858	-0.108957780693216
2859	-0.109153581975036
2860	-0.109523190422088
2861	-0.109476519979572
2862	-0.109150899765696
2863	-0.108854247412692
2864	-0.109105838648784
2865	-0.109590782097456
2866	-0.109686805191828
2867	-0.10931934251224801
2868	-0.109046293601436
2869	-0.109149290440092
2870	-0.109467936909684
2871	-0.109512998026596
2872	-0.109201325301288
2873	-0.108952952716404
2874	-0.109230829604028
2875	-0.109735621401816
2876	-0.109684659424356
2877	-0.10907740722978
2878	-0.108658446130872
2879	-0.108888043250376
2880	-0.109338117977628
2881	-0.109509779375388
2882	-0.109327389140268
2883	-0.109000159600788
2884	-0.109132660742184
2885	-0.109613312655912
2886	-0.109729720541268
2887	-0.109440041932548
2888	-0.109190596463928
2889	-0.109251214395012
2890	-0.109493686119348
2891	-0.109445942793096
2892	-0.10913373362592
2893	-0.108926130623004
2894	-0.109169675231076
2895	-0.10955752270164
2896	-0.109515143794068
2897	-0.109080625880988
2898	-0.10890199073894401
2899	-0.1091927422314
2900	-0.109556449817904
2901	-0.109610094004704
2902	-0.10924584997633201
2903	-0.108909500925096
2904	-0.109136952277128
2905	-0.109706653540944
2906	-0.109729720541268
2907	-0.109194887998872
2908	-0.108935786576628
2909	-0.109296275511924
2910	-0.109824134310036
2911	-0.109928204032428
2912	-0.10961545842338401
2913	-0.109430922420792
2914	-0.109662665307768
2915	-0.110020472033724
2916	-0.109980775335492
2917	-0.109684659424356
2918	-0.109399808792448
2919	-0.10938317909454
2920	-0.109676612796336
2921	-0.10969967979666
2922	-0.109247459301936
2923	-0.108926667064872
2924	-0.109111739509332
2925	-0.109520508212748
2926	-0.1095414294456
2927	-0.109349383256856
2928	-0.109173430324152
2929	-0.109279109372148
2930	-0.109550548957356
2931	-0.109524263305824
2932	-0.1091927422314
2933	-0.10895348915827201
2934	-0.109178794742832
2935	-0.109547330306148
2936	-0.109429313095188
2937	-0.108961535786292
2938	-0.108752323457772
2939	-0.109067751276156
2940	-0.10943896904881201
2941	-0.109360112094216
2942	-0.10894973406519601
2943	-0.10867024785196801
2944	-0.108912719576304
2945	-0.10943896904881201
2946	-0.109655691563484
2947	-0.10943896904881201
2948	-0.109195960882608
2949	-0.109456671630456
2950	-0.109664274633372
2951	-0.109592927864928
2952	-0.10922761095282
2953	-0.109000696042656
2954	-0.109243167766992
2955	-0.109641744074916
2956	-0.109651936470408
2957	-0.109151436207564
2958	-0.108895553436528
2959	-0.10920078885942
2960	-0.109586490562512
2961	-0.109604193144156
2962	-0.109315587419172
2963	-0.109186304928984
2964	-0.109491003910008
2965	-0.109700752680396
2966	-0.109664274633372
2967	-0.109296811953792
2968	-0.10914285313767601
2969	-0.109365476512896
2970	-0.109665883958976
2971	-0.10955752270164
2972	-0.109106375090652
2973	-0.108922375529928
2974	-0.1092597974649
2975	-0.109650863586672
2976	-0.109577371050756
2977	-0.109110666625596
2978	-0.108861221156976
2979	-0.109068287718024
2980	-0.109418584257828
2981	-0.109432531746396
2982	-0.109067751276156
2983	-0.108903600064548
2984	-0.109214736347988
2985	-0.109620286400196
2986	-0.109547330306148
2987	-0.10918737781272
2988	-0.109083308090328
2989	-0.109391762164428
2990	-0.109773172332576
2991	-0.109734012076212
2992	-0.109355284117404
2993	-0.109166993021736
2994	-0.10943682328134
2995	-0.109812869030808
2996	-0.109794093565428
2997	-0.109396053699372
2998	-0.109150899765696
2999	-0.109338117977628
3000	-0.109592927864928
3001	-0.109455062304852
3002	-0.10905273090385201
3003	-0.10888697036664
3004	-0.109085990299668
3005	-0.109441651258152
3006	-0.10935635700114
3007	-0.108896089878396
3008	-0.108666492758892
3009	-0.109021617275508
3010	-0.109379960443332
3011	-0.109246922860068
3012	-0.108908964483228
3013	-0.108797921016552
3014	-0.109156264184376
3015	-0.10963798898184
3016	-0.10967607635446801
3017	-0.109095646253292
3018	-0.108814014272592
3019	-0.109154118416904
3020	-0.109500659863632
3021	-0.10942233935090401
3022	-0.109047366485172
3023	-0.108981384135408
3024	-0.109423948676508
3025	-0.109870804752552
3026	-0.10976619858829201
3027	-0.109150363323828
3028	-0.108982993461012
3029	-0.109282328023356
3030	-0.109606338911628
3031	-0.10957898037636
3032	-0.109190596463928
3033	-0.108999086717052
3034	-0.109271062744128
3035	-0.109609557562836
3036	-0.109550012515488
3037	-0.1092061532781
3038	-0.109075797904176
3039	-0.109456671630456
3040	-0.109812869030808
3041	-0.109676612796336
3042	-0.109276963604676
3043	-0.10912032257922
3044	-0.109349383256856
3045	-0.10962726014448
3046	-0.109572006632076
3047	-0.109247459301936
3048	-0.109083844532196
3049	-0.109370304489708
3050	-0.109722210355116
3051	-0.109632088121292
3052	-0.109193815115136
3053	-0.108989430763428
3054	-0.109368695164104
3055	-0.109773708774444
3056	-0.109691096726772
3057	-0.109279645814016
3058	-0.109164847254264
3059	-0.109529627724504
3060	-0.109929813358032
3061	-0.109914792985728
3062	-0.109521581096484
3063	-0.109244777092596
3064	-0.10942609444398001
3065	-0.10971040863402
3066	-0.109585417678776
3067	-0.109180404068436
3068	-0.10901786218243201
3069	-0.109370304489708
3070	-0.10979570289103201
3071	-0.109702898447868
3072	-0.109202398185024
3073	-0.108998013833316
3074	-0.109352065466196
3075	-0.109783364728068
3076	-0.109649254261068
3077	-0.109135879393392
3078	-0.108764661620736
3079	-0.109069897043628
3080	-0.109618677074592
3081	-0.109446479234964
3082	-0.108864439808184
3083	-0.108654154595928
3084	-0.109040929182756
3085	-0.109427167327716
3086	-0.10938317909454
3087	-0.108912183134436
3088	-0.10872603780624
3089	-0.108992649414636
3090	-0.109307540791152
3091	-0.10929198397698
3092	-0.108976556158596
3093	-0.10878772862106
3094	-0.109113348834936
3095	-0.109481884398252
3096	-0.109328998465872
3097	-0.108835471947312
3098	-0.108681513131196
3099	-0.109073115694836
3100	-0.10950387851484
3101	-0.109493686119348
3102	-0.109045757159568
3103	-0.108919693320588
3104	-0.109475447095836
3105	-0.109906746357708
3106	-0.109715236610832
3107	-0.109210444813044
3108	-0.109039319857152
3109	-0.109402491001788
3110	-0.109707189982812
3111	-0.109476519979572
3112	-0.108925057739268
3113	-0.108767343830076
3114	-0.109158946393716
3115	-0.109618677074592
3116	-0.109716845936436
3117	-0.1093939079319
3118	-0.109065069066816
3119	-0.109246922860068
3120	-0.109672321261392
3121	-0.10954947607362
3122	-0.109099937788236
3123	-0.1089647544375
3124	-0.109269989860392
3125	-0.109605266027892
3126	-0.109520508212748
3127	-0.109119786137352
3128	-0.10899211297276801
3129	-0.109303249256208
3130	-0.109524263305824
3131	-0.109336508652024
3132	-0.108986748554088
3133	-0.108948124739592
3134	-0.109366012954764
3135	-0.10974527735544
3136	-0.10965944665656
3137	-0.109239949115784
3138	-0.109057022438796
3139	-0.109420193583432
3140	-0.10969270605237601
3141	-0.109579516818228
3142	-0.109172893882284
3143	-0.109099401346368
3144	-0.109496368328688
3145	-0.109906746357708
3146	-0.109815551240148
3147	-0.10926247967424
3148	-0.109038246973416
3149	-0.10931022300049201
3150	-0.109562350678452
3151	-0.109447015676832
3152	-0.109003378251996
3153	-0.108847273668408
3154	-0.109209371929308
3155	-0.109571470190208
3156	-0.109523726863956
3157	-0.109141243812072
3158	-0.109031273229132
3159	-0.109265698325448
3160	-0.10951246158472801
3161	-0.109256578813692
3162	-0.108776463341832
3163	-0.108698679270972
3164	-0.109179867626568
3165	-0.109688414517432
3166	-0.109708262866548
3167	-0.109266234767316
3168	-0.108952416274536
3169	-0.10927159918599601
3170	-0.10970558065720801
3171	-0.109457744514192
3172	-0.108966900204972
3173	-0.10891379246004
3174	-0.109307540791152
3175	-0.109678758563808
3176	-0.10956556932966
3177	-0.10922761095282
3178	-0.109202934626892
3179	-0.109420193583432
3180	-0.10956288712032
3181	-0.109421266467168
3182	-0.1091256869979
3183	-0.10906131397374
3184	-0.109397663024976
3185	-0.109742058704232
3186	-0.10967822212194
3187	-0.109256578813692
3188	-0.109083844532196
3189	-0.109372986699048
3190	-0.109596682958004
3191	-0.10941000118794
3192	-0.109045757159568
3193	-0.108882678831696
3194	-0.109213127022384
3195	-0.109657837330956
3196	-0.109532846375712
3197	-0.109046293601436
3198	-0.108952416274536
3199	-0.109433604630132
3200	-0.109855784380248
3201	-0.109632088121292
3202	-0.109200252417552
3203	-0.109132124300316
3204	-0.10934294595444
3205	-0.109658910214692
3206	-0.109607948237232
3207	-0.109228683836556
3208	-0.109059704648136
3209	-0.10924906862754
3210	-0.109550548957356
3211	-0.109437896165076
3212	-0.109090281834612
3213	-0.109030200345396
3214	-0.109433604630132
3215	-0.10979194779795601
3216	-0.109699143354792
3217	-0.109275354279072
3218	-0.109075261462308
3219	-0.109301639930604
3220	-0.109537674352524
3221	-0.109406246094864
3222	-0.109058095322532
3223	-0.108939005227836
3224	-0.109400881676184
3225	-0.109729720541268
3226	-0.109544648096808
3227	-0.109215809231724
3228	-0.10888697036664
3229	-0.109150363323828
3230	-0.109534455701316
3231	-0.109470619119024
3232	-0.1091122759512
3233	-0.1090720428111
3234	-0.109362257861688
3235	-0.109570397306472
3236	-0.10943521395573601
3237	-0.109040392740888
3238	-0.108862294040712
3239	-0.109205616836232
3240	-0.109607948237232
3241	-0.109487248816932
3242	-0.109047366485172
3243	-0.109006060461336
3244	-0.109428240211452
3245	-0.10979087491422
3246	-0.109625650818876
3247	-0.109255505929956
3248	-0.109228147394688
3249	-0.109561277794716
3250	-0.1098632945664
3251	-0.109707189982812
3252	-0.109293056860716
3253	-0.109089208950876
3254	-0.109275354279072
3255	-0.10955752270164
3256	-0.109405709652996
3257	-0.10902912746166
3258	-0.109015179973092
3259	-0.10931880607038
3260	-0.109494222561216
3261	-0.109269453418524
3262	-0.108792556597872
3263	-0.108692241968556
3264	-0.109007133345072
3265	-0.109288765325772
3266	-0.109142316695808
3267	-0.108796311690948
3268	-0.108765734504472
3269	-0.109095646253292
3270	-0.109427703769584
3271	-0.109407855420468
3272	-0.10902376304298
3273	-0.108858002505768
3274	-0.109210444813044
3275	-0.109504951398576
3276	-0.109274817837204
3277	-0.108758760760188
3278	-0.1085758340832
3279	-0.108958317135084
3280	-0.10931022300049201
3281	-0.109161628603056
3282	-0.108761979411396
3283	-0.108608557037148
3284	-0.108863903366316
3285	-0.109186841370852
3286	-0.109130514974712
3287	-0.10863752489802
3288	-0.108475519453884
3289	-0.10886014827324
3290	-0.109256578813692
3291	-0.109277500046544
3292	-0.108974946832992
3293	-0.108917547553116
3294	-0.109219027882932
3295	-0.109389079955088
3296	-0.109062386857476
3297	-0.1085892451299
3298	-0.108547939106064
3299	-0.10902698169418801
3300	-0.109405709652996
3301	-0.109127832765372
3302	-0.108563495920236
3303	-0.108523262780136
3304	-0.108918620436852
3305	-0.109220637208536
3306	-0.10902698169418801
3307	-0.108654691037796
3308	-0.108672930061308
3309	-0.10907848011351601
3310	-0.109331680675212
3311	-0.109092964043952
3312	-0.108693314852292
3313	-0.108586026478692
3314	-0.108841909249728
3315	-0.109149290440092
3316	-0.109018935066168
3317	-0.108664883433288
3318	-0.108672930061308
3319	-0.109118176811748
3320	-0.109362257861688
3321	-0.109019471508036
3322	-0.10852755431508
3323	-0.108461571965316
3324	-0.108810795621384
3325	-0.109028591019792
3326	-0.1087904108304
3327	-0.108371449731492
3328	-0.108444942267408
3329	-0.108926667064872
3330	-0.1092732085116
3331	-0.109074188578572
3332	-0.108576370525068
3333	-0.108628941828132
3334	-0.109012497763752
3335	-0.109142316695808
3336	-0.108908964483228
3337	-0.10852862719881601
3338	-0.108496977128604
3339	-0.108823670226216
3340	-0.10911710392801201
3341	-0.1089379323441
3342	-0.10854632978046
3343	-0.108437432081256
3344	-0.108898235645868
3345	-0.109263016116108
3346	-0.109057022438796
3347	-0.108596218874184
3348	-0.108451916011692
3349	-0.108945442530252
3350	-0.109347773931252
3351	-0.109142316695808
3352	-0.108594073106712
3353	-0.10851146105904
3354	-0.108902527180812
3355	-0.109161092161188
3356	-0.108855320296428
3357	-0.108534528059364
3358	-0.108533455175628
3359	-0.108945442530252
3360	-0.109266234767316
3361	-0.1090720428111
3362	-0.108646107967908
3363	-0.108548475547932
3364	-0.108849955877748
3365	-0.109162165044924
3366	-0.109021617275508
3367	-0.10875554210898
3368	-0.10882259734248
3369	-0.10916055571932
3370	-0.109176112533492
3371	-0.109032346112868
3372	-0.108681513131196
3373	-0.10863484268868
3374	-0.108973337507388
3375	-0.109251214395012
3376	-0.10902108083364
3377	-0.10846586350026
3378	-0.108363403103472
3379	-0.108820451575008
3380	-0.109185232045248
3381	-0.108971191739916
3382	-0.108507169524096
3383	-0.108497513570472
3384	-0.10893525013476
3385	-0.109198643091948
3386	-0.108995331623976
3387	-0.108472300802676
3388	-0.108351601382376
3389	-0.108847810110276
3390	-0.109217954999196
3391	-0.109143926021412
3392	-0.108860684715108
3393	-0.10870726234086
3394	-0.108894480552792
3395	-0.109075797904176
3396	-0.108885897482904
3397	-0.108540428919912
3398	-0.108488394058716
3399	-0.108814014272592
3400	-0.109147681114488
3401	-0.109003914693864
3402	-0.108602119734732
3403	-0.10844977024422
3404	-0.108792556597872
3405	-0.109032346112868
3406	-0.108954562042008
3407	-0.108706725898992
3408	-0.108701361480312
3409	-0.109142316695808
3410	-0.109395517257504
3411	-0.109089208950876
3412	-0.108625186735056
3413	-0.10857851629254
3414	-0.10896743664684
3415	-0.109230829604028
3416	-0.109044684275832
3417	-0.108603192618468
3418	-0.108475519453884
3419	-0.10886336692444801
3420	-0.109237803348312
3421	-0.109129442090976
3422	-0.10858388071122001
3423	-0.108423484592688
3424	-0.109009815554412
3425	-0.109398735908712
3426	-0.10912085902108801
3427	-0.10867024785196801
3428	-0.108647180851644
3429	-0.109069897043628
3430	-0.109330607791476
3431	-0.109011424880016
3432	-0.108561886594632
3433	-0.10854364757112
3434	-0.108996404507712
3435	-0.109288228883904
3436	-0.109020544391772
3437	-0.108520580570796
3438	-0.108450306686088
3439	-0.108740521736676
3440	-0.10894973406519601
3441	-0.108712090317672
3442	-0.10837735059204
3443	-0.108308686032936
3444	-0.108662201223948
3445	-0.10906399618308
3446	-0.108961535786292
3447	-0.10862947827
3448	-0.10869599706163201
3449	-0.109160019277452
3450	-0.10944808856056801
3451	-0.109171820998548
3452	-0.108833862621708
3453	-0.108849955877748
3454	-0.109172357440416
3455	-0.109280718697752
3456	-0.10890842804136
3457	-0.1085490119898
3458	-0.108673466503176
3459	-0.109038246973416
3460	-0.109190596463928
3461	-0.108881069506092
3462	-0.108355356475452
3463	-0.108297957195576
3464	-0.108587635804296
3465	-0.108818305807536
3466	-0.108646107967908
3467	-0.108297957195576
3468	-0.108303321614256
3469	-0.108764125178868
3470	-0.109068287718024
3471	-0.108907355157624
3472	-0.108485711849376
3473	-0.108466399942128
3474	-0.108911646692568
3475	-0.109162701486792
3476	-0.109008206228808
3477	-0.108626259618792
3478	-0.108645035084172
3479	-0.109180404068436
3480	-0.109408391862336
3481	-0.108951879832668
3482	-0.108330680149524
3483	-0.108267916450968
3484	-0.10873462087612801
3485	-0.109073115694836
3486	-0.108877850854884
3487	-0.108564568803972
3488	-0.108576906966936
3489	-0.108995868065844
3490	-0.109236194022708
3491	-0.108928812832344
3492	-0.108516289035852
3493	-0.108531309408156
3494	-0.108815623598196
3495	-0.10897923836793601
3496	-0.10876037008579201
3497	-0.108402026917968
3498	-0.10835052849864
3499	-0.10869599706163201
3500	-0.109023226601112
3501	-0.108897162762132
3502	-0.108441187174332
3503	-0.108424557476424
3504	-0.108818842249404
3505	-0.10907848011351601
3506	-0.108796848132816
3507	-0.108391834522476
3508	-0.108384860778192
3509	-0.108791483714136
3510	-0.10904361139209601
3511	-0.108846200784672
3512	-0.108459426197844
3513	-0.108366085312812
3514	-0.108663810549552
3515	-0.10894329676278
3516	-0.108727110689976
3517	-0.108354820033584
3518	-0.108429921895104
3519	-0.108823670226216
3520	-0.10903985629902001
3521	-0.10883869059852
3522	-0.108548475547932
3523	-0.108660591898344
3524	-0.108954562042008
3525	-0.109121931904824
3526	-0.108917011111248
3527	-0.108424557476424
3528	-0.108380569243248
3529	-0.10890306362268
3530	-0.109208299045572
3531	-0.108987284995956
3532	-0.108612312130224
3533	-0.108559204385292
3534	-0.108958317135084
3535	-0.109253360162484
3536	-0.108958853576952
3537	-0.10844977024422
3538	-0.108419193057744
3539	-0.10884673722654
3540	-0.109099937788236
3541	-0.108855320296428
3542	-0.108469082151468
3543	-0.108536137384968
3544	-0.109058095322532
3545	-0.109346164605648
3546	-0.109009815554412
3547	-0.108434213430048
3548	-0.108423484592688
3549	-0.108829034644896
3550	-0.109072579252968
3551	-0.108862294040712
3552	-0.10855169419914
3553	-0.10855437640848001
3554	-0.109050048694512
3555	-0.109337045093892
3556	-0.10903985629902001
3557	-0.10864557152604
3558	-0.108537746710572
3559	-0.108906282273888
3560	-0.109191132905796
3561	-0.108991040089032
3562	-0.10854364757112
3563	-0.108569396780784
3564	-0.108846200784672
3565	-0.109016789298696
3566	-0.1086965335035
3567	-0.108345700521828
3568	-0.108501805105416
3569	-0.1090854538578
3570	-0.109505487840444
3571	-0.109180404068436
3572	-0.108608557037148
3573	-0.108517361919588
3574	-0.108875705087412
3575	-0.109143926021412
3576	-0.10894061455344001
3577	-0.108389152313136
3578	-0.10832907082392
3579	-0.108692241968556
3580	-0.10886551269192
3581	-0.108624650293188
3582	-0.108315123335352
3583	-0.108437432081256
3584	-0.108896089878396
3585	-0.10908277164846
3586	-0.108887506808508
3587	-0.10846318129092
3588	-0.108471764360808
3589	-0.108879996622356
3590	-0.109069897043628
3591	-0.108818305807536
3592	-0.10856510524584
3593	-0.108649326619116
3594	-0.108982457019144
3595	-0.109161628603056
3596	-0.108867122017524
3597	-0.108533991617496
3598	-0.108566714571444
3599	-0.10894597897212
3600	-0.109158409951848
3601	-0.108930422157948
3602	-0.108509851733436
3603	-0.108520044128928
3604	-0.108853174528956
3605	-0.109132660742184
3606	-0.108973873949256
3607	-0.108663810549552
3608	-0.10869116908482
3609	-0.109067751276156
3610	-0.109199179533816
3611	-0.108809722737648
3612	-0.108340336103148
3613	-0.108391834522476
3614	-0.108807040528308
3615	-0.10892773994860801
3616	-0.108619285874508
3617	-0.1082673800091
3618	-0.108437432081256
3619	-0.108954562042008
3620	-0.109215272789856
3621	-0.108965290879368
3622	-0.108598364641656
3623	-0.108625723176924
3624	-0.109040392740888
3625	-0.109305931465548
3626	-0.109055413113192
3627	-0.108584953594956
3628	-0.108632696921208
3629	-0.109073115694836
3630	-0.109301639930604
3631	-0.108971728181784
3632	-0.108581734943748
3633	-0.108687950433612
3634	-0.109037710531548
3635	-0.10911710392801201
3636	-0.108788265062928
3637	-0.10841758373214
3638	-0.108414365080932
3639	-0.108784509969852
3640	-0.10899694094958
3641	-0.108704043689652
3642	-0.108383251452588
3643	-0.10840685489478
3644	-0.10885049231961601
3645	-0.109132124300316
3646	-0.108898772087736
3647	-0.108516289035852
3648	-0.108569933222652
3649	-0.109011424880016
3650	-0.109150363323828
3651	-0.108784509969852
3652	-0.108429921895104
3653	-0.108491076268056
3654	-0.108829034644896
3655	-0.108908964483228
3656	-0.108571542548256
3657	-0.108243776566908
3658	-0.108362330219736
3659	-0.1088306439705
3660	-0.109024299484848
3661	-0.10879845745842
3662	-0.108542574687384
3663	-0.108591390897372
3664	-0.109029663903528
3665	-0.10922761095282
3666	-0.108879460180488
3667	-0.108520044128928
3668	-0.108606947711544
3669	-0.109028591019792
3670	-0.109209908371176
3671	-0.108917011111248
3672	-0.108492149151792
3673	-0.10850609664036
3674	-0.108911646692568
3675	-0.109138561602732
3676	-0.108928812832344
3677	-0.108521653454532
3678	-0.108598364641656
3679	-0.108951879832668
3680	-0.109009279112544
3681	-0.108700288596576
3682	-0.108372522615228
3683	-0.108628405386264
3684	-0.109086526741536
3685	-0.109073115694836
3686	-0.1088306439705
3687	-0.108520044128928
3688	-0.108503950872888
3689	-0.108871413552468
3690	-0.109105302206916
3691	-0.108859611831372
3692	-0.10849375847739601
3693	-0.1085356009431
3694	-0.10896743664684
3695	-0.109183622719644
3696	-0.108866585575656
3697	-0.108436895639388
3698	-0.108533455175628
3699	-0.108974946832992
3700	-0.109126223439768
3701	-0.108697606387236
3702	-0.108264161357892
3703	-0.108343554754356
3704	-0.108847273668408
3705	-0.10907848011351601
3706	-0.108751250574036
3707	-0.108284009707008
3708	-0.108363403103472
3709	-0.108893944110924
3710	-0.109183086277776
3711	-0.108932031483552
3712	-0.108643962200436
3713	-0.108778072667436
3714	-0.109198643091948
3715	-0.109401418118052
3716	-0.109088672509008
3717	-0.10865093594472
3718	-0.10865898257274
3719	-0.109062386857476
3720	-0.109153581975036
3721	-0.108739985294808
3722	-0.108355356475452
3723	-0.108150435681876
3724	-0.108348919173036
3725	-0.108444942267408
3726	-0.108192814589448
3727	-0.107946051330168
3728	-0.108233047729548
3729	-0.108719600503824
3730	-0.10881186850512001
3731	-0.108511997500908
3732	-0.108261479148552
3733	-0.108277572404592
3734	-0.108630014711868
3735	-0.108700288596576
3736	-0.108411682871592
3737	-0.10800827858685601
3738	-0.108034564238388
3739	-0.108517898361456
3740	-0.108733011550524
3741	-0.108479810988828
3742	-0.108167601821652
3743	-0.108289910567556
3744	-0.108537746710572
3745	-0.108576370525068
3746	-0.108292056335028
3747	-0.10794283267896
3748	-0.108094109285736
3749	-0.108646107967908
3750	-0.108977629042332
3751	-0.10874749548096001
3752	-0.10846800926773201
3753	-0.108552767082876
3754	-0.108890189017848
3755	-0.108915938227512
3756	-0.108486784733112
3757	-0.108031882029048
3758	-0.108131123774628
3759	-0.10852862719881601
3760	-0.108708335224596
3761	-0.108441187174332
3762	-0.108038319331464
3763	-0.108069969401676
3764	-0.108412755755328
3765	-0.108603192618468
3766	-0.108358038684792
3767	-0.108009351470592
3768	-0.108193351031316
3769	-0.108689559759216
3770	-0.108818842249404
3771	-0.108478738105092
3772	-0.108153654333084
3773	-0.108266307125364
3774	-0.108770026039416
3775	-0.108940078111572
3776	-0.108588172246164
3777	-0.108244849450644
3778	-0.108333898800732
3779	-0.108674539386912
3780	-0.108730865783052
3781	-0.108407927778516
3782	-0.107984138702796
3783	-0.107999695516968
3784	-0.108469082151468
3785	-0.108739985294808
3786	-0.108546866222328
3787	-0.10824324012504
3788	-0.108308149591068
3789	-0.108761979411396
3790	-0.10885478385456
3791	-0.108458353314108
3792	-0.108109666099908
3793	-0.10824914098558801
3794	-0.10856725101331201
3795	-0.108702970805916
3796	-0.108494294919264
3797	-0.108104838123096
3798	-0.108145071263196
3799	-0.108632696921208
3800	-0.108839763482256
3801	-0.108529700082552
3802	-0.108241630799436
3803	-0.108498586454208
3804	-0.108935786576628
3805	-0.10901786218243201
3806	-0.10865898257274
3807	-0.10826577068349601
3808	-0.10829151989316001
3809	-0.108687413991744
3810	-0.1088038218771
3811	-0.108407391336648
3812	-0.107971264097964
3813	-0.108097864378812
3814	-0.108583344269352
3815	-0.10873462087612801
3816	-0.108340872545016
3817	-0.107950342865112
3818	-0.108142389053856
3819	-0.108655763921532
3820	-0.108848882994012
3821	-0.10854364757112
3822	-0.108273280869648
3823	-0.108483566081904
3824	-0.108907355157624
3825	-0.109195960882608
3826	-0.108958317135084
3827	-0.10843635919752
3828	-0.108315123335352
3829	-0.108543111129252
3830	-0.108633769804944
3831	-0.10835213782424401
3832	-0.10797770140038
3833	-0.108050657494428
3834	-0.108517361919588
3835	-0.10877324469062401
3836	-0.108517898361456
3837	-0.10816813826352
3838	-0.108251823194928
3839	-0.108580662060012
3840	-0.10871530896888
3841	-0.108390225196872
3842	-0.10809571861134
3843	-0.108290983451292
3844	-0.108677221596252
3845	-0.108788801504796
3846	-0.10850663308222801
3847	-0.108187450170768
3848	-0.108365548870944
3849	-0.108755005667112
3850	-0.108936323018496
3851	-0.10851414326838
3852	-0.108083916890244
3853	-0.108284546148876
3854	-0.108693314852292
3855	-0.108779145551172
3856	-0.10832638861458001
3857	-0.107992185330816
3858	-0.108308686032936
3859	-0.108763052295132
3860	-0.108835471947312
3861	-0.108505560198492
3862	-0.10817564844967201
3863	-0.108369840405888
3864	-0.10886014827324
3865	-0.108972264623652
3866	-0.108497513570472
3867	-0.108152581449348
3868	-0.108329607265788
3869	-0.108768416713812
3870	-0.108803285435232
3871	-0.108388615871268
3872	-0.10805977700618401
3873	-0.108295274986236
3874	-0.108819378691272
3875	-0.108917011111248
3876	-0.108424021034556
3877	-0.1080796253553
3878	-0.10831351400974801
3879	-0.108777536225568
3880	-0.108915938227512
3881	-0.10858012561814401
3882	-0.108284546148876
3883	-0.1085087788497
3884	-0.108974410391124
3885	-0.109016252856828
3886	-0.108509315291568
3887	-0.108139706844516
3888	-0.108334971684468
3889	-0.108842445691596
3890	-0.108968509530576
3891	-0.108565641687708
3892	-0.108265234241628
3893	-0.10851414326838
3894	-0.108882142389828
3895	-0.10896260867002801
3896	-0.108657909689004
3897	-0.108244313008776
3898	-0.108266843567232
3899	-0.108711017433936
3900	-0.108869804226864
3901	-0.10842026594148
3902	-0.108049584610692
3903	-0.108233047729548
3904	-0.108631087595604
3905	-0.10869599706163201
3906	-0.108359648010396
3907	-0.108091963518264
3908	-0.108238412148228
3909	-0.108634306246812
3910	-0.108717454736352
3911	-0.108345700521828
3912	-0.108088208425188
3913	-0.108382178568852
3914	-0.108878387296752
3915	-0.109053803787588
3916	-0.108698679270972
3917	-0.108256114729872
3918	-0.10836930396402
3919	-0.10873408443426
3920	-0.108730865783052
3921	-0.108318878428428
3922	-0.107980920051588
3923	-0.108131123774628
3924	-0.108580662060012
3925	-0.108723892038768
3926	-0.108314050451616
3927	-0.10800827858685601
3928	-0.108369840405888
3929	-0.108890189017848
3930	-0.108904136506416
3931	-0.108472300802676
3932	-0.108144534821328
3933	-0.108254505404268
3934	-0.10866112834021201
3935	-0.108808113412044
3936	-0.108501805105416
3937	-0.108165992496048
3938	-0.108246995218116
3939	-0.108642352874832
3940	-0.10872603780624
3941	-0.108367158196548
3942	-0.108025444726632
3943	-0.108164919612312
3944	-0.108660055456476
3945	-0.108845127900936
3946	-0.10845513466290001
3947	-0.108160628077368
3948	-0.108327461498316
3949	-0.108787192179192
3950	-0.108974946832992
3951	-0.10881455071446
3952	-0.108560813710896
3953	-0.108614457897696
3954	-0.10885049231961601
3955	-0.108837081272916
3956	-0.10850663308222801
3957	-0.10820300698494
3958	-0.108332825916996
3959	-0.108611239246488
3960	-0.108500195779812
3961	-0.108051193936296
3962	-0.1078114044213
3963	-0.108088208425188
3964	-0.108551157757272
3965	-0.108594073106712
3966	-0.10822446465966
3967	-0.10795678016752801
3968	-0.10814989924000801
3969	-0.108621968083848
3970	-0.108818305807536
3971	-0.10854632978046
3972	-0.10830439449799201
3973	-0.108472300802676
3974	-0.108772171806888
3975	-0.108691705526688
3976	-0.108270598660308
3977	-0.10803402779652001
3978	-0.108356965801056
3979	-0.10879309303974
3980	-0.108753932783376
3981	-0.108333898800732
3982	-0.108056558354976
3983	-0.108268989334704
3984	-0.108882678831696
3985	-0.109088672509008
3986	-0.108574224757596
3987	-0.108203543426808
3988	-0.108383251452588
3989	-0.108840836365992
3990	-0.108912183134436
3991	-0.108384324336324
3992	-0.108048511726956
3993	-0.10823787570636
3994	-0.108647717293512
3995	-0.108659519014608
3996	-0.108296347869972
3997	-0.108039928657068
3998	-0.108159555193632
3999	-0.108394516731816
4000	-0.108413292197196
4001	-0.108057631238712
4002	-0.107813550188772
4003	-0.108134342425836
4004	-0.10871262675954001
4005	-0.108891261901584
4006	-0.108558667943424
4007	-0.108187450170768
4008	-0.10824002147383201
4009	-0.108660591898344
4010	-0.108883751715432
4011	-0.108550621315404
4012	-0.108154190774952
4013	-0.108346773405564
4014	-0.108938468785968
4015	-0.109024299484848
4016	-0.108450843127956
4017	-0.108102155913756
4018	-0.108294738544368
4019	-0.108765734504472
4020	-0.108940078111572
4021	-0.108458353314108
4022	-0.107946051330168
4023	-0.107992721772684
4024	-0.108384860778192
4025	-0.10850341443102
4026	-0.108117712727928
4027	-0.107781363676692
4028	-0.107986284470268
4029	-0.108477665221356
4030	-0.108619285874508
4031	-0.108273817311516
4032	-0.108052266820032
4033	-0.108327461498316
4034	-0.108732475108656
4035	-0.108678294479988
4036	-0.108246995218116
4037	-0.108013106563668
4038	-0.10831297756788
4039	-0.108790947272268
4040	-0.108915938227512
4041	-0.10859675531605201
4042	-0.108264161357892
4043	-0.10842563036016
4044	-0.108917547553116
4045	-0.109005524019468
4046	-0.10863537913054801
4047	-0.108360720894132
4048	-0.108477665221356
4049	-0.10879309303974
4050	-0.108736230201732
4051	-0.108301712288652
4052	-0.10807694314596
4053	-0.108399344708628
4054	-0.108698679270972
4055	-0.108566178129576
4056	-0.108231974845812
4057	-0.1080796253553
4058	-0.10833926321941201
4059	-0.108816160040064
4060	-0.10895670780948
4061	-0.108625723176924
4062	-0.108346236963696
4063	-0.108714236085144
4064	-0.109275354279072
4065	-0.109230829604028
4066	-0.108702434364048
4067	-0.108273280869648
4068	-0.108374131940832
4069	-0.108782900644248
4070	-0.108845127900936
4071	-0.108428849011368
4072	-0.108128441565288
4073	-0.10839344384808
4074	-0.108724964922504
4075	-0.108727110689976
4076	-0.1082539689624
4077	-0.107931567399732
4078	-0.108255041846136
4079	-0.108735693759864
4080	-0.108783973527984
4081	-0.108242703683172
4082	-0.107926202981052
4083	-0.108136488193308
4084	-0.108689023317348
4085	-0.108831716854236
4086	-0.108420802383348
4087	-0.108097864378812
4088	-0.108336581010072
4089	-0.108828498203028
4090	-0.108879996622356
4091	-0.10846800926773201
4092	-0.108060313448052
4093	-0.108239485031964
4094	-0.10872067338756
4095	-0.108731938666788
4096	-0.108328534382052
4097	-0.108115030518588
4098	-0.108268452892836
4099	-0.10861338501396
4100	-0.108674539386912
4101	-0.108321560637768
4102	-0.108150435681876
4103	-0.108442796499936
4104	-0.108794165923476
4105	-0.10884137280786
4106	-0.108538819594308
4107	-0.10831351400974801
4108	-0.108528090756948
4109	-0.108906818715756
4110	-0.10890199073894401
4111	-0.10856778745518
4112	-0.108459426197844
4113	-0.108745886155356
4114	-0.109066141950552
4115	-0.1089781654842
4116	-0.108531309408156
4117	-0.108228219752736
4118	-0.108344627638092
4119	-0.108668638526364
4120	-0.108755005667112
4121	-0.108443869383672
4122	-0.108181012868352
4123	-0.108358038684792
4124	-0.108836544831048
4125	-0.108859611831372
4126	-0.108394516731816
4127	-0.108029199819708
4128	-0.10827810884646
4129	-0.108679903805592
4130	-0.108679367363724
4131	-0.108418120174008
4132	-0.108248068101852
4133	-0.108497513570472
4134	-0.108968509530576
4135	-0.109048439368908
4136	-0.108675612270648
4137	-0.108332825916996
4138	-0.108550621315404
4139	-0.10892398485553201
4140	-0.108987284995956
4141	-0.108650399502852
4142	-0.108203543426808
4143	-0.10825128675306
4144	-0.108677221596252
4145	-0.108821524458744
4146	-0.108489466942452
4147	-0.108191741705712
4148	-0.108410073545988
4149	-0.108693314852292
4150	-0.108603192618468
4151	-0.108360184452264
4152	-0.108219636682848
4153	-0.10853291873376
4154	-0.10888965257598
4155	-0.108848346552144
4156	-0.108391834522476
4157	-0.108145071263196
4158	-0.108415437964668
4159	-0.108942760320912
4160	-0.10892398485553201
4161	-0.108422411708952
4162	-0.108202470543072
4163	-0.108366085312812
4164	-0.108647180851644
4165	-0.10868687754987601
4166	-0.108411146429724
4167	-0.10824002147383201
4168	-0.10853238229189201
4169	-0.108861221156976
4170	-0.108752323457772
4171	-0.108424557476424
4172	-0.108156336542424
4173	-0.10836501242907601
4174	-0.108851565203352
4175	-0.108931495041684
4176	-0.108509315291568
4177	-0.10821051717109201
4178	-0.108415437964668
4179	-0.108745886155356
4180	-0.108638597781756
4181	-0.108316196219088
4182	-0.108251823194928
4183	-0.10853023652442
4184	-0.108859611831372
4185	-0.108755005667112
4186	-0.108255041846136
4187	-0.10790903684127601
4188	-0.108193351031316
4189	-0.10865737324713601
4190	-0.10873462087612801
4191	-0.108345700521828
4192	-0.108220173124716
4193	-0.108574224757596
4194	-0.108909500925096
4195	-0.1088440550172
4196	-0.108469082151468
4197	-0.10831351400974801
4198	-0.108560277269028
4199	-0.108802212551496
4200	-0.108753396341508
4201	-0.108376814150172
4202	-0.10817189335659601
4203	-0.108359111568528
4204	-0.108751250574036
4205	-0.10877324469062401
4206	-0.108361793777868
4207	-0.108153117891216
4208	-0.108550084873536
4209	-0.108936323018496
4210	-0.108778609109304
4211	-0.108246995218116
4212	-0.108049584610692
4213	-0.10842026594148
