0	-0.124058082835548
1	-0.12403072430028
2	-0.12336285417462
3	-0.123060837402936
4	-0.123636975969168
5	-0.12447597105072
6	-0.124431982817544
7	-0.12373836348222
8	-0.123648241248396
9	-0.12431503849032
10	-0.124824121823052
11	-0.124549463586636
12	-0.123951330903816
13	-0.123781815273528
14	-0.124294117257468
15	-0.124780133589876
16	-0.124829486241732
17	-0.124289825722524
18	-0.123902514693828
19	-0.12449742872544
20	-0.125537589507492
21	-0.125508085204752
22	-0.124731317379888
23	-0.124380484398216
24	-0.124884739754136
25	-0.125645950764828
26	-0.125749484045352
27	-0.125096097850128
28	-0.124700203751544
29	-0.125166371734836
30	-0.125886276721692
31	-0.12619741300513201
32	-0.125957087048268
33	-0.125351444179296
34	-0.125407234133568
35	-0.126210287609964
36	-0.126496211125608
37	-0.125761285766448
38	-0.124900833010176
39	-0.125417962970928
40	-0.126502111986156
41	-0.126895860317268
42	-0.126582578266356
43	-0.126533762056368
44	-0.126616910545908
45	-0.12695165027154
46	-0.127186075367856
47	-0.126788571943668
48	-0.12667806491886
49	-0.127460197162404
50	-0.12812270286938401
51	-0.127822831865172
52	-0.127114192157544
53	-0.126749948129172
54	-0.127239183112788
55	-0.127995566146668
56	-0.12808622482236
57	-0.127450004766912
58	-0.127003148690868
59	-0.127502576069976
60	-0.128136650357952
61	-0.127938166866792
62	-0.127161935483796
63	-0.126794472804216
64	-0.127264932322452
65	-0.12798966528612
66	-0.127993420379196
67	-0.12733252399782
68	-0.12693823922484
69	-0.127502039628108
70	-0.128348544895812
71	-0.128074959543132
72	-0.127160326158192
73	-0.126792863478612
74	-0.127268687415528
75	-0.12787701249384
76	-0.127857164144724
77	-0.127185538925988
78	-0.126968816411316
79	-0.12746395225548
80	-0.12810500028774
81	-0.128262714196932
82	-0.1275792872571
83	-0.127113655715676
84	-0.12763346788576801
85	-0.128386095826572
86	-0.12844295866458
87	-0.127772942771448
88	-0.127393141928904
89	-0.128103390962136
90	-0.12899549378862
91	-0.12899978532356401
92	-0.12836249238438
93	-0.127858773470328
94	-0.128346935570208
95	-0.129227773117464
96	-0.12923152821054001
97	-0.128633931969588
98	-0.128347472012076
99	-0.128784135692628
100	-0.129322186886232
101	-0.129402653166432
102	-0.128900007136116
103	-0.128559902991804
104	-0.129112974557712
105	-0.129791037078864
106	-0.12938709635226
107	-0.128814712879104
108	-0.128638223504532
109	-0.128846362949316
110	-0.129263178280752
111	-0.129170373837588
112	-0.128537908875216
113	-0.12813718679982
114	-0.128645733690684
115	-0.129422501515548
116	-0.129536763633432
117	-0.128901080019852
118	-0.128260031987592
119	-0.128535763107744
120	-0.129433766794776
121	-0.129618302797368
122	-0.128962234392804
123	-0.128509477456212
124	-0.128954724206652
125	-0.129693941100756
126	-0.129779771799636
127	-0.129207924768348
128	-0.128802911158008
129	-0.129387632794128
130	-0.13029368310918
131	-0.130177275223824
132	-0.129567877261776
133	-0.129362420026332
134	-0.129843608381928
135	-0.13065578137008
136	-0.130728737464128
137	-0.12990476275488
138	-0.129253522327128
139	-0.1296311774022
140	-0.130351082389056
141	-0.130330697598072
142	-0.129733637798988
143	-0.12934418100282
144	-0.129627422309124
145	-0.130338744226092
146	-0.130447105483428
147	-0.129794255730072
148	-0.129182712000552
149	-0.129656390169996
150	-0.130343035761036
151	-0.130431012227388
152	-0.129809812544244
153	-0.129247085024712
154	-0.129589871378364
155	-0.13021160750337601
156	-0.130291537341708
157	-0.129705206379984
158	-0.128996030230488
159	-0.129225090908124
160	-0.13006837752462
161	-0.130064622431544
162	-0.12923421041988
163	-0.128704742296164
164	-0.129100636394748
165	-0.129827515125888
166	-0.129816786288528
167	-0.129169300953852
168	-0.128827051042068
169	-0.129170373837588
170	-0.129665509681752
171	-0.129714862333608
172	-0.129141405976716
173	-0.128741756785056
174	-0.129229918884936
175	-0.129961625592888
176	-0.130123631037024
177	-0.129626349425388
178	-0.12933881658414
179	-0.129706815705588
180	-0.130141333618668
181	-0.12993426705762
182	-0.129379586166108
183	-0.129039482021796
184	-0.129190758628572
185	-0.129841462614456
186	-0.129918710243448
187	-0.129270152025036
188	-0.12889893425238
189	-0.129340962351612
190	-0.130121485269552
191	-0.130245939782928
192	-0.129497603377068
193	-0.129009441277188
194	-0.129635468937144
195	-0.130242184689852
196	-0.130124167478892
197	-0.129511550865636
198	-0.12912692204628
199	-0.12954534670332
200	-0.130287782248632
201	-0.130188540503052
202	-0.129486874539708
203	-0.129059330370912
204	-0.129429475259832
205	-0.130128459013836
206	-0.13040633590146
207	-0.129865066056648
208	-0.129295364792832
209	-0.129605428192536
210	-0.130311385690824
211	-0.130557612508236
212	-0.13017566589822
213	-0.129866675382252
214	-0.130101636920436
215	-0.130543665019668
216	-0.13061286602064
217	-0.129999176523648
218	-0.129444495632136
219	-0.12974651240382
220	-0.130588189694712
221	-0.130546883670876
222	-0.129771725171616
223	-0.129301802095248
224	-0.129596845122648
225	-0.130303339062804
226	-0.130456761437052
227	-0.129795865055676
228	-0.129238501954824
229	-0.129672483426036
230	-0.1304090181108
231	-0.130672411067988
232	-0.129999176523648
233	-0.12929053681602
234	-0.129683212263396
235	-0.130479291995508
236	-0.13057209643867201
237	-0.129846290591268
238	-0.129232601094276
239	-0.129550174680132
240	-0.130204633759092
241	-0.130192295596128
242	-0.129548565354528
243	-0.12907703295255601
244	-0.129473463493008
245	-0.130214826154584
246	-0.130602673625148
247	-0.13016010908404801
248	-0.129492775400256
249	-0.129580751866608
250	-0.130245939782928
251	-0.130409554552668
252	-0.129905299196748
253	-0.129326478421176
254	-0.129579142541004
255	-0.130117193734608
256	-0.130188004061184
257	-0.12962044856484
258	-0.129225627349992
259	-0.129700378403172
260	-0.130468563158148
261	-0.130444959715956
262	-0.129786209102052
263	-0.129530326331016
264	-0.13005711224539201
265	-0.13072551881292
266	-0.130657927137552
267	-0.129993812104968
268	-0.129579678982872
269	-0.129947141662452
270	-0.130567804903728
271	-0.130684749230952
272	-0.130154744665368
273	-0.129602209541328
274	-0.130035118128804
275	-0.13068421278908401
276	-0.130672411067988
277	-0.130009905361008
278	-0.129524425470468
279	-0.129957334057944
280	-0.130589799020316
281	-0.13083012497718
282	-0.130486265739792
283	-0.130101636920436
284	-0.1302346745037
285	-0.130854801303108
286	-0.130848364000692
287	-0.130137578525592
288	-0.129760996334256
289	-0.130184248968108
290	-0.13088645137332
291	-0.131022707607792
292	-0.130321578086316
293	-0.129834488870172
294	-0.130178884549428
295	-0.130787746069608
296	-0.130693868742708
297	-0.130103782687908
298	-0.129720226752288
299	-0.130049065617372
300	-0.13075502311566
301	-0.130933121815836
302	-0.130098418269228
303	-0.129555002656944
304	-0.130102709804172
305	-0.13084782755882401
306	-0.130734101882808
307	-0.130160645525916
308	-0.129637614704616
309	-0.129943386569376
310	-0.130598918532072
311	-0.130536154833516
312	-0.12978942775326
313	-0.129487410981576
314	-0.130011514686612
315	-0.130699233161388
316	-0.130724982371052
317	-0.129954651848604
318	-0.129668191891092
319	-0.13028885513236801
320	-0.130907372606172
321	-0.130730346789732
322	-0.129979328174532
323	-0.129543200935848
324	-0.130074814827036
325	-0.130904690396832
326	-0.13092668451342
327	-0.129796937939412
328	-0.12906791344080001
329	-0.129641369797692
330	-0.130556003182632
331	-0.130542592135932
332	-0.129766897194804
333	-0.12933881658414
334	-0.129777626032164
335	-0.13056190404318
336	-0.130683139905348
337	-0.130212680387112
338	-0.129815176962924
339	-0.130031899477596
340	-0.130552248089556
341	-0.1307174721849
342	-0.130077497036376
343	-0.129455760911364
344	-0.129822687149076
345	-0.130667583091176
346	-0.13086445725673201
347	-0.130380050249928
348	-0.130019024872764
349	-0.13035805613334
350	-0.131064013631628
351	-0.130860702163656
352	-0.130088225873736
353	-0.129822687149076
354	-0.130293146667312
355	-0.13085694707058
356	-0.130833880070256
357	-0.130214289712716
358	-0.129894570359388
359	-0.13028563648116
360	-0.130989448211976
361	-0.130992130421316
362	-0.130451397018372
363	-0.130208388852168
364	-0.130463735181336
365	-0.131013051654168
366	-0.131172911330832
367	-0.130574778648012
368	-0.129936412825092
369	-0.130257205062156
370	-0.130745903603904
371	-0.130591944787788
372	-0.130094663176152
373	-0.129988447686288
374	-0.13022823720128401
375	-0.130498067460888
376	-0.130412236762008
377	-0.129945532336848
378	-0.129699841961304
379	-0.130196050689204
380	-0.130901471745624
381	-0.130863384372996
382	-0.130089298757472
383	-0.129587189169024
384	-0.129959479825416
385	-0.130771652813568
386	-0.130960480351104
387	-0.130267397457648
388	-0.129574314564192
389	-0.129897252568728
390	-0.130649344067664
391	-0.130731419673468
392	-0.13018639473558
393	-0.12998791124442
394	-0.130524889554288
395	-0.131174520656436
396	-0.131332771007496
397	-0.130831197860916
398	-0.130582288834164
399	-0.130726055254788
400	-0.130793110488288
401	-0.130769507046096
402	-0.130118803060212
403	-0.129808739660508
404	-0.130466417390676
405	-0.131301657379152
406	-0.13132633370508
407	-0.130587653252844
408	-0.12997718240706
409	-0.130223409224472
410	-0.13082744276784
411	-0.131055967003608
412	-0.130391315529156
413	-0.129948214546188
414	-0.130624667741736
415	-0.131415383055168
416	-0.131485656939876
417	-0.130741075627092
418	-0.130256668620288
419	-0.130694941626444
420	-0.13144703312538
421	-0.131646589500276
422	-0.131147162121168
423	-0.130657390695684
424	-0.130977110049012
425	-0.131601528383364
426	-0.131433085636812
427	-0.130893961559472
428	-0.130396143505968
429	-0.130753413790056
430	-0.1316428344072
431	-0.131803230525732
432	-0.130855337744976
433	-0.13025613217842
434	-0.130863920814864
435	-0.131561831685132
436	-0.13131560486772
437	-0.130646125416456
438	-0.130199269340412
439	-0.130526498879892
440	-0.131250695401692
441	-0.131318823518928
442	-0.130727664580392
443	-0.130434767320464
444	-0.130802766441912
445	-0.131384269426824
446	-0.131485120498008
447	-0.130842999582012
448	-0.130406872343328
449	-0.130773262139172
450	-0.131269470867072
451	-0.131195978331156
452	-0.130622521974264
453	-0.130380050249928
454	-0.130777553674116
455	-0.131453470427796
456	-0.131460980613948
457	-0.130726591696656
458	-0.130265251690176
459	-0.13068796788216
460	-0.131412700845828
461	-0.13153286382426
462	-0.131003395700544
463	-0.130577460857352
464	-0.130758241766868
465	-0.13138534231056
466	-0.131548420638432
467	-0.13092936672276
468	-0.130527571763628
469	-0.131067768724704
470	-0.131892816317688
471	-0.131616548755668
472	-0.130604282950752
473	-0.13017566589822
474	-0.130522743786816
475	-0.131190077470608
476	-0.131348864263536
477	-0.130749122255112
478	-0.130252913527212
479	-0.130734101882808
480	-0.131494776451632
481	-0.131558076592056
482	-0.13094009556012
483	-0.130465880948808
484	-0.130794183372024
485	-0.131462589939552
486	-0.131602064825232
487	-0.130981401583956
488	-0.130592481229656
489	-0.130897716652548
490	-0.131434158520548
491	-0.131523207870636
492	-0.131132141748864
493	-0.13085694707058
494	-0.131148771446772
495	-0.13177426266486
496	-0.131789819479032
497	-0.131271080192676
498	-0.130981938025824
499	-0.13137997789188
500	-0.131841854340228
501	-0.13179303813024001
502	-0.13128556412311201
503	-0.130918101443532
504	-0.131282345471904
505	-0.131859556921872
506	-0.131867603549892
507	-0.131331161681892
508	-0.130825297000368
509	-0.130957261699896
510	-0.131548420638432
511	-0.131635860662916
512	-0.131054357678004
513	-0.131021634724056
514	-0.131363348193972
515	-0.131832198386604
516	-0.131791428804636
517	-0.131267861541468
518	-0.130886987815188
519	-0.131239430122464
520	-0.131839172130888
521	-0.131864921340552
522	-0.131368176170784
523	-0.130952970164952
524	-0.131303266704756
525	-0.131963090202396
526	-0.131794111013976
527	-0.131152526539848
528	-0.130826906325972
529	-0.1314014355666
530	-0.132185713577616
531	-0.132150308414328
532	-0.131266788657732
533	-0.130849436884428
534	-0.131472245893176
535	-0.13237775976636001
536	-0.132435695488104
537	-0.131840781456492
538	-0.131268397983336
539	-0.131550029964036
540	-0.132430867511292
541	-0.132627741676848
542	-0.1319512884813
543	-0.131466881474496
544	-0.131810204270016
545	-0.132349328347356
546	-0.132410482720308
547	-0.131784455060352
548	-0.131367639728916
549	-0.131830052619132
550	-0.132386879278116
551	-0.132335917300656
552	-0.131889061224612
553	-0.131542519777884
554	-0.13193090369031601
555	-0.132755414841432
556	-0.132798330190872
557	-0.131900862945708
558	-0.131480292521196
559	-0.13187028575923201
560	-0.132306949439784
561	-0.13215781860048
562	-0.131415919497036
563	-0.131057576329212
564	-0.1314416687067
565	-0.132217363647828
566	-0.132335917300656
567	-0.131703988780152
568	-0.131269470867072
569	-0.131782845734748
570	-0.132580534792464
571	-0.132665292607608
572	-0.131890670550216
573	-0.131439522939228
574	-0.131915883318012
575	-0.13263256965366
576	-0.132600919583448
577	-0.131725446454872
578	-0.131336526100572
579	-0.131753341432008
580	-0.132176057623992
581	-0.132218436531564
582	-0.131757632966952
583	-0.131626204709292
584	-0.132312313858464
585	-0.13260574756026
586	-0.132098273553132
587	-0.13150979682393601
588	-0.131119267144032
589	-0.131563977452604
590	-0.132387952161852
591	-0.132528499931268
592	-0.131950215597564
593	-0.131633714895444
594	-0.131824688200452
595	-0.132421747999536
596	-0.132607893327732
597	-0.131903545155048
598	-0.131491021358556
599	-0.131882623922196
600	-0.132545129629176
601	-0.132510797349624
602	-0.131864384898684
603	-0.131513015475144
604	-0.131816641572432
605	-0.132496849861056
606	-0.132628278118716
607	-0.132043020040728
608	-0.13171525405938
609	-0.131828443293528
610	-0.13245286162788
611	-0.132677630770572
612	-0.132243112857492
613	-0.131728128664212
614	-0.131874577294176
615	-0.132386879278116
616	-0.132467882000184
617	-0.13179303813024001
618	-0.13132901591442
619	-0.131788746595296
620	-0.132627741676848
621	-0.13269586979408401
622	-0.132070915017864
623	-0.131579534266776
624	-0.13199903180755201
625	-0.132720546120012
626	-0.132745758887808
627	-0.13210685662302
628	-0.1317635338275
629	-0.132181422042672
630	-0.132862703215032
631	-0.132903472797
632	-0.132271544276496
633	-0.132084862506432
634	-0.132472709976996
635	-0.132854656587012
636	-0.132798330190872
637	-0.132224337392112
638	-0.131788210153428
639	-0.132123486320928
640	-0.132787064911644
641	-0.13269962488716
642	-0.131869749317364
643	-0.131539301126676
644	-0.131916956201748
645	-0.132472709976996
646	-0.132607893327732
647	-0.132180349158936
648	-0.131897107852632
649	-0.131867603549892
650	-0.132298366369896
651	-0.132448033651068
652	-0.13179572033958
653	-0.131444887357908
654	-0.13189227987582
655	-0.1325547855828
656	-0.132527427047532
657	-0.131825761084188
658	-0.131394998264184
659	-0.131887988340876
660	-0.132652418002776
661	-0.132626668793112
662	-0.132000641133156
663	-0.131556467266452
664	-0.131937340992732
665	-0.13255800423400801
666	-0.132702843538368
667	-0.132124022762796
668	-0.131628886918632
669	-0.13196201731866
670	-0.132560686443348
671	-0.132638470514208
672	-0.132093982018188
673	-0.131696478594
674	-0.132098273553132
675	-0.132699088445292
676	-0.132760779260112
677	-0.132168010995972
678	-0.131688968407848
679	-0.131996349598212
680	-0.132732884282976
681	-0.13286055744756
682	-0.13238848860372
683	-0.131984011435248
684	-0.132295147718688
685	-0.132885770215356
686	-0.13294907035578
687	-0.132355229207904
688	-0.131923929946032
689	-0.132268325625288
690	-0.13291420163436
691	-0.132954971216328
692	-0.132385269952512
693	-0.131940023202072
694	-0.132176057623992
695	-0.132961944960612
696	-0.133151845381884
697	-0.132526890605664
698	-0.131916956201748
699	-0.132106320181152
700	-0.132803158167684
701	-0.132927076239192
702	-0.1324340861625
703	-0.132083789622696
704	-0.132451788744144
705	-0.13305904093872
706	-0.133128241939692
707	-0.13253225502434401
708	-0.132158355042348
709	-0.132433013278764
710	-0.133119122427936
711	-0.133209781103628
712	-0.132612184862676
713	-0.132040874273256
714	-0.132402436092288
715	-0.132993058588956
716	-0.132818178539988
717	-0.132194296647504
718	-0.131996349598212
719	-0.13244588788359601
720	-0.133171693731
721	-0.133182959010228
722	-0.132400826766684
723	-0.132079498087752
724	-0.132261888322872
725	-0.132724837654956
726	-0.132885770215356
727	-0.132303730788576
728	-0.131855265386928
729	-0.132303194346708
730	-0.133012906938072
731	-0.13291420163436
732	-0.132158355042348
733	-0.131669120058732
734	-0.132062331947976
735	-0.132784919144172
736	-0.132850901493936
737	-0.1322865646488
738	-0.131868676433628
739	-0.132259206113532
740	-0.132968382263028
741	-0.133114294451124
742	-0.132601456025316
743	-0.132187859345088
744	-0.1325279634894
745	-0.133166865754188
746	-0.13303221884532
747	-0.132327334230768
748	-0.131934122341524
749	-0.132411555604044
750	-0.13313360635837201
751	-0.133347646663704
752	-0.132703379980236
753	-0.132243112857492
754	-0.132567660187632
755	-0.13325752442988
756	-0.13305635872938001
757	-0.132166938112236
758	-0.131804839851336
759	-0.132400290324816
760	-0.133062796031796
761	-0.132860021005692
762	-0.132224337392112
763	-0.131871358642968
764	-0.132306949439784
765	-0.133037046822132
766	-0.13312073175354
767	-0.13253601011742
768	-0.132096664227528
769	-0.132472709976996
770	-0.133163110661112
771	-0.133255378662408
772	-0.132768289446264
773	-0.132423893767008
774	-0.1327425402366
775	-0.133412019687864
776	-0.133468882525872
777	-0.132748977539016
778	-0.132315532509672
779	-0.132650808677172
780	-0.133340136477552
781	-0.133324043221512
782	-0.132522062628852
783	-0.131976501249096
784	-0.132394925906136
785	-0.13311000291618
786	-0.13315935556803601
787	-0.132514016000832
788	-0.132030681877764
789	-0.132385269952512
790	-0.133022026449828
791	-0.133199588708136
792	-0.132811741237572
793	-0.13240458185976
794	-0.132671729910024
795	-0.133328334756456
796	-0.133188323428908
797	-0.132510260907756
798	-0.13215781860048
799	-0.13260306535092
800	-0.133532182666296
801	-0.13353110978256
802	-0.132764534353188
803	-0.132211999229148
804	-0.132334307975052
805	-0.132924394029852
806	-0.133085326590252
807	-0.13253601011742
808	-0.132216290764092
809	-0.132579461908728
810	-0.133240894731972
811	-0.133248941359992
812	-0.132598773815976
813	-0.132276908695176
814	-0.13272644698056
815	-0.133334772058872
816	-0.133334772058872
817	-0.13274736821341201
818	-0.13238312418504
819	-0.13274522244594
820	-0.133231775220216
821	-0.133172230172868
822	-0.13245822604656
823	-0.132213072112884
824	-0.132640079839812
825	-0.133166865754188
826	-0.133368031454688
827	-0.132792429330324
828	-0.132354692766036
829	-0.132814423446912
830	-0.133430795153244
831	-0.133339063593816
832	-0.132698552003424
833	-0.132341281719336
834	-0.132689968933536
835	-0.133306340639868
836	-0.13339699931556
837	-0.132803158167684
838	-0.132313923184068
839	-0.132610575537072
840	-0.133386806920068
841	-0.133667366017032
842	-0.133054212961908
843	-0.132348791905488
844	-0.132534400791816
845	-0.133177594591548
846	-0.133348183105572
847	-0.132775799632416
848	-0.13227476292770401
849	-0.132582144118068
850	-0.133324043221512
851	-0.133703844064056
852	-0.13314272587012801
853	-0.132411555604044
854	-0.132730738515504
855	-0.133522526712672
856	-0.133656100737804
857	-0.132969991588632
858	-0.132480220163148
859	-0.132814423446912
860	-0.133340136477552
861	-0.133370713664028
862	-0.132809059028232
863	-0.132432476836896
864	-0.132817105656252
865	-0.13335408396612
866	-0.133221582824724
867	-0.132460371814032
868	-0.131941096085808
869	-0.132330016440108
870	-0.132969991588632
871	-0.132826225168008
872	-0.132222728066508
873	-0.13193090369031601
874	-0.132504896489076
875	-0.133157746242432
876	-0.133191005638248
877	-0.13260038314158
878	-0.1323133867422
879	-0.132730202073636
880	-0.133057431613116
881	-0.132985011960936
882	-0.132402436092288
883	-0.132074133669072
884	-0.132502214279736
885	-0.133127705497824
886	-0.13327629989526
887	-0.132792965772192
888	-0.132091836250716
889	-0.132394925906136
890	-0.133212999754836
891	-0.133414701897204
892	-0.132802621725816
893	-0.132379369091964
894	-0.132811204795704
895	-0.133406118827316
896	-0.133414165455336
897	-0.132885770215356
898	-0.132425503092612
899	-0.132762925027584
900	-0.133400754408636
901	-0.133550421689808
902	-0.132858948121956
903	-0.132281736671988
904	-0.132601992467184
905	-0.13329775756998
906	-0.133410946804128
907	-0.132789210679116
908	-0.132454470953484
909	-0.132987157728408
910	-0.133578853108812
911	-0.133564369178376
912	-0.132893816843376
913	-0.132473246418864
914	-0.132846073517124
915	-0.133478538479496
916	-0.133474246944552
917	-0.132977501774784
918	-0.132645444258492
919	-0.132997886565768
920	-0.133601920109136
921	-0.133592264155512
922	-0.132835881121632
923	-0.132349328347356
924	-0.13274790465528
925	-0.1334935588518
926	-0.133546130154864
927	-0.132923321146116
928	-0.132511333791492
929	-0.132872359168656
930	-0.133656637179672
931	-0.133792893414144
932	-0.133103029171896
933	-0.132571415280708
934	-0.132908300773812
935	-0.133572952248264
936	-0.133771972181292
937	-0.133248941359992
938	-0.132772580981208
939	-0.13313414280024
940	-0.133820251949412
941	-0.13390769197389601
942	-0.13321460908044
943	-0.132684068072988
944	-0.133108930032444
945	-0.133956508183884
946	-0.13417484002416
947	-0.133427576502036
948	-0.132818714981856
949	-0.133156136916828
950	-0.133821861275016
951	-0.134044484650236
952	-0.133638934598028
953	-0.133100346962556
954	-0.133184031893964
955	-0.133762316227668
956	-0.13397367432366
957	-0.133397535757428
958	-0.132873432052392
959	-0.133129314823428
960	-0.133886234299176
961	-0.134171621372952
962	-0.13345600792104
963	-0.132950143239516
964	-0.133231775220216
965	-0.133871213926872
966	-0.133947388672128
967	-0.133363739919744
968	-0.133005933193788
969	-0.133490340200592
970	-0.134183423094048
971	-0.134216146047996
972	-0.133609430295288
973	-0.133243576941312
974	-0.13365717362154
975	-0.13429553944446
976	-0.134310023374896
977	-0.133716718668888
978	-0.133196370056928
979	-0.133618013365176
980	-0.13445754488859601
981	-0.134535865401324
982	-0.133798794274692
983	-0.133166865754188
984	-0.133385734036332
985	-0.13409973816264
986	-0.134374396399056
987	-0.133760170460196
988	-0.133145944521336
989	-0.133594946364852
990	-0.13437600572466
991	-0.134403900701796
992	-0.133850829135888
993	-0.133469955409608
994	-0.133817569740072
995	-0.134459690656068
996	-0.134443597400028
997	-0.133808450228316
998	-0.133391098455012
999	-0.133897499578404
1000	-0.134548740006156
1001	-0.134461299981672
1002	-0.13374407720415601
1003	-0.13326235240669201
1004	-0.133663610923956
1005	-0.134356157375544
1006	-0.134403364259928
1007	-0.133896963136536
1008	-0.133560077643432
1009	-0.13378591966986
1010	-0.134476856795844
1011	-0.134635643588772
1012	-0.133911447066972
1013	-0.13348658510751601
1014	-0.134054677045728
1015	-0.134945170546608
1016	-0.134848611010368
1017	-0.133933977625428
1018	-0.133301512663056
1019	-0.133805768018976
1020	-0.134535865401324
1021	-0.134494559377488
1022	-0.133915202160048
1023	-0.133520917387068
1024	-0.133765534878876
1025	-0.134395854073776
1026	-0.134540156936268
1027	-0.133909837741368
1028	-0.133503751247292
1029	-0.13394685223026
1030	-0.134630279170092
1031	-0.134681241147552
1032	-0.134153918791308
1033	-0.133746222971628
1034	-0.134039120231556
1035	-0.134794966823568
1036	-0.134940342569796
1037	-0.134325580189068
1038	-0.133900718229612
1039	-0.134331481049616
1040	-0.13489367212728
1041	-0.134691433543044
1042	-0.13401068881255201
1043	-0.133612112504628
1044	-0.133851365577756
1045	-0.134403364259928
1046	-0.134502606005508
1047	-0.133913592834444
1048	-0.133519308061464
1049	-0.134068624534296
1050	-0.134815351614552
1051	-0.13485343898718
1052	-0.134233312187772
1053	-0.133771972181292
1054	-0.134143189953948
1055	-0.134906546732112
1056	-0.135056750455152
1057	-0.134381906585208
1058	-0.133812205321392
1059	-0.134116367860548
1060	-0.13478906596302
1061	-0.134874360220032
1062	-0.134178595117236
1063	-0.133837954531056
1064	-0.134299294537536
1065	-0.134902255197168
1066	-0.13498164859363201
1067	-0.134413020213552
1068	-0.13401068881255201
1069	-0.134282664839628
1070	-0.134809987195872
1071	-0.134937660360456
1072	-0.134286956374572
1073	-0.133593337039248
1074	-0.133892671601592
1075	-0.134702698822272
1076	-0.134718255636444
1077	-0.134096519511432
1078	-0.13370920848273601
1079	-0.133999423533324
1080	-0.134693579310516
1081	-0.134807304986532
1082	-0.134198443466352
1083	-0.133705989831528
1084	-0.13397903874234
1085	-0.134678558938212
1086	-0.134806232102796
1087	-0.134219901141072
1088	-0.133801476484032
1089	-0.13406486944122
1090	-0.134822325358836
1091	-0.135114149735028
1092	-0.134506897540452
1093	-0.133904473322688
1094	-0.134306804723688
1095	-0.135024563943072
1096	-0.134996132524068
1097	-0.13420970874558
1098	-0.133861557973248
1099	-0.134320752212256
1100	-0.13467104875206
1101	-0.134659247030964
1102	-0.13414801793076
1103	-0.133699552529112
1104	-0.133970455672452
1105	-0.134561614610988
1106	-0.13468445979876
1107	-0.134160892535592
1108	-0.133710281366472
1109	-0.134093837302092
1110	-0.134960190918912
1111	-0.135206417736324
1112	-0.134550885773628
1113	-0.134046630417708
1114	-0.134678022496344
1115	-0.135211782155004
1116	-0.134899572987828
1117	-0.134281591955892
1118	-0.133892671601592
1119	-0.134373859957188
1120	-0.13524235934148
1121	-0.135171549014904
1122	-0.134203271443164
1123	-0.133804158693372
1124	-0.134205417210636
1125	-0.134959654477044
1126	-0.135060505548228
1127	-0.1344993873543
1128	-0.134130315349116
1129	-0.13456376037846
1130	-0.135158674410072
1131	-0.135176376991716
1132	-0.134548203564288
1133	-0.134092764418356
1134	-0.134481684772656
1135	-0.1352101728294
1136	-0.135280446714108
1137	-0.134579317192632
1138	-0.134028391394196
1139	-0.134433941446404
1140	-0.135075525920532
1141	-0.135094301385912
1142	-0.134542839145608
1143	-0.134101883930112
1144	-0.13445647200486
1145	-0.135142581154032
1146	-0.135233776271592
1147	-0.134575025657688
1148	-0.133973137881792
1149	-0.134403900701796
1150	-0.135275618737296
1151	-0.135287420458392
1152	-0.134402291376192
1153	-0.133900718229612
1154	-0.134188787512728
1155	-0.134791211730492
1156	-0.134972529081876
1157	-0.134658710589096
1158	-0.134397999841248
1159	-0.134736494659956
1160	-0.13508410899042
1161	-0.135037438547904
1162	-0.134463445749144
1163	-0.134108857674396
1164	-0.134342746328844
1165	-0.13481803382389201
1166	-0.134757415892808
1167	-0.134103493255716
1168	-0.133696870319772
1169	-0.134028927836064
1170	-0.134723083613256
1171	-0.134805695660928
1172	-0.13436259467796
1173	-0.134109930558132
1174	-0.134416775306628
1175	-0.134862558498936
1176	-0.134794966823568
1177	-0.134272472444136
1178	-0.133769289971952
1179	-0.134342209886976
1180	-0.135217146573684
1181	-0.13491781201134
1182	-0.134278909746552
1183	-0.133939342044108
1184	-0.134249405443812
1185	-0.134916739127604
1186	-0.134906546732112
1187	-0.134231702862168
1188	-0.134011761696288
1189	-0.134592191797464
1190	-0.135181204968528
1191	-0.135062114873832
1192	-0.134398536283116
1193	-0.133983330277284
1194	-0.134316460677312
1195	-0.134978966384292
1196	-0.135083036106684
1197	-0.134354011608072
1198	-0.13387175036874
1199	-0.134231702862168
1200	-0.13484539235916
1201	-0.134845928801028
1202	-0.134279982630288
1203	-0.134019808324308
1204	-0.134516017052208
1205	-0.135189251596548
1206	-0.135197298224568
1207	-0.13460131130922
1208	-0.13417430358229201
1209	-0.134544448471212
1210	-0.135253624620708
1211	-0.13514526336337201
1212	-0.134415165981024
1213	-0.134074525394844
1214	-0.134352402282468
1215	-0.134785310869944
1216	-0.13480515921906
1217	-0.134316460677312
1218	-0.133998887091456
1219	-0.134378151492132
1220	-0.134906546732112
1221	-0.134938733244192
1222	-0.134311096258632
1223	-0.133783773902388
1224	-0.134151236581968
1225	-0.134748296381052
1226	-0.134548740006156
1227	-0.134016053231232
1228	-0.1337483687391
1229	-0.1341507001401
1230	-0.134887234824864
1231	-0.135063724199436
1232	-0.1343518658406
1233	-0.13386638595006
1234	-0.134194151931408
1235	-0.134771899823244
1236	-0.134919957778812
1237	-0.134624914751412
1238	-0.134068088092428
1239	-0.134126023814172
1240	-0.134835199963668
1241	-0.134924785755624
1242	-0.13442267616717601
1243	-0.133954362416412
1244	-0.134381906585208
1245	-0.135138289619088
1246	-0.13522626608544
1247	-0.134683386915024
1248	-0.134257452071832
1249	-0.134579317192632
1250	-0.135224120317968
1251	-0.135221438108628
1252	-0.134587363820652
1253	-0.134227947769092
1254	-0.134655491937888
1255	-0.135285811132788
1256	-0.135326580714756
1257	-0.134733276008748
1258	-0.134229557094696
1259	-0.13448061188892
1260	-0.135208563503796
1261	-0.135221974550496
1262	-0.134495095819356
1263	-0.13402463630112
1264	-0.134423749050912
1265	-0.135011152896372
1266	-0.135052995362076
1267	-0.134547130680552
1268	-0.134330944607748
1269	-0.134819106707628
1270	-0.135490195484496
1271	-0.135423676692864
1272	-0.134793893939832
1273	-0.134432868562668
1274	-0.134720937845784
1275	-0.135323898505416
1276	-0.135341064645192
1277	-0.134758488776544
1278	-0.1343384547939
1279	-0.134643690216792
1280	-0.135276691621032
1281	-0.135348574831344
1282	-0.13466568433338
1283	-0.134167329838008
1284	-0.134438232981348
1285	-0.134921567104416
1286	-0.13481052363774
1287	-0.134212927396788
1288	-0.133858875763908
1289	-0.134192006163936
1290	-0.134746687055448
1291	-0.134732203125012
1292	-0.134312705584236
1293	-0.134372250631584
1294	-0.134984330802972
1295	-0.135422603809128
1296	-0.13524826020202801
1297	-0.13465763770536
1298	-0.134154455233176
1299	-0.134426431260252
1300	-0.13498164859363201
1301	-0.135047630943396
1302	-0.134450571144312
1303	-0.134116367860548
1304	-0.134585754495048
1305	-0.135315315435528
1306	-0.135291175551468
1307	-0.134678558938212
1308	-0.134400682050588
1309	-0.134866313592012
1310	-0.135436551297696
1311	-0.135511116717348
1312	-0.135015444431316
1313	-0.134638325798112
1314	-0.134926395081228
1315	-0.135446743693188
1316	-0.135464446274832
1317	-0.134868995801352
1318	-0.134565906145932
1319	-0.135048703827132
1320	-0.13569833492928
1321	-0.135632889021384
1322	-0.134980575709896
1323	-0.134563223936592
1324	-0.135008470687032
1325	-0.135697262045544
1326	-0.135783629186292
1327	-0.135157065084468
1328	-0.134557859517912
1329	-0.134771363381376
1330	-0.135278300946636
1331	-0.135211245713136
1332	-0.134614185914052
1333	-0.134325580189068
1334	-0.134896890778488
1335	-0.135661856882256
1336	-0.135642544975008
1337	-0.135085181874156
1338	-0.134642080891188
1339	-0.134931759499908
1340	-0.13545961829802
1341	-0.13538988085518
1342	-0.134795503265436
1343	-0.134471492377164
1344	-0.134868459359484
1345	-0.135578171950848
1346	-0.135545985438768
1347	-0.134934441709248
1348	-0.134576634983292
1349	-0.1348614856152
1350	-0.135519699787236
1351	-0.135815815698372
1352	-0.135366813854856
1353	-0.134702698822272
1354	-0.134867386475748
1355	-0.135555641392392
1356	-0.135609285579192
1357	-0.134906010290244
1358	-0.134548203564288
1359	-0.134938733244192
1360	-0.135449962344396
1361	-0.1353979274832
1362	-0.134764389637092
1363	-0.134521381470888
1364	-0.134996132524068
1365	-0.135636107672592
1366	-0.135584609253264
1367	-0.135015980873184
1368	-0.134769754055772
1369	-0.135075525920532
1370	-0.135554568508656
1371	-0.135653810254236
1372	-0.135198907550172
1373	-0.1349687739888
1374	-0.13520212620138
1375	-0.135656492463576
1376	-0.135554568508656
1377	-0.134915666243868
1378	-0.134682314031288
1379	-0.135160283735676
1380	-0.1356929705106
1381	-0.135607676253588
1382	-0.134956435825836
1383	-0.134606139286032
1384	-0.134968237546932
1385	-0.135567979555356
1386	-0.135598020299964
1387	-0.135102348013932
1388	-0.134755806567204
1389	-0.135064797083172
1390	-0.135785238511896
1391	-0.135905401490328
1392	-0.135216073689948
1393	-0.134761707427752
1394	-0.135121123479312
1395	-0.135635034788856
1396	-0.1355588600436
1397	-0.134995059640332
1398	-0.13469518863612
1399	-0.135057823338888
1400	-0.135646836509952
1401	-0.135726229906416
1402	-0.13522894829478
1403	-0.134813742288948
1404	-0.135100738688328
1405	-0.135653273812368
1406	-0.135617332207212
1407	-0.134957508709572
1408	-0.134697334403592
1409	-0.135257916155652
1410	-0.135845320001112
1411	-0.135712282417848
1412	-0.1351699396893
1413	-0.13493122305804
1414	-0.13522626608544
1415	-0.135769681697724
1416	-0.135699407813016
1417	-0.135040657199112
1418	-0.13473810398556
1419	-0.135182277852264
1420	-0.13578148341882001
1421	-0.135747151139268
1422	-0.135158674410072
1423	-0.13482393468444
1424	-0.135193543131492
1425	-0.13575573420915601
1426	-0.135769681697724
1427	-0.135289029783996
1428	-0.134831444870592
1429	-0.135152237107656
1430	-0.135820107233316
1431	-0.135779337651348
1432	-0.135256843271916
1433	-0.13515116422392
1434	-0.135578708392716
1435	-0.135975675375036
1436	-0.135723011255208
1437	-0.135039584315376
1438	-0.134844319475424
1439	-0.135228411852912
1440	-0.135707454441036
1441	-0.1356259152771
1442	-0.135162965945016
1443	-0.13482393468444
1444	-0.135087327641628
1445	-0.135673122161484
1446	-0.135842101349904
1447	-0.135245577992688
1448	-0.134905473848376
1449	-0.135337309552116
1450	-0.135844783559244
1451	-0.135894672652968
1452	-0.135521845554708
1453	-0.135335700226512
1454	-0.1356929705106
1455	-0.135842101349904
1456	-0.13585873104781201
1457	-0.13528312892344801
1458	-0.134863631382672
1459	-0.13534160108706
1460	-0.135733740092568
1461	-0.1355186269035
1462	-0.13501973596626
1463	-0.134892599243544
1464	-0.135367350296724
1465	-0.136018054282608
1466	-0.136001961026568
1467	-0.135408119878692
1468	-0.135068552176248
1469	-0.135493950577572
1470	-0.13614089947038
1471	-0.136015372073268
1472	-0.135302440830696
1473	-0.135015444431316
1474	-0.135533110833936
1475	-0.136272864169908
1476	-0.136238531890356
1477	-0.135422603809128
1478	-0.135157601526336
1479	-0.13560713981172
1480	-0.136175231749932
1481	-0.1360953019116
1482	-0.135463909832964
1483	-0.135058359780756
1484	-0.13558031771832
1485	-0.136284129449136
1486	-0.136053459445896
1487	-0.135219828783024
1488	-0.13482929910312
1489	-0.135189251596548
1490	-0.135835664047488
1491	-0.135949926165372
1492	-0.1353845164365
1493	-0.135066942850644
1494	-0.135528282857124
1495	-0.136139290144776
1496	-0.136104421423356
1497	-0.135500387879988
1498	-0.135040120757244
1499	-0.135387735087708
1500	-0.135919885420764
1501	-0.135941879537352
1502	-0.135434941972092
1503	-0.135157065084468
1504	-0.135449425902528
1505	-0.135897891304176
1506	-0.135986940654264
1507	-0.135375396924744
1508	-0.13496340957012
1509	-0.13543279620462
1510	-0.1359343693512
1511	-0.135985867770528
1512	-0.135563688020412
1513	-0.135195152457096
1514	-0.135521845554708
1515	-0.136204199610804
1516	-0.136255698030132
1517	-0.135704772231696
1518	-0.135242895783348
1519	-0.135490731926364
1520	-0.136100129888412
1521	-0.136078135771824
1522	-0.135448353018792
1523	-0.13514526336337201
1524	-0.135629133928308
1525	-0.136286811658476
1526	-0.136188642796632
1527	-0.13543547841396
1528	-0.135206954178192
1529	-0.135736422301908
1530	-0.136522309638528
1531	-0.136548058848192
1532	-0.135894672652968
1533	-0.135605530486116
1534	-0.13602556446876
1535	-0.136632816663336
1536	-0.136515872336112
1537	-0.135771827465196
1538	-0.135414557181108
1539	-0.135879115838796
1540	-0.136450962870084
1541	-0.136387126287792
1542	-0.135714964627188
1543	-0.135242895783348
1544	-0.135691897626864
1545	-0.136237995448488
1546	-0.136176304633668
1547	-0.135782019860688
1548	-0.135600166067436
1549	-0.1358270809776
1550	-0.136237995448488
1551	-0.136321680379896
1552	-0.135798649558596
1553	-0.135426895344072
1554	-0.135898427746044
1555	-0.136549131731928
1556	-0.136459545939972
1557	-0.135698871371148
1558	-0.135364668087384
1559	-0.135861413257152
1560	-0.136581318244008
1561	-0.136654274338056
1562	-0.135850684419792
1563	-0.135439769948904
1564	-0.135905937932196
1565	-0.136391417822736
1566	-0.136211709796956
1567	-0.135537938810748
1568	-0.13524504155082
1569	-0.1356259152771
1570	-0.1363367007522
1571	-0.13650836214996
1572	-0.135817425023976
1573	-0.135424213134732
1574	-0.135873214978248
1575	-0.136490123126448
1576	-0.136315779519348
1577	-0.135766999488384
1578	-0.135593192323152
1579	-0.136003033910304
1580	-0.136588291988292
1581	-0.136394636473944
1582	-0.135610358462928
1583	-0.135296539970148
1584	-0.135812060605296
1585	-0.13643433317217601
1586	-0.136294321844628
1587	-0.135629133928308
1588	-0.135337845993984
1589	-0.135858194605944
1590	-0.136440234032724
1591	-0.136324362589236
1592	-0.135856048838472
1593	-0.135647909393688
1594	-0.136018590724476
1595	-0.136482612940296
1596	-0.136396782241416
1597	-0.135852830187264
1598	-0.135694043394336
1599	-0.136298613379572
1600	-0.136829154387024
1601	-0.136510507917432
1602	-0.135767535930252
1603	-0.135486976833288
1604	-0.135943488862956
1605	-0.136467592567992
1606	-0.136434869614044
1607	-0.135881261606268
1608	-0.135602311834908
1609	-0.135938124444276
1610	-0.136424677218552
1611	-0.136302368472648
1612	-0.13557495329964
1613	-0.135337309552116
1614	-0.135953681258448
1615	-0.136579172476536
1616	-0.136578636034668
1617	-0.136163430028836
1618	-0.136138753702908
1619	-0.136617259849164
1620	-0.136926786807
1621	-0.136560933453024
1622	-0.135892526885496
1623	-0.135641472091272
1624	-0.136020736491948
1625	-0.136432723846572
1626	-0.136358694868788
1627	-0.135834054721884
1628	-0.135500924321856
1629	-0.135841564908036
1630	-0.136386053404056
1631	-0.136385516962188
1632	-0.135783629186292
1633	-0.135370568947932
1634	-0.135651664486764
1635	-0.136388735613396
1636	-0.136514263010508
1637	-0.135863559024624
1638	-0.135382907110896
1639	-0.135746078255532
1640	-0.136290030309684
1641	-0.136276082821116
1642	-0.136014299189532
1643	-0.13588340737374
1644	-0.1361087129583
1645	-0.136524991847868
1646	-0.136442379800196
1647	-0.135923104071972
1648	-0.135716573952792
1649	-0.136356549101316
1650	-0.137002961552256
1651	-0.136677877780248
1652	-0.135971383840092
1653	-0.135703162906092
1654	-0.13620527249454
1655	-0.136973457249516
1656	-0.13688118924822001
1657	-0.136031465329308
1658	-0.13566936706840801
1659	-0.13611407737698
1660	-0.136809842479776
1661	-0.136724011780896
1662	-0.136077599329956
1663	-0.13581098772156
1664	-0.136357621985052
1665	-0.137001352226652
1666	-0.136939124969964
1667	-0.136297540495836
1668	-0.135924176955708
1669	-0.136174158866196
1670	-0.13678731192132
1671	-0.136740641478804
1672	-0.13607920865556
1673	-0.135959045677128
1674	-0.136491732452052
1675	-0.136981503877536
1676	-0.136963264854024
1677	-0.136309342216932
1678	-0.135772900348932
1679	-0.136102275655884
1680	-0.13667465912904
1681	-0.13669182526881601
1682	-0.136051850120292
1683	-0.13572086548773601
1684	-0.136207418262012
1685	-0.136750297432428
1686	-0.13666393029168
1687	-0.136015372073268
1688	-0.135712818859716
1689	-0.136225657285524
1690	-0.136785702595716
1691	-0.13670416343178
1692	-0.13613821726104
1693	-0.135780946976952
1694	-0.136120514679396
1695	-0.136766390688468
1696	-0.136703626989912
1697	-0.136115150260716
1698	-0.135913984560216
1699	-0.136293248960892
1700	-0.136877434155144
1701	-0.136857585806028
1702	-0.13612748842368
1703	-0.135717646836528
1704	-0.136060969632048
1705	-0.136667685384756
1706	-0.136783020386376
1707	-0.136237995448488
1708	-0.135920421862632
1709	-0.136373178799224
1710	-0.137078063413776
1711	-0.137123660972556
1712	-0.136219756424976
1713	-0.135734276534436
1714	-0.136297540495836
1715	-0.136882262131956
1716	-0.136921958830188
1717	-0.136454181521292
1718	-0.136073307795012
1719	-0.136403219543832
1720	-0.137010471738408
1721	-0.136979358110064
1722	-0.136404828869436
1723	-0.135940270211748
1724	-0.136102812097752
1725	-0.136722402455292
1726	-0.136842565433724
1727	-0.136314170193744
1728	-0.136123733330604
1729	-0.136568443639176
1730	-0.136976139458856
1731	-0.13686777820152
1732	-0.136329190566048
1733	-0.136029856003704
1734	-0.136491732452052
1735	-0.137159602577712
1736	-0.136964874179628
1737	-0.136062578957652
1738	-0.135691361184996
1739	-0.136198298750256
1740	-0.137037830273676
1741	-0.136935369876888
1742	-0.135996596607888
1743	-0.13566078399852
1744	-0.136152701191476
1745	-0.13695629110974
1746	-0.136938052086228
1747	-0.136078672213692
1748	-0.135652200928632
1749	-0.136220829308712
1750	-0.136917130853376
1751	-0.137041585366752
1752	-0.136566834313572
1753	-0.136174158866196
1754	-0.136562542778628
1755	-0.137222902718136
1756	-0.137025492110712
1757	-0.136235849681016
1758	-0.135854975954736
1759	-0.136335627868464
1760	-0.136990086947424
1761	-0.136782483944508
1762	-0.136036829747988
1763	-0.135807769070352
1764	-0.136330263449784
1765	-0.136860268015368
1766	-0.136758880502316
1767	-0.136173622424328
1768	-0.135860340373416
1769	-0.136367277938676
1770	-0.136946098714248
1771	-0.136785166153848
1772	-0.136115686702584
1773	-0.135952071932844
1774	-0.136474029870408
1775	-0.137049095552904
1776	-0.136986868296216
1777	-0.136348502473296
1778	-0.136034683980516
1779	-0.136411266171852
1780	-0.137161211903316
1781	-0.137112395693328
1782	-0.136321143938028
1783	-0.135932760025596
1784	-0.136360304194392
1785	-0.137006716645332
1786	-0.136870996852728
1787	-0.136243359867168
1788	-0.136153774075212
1789	-0.136654274338056
1790	-0.137015836157088
1791	-0.136808233154172
1792	-0.136290566751552
1793	-0.136026637352496
1794	-0.136413411939324
1795	-0.1369133757603
1796	-0.136867241759652
1797	-0.136371033031752
1798	-0.136070625585672
1799	-0.136426286544156
1800	-0.137098984646628
1801	-0.137059824390264
1802	-0.136336164310332
1803	-0.135838346256828
1804	-0.1363635228456
1805	-0.136992232714896
1806	-0.136854903596688
1807	-0.136255698030132
1808	-0.136045949259744
1809	-0.136394100032076
1810	-0.136982576761272
1811	-0.13707055322762401
1812	-0.136670904035964
1813	-0.136418239916136
1814	-0.136594729290708
1815	-0.136976139458856
1816	-0.136926250365132
1817	-0.136499779080072
1818	-0.13625408870452801
1819	-0.136633889547072
1820	-0.137081818506852
1821	-0.13698311320314
1822	-0.136448817102612
1823	-0.136060969632048
1824	-0.136291639635288
1825	-0.136765317804732
1826	-0.136917667295244
1827	-0.136541621545776
1828	-0.136198298750256
1829	-0.136694507478156
1830	-0.137158529693976
1831	-0.137111322809592
1832	-0.136705236315516
1833	-0.136421995009212
1834	-0.136788921246924
1835	-0.137236850206704
1836	-0.136960046202816
1837	-0.13637156947362
1838	-0.136206345378276
1839	-0.136667148942888
1840	-0.137126879623764
1841	-0.13698847762182
1842	-0.136317388844952
1843	-0.136078135771824
1844	-0.136507289266224
1845	-0.136953072458532
1846	-0.13685436715482
1847	-0.136287348100344
1848	-0.135997133049756
1849	-0.13642789586976
1850	-0.137036220948072
1851	-0.136981503877536
1852	-0.136438088265252
1853	-0.136132316400492
1854	-0.136549668173796
1855	-0.137266354509444
1856	-0.137352721650192
1857	-0.1366183327329
1858	-0.136251942937056
1859	-0.136585073337084
1860	-0.136914448644036
1861	-0.136861340899104
1862	-0.136323826147368
1863	-0.13596387365394
1864	-0.136420922125476
1865	-0.136879043480748
1866	-0.136735277060124
1867	-0.136217074215636
1868	-0.136150018982136
1869	-0.136790530572528
1870	-0.137402074302048
1871	-0.137244896834724
1872	-0.136616723407296
1873	-0.136136607935436
1874	-0.136364595729336
1875	-0.137030856529392
1876	-0.137088255809268
1877	-0.136494414661392
1878	-0.136050777236556
1879	-0.136522309638528
1880	-0.137361841161948
1881	-0.13745518204698
1882	-0.136660711640472
1883	-0.13604809502721601
1884	-0.136327581240444
1885	-0.13694824448172
1886	-0.136918203737112
1887	-0.136450426428216
1888	-0.136231558146072
1889	-0.136675732012776
1890	-0.137241141741648
1891	-0.137237386648572
1892	-0.13661296831422
1893	-0.136191325005972
1894	-0.136624233593448
1895	-0.13723792309044
1896	-0.137196080624736
1897	-0.136530356266548
1898	-0.136163430028836
1899	-0.136574344499724
1900	-0.137051777762244
1901	-0.136976139458856
1902	-0.136351721124504
1903	-0.136053459445896
1904	-0.136460618823708
1905	-0.13709844820476
1906	-0.137182669578036
1907	-0.136896746062392
1908	-0.136663393849812
1909	-0.136680559989588
1910	-0.137134926251784
1911	-0.137094693111684
1912	-0.136614041197956
1913	-0.136390881380868
1914	-0.136882262131956
1915	-0.137468056651812
1916	-0.137376325092384
1917	-0.136755661851108
1918	-0.136428432311628
1919	-0.136759953386052
1920	-0.137303368998336
1921	-0.137188033996716
1922	-0.13651909098732
1923	-0.136204199610804
1924	-0.136720793129688
1925	-0.137478785489172
1926	-0.137521164396744
1927	-0.136680559989588
1928	-0.136372105915488
1929	-0.137045340459828
1930	-0.137686924933956
1931	-0.137421386209296
1932	-0.136801795851756
1933	-0.136565224987968
1934	-0.136948780923588
1935	-0.137537794094652
1936	-0.137566225513656
1937	-0.136944489388644
1938	-0.136462228149312
1939	-0.136927859690736
1940	-0.137681560515276
1941	-0.137466983768076
1942	-0.136557178359948
1943	-0.136249260727716
1944	-0.136604385244332
1945	-0.137247042602196
1946	-0.137343602138436
1947	-0.136708454966724
1948	-0.136368350822412
1949	-0.136790530572528
1950	-0.137348430115248
1951	-0.137234704439232
1952	-0.136793749223736
1953	-0.13655932412742
1954	-0.137101666855968
1955	-0.137869315169076
1956	-0.1377448606557
1957	-0.136746005897484
1958	-0.136451499311952
1959	-0.13687850703888
1960	-0.137367742022496
1961	-0.137351112324588
1962	-0.136753516083636
1963	-0.13651909098732
1964	-0.136964874179628
1965	-0.137496488070816
1966	-0.137438552349072
1967	-0.13687046041086
1968	-0.136497096870732
1969	-0.136930541900076
1970	-0.137442307442148
1971	-0.13734789367338
1972	-0.136731521967048
1973	-0.136450426428216
1974	-0.136918203737112
1975	-0.137406365836992
1976	-0.137379007301724
1977	-0.136938052086228
1978	-0.136667148942888
1979	-0.137002425110388
1980	-0.137527065257292
1981	-0.13737954374359201
1982	-0.136680559989588
1983	-0.136463301033048
1984	-0.136904792690412
1985	-0.137330191091736
1986	-0.137267963835048
1987	-0.1367658542466
1988	-0.136455254405028
1989	-0.136868851085256
1990	-0.137531356792236
1991	-0.137548522932012
1992	-0.136933224109416
1993	-0.13661296831422
1994	-0.137002425110388
1995	-0.137661175724292
1996	-0.137587683188376
1997	-0.136903183364808
1998	-0.136571662290384
1999	-0.137148873740352
2000	-0.137802259935576
2001	-0.137461619349396
2002	-0.136705236315516
2003	-0.136287348100344
2004	-0.136653737896188
2005	-0.137209491671436
2006	-0.137298004579656
2007	-0.136792139898132
2008	-0.136407511078776
2009	-0.136737422827596
2010	-0.137316243603168
2011	-0.137298004579656
2012	-0.13678999413066
2013	-0.136455254405028
2014	-0.136772291549016
2015	-0.137373642883044
2016	-0.137360768278212
2017	-0.136869923968992
2018	-0.136589364872028
2019	-0.137072698995096
2020	-0.137615041723644
2021	-0.137512581326856
2022	-0.136956827551608
2023	-0.13659794794191601
2024	-0.1369670199471
2025	-0.137589828955848
2026	-0.137630598537816
2027	-0.137065725250812
2028	-0.136653737896188
2029	-0.137053923529716
2030	-0.137579636560356
2031	-0.137423531976768
2032	-0.13703568450620401
2033	-0.136884407899428
2034	-0.137142436437936
2035	-0.137729303841528
2036	-0.137595729816396
2037	-0.136884407899428
2038	-0.136698262571232
2039	-0.137132780484312
2040	-0.137604312886284
2041	-0.137271182486256
2042	-0.13653733001083201
2043	-0.136314706635612
2044	-0.136770682223412
2045	-0.137389736139084
2046	-0.137538866978388
2047	-0.136962191970288
2048	-0.136560397011156
2049	-0.13689191808558
2050	-0.13748736855906
2051	-0.137539939862124
2052	-0.137039976041148
2053	-0.136811988247248
2054	-0.137272255369992
2055	-0.137829082028976
2056	-0.137597875583868
2057	-0.136895136736788
2058	-0.136766390688468
2059	-0.137375252208648
2060	-0.137943880588728
2061	-0.13775827170240001
2062	-0.137042658250488
2063	-0.136577563150932
2064	-0.137029247203788
2065	-0.137521700838612
2066	-0.137367742022496
2067	-0.136724011780896
2068	-0.136321680379896
2069	-0.136796431433076
2070	-0.13758124588596
2071	-0.137690680027032
2072	-0.137072162553228
2073	-0.1366853879664
2074	-0.137175159391884
2075	-0.137845175285016
2076	-0.13772340298098001
2077	-0.13719232553166
2078	-0.136894063853052
2079	-0.137218611183192
2080	-0.137820498959088
2081	-0.137893455053136
2082	-0.137318925812508
2083	-0.136843101875592
2084	-0.137054459971584
2085	-0.137424604860504
2086	-0.137441234558412
2087	-0.137102739739704
2088	-0.136954681784136
2089	-0.13721110099704
2090	-0.137527065257292
2091	-0.137486832117192
2092	-0.136955754667872
2093	-0.136697189687496
2094	-0.137156383926504
2095	-0.137810843005464
2096	-0.137791531098216
2097	-0.137012081064012
2098	-0.136505143498752
2099	-0.13699652424984
2100	-0.137555496676296
2101	-0.137461619349396
2102	-0.13678731192132
2103	-0.136631207337732
2104	-0.137426214186108
2105	-0.137944953472464
2106	-0.137509899117516
2107	-0.136910157109092
2108	-0.136578636034668
2109	-0.1370206641339
2110	-0.137606458653756
2111	-0.137611823072436
2112	-0.137042658250488
2113	-0.136783020386376
2114	-0.137169258531336
2115	-0.137764709004816
2116	-0.137746469981304
2117	-0.137136535577388
2118	-0.136951463132928
2119	-0.137333409742944
2120	-0.137601094235076
2121	-0.137483077024116
2122	-0.136942343621172
2123	-0.136589901313896
2124	-0.137012081064012
2125	-0.13775290728372
2126	-0.13786287786666
2127	-0.137135462693652
2128	-0.136766390688468
2129	-0.137286739300428
2130	-0.138114469102752
2131	-0.138146655614832
2132	-0.13745679137258401
2133	-0.137092547344212
2134	-0.13743104216292001
2135	-0.137993233240584
2136	-0.138056533381008
2137	-0.137571053490468
2138	-0.137322144463716
2139	-0.137700872422524
2140	-0.138285057616776
2141	-0.138260917732716
2142	-0.137644546026384
2143	-0.137271718928124
2144	-0.137679414747804
2145	-0.13819600826668801
2146	-0.13820620066218
2147	-0.137525455931688
2148	-0.137145655089144
2149	-0.137611286630568
2150	-0.138192253173612
2151	-0.138172404824496
2152	-0.137615578165512
2153	-0.137244896834724
2154	-0.137595193374528
2155	-0.137993769682452
2156	-0.137946562798068
2157	-0.137461082907528
2158	-0.1371815966943
2159	-0.137505607582572
2160	-0.138049023194856
2161	-0.138108568242204
2162	-0.137425141302372
2163	-0.137051241320376
2164	-0.137463765116868
2165	-0.13804795031112
2166	-0.137959973844768
2167	-0.137386517487876
2168	-0.13719232553166
2169	-0.137692289352636
2170	-0.13812841659132
2171	-0.138012545147832
2172	-0.137430505721052
2173	-0.137196080624736
2174	-0.137593584048924
2175	-0.138130025916924
2176	-0.138147728498568
2177	-0.137545304280804
2178	-0.137209491671436
2179	-0.137600557793208
2180	-0.138201372685368
2181	-0.13815792089406
2182	-0.137538866978388
2183	-0.137299077463392
2184	-0.138003425636076
2185	-0.138864951276084
2186	-0.13853986750407601
2187	-0.137308733417016
2188	-0.136715965152876
2189	-0.13725991720702801
2190	-0.137979285752016
2191	-0.137933688193236
2192	-0.137395636999632
2193	-0.137064652367076
2194	-0.13738866325534801
2195	-0.138244824476676
2196	-0.138478176689256
2197	-0.13764615535198801
2198	-0.136979894551932
2199	-0.137257771439556
2200	-0.137782948028328
2201	-0.13773413181834
2202	-0.137209491671436
2203	-0.13704212180862
2204	-0.137487905000928
2205	-0.137815134540408
2206	-0.137694971561976
2207	-0.13728352064922
2208	-0.137139217786728
2209	-0.137478785489172
2210	-0.13806136135782
2211	-0.138141291196152
2212	-0.137609140863096
2213	-0.137214319648248
2214	-0.137528138141028
2215	-0.138061897799688
2216	-0.137748615748776
2217	-0.137179450926828
2218	-0.137059287948396
2219	-0.137429432837316
2220	-0.13799001458937601
2221	-0.13797016624026
2222	-0.137463228675
2223	-0.13735325809206
2224	-0.138040976566836
2225	-0.138577954876704
2226	-0.138183133661856
2227	-0.137454645605112
2228	-0.137179987368696
2229	-0.137628989212212
2230	-0.138078527497596
2231	-0.137864487192264
2232	-0.137238995974176
2233	-0.136926250365132
2234	-0.13735862251074
2235	-0.137891309285664
2236	-0.137746469981304
2237	-0.137245433276592
2238	-0.137048022669168
2239	-0.137643473142648
2240	-0.138207273545916
2241	-0.138154702242852
2242	-0.137706236841204
2243	-0.137348966557116
2244	-0.137559251769372
2245	-0.138081746148804
2246	-0.13804151300870401
2247	-0.137611286630568
2248	-0.137348966557116
2249	-0.13765366553814
2250	-0.138142364079888
2251	-0.137863414308528
2252	-0.137215392531984
2253	-0.136941270737436
2254	-0.137360768278212
2255	-0.137882726215776
2256	-0.137841956633808
2257	-0.137263135858236
2258	-0.137057678622792
2259	-0.137631671421552
2260	-0.13816328531274
2261	-0.138029711287608
2262	-0.13736291404568401
2263	-0.136982576761272
2264	-0.137308196975148
2265	-0.137002961552256
2266	-0.137816743866012
2267	-0.137329654649868
2268	-0.137086110041796
2269	-0.137556569560032
2270	-0.138081746148804
2271	-0.1379594374029
2272	-0.13734521146404
2273	-0.137029783645656
2274	-0.137413339581276
2275	-0.138016836682776
2276	-0.13810213093978801
2277	-0.13750828979191201
2278	-0.137101666855968
2279	-0.137638108723968
2280	-0.138360695920164
2281	-0.138187961638668
2282	-0.137461082907528
2283	-0.137153701717164
2284	-0.137656884189348
2285	-0.138429360479268
2286	-0.138209419313388
2287	-0.137268500276916
2288	-0.136919813062716
2289	-0.137428896395448
2290	-0.1379862594963
2291	-0.137876825355228
2292	-0.137322144463716
2293	-0.137143509321672
2294	-0.137635962956496
2295	-0.138218538825144
2296	-0.138150947149776
2297	-0.137476103279832
2298	-0.13707055322762401
2299	-0.137528138141028
2300	-0.138105349590996
2301	-0.138107495358468
2302	-0.137525455931688
2303	-0.13721646541572
2304	-0.137517945745536
2305	-0.138031320613212
2306	-0.138119833521432
2307	-0.137603240002548
2308	-0.137222366276268
2309	-0.137431578604788
2310	-0.137891845727532
2311	-0.137898819471816
2312	-0.137265281625708
2313	-0.136917130853376
2314	-0.137463228675
2315	-0.138130025916924
2316	-0.138162212429004
2317	-0.137437479465336
2318	-0.137041585366752
2319	-0.137443380325884
2320	-0.137924032239612
2321	-0.137801723493708
2322	-0.137200908601548
2323	-0.136915521527772
2324	-0.13730229611460001
2325	-0.137858586331716
2326	-0.137855904122376
2327	-0.137329654649868
2328	-0.137252407020876
2329	-0.137877361797096
2330	-0.138390736664772
2331	-0.138255553314036
2332	-0.137627916328476
2333	-0.137381153069196
2334	-0.13777436495844
2335	-0.138219075267012
2336	-0.138239996499864
2337	-0.137679951189672
2338	-0.137230412904288
2339	-0.137630598537816
2340	-0.138059215590348
2341	-0.1379326153095
2342	-0.137434260814128
2343	-0.137215928973852
2344	-0.137687461375824
2345	-0.138233559197448
2346	-0.13810213093978801
2347	-0.137529211024764
2348	-0.137313561393828
2349	-0.13767190456165201
2350	-0.138121442847036
2351	-0.138199226917896
2352	-0.137716429236696
2353	-0.137487905000928
2354	-0.137957828077296
2355	-0.138499097922108
2356	-0.138460474107612
2357	-0.137965874705316
2358	-0.137609140863096
2359	-0.137808697237992
2360	-0.138264672825792
2361	-0.138268427918868
2362	-0.13771267414362
2363	-0.13727654690493601
2364	-0.137653129096272
2365	-0.138320999221932
2366	-0.137956218751692
2367	-0.137277619788672
2368	-0.137077526971908
2369	-0.137619333258588
2370	-0.138416485874436
2371	-0.13832690008248
2372	-0.137676196096596
2373	-0.137516336419932
2374	-0.137994842566188
2375	-0.13836713322258
2376	-0.138202982010972
2377	-0.1376241612354
2378	-0.137391345464688
2379	-0.137801723493708
2380	-0.138258235523376
2381	-0.138176159917572
2382	-0.137502925373232
2383	-0.13716443055452401
2384	-0.137760417469872
2385	-0.138436334223552
2386	-0.138126807265716
2387	-0.13729424948658
2388	-0.137164966996392
2389	-0.137759344586136
2390	-0.138515191178148
2391	-0.138451354595856
2392	-0.13776095391174
2393	-0.137292640160976
2394	-0.137869315169076
2395	-0.138568835364948
2396	-0.13844599017717601
2397	-0.137834446447656
2398	-0.137545840722672
2399	-0.137826936261504
2400	-0.138319926338196
2401	-0.138241605825468
2402	-0.137623624793532
2403	-0.137391345464688
2404	-0.137966411147184
2405	-0.138449745270252
2406	-0.138121442847036
2407	-0.137595193374528
2408	-0.137434797255996
2409	-0.137840347308204
2410	-0.138464765642556
2411	-0.13844599017717601
2412	-0.137854294796772
2413	-0.137663857933632
2414	-0.138121979288904
2415	-0.138524310689904
2416	-0.138280766081832
2417	-0.13780065060997201
2418	-0.13764830111946
2419	-0.138121442847036
2420	-0.138457791898272
2421	-0.138063507125292
2422	-0.137485759233456
2423	-0.137351648766456
2424	-0.13777972937712
2425	-0.138351576408408
2426	-0.138338165361708
2427	-0.137627379886608
2428	-0.137252407020876
2429	-0.137640790933308
2430	-0.138301150872816
2431	-0.138421850293116
2432	-0.137940125495652
2433	-0.137486295675324
2434	-0.138061897799688
2435	-0.138722257739196
2436	-0.138468520735632
2437	-0.137662248608028
2438	-0.137332873301076
2439	-0.137743787771964
2440	-0.138225512569428
2441	-0.138190643848008
2442	-0.137684779166484
2443	-0.1372620629745
2444	-0.13763489007276
2445	-0.138200299801632
2446	-0.138204054894708
2447	-0.137715892794828
2448	-0.137487905000928
2449	-0.137914376285988
2450	-0.138438479991024
2451	-0.138405220595208
2452	-0.137900965239288
2453	-0.137757735260532
2454	-0.138220148150748
2455	-0.138609604946916
2456	-0.138429360479268
2457	-0.137859659215452
2458	-0.137601094235076
2459	-0.13797821286828
2460	-0.138448135944648
2461	-0.138405220595208
2462	-0.137784557353932
2463	-0.137386517487876
2464	-0.137847857494356
2465	-0.138458864782008
2466	-0.138419168083776
2467	-0.13780386926118
2468	-0.137551205141352
2469	-0.138019518892116
2470	-0.138558106527588
2471	-0.1383751798506
2472	-0.137785630237668
2473	-0.137763099679212
2474	-0.138223366801956
2475	-0.13843418845608
2476	-0.138244288034808
2477	-0.137771146307232
2478	-0.137525455931688
2479	-0.138032393496948
2480	-0.138661103366244
2481	-0.138285057616776
2482	-0.137551205141352
2483	-0.137343065696568
2484	-0.137780265818988
2485	-0.138389127339168
2486	-0.138341384012916
2487	-0.137789385330744
2488	-0.137494342303344
2489	-0.137921350030272
2490	-0.138557033643852
2491	-0.138462083433216
2492	-0.137783484470196
2493	-0.137391345464688
2494	-0.137815134540408
2495	-0.138258235523376
2496	-0.138249652453488
2497	-0.137889163518192
2498	-0.13772876739966
2499	-0.13806404356716
2500	-0.13857098113242
2501	-0.138333337384896
2502	-0.137711601259884
2503	-0.137303368998336
2504	-0.137715892794828
2505	-0.138183133661856
2506	-0.138103740265392
2507	-0.137666003701104
2508	-0.137531356792236
2509	-0.138002889194208
2510	-0.138559715853192
2511	-0.138625161761088
2512	-0.138134853893736
2513	-0.137806015028652
2514	-0.138188498080536
2515	-0.138728695041612
2516	-0.138466911410028
2517	-0.13783605577326
2518	-0.137609677304964
2519	-0.138060824915952
2520	-0.138540940387812
2521	-0.138547914132096
2522	-0.13788433554138
2523	-0.137547450048276
2524	-0.138066189334632
2525	-0.138656275389432
2526	-0.138550596341436
2527	-0.13812841659132
2528	-0.13802488331079601
2529	-0.138468520735632
2530	-0.13890947595112801
2531	-0.138842420717628
2532	-0.138279156756228
2533	-0.137976067100808
2534	-0.138337092477972
2535	-0.138685779692172
2536	-0.138429360479268
2537	-0.13780923367986
2538	-0.137589828955848
2539	-0.137974994217072
2540	-0.138496415712768
2541	-0.13842024096751201
2542	-0.137793676865688
2543	-0.13746591088434001
2544	-0.138043122334308
2545	-0.138778047693468
2546	-0.138826327461588
2547	-0.138233559197448
2548	-0.137910621192912
2549	-0.138366060338844
2550	-0.138974385417156
2551	-0.138851003787516
2552	-0.138215320173936
2553	-0.137968020472788
2554	-0.138382153594884
2555	-0.138861732624876
2556	-0.138880508090256
2557	-0.138476030921784
2558	-0.138231413429976
2559	-0.13853074799232
2560	-0.138684706808436
2561	-0.138531284434188
2562	-0.1379057932161
2563	-0.137632744305288
2564	-0.137952463658616
2565	-0.138229804104372
2566	-0.138077991055728
2567	-0.137646691793856
2568	-0.137383298836668
2569	-0.137793676865688
2570	-0.13836713322258
2571	-0.138355331501484
2572	-0.137946562798068
2573	-0.137886481308852
2574	-0.13839663752532
2575	-0.138817207949832
2576	-0.138607995621312
2577	-0.137912230518516
2578	-0.13759197472332
2579	-0.13813914542868
2580	-0.138862805508612
2581	-0.13882579101972
2582	-0.138171868382628
2583	-0.137736277585812
2584	-0.13797338489146801
2585	-0.138633208389108
2586	-0.138554351434512
2587	-0.137927787332688
2588	-0.137683706282748
2589	-0.138099448730448
2590	-0.13866217624998
2591	-0.138720111971724
2592	-0.13826520926766
2593	-0.138135926777472
2594	-0.138512508968808
2595	-0.139081673790756
2596	-0.138955073509908
2597	-0.138312952593912
2598	-0.138008253612888
2599	-0.138481395340464
2600	-0.139180915536336
2601	-0.139066653418452
2602	-0.138386981571696
2603	-0.138089792776824
2604	-0.13826520926766
2605	-0.138770537507316
2606	-0.138698117855136
2607	-0.138040440124968
2608	-0.137754516609324
2609	-0.138317244128856
2610	-0.138966338789136
2611	-0.138719039087988
2612	-0.138097302962976
2613	-0.137892918611268
2614	-0.138406829920812
2615	-0.139282303049388
2616	-0.139298932747296
2617	-0.138587610830328
2618	-0.137976067100808
2619	-0.1383215356638
2620	-0.139114933186572
2621	-0.13894380823068
2622	-0.138143436963624
2623	-0.138060288474084
2624	-0.138741569646444
2625	-0.139139073070632
2626	-0.138715283994912
2627	-0.138081209706936
2628	-0.137822108284692
2629	-0.138320999221932
2630	-0.13908864753504
2631	-0.139086501767568
2632	-0.138407902804548
2633	-0.138165431080212
2634	-0.138664322017452
2635	-0.139291422561144
2636	-0.139006571929236
2637	-0.138341384012916
2638	-0.138108031800336
2639	-0.138477640247388
2640	-0.139105813674816
2641	-0.138973848975288
2642	-0.138212637964596
2643	-0.13789506437874
2644	-0.138271646570076
2645	-0.138982968487044
2646	-0.138878898764652
2647	-0.138180451452516
2648	-0.137999670543
2649	-0.138661639808112
2650	-0.13937832614376
2651	-0.139202909652924
2652	-0.138419168083776
2653	-0.138119297079564
2654	-0.13869972718074
2655	-0.139337020119924
2656	-0.139188425722488
2657	-0.138525920015508
2658	-0.138197081150424
2659	-0.13856561671374001
2660	-0.13924421567676
2661	-0.139364378655192
2662	-0.138603704086368
2663	-0.13799162391498
2664	-0.138354258617748
2665	-0.139122443372724
2666	-0.13926567335148
2667	-0.13854684124836
2668	-0.13805063252046001
2669	-0.138499097922108
2670	-0.139089183976908
2671	-0.139045195743732
2672	-0.13853986750407601
2673	-0.13840468415334
2674	-0.138781266344676
2675	-0.139463620400772
2676	-0.139191107931828
2677	-0.138413267223228
2678	-0.138212637964596
2679	-0.138803260461264
2680	-0.139247434327968
2681	-0.138908403067392
2682	-0.138355867943352
2683	-0.138122515730772
2684	-0.138485686875408
2685	-0.139116542512176
2686	-0.139011399906048
2687	-0.138279693198096
2688	-0.137933688193236
2689	-0.13838054426928
2690	-0.139026420278352
2691	-0.138944881114416
2692	-0.138414876548832
2693	-0.13824643380228
2694	-0.138783412112148
2695	-0.139532821401744
2696	-0.139465229726376
2697	-0.138667004226792
2698	-0.13819547182482
2699	-0.138603704086368
2700	-0.139245288560496
2701	-0.139045195743732
2702	-0.13840468415334
2703	-0.138205664220312
2704	-0.138800578251924
2705	-0.139412658423312
2706	-0.139093475511852
2707	-0.138400929060264
2708	-0.138132171684396
2709	-0.138526992899244
2710	-0.139267819118952
2711	-0.13927908439818001
2712	-0.138669149994264
2713	-0.138318317012592
2714	-0.138601558318896
2715	-0.13935955067838
2716	-0.139348285399152
2717	-0.13865949404064
2718	-0.138305978849628
2719	-0.138755517135012
2720	-0.139325754840696
2721	-0.13923885125808
2722	-0.138597266783952
2723	-0.138193862499216
2724	-0.138596730342084
2725	-0.139290886119276
2726	-0.139196472350508
2727	-0.138623015993616
2728	-0.138318317012592
2729	-0.138709919576232
2730	-0.139260845374668
2731	-0.139102595023608
2732	-0.138551669225172
2733	-0.138348894199068
2734	-0.13894380823068
2735	-0.139567690123164
2736	-0.139343993864208
2737	-0.138612287156256
2738	-0.138078527497596
2739	-0.138448672386516
2740	-0.139221148676436
2741	-0.139117078954044
2742	-0.138346748431596
2743	-0.138148264940436
2744	-0.138735132344028
2745	-0.139280157281916
2746	-0.1390054990455
2747	-0.138384299362356
2748	-0.138017373124644
2749	-0.138530211550452
2750	-0.13947220347066
2751	-0.139471667028792
2752	-0.138604776970104
2753	-0.13823087698810801
2754	-0.138756590018748
2755	-0.139235632606872
2756	-0.139093475511852
2757	-0.138502316573316
2758	-0.138311343268308
2759	-0.138778047693468
2760	-0.13930858870092
2761	-0.139294641212352
2762	-0.13867773306415201
2763	-0.138386445129828
2764	-0.13881506218236
2765	-0.13917716044326
2766	-0.139040904208788
2767	-0.138413803665096
2768	-0.13822229391822
2769	-0.138773219716656
2770	-0.139398710934744
2771	-0.139403538911556
2772	-0.13882579101972
2773	-0.13846369275882
2774	-0.138818280833568
2775	-0.139568226565032
2776	-0.139483468749888
2777	-0.138690607668984
2778	-0.138347821315332
2779	-0.138781802786544
2780	-0.139379935469364
2781	-0.139256553839724
2782	-0.138614432923728
2783	-0.138354258617748
2784	-0.138886945392672
2785	-0.13958485626294
2786	-0.139465229726376
2787	-0.138783412112148
2788	-0.138353185734012
2789	-0.138842957159496
2790	-0.139511363727024
2791	-0.139401929585952
2792	-0.1386970449714
2793	-0.138554351434512
2794	-0.139094548395588
2795	-0.139741497288396
2796	-0.139430897446824
2797	-0.138644473668336
2798	-0.138370888315656
2799	-0.13882310881038
2800	-0.139540331587896
2801	-0.13948561451736
2802	-0.138791995182036
2803	-0.138375716292468
2804	-0.138735132344028
2805	-0.139344530306076
2806	-0.139222221560172
2807	-0.138730840809084
2808	-0.138569908248684
2809	-0.13894917264936
2810	-0.139581637611732
2811	-0.139597730867772
2812	-0.138972776091552
2813	-0.13859780322582
2814	-0.13897599474276
2815	-0.139629380937984
2816	-0.139580028286128
2817	-0.138610141388784
2818	-0.13809301142803201
2819	-0.138516800503752
2820	-0.139138000186896
2821	-0.139191644373696
2822	-0.138671295761736
2823	-0.138517873387488
2824	-0.138907330183656
2825	-0.139408366888368
2826	-0.139327900608168
2827	-0.138742106088312
2828	-0.138430969804872
2829	-0.138927178532772
2830	-0.139599340193376
2831	-0.139512973052628
2832	-0.138715283994912
2833	-0.138341384012916
2834	-0.138888018276408
2835	-0.139573590983712
2836	-0.139298396305428
2837	-0.13859780322582
2838	-0.138257699081508
2839	-0.138626771086692
2840	-0.139165358722164
2841	-0.139000671068688
2842	-0.138409512130152
2843	-0.138192253173612
2844	-0.1387104560181
2845	-0.139394955841668
2846	-0.139337556561792
2847	-0.138637499924052
2848	-0.138272183011944
2849	-0.138858513973668
2850	-0.139588074914148
2851	-0.139490442494172
2852	-0.13880969776368
2853	-0.138492124177824
2854	-0.138955609951776
2855	-0.139412658423312
2856	-0.139183061303808
2857	-0.138553814992644
2858	-0.138440089316628
2859	-0.138975458300892
2860	-0.139407294004632
2861	-0.139228658862588
2862	-0.138595657458348
2863	-0.13824750668601601
2864	-0.138722257739196
2865	-0.139419632167596
2866	-0.139342920980472
2867	-0.138643937226468
2868	-0.138484613991672
2869	-0.13925762672346
2870	-0.139664786101272
2871	-0.139341311654868
2872	-0.138759272228088
2873	-0.13850660810826
2874	-0.13902427451088
2875	-0.139701800590164
2876	-0.139835374615296
2877	-0.139270501328292
2878	-0.13858170996978
2879	-0.138893919136956
2880	-0.139457719540224
2881	-0.139416413516388
2882	-0.138690071227116
2883	-0.13822497612756
2884	-0.138672368645472
2885	-0.139338629445528
2886	-0.139403538911556
2887	-0.138767855297976
2888	-0.138444380851572
2889	-0.139040904208788
2890	-0.139708774334448
2891	-0.139534430727348
2892	-0.138825254577852
2893	-0.138588147272196
2894	-0.139073627162736
2895	-0.139468984819452
2896	-0.139464693284508
2897	-0.138956682835512
2898	-0.138761954437428
2899	-0.139208810513472
2900	-0.13959826730964
2901	-0.139508145075816
2902	-0.13879896892632
2903	-0.138361232362032
2904	-0.138687389017776
2905	-0.139162140070956
2906	-0.139065044092848
2907	-0.13839931973466
2908	-0.138051168962328
2909	-0.138606386295708
2910	-0.139377253260024
2911	-0.139587002030412
2912	-0.138759808669956
2913	-0.138300614430948
2914	-0.138770537507316
2915	-0.139418022841992
2916	-0.139384763446176
2917	-0.138595657458348
2918	-0.138164894638344
2919	-0.138699190738872
2920	-0.139281230165652
2921	-0.139148192582388
2922	-0.138558642969456
2923	-0.138389127339168
2924	-0.139084356000096
2925	-0.139647619961496
2926	-0.13944001695858
2927	-0.138761954437428
2928	-0.138506071666392
2929	-0.13905109660428
2930	-0.139682488682916
2931	-0.139619188542492
2932	-0.138979213393968
2933	-0.138730304367216
2934	-0.139194863024904
2935	-0.13964869284523201
2936	-0.139546768890312
2937	-0.13890947595112801
2938	-0.138575809109232
2939	-0.138987796463856
2940	-0.139444844935392
2941	-0.139247970769836
2942	-0.13860048543516001
2943	-0.138287739826116
2944	-0.138695435645796
2945	-0.139232950397532
2946	-0.139188962164356
2947	-0.138707237366892
2948	-0.138538258178472
2949	-0.139113860302836
2950	-0.13965781235698801
2951	-0.139608459705132
2952	-0.138953464184304
2953	-0.138689534785248
2954	-0.139287667468068
2955	-0.139847176336392
2956	-0.13972701335796
2957	-0.139091866186248
2958	-0.138662712691848
2959	-0.139045195743732
2960	-0.139637964007872
2961	-0.139687316659728
2962	-0.139019982975936
2963	-0.138653593180092
2964	-0.139384763446176
2965	-0.139872389104188
2966	-0.139427142353748
2967	-0.138658957598772
2968	-0.138186888754932
2969	-0.138628380412296
2970	-0.139396565167272
2971	-0.139394955841668
2972	-0.138783948554016
2973	-0.138438479991024
2974	-0.138993697324404
2975	-0.13964118265908
2976	-0.139487760284832
2977	-0.138814525740492
2978	-0.1385897565978
2979	-0.13902963892956
2980	-0.139632599589192
2981	-0.139387445655516
2982	-0.138555424318248
2983	-0.138165431080212
2984	-0.138720648413592
2985	-0.139419632167596
2986	-0.139371352399476
2987	-0.138714211111176
2988	-0.138315634803252
2989	-0.138902502206844
2990	-0.139654057263912
2991	-0.139630990263588
2992	-0.13896794811474
2993	-0.138513581852544
2994	-0.138897674230032
2995	-0.139411585539576
2996	-0.139379399027496
2997	-0.13869436276206001
2998	-0.138323681431272
2999	-0.138882653857728
3000	-0.139479713656812
3001	-0.13954998754152
3002	-0.139049487278676
3003	-0.138626771086692
3004	-0.139121370488988
3005	-0.13980211521948
3006	-0.139752762567624
3007	-0.139056997464828
3008	-0.138679878831624
3009	-0.139132099326348
3010	-0.139810698289368
3011	-0.13979406859146
3012	-0.139033394022636
3013	-0.13880165113566
3014	-0.139378862585628
3015	-0.139775829567948
3016	-0.139585929146676
3017	-0.13889284625322001
3018	-0.138536648852868
3019	-0.13910795944228802
3020	-0.139547841774048
3021	-0.139319853980148
3022	-0.138665931343056
3023	-0.138503389457052
3024	-0.139258699607196
3025	-0.139847176336392
3026	-0.139727549799828
3027	-0.138972776091552
3028	-0.138679342389756
3029	-0.139250652979176
3030	-0.139870779778584
3031	-0.139690535310936
3032	-0.13886709704355601
3033	-0.138579564202308
3034	-0.139172868908316
3035	-0.139757590544436
3036	-0.139760272753776
3037	-0.139209883397208
3038	-0.138942735346944
3039	-0.139443235609788
3040	-0.139832692405956
3041	-0.13955266975086
3042	-0.138971166765948
3043	-0.138701336506344
3044	-0.139184134187544
3045	-0.139639573333476
3046	-0.139498489122192
3047	-0.138859586857404
3048	-0.138472275828708
3049	-0.139095084837456
3050	-0.139960902012408
3051	-0.139880435732208
3052	-0.138853149554988
3053	-0.138463156316952
3054	-0.139122443372724
3055	-0.139775829567948
3056	-0.139757054102568
3057	-0.13908864753504
3058	-0.138778047693468
3059	-0.139135854419424
3060	-0.139661031008196
3061	-0.139696972613352
3062	-0.138979213393968
3063	-0.138699190738872
3064	-0.139289276793672
3065	-0.13971896672994
3066	-0.139495806912852
3067	-0.138810234205548
3068	-0.138689534785248
3069	-0.139455037330884
3070	-0.1399308612678
3071	-0.139772074474872
3072	-0.139243679234892
3073	-0.139073627162736
3074	-0.139422314376936
3075	-0.139826791545408
3076	-0.139892773895172
3077	-0.139333801468716
3078	-0.138754444251276
3079	-0.139061288999772
3080	-0.139563935030088
3081	-0.139488833168568
3082	-0.138948636207492
3083	-0.138695435645796
3084	-0.139243679234892
3085	-0.139863269592432
3086	-0.139775829567948
3087	-0.139129953558876
3088	-0.138944881114416
3089	-0.139589684239752
3090	-0.140134172735772
3091	-0.13995017317504801
3092	-0.139305370049712
3093	-0.139092939069984
3094	-0.139498489122192
3095	-0.139942662988896
3096	-0.139749007474548
3097	-0.13904841439494
3098	-0.138802724019396
3099	-0.13935150405036
3100	-0.139881508615944
3101	-0.139809625405632
3102	-0.139215784257756
3103	-0.138835446973344
3104	-0.139113323860968
3105	-0.139597730867772
3106	-0.139644937752156
3107	-0.138928787858376
3108	-0.138751225600068
3109	-0.13945342800528
3110	-0.139990942757016
3111	-0.139821427126728
3112	-0.1390859653257
3113	-0.138848321578176
3114	-0.139386909213648
3115	-0.139919595988572
3116	-0.139828400871012
3117	-0.139170186698976
3118	-0.13879896892632
3119	-0.139398174492876
3120	-0.139846639894524
3121	-0.139559107053276
3122	-0.138973848975288
3123	-0.138649301645148
3124	-0.139032857580768
3125	-0.139553742634596
3126	-0.139574663867448
3127	-0.139009790580444
3128	-0.138834910531476
3129	-0.139298932747296
3130	-0.139779048219156
3131	-0.13973237777664
3132	-0.139259772490932
3133	-0.1391127874191
3134	-0.139588611356016
3135	-0.140029030129644
3136	-0.139890091685832
3137	-0.1392200757927
3138	-0.138929860742112
3139	-0.139357404910908
3140	-0.139875071313528
3141	-0.139559107053276
3142	-0.13879360450764
3143	-0.138542013271548
3144	-0.139007644812972
3145	-0.13958753847228
3146	-0.139600413077112
3147	-0.138987796463856
3148	-0.138459401223876
3149	-0.138826863903456
3150	-0.139483468749888
3151	-0.139497416238456
3152	-0.13901247278978401
3153	-0.138920741230356
3154	-0.139321463305752
3155	-0.139630990263588
3156	-0.139479713656812
3157	-0.138969557440344
3158	-0.138762490879296
3159	-0.139195399466772
3160	-0.139739887962792
3161	-0.139350967608492
3162	-0.138560788736928
3163	-0.138383762920488
3164	-0.138945417556284
3165	-0.139576273193052
3166	-0.139631526705456
3167	-0.13912458914019601
3168	-0.138928787858376
3169	-0.139411585539576
3170	-0.139827327987276
3171	-0.139594512216564
3172	-0.138999061743084
3173	-0.13885529532246
3174	-0.139364378655192
3175	-0.140009718222396
3176	-0.13999255208262001
3177	-0.139238314816212
3178	-0.138672368645472
3179	-0.139043586418128
3180	-0.139610069030736
3181	-0.139543550239104
3182	-0.139055924581092
3183	-0.138833301205872
3184	-0.139352040492228
3185	-0.14000596312932
3186	-0.140011863989868
3187	-0.139301078514768
3188	-0.138885336067068
3189	-0.139197008792376
3190	-0.139803724545084
3191	-0.139867024685508
3192	-0.139178769768864
3193	-0.13867290508734
3194	-0.139031248255164
3195	-0.139537112936688
3196	-0.139508681517684
3197	-0.139144437489312
3198	-0.139097767046796
3199	-0.139571981658108
3200	-0.140055315781176
3201	-0.139955537593728
3202	-0.139306442933448
3203	-0.138948636207492
3204	-0.139272647095764
3205	-0.139671223403688
3206	-0.139550523983388
3207	-0.139051633046148
3208	-0.13883383764774
3209	-0.13931931753828
3210	-0.139885800150888
3211	-0.13973505998598001
3212	-0.139011936347916
3213	-0.138708846692496
3214	-0.139261381816536
3215	-0.139884727267152
3216	-0.139795141475196
3217	-0.139316098887072
3218	-0.13904304997626
3219	-0.139163212954692
3220	-0.139606850379528
3221	-0.139535503611084
3222	-0.138998525301216
3223	-0.138756590018748
3224	-0.139154093442936
3225	-0.13970019126456001
3226	-0.13966800475248
3227	-0.139063434767244
3228	-0.13891966834662
3229	-0.139500098447796
3230	-0.14015616685236001
3231	-0.139983969012732
3232	-0.139227049536984
3233	-0.139015691440992
3234	-0.139509217959552
3235	-0.139838593266504
3236	-0.139661567450064
3237	-0.139069335627792
3238	-0.138919131904752
3239	-0.139507608633948
3240	-0.140079992107104
3241	-0.139782803312232
3242	-0.138994233766272
3243	-0.138693826320192
3244	-0.139232950397532
3245	-0.139912622244288
3246	-0.139643328426552
3247	-0.138838665624552
3248	-0.138649301645148
3249	-0.139168577373372
3250	-0.139888482360228
3251	-0.139986651222072
3252	-0.139481859424284
3253	-0.13921471137402
3254	-0.13974578882334
3255	-0.140221612760256
3256	-0.14003010301338
3257	-0.139437871191108
3258	-0.139175014675788
3259	-0.13958485626294
3260	-0.140044586943816
3261	-0.139913158686156
3262	-0.139414267748916
3263	-0.139121906930856
3264	-0.139430897446824
3265	-0.13998986987328
3266	-0.139821427126728
3267	-0.139266209793348
3268	-0.139228658862588
3269	-0.139712529427524
3270	-0.140048342036892
3271	-0.139854150080676
3272	-0.139389591422988
3273	-0.139301614956636
3274	-0.139682488682916
3275	-0.140117006595996
3276	-0.139968948640428
3277	-0.139247434327968
3278	-0.138979749835836
3279	-0.13951994679691201
3280	-0.140014546199208
3281	-0.139884190825284
3282	-0.139260845374668
3283	-0.13910795944228802
3284	-0.139717357404336
3285	-0.139858978057488
3286	-0.139776902451684
3287	-0.139226513095116
3288	-0.138938980253868
3289	-0.139501171331532
3290	-0.140291350203096
3291	-0.140205519504216
3292	-0.139605777495792
3293	-0.139404611795292
3294	-0.139895456104512
3295	-0.140034930990192
3296	-0.139671759845556
3297	-0.139047877953072
3298	-0.138901429323108
3299	-0.139493124703512
3300	-0.140051024246232
3301	-0.139987724105808
3302	-0.139331119259376
3303	-0.139076309372076
3304	-0.139525311215592
3305	-0.140163677038512
3306	-0.13999255208262001
3307	-0.139290349677408
3308	-0.139022128743408
3309	-0.13938637277178
3310	-0.140114324386656
3311	-0.140111105735448
3312	-0.139484005191756
3313	-0.139247434327968
3314	-0.139808552521896
3315	-0.140351431692312
3316	-0.140125053224016
3317	-0.139481322982416
3318	-0.139275865746972
3319	-0.139754908335096
3320	-0.140272574737716
3321	-0.140285449342548
3322	-0.139817672033652
3323	-0.139559107053276
3324	-0.139778511777288
3325	-0.140209274597292
3326	-0.140253262830468
3327	-0.139827327987276
3328	-0.139632599589192
3329	-0.140082137874576
3330	-0.140476422647556
3331	-0.140275256947056
3332	-0.139671759845556
3333	-0.13944269916792001
3334	-0.139969485082296
3335	-0.140416877600208
3336	-0.140182452503892
3337	-0.13965191149644
3338	-0.139206664746
3339	-0.139559107053276
3340	-0.14026077301662
3341	-0.140303151924192
3342	-0.139510290843288
3343	-0.139120297605252
3344	-0.1396626403338
3345	-0.140338020645612
3346	-0.140280084923868
3347	-0.139768319381796
3348	-0.139541404471632
3349	-0.13966800475248
3350	-0.140143828689396
3351	-0.140243606876844
3352	-0.139787094847176
3353	-0.139457183098356
3354	-0.13990940359308
3355	-0.140379326669448
3356	-0.14023126871388
3357	-0.139705019241372
3358	-0.139541404471632
3359	-0.139891164569568
3360	-0.14043940815866401
3361	-0.140354113901652
3362	-0.139687316659728
3363	-0.139560179937012
3364	-0.139973240175372
3365	-0.140532212601828
3366	-0.140451746321628
3367	-0.139809625405632
3368	-0.139650302170836
3369	-0.140135782061376
3370	-0.140524702415676
3371	-0.140386300413732
3372	-0.139983969012732
3373	-0.13981284405684
3374	-0.140076773455896
3375	-0.140640037417296
3376	-0.140346067273632
3377	-0.139730232009168
3378	-0.13961972498436
3379	-0.14016957789906
3380	-0.140699046022776
3381	-0.140600877160932
3382	-0.140111642177316
3383	-0.139792459265856
3384	-0.140124516782148
3385	-0.140597122067856
3386	-0.140457110740308
3387	-0.139944808756368
3388	-0.139789777056516
3389	-0.140134172735772
3390	-0.140523093090072
3391	-0.140401857227904
3392	-0.139808552521896
3393	-0.139618652100624
3394	-0.140053706455572
3395	-0.140400784344168
3396	-0.14025916369101601
3397	-0.139916913779232
3398	-0.139825718661672
3399	-0.140013473315472
3400	-0.140277402714528
3401	-0.139985041896468
3402	-0.13930483360784401
3403	-0.139163212954692
3404	-0.13987292554605602
3405	-0.14031709941276
3406	-0.140065508176668
3407	-0.139604168170188
3408	-0.139239924141816
3409	-0.139498489122192
3410	-0.139996307175696
3411	-0.139937298570216
3412	-0.139374571050684
3413	-0.139119224721516
3414	-0.139639036891608
3415	-0.140251117062996
3416	-0.140187816922572
3417	-0.139598803751508
3418	-0.139379935469364
3419	-0.139776902451684
3420	-0.140325682482648
3421	-0.140350358808576
3422	-0.139693217520276
3423	-0.139295714096088
3424	-0.1398235728942
3425	-0.140398102134828
3426	-0.140439944600532
3427	-0.13992013243044
3428	-0.139585929146676
3429	-0.139982359687128
3430	-0.140423314902624
3431	-0.14029403241243601
3432	-0.139752762567624
3433	-0.13951243661076
3434	-0.139959829128672
3435	-0.140383081762524
3436	-0.140245752644316
3437	-0.13973505998598001
3438	-0.139481322982416
3439	-0.139924960407252
3440	-0.140331583343196
3441	-0.139994697850092
3442	-0.139374571050684
3443	-0.139139073070632
3444	-0.139650302170836
3445	-0.140299933272984
3446	-0.140285985784416
3447	-0.139788167730912
3448	-0.13964386486842
3449	-0.140157239736096
3450	-0.140602486486536
3451	-0.140454964972836
3452	-0.139871316220452
3453	-0.139698581938956
3454	-0.140138464270716
3455	-0.140745716465292
3456	-0.140631990789276
3457	-0.139985578338336
3458	-0.139728622683564
3459	-0.140125053224016
3460	-0.140629845021804
3461	-0.140506999834032
3462	-0.139903502732532
3463	-0.13951994679691201
3464	-0.139740960846528
3465	-0.140258627249148
3466	-0.140111105735448
3467	-0.139357941352776
3468	-0.139102595023608
3469	-0.13965727591512
3470	-0.140108423526108
3471	-0.139938371453952
3472	-0.13943197033056
3473	-0.139293568328616
3474	-0.139825182219804
3475	-0.140370207157692
3476	-0.140298860389248
3477	-0.139706628566976
3478	-0.13944538137726
3479	-0.139867024685508
3480	-0.140298860389248
3481	-0.140049414920628
3482	-0.139459865307696
3483	-0.139331655701244
3484	-0.13987989929034
3485	-0.140541868555452
3486	-0.140398102134828
3487	-0.139917986662968
3488	-0.1397833397541
3489	-0.139909940034948
3490	-0.140259700132884
3491	-0.140180843178288
3492	-0.139608459705132
3493	-0.13940783044650001
3494	-0.139875607755396
3495	-0.140503244740956
3496	-0.14047534976382
3497	-0.139799969452008
3498	-0.139543013797236
3499	-0.140076773455896
3500	-0.140560644020832
3501	-0.140331583343196
3502	-0.139765637172456
3503	-0.1395821740536
3504	-0.139862196708696
3505	-0.140379863111316
3506	-0.14031709941276
3507	-0.139737205753452
3508	-0.139568226565032
3509	-0.140221076318388
3510	-0.140729623209252
3511	-0.140390591948676
3512	-0.139754908335096
3513	-0.139587002030412
3514	-0.140029030129644
3515	-0.140446918344816
3516	-0.140176551643344
3517	-0.139647619961496
3518	-0.139362769329588
3519	-0.139702337032032
3520	-0.140340166413084
3521	-0.14037128004142801
3522	-0.139843421243316
3523	-0.139544086680972
3524	-0.140101986223692
3525	-0.140747325790896
3526	-0.140326755366384
3527	-0.139475422121868
3528	-0.139154093442936
3529	-0.139634208914796
3530	-0.140222149202124
3531	-0.14005960731612
3532	-0.139529602750536
3533	-0.13934345742234
3534	-0.139780121102892
3535	-0.140178697410816
3536	-0.140103595549296
3537	-0.139722185381148
3538	-0.139507608633948
3539	-0.139670150519952
3540	-0.140029030129644
3541	-0.139935152802744
3542	-0.139478640773076
3543	-0.139242606351156
3544	-0.139663176775668
3545	-0.140116470154128
3546	-0.139993088524488
3547	-0.139435725423636
3548	-0.13937564393442
3549	-0.140000062268772
3550	-0.140591757649176
3551	-0.140452282763496
3552	-0.139766710056192
3553	-0.139576273193052
3554	-0.140120761689072
3555	-0.140613215323896
3556	-0.140403466553508
3557	-0.139663176775668
3558	-0.139403538911556
3559	-0.139901893406928
3560	-0.140484469275576
3561	-0.14036269697154
3562	-0.139706092125108
3563	-0.139569835890636
3564	-0.1401052048749
3565	-0.140531139718092
3566	-0.140265064551564
3567	-0.139707701450712
3568	-0.139557497727672
3569	-0.13997645882658
3570	-0.140401320786036
3571	-0.140289740877492
3572	-0.13983805682463601
3573	-0.139762954963116
3574	-0.140240388225636
3575	-0.140636818766088
3576	-0.140386300413732
3577	-0.139664249659404
3578	-0.139411049097708
3579	-0.139978604594052
3580	-0.140513437136448
3581	-0.14038951906494
3582	-0.139997380059432
3583	-0.139923887523516
3584	-0.14030905278474
3585	-0.14059604918412
3586	-0.14039756569296
3587	-0.139809625405632
3588	-0.139617579216888
3589	-0.139923887523516
3590	-0.140350358808576
3591	-0.140323536715176
3592	-0.139860587383092
3593	-0.139696972613352
3594	-0.140054779339308
3595	-0.140542941439188
3596	-0.140420096251416
3597	-0.139813380498708
3598	-0.1395821740536
3599	-0.139977531710316
3600	-0.140482859949972
3601	-0.140429215763172
3602	-0.139884727267152
3603	-0.139506535750212
3604	-0.139883117941548
3605	-0.14042277846075601
3606	-0.140308516342872
3607	-0.139802651661348
3608	-0.139592366449092
3609	-0.140031175897116
3610	-0.14057995592808
3611	-0.14036806139022
3612	-0.139768319381796
3613	-0.139736132869716
3614	-0.140240924667504
3615	-0.14059390341664801
3616	-0.140349822366708
3617	-0.139830546638484
3618	-0.139647619961496
3619	-0.139969485082296
3620	-0.140401320786036
3621	-0.140311198552212
3622	-0.139830546638484
3623	-0.13976080919564401
3624	-0.1401856711551
3625	-0.140526848183148
3626	-0.14028223069134
3627	-0.139685170892256
3628	-0.139460938191432
3629	-0.13986380603430001
3630	-0.140326218924516
3631	-0.140285985784416
3632	-0.139831083080352
3633	-0.13985307719694
3634	-0.14039756569296
3635	-0.140751080883972
3636	-0.14048607860118
3637	-0.139877753522868
3638	-0.139537112936688
3639	-0.139908867151212
3640	-0.140317635854628
3641	-0.140157239736096
3642	-0.139534430727348
3643	-0.13935955067838
3644	-0.1399979165013
3645	-0.140549915183472
3646	-0.140473740438216
3647	-0.139937298570216
3648	-0.139608459705132
3649	-0.139976995268448
3650	-0.140495198112936
3651	-0.140424924228228
3652	-0.13990672138374
3653	-0.139745252381472
3654	-0.140160994829172
3655	-0.140717821488156
3656	-0.140716212162552
3657	-0.140199618643668
3658	-0.139890091685832
3659	-0.140237169574428
3660	-0.140729623209252
3661	-0.14063091790554
3662	-0.140057461548648
3663	-0.139685170892256
3664	-0.139885800150888
3665	-0.1403734258089
3666	-0.140166359247852
3667	-0.139574663867448
3668	-0.139493124703512
3669	-0.139855222964412
3670	-0.140170650782796
3671	-0.140213029690368
3672	-0.139927642616592
3673	-0.13988794591836
3674	-0.140312271435948
3675	-0.140729086767384
3676	-0.140520410880732
3677	-0.139841275475844
3678	-0.13954730533218
3679	-0.139945345198236
3680	-0.140390055506808
3681	-0.14026077301662
3682	-0.139743643055868
3683	-0.139518337471308
3684	-0.139938371453952
3685	-0.140475886205688
3686	-0.140387373297468
3687	-0.139867024685508
3688	-0.139531748518008
3689	-0.140057997990516
3690	-0.140609996672688
3691	-0.140316562970892
3692	-0.139796214358932
3693	-0.139590757123488
3694	-0.140030639455248
3695	-0.140611605998292
3696	-0.140463011600856
3697	-0.139781193986628
3698	-0.139406757562764
3699	-0.139790849940252
3700	-0.140332119785064
3701	-0.14029564173804
3702	-0.139639036891608
3703	-0.13935150405036
3704	-0.139857368731884
3705	-0.140544550764792
3706	-0.140504317624692
3707	-0.139858978057488
3708	-0.139687316659728
3709	-0.14028223069134
3710	-0.140701191790248
3711	-0.140399711460432
3712	-0.139801042335744
3713	-0.139673905613028
3714	-0.140162067712908
3715	-0.14066578662696
3716	-0.140483932833708
3717	-0.139862196708696
3718	-0.13964869284523201
3719	-0.14013041764269601
3720	-0.14077039279122
3721	-0.140609996672688
3722	-0.13999255208262001
3723	-0.139840739033976
3724	-0.140351431692312
3725	-0.140744107139688
3726	-0.140616433975104
3727	-0.1401320269683
3728	-0.139762954963116
3729	-0.140081601432708
3730	-0.140532749043696
3731	-0.140399711460432
3732	-0.139828400871012
3733	-0.139624552961172
3734	-0.140069263269744
3735	-0.140513973578316
3736	-0.140358405436596
3737	-0.1398369839409
3738	-0.139665858985008
3739	-0.140135245619508
3740	-0.14064969337092
3741	-0.140454964972836
3742	-0.139950709616916
3743	-0.139824109336068
3744	-0.140228050062672
3745	-0.140775220768032
3746	-0.14074088848848001
3747	-0.140199618643668
3748	-0.139893846778908
3749	-0.139986651222072
3750	-0.140522556648204
3751	-0.14050002608974801
3752	-0.139994161408224
3753	-0.13972701335796
3754	-0.140082137874576
3755	-0.140470521787008
3756	-0.140354113901652
3757	-0.139962511338012
3758	-0.139774220242344
3759	-0.139893846778908
3760	-0.140383618204392
3761	-0.140328364691988
3762	-0.13979943301014
3763	-0.139568226565032
3764	-0.140011863989868
3765	-0.140406148762848
3766	-0.140192108457516
3767	-0.139679806473576
3768	-0.139490442494172
3769	-0.139996843617564
3770	-0.140472131112612
3771	-0.140350358808576
3772	-0.139804260986952
3773	-0.139679806473576
3774	-0.14030100615672
3775	-0.140857296373836
3776	-0.14067919767366
3777	-0.139988796989544
3778	-0.139510827285156
3779	-0.139927106174724
3780	-0.140471594670744
3781	-0.140371816483296
3782	-0.139831083080352
3783	-0.139600413077112
3784	-0.139982359687128
3785	-0.140642719626636
3786	-0.140632527231144
3787	-0.140186207596968
3788	-0.140119688805336
3789	-0.140449600554156
3790	-0.140976386468532
3791	-0.140718894371892
3792	-0.140047805595024
3793	-0.139829473754748
3794	-0.140152948201152
3795	-0.140629845021804
3796	-0.140548305857868
3797	-0.139980750361524
3798	-0.13968356156665201
3799	-0.139983969012732
3800	-0.140274720505188
3801	-0.140037613199532
3802	-0.139518873913176
3803	-0.139401929585952
3804	-0.139934079919008
3805	-0.140434580181852
3806	-0.140251653504864
3807	-0.139666395426876
3808	-0.139684634450388
3809	-0.140462475158988
3810	-0.14098926107336401
3811	-0.140684025650472
3812	-0.140084820083916
3813	-0.139987724105808
3814	-0.140487151484916
3815	-0.140831547164172
3816	-0.140597122067856
3817	-0.140033858106456
3818	-0.139880435732208
3819	-0.140305297691664
3820	-0.140607314463348
3821	-0.14039702925109201
3822	-0.139905112058136
3823	-0.139569299448768
3824	-0.139875071313528
3825	-0.140340702854952
3826	-0.140306907017268
3827	-0.139740960846528
3828	-0.13945932886582801
3829	-0.139897065430116
3830	-0.140295105296172
3831	-0.14006765394414
3832	-0.139573590983712
3833	-0.139588074914148
3834	-0.140182452503892
3835	-0.14055849825336
3836	-0.140438871716796
3837	-0.13999255208262001
3838	-0.13968678021786
3839	-0.140127198991488
3840	-0.140811162373188
3841	-0.140753226651444
3842	-0.140097694688748
3843	-0.139665858985008
3844	-0.140052633571836
3845	-0.140641110301032
3846	-0.140485542159312
3847	-0.139942662988896
3848	-0.139824109336068
3849	-0.14028491290068001
3850	-0.140765564814408
3851	-0.140580492369948
3852	-0.1399845054546
3853	-0.139835911057164
3854	-0.140252189946732
3855	-0.140709238418268
3856	-0.140640037417296
3857	-0.140243070434976
3858	-0.140120225247204
3859	-0.140399711460432
3860	-0.14073820627914
3861	-0.14063896453356
3862	-0.140063898851064
3863	-0.139757054102568
3864	-0.140039222525136
3865	-0.140390055506808
3866	-0.140289740877492
3867	-0.13979138638212
3868	-0.139724867590488
3869	-0.140251117062996
3870	-0.140696900255304
3871	-0.140557961811492
3872	-0.139970021524164
3873	-0.139842884801448
3874	-0.140460329391516
3875	-0.141074555330376
3876	-0.140882509141632
3877	-0.140200155085536
3878	-0.139824645777936
3879	-0.140229122946408
3880	-0.140699046022776
3881	-0.140666859510696
3882	-0.14009984045622
3883	-0.139749007474548
3884	-0.140206592387952
3885	-0.140659349324544
3886	-0.14050217185722
3887	-0.139795677917064
3888	-0.139506535750212
3889	-0.13993354347714
3890	-0.140554743160284
3891	-0.140530603276224
3892	-0.139956610477464
3893	-0.139788167730912
3894	-0.140328901133856
3895	-0.14073176897672401
3896	-0.140584783904892
3897	-0.140142219363792
3898	-0.139985041896468
3899	-0.14029403241243601
3900	-0.140701728232116
3901	-0.140483932833708
3902	-0.139818744917388
3903	-0.139580028286128
3904	-0.14011056929358
3905	-0.140555279602152
3906	-0.140407758088452
3907	-0.139784412637836
3908	-0.13967444205489601
3909	-0.140093939595672
3910	-0.140685098534208
3911	-0.140584783904892
3912	-0.140062825967328
3913	-0.139861660266828
3914	-0.140432970856248
3915	-0.1410305670972
3916	-0.140780048744844
3917	-0.1401990822018
3918	-0.140019910617888
3919	-0.140347676599236
3920	-0.140774147884296
3921	-0.140741961372216
3922	-0.140145974456868
3923	-0.139761345637512
3924	-0.140177088085212
3925	-0.140648084045316
3926	-0.140497343880408
3927	-0.139903502732532
3928	-0.139706092125108
3929	-0.140262918784092
3930	-0.140808480163848
3931	-0.140788095372864
3932	-0.140303151924192
3933	-0.140135245619508
3934	-0.14047803197316
3935	-0.14083744802472
3936	-0.14066042220828
3937	-0.140152948201152
3938	-0.139985041896468
3939	-0.140392737716148
3940	-0.1408964566302
3941	-0.140760736837596
3942	-0.140147583782472
3943	-0.139722185381148
3944	-0.13996841219856
3945	-0.140594976300384
3946	-0.14063896453356
3947	-0.140081601432708
3948	-0.139870243336716
3949	-0.140377180901976
3950	-0.140878754048556
3951	-0.140808480163848
3952	-0.140456037856572
3953	-0.140343385064292
3954	-0.140409903855924
3955	-0.140686707859812
3956	-0.140590148323572
3957	-0.140119152363468
3958	-0.140006499571188
3959	-0.140534894811168
3960	-0.14106811802796
3961	-0.140764491930672
3962	-0.140147583782472
3963	-0.140117006595996
3964	-0.140534894811168
3965	-0.140847640420212
3966	-0.140759127511992
3967	-0.140244143318712
3968	-0.139980750361524
3969	-0.140361087645936
3970	-0.140640037417296
3971	-0.140487151484916
3972	-0.139958219803068
3973	-0.139750616800152
3974	-0.140285985784416
3975	-0.140945809282056
3976	-0.140804725070772
3977	-0.140077846339632
3978	-0.139930324825932
3979	-0.140512364252712
3980	-0.141004817887536
3981	-0.140831547164172
3982	-0.140245752644316
3983	-0.139894383220776
3984	-0.140289740877492
3985	-0.14088036337416
3986	-0.140856759931968
3987	-0.140425460670096
3988	-0.140084283642048
3989	-0.14035196813418
3990	-0.14088626423470801
3991	-0.140908258351296
3992	-0.140326218924516
3993	-0.14011593371226
3994	-0.140565471997644
3995	-0.1408964566302
3996	-0.140795069117148
3997	-0.140331046901328
3998	-0.140075164130292
3999	-0.140538649904244
4000	-0.140934544002828
4001	-0.14075161732584
4002	-0.140096621805012
4003	-0.139819817801124
4004	-0.140280084923868
4005	-0.140780585186712
4006	-0.14065773999894
4007	-0.140017228408548
4008	-0.139856295848148
4009	-0.14043243441438
4010	-0.141021984027312
4011	-0.140798287768356
4012	-0.140111642177316
4013	-0.140060680199856
4014	-0.140505926950296
4015	-0.140928106700412
4016	-0.140789704698468
4017	-0.14016689568972
4018	-0.139965193547352
4019	-0.140357868994728
4020	-0.140703873999588
4021	-0.140509682043372
4022	-0.139894383220776
4023	-0.139691608194672
4024	-0.140226440737068
4025	-0.140680806999264
4026	-0.140521483764468
4027	-0.140024202152832
4028	-0.13996680287295601
4029	-0.140304224807928
4030	-0.140646474719712
4031	-0.140576200835004
4032	-0.14010466843303201
4033	-0.139922278197912
4034	-0.140395419925488
4035	-0.141046123911372
4036	-0.140892165095256
4037	-0.140338020645612
4038	-0.140187816922572
4039	-0.140567617765116
4040	-0.140858369257572
4041	-0.140542941439188
4042	-0.139980750361524
4043	-0.139841811917712
4044	-0.140171723666532
4045	-0.140681343441132
4046	-0.140752153767708
4047	-0.140247898411788
4048	-0.140012400431736
4049	-0.140578346602476
4050	-0.141171651308484
4051	-0.140991406840836
4052	-0.140414195390868
4053	-0.140253799272336
4054	-0.140720503697496
4055	-0.141124980865968
4056	-0.14079453267528
4057	-0.140126126107752
4058	-0.139947490965708
4059	-0.140359478320332
4060	-0.140969412724248
4061	-0.140894310862728
4062	-0.14018298894576
4063	-0.139883117941548
4064	-0.140214639015972
4065	-0.140819209001208
4066	-0.140812771698792
4067	-0.139959829128672
4068	-0.139523701889988
4069	-0.140033321664588
4070	-0.140776293651768
4071	-0.140894847304596
4072	-0.140303151924192
4073	-0.140096621805012
4074	-0.14062877213806801
4075	-0.141127663075308
4076	-0.140961902538096
4077	-0.14020766527168801
4078	-0.139950709616916
4079	-0.14041365894900001
4080	-0.140829937838568
4081	-0.14059068476544
4082	-0.14010466843303201
4083	-0.140113787944788
4084	-0.140577810160608
4085	-0.140935616886564
4086	-0.140807407280112
4087	-0.140356796110992
4088	-0.140221612760256
4089	-0.140660958650148
4090	-0.140966730514908
4091	-0.140776293651768
4092	-0.140242533993108
4093	-0.139916913779232
4094	-0.140300469714852
4095	-0.140929716026016
4096	-0.140917377863052
4097	-0.140149729549944
4098	-0.139844494127052
4099	-0.140366452064616
4100	-0.14084388532713601
4101	-0.140777902977372
4102	-0.140310125668476
4103	-0.140025275036568
4104	-0.14037879022758
4105	-0.1409098676769
4106	-0.140795069117148
4107	-0.140133636293904
4108	-0.139983969012732
4109	-0.140449600554156
4110	-0.140927033816676
4111	-0.140734451186064
4112	-0.140144901573132
4113	-0.140018837734152
4114	-0.14059873139346
4115	-0.1410439781439
4116	-0.140875535397348
4117	-0.140333729110668
4118	-0.14004405050194801
4119	-0.140533285485564
4120	-0.141061144283676
4121	-0.14099301616644
4122	-0.140338020645612
4123	-0.14014704734060401
4124	-0.14064701116158
4125	-0.140950637258868
4126	-0.140721576581232
4127	-0.14032246383144
4128	-0.140182452503892
4129	-0.14061214244016
4130	-0.141149120750028
4131	-0.141041832376428
4132	-0.140351431692312
4133	-0.140084820083916
4134	-0.140481787066236
4135	-0.140811162373188
4136	-0.140643792510372
4137	-0.140118079479732
4138	-0.139905648500004
4139	-0.14037128004142801
4140	-0.141063290051148
4141	-0.141232805681436
4142	-0.140714602836948
4143	-0.140504317624692
4144	-0.140980141561608
4145	-0.141341166938772
4146	-0.141145365656952
4147	-0.140512364252712
4148	-0.140226440737068
4149	-0.140539186346112
4150	-0.14110137742377601
4151	-0.14111908000542
4152	-0.140601950044668
4153	-0.140333729110668
4154	-0.140865879443724
4155	-0.14128269477516
4156	-0.14098228732908
4157	-0.140385763971864
4158	-0.140256481481676
4159	-0.140717285046288
4160	-0.141112106261136
4161	-0.140822427652416
4162	-0.140142219363792
4163	-0.139943735872632
4164	-0.14039702925109201
4165	-0.141018228934236
4166	-0.140908794793164
4167	-0.140255945039808
4168	-0.140006499571188
4169	-0.140433507298116
4170	-0.140951710142604
4171	-0.140931861793488
4172	-0.140461402275252
4173	-0.140267746760904
4174	-0.140679734115528
4175	-0.141324000798996
4176	-0.141079919749056
4177	-0.140229659388276
4178	-0.140151875317416
4179	-0.140545623648528
4180	-0.1410171560505
4181	-0.141013937399292
4182	-0.14052577529941201
4183	-0.140142219363792
4184	-0.140476422647556
4185	-0.1410976223307
4186	-0.141106741842456
4187	-0.14063628232422
4188	-0.14055849825336
4189	-0.141019301817972
4190	-0.141413586590952
4191	-0.14098496953842
4192	-0.14016689568972
4193	-0.140057997990516
4194	-0.140565471997644
4195	-0.141063826493016
4196	-0.141013400957424
4197	-0.140534894811168
4198	-0.140332119785064
4199	-0.140687780743548
4200	-0.14123012347209601
4201	-0.141012864515556
4202	-0.140529530392488
4203	-0.140420096251416
4204	-0.140865879443724
4205	-0.141365306822832
4206	-0.1411110333774
4207	-0.14052899395062
4208	-0.140364842739012
4209	-0.140841203117796
4210	-0.141324000798996
4211	-0.141280549007688
4212	-0.14068724430168
4213	-0.14029403241243601
4214	-0.140724258790572
4215	-0.141274111705272
4216	-0.14113624614519601
4217	-0.140636818766088
4218	-0.14049144301986
4219	-0.140802042861432
4220	-0.14110835116806
4221	-0.140969412724248
4222	-0.140412049623396
4223	-0.14023395092322
