0	-0.128824368832728
1	-0.129490093190916
2	-0.129810348986112
3	-0.129436449004116
4	-0.128917173275892
5	-0.128733710157036
6	-0.129235283303616
7	-0.129838243963248
8	-0.129691795333284
9	-0.129038945579928
10	-0.128948823346104
11	-0.129608110401876
12	-0.130169765037672
13	-0.129744366636348
14	-0.128886059647548
15	-0.128763214459776
16	-0.129448250725212
17	-0.13014616159548
18	-0.130059258012864
19	-0.129286245281076
20	-0.128835097670088
21	-0.129331842839856
22	-0.129785672660184
23	-0.129428402376096
24	-0.128911808857212
25	-0.128960088625332
26	-0.12939514298028001
27	-0.129951433197396
28	-0.129848972800608
29	-0.129188076419232
30	-0.129004076858508
31	-0.129792646404468
32	-0.130486265739792
33	-0.130284027155556
34	-0.12970627926372
35	-0.129479364353556
36	-0.129817322730396
37	-0.130214826154584
38	-0.12984307194006
39	-0.129101172836616
40	-0.129047528649816
41	-0.129711107240532
42	-0.130219654131396
43	-0.130075887710772
44	-0.12944664139960801
45	-0.129221872256916
46	-0.129718080984816
47	-0.130385414668608
48	-0.130102709804172
49	-0.129358664933256
50	-0.129190222186704
51	-0.129719153868552
52	-0.130169765037672
53	-0.129844144823796
54	-0.129098490627276
55	-0.128961697950936
56	-0.129618302797368
57	-0.130161718409652
58	-0.130034045245068
59	-0.12936563867754
60	-0.129089907557388
61	-0.129579678982872
62	-0.13008286145505601
63	-0.129913882266636
64	-0.12923152821054001
65	-0.129212216303292
66	-0.130006150267932
67	-0.130450324134636
68	-0.1298591651961
69	-0.129079178720028
70	-0.129060939696516
71	-0.129701987728776
72	-0.130262033038968
73	-0.130050138501108
74	-0.129300192769644
75	-0.129020706556416
76	-0.12958450695968401
77	-0.130126313246364
78	-0.12989403391752
79	-0.129293755467228
80	-0.129293755467228
81	-0.130065158873412
82	-0.130502358995832
83	-0.130178884549428
84	-0.129390315003468
85	-0.129240111280428
86	-0.130021707082104
87	-0.13067455683546
88	-0.130260423713364
89	-0.12926371472262
90	-0.129015342137736
91	-0.129725591170968
92	-0.130342499319168
93	-0.130094126734284
94	-0.129305557188324
95	-0.129046992207948
96	-0.129724518287232
97	-0.13041438252948
98	-0.130159036200312
99	-0.129421428631812
100	-0.129255131652732
101	-0.129772798055352
102	-0.130148307362952
103	-0.129938022150696
104	-0.129357055607652
105	-0.12913228646496
106	-0.129808739660508
107	-0.130447105483428
108	-0.130050674942976
109	-0.129275516443716
110	-0.129127458488148
111	-0.129787818427656
112	-0.130402044366516
113	-0.130046383408032
114	-0.129265324048224
115	-0.129199878140328
116	-0.129855946544892
117	-0.130286709364896
118	-0.130002395174856
119	-0.129310385165136
120	-0.12915428058154801
121	-0.129661218146808
122	-0.130228773643152
123	-0.130000785849252
124	-0.129209534093952
125	-0.129021779440152
126	-0.129673019867904
127	-0.130400435040912
128	-0.130219117689528
129	-0.129495994051464
130	-0.129104927929692
131	-0.129553929773208
132	-0.130061940222204
133	-0.129933730615752
134	-0.12943752188785201
135	-0.129371539538088
136	-0.12989349747565201
137	-0.130442813948484
138	-0.130144015828008
139	-0.129285708839208
140	-0.129066304115196
141	-0.129586652727156
142	-0.130059794454732
143	-0.129909590731692
144	-0.129269615583168
145	-0.129148379721
146	-0.129890278824444
147	-0.13047875555364
148	-0.130073205501432
149	-0.129222945140652
150	-0.129138723767376
151	-0.129850045684344
152	-0.130311922132692
153	-0.129959479825416
154	-0.129325941979308
155	-0.129213289187028
156	-0.129970208662776
157	-0.130587116810976
158	-0.130278662736876
159	-0.129315213141948
160	-0.129065767673328
161	-0.129736320008328
162	-0.130259350829628
163	-0.129942850127508
164	-0.129307702955796
165	-0.129229918884936
166	-0.129909590731692
167	-0.130400435040912
168	-0.129989520570024
169	-0.129406944701376
170	-0.129423037957416
171	-0.12989349747565201
172	-0.130188004061184
173	-0.129926756871468
174	-0.129428938817964
175	-0.129349008979632
176	-0.129929975522676
177	-0.130441741064748
178	-0.129949287429924
179	-0.129273370676244
180	-0.129151598372208
181	-0.129708425031192
182	-0.130236283829304
183	-0.130024925733312
184	-0.129315213141948
185	-0.129199878140328
186	-0.129887596615104
187	-0.130351618830924
188	-0.129966990011568
189	-0.12934686321216
190	-0.129276052885584
191	-0.129945532336848
192	-0.130407408785196
193	-0.130043701198692
194	-0.129362420026332
195	-0.129232064652408
196	-0.129889742382576
197	-0.130300120411596
198	-0.129760996334256
199	-0.129106000813428
200	-0.129294291909096
201	-0.130023852849576
202	-0.130292073783576
203	-0.130002395174856
204	-0.129360810700728
205	-0.129160717883964
206	-0.129845217707532
207	-0.13037683159872
208	-0.130136505641856
209	-0.129409090468848
210	-0.129300192769644
211	-0.129959479825416
212	-0.130405799459592
213	-0.130089298757472
214	-0.129339353026008
215	-0.129200414582196
216	-0.12984199905632401
217	-0.13048411997232
218	-0.130223409224472
219	-0.129434303236644
220	-0.129152134814076
221	-0.129779771799636
222	-0.130292073783576
223	-0.130072669059564
224	-0.129414454887528
225	-0.129256204536468
226	-0.129986301918816
227	-0.130557612508236
228	-0.130180493875032
229	-0.129457906678836
230	-0.129287318164812
231	-0.129948214546188
232	-0.130657390695684
233	-0.130436376646068
234	-0.129689113123944
235	-0.129627958750992
236	-0.130142406502404
237	-0.130436376646068
238	-0.130007223151668
239	-0.129391924329072
240	-0.129347936095896
241	-0.129820004939736
242	-0.130181566758768
243	-0.129851655009948
244	-0.129225627349992
245	-0.129174665372532
246	-0.129836634637644
247	-0.130479828437376
248	-0.130109683548456
249	-0.129389242119732
250	-0.129335597932932
251	-0.129955188290472
252	-0.13037146718004
253	-0.130104319129776
254	-0.129535154307828
255	-0.129429475259832
256	-0.130003468058592
257	-0.130484656414188
258	-0.13024272113172
259	-0.129374758189296
260	-0.128986374276864
261	-0.129673556309772
262	-0.130331770481808
263	-0.130045310524296
264	-0.129272834234376
265	-0.129008368393452
266	-0.129823760032812
267	-0.130439058855408
268	-0.130104319129776
269	-0.129170910279456
270	-0.128970817462692
271	-0.129719153868552
272	-0.130153671781632
273	-0.129791573520732
274	-0.1291215576276
275	-0.129136577999904
276	-0.129798010823148
277	-0.13026954322512
278	-0.130009905361008
279	-0.129361347142596
280	-0.129152134814076
281	-0.129869357591592
282	-0.130538300600988
283	-0.13014884380482
284	-0.129361883584464
285	-0.129321114002496
286	-0.129993812104968
287	-0.13045246990210801
288	-0.129964307802228
289	-0.129155889907152
290	-0.129099027069144
291	-0.129737929333932
292	-0.130420819831896
293	-0.130233601619964
294	-0.12944664139960801
295	-0.129374221747428
296	-0.130023852849576
297	-0.130447641925296
298	-0.129846827033136
299	-0.129068986324536
300	-0.129058257487176
301	-0.129857555870496
302	-0.130520061577476
303	-0.130317286551372
304	-0.129433766794776
305	-0.129299119885908
306	-0.13000132229112
307	-0.130564049810652
308	-0.130235747387436
309	-0.129567340819908
310	-0.129589334936496
311	-0.130161181967784
312	-0.13055546674076401
313	-0.130275980527536
314	-0.129537836517168
315	-0.129350081863368
316	-0.129846827033136
317	-0.130442277506616
318	-0.130260960155232
319	-0.129488483865312
320	-0.129307702955796
321	-0.1298591651961
322	-0.130346790854112
323	-0.13003136303572801
324	-0.12943269391104
325	-0.129291609699756
326	-0.129777626032164
327	-0.130281881388084
328	-0.130101100478568
329	-0.129511014423768
330	-0.129322186886232
331	-0.129894570359388
332	-0.130534545507912
333	-0.130292610225444
334	-0.129407481143244
335	-0.12921811716384
336	-0.130016879105292
337	-0.130569414229332
338	-0.130236820271172
339	-0.12954802891266
340	-0.129296437676568
341	-0.129770115846012
342	-0.130341426435432
343	-0.129953578964868
344	-0.129221872256916
345	-0.129339353026008
346	-0.130086616548132
347	-0.130550638763952
348	-0.130124167478892
349	-0.12940587181764
350	-0.129397288747752
351	-0.129940167918168
352	-0.130292073783576
353	-0.130047456291768
354	-0.129367784445012
355	-0.129358664933256
356	-0.129987374802552
357	-0.130514160716928
358	-0.130184785409976
359	-0.12944664139960801
360	-0.129331842839856
361	-0.130109683548456
362	-0.130647198300192
363	-0.130005077384196
364	-0.12916983739572
365	-0.129230455326804
366	-0.12993694926696
367	-0.130392388412892
368	-0.129934803499488
369	-0.129226700233728
370	-0.12921489851263201
371	-0.129943386569376
372	-0.130332306923676
373	-0.129983083267608
374	-0.129347399654028
375	-0.129336670816668
376	-0.130010441802876
377	-0.130514697158796
378	-0.1301542082235
379	-0.129365102235672
380	-0.129275516443716
381	-0.13010324624604
382	-0.130738393417752
383	-0.130101100478568
384	-0.129267469815696
385	-0.129321650444364
386	-0.12990208054554
387	-0.130259887271496
388	-0.129964307802228
389	-0.129447714283344
390	-0.129467026190592
391	-0.1299128093829
392	-0.130355910365868
393	-0.13003136303572801
394	-0.129424110841152
395	-0.129338280142272
396	-0.129968599337172
397	-0.130480901321112
398	-0.13007105973396
399	-0.129405335375772
400	-0.129433766794776
401	-0.130184785409976
402	-0.130760923976208
403	-0.130310849248956
404	-0.129413382003792
405	-0.129279271536792
406	-0.130067841082752
407	-0.130687431440292
408	-0.130157963316576
409	-0.129299656327776
410	-0.129222945140652
411	-0.129998103639912
412	-0.130596236322732
413	-0.13025076775974
414	-0.129440204097192
415	-0.129328624188648
416	-0.129972354430248
417	-0.130496994577152
418	-0.129980401058268
419	-0.129134432232432
420	-0.129186467093628
421	-0.129975573081456
422	-0.130556003182632
423	-0.130185321851844
424	-0.12951852460992
425	-0.129547492470792
426	-0.130192295596128
427	-0.130715326417428
428	-0.130404190133988
429	-0.129752949706236
430	-0.129753486148104
431	-0.13049216660034
432	-0.13087304032662
433	-0.130421892715632
434	-0.129679993612188
435	-0.129605428192536
436	-0.130191222712392
437	-0.130529181089232
438	-0.130075351268904
439	-0.129240111280428
440	-0.129215971396368
441	-0.129956261174208
442	-0.130515770042532
443	-0.130163864177124
444	-0.1294568337951
445	-0.129329160630516
446	-0.13002277996584
447	-0.130507723414512
448	-0.130216435480188
449	-0.129693941100756
450	-0.129701451286908
451	-0.130483047088584
452	-0.130928830280892
453	-0.130480364879244
454	-0.129651025751316
455	-0.129605428192536
456	-0.130457834320788
457	-0.131039873747568
458	-0.130541519252196
459	-0.129526034796072
460	-0.129337207258536
461	-0.130097345385492
462	-0.130542592135932
463	-0.130125776804496
464	-0.129366175119408
465	-0.129445568515872
466	-0.130184248968108
467	-0.130598382090204
468	-0.13007910636198
469	-0.129310385165136
470	-0.129375294631164
471	-0.129955188290472
472	-0.130334989133016
473	-0.129997030756176
474	-0.12934686321216
475	-0.129422501515548
476	-0.130315677225768
477	-0.130911664141116
478	-0.130650953393268
479	-0.130001858732988
480	-0.129910663615428
481	-0.1306638279981
482	-0.131160573167868
483	-0.130595163438996
484	-0.129827515125888
485	-0.12972773693844
486	-0.130447641925296
487	-0.131016270305376
488	-0.130565122694388
489	-0.129634396053408
490	-0.129397288747752
491	-0.13008286145505601
492	-0.130505041205172
493	-0.130107537780984
494	-0.129565195052436
495	-0.1297250547291
496	-0.130464808065072
497	-0.13065578137008
498	-0.12990208054554
499	-0.129255131652732
500	-0.129350618305236
501	-0.130137042083724
502	-0.130785063860268
503	-0.130422965599368
504	-0.129690722449548
505	-0.129684285147132
506	-0.130432085111124
507	-0.130819932581688
508	-0.130217508363924
509	-0.129528180563544
510	-0.129730955589648
511	-0.130525962438024
512	-0.130913809908588
513	-0.130518452251872
514	-0.129838243963248
515	-0.12976260565986
516	-0.130228773643152
517	-0.130750731580716
518	-0.130298511085992
519	-0.12943537612038
520	-0.129515305958712
521	-0.130335525574884
522	-0.130903081071228
523	-0.130506114088908
524	-0.129787281985788
525	-0.129785136218316
526	-0.130372003621908
527	-0.130792037604552
528	-0.130453542785844
529	-0.129802302358092
530	-0.129782454008976
531	-0.130344108644772
532	-0.13061823043932
533	-0.130226091433812
534	-0.129613474820556
535	-0.129630104518464
536	-0.130398825715308
537	-0.13094814218814
538	-0.130534545507912
539	-0.12975455903184
540	-0.129718080984816
541	-0.130421892715632
542	-0.130832270744652
543	-0.130517915810004
544	-0.129859701637968
545	-0.129913882266636
546	-0.130605892276356
547	-0.131036118654492
548	-0.130591944787788
549	-0.12986774826598801
550	-0.129863993172912
551	-0.130589262578448
552	-0.130821541907292
553	-0.130280808504348
554	-0.129667655449224
555	-0.129743293752612
556	-0.13044335039035201
557	-0.130847291116956
558	-0.130333379807412
559	-0.12958826205276
560	-0.129629568076596
561	-0.130534009066044
562	-0.13108868995755601
563	-0.130518452251872
564	-0.129517988168052
565	-0.129536763633432
566	-0.130374685831248
567	-0.130865530140468
568	-0.13038756043608
569	-0.129675165635376
570	-0.129763142101728
571	-0.130483047088584
572	-0.130819932581688
573	-0.130154744665368
574	-0.129419819306208
575	-0.129559294191888
576	-0.130503431879568
577	-0.131109611190408
578	-0.13043852241354
579	-0.129485801655972
580	-0.129516378842448
581	-0.13034947306345201
582	-0.130884305605848
583	-0.130450324134636
584	-0.129873112684668
585	-0.130056039361656
586	-0.130468563158148
587	-0.1305565396245
588	-0.130201951549752
589	-0.129700378403172
590	-0.129844144823796
591	-0.130442277506616
592	-0.13066919241678
593	-0.130292610225444
594	-0.129648343541976
595	-0.129606501076272
596	-0.130241111806116
597	-0.130592481229656
598	-0.130243257573588
599	-0.129641369797692
600	-0.129671946984168
601	-0.1303419628773
602	-0.13070996199874801
603	-0.130351618830924
604	-0.129779771799636
605	-0.129882768638292
606	-0.13059140834592
607	-0.13087572253596
608	-0.130341426435432
609	-0.129623667216048
610	-0.129670874100432
611	-0.130387023994212
612	-0.130825833442236
613	-0.130366639203228
614	-0.129707352147456
615	-0.129809276102376
616	-0.13049216660034
617	-0.130736784092148
618	-0.130181566758768
619	-0.129590407820232
620	-0.129644052007032
621	-0.1304090181108
622	-0.1308784047453
623	-0.130407945227064
624	-0.129733637798988
625	-0.129851655009948
626	-0.13070996199874801
627	-0.13110102812052
628	-0.130420819831896
629	-0.129732564915252
630	-0.129905835638616
631	-0.130657390695684
632	-0.130742148510828
633	-0.13016010908404801
634	-0.129594699355176
635	-0.129673019867904
636	-0.130448714809032
637	-0.130863920814864
638	-0.13026417880644
639	-0.129592017145836
640	-0.129715935217344
641	-0.130402044366516
642	-0.130833880070256
643	-0.130462125855732
644	-0.129846290591268
645	-0.130015806221556
646	-0.13063271436975601
647	-0.130861775047392
648	-0.13034464508664
649	-0.129669801216696
650	-0.129765824311068
651	-0.130466953832544
652	-0.13083548939586
653	-0.130444423274088
654	-0.129851655009948
655	-0.129834488870172
656	-0.130408481668932
657	-0.1308113495118
658	-0.13041760118068801
659	-0.129822150707208
660	-0.12995411540673601
661	-0.130674020393592
662	-0.131221191098952
663	-0.130863920814864
664	-0.130197660014808
665	-0.129876331335876
666	-0.13037683159872
667	-0.130753950231924
668	-0.130272761876328
669	-0.129567340819908
670	-0.129571632354852
671	-0.130408481668932
672	-0.130624131299868
673	-0.129992739221232
674	-0.129433766794776
675	-0.129638151146484
676	-0.13039185197102401
677	-0.130821541907292
678	-0.130476609786168
679	-0.13003082659386
680	-0.130204633759092
681	-0.130937949792648
682	-0.131246403866748
683	-0.130719617952372
684	-0.129874185568404
685	-0.12972773693844
686	-0.130514160716928
687	-0.131086544190084
688	-0.130704597580068
689	-0.130011514686612
690	-0.130120948827684
691	-0.130805448651252
692	-0.130946532862536
693	-0.130380050249928
694	-0.129726127612836
695	-0.129957334057944
696	-0.130959407467368
697	-0.131111220516012
698	-0.130145625153612
699	-0.129425183724888
700	-0.129594162913308
701	-0.130324260295656
702	-0.130732492557204
703	-0.130233065178096
704	-0.129678920728452
705	-0.129905835638616
706	-0.130574778648012
707	-0.130759314650604
708	-0.130227164317548
709	-0.129697159751964
710	-0.129835561753908
711	-0.130477146228036
712	-0.130827979209708
713	-0.13034035355169601
714	-0.129599527331988
715	-0.12953998228464
716	-0.130156353990972
717	-0.130574242206144
718	-0.130248621992268
719	-0.129821077823472
720	-0.130017951989028
721	-0.130538300600988
722	-0.130887524257056
723	-0.130251304201608
724	-0.129575923889796
725	-0.129828051567756
726	-0.130534009066044
727	-0.1307442942783
728	-0.130283490713688
729	-0.12968750379834001
730	-0.129782454008976
731	-0.130518452251872
732	-0.130853191977504
733	-0.1303687849707
734	-0.129567877261776
735	-0.129406408259508
736	-0.130117193734608
737	-0.130557612508236
738	-0.130097345385492
739	-0.129417673538736
740	-0.129532472098488
741	-0.13037414938938
742	-0.130826906325972
743	-0.130241111806116
744	-0.129568950145512
745	-0.129712716566136
746	-0.130313531458296
747	-0.130471245367488
748	-0.129976645965192
749	-0.129342571677216
750	-0.129481510121028
751	-0.130324260295656
752	-0.130998567723732
753	-0.13062359485800001
754	-0.129823223590944
755	-0.129788891311392
756	-0.130384341784872
757	-0.130716935743032
758	-0.130336062016752
759	-0.129751340380632
760	-0.129667119007356
761	-0.130442277506616
762	-0.130619839764924
763	-0.129861310963572
764	-0.129293755467228
765	-0.129540518726508
766	-0.1303419628773
767	-0.130787746069608
768	-0.130313531458296
769	-0.129662827472412
770	-0.129717544542948
771	-0.130346790854112
772	-0.130695478068312
773	-0.130293146667312
774	-0.129767433636672
775	-0.129912272941032
776	-0.130570487113068
777	-0.130992130421316
778	-0.130463735181336
779	-0.12980283879996
780	-0.129963234918492
781	-0.13056726846186
782	-0.13092507518781601
783	-0.130393997738496
784	-0.12960113665759201
785	-0.129666582565488
786	-0.130314067900164
787	-0.130685822114688
788	-0.130249158434136
789	-0.129644052007032
790	-0.12966068170494
791	-0.130273298318196
792	-0.130632177927888
793	-0.130066231757148
794	-0.129533008540356
795	-0.129815713404792
796	-0.130573705764276
797	-0.131069378050308
798	-0.130707816231276
799	-0.129872039800932
800	-0.129741684427008
801	-0.130476609786168
802	-0.130880014070904
803	-0.130337134900488
804	-0.12966068170494
805	-0.129917100917844
806	-0.130890742908264
807	-0.131341354077384
808	-0.130752877348188
809	-0.12991924668531601
810	-0.129781917567108
811	-0.130507186972644
812	-0.130810276628064
813	-0.130142942944272
814	-0.129386559910392
815	-0.12957538744792801
816	-0.130225018550076
817	-0.130440668181012
818	-0.129992739221232
819	-0.12945951600444
820	-0.129675165635376
821	-0.130539909926592
822	-0.130923465862212
823	-0.130330697598072
824	-0.129640833355824
825	-0.129806057451168
826	-0.130636469462832
827	-0.131069914492176
828	-0.130500749670228
829	-0.129664436798016
830	-0.129613474820556
831	-0.130200878666016
832	-0.130583898159768
833	-0.130216971922056
834	-0.12965531728626
835	-0.129767433636672
836	-0.130440668181012
837	-0.130788282511476
838	-0.130267933899516
839	-0.129470781283668
840	-0.129595772238912
841	-0.130204633759092
842	-0.130488947949132
843	-0.12997074510464401
844	-0.129431621027304
845	-0.12978138112524001
846	-0.130519525135608
847	-0.130777553674116
848	-0.13039024264542
849	-0.129896179684992
850	-0.130023852849576
851	-0.130641833881512
852	-0.130845681791352
853	-0.130302266179068
854	-0.129609183285612
855	-0.129657463053732
856	-0.130445496157824
857	-0.130762533301812
858	-0.130262033038968
859	-0.12969018600768
860	-0.129853264335552
861	-0.130594626997128
862	-0.13102324404966
863	-0.130483047088584
864	-0.129814640521056
865	-0.13000936891914
866	-0.13050396832143601
867	-0.13057799729922
868	-0.130088225873736
869	-0.129493311842124
870	-0.129775480264692
871	-0.130505041205172
872	-0.130834416512124
873	-0.13038487822674
874	-0.129911200057296
875	-0.130140260734932
876	-0.130745903603904
877	-0.130898253094416
878	-0.130355910365868
879	-0.129814640521056
880	-0.13011933950208
881	-0.1307845274184
882	-0.130844072465748
883	-0.130302802620936
884	-0.129719153868552
885	-0.129906908522352
886	-0.130785063860268
887	-0.131131605306996
888	-0.130356446807736
889	-0.129530326331016
890	-0.129745975961952
891	-0.130530790414836
892	-0.130768970604228
893	-0.130311385690824
894	-0.12995036031366
895	-0.130230919410624
896	-0.130594626997128
897	-0.130678311928536
898	-0.1301407971768
899	-0.129675702077244
900	-0.129919783127184
901	-0.130534545507912
902	-0.130757168883132
903	-0.130198196456676
904	-0.129611329053084
905	-0.129903153429276
906	-0.130485192856056
907	-0.130528108205496
908	-0.129899934778068
909	-0.129470781283668
910	-0.129836098195776
911	-0.130557612508236
912	-0.130688504324028
913	-0.130032435919464
914	-0.129378513282372
915	-0.129592017145836
916	-0.1303687849707
917	-0.130707279789408
918	-0.130169228595804
919	-0.129701987728776
920	-0.12992836619707201
921	-0.130576924415484
922	-0.130773262139172
923	-0.13026954322512
924	-0.129814104079188
925	-0.130046383408032
926	-0.13060696516009201
927	-0.130823687674764
928	-0.130152062456028
929	-0.129583970517816
930	-0.129897252568728
931	-0.130605892276356
932	-0.1308247605585
933	-0.13029636531852
934	-0.129588798494628
935	-0.129771188729748
936	-0.13059140834592
937	-0.130946532862536
938	-0.130345717970376
939	-0.129744366636348
940	-0.129912272941032
941	-0.130637542346568
942	-0.130999640607468
943	-0.130461052971996
944	-0.129786209102052
945	-0.129847899916872
946	-0.130487875065396
947	-0.130763606185548
948	-0.13021160750337601
949	-0.129516378842448
950	-0.129618839239236
951	-0.130404726575856
952	-0.130912737024852
953	-0.130395070622232
954	-0.129747048845688
955	-0.129964844244096
956	-0.1305699506712
957	-0.13059409055526
958	-0.130126849688232
959	-0.129670874100432
960	-0.130061403780336
961	-0.130766824836756
962	-0.131003395700544
963	-0.130388096877948
964	-0.129743293752612
965	-0.129940167918168
966	-0.130619303323056
967	-0.130839780930804
968	-0.13032050520258
969	-0.129727200496572
970	-0.129970208662776
971	-0.130637542346568
972	-0.13074483072016801
973	-0.130145625153612
974	-0.129600063773856
975	-0.129829124451492
976	-0.130499140344624
977	-0.130625740625472
978	-0.130118266618344
979	-0.129618839239236
980	-0.129934803499488
981	-0.130664900881836
982	-0.130978182932748
983	-0.130308167039616
984	-0.129512623749372
985	-0.129787281985788
986	-0.130677775486668
987	-0.130921856536608
988	-0.130283490713688
989	-0.129779235357768
990	-0.129948214546188
991	-0.130427257134312
992	-0.130636469462832
993	-0.130161718409652
994	-0.12962849519286
995	-0.129824832916548
996	-0.130602673625148
997	-0.130798474906968
998	-0.130197660014808
999	-0.129767433636672
1000	-0.130045846966164
1001	-0.130561367601312
1002	-0.130617693997452
1003	-0.130047456291768
1004	-0.129567877261776
1005	-0.129835561753908
1006	-0.13065309916074
1007	-0.130980865142088
1008	-0.130363956993888
1009	-0.129731492031516
1010	-0.129931048406412
1011	-0.130490557274736
1012	-0.130668655974912
1013	-0.130195514247336
1014	-0.129733637798988
1015	-0.12995036031366
1016	-0.130424038483104
1017	-0.130547956554612
1018	-0.130050138501108
1019	-0.129517988168052
1020	-0.129804448125564
1021	-0.130612329578772
1022	-0.13084782755882401
1023	-0.130232528736228
1024	-0.129595235797044
1025	-0.129768506520408
1026	-0.13051362427506
1027	-0.130782381650928
1028	-0.130297974644124
1029	-0.129659608821204
1030	-0.129661218146808
1031	-0.130332306923676
1032	-0.130506650530776
1033	-0.129866675382252
1034	-0.129280344420528
1035	-0.129507259330692
1036	-0.130251304201608
1037	-0.130683139905348
1038	-0.130224482108208
1039	-0.129649416425712
1040	-0.129984156151344
1041	-0.130669728858648
1042	-0.130964771886048
1043	-0.130372540063776
1044	-0.12961240193682
1045	-0.129801765916224
1046	-0.130644516090852
1047	-0.13087357676848801
1048	-0.130226091433812
1049	-0.129697159751964
1050	-0.129879549987084
1051	-0.13033123403994
1052	-0.130512551391324
1053	-0.130008296035404
1054	-0.12946327109751601
1055	-0.12950243135388
1056	-0.130148307362952
1057	-0.130528108205496
1058	-0.130093590292416
1059	-0.129618302797368
1060	-0.129885450847632
1061	-0.130536691275384
1062	-0.130754486673792
1063	-0.130163864177124
1064	-0.129566267936172
1065	-0.129829124451492
1066	-0.13054581078714
1067	-0.130707816231276
1068	-0.129964844244096
1069	-0.129393533654676
1070	-0.129785672660184
1071	-0.130538300600988
1072	-0.130591944787788
1073	-0.129959479825416
1074	-0.129380659049844
1075	-0.129600063773856
1076	-0.130405799459592
1077	-0.13072015439424
1078	-0.130007759593536
1079	-0.129372612421824
1080	-0.12969018600768
1081	-0.130621449090528
1082	-0.13095618881616
1083	-0.13032372385378801
1084	-0.129564658610568
1085	-0.12970413349624801
1086	-0.130393461296628
1087	-0.130660609346892
1088	-0.130163327735256
1089	-0.129705742821852
1090	-0.130050138501108
1091	-0.130631105044152
1092	-0.13064773474206
1093	-0.130031899477596
1094	-0.129591480703968
1095	-0.129806057451168
1096	-0.130356983249604
1097	-0.1304626622976
1098	-0.130021170640236
1099	-0.129560367075624
1100	-0.129742220868876
1101	-0.13033123403994
1102	-0.13064237032338
1103	-0.13013811496746
1104	-0.129544810261452
1105	-0.129728809822176
1106	-0.130337134900488
1107	-0.130526498879892
1108	-0.129999712965516
1109	-0.1295104779819
1110	-0.129834488870172
1111	-0.130556003182632
1112	-0.13074965869698
1113	-0.130315677225768
1114	-0.12970627926372
1115	-0.12966336391428
1116	-0.130337671342356
1117	-0.130466417390676
1118	-0.129835561753908
1119	-0.129272834234376
1120	-0.129607573960008
1121	-0.130466417390676
1122	-0.130769507046096
1123	-0.130221799898868
1124	-0.129597381564516
1125	-0.129809276102376
1126	-0.130458370762656
1127	-0.130511478507588
1128	-0.129763142101728
1129	-0.129187003535496
1130	-0.129534081424092
1131	-0.130420283390028
1132	-0.130908445489908
1133	-0.130356446807736
1134	-0.129670337658564
1135	-0.129903153429276
1136	-0.130559758275708
1137	-0.130664364439968
1138	-0.129968599337172
1139	-0.129406944701376
1140	-0.12955339333134
1141	-0.130301193295332
1142	-0.130714253533692
1143	-0.130180493875032
1144	-0.129527644121676
1145	-0.129807666776772
1146	-0.130520061577476
1147	-0.13061823043932
1148	-0.13002224352397201
1149	-0.129441813422796
1150	-0.129568950145512
1151	-0.130284563597424
1152	-0.130450324134636
1153	-0.12986989403346
1154	-0.129417673538736
1155	-0.12978942775326
1156	-0.130581752392296
1157	-0.130833880070256
1158	-0.130303875504672
1159	-0.129763678543596
1160	-0.129796937939412
1161	-0.130329088272468
1162	-0.130447105483428
1163	-0.12973310135712
1164	-0.129206851884612
1165	-0.129659072379336
1166	-0.130620376206792
1167	-0.130895034443208
1168	-0.130053893594184
1169	-0.129104391487824
1170	-0.129375831073032
1171	-0.130196587131072
1172	-0.130554930298896
1173	-0.1300335088032
1174	-0.129559830633756
1175	-0.129822150707208
1176	-0.130398825715308
1177	-0.1305028954377
1178	-0.129891888150048
1179	-0.129353300514576
1180	-0.12961508414616
1181	-0.130436376646068
1182	-0.130687431440292
1183	-0.130083934338792
1184	-0.129522816144864
1185	-0.129696086868228
1186	-0.1302346745037
1187	-0.13037683159872
1188	-0.129788891311392
1189	-0.12931735890942
1190	-0.12970627926372
1191	-0.13033928066796
1192	-0.130406872343328
1193	-0.12980283879996
1194	-0.129134432232432
1195	-0.129343108119084
1196	-0.13027222543446
1197	-0.130723909487316
1198	-0.129839316846984
1199	-0.129026070975096
1200	-0.129305020746456
1201	-0.1301139750834
1202	-0.13034732729598
1203	-0.129755095473708
1204	-0.129286781722944
1205	-0.129483119446632
1206	-0.130101636920436
1207	-0.130303339062804
1208	-0.12969555042636
1209	-0.129221872256916
1210	-0.129547492470792
1211	-0.130293146667312
1212	-0.130437449529804
1213	-0.129675165635376
1214	-0.129072741417612
1215	-0.129363492910068
1216	-0.130194977805468
1217	-0.130493775925944
1218	-0.129861310963572
1219	-0.129274980001848
1220	-0.129707888589324
1221	-0.130571023554936
1222	-0.130649880509532
1223	-0.129872039800932
1224	-0.129182712000552
1225	-0.129519061051788
1226	-0.13037414938938
1227	-0.130525425996156
1228	-0.12978674554392
1229	-0.129178956907476
1230	-0.129522279702996
1231	-0.13022662787568
1232	-0.130215362596452
1233	-0.129671946984168
1234	-0.129305020746456
1235	-0.129683748705264
1236	-0.130439595297276
1237	-0.130635933020964
1238	-0.129995421430572
1239	-0.129387632794128
1240	-0.129591480703968
1241	-0.130301193295332
1242	-0.130375758714984
1243	-0.12966068170494
1244	-0.129244402815372
1245	-0.129546419587056
1246	-0.1301273861301
1247	-0.130087689431868
1248	-0.129430548143568
1249	-0.129028753184436
1250	-0.129519597493656
1251	-0.130384341784872
1252	-0.130552248089556
1253	-0.129876331335876
1254	-0.129319504676892
1255	-0.129751340380632
1256	-0.130617693997452
1257	-0.130553320973292
1258	-0.129678920728452
1259	-0.129069522766404
1260	-0.129370466654352
1261	-0.130066768199016
1262	-0.130192295596128
1263	-0.129657463053732
1264	-0.129160181442096
1265	-0.129470781283668
1266	-0.13015689043284
1267	-0.130270616108856
1268	-0.129552856889472
1269	-0.129017487905208
1270	-0.129392997212808
1271	-0.130187467619316
1272	-0.13023199229436
1273	-0.129554466215076
1274	-0.129040018463664
1275	-0.129402653166432
1276	-0.130208388852168
1277	-0.130404726575856
1278	-0.129879549987084
1279	-0.129417137096868
1280	-0.12960703751814
1281	-0.13019175915426
1282	-0.130318359435108
1283	-0.12963922403022
1284	-0.129160181442096
1285	-0.129497603377068
1286	-0.129984692593212
1287	-0.130034581686936
1288	-0.129512623749372
1289	-0.12903840913806
1290	-0.129375831073032
1291	-0.130198732898544
1292	-0.130225018550076
1293	-0.12954534670332
1294	-0.128994420904884
1295	-0.129251913001524
1296	-0.129959479825416
1297	-0.130126849688232
1298	-0.129592553587704
1299	-0.129102245720352
1300	-0.129455224469496
1301	-0.130264715248308
1302	-0.130493239484076
1303	-0.129898861894332
1304	-0.129325941979308
1305	-0.129704669938116
1306	-0.130517379368136
1307	-0.130506650530776
1308	-0.129501358470144
1309	-0.128773943297136
1310	-0.129125312720676
1311	-0.12983770752138
1312	-0.129956261174208
1313	-0.129453615143892
1314	-0.12919934169846
1315	-0.129521743261128
1316	-0.130187467619316
1317	-0.13017834810756
1318	-0.129310385165136
1319	-0.128886596089416
1320	-0.129582361192212
1321	-0.130402044366516
1322	-0.13039185197102401
1323	-0.129624740099784
1324	-0.129059330370912
1325	-0.129530326331016
1326	-0.130225554991944
1327	-0.130319968760712
1328	-0.129614011262424
1329	-0.129005149742244
1330	-0.129315213141948
1331	-0.129979328174532
1332	-0.130212680387112
1333	-0.129660145263072
1334	-0.12915428058154801
1335	-0.129458443120704
1336	-0.130042628314956
1337	-0.130021170640236
1338	-0.129496530493332
1339	-0.129100636394748
1340	-0.12930663007206
1341	-0.129789964195128
1342	-0.129799620148752
1343	-0.129221335815048
1344	-0.128786817901968
1345	-0.129295364792832
1346	-0.130117193734608
1347	-0.130161718409652
1348	-0.129329160630516
1349	-0.128851727367996
1350	-0.129279271536792
1351	-0.130195514247336
1352	-0.130396679947836
1353	-0.129679993612188
1354	-0.12914569751166
1355	-0.129551784005736
1356	-0.130275444085668
1357	-0.130364493435756
1358	-0.129723445403496
1359	-0.129278198653056
1360	-0.129620985006708
1361	-0.130404726575856
1362	-0.130733028999072
1363	-0.130016342663424
1364	-0.129138723767376
1365	-0.129312530932608
1366	-0.129892424591916
1367	-0.130029217268256
1368	-0.129514233074976
1369	-0.12909205332486
1370	-0.129590407820232
1371	-0.130341426435432
1372	-0.130270079666988
1373	-0.129470781283668
1374	-0.128934875857536
1375	-0.129216507838236
1376	-0.129929439080808
1377	-0.130097345385492
1378	-0.129529789889148
1379	-0.129053965952232
1380	-0.129461125330044
1381	-0.130213753270848
1382	-0.130338744226092
1383	-0.12967945717032
1384	-0.129276052885584
1385	-0.129701987728776
1386	-0.130460516530128
1387	-0.13060696516009201
1388	-0.129980937500136
1389	-0.129439131213456
1390	-0.12968750379834001
1391	-0.130247549108532
1392	-0.130198732898544
1393	-0.129499212702672
1394	-0.128894106275568
1395	-0.129379586166108
1396	-0.130416528296952
1397	-0.130673483951724
1398	-0.129522816144864
1399	-0.128865138414696
1400	-0.129409090468848
1401	-0.13013006833944
1402	-0.130280808504348
1403	-0.12962688586725601
1404	-0.129080251603764
1405	-0.129417137096868
1406	-0.130046383408032
1407	-0.130133823432516
1408	-0.129524961912336
1409	-0.129047528649816
1410	-0.12936832088688
1411	-0.130074278385168
1412	-0.130305484830276
1413	-0.129855946544892
1414	-0.129308239397664
1415	-0.129541055168376
1416	-0.130269006783252
1417	-0.130368248528832
1418	-0.129726664054704
1419	-0.129056648161572
1420	-0.129288927490416
1421	-0.129995421430572
1422	-0.130067304640884
1423	-0.1293361343748
1424	-0.128860310437884
1425	-0.129398898073356
1426	-0.130420819831896
1427	-0.130554393857028
1428	-0.129587725610892
1429	-0.128958479299728
1430	-0.129242793489768
1431	-0.129950896755528
1432	-0.130190149828656
1433	-0.129302338537116
1434	-0.128714934691656
1435	-0.129218653605708
1436	-0.130047456291768
1437	-0.130157963316576
1438	-0.129587189169024
1439	-0.129152134814076
1440	-0.129626349425388
1441	-0.130415455413216
1442	-0.130422965599368
1443	-0.129615620588028
1444	-0.129029826068172
1445	-0.129329160630516
1446	-0.130158499758444
1447	-0.1304224291575
1448	-0.12951584240058
1449	-0.128930584322592
1450	-0.129270152025036
1451	-0.129882232196424
1452	-0.129831806660832
1453	-0.129232064652408
1454	-0.128690258365728
1455	-0.129083470254972
1456	-0.129920319569052
1457	-0.129982010383872
1458	-0.129375831073032
1459	-0.128942922485556
1460	-0.129416064213132
1461	-0.130168692153936
1462	-0.130345717970376
1463	-0.129847899916872
1464	-0.129366711561276
1465	-0.129519597493656
1466	-0.130051747826712
1467	-0.130176202340088
1468	-0.129562512843096
1469	-0.129205242559008
1470	-0.12964995286758
1471	-0.13011933950208
1472	-0.130019561314632
1473	-0.129200414582196
1474	-0.128654316760572
1475	-0.129013732812132
1476	-0.129796937939412
1477	-0.130002395174856
1478	-0.12947560926048
1479	-0.129071132092008
1480	-0.129438594771588
1481	-0.129927293313336
1482	-0.129895106801256
1483	-0.129237429071088
1484	-0.12885870111228
1485	-0.129243866373504
1486	-0.129939095034432
1487	-0.130010441802876
1488	-0.129456297353232
1489	-0.129066840557064
1490	-0.129555539098812
1491	-0.13019980578228
1492	-0.130161718409652
1493	-0.129431084585436
1494	-0.128875867252056
1495	-0.129227773117464
1496	-0.130038336780012
1497	-0.130200878666016
1498	-0.129515305958712
1499	-0.128873185042716
1500	-0.12918002979121201
1501	-0.129973963755852
1502	-0.12997718240706
1503	-0.129442886306532
1504	-0.12916447297704
1505	-0.129469708399932
1506	-0.12986774826598801
1507	-0.129765824311068
1508	-0.129147843279132
1509	-0.128835097670088
1510	-0.12927176135064
1511	-0.129980401058268
1512	-0.130000785849252
1513	-0.129285708839208
1514	-0.128792182320648
1515	-0.129125312720676
1516	-0.129787818427656
1517	-0.129850582126212
1518	-0.129197195930988
1519	-0.128959552183464
1520	-0.129668191891092
1521	-0.130362884110152
1522	-0.130067841082752
1523	-0.129259423187676
1524	-0.128789500111308
1525	-0.129198805256592
1526	-0.129970208662776
1527	-0.130124167478892
1528	-0.129445032074004
1529	-0.128851190926128
1530	-0.129230991768672
1531	-0.129895643243124
1532	-0.129987374802552
1533	-0.129328624188648
1534	-0.128744438994396
1535	-0.129272297792508
1536	-0.130102709804172
1537	-0.130095736059888
1538	-0.129468099074328
1539	-0.129125312720676
1540	-0.129559830633756
1541	-0.130094126734284
1542	-0.129976645965192
1543	-0.129256204536468
1544	-0.128801838274272
1545	-0.129276052885584
1546	-0.129891888150048
1547	-0.129854873661156
1548	-0.129220262931312
1549	-0.12897135390456
1550	-0.129419819306208
1551	-0.129929975522676
1552	-0.129798010823148
1553	-0.129129067813752
1554	-0.128681138853972
1555	-0.129148379721
1556	-0.129836098195776
1557	-0.129759387008652
1558	-0.129112974557712
1559	-0.128781989925156
1560	-0.129370466654352
1561	-0.130130604781308
1562	-0.130184785409976
1563	-0.129407481143244
1564	-0.128830269693276
1565	-0.129253522327128
1566	-0.130027071500784
1567	-0.12991549159224
1568	-0.129269615583168
1569	-0.12891502750842
1570	-0.129262105397016
1571	-0.129843608381928
1572	-0.129924611103996
1573	-0.129399970957092
1574	-0.128829733251408
1575	-0.129001394649168
1576	-0.12954534670332
1577	-0.129455224469496
1578	-0.12896598948588
1579	-0.1288533366936
1580	-0.129458979562572
1581	-0.13013811496746
1582	-0.130196050689204
1583	-0.129567340819908
1584	-0.12906254902212
1585	-0.129408017585112
1586	-0.130005077384196
1587	-0.129845217707532
1588	-0.129124776278808
1589	-0.128611937853
1590	-0.129050210859156
1591	-0.12971969031042
1592	-0.12970413349624801
1593	-0.129092589766728
1594	-0.128849045158656
1595	-0.129453078702024
1596	-0.130013660454084
1597	-0.129796401497544
1598	-0.129173592488796
1599	-0.128702596528692
1600	-0.1291081465809
1601	-0.129920319569052
1602	-0.129791573520732
1603	-0.129190758628572
1604	-0.12885870111228
1605	-0.129258886745808
1606	-0.129870966917196
1607	-0.129736856450196
1608	-0.129083470254972
1609	-0.128734246598904
1610	-0.12938441414292
1611	-0.130018488430896
1612	-0.12975455903184
1613	-0.129057721045308
1614	-0.12872727285462
1615	-0.129227236675596
1616	-0.130041018989352
1617	-0.130050674942976
1618	-0.129296437676568
1619	-0.128908053764136
1620	-0.129425720166756
1621	-0.130009905361008
1622	-0.129799083706884
1623	-0.129197195930988
1624	-0.12891341818281601
1625	-0.129414454887528
1626	-0.130004540942328
1627	-0.129745975961952
1628	-0.128891960508096
1629	-0.128496066409512
1630	-0.128892496949964
1631	-0.129653707960656
1632	-0.129770115846012
1633	-0.12904913797542
1634	-0.12865753541178
1635	-0.129208461210216
1636	-0.1298725762428
1637	-0.129875794894008
1638	-0.129168228070116
1639	-0.128704205854296
1640	-0.129144088186056
1641	-0.12988866949884
1642	-0.129983083267608
1643	-0.129359201375124
1644	-0.128875867252056
1645	-0.12920738832648
1646	-0.129905835638616
1647	-0.129908517847956
1648	-0.129234746861748
1649	-0.128841534972504
1650	-0.129220262931312
1651	-0.12977601670656
1652	-0.129637614704616
1653	-0.128940240276216
1654	-0.128674165109688
1655	-0.129335061491064
1656	-0.12997074510464401
1657	-0.129609183285612
1658	-0.128806666251084
1659	-0.128473535851056
1660	-0.128992275137412
1661	-0.129774407380956
1662	-0.129956797616076
1663	-0.129212216303292
1664	-0.128502503711928
1665	-0.128805593367348
1666	-0.129511014423768
1667	-0.129458979562572
1668	-0.12872190843594
1669	-0.128461197688092
1670	-0.129067376998932
1671	-0.129846827033136
1672	-0.129683748705264
1673	-0.128844753623712
1674	-0.128572241154768
1675	-0.129347399654028
1676	-0.129808739660508
1677	-0.129506186446956
1678	-0.12876750599472
1679	-0.128468171432376
1680	-0.129072204975744
1681	-0.12975563191557601
1682	-0.12971432589174
1683	-0.129024461649492
1684	-0.1286789930865
1685	-0.129189685744836
1686	-0.129876331335876
1687	-0.12981088542798
1688	-0.129033581161248
1689	-0.128722444877808
1690	-0.129275516443716
1691	-0.129940167918168
1692	-0.129870430475328
1693	-0.129085079580576
1694	-0.128757850041096
1695	-0.129358128491388
1696	-0.130208925294036
1697	-0.130147234479216
1698	-0.129143551744188
1699	-0.128525570712252
1700	-0.129088834673652
1701	-0.129676238519112
1702	-0.129541591610244
1703	-0.129001394649168
1704	-0.128680065970236
1705	-0.129138723767376
1706	-0.129881695754556
1707	-0.1298725762428
1708	-0.12928785460668
1709	-0.128736392366376
1710	-0.12895794285786
1711	-0.129668191891092
1712	-0.129597918006384
1713	-0.128878549461396
1714	-0.128660754062988
1715	-0.12940050739896
1716	-0.130168155712068
1717	-0.129913882266636
1718	-0.129089907557388
1719	-0.128879622345132
1720	-0.129501894912012
1721	-0.130241648247984
1722	-0.130138651409328
1723	-0.12921489851263201
1724	-0.128857091786676
1725	-0.12955607554068
1726	-0.130328015388732
1727	-0.130075887710772
1728	-0.129156962790888
1729	-0.128761068692304
1730	-0.129268542699432
1731	-0.129822687149076
1732	-0.129573241680456
1733	-0.128873185042716
1734	-0.128559366549936
1735	-0.129173056046928
1736	-0.130064085989676
1737	-0.129918710243448
1738	-0.128930584322592
1739	-0.128541663968292
1740	-0.12917788402374
1741	-0.129986838360684
1742	-0.129871503359064
1743	-0.129160181442096
1744	-0.129063621905856
1745	-0.129626349425388
1746	-0.129986301918816
1747	-0.12962044856484
1748	-0.12894453181116
1749	-0.12867255578408401
1750	-0.129116729650788
1751	-0.12966068170494
1752	-0.129554466215076
1753	-0.12894989622984
1754	-0.128667727807272
1755	-0.129275516443716
1756	-0.130039409663748
1757	-0.129987374802552
1758	-0.129290000374152
1759	-0.12892307413644
1760	-0.129423037957416
1761	-0.130079642803848
1762	-0.12997986461640001
1763	-0.129178956907476
1764	-0.12874604832
1765	-0.129276052885584
1766	-0.130032435919464
1767	-0.130068913966488
1768	-0.129193440837912
1769	-0.128717080459128
1770	-0.129166618744512
1771	-0.129806057451168
1772	-0.12989671612686
1773	-0.129208461210216
1774	-0.128626421783436
1775	-0.129014805695868
1776	-0.129722908961628
1777	-0.129626349425388
1778	-0.128909126647872
1779	-0.128599599690036
1780	-0.129245475699108
1781	-0.130120948827684
1782	-0.130118266618344
1783	-0.1293093122814
1784	-0.128788427227572
1785	-0.12927176135064
1786	-0.130035654570672
1787	-0.129908517847956
1788	-0.12905182018476
1789	-0.128777698390212
1790	-0.129641369797692
1791	-0.130317286551372
1792	-0.129969672220908
1793	-0.128927365671384
1794	-0.128474608734792
1795	-0.129040554905532
1796	-0.129763142101728
1797	-0.12979050063699601
1798	-0.129176811140004
1799	-0.128827051042068
1800	-0.129195050163516
1801	-0.129774943822824
1802	-0.129650489309448
1803	-0.129052893068496
1804	-0.128832951902616
1805	-0.129340962351612
1806	-0.129922465336524
1807	-0.129795328613808
1808	-0.129103318604088
1809	-0.128761605134172
1810	-0.129394606538412
1811	-0.130016879105292
1812	-0.129771188729748
1813	-0.128943995369292
1814	-0.128582969992128
1815	-0.12921489851263201
1816	-0.129873112684668
1817	-0.129868821149724
1818	-0.129291073257888
1819	-0.12885065448426
1820	-0.129237965512956
1821	-0.129971281546512
1822	-0.129938022150696
1823	-0.129280880862396
1824	-0.129044846440476
1825	-0.12961025616934801
1826	-0.129828051567756
1827	-0.12955339333134
1828	-0.128934339415668
1829	-0.128798619623064
1830	-0.129466489748724
1831	-0.130083397896924
1832	-0.12967945717032
1833	-0.128879622345132
1834	-0.128586188643336
1835	-0.129287318164812
1836	-0.129976109523324
1837	-0.129663900356148
1838	-0.12904216423113601
1839	-0.128822223065256
1840	-0.129418746422472
1841	-0.130126313246364
1842	-0.130031899477596
1843	-0.129218653605708
1844	-0.128960088625332
1845	-0.12961240193682
1846	-0.130201415107884
1847	-0.12998791124442
1848	-0.129280344420528
1849	-0.128963843718408
1850	-0.129485265214104
1851	-0.130058721570996
1852	-0.129861310963572
1853	-0.129099563511012
1854	-0.128742829668792
1855	-0.129127458488148
1856	-0.129816786288528
1857	-0.12974383019448
1858	-0.129047528649816
1859	-0.128815249320972
1860	-0.129433230352908
1861	-0.13002814438452
1862	-0.129866138940384
1863	-0.129157499232756
1864	-0.128755167831756
1865	-0.129095271976068
1866	-0.129739538659536
1867	-0.12974919461316
1868	-0.12909366265046401
1869	-0.128796473855592
1870	-0.12931789535128801
1871	-0.129940704360036
1872	-0.129787281985788
1873	-0.128981009858184
1874	-0.128613010736736
1875	-0.129260496071412
1876	-0.129897252568728
1877	-0.129674629193508
1878	-0.128972426788296
1879	-0.128744438994396
1880	-0.129377976840504
1881	-0.13001741554716
1882	-0.12985380077742
1883	-0.129132822906828
1884	-0.12890161646172
1885	-0.129492775400256
1886	-0.130137578525592
1887	-0.129862920289176
1888	-0.129111901673976
1889	-0.128914491066552
1890	-0.129447177841476
1891	-0.130034045245068
1892	-0.12981356763732
1893	-0.128959552183464
1894	-0.128644660806948
1895	-0.129136041558036
1896	-0.129891888150048
1897	-0.129782990450844
1898	-0.128899470694248
1899	-0.128536299549612
1900	-0.12921489851263201
1901	-0.129959479825416
1902	-0.12988062287082
1903	-0.129268006257564
1904	-0.129041627789268
1905	-0.129610792611216
1906	-0.130139187851196
1907	-0.129777089590296
1908	-0.128981009858184
1909	-0.128779307715816
1910	-0.129320577560628
1911	-0.129831806660832
1912	-0.129683748705264
1913	-0.128977791206976
1914	-0.128631249760248
1915	-0.129099563511012
1916	-0.12991924668531601
1917	-0.12981356763732
1918	-0.12902553453322801
1919	-0.128676847319028
1920	-0.129293755467228
1921	-0.130013124012216
1922	-0.129631713844068
1923	-0.128886596089416
1924	-0.12883187901888
1925	-0.12922616379186
1926	-0.129862920289176
1927	-0.12959362647144
1928	-0.128857091786676
1929	-0.128602281899376
1930	-0.129144624627924
1931	-0.129789964195128
1932	-0.129739538659536
1933	-0.128881231670736
1934	-0.128711716040448
1935	-0.129391924329072
1936	-0.130134896316252
1937	-0.130049065617372
1938	-0.129050747301024
1939	-0.128747121203736
1940	-0.129318431793156
1941	-0.129783526892712
1942	-0.129699841961304
1943	-0.129141405976716
1944	-0.128751949180548
1945	-0.129250840117788
1946	-0.129777626032164
1947	-0.129519061051788
1948	-0.128705278738032
1949	-0.128633931969588
1950	-0.129248157908448
1951	-0.129675702077244
1952	-0.129556611982548
1953	-0.129035190486852
1954	-0.128769115320324
1955	-0.129373148863692
1956	-0.130007759593536
1957	-0.129649416425712
1958	-0.128860310437884
1959	-0.128785208576364
1960	-0.129428402376096
1961	-0.130050674942976
1962	-0.12984038973072
1963	-0.129144624627924
1964	-0.129005686184112
1965	-0.129791573520732
1966	-0.130414918971348
1967	-0.130123094595156
1968	-0.129439667655324
1969	-0.129111365232108
1970	-0.129499212702672
1971	-0.130005077384196
1972	-0.129755095473708
1973	-0.128988520044336
1974	-0.128550783480048
1975	-0.129185394209892
1976	-0.129859701637968
1977	-0.129875794894008
1978	-0.129036799812456
1979	-0.128579214899052
1980	-0.129418209980604
1981	-0.130249694876004
1982	-0.13033659845862
1983	-0.129544273819584
1984	-0.129071668533876
1985	-0.129547492470792
1986	-0.130259887271496
1987	-0.13002546217518
1988	-0.129008368393452
1989	-0.128707960947372
1990	-0.129422501515548
1991	-0.130107537780984
1992	-0.129551247563868
1993	-0.128878013019528
1994	-0.128562048759276
1995	-0.129059330370912
1996	-0.130090371641208
1997	-0.130045310524296
1998	-0.129230991768672
1999	-0.128732100831432
2000	-0.129691258891416
2001	-0.130308167039616
2002	-0.129674629193508
2003	-0.129146770395396
2004	-0.12910546437156
2005	-0.129760459892388
2006	-0.130096272501756
2007	-0.129734174240856
2008	-0.129003003974772
2009	-0.128878549461396
2010	-0.129477755027952
2011	-0.130005077384196
2012	-0.129632786727804
2013	-0.128806129809216
2014	-0.12867094645848
2015	-0.129340962351612
2016	-0.130127922571968
2017	-0.130245939782928
2018	-0.129355982723916
2019	-0.129098490627276
2020	-0.129658535937468
2021	-0.129873649126536
2022	-0.129360810700728
2023	-0.128781989925156
2024	-0.128665045597932
2025	-0.129246012140976
2026	-0.129553929773208
2027	-0.129291073257888
2028	-0.12880773913482
2029	-0.128838316321296
2030	-0.129629031634728
2031	-0.130413309645744
2032	-0.130024925733312
2033	-0.129138187325508
2034	-0.128635541295192
2035	-0.129262641838884
2036	-0.129896179684992
2037	-0.129778162474032
2038	-0.129140869534848
2039	-0.128811494227896
2040	-0.129611329053084
2041	-0.130265788132044
2042	-0.12982161426534
2043	-0.1287862814601
2044	-0.128659681179252
2045	-0.12932540553744
2046	-0.129664436798016
2047	-0.12951584240058
2048	-0.128891424066228
2049	-0.128345862686472
2050	-0.129020170114548
2051	-0.129737392892064
2052	-0.129540518726508
2053	-0.128697232110012
2054	-0.128417209454916
2055	-0.129144088186056
2056	-0.129831270218964
2057	-0.129594699355176
2058	-0.128716007575392
2059	-0.128582969992128
2060	-0.129106537255296
2061	-0.129629031634728
2062	-0.129364565793804
2063	-0.128704205854296
2064	-0.128580287782788
2065	-0.129460588888176
2066	-0.130170837921408
2067	-0.12954266449398
2068	-0.128670410016612
2069	-0.128553465689388
2070	-0.12929214614162401
2071	-0.130018488430896
2072	-0.129705206379984
2073	-0.1288667477403
2074	-0.128835634111956
2075	-0.129673556309772
2076	-0.13026310592270401
2077	-0.129962162034756
2078	-0.129211143419556
2079	-0.128851727367996
2080	-0.129375831073032
2081	-0.129903153429276
2082	-0.129868284707856
2083	-0.129205242559008
2084	-0.128660754062988
2085	-0.129169300953852
2086	-0.129788354869524
2087	-0.129531399214752
2088	-0.128894106275568
2089	-0.128905371554796
2090	-0.129582361192212
2091	-0.129993812104968
2092	-0.129655853728128
2093	-0.128894642717436
2094	-0.12878896366944
2095	-0.12941391844566
2096	-0.129944459453112
2097	-0.129616157029896
2098	-0.128749803413076
2099	-0.128637150620796
2100	-0.12946327109751601
2101	-0.130040482547484
2102	-0.129734710682724
2103	-0.128942922485556
2104	-0.12884260785624
2105	-0.129683212263396
2106	-0.130311385690824
2107	-0.129857555870496
2108	-0.129072741417612
2109	-0.128991202253676
2110	-0.129648343541976
2111	-0.130141870060536
2112	-0.129782990450844
2113	-0.128969744578956
2114	-0.128824368832728
2115	-0.129515305958712
2116	-0.129966990011568
2117	-0.129550174680132
2118	-0.128752485622416
2119	-0.128744438994396
2120	-0.129453078702024
2121	-0.129905835638616
2122	-0.12953998228464
2123	-0.128737465250112
2124	-0.128671482900348
2125	-0.12954802891266
2126	-0.130305484830276
2127	-0.129831806660832
2128	-0.128696159226276
2129	-0.128375366989212
2130	-0.129108683022768
2131	-0.12993694926696
2132	-0.129632250285936
2133	-0.128754631389888
2134	-0.128643587923212
2135	-0.129503504237616
2136	-0.130236820271172
2137	-0.130156353990972
2138	-0.129544810261452
2139	-0.129136577999904
2140	-0.129515305958712
2141	-0.13002224352397201
2142	-0.129718080984816
2143	-0.12886406553096
2144	-0.128658608295516
2145	-0.129443959190268
2146	-0.129992739221232
2147	-0.129621521448576
2148	-0.128834024786352
2149	-0.128667727807272
2150	-0.129560903517492
2151	-0.130447641925296
2152	-0.130096272501756
2153	-0.129007831951584
2154	-0.128665045597932
2155	-0.129412309120056
2156	-0.130156353990972
2157	-0.1298457541494
2158	-0.128933266531932
2159	-0.128717616900996
2160	-0.12923689262922
2161	-0.129953578964868
2162	-0.12971700810108
2163	-0.12850733168874
2164	-0.12832762366296
2165	-0.129194513721648
2166	-0.129848972800608
2167	-0.129606501076272
2168	-0.12897135390456
2169	-0.128786817901968
2170	-0.129288391048548
2171	-0.129913345824768
2172	-0.1298055210093
2173	-0.128962234392804
2174	-0.12863339552772
2175	-0.129425183724888
2176	-0.130090371641208
2177	-0.129669801216696
2178	-0.128771261087796
2179	-0.128655389644308
2180	-0.129460588888176
2181	-0.130153135339764
2182	-0.129809276102376
2183	-0.12903840913806
2184	-0.129001394649168
2185	-0.129514769516844
2186	-0.1299664535697
2187	-0.129507259330692
2188	-0.128725663529016
2189	-0.128552392805652
2190	-0.129280880862396
2191	-0.129767433636672
2192	-0.129439131213456
2193	-0.128612474294868
2194	-0.12838931447778001
2195	-0.129146770395396
2196	-0.129757777683048
2197	-0.129435912562248
2198	-0.128722981319676
2199	-0.128629640434644
2200	-0.129471854167404
2201	-0.130101100478568
2202	-0.129696623310096
2203	-0.128894106275568
2204	-0.128792182320648
2205	-0.129607573960008
2206	-0.13028885513236801
2207	-0.129898861894332
2208	-0.128866211298432
2209	-0.128545955503236
2210	-0.12919397727978
2211	-0.129775480264692
2212	-0.129445568515872
2213	-0.128696695668144
2214	-0.128567413177956
2215	-0.129275516443716
2216	-0.129956261174208
2217	-0.129763678543596
2218	-0.12901158704466
2219	-0.128873185042716
2220	-0.129647807100108
2221	-0.130355910365868
2222	-0.12995840694168
2223	-0.12899066581180801
2224	-0.128790572995044
2225	-0.12945146937642
2226	-0.130021707082104
2227	-0.129605428192536
2228	-0.128662363388592
2229	-0.128462807013696
2230	-0.12916340009330401
2231	-0.129716471659212
2232	-0.129390315003468
2233	-0.128577605573448
2234	-0.12852342494478
2235	-0.129274980001848
2236	-0.129788354869524
2237	-0.129461125330044
2238	-0.128720299110336
2239	-0.128749266971208
2240	-0.12959899089012
2241	-0.130198196456676
2242	-0.130029217268256
2243	-0.129567877261776
2244	-0.129170373837588
2245	-0.129401580282696
2246	-0.129994348546836
2247	-0.12976475142733201
2248	-0.129064694789592
2249	-0.129219726489444
2250	-0.130090908083076
2251	-0.130233065178096
2252	-0.129534081424092
2253	-0.12876750599472
2254	-0.128667191365404
2255	-0.129178956907476
2256	-0.12971969031042
2257	-0.12938441414292
2258	-0.128620520922888
2259	-0.128686503272652
2260	-0.129592553587704
2261	-0.130189613386788
2262	-0.129804984567432
2263	-0.12889678848490801
2264	-0.128505185921268
2265	-0.129298047002172
2266	-0.129924074662128
2267	-0.129597918006384
2268	-0.128773943297136
2269	-0.128659144737384
2270	-0.129390315003468
2271	-0.12980713033490401
2272	-0.129388169235996
2273	-0.128803984041744
2274	-0.12886942994964
2275	-0.129401580282696
2276	-0.129831806660832
2277	-0.129435912562248
2278	-0.128808275576688
2279	-0.128881231670736
2280	-0.12973900221766801
2281	-0.130296901760388
2282	-0.129780844683372
2283	-0.128790036553176
2284	-0.128712788924184
2285	-0.129438594771588
2286	-0.129942850127508
2287	-0.12957538744792801
2288	-0.128797546739328
2289	-0.128781453483288
2290	-0.129491166074652
2291	-0.129968062895304
2292	-0.129560903517492
2293	-0.128878013019528
2294	-0.12878359925076
2295	-0.129414991329396
2296	-0.130129531897572
2297	-0.129716471659212
2298	-0.128742293226924
2299	-0.128686503272652
2300	-0.129481510121028
2301	-0.130023852849576
2302	-0.129685894472736
2303	-0.128950969113576
2304	-0.128809348460424
2305	-0.129563049284964
2306	-0.130231455852492
2307	-0.129932121290148
2308	-0.129063621905856
2309	-0.128774479739004
2310	-0.129482046562896
2311	-0.13010592845538
2312	-0.129922465336524
2313	-0.129063085463988
2314	-0.12852610715412
2315	-0.129065767673328
2316	-0.129659072379336
2317	-0.129473463493008
2318	-0.128848508716788
2319	-0.12860120901564
2320	-0.129290000374152
2321	-0.12998254682574
2322	-0.129744366636348
2323	-0.129088834673652
2324	-0.129185394209892
2325	-0.129776553148428
2326	-0.130055502919788
2327	-0.12960113665759201
2328	-0.128846362949316
2329	-0.128756240715492
2330	-0.12937100309622
2331	-0.129895106801256
2332	-0.129586652727156
2333	-0.128859773996016
2334	-0.12872459064528
2335	-0.12942196507368
2336	-0.129929439080808
2337	-0.129519061051788
2338	-0.128884986763812
2339	-0.128883377438208
2340	-0.129597918006384
2341	-0.130230382968756
2342	-0.130025998617048
2343	-0.129206851884612
2344	-0.1289338029738
2345	-0.129391387887204
2346	-0.129755095473708
2347	-0.129410163352584
2348	-0.128783062808892
2349	-0.128827587483936
2350	-0.129548565354528
2351	-0.129975573081456
2352	-0.129468099074328
2353	-0.128666654923536
2354	-0.128584579317732
2355	-0.129389242119732
2356	-0.130051747826712
2357	-0.12966336391428
2358	-0.128680602412104
2359	-0.128636614178928
2360	-0.129586116285288
2361	-0.130149916688556
2362	-0.129716471659212
2363	-0.128859237554148
2364	-0.128641978597608
2365	-0.129449323608948
2366	-0.130136505641856
2367	-0.129689113123944
2368	-0.128578142015316
2369	-0.128410235710632
2370	-0.129319504676892
2371	-0.129884377963896
2372	-0.129339889467876
2373	-0.128603354783112
2374	-0.1285851157596
2375	-0.129342571677216
2376	-0.129872039800932
2377	-0.129414991329396
2378	-0.128714934691656
2379	-0.128736392366376
2380	-0.129354373398312
2381	-0.129816786288528
2382	-0.12954534670332
2383	-0.129014269254
2384	-0.129097954185408
2385	-0.129776553148428
2386	-0.130106464897248
2387	-0.129582361192212
2388	-0.128865674856564
2389	-0.128825978158332
2390	-0.129708425031192
2391	-0.13029904752786
2392	-0.129586116285288
2393	-0.128706888063636
2394	-0.128734246598904
2395	-0.12932808774678
2396	-0.129658535937468
2397	-0.129149452604736
2398	-0.128429011176012
2399	-0.128489629107096
2400	-0.129378513282372
2401	-0.130010978244744
2402	-0.12972988270591201
2403	-0.129307702955796
2404	-0.129313067374476
2405	-0.12972773693844
2406	-0.1299128093829
2407	-0.129535690749696
2408	-0.128816322204708
2409	-0.1288399256469
2410	-0.129708425031192
2411	-0.13031245857456
2412	-0.129873112684668
2413	-0.128824368832728
2414	-0.128541663968292
2415	-0.129310921607004
2416	-0.129882768638292
2417	-0.129513696633108
2418	-0.12881846797218
2419	-0.128892496949964
2420	-0.129623667216048
2421	-0.13004423764056
2422	-0.129586652727156
2423	-0.128875330810188
2424	-0.128914491066552
2425	-0.129589871378364
2426	-0.130147234479216
2427	-0.12985862875423201
2428	-0.128967062369616
2429	-0.128721371994072
2430	-0.12936832088688
2431	-0.129837171079512
2432	-0.129336670816668
2433	-0.128493384200172
2434	-0.12849231131643601
2435	-0.129125312720676
2436	-0.129642979123296
2437	-0.129291609699756
2438	-0.128600672573772
2439	-0.128485337572152
2440	-0.129262105397016
2441	-0.12989671612686
2442	-0.129533008540356
2443	-0.12879379164625201
2444	-0.12878467213449601
2445	-0.129668191891092
2446	-0.130231455852492
2447	-0.129632250285936
2448	-0.128699914319352
2449	-0.128691331249464
2450	-0.129379586166108
2451	-0.129909590731692
2452	-0.129642979123296
2453	-0.128941313159952
2454	-0.128803447599876
2455	-0.129639760472088
2456	-0.130175129456352
2457	-0.129555539098812
2458	-0.128666118481668
2459	-0.128659144737384
2460	-0.129559294191888
2461	-0.130149380246688
2462	-0.129673556309772
2463	-0.128817931530312
2464	-0.128644660806948
2465	-0.129308239397664
2466	-0.129943923011244
2467	-0.12962044856484
2468	-0.128829733251408
2469	-0.128738538133848
2470	-0.129420355748076
2471	-0.12986989403346
2472	-0.129484728772236
2473	-0.128745511878132
2474	-0.128672019342216
2475	-0.12936939377061601
2476	-0.129891888150048
2477	-0.129645124890768
2478	-0.128908053764136
2479	-0.128860310437884
2480	-0.129574314564192
2481	-0.130064622431544
2482	-0.129629568076596
2483	-0.129068449882668
2484	-0.129119411860128
2485	-0.129765824311068
2486	-0.130308167039616
2487	-0.129877404219612
2488	-0.129071132092008
2489	-0.128980473416316
2490	-0.129603282425064
2491	-0.129906908522352
2492	-0.129433230352908
2493	-0.128751949180548
2494	-0.128776089064608
2495	-0.129505650005088
2496	-0.129988447686288
2497	-0.129613474820556
2498	-0.128910199531608
2499	-0.128904835112928
2500	-0.129649416425712
2501	-0.13008286145505601
2502	-0.129625276541652
2503	-0.129031435393776
2504	-0.129141405976716
2505	-0.129712180124268
2506	-0.129972890872116
2507	-0.129494921167728
2508	-0.12888766897315201
2509	-0.128844753623712
2510	-0.129306093630192
2511	-0.129683748705264
2512	-0.129378513282372
2513	-0.128747121203736
2514	-0.128684893947048
2515	-0.12925835030394
2516	-0.129645124890768
2517	-0.129327551304912
2518	-0.1288265146002
2519	-0.128836706995692
2520	-0.129432157469172
2521	-0.12985380077742
2522	-0.129371539538088
2523	-0.128691867691332
2524	-0.128869966391508
2525	-0.129638687588352
2526	-0.129921928894656
2527	-0.129482046562896
2528	-0.128752485622416
2529	-0.128788427227572
2530	-0.129456297353232
2531	-0.129870966917196
2532	-0.129435912562248
2533	-0.1287996925068
2534	-0.128986910718732
2535	-0.129748658171292
2536	-0.129973427313984
2537	-0.129528180563544
2538	-0.12890966308974
2539	-0.128874257926452
2540	-0.129508332214428
2541	-0.13002224352397201
2542	-0.129538372959036
2543	-0.128886596089416
2544	-0.128932193648196
2545	-0.129679993612188
2546	-0.130007223151668
2547	-0.129403726050168
2548	-0.128626421783436
2549	-0.128573314038504
2550	-0.129249767234052
2551	-0.1297652878692
2552	-0.129324869095572
2553	-0.12859316238762
2554	-0.128638223504532
2555	-0.12939246077094
2556	-0.1298055210093
2557	-0.129428938817964
2558	-0.128814176437236
2559	-0.128830269693276
2560	-0.129645124890768
2561	-0.130322114528184
2562	-0.12998254682574
2563	-0.129272834234376
2564	-0.129255131652732
2565	-0.129984692593212
2566	-0.130419210506292
2567	-0.129806593893036
2568	-0.129049674417288
2569	-0.129078105836292
2570	-0.129697696193832
2571	-0.13005228426858
2572	-0.129487947423444
2573	-0.128750339854944
2574	-0.1287862814601
2575	-0.129508868656296
2576	-0.129933730615752
2577	-0.129460588888176
2578	-0.128768578878456
2579	-0.12886406553096
2580	-0.12966175458867601
2581	-0.130182639642504
2582	-0.129885450847632
2583	-0.1294568337951
2584	-0.129490093190916
2585	-0.129890278824444
2586	-0.130182103200636
2587	-0.129681602937792
2588	-0.12881042134416001
2589	-0.128887132531284
2590	-0.129570023029248
2591	-0.129836098195776
2592	-0.129304484304588
2593	-0.12852718003785601
2594	-0.128720835552204
2595	-0.129578069657268
2596	-0.130051747826712
2597	-0.129508868656296
2598	-0.128808275576688
2599	-0.12891341818281601
2600	-0.129679993612188
2601	-0.130123631037024
2602	-0.129710034356796
2603	-0.129028216742568
2604	-0.129041627789268
2605	-0.129595235797044
2606	-0.129994348546836
2607	-0.12953998228464
2608	-0.1289203919271
2609	-0.12901963367268
2610	-0.129611865494952
2611	-0.130060867338468
2612	-0.129540518726508
2613	-0.12877555262274
2614	-0.128898397810512
2615	-0.12968750379834001
2616	-0.129967526453436
2617	-0.129536763633432
2618	-0.129060403254648
2619	-0.129171983163192
2620	-0.12980015659062
2621	-0.130238429596776
2622	-0.129730955589648
2623	-0.128977254765108
2624	-0.129095808417936
2625	-0.129862383847308
2626	-0.130173520130748
2627	-0.12969286821702
2628	-0.128980473416316
2629	-0.12900354041664
2630	-0.129594162913308
2631	-0.129860774521704
2632	-0.129423037957416
2633	-0.12883187901888
2634	-0.128911808857212
2635	-0.129596845122648
2636	-0.129883841522028
2637	-0.129335061491064
2638	-0.128621593806624
2639	-0.128654316760572
2640	-0.129552320447604
2641	-0.130201951549752
2642	-0.129846827033136
2643	-0.129175738256268
2644	-0.129232601094276
2645	-0.129976645965192
2646	-0.130338744226092
2647	-0.12980015659062
2648	-0.128983155625656
2649	-0.12897135390456
2650	-0.12971432589174
2651	-0.130104319129776
2652	-0.129563585726832
2653	-0.128816858646576
2654	-0.128854409577336
2655	-0.12961508414616
2656	-0.13025881438776
2657	-0.129860238079836
2658	-0.129026607416964
2659	-0.12897671832324
2660	-0.129586116285288
2661	-0.129994348546836
2662	-0.129666582565488
2663	-0.129022852323888
2664	-0.129227236675596
2665	-0.130133823432516
2666	-0.130477682669904
2667	-0.12981088542798
2668	-0.128949359787972
2669	-0.128981546300052
2670	-0.129699305519436
2671	-0.130097345385492
2672	-0.1296043553088
2673	-0.128798083181196
2674	-0.128762678017908
2675	-0.129520670377392
2676	-0.129986301918816
2677	-0.129549101796396
2678	-0.128819004414048
2679	-0.12888284099634
2680	-0.129758314124916
2681	-0.130184248968108
2682	-0.129662291030544
2683	-0.129068449882668
2684	-0.129119411860128
2685	-0.129780308241504
2686	-0.130181566758768
2687	-0.129800693032488
2688	-0.129192367954176
2689	-0.129353300514576
2690	-0.129868284707856
2691	-0.130103782687908
2692	-0.129622594332312
2693	-0.128811494227896
2694	-0.128789500111308
2695	-0.129404262492036
2696	-0.129866675382252
2697	-0.129430548143568
2698	-0.128648952341892
2699	-0.128702596528692
2700	-0.129425720166756
2701	-0.129845217707532
2702	-0.129519061051788
2703	-0.128967598811484
2704	-0.129087225348048
2705	-0.129792646404468
2706	-0.130131141223176
2707	-0.129524425470468
2708	-0.128871575717112
2709	-0.129062012580252
2710	-0.129773870939088
2711	-0.130068913966488
2712	-0.129439131213456
2713	-0.12872459064528
2714	-0.128820613739652
2715	-0.129617229913632
2716	-0.13015152601416
2717	-0.129910663615428
2718	-0.129090443999256
2719	-0.129020706556416
2720	-0.129689649565812
2721	-0.130058721570996
2722	-0.129670337658564
2723	-0.129048601533552
2724	-0.12910009995288
2725	-0.130003468058592
2726	-0.130372003621908
2727	-0.129712716566136
2728	-0.128886596089416
2729	-0.128878549461396
2730	-0.129575923889796
2731	-0.129948214546188
2732	-0.129493311842124
2733	-0.128791109436912
2734	-0.128789500111308
2735	-0.129557148424416
2736	-0.129923001778392
2737	-0.129305020746456
2738	-0.1286924041332
2739	-0.128930584322592
2740	-0.12973578356646
2741	-0.13011933950208
2742	-0.129657463053732
2743	-0.129081860929368
2744	-0.129170373837588
2745	-0.12982966089336
2746	-0.12987525845214
2747	-0.129204169675272
2748	-0.128669337132876
2749	-0.128953651322916
2750	-0.129732564915252
2751	-0.129963234918492
2752	-0.129216507838236
2753	-0.128521815619176
2754	-0.128637150620796
2755	-0.129449860050816
2756	-0.129877404219612
2757	-0.129367784445012
2758	-0.128663972714196
2759	-0.128872648600848
2760	-0.1296714105423
2761	-0.129951969639264
2762	-0.129479900795424
2763	-0.128938630950612
2764	-0.129094199092332
2765	-0.12985648298676
2766	-0.130214289712716
2767	-0.129696086868228
2768	-0.128958479299728
2769	-0.128976181881372
2770	-0.129673019867904
2771	-0.129985765476948
2772	-0.129309848723268
2773	-0.128626421783436
2774	-0.128836706995692
2775	-0.129810348986112
2776	-0.130222336340736
2777	-0.129681602937792
2778	-0.128969744578956
2779	-0.128996030230488
2780	-0.129765824311068
2781	-0.130241111806116
2782	-0.129777626032164
2783	-0.129130140697488
2784	-0.129245475699108
2785	-0.129997030756176
2786	-0.13032372385378801
2787	-0.129748658171292
2788	-0.12900354041664
2789	-0.129058793929044
2790	-0.129786209102052
2791	-0.1300200977565
2792	-0.129403726050168
2793	-0.128870502833376
2794	-0.129052356626628
2795	-0.129698769077568
2796	-0.129955188290472
2797	-0.129323796211836
2798	-0.12859530815509201
2799	-0.128867284182168
2800	-0.129657463053732
2801	-0.130062476664072
2802	-0.129728273380308
2803	-0.129190758628572
2804	-0.12930394786272
2805	-0.130013124012216
2806	-0.130345717970376
2807	-0.1297518768225
2808	-0.128985301393128
2809	-0.128989056486204
2810	-0.129745975961952
2811	-0.13005711224539201
2812	-0.129426793050492
2813	-0.128787890785704
2814	-0.128978864090712
2815	-0.129820004939736
2816	-0.130106464897248
2817	-0.129461661771912
2818	-0.128842071414372
2819	-0.128882304554472
2820	-0.129468099074328
2821	-0.129739538659536
2822	-0.129332379281724
2823	-0.128928974996988
2824	-0.129264787606356
2825	-0.13008983519934
2826	-0.130000785849252
2827	-0.129366175119408
2828	-0.128804520483612
2829	-0.128978864090712
2830	-0.129839316846984
2831	-0.130304948388408
2832	-0.129684821589
2833	-0.128891424066228
2834	-0.128862456205356
2835	-0.129517451726184
2836	-0.129806593893036
2837	-0.12931789535128801
2838	-0.128697232110012
2839	-0.128898397810512
2840	-0.129659072379336
2841	-0.129983083267608
2842	-0.129596845122648
2843	-0.12894989622984
2844	-0.129040554905532
2845	-0.129758314124916
2846	-0.130062476664072
2847	-0.129492775400256
2848	-0.128765896669116
2849	-0.128804520483612
2850	-0.129524425470468
2851	-0.129948750988056
2852	-0.129640296913956
2853	-0.129130677139356
2854	-0.129258886745808
2855	-0.130141333618668
2856	-0.130499140344624
2857	-0.129589334936496
2858	-0.12874068390132
2859	-0.128977791206976
2860	-0.129806057451168
2861	-0.129952506081132
2862	-0.129124776278808
2863	-0.128490701990832
2864	-0.128715471133524
2865	-0.129454688027628
2866	-0.129814104079188
2867	-0.129489556749048
2868	-0.129060939696516
2869	-0.129185394209892
2870	-0.129948750988056
2871	-0.130295292434784
2872	-0.129608110401876
2873	-0.128907517322268
2874	-0.129037872696192
2875	-0.129745975961952
2876	-0.130000785849252
2877	-0.12940587181764
2878	-0.12894828690423601
2879	-0.129179493349344
2880	-0.129771188729748
2881	-0.130209998177772
2882	-0.12977333449722
2883	-0.129185394209892
2884	-0.129468099074328
2885	-0.129933730615752
2886	-0.129978791732664
2887	-0.12944074053906
2888	-0.128994957346752
2889	-0.129045919324212
2890	-0.129564658610568
2891	-0.129872039800932
2892	-0.129319504676892
2893	-0.128694549900672
2894	-0.128814176437236
2895	-0.129539445842772
2896	-0.130060867338468
2897	-0.129519597493656
2898	-0.128863529089092
2899	-0.129047528649816
2900	-0.129789964195128
2901	-0.13004155543122
2902	-0.129536763633432
2903	-0.12907059565014
2904	-0.129281417304264
2905	-0.129857555870496
2906	-0.13001205112848
2907	-0.129409090468848
2908	-0.128791109436912
2909	-0.129005686184112
2910	-0.129772798055352
2911	-0.130196587131072
2912	-0.129828588009624
2913	-0.129133359348696
2914	-0.128971890346428
2915	-0.129614011262424
2916	-0.129830733777096
2917	-0.129425720166756
2918	-0.128962770834672
2919	-0.129094199092332
2920	-0.129819468497868
2921	-0.130095736059888
2922	-0.129659072379336
2923	-0.129131213581224
2924	-0.129106537255296
2925	-0.129744366636348
2926	-0.130209998177772
2927	-0.12973900221766801
2928	-0.12903572692872
2929	-0.12912692204628
2930	-0.129857019428628
2931	-0.129991666337496
2932	-0.129366711561276
2933	-0.128886596089416
2934	-0.129063621905856
2935	-0.129578069657268
2936	-0.129824832916548
2937	-0.129318431793156
2938	-0.128743902552528
2939	-0.129038945579928
2940	-0.130007759593536
2941	-0.13054634722900801
2942	-0.129947141662452
2943	-0.128981009858184
2944	-0.128987983602468
2945	-0.129840926172588
2946	-0.130060867338468
2947	-0.129371539538088
2948	-0.128799156064932
2949	-0.129089907557388
2950	-0.129815713404792
2951	-0.130189613386788
2952	-0.129600600215724
2953	-0.128773406855268
2954	-0.128930047880724
2955	-0.129639760472088
2956	-0.130140260734932
2957	-0.129772798055352
2958	-0.129001394649168
2959	-0.128922001252704
2960	-0.129664436798016
2961	-0.129986301918816
2962	-0.1294568337951
2963	-0.128923610578308
2964	-0.1292556680946
2965	-0.13000400450046
2966	-0.130173520130748
2967	-0.1296579994956
2968	-0.129102245720352
2969	-0.129201487465932
2970	-0.129675702077244
2971	-0.129795865055676
2972	-0.129324869095572
2973	-0.128756240715492
2974	-0.12885065448426
2975	-0.129538372959036
2976	-0.129821077823472
2977	-0.129413382003792
2978	-0.129005686184112
2979	-0.129383877701052
2980	-0.130193904921732
2981	-0.130324260295656
2982	-0.129416064213132
2983	-0.128637150620796
2984	-0.128773943297136
2985	-0.129479364353556
2986	-0.129887060173236
2987	-0.129527644121676
2988	-0.129058257487176
2989	-0.129358664933256
2990	-0.129976645965192
2991	-0.130155281107236
2992	-0.129538372959036
2993	-0.128886596089416
2994	-0.12897940053258
2995	-0.129638687588352
2996	-0.129914418708504
2997	-0.129468099074328
2998	-0.12898208274192
2999	-0.129194513721648
3000	-0.129920319569052
3001	-0.130397752831572
3002	-0.129787281985788
3003	-0.128854409577336
3004	-0.128843680739976
3005	-0.129556611982548
3006	-0.129873112684668
3007	-0.12938441414292
3008	-0.128781989925156
3009	-0.12889893425238
3010	-0.129565195052436
3011	-0.129806593893036
3012	-0.129295364792832
3013	-0.128748194087472
3014	-0.128967062369616
3015	-0.129602745983196
3016	-0.129890278824444
3017	-0.129319504676892
3018	-0.128675237993424
3019	-0.128957406415992
3020	-0.129727200496572
3021	-0.129929439080808
3022	-0.12936939377061601
3023	-0.128881231670736
3024	-0.12899817599796
3025	-0.129685358030868
3026	-0.129993812104968
3027	-0.129503504237616
3028	-0.128895715601172
3029	-0.129112438115844
3030	-0.129923001778392
3031	-0.13019175915426
3032	-0.129430548143568
3033	-0.128672019342216
3034	-0.128854946019204
3035	-0.129659608821204
3036	-0.129973963755852
3037	-0.129433766794776
3038	-0.128768578878456
3039	-0.128868893507772
3040	-0.12961508414616
3041	-0.129934803499488
3042	-0.129423037957416
3043	-0.128714934691656
3044	-0.128763214459776
3045	-0.12952120681926
3046	-0.130076960594508
3047	-0.129674629193508
3048	-0.12893916739248001
3049	-0.129104391487824
3050	-0.129765824311068
3051	-0.129990057011892
3052	-0.129404798933904
3053	-0.12873800169198
3054	-0.129012123486528
3055	-0.129742220868876
3056	-0.129995421430572
3057	-0.12938602346852401
3058	-0.128662363388592
3059	-0.128835634111956
3060	-0.129640833355824
3061	-0.12989349747565201
3062	-0.129337207258536
3063	-0.128731564389564
3064	-0.128960088625332
3065	-0.129686430914604
3066	-0.130014196895952
3067	-0.129586652727156
3068	-0.129119948301996
3069	-0.129189685744836
3070	-0.129829124451492
3071	-0.129998103639912
3072	-0.12947239060927201
3073	-0.12898208274192
3074	-0.128894106275568
3075	-0.129607573960008
3076	-0.130087689431868
3077	-0.12947239060927201
3078	-0.12869830499374801
3079	-0.128860846879752
3080	-0.129619912122972
3081	-0.12986452961478
3082	-0.129157499232756
3083	-0.128505185921268
3084	-0.128696159226276
3085	-0.129490093190916
3086	-0.129750267496896
3087	-0.129067376998932
3088	-0.128393069570856
3089	-0.128726736412752
3090	-0.129619375681104
3091	-0.129907981406088
3092	-0.129365102235672
3093	-0.128849581600524
3094	-0.129168228070116
3095	-0.12992085601092
3096	-0.130051211384844
3097	-0.129455224469496
3098	-0.128874257926452
3099	-0.129093126208596
3100	-0.129809812544244
3101	-0.130056039361656
3102	-0.129463807539384
3103	-0.128779307715816
3104	-0.128934875857536
3105	-0.129710570798664
3106	-0.129939095034432
3107	-0.129288391048548
3108	-0.12852878936346
3109	-0.128620520922888
3110	-0.129357055607652
3111	-0.12962688586725601
3112	-0.129033581161248
3113	-0.128485337572152
3114	-0.128773943297136
3115	-0.12940050739896
3116	-0.129648343541976
3117	-0.129037872696192
3118	-0.128488019781492
3119	-0.128760532250436
3120	-0.12970413349624801
3121	-0.130163327735256
3122	-0.129410163352584
3123	-0.128571168271032
3124	-0.128782526367024
3125	-0.12954802891266
3126	-0.1298055210093
3127	-0.129184857768024
3128	-0.128556684340596
3129	-0.12874873052934
3130	-0.129514233074976
3131	-0.12990476275488
3132	-0.12944610495774
3133	-0.128864601972828
3134	-0.128985301393128
3135	-0.129771725171616
3136	-0.130100027594832
3137	-0.129571632354852
3138	-0.128988520044336
3139	-0.129234746861748
3140	-0.130023852849576
3141	-0.130200342224148
3142	-0.129570023029248
3143	-0.128953651322916
3144	-0.129033581161248
3145	-0.129693941100756
3146	-0.129901544103672
3147	-0.129386559910392
3148	-0.128801301832404
3149	-0.128918246159628
3150	-0.129642979123296
3151	-0.129872039800932
3152	-0.129141942418584
3153	-0.128397897547668
3154	-0.128573850480372
3155	-0.129373148863692
3156	-0.129665509681752
3157	-0.129065767673328
3158	-0.128572241154768
3159	-0.128844217181844
3160	-0.129709497914928
3161	-0.130156353990972
3162	-0.12964727065824
3163	-0.128843680739976
3164	-0.128968135253352
3165	-0.129686967356472
3166	-0.12991924668531601
3167	-0.129298047002172
3168	-0.128702596528692
3169	-0.12889678848490801
3170	-0.129618302797368
3171	-0.129767433636672
3172	-0.129094199092332
3173	-0.128435984920296
3174	-0.128742829668792
3175	-0.129611329053084
3176	-0.129958943383548
3177	-0.129224018024388
3178	-0.12846656210677201
3179	-0.128830269693276
3180	-0.129605964634404
3181	-0.129798010823148
3182	-0.129082397371236
3183	-0.128478900269736
3184	-0.128906444438532
3185	-0.129720763194156
3186	-0.12990208054554
3187	-0.129238501954824
3188	-0.128578142015316
3189	-0.12882919680954
3190	-0.12952388902860001
3191	-0.129614011262424
3192	-0.129018024347076
3193	-0.128497139293248
3194	-0.128784135692628
3195	-0.12964727065824
3196	-0.130000249407384
3197	-0.129385487026656
3198	-0.128618375155416
3199	-0.128764287343512
3200	-0.129600063773856
3201	-0.129881695754556
3202	-0.129331306397988
3203	-0.128789500111308
3204	-0.129019097230812
3205	-0.129787281985788
3206	-0.130050674942976
3207	-0.129342035235348
3208	-0.12878091704142
3209	-0.129066304115196
3210	-0.12983770752138
3211	-0.1301542082235
3212	-0.129574314564192
3213	-0.128845826507448
3214	-0.128986910718732
3215	-0.12969286821702
3216	-0.129899934778068
3217	-0.12930877583953201
3218	-0.128748194087472
3219	-0.128937558066876
3220	-0.1296177663555
3221	-0.12971432589174
3222	-0.129006759067848
3223	-0.128400579757008
3224	-0.128640905713872
3225	-0.12945146937642
3226	-0.129789964195128
3227	-0.129245475699108
3228	-0.128615692946076
3229	-0.128993348021148
3230	-0.129827515125888
3231	-0.129994884988704
3232	-0.129359737816992
3233	-0.128800228948668
3234	-0.12909741774354
3235	-0.12995840694168
3236	-0.129977718848928
3237	-0.129187003535496
3238	-0.12856902250356
3239	-0.128829733251408
3240	-0.129691795333284
3241	-0.130051747826712
3242	-0.129553929773208
3243	-0.129035190486852
3244	-0.12925835030394
3245	-0.129865602498516
3246	-0.129936412825092
3247	-0.12933452504919601
3248	-0.128722444877808
3249	-0.128963843718408
3250	-0.129730955589648
3251	-0.12992085601092
3252	-0.129300729211512
3253	-0.128662363388592
3254	-0.128968135253352
3255	-0.129819468497868
3256	-0.130016879105292
3257	-0.129333988607328
3258	-0.128639296388268
3259	-0.128918246159628
3260	-0.129771188729748
3261	-0.129963234918492
3262	-0.12939246077094
3263	-0.128848508716788
3264	-0.129059330370912
3265	-0.129752949706236
3266	-0.130021170640236
3267	-0.129422501515548
3268	-0.1288399256469
3269	-0.129173056046928
3270	-0.129978255290796
3271	-0.129970208662776
3272	-0.128977254765108
3273	-0.128317431267468
3274	-0.1286789930865
3275	-0.129572705238588
3276	-0.129973963755852
3277	-0.129440204097192
3278	-0.128873185042716
3279	-0.129101172836616
3280	-0.129774407380956
3281	-0.129897252568728
3282	-0.129382804817316
3283	-0.12890966308974
3284	-0.129091516882992
3285	-0.129760996334256
3286	-0.129983083267608
3287	-0.129426793050492
3288	-0.128838852763164
3289	-0.129003003974772
3290	-0.129662827472412
3291	-0.129956797616076
3292	-0.12957216879672
3293	-0.129014269254
3294	-0.128918782601496
3295	-0.129347399654028
3296	-0.129706815705588
3297	-0.129227773117464
3298	-0.128529862247196
3299	-0.128692940575068
3300	-0.129556611982548
3301	-0.129849509242476
3302	-0.129244402815372
3303	-0.128643587923212
3304	-0.128969208137088
3305	-0.12970627926372
3306	-0.130000785849252
3307	-0.129378513282372
3308	-0.1287326372733
3309	-0.12899012936994
3310	-0.129630104518464
3311	-0.129752413264368
3312	-0.129028753184436
3313	-0.1283839500591
3314	-0.128737465250112
3315	-0.129530326331016
3316	-0.129784599776448
3317	-0.129212216303292
3318	-0.128748194087472
3319	-0.129158035674624
3320	-0.129847899916872
3321	-0.129879013545216
3322	-0.129306093630192
3323	-0.12877555262274
3324	-0.129030898951908
3325	-0.129669264774828
3326	-0.12981088542798
3327	-0.129190758628572
3328	-0.128647343016288
3329	-0.128834024786352
3330	-0.129559294191888
3331	-0.12969286821702
3332	-0.129098490627276
3333	-0.128587261527072
3334	-0.12889893425238
3335	-0.12958557984342
3336	-0.129670874100432
3337	-0.129087225348048
3338	-0.128639296388268
3339	-0.12888284099634
3340	-0.129567877261776
3341	-0.129838243963248
3342	-0.129398898073356
3343	-0.128808275576688
3344	-0.128991202253676
3345	-0.12968213937966
3346	-0.129941777243772
3347	-0.129289463932284
3348	-0.128551319921916
3349	-0.128921464810836
3350	-0.129861310963572
3351	-0.129852727893684
3352	-0.129062012580252
3353	-0.128496066409512
3354	-0.128656998969912
3355	-0.12923689262922
3356	-0.129319504676892
3357	-0.128812567111632
3358	-0.12837590343108
3359	-0.128796473855592
3360	-0.129686967356472
3361	-0.130070523292092
3362	-0.129484728772236
3363	-0.128814712879104
3364	-0.129091516882992
3365	-0.129670874100432
3366	-0.129622057890444
3367	-0.128962770834672
3368	-0.128437057804032
3369	-0.12871654401726
3370	-0.129438594771588
3371	-0.129618839239236
3372	-0.129056648161572
3373	-0.128455296827544
3374	-0.128698841435616
3375	-0.129388169235996
3376	-0.1294568337951
3377	-0.128927902113252
3378	-0.128502503711928
3379	-0.128808812018556
3380	-0.129721836077892
3381	-0.129870430475328
3382	-0.129093126208596
3383	-0.128549710596312
3384	-0.128886059647548
3385	-0.129659072379336
3386	-0.12974383019448
3387	-0.12907864227816
3388	-0.128573314038504
3389	-0.12899012936994
3390	-0.129784599776448
3391	-0.129698769077568
3392	-0.128717616900996
3393	-0.128140405451028
3394	-0.12854380973576401
3395	-0.129396215864016
3396	-0.129711107240532
3397	-0.12904216423113601
3398	-0.128463879897432
3399	-0.128768578878456
3400	-0.129629568076596
3401	-0.129885450847632
3402	-0.129197732372856
3403	-0.128658071853648
3404	-0.128950432671708
3405	-0.129594162913308
3406	-0.129912272941032
3407	-0.129449323608948
3408	-0.128727809296488
3409	-0.128803447599876
3410	-0.129323796211836
3411	-0.129473463493008
3412	-0.128852800251732
3413	-0.128297046476484
3414	-0.12875892292483201
3415	-0.1295104779819
3416	-0.12963600537901201
3417	-0.128958479299728
3418	-0.128289536290332
3419	-0.128639832830136
3420	-0.129484728772236
3421	-0.129736320008328
3422	-0.129227236675596
3423	-0.128744438994396
3424	-0.129004076858508
3425	-0.129808739660508
3426	-0.130041018989352
3427	-0.129321114002496
3428	-0.128419891664256
3429	-0.128581360666524
3430	-0.12935222763084
3431	-0.129555539098812
3432	-0.129012659928396
3433	-0.128487483339624
3434	-0.128801838274272
3435	-0.129565195052436
3436	-0.129818395614132
3437	-0.129236356187352
3438	-0.128601745457508
3439	-0.128840462088768
3440	-0.129547492470792
3441	-0.129617229913632
3442	-0.128940240276216
3443	-0.128499821502588
3444	-0.128928974996988
3445	-0.12961508414616
3446	-0.129825369358416
3447	-0.129386559910392
3448	-0.128735855924508
3449	-0.12879379164625201
3450	-0.129408017585112
3451	-0.129453078702024
3452	-0.128736392366376
3453	-0.12826593284814
3454	-0.128718689784732
3455	-0.129475072818612
3456	-0.129608110401876
3457	-0.128910735973476
3458	-0.128368929686796
3459	-0.128741756785056
3460	-0.129551247563868
3461	-0.12988866949884
3462	-0.129304484304588
3463	-0.128730491505828
3464	-0.128893033391832
3465	-0.129371539538088
3466	-0.129498676260804
3467	-0.128908053764136
3468	-0.128446177315788
3469	-0.128795400971856
3470	-0.129492238958388
3471	-0.129546956028924
3472	-0.12888552320568
3473	-0.12830294733703201
3474	-0.128728345738356
3475	-0.129602745983196
3476	-0.129726664054704
3477	-0.128993884463016
3478	-0.128452614618204
3479	-0.128805593367348
3480	-0.129619912122972
3481	-0.129706815705588
3482	-0.128969744578956
3483	-0.128432766269088
3484	-0.128798083181196
3485	-0.129571095912984
3486	-0.129741684427008
3487	-0.129106537255296
3488	-0.128615692946076
3489	-0.128993348021148
3490	-0.129686967356472
3491	-0.129654780844392
3492	-0.128751949180548
3493	-0.128110901148288
3494	-0.12850196727006
3495	-0.129382804817316
3496	-0.129751340380632
3497	-0.129165545860776
3498	-0.128509477456212
3499	-0.128797546739328
3500	-0.129535154307828
3501	-0.129735247124592
3502	-0.129165545860776
3503	-0.12871654401726
3504	-0.128964380160276
3505	-0.129559830633756
3506	-0.129736856450196
3507	-0.129071668533876
3508	-0.128525570712252
3509	-0.128773943297136
3510	-0.129402653166432
3511	-0.129562512843096
3512	-0.128976181881372
3513	-0.128542736852028
3514	-0.128873185042716
3515	-0.129543737377716
3516	-0.129664436798016
3517	-0.128985301393128
3518	-0.128487483339624
3519	-0.128829733251408
3520	-0.129535154307828
3521	-0.129696086868228
3522	-0.129107610139032
3523	-0.128666654923536
3524	-0.129052356626628
3525	-0.1297384657758
3526	-0.129851655009948
3527	-0.12923152821054001
3528	-0.128726736412752
3529	-0.128964380160276
3530	-0.129653707960656
3531	-0.129806057451168
3532	-0.129112974557712
3533	-0.128404871291952
3534	-0.128613547178604
3535	-0.129240111280428
3536	-0.129329160630516
3537	-0.128811494227896
3538	-0.128197268289036
3539	-0.128538981758952
3540	-0.129302874978984
3541	-0.129430548143568
3542	-0.128746584761868
3543	-0.128352299988888
3544	-0.128822223065256
3545	-0.129455224469496
3546	-0.129492775400256
3547	-0.128905371554796
3548	-0.12826056842946001
3549	-0.128615692946076
3550	-0.129366711561276
3551	-0.129514769516844
3552	-0.128869966391508
3553	-0.128420428106124
3554	-0.1288265146002
3555	-0.129523352586732
3556	-0.129675165635376
3557	-0.128941313159952
3558	-0.128441349338976
3559	-0.128997103114224
3560	-0.129844144823796
3561	-0.1298591651961
3562	-0.129018024347076
3563	-0.128366247477456
3564	-0.128728345738356
3565	-0.129615620588028
3566	-0.129685894472736
3567	-0.128980473416316
3568	-0.128468171432376
3569	-0.12874604832
3570	-0.12952657123794
3571	-0.129688576682076
3572	-0.128909126647872
3573	-0.128290609174068
3574	-0.128750876296812
3575	-0.129609183285612
3576	-0.129760459892388
3577	-0.129015342137736
3578	-0.128548637712576
3579	-0.128920928368968
3580	-0.129578069657268
3581	-0.129692331775152
3582	-0.129009441277188
3583	-0.128513232549288
3584	-0.12896867169522
3585	-0.129812494753584
3586	-0.129929975522676
3587	-0.129262105397016
3588	-0.128510550339948
3589	-0.128661290504856
3590	-0.129419819306208
3591	-0.129600600215724
3592	-0.12891341818281601
3593	-0.128332451639772
3594	-0.12860442766684801
3595	-0.129397288747752
3596	-0.1296311774022
3597	-0.128997639556092
3598	-0.128364638151852
3599	-0.128627494667172
3600	-0.129476145702348
3601	-0.129728273380308
3602	-0.129191831512308
3603	-0.128778771273948
3604	-0.129229382443068
3605	-0.12991924668531601
3606	-0.1298591651961
3607	-0.12903036251004
3608	-0.128470317199848
3609	-0.128799156064932
3610	-0.12962313077418
3611	-0.129815713404792
3612	-0.129122630511336
3613	-0.128471926525452
3614	-0.128775016180872
3615	-0.129620985006708
3616	-0.12976797007854
3617	-0.128959015741596
3618	-0.128283098987916
3619	-0.128596381038828
3620	-0.129424110841152
3621	-0.129686967356472
3622	-0.129192367954176
3623	-0.128832951902616
3624	-0.129235819745484
3625	-0.129728809822176
3626	-0.129575923889796
3627	-0.128872648600848
3628	-0.128294900709012
3629	-0.128645733690684
3630	-0.129413382003792
3631	-0.129386559910392
3632	-0.128577605573448
3633	-0.128100708752796
3634	-0.12870849738924
3635	-0.129616693471764
3636	-0.129604891750668
3637	-0.12876214157604
3638	-0.128366247477456
3639	-0.128838316321296
3640	-0.129685358030868
3641	-0.129813031195452
3642	-0.129140869534848
3643	-0.128552392805652
3644	-0.128849045158656
3645	-0.129502967795748
3646	-0.129583970517816
3647	-0.128907517322268
3648	-0.128461197688092
3649	-0.128839389205032
3650	-0.129484728772236
3651	-0.129509405098164
3652	-0.128848508716788
3653	-0.128471926525452
3654	-0.128811494227896
3655	-0.129368857328748
3656	-0.129213289187028
3657	-0.128538445317084
3658	-0.128153816497728
3659	-0.128538445317084
3660	-0.129315749583816
3661	-0.129492238958388
3662	-0.128802911158008
3663	-0.128402189082612
3664	-0.128916100392156
3665	-0.129646197774504
3666	-0.129732564915252
3667	-0.128982619183788
3668	-0.128282562546048
3669	-0.12863339552772
3670	-0.129398898073356
3671	-0.129524425470468
3672	-0.128874257926452
3673	-0.128280416778576
3674	-0.128647879458156
3675	-0.129499212702672
3676	-0.129609183285612
3677	-0.128900007136116
3678	-0.128360883058776
3679	-0.128761605134172
3680	-0.129573241680456
3681	-0.129637614704616
3682	-0.128948823346104
3683	-0.128476218060396
3684	-0.128914491066552
3685	-0.129771725171616
3686	-0.129898325452464
3687	-0.12915106193034
3688	-0.128582969992128
3689	-0.128801301832404
3690	-0.129394606538412
3691	-0.129508332214428
3692	-0.128846899391184
3693	-0.128344253360868
3694	-0.128695622784408
3695	-0.129322186886232
3696	-0.129390315003468
3697	-0.128807202692952
3698	-0.128323332128016
3699	-0.128705278738032
3700	-0.129482046562896
3701	-0.129646197774504
3702	-0.12894184960182
3703	-0.128430084059748
3704	-0.128929511438856
3705	-0.129671946984168
3706	-0.129772798055352
3707	-0.129012659928396
3708	-0.12843222982722
3709	-0.128676847319028
3710	-0.129274980001848
3711	-0.129397288747752
3712	-0.128819004414048
3713	-0.128201023382112
3714	-0.128458515478752
3715	-0.129234746861748
3716	-0.129382268375448
3717	-0.128650025225628
3718	-0.128002539890952
3719	-0.128380731407892
3720	-0.129241184164164
3721	-0.129360810700728
3722	-0.1288667477403
3723	-0.128408626385028
3724	-0.128771261087796
3725	-0.129508868656296
3726	-0.129598454448252
3727	-0.128991202253676
3728	-0.12851001389808
3729	-0.12891770971776
3730	-0.129517988168052
3731	-0.129750267496896
3732	-0.129082397371236
3733	-0.128399506873272
3734	-0.128715471133524
3735	-0.12930877583953201
3736	-0.129237429071088
3737	-0.1285046494794
3738	-0.12806476714764
3739	-0.12863017687651201
3740	-0.129527107679808
3741	-0.129656926611864
3742	-0.128771261087796
3743	-0.12825788622012
3744	-0.128762678017908
3745	-0.129654780844392
3746	-0.129725591170968
3747	-0.128938630950612
3748	-0.128492847758304
3749	-0.12899549378862
3750	-0.129623667216048
3751	-0.129517451726184
3752	-0.12873800169198
3753	-0.128153816497728
3754	-0.128554002131256
3755	-0.12923957483856
3756	-0.129290000374152
3757	-0.128681138853972
3758	-0.128333524523508
3759	-0.128801838274272
3760	-0.129442886306532
3761	-0.129578069657268
3762	-0.128974572555768
3763	-0.128477290944132
3764	-0.128881768112604
3765	-0.129709497914928
3766	-0.129891888150048
3767	-0.129221335815048
3768	-0.128594235271356
3769	-0.128907517322268
3770	-0.129559294191888
3771	-0.1295104779819
3772	-0.128787890785704
3773	-0.128367320361192
3774	-0.12870742450550401
3775	-0.129499212702672
3776	-0.129364029351936
3777	-0.128560439433672
3778	-0.128130749497404
3779	-0.128435984920296
3780	-0.129117266092656
3781	-0.129276052885584
3782	-0.128755167831756
3783	-0.12827719812736801
3784	-0.128522352061044
3785	-0.129188076419232
3786	-0.129247085024712
3787	-0.128725127087148
3788	-0.128188685219148
3789	-0.128580287782788
3790	-0.12928785460668
3791	-0.129429475259832
3792	-0.128769115320324
3793	-0.128168300428164
3794	-0.128662363388592
3795	-0.129418746422472
3796	-0.129516915284316
3797	-0.128831342577012
3798	-0.128351227105152
3799	-0.12874604832
3800	-0.129447714283344
3801	-0.129556611982548
3802	-0.128888741856888
3803	-0.128317967709336
3804	-0.128631786202116
3805	-0.129313067374476
3806	-0.129382804817316
3807	-0.128813639995368
3808	-0.12834908133768
3809	-0.128608719201792
3810	-0.129251376559656
3811	-0.129326478421176
3812	-0.128554002131256
3813	-0.128111437590156
3814	-0.128408626385028
3815	-0.128969744578956
3816	-0.128996030230488
3817	-0.128371611896136
3818	-0.12800307633282
3819	-0.128374830547344
3820	-0.129183784884288
3821	-0.129234746861748
3822	-0.128468171432376
3823	-0.128004685658424
3824	-0.128530398689064
3825	-0.129309848723268
3826	-0.1292422570479
3827	-0.128533617340272
3828	-0.128014341612048
3829	-0.128309921081316
3830	-0.129077569394424
3831	-0.1291752018144
3832	-0.128548101270708
3833	-0.128073886659396
3834	-0.128583506433996
3835	-0.129300729211512
3836	-0.129339889467876
3837	-0.128564194526748
3838	-0.128006831425896
3839	-0.128456906153148
3840	-0.12927444355998
3841	-0.129420355748076
3842	-0.128783062808892
3843	-0.128349617779548
3844	-0.128718689784732
3845	-0.129464343981252
3846	-0.12954802891266
3847	-0.128812030669764
3848	-0.12821765308002
3849	-0.128563121643012
3850	-0.129354373398312
3851	-0.129302338537116
3852	-0.12856955894542801
3853	-0.128136650357952
3854	-0.128481582479076
3855	-0.129186467093628
3856	-0.129315749583816
3857	-0.128593698829488
3858	-0.128189758102884
3859	-0.12869508634254
3860	-0.129406944701376
3861	-0.129331842839856
3862	-0.128528252921592
3863	-0.12808086040368
3864	-0.128534690224008
3865	-0.129276589327452
3866	-0.129291609699756
3867	-0.128548637712576
3868	-0.128084615496756
3869	-0.128552392805652
3870	-0.129259423187676
3871	-0.129166618744512
3872	-0.128484801130284
3873	-0.128042236589184
3874	-0.128536299549612
3875	-0.129379586166108
3876	-0.129483119446632
3877	-0.128827587483936
3878	-0.128343180477132
3879	-0.128787354343836
3880	-0.129519597493656
3881	-0.129436985445984
3882	-0.128755167831756
3883	-0.128368393244928
3884	-0.128824905274596
3885	-0.129595772238912
3886	-0.129422501515548
3887	-0.128500357944456
3888	-0.127962306750852
3889	-0.128422037431728
3890	-0.129240111280428
3891	-0.129232064652408
3892	-0.12848319180468
3893	-0.128039017937976
3894	-0.128533080898404
3895	-0.129270152025036
3896	-0.129323796211836
3897	-0.128570095387296
3898	-0.128195658963432
3899	-0.128548637712576
3900	-0.129162327209568
3901	-0.129126385604412
3902	-0.128397897547668
3903	-0.12804545524039201
3904	-0.12871386180792
3905	-0.129500822028276
3906	-0.129362420026332
3907	-0.128660754062988
3908	-0.128294900709012
3909	-0.12876750599472
3910	-0.129394606538412
3911	-0.129361347142596
3912	-0.128763214459776
3913	-0.12844081289710801
3914	-0.128847435833052
3915	-0.129460052446308
3916	-0.12949974914454
3917	-0.128687576156388
3918	-0.12808622482236
3919	-0.128488019781492
3920	-0.129238501954824
3921	-0.12924762146658
3922	-0.128551319921916
3923	-0.128287926964728
3924	-0.1289203919271
3925	-0.1297250547291
3926	-0.12963385961154
3927	-0.128828660367672
3928	-0.128410235710632
3929	-0.12880505692548
3930	-0.129438594771588
3931	-0.129376903956768
3932	-0.128659681179252
3933	-0.12828631763912401
3934	-0.128815249320972
3935	-0.129604891750668
3936	-0.129442886306532
3937	-0.128677383760896
3938	-0.128194049637828
3939	-0.12865592608617601
3940	-0.129452542260156
3941	-0.129560903517492
3942	-0.128851190926128
3943	-0.12828631763912401
3944	-0.128675774435292
3945	-0.129454688027628
3946	-0.12958826205276
3947	-0.12896330727654
3948	-0.128481046037208
3949	-0.128967062369616
3950	-0.129594162913308
3951	-0.12945146937642
3952	-0.128631249760248
3953	-0.128236964987268
3954	-0.128700987203088
3955	-0.129499212702672
3956	-0.129481510121028
3957	-0.128795937413724
3958	-0.128411845036236
3959	-0.1288131035535
3960	-0.129521743261128
3961	-0.129531399214752
3962	-0.128740147459452
3963	-0.1282900727322
3964	-0.12872459064528
3965	-0.1294568337951
3966	-0.12953998228464
3967	-0.128760532250436
3968	-0.128214434428812
3969	-0.128610328527396
3970	-0.12936027425886001
3971	-0.129410699794452
3972	-0.128653243876836
3973	-0.12803258063556
3974	-0.128466025664904
3975	-0.129147843279132
3976	-0.129119411860128
3977	-0.12848855622336
3978	-0.128073350217528
3979	-0.128510550339948
3980	-0.129244402815372
3981	-0.129303411420852
3982	-0.128629103992776
3983	-0.128257349778252
3984	-0.128816858646576
3985	-0.129590407820232
3986	-0.129441813422796
3987	-0.128651634551232
3988	-0.12826056842946001
3989	-0.128669873574744
3990	-0.129241184164164
3991	-0.129213825628896
3992	-0.128556147898728
3993	-0.128084615496756
3994	-0.128459588362488
3995	-0.129173056046928
3996	-0.129102245720352
3997	-0.128320113476808
3998	-0.127852336167912
3999	-0.128293291383408
4000	-0.129040554905532
4001	-0.12918914930296801
4002	-0.128542736852028
4003	-0.128138796125424
4004	-0.128592625945752
4005	-0.129403726050168
4006	-0.1294434227484
4007	-0.128631249760248
4008	-0.128136650357952
4009	-0.12869830499374801
4010	-0.129406944701376
4011	-0.129340962351612
4012	-0.1286253488997
4013	-0.128221408173096
4014	-0.128593698829488
4015	-0.12933452504919601
4016	-0.129372075979956
4017	-0.128749266971208
4018	-0.128453151060072
4019	-0.128783062808892
4020	-0.129374758189296
4021	-0.12929321902536
4022	-0.128449395966996
4023	-0.128000930565348
4024	-0.128537372433348
4025	-0.129319504676892
4026	-0.129366175119408
4027	-0.128684893947048
4028	-0.128308311755712
4029	-0.12879164587878
4030	-0.129524425470468
4031	-0.129492238958388
4032	-0.128653243876836
4033	-0.12804545524039201
4034	-0.12840540773382
4035	-0.12918914930296801
4036	-0.12909205332486
4037	-0.128447250199524
4038	-0.12821497087068
4039	-0.128846362949316
4040	-0.129583434075948
4041	-0.129465416864988
4042	-0.128737465250112
4043	-0.128091052799172
4044	-0.128402189082612
4045	-0.129109219464636
4046	-0.129160181442096
4047	-0.128543273293896
4048	-0.1281291401718
4049	-0.128600672573772
4050	-0.129323259769968
4051	-0.129254058768996
4052	-0.128503576595664
4053	-0.128017560263256
4054	-0.128395215338328
4055	-0.129149989046604
4056	-0.129060939696516
4057	-0.12837590343108
4058	-0.128118947776308
4059	-0.128536299549612
4060	-0.129021779440152
4061	-0.129066304115196
4062	-0.128429011176012
4063	-0.128126994404328
4064	-0.128757313599228
4065	-0.129564658610568
4066	-0.129440204097192
4067	-0.12865592608617601
4068	-0.12822033528936
4069	-0.128651098109364
4070	-0.129382804817316
4071	-0.129440204097192
4072	-0.128811494227896
4073	-0.12832494145362
4074	-0.128679529528368
4075	-0.129309848723268
4076	-0.129277662211188
4077	-0.12851537831676
4078	-0.128058329845224
4079	-0.128571168271032
4080	-0.129315213141948
4081	-0.129255131652732
4082	-0.128479973153472
4083	-0.128151670730256
4084	-0.128865138414696
4085	-0.129526034796072
4086	-0.129373148863692
4087	-0.12871117959858
4088	-0.128210679335736
4089	-0.128704742296164
4090	-0.129543200935848
4091	-0.129484728772236
4092	-0.128707960947372
4093	-0.128369466128664
4094	-0.128976181881372
4095	-0.129604891750668
4096	-0.129297510560304
4097	-0.128433839152824
4098	-0.128046528124128
4099	-0.128566876736088
4100	-0.129435912562248
4101	-0.129458979562572
4102	-0.128813639995368
4103	-0.12830884819758
4104	-0.128656998969912
4105	-0.129398898073356
4106	-0.129383877701052
4107	-0.128589407294544
4108	-0.128074959543132
4109	-0.128587261527072
4110	-0.129274980001848
4111	-0.129457906678836
4112	-0.128848508716788
4113	-0.128238037871004
4114	-0.128512159665552
4115	-0.129210606977688
4116	-0.129188076419232
4117	-0.128460124804356
4118	-0.128089979915436
4119	-0.128608719201792
4120	-0.129331306397988
4121	-0.12928302662986801
4122	-0.128490701990832
4123	-0.128056184077752
4124	-0.128647343016288
4125	-0.129337207258536
4126	-0.129147843279132
4127	-0.128457442595016
4128	-0.12801970603072801
4129	-0.128528252921592
4130	-0.129357055607652
4131	-0.129396215864016
4132	-0.128574923364108
4133	-0.128138259683556
4134	-0.128606036992452
4135	-0.129441813422796
4136	-0.129429475259832
4137	-0.128688112598256
4138	-0.128317967709336
4139	-0.12881578576284
4140	-0.129501894912012
4141	-0.129590407820232
4142	-0.128923610578308
4143	-0.12829811936022
4144	-0.128566876736088
4145	-0.129350081863368
4146	-0.129302338537116
4147	-0.12855024703818
4148	-0.12802989842622
4149	-0.128307238871976
4150	-0.12903304471938
4151	-0.129088298231784
4152	-0.128407017059424
4153	-0.127976790681288
4154	-0.12844081289710801
4155	-0.129200414582196
4156	-0.129272834234376
4157	-0.12854380973576401
4158	-0.128195658963432
4159	-0.12878467213449601
4160	-0.129630104518464
4161	-0.129654244402524
4162	-0.128909126647872
4163	-0.128507868130608
4164	-0.1290276803007
4165	-0.129686967356472
4166	-0.129527644121676
4167	-0.128537372433348
4168	-0.127981082216232
4169	-0.128447786641392
4170	-0.129129067813752
4171	-0.12904216423113601
4172	-0.128293291383408
4173	-0.12788184047065201
4174	-0.12840004331514
4175	-0.129149989046604
4176	-0.129063085463988
4177	-0.12837322122174
4178	-0.12811304691576
4179	-0.128732100831432
4180	-0.12941928286434
4181	-0.129280344420528
4182	-0.128551856363784
4183	-0.128226236149908
4184	-0.12868703971452
4185	-0.129340425909744
4186	-0.12942196507368
4187	-0.128871575717112
4188	-0.128540054642688
4189	-0.128862992647224
4190	-0.129320577560628
4191	-0.129046992207948
4192	-0.128330842314168
4193	-0.127983227983704
4194	-0.128484264688416
4195	-0.129252449443392
4196	-0.129435912562248
4197	-0.128857628228544
4198	-0.128461197688092
4199	-0.128928974996988
4200	-0.129490629632784
4201	-0.129351691188972
4202	-0.128635541295192
4203	-0.128232137010456
4204	-0.128884986763812
4205	-0.129802302358092
4206	-0.129745975961952
4207	-0.128774479739004
4208	-0.12830616598824
4209	-0.128769115320324
4210	-0.129347399654028
4211	-0.129280344420528
4212	-0.128558830108068
4213	-0.128259495545724
4214	-0.128800228948668
4215	-0.129188076419232
4216	-0.128993348021148
4217	-0.128323868569884
4218	-0.128039017937976
4219	-0.128465489223036
4220	-0.129111365232108
4221	-0.129299119885908
4222	-0.128761605134172
4223	-0.128313676174392
4224	-0.128839389205032
