0	0.067615278810192	-4.500000545439744	-4.500000545439744	-4.500000545439744
1	0.067812152975748	-4.500000545439744	-4.500000545439744	-4.500000545439744
2	0.06985009563228001	-4.500000545439744	-4.500000545439744	-4.500000545439744
3	0.0707700934359	-4.500000545439744	-4.500000545439744	-4.500000545439744
4	0.069387682742064	-4.500000545439744	-4.500000545439744	-4.500000545439744
5	0.067388363900028	-4.500000545439744	-4.500000545439744	-4.500000545439744
6	0.067691989997316	-4.500000545439744	-4.500000545439744	-4.500000545439744
7	0.070009418867076	-4.500000545439744	-4.500000545439744	-4.500000545439744
8	0.071193346069752	-4.500000545439744	-4.500000545439744	-4.500000545439744
9	0.069610842559152	-4.500000545439744	-4.500000545439744	-4.500000545439744
10	0.067459174226604	-4.500000545439744	-4.500000545439744	-4.500000545439744
11	0.067749389277192	-4.500000545439744	-4.500000545439744	-4.500000545439744
12	0.070006736657736	-4.500000545439744	-4.500000545439744	-4.500000545439744
13	0.071149894278444	-4.500000545439744	-4.500000545439744	-4.500000545439744
14	0.06960601458234	-4.500000545439744	-4.500000545439744	-4.500000545439744
15	0.067490287854948	-4.500000545439744	-4.500000545439744	-4.500000545439744
16	0.067863114953208	-4.500000545439744	-4.500000545439744	-4.500000545439744
17	0.070138701357264	-4.500000545439744	-4.500000545439744	-4.500000545439744
18	0.071118244208232	-4.500000545439744	-4.500000545439744	-4.500000545439744
19	0.069630690908268	-4.500000545439744	-4.500000545439744	-4.500000545439744
20	0.067778357138064	-4.500000545439744	-4.500000545439744	-4.500000545439744
21	0.068108805328752	-4.500000545439744	-4.500000545439744	-4.500000545439744
22	0.070115097915072	-4.500000545439744	-4.500000545439744	-4.500000545439744
23	0.07096857692706	-4.500000545439744	-4.500000545439744	-4.500000545439744
24	0.0694021666725	-4.500000545439744	-4.500000545439744	-4.500000545439744
25	0.067370124876516	-4.500000545439744	-4.500000545439744	-4.500000545439744
26	0.06792480576802801	-4.500000545439744	-4.500000545439744	-4.500000545439744
27	0.070352205220728	-4.500000545439744	-4.500000545439744	-4.500000545439744
28	0.071451911050128	-4.500000545439744	-4.500000545439744	-4.500000545439744
29	0.069910713563364	-4.500000545439744	-4.500000545439744	-4.500000545439744
30	0.067858823418264	-4.500000545439744	-4.500000545439744	-4.500000545439744
31	0.068137236747756	-4.500000545439744	-4.500000545439744	-4.500000545439744
32	0.070347913685784	-4.500000545439744	-4.500000545439744	-4.500000545439744
33	0.071489461980888	-4.500000545439744	-4.500000545439744	-4.500000545439744
34	0.069971331494448	-4.500000545439744	-4.500000545439744	-4.500000545439744
35	0.067820736045636	-4.500000545439744	-4.500000545439744	-4.500000545439744
36	0.067950018535824	-4.500000545439744	-4.500000545439744	-4.500000545439744
37	0.070077010542444	-4.500000545439744	-4.500000545439744	-4.500000545439744
38	0.071184762999864	-4.500000545439744	-4.500000545439744	-4.500000545439744
39	0.069673606257708	-4.500000545439744	-4.500000545439744	-4.500000545439744
40	0.067506381110988	-4.500000545439744	-4.500000545439744	-4.500000545439744
41	0.067845412371564	-4.500000545439744	-4.500000545439744	-4.500000545439744
42	0.070410140942472	-4.500000545439744	-4.500000545439744	-4.500000545439744
43	0.07166058693678	-4.500000545439744	-4.500000545439744	-4.500000545439744
44	0.06979859721295201	-4.500000545439744	-4.500000545439744	-4.500000545439744
45	0.06740660292354	-4.500000545439744	-4.500000545439744	-4.500000545439744
46	0.067685016253032	-4.500000545439744	-4.500000545439744	-4.500000545439744
47	0.069873162632604	-4.500000545439744	-4.500000545439744	-4.500000545439744
48	0.071043142346712	-4.500000545439744	-4.500000545439744	-4.500000545439744
49	0.069522329650932	-4.500000545439744	-4.500000545439744	-4.500000545439744
50	0.06750584466912	-4.500000545439744	-4.500000545439744	-4.500000545439744
51	0.067874916674304	-4.500000545439744	-4.500000545439744	-4.500000545439744
52	0.0699520195872	-4.500000545439744	-4.500000545439744	-4.500000545439744
53	0.0709712591364	-4.500000545439744	-4.500000545439744	-4.500000545439744
54	0.069562026349164	-4.500000545439744	-4.500000545439744	-4.500000545439744
55	0.067644783112932	-4.500000545439744	-4.500000545439744	-4.500000545439744
56	0.068081446793484	-4.500000545439744	-4.500000545439744	-4.500000545439744
57	0.070339867057764	-4.500000545439744	-4.500000545439744	-4.500000545439744
58	0.071461030561884	-4.500000545439744	-4.500000545439744	-4.500000545439744
59	0.069725104677036	-4.500000545439744	-4.500000545439744	-4.500000545439744
60	0.067393728318708	-4.500000545439744	-4.500000545439744	-4.500000545439744
61	0.067879208209248	-4.500000545439744	-4.500000545439744	-4.500000545439744
62	0.07008881226354	-4.500000545439744	-4.500000545439744	-4.500000545439744
63	0.071139701882952	-4.500000545439744	-4.500000545439744	-4.500000545439744
64	0.069483705836436	-4.500000545439744	-4.500000545439744	-4.500000545439744
65	0.067437716551884	-4.500000545439744	-4.500000545439744	-4.500000545439744
66	0.068079301026012	-4.500000545439744	-4.500000545439744	-4.500000545439744
67	0.070384928174676	-4.500000545439744	-4.500000545439744	-4.500000545439744
68	0.071142384092292	-4.500000545439744	-4.500000545439744	-4.500000545439744
69	0.069476732092152	-4.500000545439744	-4.500000545439744	-4.500000545439744
70	0.067543932041748	-4.500000545439744	-4.500000545439744	-4.500000545439744
71	0.067945190559012	-4.500000545439744	-4.500000545439744	-4.500000545439744
72	0.070109733496392	-4.500000545439744	-4.500000545439744	-4.500000545439744
73	0.071116634882628	-4.500000545439744	-4.500000545439744	-4.500000545439744
74	0.069563635674768	-4.500000545439744	-4.500000545439744	-4.500000545439744
75	0.06764800176414	-4.500000545439744	-4.500000545439744	-4.500000545439744
76	0.068098076491392	-4.500000545439744	-4.500000545439744	-4.500000545439744
77	0.070282467777888	-4.500000545439744	-4.500000545439744	-4.500000545439744
78	0.071194418953488	-4.500000545439744	-4.500000545439744	-4.500000545439744
79	0.069535740697632	-4.500000545439744	-4.500000545439744	-4.500000545439744
80	0.067553587995372	-4.500000545439744	-4.500000545439744	-4.500000545439744
81	0.068129726561604	-4.500000545439744	-4.500000545439744	-4.500000545439744
82	0.070278712684812	-4.500000545439744	-4.500000545439744	-4.500000545439744
83	0.07126415639632801	-4.500000545439744	-4.500000545439744	-4.500000545439744
84	0.069715448723412	-4.500000545439744	-4.500000545439744	-4.500000545439744
85	0.067762263882024	-4.500000545439744	-4.500000545439744	-4.500000545439744
86	0.068163522399288	-4.500000545439744	-4.500000545439744	-4.500000545439744
87	0.070255645684488	-4.500000545439744	-4.500000545439744	-4.500000545439744
88	0.071062990695828	-4.500000545439744	-4.500000545439744	-4.500000545439744
89	0.069323309717904	-4.500000545439744	-4.500000545439744	-4.500000545439744
90	0.067460783552208	-4.500000545439744	-4.500000545439744	-4.500000545439744
91	0.068176933445988	-4.500000545439744	-4.500000545439744	-4.500000545439744
92	0.070321091592384	-4.500000545439744	-4.500000545439744	-4.500000545439744
93	0.071031877067484	-4.500000545439744	-4.500000545439744	-4.500000545439744
94	0.069484778720172	-4.500000545439744	-4.500000545439744	-4.500000545439744
95	0.067563780390864	-4.500000545439744	-4.500000545439744	-4.500000545439744
96	0.068018683094928	-4.500000545439744	-4.500000545439744	-4.500000545439744
97	0.070186981125384	-4.500000545439744	-4.500000545439744	-4.500000545439744
98	0.07113755611548	-4.500000545439744	-4.500000545439744	-4.500000545439744
99	0.069452055766224	-4.500000545439744	-4.500000545439744	-4.500000545439744
100	0.06762922629876	-4.500000545439744	-4.500000545439744	-4.500000545439744
101	0.068572827544572	-4.500000545439744	-4.500000545439744	-4.500000545439744
102	0.070870944507084	-4.500000545439744	-4.500000545439744	-4.500000545439744
103	0.071307071745768	-4.500000545439744	-4.500000545439744	-4.500000545439744
104	0.069475659208416	-4.500000545439744	-4.500000545439744	-4.500000545439744
105	0.067614742368324	-4.500000545439744	-4.500000545439744	-4.500000545439744
106	0.068298705750024	-4.500000545439744	-4.500000545439744	-4.500000545439744
107	0.070539959874528	-4.500000545439744	-4.500000545439744	-4.500000545439744
108	0.071187445209204	-4.500000545439744	-4.500000545439744	-4.500000545439744
109	0.069659122327272	-4.500000545439744	-4.500000545439744	-4.500000545439744
110	0.067699500183468	-4.500000545439744	-4.500000545439744	-4.500000545439744
111	0.067917295581876	-4.500000545439744	-4.500000545439744	-4.500000545439744
112	0.070044824030364	-4.500000545439744	-4.500000545439744	-4.500000545439744
113	0.07098198797376	-4.500000545439744	-4.500000545439744	-4.500000545439744
114	0.069388219183932	-4.500000545439744	-4.500000545439744	-4.500000545439744
115	0.067579873646904	-4.500000545439744	-4.500000545439744	-4.500000545439744
116	0.068254717516848	-4.500000545439744	-4.500000545439744	-4.500000545439744
117	0.070446082547628	-4.500000545439744	-4.500000545439744	-4.500000545439744
118	0.071284541187312	-4.500000545439744	-4.500000545439744	-4.500000545439744
119	0.06960869679168	-4.500000545439744	-4.500000545439744	-4.500000545439744
120	0.067603477089096	-4.500000545439744	-4.500000545439744	-4.500000545439744
121	0.06809324851458	-4.500000545439744	-4.500000545439744	-4.500000545439744
122	0.070188590450988	-4.500000545439744	-4.500000545439744	-4.500000545439744
123	0.07086879873961201	-4.500000545439744	-4.500000545439744	-4.500000545439744
124	0.069373735253496	-4.500000545439744	-4.500000545439744	-4.500000545439744
125	0.067356713829816	-4.500000545439744	-4.500000545439744	-4.500000545439744
126	0.067828246231788	-4.500000545439744	-4.500000545439744	-4.500000545439744
127	0.070204683707028	-4.500000545439744	-4.500000545439744	-4.500000545439744
128	0.071376809188608	-4.500000545439744	-4.500000545439744	-4.500000545439744
129	0.069569000093448	-4.500000545439744	-4.500000545439744	-4.500000545439744
130	0.067193635501944	-4.500000545439744	-4.500000545439744	-4.500000545439744
131	0.067788013091688	-4.500000545439744	-4.500000545439744	-4.500000545439744
132	0.0700727190075	-4.500000545439744	-4.500000545439744	-4.500000545439744
133	0.070968040485192	-4.500000545439744	-4.500000545439744	-4.500000545439744
134	0.069550224628068	-4.500000545439744	-4.500000545439744	-4.500000545439744
135	0.067713984113904	-4.500000545439744	-4.500000545439744	-4.500000545439744
136	0.068223603888504	-4.500000545439744	-4.500000545439744	-4.500000545439744
137	0.070294805940852	-4.500000545439744	-4.500000545439744	-4.500000545439744
138	0.071010955834632	-4.500000545439744	-4.500000545439744	-4.500000545439744
139	0.069286295229012	-4.500000545439744	-4.500000545439744	-4.500000545439744
140	0.067313798480376	-4.500000545439744	-4.500000545439744	-4.500000545439744
141	0.068022974629872	-4.500000545439744	-4.500000545439744	-4.500000545439744
142	0.07042945284972	-4.500000545439744	-4.500000545439744	-4.500000545439744
143	0.071234652093588	-4.500000545439744	-4.500000545439744	-4.500000545439744
144	0.069288440996484	-4.500000545439744	-4.500000545439744	-4.500000545439744
145	0.067104049709988	-4.500000545439744	-4.500000545439744	-4.500000545439744
146	0.0678062521152	-4.500000545439744	-4.500000545439744	-4.500000545439744
147	0.070138164915396	-4.500000545439744	-4.500000545439744	-4.500000545439744
148	0.070969113368928	-4.500000545439744	-4.500000545439744	-4.500000545439744
149	0.069185444157828	-4.500000545439744	-4.500000545439744	-4.500000545439744
150	0.067326673085208	-4.500000545439744	-4.500000545439744	-4.500000545439744
151	0.06792426932616	-4.500000545439744	-4.500000545439744	-4.500000545439744
152	0.070165523450664	-4.500000545439744	-4.500000545439744	-4.500000545439744
153	0.071147748510972	-4.500000545439744	-4.500000545439744	-4.500000545439744
154	0.069318481741092	-4.500000545439744	-4.500000545439744	-4.500000545439744
155	0.067311652712904	-4.500000545439744	-4.500000545439744	-4.500000545439744
156	0.068271883656624	-4.500000545439744	-4.500000545439744	-4.500000545439744
157	0.070636519410768	-4.500000545439744	-4.500000545439744	-4.500000545439744
158	0.071486779771548	-4.500000545439744	-4.500000545439744	-4.500000545439744
159	0.069613524768492	-4.500000545439744	-4.500000545439744	-4.500000545439744
160	0.067443617412432	-4.500000545439744	-4.500000545439744	-4.500000545439744
161	0.068125971468528	-4.500000545439744	-4.500000545439744	-4.500000545439744
162	0.07038653750028	-4.500000545439744	-4.500000545439744	-4.500000545439744
163	0.071064063579564	-4.500000545439744	-4.500000545439744	-4.500000545439744
164	0.069296487624504	-4.500000545439744	-4.500000545439744	-4.500000545439744
165	0.0675514422279	-4.500000545439744	-4.500000545439744	-4.500000545439744
166	0.068205364864992	-4.500000545439744	-4.500000545439744	-4.500000545439744
167	0.070361324732484	-4.500000545439744	-4.500000545439744	-4.500000545439744
168	0.07132262855994	-4.500000545439744	-4.500000545439744	-4.500000545439744
169	0.069478341417756	-4.500000545439744	-4.500000545439744	-4.500000545439744
170	0.067263909386652	-4.500000545439744	-4.500000545439744	-4.500000545439744
171	0.067790695301028	-4.500000545439744	-4.500000545439744	-4.500000545439744
172	0.070120462333752	-4.500000545439744	-4.500000545439744	-4.500000545439744
173	0.071035095718692	-4.500000545439744	-4.500000545439744	-4.500000545439744
174	0.069352814020644	-4.500000545439744	-4.500000545439744	-4.500000545439744
175	0.067523547250764	-4.500000545439744	-4.500000545439744	-4.500000545439744
176	0.068247207330696	-4.500000545439744	-4.500000545439744	-4.500000545439744
177	0.070415505361152	-4.500000545439744	-4.500000545439744	-4.500000545439744
178	0.071045824556052	-4.500000545439744	-4.500000545439744	-4.500000545439744
179	0.069030948899844	-4.500000545439744	-4.500000545439744	-4.500000545439744
180	0.067136236222068	-4.500000545439744	-4.500000545439744	-4.500000545439744
181	0.068305679494308	-4.500000545439744	-4.500000545439744	-4.500000545439744
182	0.070712694156024	-4.500000545439744	-4.500000545439744	-4.500000545439744
183	0.07136286170004	-4.500000545439744	-4.500000545439744	-4.500000545439744
184	0.069602259489264	-4.500000545439744	-4.500000545439744	-4.500000545439744
185	0.0676855526949	-4.500000545439744	-4.500000545439744	-4.500000545439744
186	0.068403848356152	-4.500000545439744	-4.500000545439744	-4.500000545439744
187	0.070745417109972	-4.500000545439744	-4.500000545439744	-4.500000545439744
188	0.07160426054064	-4.500000545439744	-4.500000545439744	-4.500000545439744
189	0.069653757908592	-4.500000545439744	-4.500000545439744	-4.500000545439744
190	0.067642100903592	-4.500000545439744	-4.500000545439744	-4.500000545439744
191	0.068373271169676	-4.500000545439744	-4.500000545439744	-4.500000545439744
192	0.070696600899984	-4.500000545439744	-4.500000545439744	-4.500000545439744
193	0.071396657537724	-4.500000545439744	-4.500000545439744	-4.500000545439744
194	0.06932438260164	-4.500000545439744	-4.500000545439744	-4.500000545439744
195	0.067238160176988	-4.500000545439744	-4.500000545439744	-4.500000545439744
196	0.067999907629548	-4.500000545439744	-4.500000545439744	-4.500000545439744
197	0.070514747106732	-4.500000545439744	-4.500000545439744	-4.500000545439744
198	0.071542033283952	-4.500000545439744	-4.500000545439744	-4.500000545439744
199	0.069562026349164	-4.500000545439744	-4.500000545439744	-4.500000545439744
200	0.067298778108072	-4.500000545439744	-4.500000545439744	-4.500000545439744
201	0.068035849234704	-4.500000545439744	-4.500000545439744	-4.500000545439744
202	0.0704750504085	-4.500000545439744	-4.500000545439744	-4.500000545439744
203	0.071227678349304	-4.500000545439744	-4.500000545439744	-4.500000545439744
204	0.06916345004124	-4.500000545439744	-4.500000545439744	-4.500000545439744
205	0.0669479451264	-4.500000545439744	-4.500000545439744	-4.500000545439744
206	0.067744024858512	-4.500000545439744	-4.500000545439744	-4.500000545439744
207	0.070266910963716	-4.500000545439744	-4.500000545439744	-4.500000545439744
208	0.071019002462652	-4.500000545439744	-4.500000545439744	-4.500000545439744
209	0.069067426946868	-4.500000545439744	-4.500000545439744	-4.500000545439744
210	0.067139991315144	-4.500000545439744	-4.500000545439744	-4.500000545439744
211	0.067989715234056	-4.500000545439744	-4.500000545439744	-4.500000545439744
212	0.070361861174352	-4.500000545439744	-4.500000545439744	-4.500000545439744
213	0.071265229280064	-4.500000545439744	-4.500000545439744	-4.500000545439744
214	0.069404312439972	-4.500000545439744	-4.500000545439744	-4.500000545439744
215	0.06736636978344	-4.500000545439744	-4.500000545439744	-4.500000545439744
216	0.068243988679488	-4.500000545439744	-4.500000545439744	-4.500000545439744
217	0.07074863576118	-4.500000545439744	-4.500000545439744	-4.500000545439744
218	0.071565100284276	-4.500000545439744	-4.500000545439744	-4.500000545439744
219	0.069335111439	-4.500000545439744	-4.500000545439744	-4.500000545439744
220	0.067242451711932	-4.500000545439744	-4.500000545439744	-4.500000545439744
221	0.068284758261456	-4.500000545439744	-4.500000545439744	-4.500000545439744
222	0.070785113808204	-4.500000545439744	-4.500000545439744	-4.500000545439744
223	0.071623572447888	-4.500000545439744	-4.500000545439744	-4.500000545439744
224	0.069562562791032	-4.500000545439744	-4.500000545439744	-4.500000545439744
225	0.067078300500324	-4.500000545439744	-4.500000545439744	-4.500000545439744
226	0.067786940207952	-4.500000545439744	-4.500000545439744	-4.500000545439744
227	0.070336648406556	-4.500000545439744	-4.500000545439744	-4.500000545439744
228	0.071343013350924	-4.500000545439744	-4.500000545439744	-4.500000545439744
229	0.069460638836112	-4.500000545439744	-4.500000545439744	-4.500000545439744
230	0.067216702502268	-4.500000545439744	-4.500000545439744	-4.500000545439744
231	0.06791193116319601	-4.500000545439744	-4.500000545439744	-4.500000545439744
232	0.070397802779508	-4.500000545439744	-4.500000545439744	-4.500000545439744
233	0.071277567443028	-4.500000545439744	-4.500000545439744	-4.500000545439744
234	0.06957382807026	-4.500000545439744	-4.500000545439744	-4.500000545439744
235	0.067793913952236	-4.500000545439744	-4.500000545439744	-4.500000545439744
236	0.068747171151672	-4.500000545439744	-4.500000545439744	-4.500000545439744
237	0.071267911489404	-4.500000545439744	-4.500000545439744	-4.500000545439744
238	0.071959385057256	-4.500000545439744	-4.500000545439744	-4.500000545439744
239	0.069739052165604	-4.500000545439744	-4.500000545439744	-4.500000545439744
240	0.067558952414052	-4.500000545439744	-4.500000545439744	-4.500000545439744
241	0.06849665279931601	-4.500000545439744	-4.500000545439744	-4.500000545439744
242	0.070830711366984	-4.500000545439744	-4.500000545439744	-4.500000545439744
243	0.071300098001484	-4.500000545439744	-4.500000545439744	-4.500000545439744
244	0.069236406135288	-4.500000545439744	-4.500000545439744	-4.500000545439744
245	0.06721133808358801	-4.500000545439744	-4.500000545439744	-4.500000545439744
246	0.068118997724244	-4.500000545439744	-4.500000545439744	-4.500000545439744
247	0.070504018269372	-4.500000545439744	-4.500000545439744	-4.500000545439744
248	0.071223923256228	-4.500000545439744	-4.500000545439744	-4.500000545439744
249	0.069369443718552	-4.500000545439744	-4.500000545439744	-4.500000545439744
250	0.067577727879432	-4.500000545439744	-4.500000545439744	-4.500000545439744
251	0.06841511363538	-4.500000545439744	-4.500000545439744	-4.500000545439744
252	0.070565172642324	-4.500000545439744	-4.500000545439744	-4.500000545439744
253	0.071294733582804	-4.500000545439744	-4.500000545439744	-4.500000545439744
254	0.0693619335324	-4.500000545439744	-4.500000545439744	-4.500000545439744
255	0.067293413689392	-4.500000545439744	-4.500000545439744	-4.500000545439744
256	0.068094857840184	-4.500000545439744	-4.500000545439744	-4.500000545439744
257	0.070369907802372	-4.500000545439744	-4.500000545439744	-4.500000545439744
258	0.07097394134574	-4.500000545439744	-4.500000545439744	-4.500000545439744
259	0.068984278457328	-4.500000545439744	-4.500000545439744	-4.500000545439744
260	0.067042358895168	-4.500000545439744	-4.500000545439744	-4.500000545439744
261	0.068064817095576	-4.500000545439744	-4.500000545439744	-4.500000545439744
262	0.070728250970196	-4.500000545439744	-4.500000545439744	-4.500000545439744
263	0.071480342469132	-4.500000545439744	-4.500000545439744	-4.500000545439744
264	0.069196172995188	-4.500000545439744	-4.500000545439744	-4.500000545439744
265	0.067083128477136	-4.500000545439744	-4.500000545439744	-4.500000545439744
266	0.067985423699112	-4.500000545439744	-4.500000545439744	-4.500000545439744
267	0.070573219270344	-4.500000545439744	-4.500000545439744	-4.500000545439744
268	0.07132852942048801	-4.500000545439744	-4.500000545439744	-4.500000545439744
269	0.069307752903732	-4.500000545439744	-4.500000545439744	-4.500000545439744
270	0.067384608806952	-4.500000545439744	-4.500000545439744	-4.500000545439744
271	0.068429597565816	-4.500000545439744	-4.500000545439744	-4.500000545439744
272	0.071017929578916	-4.500000545439744	-4.500000545439744	-4.500000545439744
273	0.071790942310704	-4.500000545439744	-4.500000545439744	-4.500000545439744
274	0.069744953026152	-4.500000545439744	-4.500000545439744	-4.500000545439744
275	0.067679651834352	-4.500000545439744	-4.500000545439744	-4.500000545439744
276	0.068496116357448	-4.500000545439744	-4.500000545439744	-4.500000545439744
277	0.071021148230124	-4.500000545439744	-4.500000545439744	-4.500000545439744
278	0.071748563403132	-4.500000545439744	-4.500000545439744	-4.500000545439744
279	0.069395192928216	-4.500000545439744	-4.500000545439744	-4.500000545439744
280	0.06717271426909201	-4.500000545439744	-4.500000545439744	-4.500000545439744
281	0.068303533726836	-4.500000545439744	-4.500000545439744	-4.500000545439744
282	0.070684799178888	-4.500000545439744	-4.500000545439744	-4.500000545439744
283	0.071233042767984	-4.500000545439744	-4.500000545439744	-4.500000545439744
284	0.069157549180692	-4.500000545439744	-4.500000545439744	-4.500000545439744
285	0.067330428178284	-4.500000545439744	-4.500000545439744	-4.500000545439744
286	0.068389900867584	-4.500000545439744	-4.500000545439744	-4.500000545439744
287	0.070755609505464	-4.500000545439744	-4.500000545439744	-4.500000545439744
288	0.071146139185368	-4.500000545439744	-4.500000545439744	-4.500000545439744
289	0.069137164389708	-4.500000545439744	-4.500000545439744	-4.500000545439744
290	0.067340620573776	-4.500000545439744	-4.500000545439744	-4.500000545439744
291	0.068331428703972	-4.500000545439744	-4.500000545439744	-4.500000545439744
292	0.07071913145844	-4.500000545439744	-4.500000545439744	-4.500000545439744
293	0.071299561559616	-4.500000545439744	-4.500000545439744	-4.500000545439744
294	0.069173642436732	-4.500000545439744	-4.500000545439744	-4.500000545439744
295	0.067381390155744	-4.500000545439744	-4.500000545439744	-4.500000545439744
296	0.06853527661381201	-4.500000545439744	-4.500000545439744	-4.500000545439744
297	0.070997008346064	-4.500000545439744	-4.500000545439744	-4.500000545439744
298	0.07165254030876	-4.500000545439744	-4.500000545439744	-4.500000545439744
299	0.069675215583312	-4.500000545439744	-4.500000545439744	-4.500000545439744
300	0.06757558211196	-4.500000545439744	-4.500000545439744	-4.500000545439744
301	0.06833303802957601	-4.500000545439744	-4.500000545439744	-4.500000545439744
302	0.070649930457468	-4.500000545439744	-4.500000545439744	-4.500000545439744
303	0.071299025117748	-4.500000545439744	-4.500000545439744	-4.500000545439744
304	0.069132872854764	-4.500000545439744	-4.500000545439744	-4.500000545439744
305	0.067110487012404	-4.500000545439744	-4.500000545439744	-4.500000545439744
306	0.068048723839536	-4.500000545439744	-4.500000545439744	-4.500000545439744
307	0.07044018168708	-4.500000545439744	-4.500000545439744	-4.500000545439744
308	0.07109678653351201	-4.500000545439744	-4.500000545439744	-4.500000545439744
309	0.069092639714664	-4.500000545439744	-4.500000545439744	-4.500000545439744
310	0.06722153047908	-4.500000545439744	-4.500000545439744	-4.500000545439744
311	0.068364688099788	-4.500000545439744	-4.500000545439744	-4.500000545439744
312	0.070937999740584	-4.500000545439744	-4.500000545439744	-4.500000545439744
313	0.071576365563504	-4.500000545439744	-4.500000545439744	-4.500000545439744
314	0.069270201972972	-4.500000545439744	-4.500000545439744	-4.500000545439744
315	0.06710619547746	-4.500000545439744	-4.500000545439744	-4.500000545439744
316	0.068225213214108	-4.500000545439744	-4.500000545439744	-4.500000545439744
317	0.070831247808852	-4.500000545439744	-4.500000545439744	-4.500000545439744
318	0.071410605026292	-4.500000545439744	-4.500000545439744	-4.500000545439744
319	0.069148966110804	-4.500000545439744	-4.500000545439744	-4.500000545439744
320	0.067004807964408	-4.500000545439744	-4.500000545439744	-4.500000545439744
321	0.06798327793164	-4.500000545439744	-4.500000545439744	-4.500000545439744
322	0.070472904641028	-4.500000545439744	-4.500000545439744	-4.500000545439744
323	0.071131118813064	-4.500000545439744	-4.500000545439744	-4.500000545439744
324	0.068886109595484	-4.500000545439744	-4.500000545439744	-4.500000545439744
325	0.066652902099	-4.500000545439744	-4.500000545439744	-4.500000545439744
326	0.067590066042396	-4.500000545439744	-4.500000545439744	-4.500000545439744
327	0.070131191171112	-4.500000545439744	-4.500000545439744	-4.500000545439744
328	0.07086879873961201	-4.500000545439744	-4.500000545439744	-4.500000545439744
329	0.068957992805796	-4.500000545439744	-4.500000545439744	-4.500000545439744
330	0.067170032059752	-4.500000545439744	-4.500000545439744	-4.500000545439744
331	0.068204828423124	-4.500000545439744	-4.500000545439744	-4.500000545439744
332	0.070667633039112	-4.500000545439744	-4.500000545439744	-4.500000545439744
333	0.07131726414126	-4.500000545439744	-4.500000545439744	-4.500000545439744
334	0.069294341857032	-4.500000545439744	-4.500000545439744	-4.500000545439744
335	0.067454346249792	-4.500000545439744	-4.500000545439744	-4.500000545439744
336	0.068657585359716	-4.500000545439744	-4.500000545439744	-4.500000545439744
337	0.071185299441732	-4.500000545439744	-4.500000545439744	-4.500000545439744
338	0.071690627681388	-4.500000545439744	-4.500000545439744	-4.500000545439744
339	0.069385536974592	-4.500000545439744	-4.500000545439744	-4.500000545439744
340	0.067554660879108	-4.500000545439744	-4.500000545439744	-4.500000545439744
341	0.06872088550014	-4.500000545439744	-4.500000545439744	-4.500000545439744
342	0.07112950948746	-4.500000545439744	-4.500000545439744	-4.500000545439744
343	0.071573683354164	-4.500000545439744	-4.500000545439744	-4.500000545439744
344	0.069214948460568	-4.500000545439744	-4.500000545439744	-4.500000545439744
345	0.06713033536152	-4.500000545439744	-4.500000545439744	-4.500000545439744
346	0.068132408770944	-4.500000545439744	-4.500000545439744	-4.500000545439744
347	0.070488997897068	-4.500000545439744	-4.500000545439744	-4.500000545439744
348	0.071148821394708	-4.500000545439744	-4.500000545439744	-4.500000545439744
349	0.068990715759744	-4.500000545439744	-4.500000545439744	-4.500000545439744
350	0.067022510546052	-4.500000545439744	-4.500000545439744	-4.500000545439744
351	0.06797523130362	-4.500000545439744	-4.500000545439744	-4.500000545439744
352	0.070405849407528	-4.500000545439744	-4.500000545439744	-4.500000545439744
353	0.07103026774188	-4.500000545439744	-4.500000545439744	-4.500000545439744
354	0.069014855643804	-4.500000545439744	-4.500000545439744	-4.500000545439744
355	0.06719470838568	-4.500000545439744	-4.500000545439744	-4.500000545439744
356	0.06827832095904	-4.500000545439744	-4.500000545439744	-4.500000545439744
357	0.070692845806908	-4.500000545439744	-4.500000545439744	-4.500000545439744
358	0.0713735905374	-4.500000545439744	-4.500000545439744	-4.500000545439744
359	0.069229968832872	-4.500000545439744	-4.500000545439744	-4.500000545439744
360	0.067348130759928	-4.500000545439744	-4.500000545439744	-4.500000545439744
361	0.068486996845692	-4.500000545439744	-4.500000545439744	-4.500000545439744
362	0.070829638483248	-4.500000545439744	-4.500000545439744	-4.500000545439744
363	0.07111341623142	-4.500000545439744	-4.500000545439744	-4.500000545439744
364	0.068909713037676	-4.500000545439744	-4.500000545439744	-4.500000545439744
365	0.067227431339628	-4.500000545439744	-4.500000545439744	-4.500000545439744
366	0.068557807172268	-4.500000545439744	-4.500000545439744	-4.500000545439744
367	0.071049579649128	-4.500000545439744	-4.500000545439744	-4.500000545439744
368	0.071546861260764	-4.500000545439744	-4.500000545439744	-4.500000545439744
369	0.06905938031884801	-4.500000545439744	-4.500000545439744	-4.500000545439744
370	0.066893228055864	-4.500000545439744	-4.500000545439744	-4.500000545439744
371	0.068227895423448	-4.500000545439744	-4.500000545439744	-4.500000545439744
372	0.070829638483248	-4.500000545439744	-4.500000545439744	-4.500000545439744
373	0.071254500442704	-4.500000545439744	-4.500000545439744	-4.500000545439744
374	0.069068499830604	-4.500000545439744	-4.500000545439744	-4.500000545439744
375	0.067231722874572	-4.500000545439744	-4.500000545439744	-4.500000545439744
376	0.068370588960336	-4.500000545439744	-4.500000545439744	-4.500000545439744
377	0.070718058574704	-4.500000545439744	-4.500000545439744	-4.500000545439744
378	0.071103223835928	-4.500000545439744	-4.500000545439744	-4.500000545439744
379	0.068923660526244	-4.500000545439744	-4.500000545439744	-4.500000545439744
380	0.067045041104508	-4.500000545439744	-4.500000545439744	-4.500000545439744
381	0.06817907921346	-4.500000545439744	-4.500000545439744	-4.500000545439744
382	0.070597895596272	-4.500000545439744	-4.500000545439744	-4.500000545439744
383	0.071073719533188	-4.500000545439744	-4.500000545439744	-4.500000545439744
384	0.068849095106592	-4.500000545439744	-4.500000545439744	-4.500000545439744
385	0.067057379267472	-4.500000545439744	-4.500000545439744	-4.500000545439744
386	0.068498798566788	-4.500000545439744	-4.500000545439744	-4.500000545439744
387	0.070974477787608	-4.500000545439744	-4.500000545439744	-4.500000545439744
388	0.071348914211472	-4.500000545439744	-4.500000545439744	-4.500000545439744
389	0.06912321690114	-4.500000545439744	-4.500000545439744	-4.500000545439744
390	0.067486532761872	-4.500000545439744	-4.500000545439744	-4.500000545439744
391	0.068689235429928	-4.500000545439744	-4.500000545439744	-4.500000545439744
392	0.071080156835604	-4.500000545439744	-4.500000545439744	-4.500000545439744
393	0.071511456097476	-4.500000545439744	-4.500000545439744	-4.500000545439744
394	0.069440790486996	-4.500000545439744	-4.500000545439744	-4.500000545439744
395	0.067627616973156	-4.500000545439744	-4.500000545439744	-4.500000545439744
396	0.068587311475008	-4.500000545439744	-4.500000545439744	-4.500000545439744
397	0.071069964440112	-4.500000545439744	-4.500000545439744	-4.500000545439744
398	0.07150233658572	-4.500000545439744	-4.500000545439744	-4.500000545439744
399	0.069159158506296	-4.500000545439744	-4.500000545439744	-4.500000545439744
400	0.06729770522433601	-4.500000545439744	-4.500000545439744	-4.500000545439744
401	0.06852508421832	-4.500000545439744	-4.500000545439744	-4.500000545439744
402	0.070877918251368	-4.500000545439744	-4.500000545439744	-4.500000545439744
403	0.071206757116452	-4.500000545439744	-4.500000545439744	-4.500000545439744
404	0.068932780038	-4.500000545439744	-4.500000545439744	-4.500000545439744
405	0.06712765315218	-4.500000545439744	-4.500000545439744	-4.500000545439744
406	0.068386682216376	-4.500000545439744	-4.500000545439744	-4.500000545439744
407	0.070853778367308	-4.500000545439744	-4.500000545439744	-4.500000545439744
408	0.071310290396976	-4.500000545439744	-4.500000545439744	-4.500000545439744
409	0.069001444597104	-4.500000545439744	-4.500000545439744	-4.500000545439744
410	0.067150720152504	-4.500000545439744	-4.500000545439744	-4.500000545439744
411	0.06853527661381201	-4.500000545439744	-4.500000545439744	-4.500000545439744
412	0.071205684232716	-4.500000545439744	-4.500000545439744	-4.500000545439744
413	0.071662732704252	-4.500000545439744	-4.500000545439744	-4.500000545439744
414	0.069240697670232	-4.500000545439744	-4.500000545439744	-4.500000545439744
415	0.067657657717764	-4.500000545439744	-4.500000545439744	-4.500000545439744
416	0.069121071133668	-4.500000545439744	-4.500000545439744	-4.500000545439744
417	0.071288296280388	-4.500000545439744	-4.500000545439744	-4.500000545439744
418	0.071281322536104	-4.500000545439744	-4.500000545439744	-4.500000545439744
419	0.068990179317876	-4.500000545439744	-4.500000545439744	-4.500000545439744
420	0.067266591595992	-4.500000545439744	-4.500000545439744	-4.500000545439744
421	0.06831318968046	-4.500000545439744	-4.500000545439744	-4.500000545439744
422	0.07046432157114	-4.500000545439744	-4.500000545439744	-4.500000545439744
423	0.070916005623996	-4.500000545439744	-4.500000545439744	-4.500000545439744
424	0.068978914038648	-4.500000545439744	-4.500000545439744	-4.500000545439744
425	0.067333646829492	-4.500000545439744	-4.500000545439744	-4.500000545439744
426	0.068613060684672	-4.500000545439744	-4.500000545439744	-4.500000545439744
427	0.070934244647508	-4.500000545439744	-4.500000545439744	-4.500000545439744
428	0.071236261419192	-4.500000545439744	-4.500000545439744	-4.500000545439744
429	0.069037922644128	-4.500000545439744	-4.500000545439744	-4.500000545439744
430	0.06727249245654	-4.500000545439744	-4.500000545439744	-4.500000545439744
431	0.068462856961632	-4.500000545439744	-4.500000545439744	-4.500000545439744
432	0.070899375926088	-4.500000545439744	-4.500000545439744	-4.500000545439744
433	0.071312436164448	-4.500000545439744	-4.500000545439744	-4.500000545439744
434	0.069088884621588	-4.500000545439744	-4.500000545439744	-4.500000545439744
435	0.067341693457512	-4.500000545439744	-4.500000545439744	-4.500000545439744
436	0.068432816217024	-4.500000545439744	-4.500000545439744	-4.500000545439744
437	0.070696600899984	-4.500000545439744	-4.500000545439744	-4.500000545439744
438	0.071092494998568	-4.500000545439744	-4.500000545439744	-4.500000545439744
439	0.068979450480516	-4.500000545439744	-4.500000545439744	-4.500000545439744
440	0.067440398761224	-4.500000545439744	-4.500000545439744	-4.500000545439744
441	0.068802961105944	-4.500000545439744	-4.500000545439744	-4.500000545439744
442	0.071156868022728	-4.500000545439744	-4.500000545439744	-4.500000545439744
443	0.07125128179149601	-4.500000545439744	-4.500000545439744	-4.500000545439744
444	0.068984278457328	-4.500000545439744	-4.500000545439744	-4.500000545439744
445	0.067259617851708	-4.500000545439744	-4.500000545439744	-4.500000545439744
446	0.068473049357124	-4.500000545439744	-4.500000545439744	-4.500000545439744
447	0.071002909206612	-4.500000545439744	-4.500000545439744	-4.500000545439744
448	0.07132531076928	-4.500000545439744	-4.500000545439744	-4.500000545439744
449	0.069076546458624	-4.500000545439744	-4.500000545439744	-4.500000545439744
450	0.0674173317609	-4.500000545439744	-4.500000545439744	-4.500000545439744
451	0.068526157102056	-4.500000545439744	-4.500000545439744	-4.500000545439744
452	0.070758291714804	-4.500000545439744	-4.500000545439744	-4.500000545439744
453	0.071029194858144	-4.500000545439744	-4.500000545439744	-4.500000545439744
454	0.068853923083404	-4.500000545439744	-4.500000545439744	-4.500000545439744
455	0.06727195601467201	-4.500000545439744	-4.500000545439744	-4.500000545439744
456	0.068749316919144	-4.500000545439744	-4.500000545439744	-4.500000545439744
457	0.071146139185368	-4.500000545439744	-4.500000545439744	-4.500000545439744
458	0.071213194418868	-4.500000545439744	-4.500000545439744	-4.500000545439744
459	0.068911858805148	-4.500000545439744	-4.500000545439744	-4.500000545439744
460	0.067440398761224	-4.500000545439744	-4.500000545439744	-4.500000545439744
461	0.068871625665048	-4.500000545439744	-4.500000545439744	-4.500000545439744
462	0.071001836322876	-4.500000545439744	-4.500000545439744	-4.500000545439744
463	0.071037241486164	-4.500000545439744	-4.500000545439744	-4.500000545439744
464	0.06876916526826	-4.500000545439744	-4.500000545439744	-4.500000545439744
465	0.067227967781496	-4.500000545439744	-4.500000545439744	-4.500000545439744
466	0.068768092384524	-4.500000545439744	-4.500000545439744	-4.500000545439744
467	0.070966967601456	-4.500000545439744	-4.500000545439744	-4.500000545439744
468	0.07095892097343601	-4.500000545439744	-4.500000545439744	-4.500000545439744
469	0.06865919468532	-4.500000545439744	-4.500000545439744	-4.500000545439744
470	0.0670686445467	-4.500000545439744	-4.500000545439744	-4.500000545439744
471	0.068465002729104	-4.500000545439744	-4.500000545439744	-4.500000545439744
472	0.070822664738964	-4.500000545439744	-4.500000545439744	-4.500000545439744
473	0.071015247369576	-4.500000545439744	-4.500000545439744	-4.500000545439744
474	0.068716593965196	-4.500000545439744	-4.500000545439744	-4.500000545439744
475	0.066996761336388	-4.500000545439744	-4.500000545439744	-4.500000545439744
476	0.068387218658244	-4.500000545439744	-4.500000545439744	-4.500000545439744
477	0.07079423331996	-4.500000545439744	-4.500000545439744	-4.500000545439744
478	0.070945509926736	-4.500000545439744	-4.500000545439744	-4.500000545439744
479	0.068751999128484	-4.500000545439744	-4.500000545439744	-4.500000545439744
480	0.067178078687772	-4.500000545439744	-4.500000545439744	-4.500000545439744
481	0.06857872840512	-4.500000545439744	-4.500000545439744	-4.500000545439744
482	0.070962139624644	-4.500000545439744	-4.500000545439744	-4.500000545439744
483	0.071127363719988	-4.500000545439744	-4.500000545439744	-4.500000545439744
484	0.068937071572944	-4.500000545439744	-4.500000545439744	-4.500000545439744
485	0.06724567036314	-4.500000545439744	-4.500000545439744	-4.500000545439744
486	0.068522938450848	-4.500000545439744	-4.500000545439744	-4.500000545439744
487	0.070880600460708	-4.500000545439744	-4.500000545439744	-4.500000545439744
488	0.071104296719664	-4.500000545439744	-4.500000545439744	-4.500000545439744
489	0.068749853361012	-4.500000545439744	-4.500000545439744	-4.500000545439744
490	0.067149647268768	-4.500000545439744	-4.500000545439744	-4.500000545439744
491	0.068426915356476	-4.500000545439744	-4.500000545439744	-4.500000545439744
492	0.07064081094571201	-4.500000545439744	-4.500000545439744	-4.500000545439744
493	0.070902594577296	-4.500000545439744	-4.500000545439744	-4.500000545439744
494	0.0688120806177	-4.500000545439744	-4.500000545439744	-4.500000545439744
495	0.067278929758956	-4.500000545439744	-4.500000545439744	-4.500000545439744
496	0.068520256241508	-4.500000545439744	-4.500000545439744	-4.500000545439744
497	0.07083017492511601	-4.500000545439744	-4.500000545439744	-4.500000545439744
498	0.071080693277472	-4.500000545439744	-4.500000545439744	-4.500000545439744
499	0.068865188362632	-4.500000545439744	-4.500000545439744	-4.500000545439744
500	0.067104049709988	-4.500000545439744	-4.500000545439744	-4.500000545439744
501	0.068389900867584	-4.500000545439744	-4.500000545439744	-4.500000545439744
502	0.07081569099468	-4.500000545439744	-4.500000545439744	-4.500000545439744
503	0.070993789694856	-4.500000545439744	-4.500000545439744	-4.500000545439744
504	0.068611451359068	-4.500000545439744	-4.500000545439744	-4.500000545439744
505	0.066974230777932	-4.500000545439744	-4.500000545439744	-4.500000545439744
506	0.06847412224086	-4.500000545439744	-4.500000545439744	-4.500000545439744
507	0.070882209786312	-4.500000545439744	-4.500000545439744	-4.500000545439744
508	0.071227678349304	-4.500000545439744	-4.500000545439744	-4.500000545439744
509	0.06898374201546	-4.500000545439744	-4.500000545439744	-4.500000545439744
510	0.067203827897436	-4.500000545439744	-4.500000545439744	-4.500000545439744
511	0.068485387520088	-4.500000545439744	-4.500000545439744	-4.500000545439744
512	0.07064671180626	-4.500000545439744	-4.500000545439744	-4.500000545439744
513	0.07079959773864	-4.500000545439744	-4.500000545439744	-4.500000545439744
514	0.068567463125892	-4.500000545439744	-4.500000545439744	-4.500000545439744
515	0.066997834220124	-4.500000545439744	-4.500000545439744	-4.500000545439744
516	0.068395265286264	-4.500000545439744	-4.500000545439744	-4.500000545439744
517	0.070703574644268	-4.500000545439744	-4.500000545439744	-4.500000545439744
518	0.070899375926088	-4.500000545439744	-4.500000545439744	-4.500000545439744
519	0.068704255802232	-4.500000545439744	-4.500000545439744	-4.500000545439744
520	0.067186125315792	-4.500000545439744	-4.500000545439744	-4.500000545439744
521	0.068649002289828	-4.500000545439744	-4.500000545439744	-4.500000545439744
522	0.070935853973112	-4.500000545439744	-4.500000545439744	-4.500000545439744
523	0.070950337903548	-4.500000545439744	-4.500000545439744	-4.500000545439744
524	0.068681725243776	-4.500000545439744	-4.500000545439744	-4.500000545439744
525	0.067228504223364	-4.500000545439744	-4.500000545439744	-4.500000545439744
526	0.068565853800288	-4.500000545439744	-4.500000545439744	-4.500000545439744
527	0.07076472901722	-4.500000545439744	-4.500000545439744	-4.500000545439744
528	0.070954629438492	-4.500000545439744	-4.500000545439744	-4.500000545439744
529	0.06866724131334	-4.500000545439744	-4.500000545439744	-4.500000545439744
530	0.066975303661668	-4.500000545439744	-4.500000545439744	-4.500000545439744
531	0.068355568588032	-4.500000545439744	-4.500000545439744	-4.500000545439744
532	0.070647248248128	-4.500000545439744	-4.500000545439744	-4.500000545439744
533	0.070795306203696	-4.500000545439744	-4.500000545439744	-4.500000545439744
534	0.068596967428632	-4.500000545439744	-4.500000545439744	-4.500000545439744
535	0.067107268361196	-4.500000545439744	-4.500000545439744	-4.500000545439744
536	0.06852508421832	-4.500000545439744	-4.500000545439744	-4.500000545439744
537	0.070734688272612	-4.500000545439744	-4.500000545439744	-4.500000545439744
538	0.070773312087108	-4.500000545439744	-4.500000545439744	-4.500000545439744
539	0.06847948665954	-4.500000545439744	-4.500000545439744	-4.500000545439744
540	0.06703109361594001	-4.500000545439744	-4.500000545439744	-4.500000545439744
541	0.068797596687264	-4.500000545439744	-4.500000545439744	-4.500000545439744
542	0.071164914650748	-4.500000545439744	-4.500000545439744	-4.500000545439744
543	0.070891329298068	-4.500000545439744	-4.500000545439744	-4.500000545439744
544	0.068324454959688	-4.500000545439744	-4.500000545439744	-4.500000545439744
545	0.066971012126724	-4.500000545439744	-4.500000545439744	-4.500000545439744
546	0.068513818939092	-4.500000545439744	-4.500000545439744	-4.500000545439744
547	0.070735761156348	-4.500000545439744	-4.500000545439744	-4.500000545439744
548	0.070777067180184	-4.500000545439744	-4.500000545439744	-4.500000545439744
549	0.068596430986764	-4.500000545439744	-4.500000545439744	-4.500000545439744
550	0.067181833780848	-4.500000545439744	-4.500000545439744	-4.500000545439744
551	0.068685480336852	-4.500000545439744	-4.500000545439744	-4.500000545439744
552	0.070988425276176	-4.500000545439744	-4.500000545439744	-4.500000545439744
553	0.070929416670696	-4.500000545439744	-4.500000545439744	-4.500000545439744
554	0.06857604619578	-4.500000545439744	-4.500000545439744	-4.500000545439744
555	0.067215093176664	-4.500000545439744	-4.500000545439744	-4.500000545439744
556	0.068716593965196	-4.500000545439744	-4.500000545439744	-4.500000545439744
557	0.070848413948628	-4.500000545439744	-4.500000545439744	-4.500000545439744
558	0.070838757995004	-4.500000545439744	-4.500000545439744	-4.500000545439744
559	0.068551369869852	-4.500000545439744	-4.500000545439744	-4.500000545439744
560	0.067067571662964	-4.500000545439744	-4.500000545439744	-4.500000545439744
561	0.068510063846016	-4.500000545439744	-4.500000545439744	-4.500000545439744
562	0.070761510366012	-4.500000545439744	-4.500000545439744	-4.500000545439744
563	0.070666023713508	-4.500000545439744	-4.500000545439744	-4.500000545439744
564	0.068314262564196	-4.500000545439744	-4.500000545439744	-4.500000545439744
565	0.06711424210548	-4.500000545439744	-4.500000545439744	-4.500000545439744
566	0.06868869898806	-4.500000545439744	-4.500000545439744	-4.500000545439744
567	0.070918151391468	-4.500000545439744	-4.500000545439744	-4.500000545439744
568	0.070924588693884	-4.500000545439744	-4.500000545439744	-4.500000545439744
569	0.06866402266213201	-4.500000545439744	-4.500000545439744	-4.500000545439744
570	0.067279466200824	-4.500000545439744	-4.500000545439744	-4.500000545439744
571	0.068765946617052	-4.500000545439744	-4.500000545439744	-4.500000545439744
572	0.070859142785988	-4.500000545439744	-4.500000545439744	-4.500000545439744
573	0.070823201180832	-4.500000545439744	-4.500000545439744	-4.500000545439744
574	0.068453201008008	-4.500000545439744	-4.500000545439744	-4.500000545439744
575	0.067022510546052	-4.500000545439744	-4.500000545439744	-4.500000545439744
576	0.068762727965844	-4.500000545439744	-4.500000545439744	-4.500000545439744
577	0.071076401742528	-4.500000545439744	-4.500000545439744	-4.500000545439744
578	0.070887574204992	-4.500000545439744	-4.500000545439744	-4.500000545439744
579	0.068544932567436	-4.500000545439744	-4.500000545439744	-4.500000545439744
580	0.067186125315792	-4.500000545439744	-4.500000545439744	-4.500000545439744
581	0.068924196968112	-4.500000545439744	-4.500000545439744	-4.500000545439744
582	0.07136822611872	-4.500000545439744	-4.500000545439744	-4.500000545439744
583	0.071236261419192	-4.500000545439744	-4.500000545439744	-4.500000545439744
584	0.068677433708832	-4.500000545439744	-4.500000545439744	-4.500000545439744
585	0.067168422734148	-4.500000545439744	-4.500000545439744	-4.500000545439744
586	0.068786331408036	-4.500000545439744	-4.500000545439744	-4.500000545439744
587	0.071217485953812	-4.500000545439744	-4.500000545439744	-4.500000545439744
588	0.07133067518796	-4.500000545439744	-4.500000545439744	-4.500000545439744
589	0.068923660526244	-4.500000545439744	-4.500000545439744	-4.500000545439744
590	0.06737495285332801	-4.500000545439744	-4.500000545439744	-4.500000545439744
591	0.068833001850552	-4.500000545439744	-4.500000545439744	-4.500000545439744
592	0.071002372764744	-4.500000545439744	-4.500000545439744	-4.500000545439744
593	0.070969649810796	-4.500000545439744	-4.500000545439744	-4.500000545439744
594	0.068729468570028	-4.500000545439744	-4.500000545439744	-4.500000545439744
595	0.067330964620152	-4.500000545439744	-4.500000545439744	-4.500000545439744
596	0.068957456363928	-4.500000545439744	-4.500000545439744	-4.500000545439744
597	0.07136286170004	-4.500000545439744	-4.500000545439744	-4.500000545439744
598	0.071382173607288	-4.500000545439744	-4.500000545439744	-4.500000545439744
599	0.068937608014812	-4.500000545439744	-4.500000545439744	-4.500000545439744
600	0.067553051553504	-4.500000545439744	-4.500000545439744	-4.500000545439744
601	0.069163986483108	-4.500000545439744	-4.500000545439744	-4.500000545439744
602	0.071387538025968	-4.500000545439744	-4.500000545439744	-4.500000545439744
603	0.07123411565172	-4.500000545439744	-4.500000545439744	-4.500000545439744
604	0.068730541453764	-4.500000545439744	-4.500000545439744	-4.500000545439744
605	0.067294486573128	-4.500000545439744	-4.500000545439744	-4.500000545439744
606	0.068807252640888	-4.500000545439744	-4.500000545439744	-4.500000545439744
607	0.070848413948628	-4.500000545439744	-4.500000545439744	-4.500000545439744
608	0.070814081669076	-4.500000545439744	-4.500000545439744	-4.500000545439744
609	0.068637200568732	-4.500000545439744	-4.500000545439744	-4.500000545439744
610	0.06729395013126	-4.500000545439744	-4.500000545439744	-4.500000545439744
611	0.068834074734288	-4.500000545439744	-4.500000545439744	-4.500000545439744
612	0.071103223835928	-4.500000545439744	-4.500000545439744	-4.500000545439744
613	0.071044215230448	-4.500000545439744	-4.500000545439744	-4.500000545439744
614	0.068693526964872	-4.500000545439744	-4.500000545439744	-4.500000545439744
615	0.067396410528048	-4.500000545439744	-4.500000545439744	-4.500000545439744
616	0.069089957505324	-4.500000545439744	-4.500000545439744	-4.500000545439744
617	0.071316727699392	-4.500000545439744	-4.500000545439744	-4.500000545439744
618	0.071113952673288	-4.500000545439744	-4.500000545439744	-4.500000545439744
619	0.068607696265992	-4.500000545439744	-4.500000545439744	-4.500000545439744
620	0.067277320433352	-4.500000545439744	-4.500000545439744	-4.500000545439744
621	0.068939753782284	-4.500000545439744	-4.500000545439744	-4.500000545439744
622	0.071262547070724	-4.500000545439744	-4.500000545439744	-4.500000545439744
623	0.071176716371844	-4.500000545439744	-4.500000545439744	-4.500000545439744
624	0.068852850199668	-4.500000545439744	-4.500000545439744	-4.500000545439744
625	0.067483850552532	-4.500000545439744	-4.500000545439744	-4.500000545439744
626	0.068942435991624	-4.500000545439744	-4.500000545439744	-4.500000545439744
627	0.071092494998568	-4.500000545439744	-4.500000545439744	-4.500000545439744
628	0.071085521254284	-4.500000545439744	-4.500000545439744	-4.500000545439744
629	0.06876380084958	-4.500000545439744	-4.500000545439744	-4.500000545439744
630	0.067340084131908	-4.500000545439744	-4.500000545439744	-4.500000545439744
631	0.068856068850876	-4.500000545439744	-4.500000545439744	-4.500000545439744
632	0.07090742255410801	-4.500000545439744	-4.500000545439744	-4.500000545439744
633	0.070860752111592	-4.500000545439744	-4.500000545439744	-4.500000545439744
634	0.068623789522032	-4.500000545439744	-4.500000545439744	-4.500000545439744
635	0.067273028898408	-4.500000545439744	-4.500000545439744	-4.500000545439744
636	0.06890488506086401	-4.500000545439744	-4.500000545439744	-4.500000545439744
637	0.071138092557348	-4.500000545439744	-4.500000545439744	-4.500000545439744
638	0.07089454794927601	-4.500000545439744	-4.500000545439744	-4.500000545439744
639	0.06868601677872	-4.500000545439744	-4.500000545439744	-4.500000545439744
640	0.067524083692632	-4.500000545439744	-4.500000545439744	-4.500000545439744
641	0.06915003899454	-4.500000545439744	-4.500000545439744	-4.500000545439744
642	0.071382173607288	-4.500000545439744	-4.500000545439744	-4.500000545439744
643	0.07117403416250401	-4.500000545439744	-4.500000545439744	-4.500000545439744
644	0.068666704871472	-4.500000545439744	-4.500000545439744	-4.500000545439744
645	0.067271419572804	-4.500000545439744	-4.500000545439744	-4.500000545439744
646	0.068976231829308	-4.500000545439744	-4.500000545439744	-4.500000545439744
647	0.07132262855994	-4.500000545439744	-4.500000545439744	-4.500000545439744
648	0.071331748071696	-4.500000545439744	-4.500000545439744	-4.500000545439744
649	0.06886840701384	-4.500000545439744	-4.500000545439744	-4.500000545439744
650	0.06743610722628	-4.500000545439744	-4.500000545439744	-4.500000545439744
651	0.069043287062808	-4.500000545439744	-4.500000545439744	-4.500000545439744
652	0.071152040045916	-4.500000545439744	-4.500000545439744	-4.500000545439744
653	0.071040460137372	-4.500000545439744	-4.500000545439744	-4.500000545439744
654	0.068527229985792	-4.500000545439744	-4.500000545439744	-4.500000545439744
655	0.06726712803786	-4.500000545439744	-4.500000545439744	-4.500000545439744
656	0.068967112317552	-4.500000545439744	-4.500000545439744	-4.500000545439744
657	0.070988425276176	-4.500000545439744	-4.500000545439744	-4.500000545439744
658	0.07086665297214	-4.500000545439744	-4.500000545439744	-4.500000545439744
659	0.068620570870824	-4.500000545439744	-4.500000545439744	-4.500000545439744
660	0.067447372505508	-4.500000545439744	-4.500000545439744	-4.500000545439744
661	0.068953701270852	-4.500000545439744	-4.500000545439744	-4.500000545439744
662	0.070986815950572	-4.500000545439744	-4.500000545439744	-4.500000545439744
663	0.07090688611224	-4.500000545439744	-4.500000545439744	-4.500000545439744
664	0.068596430986764	-4.500000545439744	-4.500000545439744	-4.500000545439744
665	0.0672832212939	-4.500000545439744	-4.500000545439744	-4.500000545439744
666	0.069014319201936	-4.500000545439744	-4.500000545439744	-4.500000545439744
667	0.071168669743824	-4.500000545439744	-4.500000545439744	-4.500000545439744
668	0.071039923695504	-4.500000545439744	-4.500000545439744	-4.500000545439744
669	0.068724104151348	-4.500000545439744	-4.500000545439744	-4.500000545439744
670	0.067289122154448	-4.500000545439744	-4.500000545439744	-4.500000545439744
671	0.06880671619902	-4.500000545439744	-4.500000545439744	-4.500000545439744
672	0.071084448370548	-4.500000545439744	-4.500000545439744	-4.500000545439744
673	0.07107479241692401	-4.500000545439744	-4.500000545439744	-4.500000545439744
674	0.068814226385172	-4.500000545439744	-4.500000545439744	-4.500000545439744
675	0.067498870924836	-4.500000545439744	-4.500000545439744	-4.500000545439744
676	0.069115706714988	-4.500000545439744	-4.500000545439744	-4.500000545439744
677	0.071170815511296	-4.500000545439744	-4.500000545439744	-4.500000545439744
678	0.070774384970844	-4.500000545439744	-4.500000545439744	-4.500000545439744
679	0.068312116796724	-4.500000545439744	-4.500000545439744	-4.500000545439744
680	0.067217775386004	-4.500000545439744	-4.500000545439744	-4.500000545439744
681	0.069034167551052	-4.500000545439744	-4.500000545439744	-4.500000545439744
682	0.071331211629828	-4.500000545439744	-4.500000545439744	-4.500000545439744
683	0.071010955834632	-4.500000545439744	-4.500000545439744	-4.500000545439744
684	0.068488069729428	-4.500000545439744	-4.500000545439744	-4.500000545439744
685	0.067248889014348	-4.500000545439744	-4.500000545439744	-4.500000545439744
686	0.068959065689532	-4.500000545439744	-4.500000545439744	-4.500000545439744
687	0.071098932300984	-4.500000545439744	-4.500000545439744	-4.500000545439744
688	0.070885964879388	-4.500000545439744	-4.500000545439744	-4.500000545439744
689	0.068595894544896	-4.500000545439744	-4.500000545439744	-4.500000545439744
690	0.067381926597612	-4.500000545439744	-4.500000545439744	-4.500000545439744
691	0.069071182039944	-4.500000545439744	-4.500000545439744	-4.500000545439744
692	0.071221777488756	-4.500000545439744	-4.500000545439744	-4.500000545439744
693	0.070998617671668	-4.500000545439744	-4.500000545439744	-4.500000545439744
694	0.068595358103028	-4.500000545439744	-4.500000545439744	-4.500000545439744
695	0.067165740524808	-4.500000545439744	-4.500000545439744	-4.500000545439744
696	0.06876701950078801	-4.500000545439744	-4.500000545439744	-4.500000545439744
697	0.071028658416276	-4.500000545439744	-4.500000545439744	-4.500000545439744
698	0.070859142785988	-4.500000545439744	-4.500000545439744	-4.500000545439744
699	0.068555661404796	-4.500000545439744	-4.500000545439744	-4.500000545439744
700	0.067346521434324	-4.500000545439744	-4.500000545439744	-4.500000545439744
701	0.068993934410952	-4.500000545439744	-4.500000545439744	-4.500000545439744
702	0.071134337464272	-4.500000545439744	-4.500000545439744	-4.500000545439744
703	0.070900448809824	-4.500000545439744	-4.500000545439744	-4.500000545439744
704	0.068659731127188	-4.500000545439744	-4.500000545439744	-4.500000545439744
705	0.067454346249792	-4.500000545439744	-4.500000545439744	-4.500000545439744
706	0.068845876455384	-4.500000545439744	-4.500000545439744	-4.500000545439744
707	0.070774384970844	-4.500000545439744	-4.500000545439744	-4.500000545439744
708	0.07057160994474	-4.500000545439744	-4.500000545439744	-4.500000545439744
709	0.068246670888828	-4.500000545439744	-4.500000545439744	-4.500000545439744
710	0.067098685291308	-4.500000545439744	-4.500000545439744	-4.500000545439744
711	0.068862506153292	-4.500000545439744	-4.500000545439744	-4.500000545439744
712	0.070947655694208	-4.500000545439744	-4.500000545439744	-4.500000545439744
713	0.070733078947008	-4.500000545439744	-4.500000545439744	-4.500000545439744
714	0.068483241752616	-4.500000545439744	-4.500000545439744	-4.500000545439744
715	0.067335792596964	-4.500000545439744	-4.500000545439744	-4.500000545439744
716	0.069069036272472	-4.500000545439744	-4.500000545439744	-4.500000545439744
717	0.071193346069752	-4.500000545439744	-4.500000545439744	-4.500000545439744
718	0.070895620833012	-4.500000545439744	-4.500000545439744	-4.500000545439744
719	0.068340548215728	-4.500000545439744	-4.500000545439744	-4.500000545439744
720	0.06706059791868	-4.500000545439744	-4.500000545439744	-4.500000545439744
721	0.06872893212816	-4.500000545439744	-4.500000545439744	-4.500000545439744
722	0.070827492715776	-4.500000545439744	-4.500000545439744	-4.500000545439744
723	0.070625790573408	-4.500000545439744	-4.500000545439744	-4.500000545439744
724	0.068421014495928	-4.500000545439744	-4.500000545439744	-4.500000545439744
725	0.067406066481672	-4.500000545439744	-4.500000545439744	-4.500000545439744
726	0.069161304273768	-4.500000545439744	-4.500000545439744	-4.500000545439744
727	0.071163305325144	-4.500000545439744	-4.500000545439744	-4.500000545439744
728	0.070859142785988	-4.500000545439744	-4.500000545439744	-4.500000545439744
729	0.0683695160766	-4.500000545439744	-4.500000545439744	-4.500000545439744
730	0.067125507384708	-4.500000545439744	-4.500000545439744	-4.500000545439744
731	0.068865188362632	-4.500000545439744	-4.500000545439744	-4.500000545439744
732	0.07110000518472	-4.500000545439744	-4.500000545439744	-4.500000545439744
733	0.070851632599836	-4.500000545439744	-4.500000545439744	-4.500000545439744
734	0.068339475331992	-4.500000545439744	-4.500000545439744	-4.500000545439744
735	0.067227967781496	-4.500000545439744	-4.500000545439744	-4.500000545439744
736	0.069001981038972	-4.500000545439744	-4.500000545439744	-4.500000545439744
737	0.071175643488108	-4.500000545439744	-4.500000545439744	-4.500000545439744
738	0.070786723133808	-4.500000545439744	-4.500000545439744	-4.500000545439744
739	0.068258472609924	-4.500000545439744	-4.500000545439744	-4.500000545439744
740	0.066940434940248	-4.500000545439744	-4.500000545439744	-4.500000545439744
741	0.068681188801908	-4.500000545439744	-4.500000545439744	-4.500000545439744
742	0.070903667461032	-4.500000545439744	-4.500000545439744	-4.500000545439744
743	0.070612915968576	-4.500000545439744	-4.500000545439744	-4.500000545439744
744	0.068209119958068	-4.500000545439744	-4.500000545439744	-4.500000545439744
745	0.067227431339628	-4.500000545439744	-4.500000545439744	-4.500000545439744
746	0.069103904993892	-4.500000545439744	-4.500000545439744	-4.500000545439744
747	0.07120729355832	-4.500000545439744	-4.500000545439744	-4.500000545439744
748	0.070685872062624	-4.500000545439744	-4.500000545439744	-4.500000545439744
749	0.068101831584468	-4.500000545439744	-4.500000545439744	-4.500000545439744
750	0.066984423173424	-4.500000545439744	-4.500000545439744	-4.500000545439744
751	0.068885036711748	-4.500000545439744	-4.500000545439744	-4.500000545439744
752	0.071115561998892	-4.500000545439744	-4.500000545439744	-4.500000545439744
753	0.070801207064244	-4.500000545439744	-4.500000545439744	-4.500000545439744
754	0.068440862845044	-4.500000545439744	-4.500000545439744	-4.500000545439744
755	0.067165740524808	-4.500000545439744	-4.500000545439744	-4.500000545439744
756	0.068858214618348	-4.500000545439744	-4.500000545439744	-4.500000545439744
757	0.07107050088198	-4.500000545439744	-4.500000545439744	-4.500000545439744
758	0.070789405343148	-4.500000545439744	-4.500000545439744	-4.500000545439744
759	0.068290122680136	-4.500000545439744	-4.500000545439744	-4.500000545439744
760	0.066976376545404	-4.500000545439744	-4.500000545439744	-4.500000545439744
761	0.068746634709804	-4.500000545439744	-4.500000545439744	-4.500000545439744
762	0.070836075785664	-4.500000545439744	-4.500000545439744	-4.500000545439744
763	0.070539959874528	-4.500000545439744	-4.500000545439744	-4.500000545439744
764	0.068366297425392	-4.500000545439744	-4.500000545439744	-4.500000545439744
765	0.067432888575072	-4.500000545439744	-4.500000545439744	-4.500000545439744
766	0.06902075650435201	-4.500000545439744	-4.500000545439744	-4.500000545439744
767	0.070915469182128	-4.500000545439744	-4.500000545439744	-4.500000545439744
768	0.070666023713508	-4.500000545439744	-4.500000545439744	-4.500000545439744
769	0.068484314636352	-4.500000545439744	-4.500000545439744	-4.500000545439744
770	0.067448981831112	-4.500000545439744	-4.500000545439744	-4.500000545439744
771	0.069216021344304	-4.500000545439744	-4.500000545439744	-4.500000545439744
772	0.071395584653988	-4.500000545439744	-4.500000545439744	-4.500000545439744
773	0.071072110207584	-4.500000545439744	-4.500000545439744	-4.500000545439744
774	0.068424769589004	-4.500000545439744	-4.500000545439744	-4.500000545439744
775	0.067255862758632	-4.500000545439744	-4.500000545439744	-4.500000545439744
776	0.069119998249932	-4.500000545439744	-4.500000545439744	-4.500000545439744
777	0.071235724977324	-4.500000545439744	-4.500000545439744	-4.500000545439744
778	0.070839294436872	-4.500000545439744	-4.500000545439744	-4.500000545439744
779	0.068328210052764	-4.500000545439744	-4.500000545439744	-4.500000545439744
780	0.067252644107424	-4.500000545439744	-4.500000545439744	-4.500000545439744
781	0.06912321690114	-4.500000545439744	-4.500000545439744	-4.500000545439744
782	0.071267911489404	-4.500000545439744	-4.500000545439744	-4.500000545439744
783	0.0708907928562	-4.500000545439744	-4.500000545439744	-4.500000545439744
784	0.06838560933264	-4.500000545439744	-4.500000545439744	-4.500000545439744
785	0.06712497094284	-4.500000545439744	-4.500000545439744	-4.500000545439744
786	0.068907567270204	-4.500000545439744	-4.500000545439744	-4.500000545439744
787	0.071039923695504	-4.500000545439744	-4.500000545439744	-4.500000545439744
788	0.070698746667456	-4.500000545439744	-4.500000545439744	-4.500000545439744
789	0.068301387959364	-4.500000545439744	-4.500000545439744	-4.500000545439744
790	0.067096003081968	-4.500000545439744	-4.500000545439744	-4.500000545439744
791	0.06880188822220801	-4.500000545439744	-4.500000545439744	-4.500000545439744
792	0.070927807345092	-4.500000545439744	-4.500000545439744	-4.500000545439744
793	0.070626863457144	-4.500000545439744	-4.500000545439744	-4.500000545439744
794	0.068142601166436	-4.500000545439744	-4.500000545439744	-4.500000545439744
795	0.06702572919726	-4.500000545439744	-4.500000545439744	-4.500000545439744
796	0.068920978316904	-4.500000545439744	-4.500000545439744	-4.500000545439744
797	0.071024366881332	-4.500000545439744	-4.500000545439744	-4.500000545439744
798	0.070663341504168	-4.500000545439744	-4.500000545439744	-4.500000545439744
799	0.068240233586412	-4.500000545439744	-4.500000545439744	-4.500000545439744
800	0.06700963594122	-4.500000545439744	-4.500000545439744	-4.500000545439744
801	0.068717666848932	-4.500000545439744	-4.500000545439744	-4.500000545439744
802	0.070873626716424	-4.500000545439744	-4.500000545439744	-4.500000545439744
803	0.070635446527032	-4.500000545439744	-4.500000545439744	-4.500000545439744
804	0.068257399726188	-4.500000545439744	-4.500000545439744	-4.500000545439744
805	0.067133554012728	-4.500000545439744	-4.500000545439744	-4.500000545439744
806	0.068922587642508	-4.500000545439744	-4.500000545439744	-4.500000545439744
807	0.070825346948304	-4.500000545439744	-4.500000545439744	-4.500000545439744
808	0.070318409383044	-4.500000545439744	-4.500000545439744	-4.500000545439744
809	0.06794304479154	-4.500000545439744	-4.500000545439744	-4.500000545439744
810	0.066961892614968	-4.500000545439744	-4.500000545439744	-4.500000545439744
811	0.068947800410304	-4.500000545439744	-4.500000545439744	-4.500000545439744
812	0.071120389975704	-4.500000545439744	-4.500000545439744	-4.500000545439744
813	0.07073522471448	-4.500000545439744	-4.500000545439744	-4.500000545439744
814	0.068149038468852	-4.500000545439744	-4.500000545439744	-4.500000545439744
815	0.0670015893132	-4.500000545439744	-4.500000545439744	-4.500000545439744
816	0.0687047922441	-4.500000545439744	-4.500000545439744	-4.500000545439744
817	0.070698210225588	-4.500000545439744	-4.500000545439744	-4.500000545439744
818	0.070390829035224	-4.500000545439744	-4.500000545439744	-4.500000545439744
819	0.068030484816024	-4.500000545439744	-4.500000545439744	-4.500000545439744
820	0.067061134360548	-4.500000545439744	-4.500000545439744	-4.500000545439744
821	0.068984814899196	-4.500000545439744	-4.500000545439744	-4.500000545439744
822	0.071047433881656	-4.500000545439744	-4.500000545439744	-4.500000545439744
823	0.070419260454228	-4.500000545439744	-4.500000545439744	-4.500000545439744
824	0.067882963302324	-4.500000545439744	-4.500000545439744	-4.500000545439744
825	0.066925414567944	-4.500000545439744	-4.500000545439744	-4.500000545439744
826	0.06892741561932	-4.500000545439744	-4.500000545439744	-4.500000545439744
827	0.071013638043972	-4.500000545439744	-4.500000545439744	-4.500000545439744
828	0.070557126014304	-4.500000545439744	-4.500000545439744	-4.500000545439744
829	0.068146356259512	-4.500000545439744	-4.500000545439744	-4.500000545439744
830	0.067116387872952	-4.500000545439744	-4.500000545439744	-4.500000545439744
831	0.068826564548136	-4.500000545439744	-4.500000545439744	-4.500000545439744
832	0.070792623994356	-4.500000545439744	-4.500000545439744	-4.500000545439744
833	0.0703275288948	-4.500000545439744	-4.500000545439744	-4.500000545439744
834	0.067952164303296	-4.500000545439744	-4.500000545439744	-4.500000545439744
835	0.067002125755068	-4.500000545439744	-4.500000545439744	-4.500000545439744
836	0.06902397515556	-4.500000545439744	-4.500000545439744	-4.500000545439744
837	0.0711724248369	-4.500000545439744	-4.500000545439744	-4.500000545439744
838	0.070707866179212	-4.500000545439744	-4.500000545439744	-4.500000545439744
839	0.068320699866612	-4.500000545439744	-4.500000545439744	-4.500000545439744
840	0.067448445389244	-4.500000545439744	-4.500000545439744	-4.500000545439744
841	0.069227286623532	-4.500000545439744	-4.500000545439744	-4.500000545439744
842	0.071238943628532	-4.500000545439744	-4.500000545439744	-4.500000545439744
843	0.070675143225264	-4.500000545439744	-4.500000545439744	-4.500000545439744
844	0.068116315514904	-4.500000545439744	-4.500000545439744	-4.500000545439744
845	0.066971012126724	-4.500000545439744	-4.500000545439744	-4.500000545439744
846	0.068873234990652	-4.500000545439744	-4.500000545439744	-4.500000545439744
847	0.071071573765716	-4.500000545439744	-4.500000545439744	-4.500000545439744
848	0.07062793634088001	-4.500000545439744	-4.500000545439744	-4.500000545439744
849	0.06811416974743201	-4.500000545439744	-4.500000545439744	-4.500000545439744
850	0.067028947848468	-4.500000545439744	-4.500000545439744	-4.500000545439744
851	0.068960138573268	-4.500000545439744	-4.500000545439744	-4.500000545439744
852	0.07101041939276401	-4.500000545439744	-4.500000545439744	-4.500000545439744
853	0.070448764756968	-4.500000545439744	-4.500000545439744	-4.500000545439744
854	0.067952700745164	-4.500000545439744	-4.500000545439744	-4.500000545439744
855	0.067077227616588	-4.500000545439744	-4.500000545439744	-4.500000545439744
856	0.069068499830604	-4.500000545439744	-4.500000545439744	-4.500000545439744
857	0.07118047146492	-4.500000545439744	-4.500000545439744	-4.500000545439744
858	0.070669778806584	-4.500000545439744	-4.500000545439744	-4.500000545439744
859	0.06806267132810401	-4.500000545439744	-4.500000545439744	-4.500000545439744
860	0.066998370661992	-4.500000545439744	-4.500000545439744	-4.500000545439744
861	0.068806179757152	-4.500000545439744	-4.500000545439744	-4.500000545439744
862	0.070836612227532	-4.500000545439744	-4.500000545439744	-4.500000545439744
863	0.070420869779832	-4.500000545439744	-4.500000545439744	-4.500000545439744
864	0.068069645072388	-4.500000545439744	-4.500000545439744	-4.500000545439744
865	0.0669613561731	-4.500000545439744	-4.500000545439744	-4.500000545439744
866	0.068894156223504	-4.500000545439744	-4.500000545439744	-4.500000545439744
867	0.071056016951544	-4.500000545439744	-4.500000545439744	-4.500000545439744
868	0.070613988852312	-4.500000545439744	-4.500000545439744	-4.500000545439744
869	0.068200000446312	-4.500000545439744	-4.500000545439744	-4.500000545439744
870	0.067123361617236	-4.500000545439744	-4.500000545439744	-4.500000545439744
871	0.068791159384848	-4.500000545439744	-4.500000545439744	-4.500000545439744
872	0.070779212947656	-4.500000545439744	-4.500000545439744	-4.500000545439744
873	0.070147284427152	-4.500000545439744	-4.500000545439744	-4.500000545439744
874	0.067714520555772	-4.500000545439744	-4.500000545439744	-4.500000545439744
875	0.066927023893548	-4.500000545439744	-4.500000545439744	-4.500000545439744
876	0.069081374435436	-4.500000545439744	-4.500000545439744	-4.500000545439744
877	0.071203002023376	-4.500000545439744	-4.500000545439744	-4.500000545439744
878	0.070471295315424	-4.500000545439744	-4.500000545439744	-4.500000545439744
879	0.06788618195353201	-4.500000545439744	-4.500000545439744	-4.500000545439744
880	0.066966184149912	-4.500000545439744	-4.500000545439744	-4.500000545439744
881	0.06895638348019201	-4.500000545439744	-4.500000545439744	-4.500000545439744
882	0.070868262297744	-4.500000545439744	-4.500000545439744	-4.500000545439744
883	0.070263692312508	-4.500000545439744	-4.500000545439744	-4.500000545439744
884	0.067853458999584	-4.500000545439744	-4.500000545439744	-4.500000545439744
885	0.066921659474868	-4.500000545439744	-4.500000545439744	-4.500000545439744
886	0.068914541014488	-4.500000545439744	-4.500000545439744	-4.500000545439744
887	0.070867725855876	-4.500000545439744	-4.500000545439744	-4.500000545439744
888	0.070258864335696	-4.500000545439744	-4.500000545439744	-4.500000545439744
889	0.067971476210544	-4.500000545439744	-4.500000545439744	-4.500000545439744
890	0.067064889453624	-4.500000545439744	-4.500000545439744	-4.500000545439744
891	0.068988569992272	-4.500000545439744	-4.500000545439744	-4.500000545439744
892	0.071096250091644	-4.500000545439744	-4.500000545439744	-4.500000545439744
893	0.07042194266356801	-4.500000545439744	-4.500000545439744	-4.500000545439744
894	0.067763873207628	-4.500000545439744	-4.500000545439744	-4.500000545439744
895	0.066893764497732	-4.500000545439744	-4.500000545439744	-4.500000545439744
896	0.069000908155236	-4.500000545439744	-4.500000545439744	-4.500000545439744
897	0.071113952673288	-4.500000545439744	-4.500000545439744	-4.500000545439744
898	0.070407458733132	-4.500000545439744	-4.500000545439744	-4.500000545439744
899	0.067801424138388	-4.500000545439744	-4.500000545439744	-4.500000545439744
900	0.067053087732528	-4.500000545439744	-4.500000545439744	-4.500000545439744
901	0.069122144017404	-4.500000545439744	-4.500000545439744	-4.500000545439744
902	0.070949265019812	-4.500000545439744	-4.500000545439744	-4.500000545439744
903	0.070195027753404	-4.500000545439744	-4.500000545439744	-4.500000545439744
904	0.067589529600528	-4.500000545439744	-4.500000545439744	-4.500000545439744
905	0.06663680884296	-4.500000545439744	-4.500000545439744	-4.500000545439744
906	0.068647929406092	-4.500000545439744	-4.500000545439744	-4.500000545439744
907	0.07070142887679601	-4.500000545439744	-4.500000545439744	-4.500000545439744
908	0.070186981125384	-4.500000545439744	-4.500000545439744	-4.500000545439744
909	0.067853995441452	-4.500000545439744	-4.500000545439744	-4.500000545439744
910	0.067150183710636	-4.500000545439744	-4.500000545439744	-4.500000545439744
911	0.069231041716608	-4.500000545439744	-4.500000545439744	-4.500000545439744
912	0.071194955395356	-4.500000545439744	-4.500000545439744	-4.500000545439744
913	0.070417114686756	-4.500000545439744	-4.500000545439744	-4.500000545439744
914	0.067701109509072	-4.500000545439744	-4.500000545439744	-4.500000545439744
915	0.066835828775988	-4.500000545439744	-4.500000545439744	-4.500000545439744
916	0.068889328246692	-4.500000545439744	-4.500000545439744	-4.500000545439744
917	0.0709176149496	-4.500000545439744	-4.500000545439744	-4.500000545439744
918	0.070332356871612	-4.500000545439744	-4.500000545439744	-4.500000545439744
919	0.068009563583172	-4.500000545439744	-4.500000545439744	-4.500000545439744
920	0.067113169221744	-4.500000545439744	-4.500000545439744	-4.500000545439744
921	0.068995543736556	-4.500000545439744	-4.500000545439744	-4.500000545439744
922	0.070877918251368	-4.500000545439744	-4.500000545439744	-4.500000545439744
923	0.070174106520552	-4.500000545439744	-4.500000545439744	-4.500000545439744
924	0.067792304626632	-4.500000545439744	-4.500000545439744	-4.500000545439744
925	0.067046650430112	-4.500000545439744	-4.500000545439744	-4.500000545439744
926	0.068856605292744	-4.500000545439744	-4.500000545439744	-4.500000545439744
927	0.070782968040732	-4.500000545439744	-4.500000545439744	-4.500000545439744
928	0.070309289871288	-4.500000545439744	-4.500000545439744	-4.500000545439744
929	0.067895301465288	-4.500000545439744	-4.500000545439744	-4.500000545439744
930	0.067109414128668	-4.500000545439744	-4.500000545439744	-4.500000545439744
931	0.069146820343332	-4.500000545439744	-4.500000545439744	-4.500000545439744
932	0.07118047146492	-4.500000545439744	-4.500000545439744	-4.500000545439744
933	0.070543714967604	-4.500000545439744	-4.500000545439744	-4.500000545439744
934	0.068033167025364	-4.500000545439744	-4.500000545439744	-4.500000545439744
935	0.06728483061950401	-4.500000545439744	-4.500000545439744	-4.500000545439744
936	0.069225677297928	-4.500000545439744	-4.500000545439744	-4.500000545439744
937	0.0711590137902	-4.500000545439744	-4.500000545439744	-4.500000545439744
938	0.070443936780156	-4.500000545439744	-4.500000545439744	-4.500000545439744
939	0.06786043274386801	-4.500000545439744	-4.500000545439744	-4.500000545439744
940	0.066948481568268	-4.500000545439744	-4.500000545439744	-4.500000545439744
941	0.068958529247664	-4.500000545439744	-4.500000545439744	-4.500000545439744
942	0.070878454693236	-4.500000545439744	-4.500000545439744	-4.500000545439744
943	0.070183226032308	-4.500000545439744	-4.500000545439744	-4.500000545439744
944	0.067716129881376	-4.500000545439744	-4.500000545439744	-4.500000545439744
945	0.0670820555934	-4.500000545439744	-4.500000545439744	-4.500000545439744
946	0.06919295434398	-4.500000545439744	-4.500000545439744	-4.500000545439744
947	0.071040460137372	-4.500000545439744	-4.500000545439744	-4.500000545439744
948	0.070299633917664	-4.500000545439744	-4.500000545439744	-4.500000545439744
949	0.067802497022124	-4.500000545439744	-4.500000545439744	-4.500000545439744
950	0.067067035221096	-4.500000545439744	-4.500000545439744	-4.500000545439744
951	0.06907493713302	-4.500000545439744	-4.500000545439744	-4.500000545439744
952	0.070994862578592	-4.500000545439744	-4.500000545439744	-4.500000545439744
953	0.070404240081924	-4.500000545439744	-4.500000545439744	-4.500000545439744
954	0.067950018535824	-4.500000545439744	-4.500000545439744	-4.500000545439744
955	0.067179151571508	-4.500000545439744	-4.500000545439744	-4.500000545439744
956	0.0691875899253	-4.500000545439744	-4.500000545439744	-4.500000545439744
957	0.071069427998244	-4.500000545439744	-4.500000545439744	-4.500000545439744
958	0.070315190731836	-4.500000545439744	-4.500000545439744	-4.500000545439744
959	0.067772992719384	-4.500000545439744	-4.500000545439744	-4.500000545439744
960	0.066990324033972	-4.500000545439744	-4.500000545439744	-4.500000545439744
961	0.069049724365224	-4.500000545439744	-4.500000545439744	-4.500000545439744
962	0.070693918690644	-4.500000545439744	-4.500000545439744	-4.500000545439744
963	0.069795915003612	-4.500000545439744	-4.500000545439744	-4.500000545439744
964	0.067601331321624	-4.500000545439744	-4.500000545439744	-4.500000545439744
965	0.067010708824956	-4.500000545439744	-4.500000545439744	-4.500000545439744
966	0.06900788189952001	-4.500000545439744	-4.500000545439744	-4.500000545439744
967	0.070876308925764	-4.500000545439744	-4.500000545439744	-4.500000545439744
968	0.070158013264512	-4.500000545439744	-4.500000545439744	-4.500000545439744
969	0.06766731367138801	-4.500000545439744	-4.500000545439744	-4.500000545439744
970	0.066871233939276	-4.500000545439744	-4.500000545439744	-4.500000545439744
971	0.06900251748084	-4.500000545439744	-4.500000545439744	-4.500000545439744
972	0.07100612785782	-4.500000545439744	-4.500000545439744	-4.500000545439744
973	0.070323237359856	-4.500000545439744	-4.500000545439744	-4.500000545439744
974	0.067697890857864	-4.500000545439744	-4.500000545439744	-4.500000545439744
975	0.066966184149912	-4.500000545439744	-4.500000545439744	-4.500000545439744
976	0.069125362668612	-4.500000545439744	-4.500000545439744	-4.500000545439744
977	0.070882209786312	-4.500000545439744	-4.500000545439744	-4.500000545439744
978	0.069974013703788	-4.500000545439744	-4.500000545439744	-4.500000545439744
979	0.067551978669768	-4.500000545439744	-4.500000545439744	-4.500000545439744
980	0.0669345340797	-4.500000545439744	-4.500000545439744	-4.500000545439744
981	0.068988569992272	-4.500000545439744	-4.500000545439744	-4.500000545439744
982	0.070798524854904	-4.500000545439744	-4.500000545439744	-4.500000545439744
983	0.070005127332132	-4.500000545439744	-4.500000545439744	-4.500000545439744
984	0.067620643228872	-4.500000545439744	-4.500000545439744	-4.500000545439744
985	0.067000516429464	-4.500000545439744	-4.500000545439744	-4.500000545439744
986	0.069104977877628	-4.500000545439744	-4.500000545439744	-4.500000545439744
987	0.071012028718368	-4.500000545439744	-4.500000545439744	-4.500000545439744
988	0.070262619428772	-4.500000545439744	-4.500000545439744	-4.500000545439744
989	0.067775674928724	-4.500000545439744	-4.500000545439744	-4.500000545439744
990	0.067135163338332	-4.500000545439744	-4.500000545439744	-4.500000545439744
991	0.069395192928216	-4.500000545439744	-4.500000545439744	-4.500000545439744
992	0.071282931861708	-4.500000545439744	-4.500000545439744	-4.500000545439744
993	0.070494362315748	-4.500000545439744	-4.500000545439744	-4.500000545439744
994	0.067974158419884	-4.500000545439744	-4.500000545439744	-4.500000545439744
995	0.067207046548644	-4.500000545439744	-4.500000545439744	-4.500000545439744
996	0.069200464530132	-4.500000545439744	-4.500000545439744	-4.500000545439744
997	0.071053334742204	-4.500000545439744	-4.500000545439744	-4.500000545439744
998	0.070379563755996	-4.500000545439744	-4.500000545439744	-4.500000545439744
999	0.06799132455966	-4.500000545439744	-4.500000545439744	-4.500000545439744
1000	0.067214020292928	-4.500000545439744	-4.500000545439744	-4.500000545439744
1001	0.069226750181664	-4.500000545439744	-4.500000545439744	-4.500000545439744
1002	0.070994862578592	-4.500000545439744	-4.500000545439744	-4.500000545439744
1003	0.070121535217488	-4.500000545439744	-4.500000545439744	-4.500000545439744
1004	0.067726858718736	-4.500000545439744	-4.500000545439744	-4.500000545439744
1005	0.067343302783116	-4.500000545439744	-4.500000545439744	-4.500000545439744
1006	0.069685407978804	-4.500000545439744	-4.500000545439744	-4.500000545439744
1007	0.071546324818896	-4.500000545439744	-4.500000545439744	-4.500000545439744
1008	0.070435353710268	-4.500000545439744	-4.500000545439744	-4.500000545439744
1009	0.067881890418588	-4.500000545439744	-4.500000545439744	-4.500000545439744
1010	0.067359932481024	-4.500000545439744	-4.500000545439744	-4.500000545439744
1011	0.069494971115664	-4.500000545439744	-4.500000545439744	-4.500000545439744
1012	0.071160623115804	-4.500000545439744	-4.500000545439744	-4.500000545439744
1013	0.070164450566928	-4.500000545439744	-4.500000545439744	-4.500000545439744
1014	0.067488678529344	-4.500000545439744	-4.500000545439744	-4.500000545439744
1015	0.066769846426224	-4.500000545439744	-4.500000545439744	-4.500000545439744
1016	0.068912931688884	-4.500000545439744	-4.500000545439744	-4.500000545439744
1017	0.070882209786312	-4.500000545439744	-4.500000545439744	-4.500000545439744
1018	0.0701531852877	-4.500000545439744	-4.500000545439744	-4.500000545439744
1019	0.06774187909104	-4.500000545439744	-4.500000545439744	-4.500000545439744
1020	0.067106731919328	-4.500000545439744	-4.500000545439744	-4.500000545439744
1021	0.06916613225058	-4.500000545439744	-4.500000545439744	-4.500000545439744
1022	0.070975550671344	-4.500000545439744	-4.500000545439744	-4.500000545439744
1023	0.070066818146952	-4.500000545439744	-4.500000545439744	-4.500000545439744
1024	0.06755948885592	-4.500000545439744	-4.500000545439744	-4.500000545439744
1025	0.06687284326488	-4.500000545439744	-4.500000545439744	-4.500000545439744
1026	0.068973549619968	-4.500000545439744	-4.500000545439744	-4.500000545439744
1027	0.070706256853608	-4.500000545439744	-4.500000545439744	-4.500000545439744
1028	0.069854923609092	-4.500000545439744	-4.500000545439744	-4.500000545439744
1029	0.067550369344164	-4.500000545439744	-4.500000545439744	-4.500000545439744
1030	0.067054160616264	-4.500000545439744	-4.500000545439744	-4.500000545439744
1031	0.06913931015718	-4.500000545439744	-4.500000545439744	-4.500000545439744
1032	0.071100541626588	-4.500000545439744	-4.500000545439744	-4.500000545439744
1033	0.070302316127004	-4.500000545439744	-4.500000545439744	-4.500000545439744
1034	0.067830928441128	-4.500000545439744	-4.500000545439744	-4.500000545439744
1035	0.067340620573776	-4.500000545439744	-4.500000545439744	-4.500000545439744
1036	0.06968916307188	-4.500000545439744	-4.500000545439744	-4.500000545439744
1037	0.071654686076232	-4.500000545439744	-4.500000545439744	-4.500000545439744
1038	0.070702501760532	-4.500000545439744	-4.500000545439744	-4.500000545439744
1039	0.067968794001204	-4.500000545439744	-4.500000545439744	-4.500000545439744
1040	0.067115851431084	-4.500000545439744	-4.500000545439744	-4.500000545439744
1041	0.06916237715750401	-4.500000545439744	-4.500000545439744	-4.500000545439744
1042	0.071170279069428	-4.500000545439744	-4.500000545439744	-4.500000545439744
1043	0.07035756963940801	-4.500000545439744	-4.500000545439744	-4.500000545439744
1044	0.067609914391512	-4.500000545439744	-4.500000545439744	-4.500000545439744
1045	0.066892691613996	-4.500000545439744	-4.500000545439744	-4.500000545439744
1046	0.068842657804176	-4.500000545439744	-4.500000545439744	-4.500000545439744
1047	0.070442327454552	-4.500000545439744	-4.500000545439744	-4.500000545439744
1048	0.069655367234196	-4.500000545439744	-4.500000545439744	-4.500000545439744
1049	0.067352422294872	-4.500000545439744	-4.500000545439744	-4.500000545439744
1050	0.066935070521568	-4.500000545439744	-4.500000545439744	-4.500000545439744
1051	0.069168278018052	-4.500000545439744	-4.500000545439744	-4.500000545439744
1052	0.071002909206612	-4.500000545439744	-4.500000545439744	-4.500000545439744
1053	0.07005394354212	-4.500000545439744	-4.500000545439744	-4.500000545439744
1054	0.067491360738684	-4.500000545439744	-4.500000545439744	-4.500000545439744
1055	0.067041286011432	-4.500000545439744	-4.500000545439744	-4.500000545439744
1056	0.069336720764604	-4.500000545439744	-4.500000545439744	-4.500000545439744
1057	0.071216949511944	-4.500000545439744	-4.500000545439744	-4.500000545439744
1058	0.070251890591412	-4.500000545439744	-4.500000545439744	-4.500000545439744
1059	0.067720957858188	-4.500000545439744	-4.500000545439744	-4.500000545439744
1060	0.066973157894196	-4.500000545439744	-4.500000545439744	-4.500000545439744
1061	0.069028803132372	-4.500000545439744	-4.500000545439744	-4.500000545439744
1062	0.07082910204138	-4.500000545439744	-4.500000545439744	-4.500000545439744
1063	0.070031412983664	-4.500000545439744	-4.500000545439744	-4.500000545439744
1064	0.067616351693928	-4.500000545439744	-4.500000545439744	-4.500000545439744
1065	0.067039676685828	-4.500000545439744	-4.500000545439744	-4.500000545439744
1066	0.069047042155884	-4.500000545439744	-4.500000545439744	-4.500000545439744
1067	0.070608624433632	-4.500000545439744	-4.500000545439744	-4.500000545439744
1068	0.069677361350784	-4.500000545439744	-4.500000545439744	-4.500000545439744
1069	0.067281075526428	-4.500000545439744	-4.500000545439744	-4.500000545439744
1070	0.066729613286124	-4.500000545439744	-4.500000545439744	-4.500000545439744
1071	0.068906494386468	-4.500000545439744	-4.500000545439744	-4.500000545439744
1072	0.070757218831068	-4.500000545439744	-4.500000545439744	-4.500000545439744
1073	0.069823809980748	-4.500000545439744	-4.500000545439744	-4.500000545439744
1074	0.067292877247524	-4.500000545439744	-4.500000545439744	-4.500000545439744
1075	0.06682992791544	-4.500000545439744	-4.500000545439744	-4.500000545439744
1076	0.06911087873817601	-4.500000545439744	-4.500000545439744	-4.500000545439744
1077	0.070915469182128	-4.500000545439744	-4.500000545439744	-4.500000545439744
1078	0.069991716285432	-4.500000545439744	-4.500000545439744	-4.500000545439744
1079	0.067702718834676	-4.500000545439744	-4.500000545439744	-4.500000545439744
1080	0.067298241666204	-4.500000545439744	-4.500000545439744	-4.500000545439744
1081	0.069450982882488	-4.500000545439744	-4.500000545439744	-4.500000545439744
1082	0.071243235163476	-4.500000545439744	-4.500000545439744	-4.500000545439744
1083	0.070261010103168	-4.500000545439744	-4.500000545439744	-4.500000545439744
1084	0.06758899315866	-4.500000545439744	-4.500000545439744	-4.500000545439744
1085	0.067020901220448	-4.500000545439744	-4.500000545439744	-4.500000545439744
1086	0.069367834392948	-4.500000545439744	-4.500000545439744	-4.500000545439744
1087	0.071132728138668	-4.500000545439744	-4.500000545439744	-4.500000545439744
1088	0.070102759752108	-4.500000545439744	-4.500000545439744	-4.500000545439744
1089	0.067648538206008	-4.500000545439744	-4.500000545439744	-4.500000545439744
1090	0.067105122593724	-4.500000545439744	-4.500000545439744	-4.500000545439744
1091	0.069291123205824	-4.500000545439744	-4.500000545439744	-4.500000545439744
1092	0.071117707766364	-4.500000545439744	-4.500000545439744	-4.500000545439744
1093	0.070057162193328	-4.500000545439744	-4.500000545439744	-4.500000545439744
1094	0.067518182832084	-4.500000545439744	-4.500000545439744	-4.500000545439744
1095	0.067075618290984	-4.500000545439744	-4.500000545439744	-4.500000545439744
1096	0.069311507996808	-4.500000545439744	-4.500000545439744	-4.500000545439744
1097	0.0710517254166	-4.500000545439744	-4.500000545439744	-4.500000545439744
1098	0.070125290310564	-4.500000545439744	-4.500000545439744	-4.500000545439744
1099	0.06760669574030401	-4.500000545439744	-4.500000545439744	-4.500000545439744
1100	0.067102976826252	-4.500000545439744	-4.500000545439744	-4.500000545439744
1101	0.069299169833844	-4.500000545439744	-4.500000545439744	-4.500000545439744
1102	0.07101953890452	-4.500000545439744	-4.500000545439744	-4.500000545439744
1103	0.069996544262244	-4.500000545439744	-4.500000545439744	-4.500000545439744
1104	0.067432888575072	-4.500000545439744	-4.500000545439744	-4.500000545439744
1105	0.066943653591456	-4.500000545439744	-4.500000545439744	-4.500000545439744
1106	0.069127508436084	-4.500000545439744	-4.500000545439744	-4.500000545439744
1107	0.071053334742204	-4.500000545439744	-4.500000545439744	-4.500000545439744
1108	0.070332356871612	-4.500000545439744	-4.500000545439744	-4.500000545439744
1109	0.068084665444692	-4.500000545439744	-4.500000545439744	-4.500000545439744
1110	0.067629762740628	-4.500000545439744	-4.500000545439744	-4.500000545439744
1111	0.06963283667574	-4.500000545439744	-4.500000545439744	-4.500000545439744
1112	0.071203538465244	-4.500000545439744	-4.500000545439744	-4.500000545439744
1113	0.070028730774324	-4.500000545439744	-4.500000545439744	-4.500000545439744
1114	0.067455419133528	-4.500000545439744	-4.500000545439744	-4.500000545439744
1115	0.067160376106128	-4.500000545439744	-4.500000545439744	-4.500000545439744
1116	0.069338330090208	-4.500000545439744	-4.500000545439744	-4.500000545439744
1117	0.070890256414332	-4.500000545439744	-4.500000545439744	-4.500000545439744
1118	0.069853850725356	-4.500000545439744	-4.500000545439744	-4.500000545439744
1119	0.067428597040128	-4.500000545439744	-4.500000545439744	-4.500000545439744
1120	0.067050941965056	-4.500000545439744	-4.500000545439744	-4.500000545439744
1121	0.069285222345276	-4.500000545439744	-4.500000545439744	-4.500000545439744
1122	0.070986815950572	-4.500000545439744	-4.500000545439744	-4.500000545439744
1123	0.069883891469964	-4.500000545439744	-4.500000545439744	-4.500000545439744
1124	0.067371197760252	-4.500000545439744	-4.500000545439744	-4.500000545439744
1125	0.066937752730908	-4.500000545439744	-4.500000545439744	-4.500000545439744
1126	0.06926161890308401	-4.500000545439744	-4.500000545439744	-4.500000545439744
1127	0.071104833161532	-4.500000545439744	-4.500000545439744	-4.500000545439744
1128	0.070043751146628	-4.500000545439744	-4.500000545439744	-4.500000545439744
1129	0.067678042508748	-4.500000545439744	-4.500000545439744	-4.500000545439744
1130	0.067408212249144	-4.500000545439744	-4.500000545439744	-4.500000545439744
1131	0.069785186166252	-4.500000545439744	-4.500000545439744	-4.500000545439744
1132	0.071587630842732	-4.500000545439744	-4.500000545439744	-4.500000545439744
1133	0.070278712684812	-4.500000545439744	-4.500000545439744	-4.500000545439744
1134	0.067432888575072	-4.500000545439744	-4.500000545439744	-4.500000545439744
1135	0.066909321311904	-4.500000545439744	-4.500000545439744	-4.500000545439744
1136	0.069438644719524	-4.500000545439744	-4.500000545439744	-4.500000545439744
1137	0.071315118373788	-4.500000545439744	-4.500000545439744	-4.500000545439744
1138	0.07015854970638	-4.500000545439744	-4.500000545439744	-4.500000545439744
1139	0.067301460317412	-4.500000545439744	-4.500000545439744	-4.500000545439744
1140	0.06666094872702	-4.500000545439744	-4.500000545439744	-4.500000545439744
1141	0.069020220062484	-4.500000545439744	-4.500000545439744	-4.500000545439744
1142	0.070855387692912	-4.500000545439744	-4.500000545439744	-4.500000545439744
1143	0.06979376923614	-4.500000545439744	-4.500000545439744	-4.500000545439744
1144	0.067258008526104	-4.500000545439744	-4.500000545439744	-4.500000545439744
1145	0.066850312706424	-4.500000545439744	-4.500000545439744	-4.500000545439744
1146	0.069126435552348	-4.500000545439744	-4.500000545439744	-4.500000545439744
1147	0.070970722694532	-4.500000545439744	-4.500000545439744	-4.500000545439744
1148	0.069887110121172	-4.500000545439744	-4.500000545439744	-4.500000545439744
1149	0.067313262038508	-4.500000545439744	-4.500000545439744	-4.500000545439744
1150	0.066963501940572	-4.500000545439744	-4.500000545439744	-4.500000545439744
1151	0.06931633597362	-4.500000545439744	-4.500000545439744	-4.500000545439744
1152	0.070942291275528	-4.500000545439744	-4.500000545439744	-4.500000545439744
1153	0.06987423551634	-4.500000545439744	-4.500000545439744	-4.500000545439744
1154	0.067578800763168	-4.500000545439744	-4.500000545439744	-4.500000545439744
1155	0.067158766780524	-4.500000545439744	-4.500000545439744	-4.500000545439744
1156	0.069607623907944	-4.500000545439744	-4.500000545439744	-4.500000545439744
1157	0.071414896561236	-4.500000545439744	-4.500000545439744	-4.500000545439744
1158	0.07013440982232	-4.500000545439744	-4.500000545439744	-4.500000545439744
1159	0.06752193792516	-4.500000545439744	-4.500000545439744	-4.500000545439744
1160	0.067219384711608	-4.500000545439744	-4.500000545439744	-4.500000545439744
1161	0.069456347301168	-4.500000545439744	-4.500000545439744	-4.500000545439744
1162	0.070993253252988	-4.500000545439744	-4.500000545439744	-4.500000545439744
1163	0.069895156749192	-4.500000545439744	-4.500000545439744	-4.500000545439744
1164	0.067485996320004	-4.500000545439744	-4.500000545439744	-4.500000545439744
1165	0.067113169221744	-4.500000545439744	-4.500000545439744	-4.500000545439744
1166	0.069369443718552	-4.500000545439744	-4.500000545439744	-4.500000545439744
1167	0.071050652532864	-4.500000545439744	-4.500000545439744	-4.500000545439744
1168	0.069858678702168	-4.500000545439744	-4.500000545439744	-4.500000545439744
1169	0.067292340805656	-4.500000545439744	-4.500000545439744	-4.500000545439744
1170	0.066919513707396	-4.500000545439744	-4.500000545439744	-4.500000545439744
1171	0.069323846159772	-4.500000545439744	-4.500000545439744	-4.500000545439744
1172	0.071112879789552	-4.500000545439744	-4.500000545439744	-4.500000545439744
1173	0.06991715086578	-4.500000545439744	-4.500000545439744	-4.500000545439744
1174	0.067238160176988	-4.500000545439744	-4.500000545439744	-4.500000545439744
1175	0.066871233939276	-4.500000545439744	-4.500000545439744	-4.500000545439744
1176	0.069371589486024	-4.500000545439744	-4.500000545439744	-4.500000545439744
1177	0.071287223396652	-4.500000545439744	-4.500000545439744	-4.500000545439744
1178	0.070137628473528	-4.500000545439744	-4.500000545439744	-4.500000545439744
1179	0.067395337644312	-4.500000545439744	-4.500000545439744	-4.500000545439744
1180	0.06700534440627601	-4.500000545439744	-4.500000545439744	-4.500000545439744
1181	0.069352814020644	-4.500000545439744	-4.500000545439744	-4.500000545439744
1182	0.071062990695828	-4.500000545439744	-4.500000545439744	-4.500000545439744
1183	0.069926270377536	-4.500000545439744	-4.500000545439744	-4.500000545439744
1184	0.067511745529668	-4.500000545439744	-4.500000545439744	-4.500000545439744
1185	0.067212947409192	-4.500000545439744	-4.500000545439744	-4.500000545439744
1186	0.069430598091504	-4.500000545439744	-4.500000545439744	-4.500000545439744
1187	0.070779749389524	-4.500000545439744	-4.500000545439744	-4.500000545439744
1188	0.069450982882488	-4.500000545439744	-4.500000545439744	-4.500000545439744
1189	0.066920050149264	-4.500000545439744	-4.500000545439744	-4.500000545439744
1190	0.066706009843932	-4.500000545439744	-4.500000545439744	-4.500000545439744
1191	0.069127508436084	-4.500000545439744	-4.500000545439744	-4.500000545439744
1192	0.07088542843752	-4.500000545439744	-4.500000545439744	-4.500000545439744
1193	0.069808789608444	-4.500000545439744	-4.500000545439744	-4.500000545439744
1194	0.067322381550264	-4.500000545439744	-4.500000545439744	-4.500000545439744
1195	0.067123898059104	-4.500000545439744	-4.500000545439744	-4.500000545439744
1196	0.069518038115988	-4.500000545439744	-4.500000545439744	-4.500000545439744
1197	0.071076401742528	-4.500000545439744	-4.500000545439744	-4.500000545439744
1198	0.069584020465752	-4.500000545439744	-4.500000545439744	-4.500000545439744
1199	0.067021437662316	-4.500000545439744	-4.500000545439744	-4.500000545439744
1200	0.067016073243636	-4.500000545439744	-4.500000545439744	-4.500000545439744
1201	0.069498189766872	-4.500000545439744	-4.500000545439744	-4.500000545439744
1202	0.071027049090672	-4.500000545439744	-4.500000545439744	-4.500000545439744
1203	0.06983936679492	-4.500000545439744	-4.500000545439744	-4.500000545439744
1204	0.0672832212939	-4.500000545439744	-4.500000545439744	-4.500000545439744
1205	0.066737659914144	-4.500000545439744	-4.500000545439744	-4.500000545439744
1206	0.068976768271176	-4.500000545439744	-4.500000545439744	-4.500000545439744
1207	0.070558735339908	-4.500000545439744	-4.500000545439744	-4.500000545439744
1208	0.069358178439324	-4.500000545439744	-4.500000545439744	-4.500000545439744
1209	0.067105122593724	-4.500000545439744	-4.500000545439744	-4.500000545439744
1210	0.067105122593724	-4.500000545439744	-4.500000545439744	-4.500000545439744
1211	0.069521256767196	-4.500000545439744	-4.500000545439744	-4.500000545439744
1212	0.071123608626912	-4.500000545439744	-4.500000545439744	-4.500000545439744
1213	0.069803961631632	-4.500000545439744	-4.500000545439744	-4.500000545439744
1214	0.06729770522433601	-4.500000545439744	-4.500000545439744	-4.500000545439744
1215	0.067098685291308	-4.500000545439744	-4.500000545439744	-4.500000545439744
1216	0.069475122766548	-4.500000545439744	-4.500000545439744	-4.500000545439744
1217	0.071102150952192	-4.500000545439744	-4.500000545439744	-4.500000545439744
1218	0.069714912281544	-4.500000545439744	-4.500000545439744	-4.500000545439744
1219	0.067035921592752	-4.500000545439744	-4.500000545439744	-4.500000545439744
1220	0.066689380146024	-4.500000545439744	-4.500000545439744	-4.500000545439744
1221	0.069097467691476	-4.500000545439744	-4.500000545439744	-4.500000545439744
1222	0.070878454693236	-4.500000545439744	-4.500000545439744	-4.500000545439744
1223	0.069778748863836	-4.500000545439744	-4.500000545439744	-4.500000545439744
1224	0.067306288294224	-4.500000545439744	-4.500000545439744	-4.500000545439744
1225	0.066959210405628	-4.500000545439744	-4.500000545439744	-4.500000545439744
1226	0.0692412341121	-4.500000545439744	-4.500000545439744	-4.500000545439744
1227	0.07080764436666	-4.500000545439744	-4.500000545439744	-4.500000545439744
1228	0.069476732092152	-4.500000545439744	-4.500000545439744	-4.500000545439744
1229	0.066939362056512	-4.500000545439744	-4.500000545439744	-4.500000545439744
1230	0.066836901659724	-4.500000545439744	-4.500000545439744	-4.500000545439744
1231	0.069431134533372	-4.500000545439744	-4.500000545439744	-4.500000545439744
1232	0.07113755611548	-4.500000545439744	-4.500000545439744	-4.500000545439744
1233	0.069752463212304	-4.500000545439744	-4.500000545439744	-4.500000545439744
1234	0.067067035221096	-4.500000545439744	-4.500000545439744	-4.500000545439744
1235	0.06692648745168	-4.500000545439744	-4.500000545439744	-4.500000545439744
1236	0.06943435318458	-4.500000545439744	-4.500000545439744	-4.500000545439744
1237	0.071260401303252	-4.500000545439744	-4.500000545439744	-4.500000545439744
1238	0.069821664213276	-4.500000545439744	-4.500000545439744	-4.500000545439744
1239	0.067038603802092	-4.500000545439744	-4.500000545439744	-4.500000545439744
1240	0.066814907543136	-4.500000545439744	-4.500000545439744	-4.500000545439744
1241	0.069376417462836	-4.500000545439744	-4.500000545439744	-4.500000545439744
1242	0.07119978337216801	-4.500000545439744	-4.500000545439744	-4.500000545439744
1243	0.069838830353052	-4.500000545439744	-4.500000545439744	-4.500000545439744
1244	0.067067571662964	-4.500000545439744	-4.500000545439744	-4.500000545439744
1245	0.066825636380496	-4.500000545439744	-4.500000545439744	-4.500000545439744
1246	0.06921172980936	-4.500000545439744	-4.500000545439744	-4.500000545439744
1247	0.070871480948952	-4.500000545439744	-4.500000545439744	-4.500000545439744
1248	0.069574364512128	-4.500000545439744	-4.500000545439744	-4.500000545439744
1249	0.067008563057484	-4.500000545439744	-4.500000545439744	-4.500000545439744
1250	0.066831537241044	-4.500000545439744	-4.500000545439744	-4.500000545439744
1251	0.069514283022912	-4.500000545439744	-4.500000545439744	-4.500000545439744
1252	0.071408995700688	-4.500000545439744	-4.500000545439744	-4.500000545439744
1253	0.070027657890588	-4.500000545439744	-4.500000545439744	-4.500000545439744
1254	0.06711692431482	-4.500000545439744	-4.500000545439744	-4.500000545439744
1255	0.066895373823336	-4.500000545439744	-4.500000545439744	-4.500000545439744
1256	0.06954432376752	-4.500000545439744	-4.500000545439744	-4.500000545439744
1257	0.07137627274674	-4.500000545439744	-4.500000545439744	-4.500000545439744
1258	0.069963284866428	-4.500000545439744	-4.500000545439744	-4.500000545439744
1259	0.067218311827872	-4.500000545439744	-4.500000545439744	-4.500000545439744
1260	0.06714374640822	-4.500000545439744	-4.500000545439744	-4.500000545439744
1261	0.069612451884756	-4.500000545439744	-4.500000545439744	-4.500000545439744
1262	0.071215876628208	-4.500000545439744	-4.500000545439744	-4.500000545439744
1263	0.069743343700548	-4.500000545439744	-4.500000545439744	-4.500000545439744
1264	0.067003735080672	-4.500000545439744	-4.500000545439744	-4.500000545439744
